svm_type c_svc
kernel_type rbf
gamma 8
nr_class 8
total_sv 11454
rho -0.895003 -4.25587 -13.2532 33.5953 15.9123 13.5341 4.17216 13.7133 3.24016 9.4957 7.69278 13.2112 0.74266 -12.6588 6.16256 10.6574 -5.04049 2.93059 -4.66486 23.1001 3.4322 4.07243 -7.81795 -0.223202 5.05964 -8.03844 -12.4752 -6.65844
label 11 13 12 14 23 22 24 21
probA -1.60661 -1.65076 -0.95005 -1.17221 -1.50456 -0.792958 -0.877684 -1.47703 -0.48071 -2.20751 -1.92947 -1.20728 -1.1394 -0.550619 -1.60869 -1.30003 -1.47641 -0.557858 -1.71758 -1.28308 -1.32554 -0.747279 -0.323002 -0.462916 -2.17211 -0.595408 -1.87716 -1.92782
probB 0.559334 0.0616259 0.00528784 -0.073674 -0.00153762 -0.792625 -2.38602 0.113532 -0.92642 -0.511877 -0.679444 -1.89168 -2.15636 -0.739109 0.110996 0.091076 -0.617707 -2.78924 0.172141 0.160082 -0.413428 -1.62248 0.0471929 -0.489918 0.0701982 -0.611216 -0.251233 0.260029
nr_sv 621 1585 2114 880 2387 2476 1048 343
SV
0 32768 0 32768 32768 32768 32768 1:-0.767809 2:-0.628619 3:-0.967466 4:-0.762012 
0 32768 32768 32768 32768 32768 0 1:-0.659565 2:-0.508134 3:-0.935327 4:-0.654584 
0 32768 11512.83697514223 32768 32768 32768 0 1:-0.545199 2:-0.261427 3:-0.882258 4:-0.556655 
0 0 0 32768 32768 32768 0 1:-0.739624 2:-0.771606 3:-0.963162 4:-0.720895 
0 32768 0 32768 32768 32768 0 1:-0.726921 2:-0.744531 3:-0.959669 4:-0.708688 
0 0 0 32768 0 32768 0 1:-0.75836 2:-0.824725 3:-0.968108 4:-0.738483 
0 0 0 32768 32768 32768 0 1:-0.762323 2:-0.825094 3:-0.968992 4:-0.742792 
0 0 0 32768 32768 32768 0 1:-0.751353 2:-0.806646 3:-0.966331 4:-0.731748 
0 0 0 32768 32768 32768 26931.66298343562 1:-0.778413 2:-0.828382 3:-0.972456 4:-0.760314 
0 0 0 32768 32768 32768 0 1:-0.8002 2:-0.87582 3:-0.977168 4:-0.782048 
0 0 0 27324.77852496965 0 32768 0 1:-0.810652 2:-0.911693 3:-0.979329 4:-0.792144 
0 0 0 0 0 29404.29549883764 0 1:-0.814283 2:-0.935579 3:-0.980101 4:-0.795347 
0 171.0560595103105 0 5254.683493421418 32768 1299.873999380734 1772.810432759034 1:-0.578535 2:0.123661 3:-0.87047 4:-0.639249 
12217.33492040183 32768 32768 0 32768 0 0 1:-0.220675 2:0.0450625 3:-0.669856 4:-0.250873 
28793.19232049291 32768 32768 32768 32768 0 0 1:-0.335973 2:-0.0846094 3:-0.760676 4:-0.354933 
0 32768 885.8088515720425 32768 32768 32768 0 1:-0.666051 2:-0.53777 3:-0.938239 4:-0.658735 
0 0 0 32768 32768 32768 0 1:-0.757757 2:-0.801318 3:-0.967724 4:-0.739042 
0 0 0 32768 32768 32768 0 1:-0.73142 2:-0.761044 3:-0.961034 4:-0.71247 
0 6874.239255154353 0 32768 32768 32768 0 1:-0.709825 2:-0.72952 3:-0.955059 4:-0.690819 
0 32768 0 32768 32768 32768 0 1:-0.735868 2:-0.743673 3:-0.961862 4:-0.71853 
32768 32768 32768 0 0 0 32768 1:-0.459209 2:-0.666382 3:-0.863397 4:-0.420203 
32768 32768 32768 32768 32768 0 0 1:-0.479349 2:-0.465177 3:-0.864167 4:-0.462048 
32768 32768 32768 32768 32768 0 0 1:-0.401973 2:-0.456505 3:-0.82624 4:-0.378225 
0 32768 0 32768 32768 0 32768 1:-0.578832 2:-0.510575 3:-0.907494 4:-0.565426 
0 0 0 32768 0 32768 0 1:-0.722594 2:-0.787716 3:-0.959204 4:-0.701222 
0 32768 0 32768 32768 32768 0 1:-0.750284 2:-0.758538 3:-0.965495 4:-0.73341 
0 32768 0 32768 32768 32768 0 1:-0.721854 2:-0.735091 3:-0.958255 4:-0.703731 
0 0 0 0 0 32768 0 1:-0.705631 2:-0.8968 3:-0.956078 4:-0.677242 
0 32768 0 32768 32768 32768 0 1:-0.587604 2:-0.352579 3:-0.904156 4:-0.591903 
32768 32768 14903.28383334852 32768 32768 32768 0 1:-0.415218 2:-0.252318 3:-0.819862 4:-0.415504 
0 0 0 32768 32768 0 0 1:-0.589698 2:-0.182157 3:-0.896095 4:-0.613615 
0 0 0 32768 32768 32768 0 1:-0.787089 2:-0.84815 3:-0.974398 4:-0.768894 
0 0 0 0 0 32768 0 1:-0.799273 2:-0.899419 3:-0.977151 4:-0.780085 
0 0 0 32768 32768 32768 32768 1:-0.79541 2:-0.856471 3:-0.976104 4:-0.777653 
0 0 0 32768 32768 32768 0 1:-0.708902 2:-0.735811 3:-0.954911 4:-0.689401 
0 0 0 32768 32768 32768 0 1:-0.621978 2:-0.807277 3:-0.930455 4:-0.589499 
0 32768 0 32768 32768 32768 0 1:-0.673404 2:-0.636639 3:-0.943038 4:-0.657924 
0 0 0 32768 32768 32768 0 1:-0.776815 2:-0.83752 3:-0.97221 4:-0.758093 
0 0 0 32768 0 32768 0 1:-0.783735 2:-0.87506 3:-0.973945 4:-0.763972 
0 0 0 32768 0 32768 0 1:-0.780836 2:-0.873109 3:-0.973341 4:-0.760868 
32768 32768 37.98978837147759 122.1846961190785 1453.675050710355 61.45347213014608 4.31366502647341 1:0.174496 2:-0.190724 3:-0.369962 4:0.216783 
32768 12545.83535891011 4149.332643882251 2992.202067656065 0 0 0.08953604785978675 1:0.0217893 2:0.0215096 3:-0.478856 4:0.0191467 
0 4642.229134488863 0 0 32768 0 127.0606957729522 1:-0.305225 2:0.197938 3:-0.708307 4:-0.357308 
0 32768 0 32768 32768 32768 0 1:-0.71009 2:-0.712675 3:-0.954843 4:-0.692321 
0 32768 0 32768 31669.72770456122 32768 0 1:-0.642776 2:-0.845096 3:-0.937624 4:-0.610377 
0 32768 0 32768 32768 32768 0 1:-0.700728 2:-0.704145 3:-0.952185 4:-0.682685 
0 0 0 32768 32768 32768 0 1:-0.748501 2:-0.777564 3:-0.965327 4:-0.730291 
0 3506.002335227808 0 32768 32768 32768 32768 1:-0.772922 2:-0.760626 3:-0.970563 4:-0.758133 
0 32768 0 32768 32768 32768 32768 1:-0.751174 2:-0.734349 3:-0.965364 4:-0.735959 
0 32768 0 32768 32768 0 421.6929428347667 1:-0.582392 2:-0.496439 3:-0.908299 4:-0.570643 
0 0 0 32768 0 26611.92649131407 0 1:-0.749144 2:-0.841389 3:-0.966202 4:-0.727469 
0 0 0 0 0 25830.0109047175 0 1:-0.781081 2:-0.993551 3:-0.974053 4:-0.757394 
0 0 0 0 0 32768 0 1:-0.784736 2:-0.887084 3:-0.974233 4:-0.764582 
0 32768 0 32768 32768 32768 4323.732928452503 1:-0.746789 2:-0.740392 3:-0.964429 4:-0.730735 
0 32768 0 32768 32768 32768 0 1:-0.72475 2:-0.694311 3:-0.958316 4:-0.709785 
0 32768 0 32768 32768 32768 0 1:-0.734275 2:-0.592858 3:-0.958735 4:-0.728309 
0 32768 0 32768 32768 32768 0 1:-0.68585 2:-0.547882 3:-0.94446 4:-0.679325 
0 32768 0 32768 32768 32768 4660.900069553585 1:-0.700032 2:-0.665015 3:-0.951242 4:-0.684693 
0 32768 0 32768 0 0 0 1:-0.641193 2:-0.690344 3:-0.934393 4:-0.618289 
0 32768 0 32768 32768 32768 32768 1:-0.677129 2:-0.653495 3:-0.944516 4:-0.660473 
0 32768 500.6252342297715 32768 32768 32768 0 1:-0.479476 2:-0.108255 3:-0.84173 4:-0.505066 
16065.18475452458 32768 32768 32768 32768 28488.29016911864 0 1:-0.35885 2:-0.117316 3:-0.777426 4:-0.374044 
0 0 0 32768 32768 32768 0 1:-0.634839 2:-0.243616 3:-0.91653 4:-0.656134 
0 0 0 0 0 32768 0 1:-0.771919 2:-0.870849 3:-0.971463 4:-0.751218 
0 0 0 32768 0 32768 0 1:-0.74343 2:-0.812118 3:-0.964561 4:-0.722731 
0 0 0 32768 0 32768 0 1:-0.758308 2:-0.832485 3:-0.96818 4:-0.738005 
0 32768 0 32768 32768 32768 0 1:-0.714822 2:-0.603981 3:-0.953916 4:-0.706107 
0 32768 0 32768 32768 32768 0 1:-0.674604 2:-0.521864 3:-0.940393 4:-0.669443 
0 32768 0 32768 32768 32768 0 1:-0.742188 2:-0.580477 3:-0.960434 4:-0.738134 
0 32768 0 32768 32768 32768 0 1:-0.734129 2:-0.617056 3:-0.95922 4:-0.725972 
0 32768 0 32768 32768 32768 0 1:-0.717774 2:-0.643358 3:-0.955553 4:-0.705961 
0 32768 0 32768 32768 32768 0 1:-0.730928 2:-0.61483 3:-0.958364 4:-0.722817 
0 32768 0 32768 32768 32768 0 1:-0.729739 2:-0.60936 3:-0.95795 4:-0.721909 
0 0 0 32768 32768 32768 32768 1:-0.797256 2:-0.824729 3:-0.976188 4:-0.781245 
0 0 0 32768 15488.74056888006 32768 3529.639219315313 1:-0.812843 2:-0.894028 3:-0.979618 4:-0.795209 
0 0 0 32768 32768 32768 32768 1:-0.804246 2:-0.850905 3:-0.977744 4:-0.787598 
0 32768 0 32768 32768 32768 3276.741800642269 1:-0.648948 2:-0.453101 3:-0.930097 4:-0.64765 
0 32768 0 32768 32768 0 0 1:-0.585351 2:-0.552929 3:-0.911435 4:-0.568739 
0 0 0 32768 0 0 0 1:-0.685122 2:-0.73799 3:-0.948475 4:-0.663191 
0 32768 0 32768 32768 32768 0 1:-0.646282 2:-0.388475 3:-0.926821 4:-0.65269 
0 32768 0 32768 32768 32768 0 1:-0.665859 2:-0.380471 3:-0.932965 4:-0.674681 
0 0 0 0 0 32768 0 1:-0.75793 2:-0.85849 3:-0.968335 4:-0.736379 
0 0 0 32768 0 32768 0 1:-0.729029 2:-0.78593 3:-0.960785 4:-0.708369 
0 32768 0 32768 32768 32768 0 1:-0.682308 2:-0.662139 3:-0.946206 4:-0.665604 
0 32768 0 32768 32768 32768 0 1:-0.656512 2:-0.636357 3:-0.937925 4:-0.639395 
0 32768 0 32768 32768 32768 0 1:-0.712498 2:-0.698863 3:-0.955229 4:-0.695907 
0 0 0 25054.73781774372 0 2369.880433176298 0 1:-0.75443 2:-0.990719 3:-0.968406 4:-0.72815 
0 0 0 32768 32768 32768 0 1:-0.707674 2:-0.74231 3:-0.954701 4:-0.687648 
0 0 0 32768 32768 32768 0 1:-0.709495 2:-0.749509 3:-0.95529 4:-0.689194 
0 32768 0 32768 32768 32768 0 1:-0.626476 2:-0.628888 3:-0.928115 4:-0.606956 
32768 32768 32768 32768 32768 0 0 1:-0.458142 2:-0.455784 3:-0.853899 4:-0.439758 
0 32768 0 32768 32768 32768 0 1:-0.538886 2:-0.379778 3:-0.885951 4:-0.536219 
0 0 0 32768 32768 32768 0 1:-0.698133 2:-0.741584 3:-0.952133 4:-0.677192 
0 6310.23254835872 0 32768 32768 32768 0 1:-0.73458 2:-0.759886 3:-0.961785 4:-0.716089 
0 0 0 32768 0 32768 0 1:-0.774697 2:-0.871565 3:-0.972062 4:-0.754183 
0 32768 0 32768 32768 32768 0 1:-0.669084 2:-0.697674 3:-0.943091 4:-0.648397 
0 0 0 32768 0 32768 0 1:-0.721826 2:-0.776807 3:-0.958857 4:-0.701051 
0 0 0 32768 0 32768 0 1:-0.74194 2:-0.831649 3:-0.964424 4:-0.720088 
0 0 0 32768 0 0 0 1:-0.690797 2:-0.752617 3:-0.950293 4:-0.668486 
0 32768 0 32768 32768 32768 0 1:-0.710941 2:-0.742489 3:-0.955544 4:-0.691306 
0 0 0 32768 32768 32768 0 1:-0.750654 2:-0.800473 3:-0.966104 4:-0.731296 
0 0 0 32768 32768 32768 0 1:-0.75378 2:-0.805575 3:-0.966874 4:-0.734445 
0 0 0 32768 32768 32768 0 1:-0.759697 2:-0.803114 3:-0.968177 4:-0.741085 
0 32768 32768 32768 32768 32768 0 1:-0.658909 2:-0.617367 3:-0.93819 4:-0.643634 
0 32768 0 32768 32768 32768 0 1:-0.643355 2:-0.662704 3:-0.934443 4:-0.622848 
0 0 0 32768 10238.1264220947 32768 0 1:-0.771853 2:-0.845874 3:-0.971245 4:-0.75224 
0 0 0 32768 32768 32768 0 1:-0.777959 2:-0.838974 3:-0.97246 4:-0.759287 
0 0 0 32768 0 32768 0 1:-0.71861 2:-0.781176 3:-0.95811 4:-0.697225 
0 0 0 0 0 12489.13681685345 0 1:-0.776317 2:-0.881648 3:-0.972477 4:-0.755541 
0 32768 0 32768 32768 258.1928837683078 0 1:-0.568312 2:-0.474472 3:-0.902064 4:-0.557834 
0 37.27428717670303 0 0 0 0 2.343462905465097 1:0.0279257 2:0.535724 3:-0.368209 4:-0.0611312 
0 135.3539429442233 0 37.70419853117797 119.5225783001185 14.41253756187173 1.181756657214297 1:-0.083952 2:0.691931 3:-0.439059 4:-0.197229 
32768 32768 32768 32768 32768 32768 0 1:-0.630486 2:-0.589977 3:-0.928376 4:-0.614952 
0 32768 0 32768 32768 32768 0 1:-0.607333 2:-0.55863 3:-0.919525 4:-0.592362 
0 0 0 32768 32768 32768 0 1:-0.687782 2:-0.719151 3:-0.948888 4:-0.667375 
0 32768 0 32768 32768 32768 0 1:-0.595361 2:-0.502439 3:-0.913307 4:-0.584612 
0 32768 0 32768 32768 32768 3438.86619895047 1:-0.666689 2:-0.509902 3:-0.93761 4:-0.661846 
0 32768 0 32768 32768 32768 32768 1:-0.756974 2:-0.743627 3:-0.966808 4:-0.74176 
0 32768 0 32768 32768 32768 0 1:-0.737844 2:-0.647624 3:-0.960741 4:-0.727566 
0 32768 0 32768 32768 32768 0 1:-0.588013 2:-0.46551 3:-0.909183 4:-0.580415 
32768 32768 32768 17379.63845314591 32768 13089.2821206208 0 1:-0.28823 2:-0.106046 3:-0.733127 4:-0.296978 
0 6647.227988030582 751.5579656771276 14885.23366920623 32768 26053.33296597124 0 1:-0.423116 2:0.067054 3:-0.796414 4:-0.462218 
0 32768 0 32768 32768 32768 0 1:-0.739075 2:-0.728526 3:-0.962321 4:-0.723515 
0 32768 0 32768 32768 32768 0 1:-0.752316 2:-0.758515 3:-0.96595 4:-0.735695 
0 17979.20054765138 0 32768 32768 27509.56713364787 0 1:-0.592897 2:-0.208375 3:-0.898817 4:-0.614486 
32768 32768 32768 32768 32768 32768 0 1:-0.472483 2:-0.300255 3:-0.85178 4:-0.473572 
0 32768 32768 32768 32768 32768 0 1:-0.597302 2:-0.518995 3:-0.914553 4:-0.585549 
0 32768 0 32768 32768 32768 0 1:-0.72438 2:-0.673185 3:-0.957833 4:-0.710911 
0 0 0 0 0 32768 0 1:-0.792764 2:-0.896283 3:-0.975875 4:-0.773088 
0 0 0 32768 0 32768 0 1:-0.806174 2:-0.895032 3:-0.978413 4:-0.78784 
0 0 0 32768 32768 32768 0 1:-0.776539 2:-0.845516 3:-0.972226 4:-0.757403 
0 32768 0 32768 32768 32768 0 1:-0.726148 2:-0.742827 3:-0.959455 4:-0.707919 
0 32768 0 32768 32768 32768 0 1:-0.727809 2:-0.702726 3:-0.959233 4:-0.712403 
0 0 0 32768 32768 32768 32768 1:-0.770562 2:-0.799392 3:-0.970506 4:-0.753245 
0 32768 0 13402.19934447157 0 0 0 1:-0.611131 2:-0.696365 3:-0.924656 4:-0.58487 
0 0 7358.737077767512 32768 0 32768 0 1:-0.511347 2:-0.798781 3:-0.889569 4:-0.468389 
0 0 32768 32768 32768 0 0 1:-0.515494 2:-0.750405 3:-0.890192 4:-0.475922 
0 32768 32768 0 10286.10670680714 32768 0 1:-0.55053 2:-0.683839 3:-0.902331 4:-0.519393 
0 32768 32768 32768 32768 0 0 1:-0.566139 2:-0.639888 3:-0.907051 4:-0.54006 
0 32768 32768 32768 32768 0 0 1:-0.54753 2:-0.597458 3:-0.89854 4:-0.523362 
0 32768 0 32768 32768 32768 0 1:-0.616146 2:-0.617149 3:-0.924322 4:-0.596797 
0 0 0 32768 0 0 0 1:-0.728844 2:-0.81685 3:-0.961117 4:-0.70647 
0 32768 0 32768 32768 0 0 1:-0.580996 2:-0.570598 3:-0.910423 4:-0.562188 
0 32768 0 32768 32768 0 0 1:-0.556049 2:-0.542955 3:-0.899962 4:-0.537431 
0 32768 0 32768 32768 32768 0 1:-0.663698 2:-0.698544 3:-0.941505 4:-0.642443 
0 0 0 32768 32768 32768 0 1:-0.778767 2:-0.842914 3:-0.972664 4:-0.759983 
0 0 0 32768 32768 32768 0 1:-0.765701 2:-0.821167 3:-0.969689 4:-0.746718 
0 32768 0 32768 32768 32768 32768 1:-0.760004 2:-0.764167 3:-0.967779 4:-0.743737 
0 32768 0 32768 32768 32768 0 1:-0.746247 2:-0.622433 3:-0.962317 4:-0.738835 
0 32768 3148.575345688928 32768 32768 32768 32768 1:-0.765047 2:-0.687878 3:-0.967829 4:-0.754441 
0 29280.23748516827 0 32768 32768 32768 0 1:-0.732194 2:-0.780904 3:-0.961462 4:-0.712293 
0 32768 32768 32768 32768 32768 0 1:-0.567812 2:-0.389218 3:-0.898168 4:-0.567289 
32768 32768 32768 32768 32768 32768 0 1:-0.524414 2:-0.420367 3:-0.881837 4:-0.516426 
0 32768 0 32768 32768 32768 0 1:-0.663512 2:-0.604343 3:-0.939262 4:-0.649788 
0 32768 0 32768 32768 32768 0 1:-0.723671 2:-0.685873 3:-0.957891 4:-0.70922 
0 32768 0 32768 32768 32768 32768 1:-0.754512 2:-0.757153 3:-0.966444 4:-0.738159 
0 32768 530.3981749942834 32768 32768 32768 32768 1:-0.768997 2:-0.729273 3:-0.969305 4:-0.755867 
0 0 0 32768 32768 32768 0 1:-0.751732 2:-0.785127 3:-0.966166 4:-0.733379 
0 32768 32768 32768 32768 32768 0 1:-0.618966 2:-0.457322 3:-0.920079 4:-0.615349 
32768 32768 32768 32768 32768 12120.90523138849 0 1:-0.373507 2:-0.381935 3:-0.806649 4:-0.355656 
32768 32768 32768 32768 32768 0 0 1:-0.401014 2:-0.417746 3:-0.823467 4:-0.381739 
32768 32768 32768 32768 32768 0 0 1:-0.538348 2:-0.576809 3:-0.894173 4:-0.515231 
32768 32768 32768 32768 32768 0 0 1:-0.490421 2:-0.527973 3:-0.872044 4:-0.46747 
32768 32768 32768 32768 32768 0 0 1:-0.543527 2:-0.572207 3:-0.896084 4:-0.52113 
0 0 0 32768 0 0 0 1:-0.705449 2:-0.770444 3:-0.954542 4:-0.683414 
0 0 0 32768 32768 32768 0 1:-0.751198 2:-0.794612 3:-0.966142 4:-0.732332 
0 32768 0 32768 0 0 0 1:-0.585918 2:-0.668543 3:-0.915151 4:-0.559335 
0 32768 0 32768 32768 32768 0 1:-0.63259 2:-0.644548 3:-0.930527 4:-0.612476 
0 0 0 32768 0 32768 0 1:-0.735514 2:-0.787979 3:-0.962389 4:-0.71538 
0 32768 0 0 0 0 0 1:-0.593689 2:-0.694347 3:-0.918576 4:-0.565839 
32768 32768 32768 0 0 21641.81921710898 0 1:-0.491523 2:-0.669923 3:-0.877838 4:-0.455624 
32768 32768 32768 32768 32768 32768 0 1:-0.467457 2:-0.678124 3:-0.867483 4:-0.428561 
32768 32768 32768 32768 32768 32768 0 1:-0.292043 2:-0.347271 3:-0.757316 4:-0.271002 
32768 32768 32768 23778.58164630095 32768 0 0 1:-0.24122 2:-0.282165 3:-0.71985 4:-0.222019 
0 32768 0 32768 32768 32768 0 1:-0.553988 2:-0.31928 3:-0.889108 4:-0.55827 
0 32768 0 32768 32768 32768 0 1:-0.66661 2:-0.690127 3:-0.942184 4:-0.646321 
0 32768 0 32768 32768 32768 0 1:-0.660766 2:-0.695066 3:-0.940552 4:-0.639483 
0 0 0 32768 32768 32768 0 1:-0.688179 2:-0.721652 3:-0.949044 4:-0.66762 
0 32768 32768 32768 32768 32768 0 1:-0.622008 2:-0.625844 3:-0.926545 4:-0.602539 
0 32768 0 32768 32768 0 0 1:-0.603294 2:-0.649651 3:-0.920795 4:-0.579984 
0 0 0 32768 0 0 0 1:-0.674879 2:-0.734753 3:-0.945488 4:-0.652132 
0 32768 0 32768 32768 0 32768 1:-0.606286 2:-0.563597 3:-0.919317 4:-0.590168 
32768 32768 32768 32768 0 0 0 1:-0.509311 2:-0.569968 3:-0.881936 4:-0.483671 
0 32768 11996.9336578194 32768 32768 32768 0 1:-0.614199 2:-0.527926 3:-0.920918 4:-0.602801 
0 0 0 32768 26848.14749654345 32768 0 1:-0.708918 2:-0.754998 3:-0.955228 4:-0.688176 
0 32768 26709.71597860543 32768 32768 32768 0 1:-0.686977 2:-0.643429 3:-0.947119 4:-0.672304 
0 32768 0 32768 32768 32768 0 1:-0.639943 2:-0.644637 3:-0.932919 4:-0.620465 
0 0 0 32768 0 0 0 1:-0.675781 2:-0.742054 3:-0.945882 4:-0.652656 
0 0 0 32768 0 0 0 1:-0.613175 2:-0.840712 3:-0.928087 4:-0.578018 
32768 32768 32768 32768 32768 32768 0 1:-0.532544 2:-0.602206 3:-0.892663 4:-0.506717 
32768 32768 32768 32768 32768 32768 0 1:-0.547168 2:-0.571337 3:-0.897467 4:-0.52555 
32768 32768 32768 32768 32768 32768 0 1:-0.4997 2:-0.407895 3:-0.870377 4:-0.490586 
32768 32768 32768 32768 32768 2508.774825291595 0 1:-0.449955 2:-0.443132 3:-0.849225 4:-0.432504 
0 32768 32768 32768 32768 0 0 1:-0.579579 2:-0.640597 3:-0.912073 4:-0.554748 
0 32768 0 0 0 0 0 1:-0.563627 2:-0.690702 3:-0.907526 4:-0.53316 
0 0 0 32768 0 0 0 1:-0.696262 2:-0.752004 3:-0.951787 4:-0.674461 
0 0 0 2178.8194130477 0 32768 0 1:-0.706125 2:-0.929503 3:-0.956451 4:-0.676703 
0 1114.948073457118 0 0 0 32768 0 1:-0.705271 2:-0.869011 3:-0.955706 4:-0.678062 
0 0 0 0 0 32768 0 1:-0.717153 2:-0.915429 3:-0.959178 4:-0.689214 
32768 32768 32768 32768 32768 0 0 1:-0.506427 2:-0.575856 3:-0.880934 4:-0.480191 
0 32768 32768 32768 32768 32768 0 1:-0.599915 2:-0.507445 3:-0.915147 4:-0.589364 
0 0 0 32768 32768 32768 0 1:-0.702684 2:-0.742225 3:-0.953362 4:-0.682206 
0 32768 0 32768 32768 32768 0 1:-0.610029 2:-0.579962 3:-0.921137 4:-0.593264 
0 32768 0 32768 32768 32768 0 1:-0.620479 2:-0.581671 3:-0.924773 4:-0.604612 
0 32768 0 32768 0 0 0 1:-0.644513 2:-0.685752 3:-0.935338 4:-0.622224 
0 32768 0 32768 32768 32768 0 1:-0.667089 2:-0.704848 3:-0.942636 4:-0.645683 
32768 32768 32768 19148.66489799076 0 0 11757.52740142992 1:-0.440818 2:-0.600681 3:-0.852398 4:-0.405828 
32768 32768 32768 32768 32768 32768 0 1:-0.490407 2:-0.575242 3:-0.873991 4:-0.462748 
0 0 0 32768 0 0 0 1:-0.59721 2:-0.805037 3:-0.922123 4:-0.562358 
0 0 0 6460.39849799284 32768 32768 0 1:-0.64362 2:-0.826217 3:-0.937618 4:-0.612282 
0 0 0 32768 32768 6266.762264034089 0 1:-0.64673 2:-0.836129 3:-0.938721 4:-0.615173 
0 32768 32768 32768 32768 32768 0 1:-0.625104 2:-0.480451 3:-0.923045 4:-0.61957 
0 0 0 32768 0 0 0 1:-0.676785 2:-0.733297 3:-0.94602 4:-0.654316 
0 0 0 32768 0 0 0 1:-0.670706 2:-0.7332 3:-0.944253 4:-0.64768 
11147.8391505268 32768 32768 32768 32768 32768 0 1:-0.636539 2:-0.61814 3:-0.931137 4:-0.61911 
0 32768 0 32768 869.1267582086191 0 0 1:-0.634249 2:-0.672446 3:-0.931759 4:-0.612048 
0 32768 0 32768 0 0 0 1:-0.62573 2:-0.671002 3:-0.928939 4:-0.602862 
32768 32768 32768 32768 32768 0 0 1:-0.540861 2:-0.542184 3:-0.893907 4:-0.521091 
0 32768 0 32768 0 0 0 1:-0.586905 2:-0.650981 3:-0.915006 4:-0.56185 
0 8913.348979208937 0 32768 0 0 0 1:-0.631631 2:-0.699943 3:-0.931536 4:-0.607122 
0 0 0 32768 32768 32768 0 1:-0.597907 2:-0.779573 3:-0.921886 4:-0.564697 
32768 32768 32768 32768 32768 32768 0 1:-0.444739 2:-0.356168 3:-0.841829 4:-0.436691 
32768 32768 32768 32768 32768 0 0 1:-0.408086 2:-0.374322 3:-0.824485 4:-0.394549 
0 32768 0 32768 0 0 0 1:-0.600773 2:-0.658511 3:-0.920132 4:-0.576317 
32768 32768 32768 32768 32768 0 0 1:-0.431994 2:-0.537941 3:-0.845429 4:-0.402311 
32768 32768 32768 0 0 0 0 1:-0.391962 2:-0.623118 3:-0.829325 4:-0.350056 
32768 32768 28318.01174660616 32768 0 0 2089.704166942164 1:-0.496395 2:-0.524127 3:-0.874509 4:-0.473719 
19222.28215815899 0 0 0 32768 32768 0 1:-0.667731 2:-0.859478 3:-0.945277 4:-0.637137 
0 0 0 0 0 0 9868.725727194129 1:-0.709401 2:-0.890667 3:-0.95701 4:-0.681573 
32768 32768 32768 32768 32768 0 0 1:-0.500202 2:-0.449419 3:-0.872772 4:-0.486472 
0 32768 0 0 0 0 0 1:-0.58093 2:-0.685986 3:-0.913791 4:-0.552564 
0 32768 0 32768 32768 0 0 1:-0.646644 2:-0.693443 3:-0.936168 4:-0.624109 
0 32768 0 32768 32768 32768 0 1:-0.60686 2:-0.613554 3:-0.921019 4:-0.586907 
0 0 0 32768 0 0 0 1:-0.560356 2:-0.753026 3:-0.907833 4:-0.525042 
32768 32768 32768 32768 0 0 0 1:-0.536513 2:-0.60403 3:-0.894394 4:-0.510493 
32768 32768 32768 32768 32768 0 0 1:-0.530528 2:-0.502169 3:-0.88809 4:-0.513763 
32768 32768 32768 32768 32768 6259.90316269194 0 1:-0.339474 2:-0.459516 3:-0.792805 4:-0.308977 
32768 32768 32768 32768 32768 32768 0 1:-0.306197 2:-0.484517 3:-0.775294 4:-0.269874 
32768 32768 32768 32768 0 0 0 1:-0.495538 2:-0.60087 3:-0.877203 4:-0.46577 
32768 32768 32768 32768 0 0 0 1:-0.526347 2:-0.601739 3:-0.890198 4:-0.499572 
32768 32768 32768 32768 0 18486.82986367552 0 1:-0.519367 2:-0.62584 3:-0.888148 4:-0.489843 
0 32768 0 32768 0 0 0 1:-0.585977 2:-0.661227 3:-0.914951 4:-0.560072 
0 0 0 32768 0 0 0 1:-0.661608 2:-0.723711 3:-0.941379 4:-0.638286 
0 0 0 32768 0 0 0 1:-0.658712 2:-0.724941 3:-0.940528 4:-0.63506 
0 32768 0 32768 0 0 0 1:-0.617771 2:-0.657627 3:-0.925955 4:-0.595084 
32768 32768 32768 0 0 0 0 1:-0.501787 2:-0.649882 3:-0.881589 4:-0.468484 
0 32768 0 32768 32768 0 0 1:-0.580847 2:-0.611379 3:-0.911668 4:-0.558491 
0 32768 32768 32768 32768 32768 0 1:-0.645723 2:-0.563037 3:-0.932565 4:-0.634224 
0 32768 0 32768 32768 32768 0 1:-0.604249 2:-0.58095 3:-0.919146 4:-0.586742 
0 32768 0 32768 0 0 0 1:-0.653039 2:-0.697471 3:-0.938242 4:-0.630762 
0 0 0 32768 0 25093.46400405911 0 1:-0.683869 2:-0.733807 3:-0.948045 4:-0.662085 
0 0 0 32768 0 32768 0 1:-0.695143 2:-0.74685 3:-0.951405 4:-0.673597 
0 32768 32768 32768 32768 32768 0 1:-0.665976 2:-0.605885 3:-0.940068 4:-0.652457 
0 32768 0 32768 32768 32768 0 1:-0.661461 2:-0.676267 3:-0.94036 4:-0.641708 
32768 32768 32768 0 0 0 0 1:-0.504602 2:-0.68117 3:-0.883775 4:-0.469001 
0 32768 0 32768 0 0 0 1:-0.578638 2:-0.66326 3:-0.912367 4:-0.551753 
0 0 0 0 0 0 32768 1:-0.67168 2:-0.786192 3:-0.94543 4:-0.645259 
0 32768 32768 32768 32768 0 0 1:-0.597204 2:-0.61082 3:-0.917559 4:-0.576683 
0 32768 32768 32768 32768 32768 0 1:-0.60336 2:-0.544858 3:-0.917672 4:-0.589524 
0 32768 32768 32768 32768 0 0 1:-0.542956 2:-0.456168 3:-0.891221 4:-0.53256 
0 32768 9176.96243152259 32768 32768 0 0 1:-0.551519 2:-0.521239 3:-0.897355 4:-0.534797 
0 0 0 32768 29198.10935975944 32768 0 1:-0.729695 2:-0.777512 3:-0.960837 4:-0.709603 
0 0 0 21153.62910412792 0 0 0 1:-0.511175 2:-0.857346 3:-0.890642 4:-0.465008 
0 0 0 0 0 32768 0 1:-0.558155 2:-0.738504 3:-0.906668 4:-0.523604 
0 32768 0 32768 32768 32768 0 1:-0.626377 2:-0.615258 3:-0.92772 4:-0.608171 
32768 32768 9890.85996894543 32768 32768 32768 0 1:-0.626965 2:-0.60701 3:-0.927687 4:-0.609543 
32768 32768 32768 0 0 0 0 1:-0.431292 2:-0.647805 3:-0.849713 4:-0.391225 
32768 32768 32768 0 0 0 0 1:-0.523266 2:-0.64082 3:-0.89025 4:-0.492721 
0 32768 32768 32768 32768 32768 0 1:-0.627416 2:-0.664443 3:-0.929314 4:-0.605342 
0 32768 0 32768 0 0 0 1:-0.625138 2:-0.68816 3:-0.929151 4:-0.60092 
32768 32768 32768 32768 32768 0 0 1:-0.476751 2:-0.448987 3:-0.862208 4:-0.46075 
32768 32768 32768 32768 32768 8426.702590399465 0 1:-0.395476 2:-0.499625 3:-0.825227 4:-0.36623 
0 32768 0 32768 0 0 0 1:-0.581842 2:-0.643361 3:-0.912966 4:-0.556906 
0 0 0 0 0 32768 0 1:-0.714807 2:-0.910028 3:-0.958545 4:-0.68683 
0 0 0 0 18578.66447583695 28836.69903636209 0 1:-0.697105 2:-0.869068 3:-0.953559 4:-0.66904 
32768 32768 32768 32768 32768 0 0 1:-0.463536 2:-0.468635 3:-0.857081 4:-0.444047 
32768 32768 32768 32768 32768 0 0 1:-0.437087 2:-0.473425 3:-0.844716 4:-0.414562 
32768 32768 32768 32768 32768 0 0 1:-0.454667 2:-0.523389 3:-0.855566 4:-0.428511 
32768 32768 32768 32768 32768 0 0 1:-0.42394 2:-0.509985 3:-0.840128 4:-0.39633 
32768 32768 32768 32768 32768 32768 0 1:-0.520637 2:-0.57388 3:-0.886823 4:-0.49602 
0 0 0 32768 0 0 0 1:-0.64307 2:-0.710558 3:-0.935414 4:-0.618913 
0 0 0 0 0 32768 0 1:-0.718234 2:-0.898396 3:-0.959291 4:-0.691123 
0 32768 0 32768 0 0 0 1:-0.593904 2:-0.671091 3:-0.918067 4:-0.567909 
0 32768 32768 32768 32768 0 0 1:-0.563068 2:-0.596767 3:-0.904532 4:-0.540494 
8623.063178597153 32768 32768 32768 32768 0 0 1:-0.557253 2:-0.547514 3:-0.900596 4:-0.538792 
32768 32768 32768 32768 32768 32768 0 1:-0.542425 2:-0.608658 3:-0.896899 4:-0.516804 
0 0 0 0 32768 0 0 1:-0.641518 2:-0.775383 3:-0.936124 4:-0.613024 
0 32768 32768 32768 32768 32768 0 1:-0.582559 2:-0.66296 3:-0.913733 4:-0.556293 
32768 32768 32768 32768 32768 0 0 1:-0.551257 2:-0.560154 3:-0.898683 4:-0.530954 
32768 32768 32768 32768 32768 0 0 1:-0.51451 2:-0.47599 3:-0.880206 4:-0.499188 
32768 32768 32768 32768 32768 32768 0 1:-0.468668 2:-0.555706 3:-0.863475 4:-0.440908 
32768 32768 32768 0 0 0 0 1:-0.506937 2:-0.670616 3:-0.884429 4:-0.472469 
0 0 0 0 0 32768 0 1:-0.561629 2:-0.740933 3:-0.908032 4:-0.527259 
0 32768 0 0 0 0 0 1:-0.56219 2:-0.699254 3:-0.907223 4:-0.530919 
32768 32768 32768 32768 32768 0 0 1:-0.505876 2:-0.524745 3:-0.878646 4:-0.48448 
0 32768 32768 32768 32768 32768 0 1:-0.58867 2:-0.498273 3:-0.910687 4:-0.578051 
0 32768 0 32768 32768 32768 0 1:-0.668616 2:-0.706132 3:-0.943092 4:-0.647421 
0 32768 0 32768 0 0 0 1:-0.617412 2:-0.689458 3:-0.926615 4:-0.592345 
0 32768 32768 32768 32768 32768 0 1:-0.639095 2:-0.634334 3:-0.93237 4:-0.620619 
0 32768 0 32768 0 0 0 1:-0.59004 2:-0.67477 3:-0.916791 4:-0.563346 
12663.87628279408 0 0 0 0 0 0 1:-0.654116 2:-0.822487 3:-0.940782 4:-0.623975 
0 32768 0 32768 0 0 0 1:-0.600374 2:-0.677305 3:-0.920498 4:-0.574486 
0 32768 0 32768 0 0 0 1:-0.623575 2:-0.686281 3:-0.928596 4:-0.599283 
0 32768 0 32768 0 0 0 1:-0.575515 2:-0.643124 3:-0.910652 4:-0.550027 
0 0 0 32768 0 0 0 1:-0.616078 2:-0.693235 3:-0.92626 4:-0.590501 
0 32768 0 32768 0 0 0 1:-0.623912 2:-0.685248 3:-0.928682 4:-0.59975 
0 0 0 32768 0 0 0 1:-0.613981 2:-0.802704 3:-0.927764 4:-0.580919 
0 0 0 32768 0 0 0 1:-0.646926 2:-0.848913 3:-0.938962 4:-0.614715 
0 32768 0 32768 32768 32768 0 1:-0.59094 2:-0.525098 3:-0.912517 4:-0.577439 
32768 32768 32768 32768 32768 0 0 1:-0.511842 2:-0.495827 3:-0.879964 4:-0.494247 
0 32768 32768 32768 32768 0 0 1:-0.556205 2:-0.604313 3:-0.902161 4:-0.532183 
0 0 0 0 0 32768 0 1:-0.555931 2:-0.746191 3:-0.906011 4:-0.520648 
0 0 0 23115.48005037017 0 0 0 1:-0.550816 2:-0.794213 3:-0.905102 4:-0.511975 
0 0 0 32768 32768 0 0 1:-0.56792 2:-0.769941 3:-0.91101 4:-0.532266 
3574.872627810024 32768 32768 0 0 0 0 1:-0.524188 2:-0.693059 3:-0.89221 4:-0.489608 
0 32768 32768 32768 32768 20030.38683877472 0 1:-0.54744 2:-0.595566 3:-0.898444 4:-0.523452 
0 32768 32768 32768 32768 32768 0 1:-0.641665 2:-0.55173 3:-0.930912 4:-0.630714 
0 32768 0 32768 32768 32768 0 1:-0.670028 2:-0.670393 3:-0.942784 4:-0.651472 
0 32768 0 32768 0 0 0 1:-0.629642 2:-0.683428 3:-0.930516 4:-0.606209 
0 32768 0 32768 32768 32768 0 1:-0.66243 2:-0.650312 3:-0.940067 4:-0.644771 
0 32768 0 32768 0 0 0 1:-0.555113 2:-0.6362 3:-0.902746 4:-0.527904 
32768 32768 32768 32768 32768 0 0 1:-0.512369 2:-0.543933 3:-0.8822 4:-0.4896 
0 32768 0 32768 0 0 0 1:-0.576461 2:-0.628619 3:-0.91056 4:-0.552205 
0 32768 0 32768 0 0 0 1:-0.609795 2:-0.695643 3:-0.924179 4:-0.583496 
0 0 0 32768 0 0 0 1:-0.628495 2:-0.706658 3:-0.93067 4:-0.60312 
32768 32768 32768 0 0 0 0 1:-0.503312 2:-0.666778 3:-0.882785 4:-0.468694 
0 0 0 7848.146582686682 0 0 0 1:-0.631327 2:-0.861674 3:-0.934268 4:-0.596953 
0 0 0 31035.81399305993 0 0 0 1:-0.664239 2:-0.732522 3:-0.942331 4:-0.640603 
0 0 0 32768 32768 32768 0 1:-0.724332 2:-0.757737 3:-0.959224 4:-0.704962 
0 32768 0 32768 32768 32768 0 1:-0.68928 2:-0.661995 3:-0.948172 4:-0.673235 
0 32768 0 32768 32768 0 0 1:-0.585529 2:-0.553965 3:-0.911535 4:-0.568798 
32768 32768 32768 32768 0 0 0 1:-0.525713 2:-0.623978 3:-0.890698 4:-0.496983 
32768 32768 32768 32768 32768 0 0 1:-0.474729 2:-0.593572 3:-0.867748 4:-0.443805 
32768 32768 32768 32768 0 0 19554.91391407799 1:-0.458033 2:-0.585783 3:-0.859849 4:-0.426119 
0 32768 32768 32768 32768 0 0 1:-0.559198 2:-0.565768 3:-0.902009 4:-0.538992 
0 32768 0 32768 32768 32768 0 1:-0.659584 2:-0.66575 3:-0.939553 4:-0.640423 
0 32768 0 32768 0 0 0 1:-0.622126 2:-0.686961 3:-0.928127 4:-0.597692 
0 32768 0 32768 32768 0 0 1:-0.580546 2:-0.617625 3:-0.91175 4:-0.557655 
0 32768 32768 32768 32768 0 0 1:-0.545968 2:-0.620337 3:-0.898677 4:-0.519545 
32768 32768 32768 32768 32768 0 0 1:-0.448587 2:-0.547214 3:-0.853792 4:-0.419438 
0 32768 0 32768 32768 0 0 1:-0.559947 2:-0.461105 3:-0.89825 4:-0.549957 
0 0 0 32768 0 0 0 1:-0.693277 2:-0.897302 3:-0.952819 4:-0.663604 
0 32768 0 32768 0 0 0 1:-0.613932 2:-0.659133 3:-0.924698 4:-0.590846 
0 32768 0 32768 32768 0 0 1:-0.553318 2:-0.515156 3:-0.897832 4:-0.53735 
32768 32768 32768 32768 32768 0 0 1:-0.52034 2:-0.582384 3:-0.88703 4:-0.494735 
32768 32768 32768 32768 32768 0 0 1:-0.46509 2:-0.59849 3:-0.863585 4:-0.432733 
0 32768 0 32768 32768 0 6518.200338062107 1:-0.54477 2:-0.496643 3:-0.893678 4:-0.529305 
0 32768 32768 0 0 0 0 1:-0.542924 2:-0.654365 3:-0.898555 4:-0.513289 
0 0 0 32768 0 0 0 1:-0.624581 2:-0.819026 3:-0.931496 4:-0.591702 
0 0 0 0 0 32768 0 1:-0.707244 2:-0.89679 3:-0.956489 4:-0.679049 
32768 22804.7520893626 32768 32768 32768 32768 0 1:-0.500751 2:-0.74509 3:-0.883945 4:-0.46006 
32768 32768 32768 28985.9807322244 22739.3045077548 32768 0 1:-0.403909 2:-0.665823 3:-0.837025 4:-0.359589 
32768 32768 32768 0 0 0 0 1:-0.42358 2:-0.619239 3:-0.844888 4:-0.385162 
0 32768 0 0 0 0 0 1:-0.548525 2:-0.670207 3:-0.901207 4:-0.518102 
32768 32768 32768 32768 0 0 0 1:-0.475824 2:-0.593726 3:-0.868248 4:-0.444941 
32768 32768 32768 0 0 0 0 1:-0.430196 2:-0.630718 3:-0.848537 4:-0.39148 
0 32768 0 32768 32768 0 0 1:-0.602873 2:-0.632455 3:-0.920179 4:-0.580883 
32768 32768 32768 19450.87290454585 24801.86923135538 0 0 1:-0.484603 2:-0.678875 3:-0.875112 4:-0.447285 
0 0 629.010037870108 32768 32768 0 0 1:-0.525972 2:-0.739451 3:-0.894155 4:-0.488194 
0 0 0 32768 0 0 0 1:-0.646682 2:-0.71097 3:-0.936561 4:-0.622803 
0 32768 0 32768 32768 32768 0 1:-0.708163 2:-0.6879 3:-0.953883 4:-0.692066 
0 32768 0 32768 32768 32768 0 1:-0.665255 2:-0.580879 3:-0.939196 4:-0.653767 
0 32768 0 32768 32768 32768 0 1:-0.64529 2:-0.64518 3:-0.934632 4:-0.626067 
0 32768 32768 32768 32768 32768 0 1:-0.639422 2:-0.645461 3:-0.93276 4:-0.620015 
0 32768 0 32768 0 0 0 1:-0.624836 2:-0.696875 3:-0.929252 4:-0.599893 
0 32768 0 0 0 0 0 1:-0.572354 2:-0.679538 3:-0.910482 4:-0.543646 
0 32768 0 32768 0 0 0 1:-0.571042 2:-0.630742 3:-0.908623 4:-0.54607 
0 0 0 32768 32768 0 0 1:-0.66321 2:-0.704745 3:-0.941486 4:-0.641403 
0 32768 0 32768 32768 0 0 1:-0.652983 2:-0.694838 3:-0.938172 4:-0.630934 
0 0 0 32768 0 0 0 1:-0.653692 2:-0.708075 3:-0.938665 4:-0.630732 
32768 32768 32768 0 0 0 0 1:-0.524592 2:-0.674739 3:-0.891834 4:-0.491489 
0 32768 0 31951.50822248944 0 0 0 1:-0.559825 2:-0.651826 3:-0.905021 4:-0.531904 
0 32768 0 32768 0 0 0 1:-0.603474 2:-0.675681 3:-0.921536 4:-0.578029 
32768 32768 32768 0 0 0 0 1:-0.482238 2:-0.623787 3:-0.872235 4:-0.449091 
0 32768 32768 32768 32768 0 0 1:-0.553149 2:-0.578139 3:-0.900088 4:-0.531116 
0 0 0 32768 0 0 0 1:-0.65978 2:-0.718163 3:-0.94072 4:-0.636648 
0 0 0 32768 0 0 0 1:-0.633369 2:-0.701296 3:-0.932133 4:-0.608945 
0 32768 0 32768 32768 0 0 1:-0.63919 2:-0.680037 3:-0.933512 4:-0.616964 
0 32768 13480.80345051095 32768 0 0 0 1:-0.612412 2:-0.698716 3:-0.925132 4:-0.586169 
0 32768 32768 32768 32768 0 0 1:-0.574181 2:-0.629064 3:-0.909743 4:-0.549757 
32768 32768 32768 32768 32768 32768 0 1:-0.537076 2:-0.607062 3:-0.894722 4:-0.511006 
30755.79262224977 32768 32768 32768 32768 32768 0 1:-0.522292 2:-0.387901 3:-0.879329 4:-0.517758 
0 32768 3886.676816520336 12496.48753115425 32768 6122.011961804098 0 1:-0.283038 2:0.136663 3:-0.701135 4:-0.331821 
6318.231461132821 32768 443.046091610021 32433.25443907148 32768 5969.043298464352 0 1:-0.247531 2:0.0146066 3:-0.692355 4:-0.274625 
32768 32768 32768 32768 32768 32768 0 1:-0.529894 2:-0.596323 3:-0.891429 4:-0.504183 
32768 32768 32768 32768 32768 0 0 1:-0.507374 2:-0.557327 3:-0.880619 4:-0.483069 
32768 32768 32768 32768 32768 11333.10908628407 0 1:-0.481118 2:-0.546966 3:-0.868702 4:-0.455277 
0 32768 0 32768 32768 0 0 1:-0.592423 2:-0.626515 3:-0.916315 4:-0.569942 
0 32768 0 32768 32768 32768 0 1:-0.67954 2:-0.69603 3:-0.946104 4:-0.660033 
0 32768 0 32768 32768 32768 0 1:-0.675911 2:-0.699386 3:-0.945124 4:-0.655771 
0 0 0 29282.93793226033 0 0 0 1:-0.593262 2:-0.833035 3:-0.921222 4:-0.556502 
0 32768 0 32768 0 0 0 1:-0.611369 2:-0.663887 3:-0.923946 4:-0.587606 
0 32768 0 0 0 0 0 1:-0.573467 2:-0.682458 3:-0.910979 4:-0.544588 
0 0 0 0 0 0 32768 1:-0.689146 2:-0.786112 3:-0.950371 4:-0.664474 
32768 32768 32768 32768 0 0 0 1:-0.534988 2:-0.625136 3:-0.894488 4:-0.507061 
0 32768 32768 32768 32768 0 0 1:-0.57864 2:-0.578805 3:-0.90981 4:-0.559213 
0 32768 0 32768 32768 0 0 1:-0.605728 2:-0.648397 3:-0.9216 4:-0.582735 
0 0 0 0 0 32768 0 1:-0.573235 2:-0.758135 3:-0.912704 4:-0.53887 
32768 32768 32768 0 0 0 0 1:-0.514433 2:-0.657192 3:-0.887136 4:-0.481784 
32768 32768 32768 32768 32768 0 0 1:-0.532648 2:-0.590471 3:-0.892343 4:-0.507587 
0 32768 0 32768 32768 32768 0 1:-0.669208 2:-0.696693 3:-0.943105 4:-0.648591 
32768 32768 32768 0 0 0 0 1:-0.522121 2:-0.651123 3:-0.890107 4:-0.490672 
0 32768 0 32768 32768 0 0 1:-0.568667 2:-0.608017 3:-0.907022 4:-0.545434 
0 32768 0 32768 32768 0 0 1:-0.593372 2:-0.648634 3:-0.917279 4:-0.569201 
32768 32768 32768 32272.02341046717 0 32768 0 1:-0.519264 2:-0.625261 3:-0.888094 4:-0.489801 
0 32768 0 32768 0 0 0 1:-0.592196 2:-0.661782 3:-0.917215 4:-0.56671 
0 0 0 32768 0 29773.97291366172 0 1:-0.689338 2:-0.881488 3:-0.951603 4:-0.659896 
0 32768 0 32768 32768 32768 0 1:-0.680882 2:-0.702398 3:-0.946617 4:-0.661018 
0 0 0 32768 32768 32768 0 1:-0.678146 2:-0.720619 3:-0.946179 4:-0.656688 
0 32768 30561.96627335357 32768 0 0 0 1:-0.574161 2:-0.639982 3:-0.910049 4:-0.548816 
32768 32768 32768 32768 32768 32768 0 1:-0.487758 2:-0.546346 3:-0.871613 4:-0.462677 
0 32768 32768 32768 32768 0 0 1:-0.556235 2:-0.559543 3:-0.900636 4:-0.536345 
0 0 0 32768 0 0 0 1:-0.652711 2:-0.715447 3:-0.938517 4:-0.62914 
0 0 0 32768 0 0 0 1:-0.631281 2:-0.700292 3:-0.931432 4:-0.60672 
0 0 0 32768 0 0 0 1:-0.666752 2:-0.727886 3:-0.942991 4:-0.643639 
0 0 0 32768 29875.33456061638 27943.90833980861 0 1:-0.509068 2:-0.783337 3:-0.888326 4:-0.466724 
0 32768 0 0 0 0 0 1:-0.525612 2:-0.705678 3:-0.893138 4:-0.49016 
0 32768 32768 32768 32768 0 0 1:-0.650432 2:-0.708561 3:-0.937639 4:-0.627274 
0 32768 32768 32768 32768 32768 0 1:-0.684428 2:-0.650775 3:-0.946544 4:-0.668985 
0 32768 0 32768 32768 32768 0 1:-0.558185 2:-0.294035 3:-0.889506 4:-0.567202 
32768 32768 32768 32768 32768 32768 0 1:-0.483007 2:-0.39239 3:-0.862105 4:-0.473993 
0 32768 32768 32768 32768 32768 0 1:-0.582111 2:-0.539943 3:-0.909787 4:-0.566639 
0 32768 0 32768 32768 32768 0 1:-0.6029 2:-0.501109 3:-0.915991 4:-0.593117 
0 32768 32768 32768 32768 0 0 1:-0.599119 2:-0.635613 3:-0.918951 4:-0.576614 
32768 32768 32768 32768 32768 0 0 1:-0.499513 2:-0.527557 3:-0.876014 4:-0.477463 
32768 32768 32768 32768 32768 0 0 1:-0.417932 2:-0.472659 3:-0.835229 4:-0.393992 
0 32768 0 32768 32768 32768 0 1:-0.588311 2:-0.404177 3:-0.906733 4:-0.58725 
0 32768 23077.18985006601 32768 32768 32768 0 1:-0.665338 2:-0.68 3:-0.941598 4:-0.645687 
32768 32768 32768 32768 0 0 0 1:-0.507256 2:-0.606246 3:-0.882411 4:-0.47811 
0 32768 0 32768 32768 0 15805.37294322087 1:-0.56085 2:-0.547504 3:-0.90199 4:-0.542023 
32768 32768 32768 32768 32768 0 0 1:-0.426225 2:-0.478131 3:-0.839635 4:-0.402284 
0 32768 32768 32768 32768 0 0 1:-0.561837 2:-0.563427 3:-0.902925 4:-0.542223 
0 0 0 32768 0 0 0 1:-0.624176 2:-0.701935 3:-0.929152 4:-0.598766 
0 32768 0 32768 0 0 0 1:-0.557126 2:-0.62795 3:-0.903267 4:-0.531065 
0 32768 32768 32768 32768 32768 0 1:-0.578569 2:-0.554324 3:-0.908955 4:-0.561435 
0 32768 0 32768 0 0 0 1:-0.638734 2:-0.68509 3:-0.933493 4:-0.61604 
0 32768 0 32768 32768 0 0 1:-0.597582 2:-0.636041 3:-0.91842 4:-0.574796 
4318.168312893838 32768 32768 32768 32768 32768 0 1:-0.609165 2:-0.570605 3:-0.920522 4:-0.593467 
0 32768 32768 32768 32768 32768 0 1:-0.607337 2:-0.571228 3:-0.919909 4:-0.591407 
0 0 0 0 0 0 938.3119686823038 1:-0.676928 2:-0.81557 3:-0.947364 4:-0.649408 
32768 32768 32768 0 0 0 1176.522817062376 1:-0.44115 2:-0.64779 3:-0.854381 4:-0.402047 
32768 32768 32768 0 0 0 28980.30608679817 1:-0.47801 2:-0.659045 3:-0.871594 4:-0.44145 
0 32768 0 32768 0 0 0 1:-0.591279 2:-0.649433 3:-0.916548 4:-0.566833 
0 32768 32768 32768 32768 32768 0 1:-0.587307 2:-0.622283 3:-0.914328 4:-0.564876 
32768 32768 32768 32768 32768 0 0 1:-0.510278 2:-0.552894 3:-0.881675 4:-0.486718 
32768 32768 32768 32768 32768 0 0 1:-0.411707 2:-0.504504 3:-0.833776 4:-0.383286 
32768 32768 0 32768 32768 32768 0 1:-0.480012 2:-0.407196 3:-0.861531 4:-0.468231 
0 32768 0 32768 32768 32768 0 1:-0.613965 2:-0.551457 3:-0.921608 4:-0.600027 
0 0 0 32768 0 0 0 1:-0.66059 2:-0.702288 3:-0.940647 4:-0.638701 
0 32768 0 32768 32768 32768 0 1:-0.586492 2:-0.42436 3:-0.906946 4:-0.583001 
32768 32768 32768 32768 32768 0 0 1:-0.525742 2:-0.470698 3:-0.884743 4:-0.512142 
32768 32768 32768 32768 32768 27751.42130074689 0 1:-0.388523 2:-0.36461 3:-0.813577 4:-0.373946 
32768 32768 32768 15178.73588479423 32768 31530.98968353942 0 1:-0.267183 2:-0.33202 3:-0.74074 4:-0.245825 
0 32768 32768 32768 32768 32768 0 1:-0.532642 2:-0.283671 3:-0.878103 4:-0.540793 
0 32768 0 32768 0 0 0 1:-0.606902 2:-0.670001 3:-0.922562 4:-0.582322 
32768 32768 32768 32768 32768 0 0 1:-0.539139 2:-0.547855 3:-0.893424 4:-0.518583 
32768 32768 32768 32768 32768 0 0 1:-0.469421 2:-0.461987 3:-0.859484 4:-0.450956 
0 32768 0 32768 32768 32768 0 1:-0.593585 2:-0.464907 3:-0.911244 4:-0.586716 
0 0 0 0 0 0 4633.880923946315 1:-0.688486 2:-0.822347 3:-0.950692 4:-0.661761 
0 32768 0 32768 0 0 0 1:-0.56572 2:-0.635643 3:-0.906775 4:-0.539861 
0 32768 32768 32768 0 0 0 1:-0.55024 2:-0.630085 3:-0.900672 4:-0.523343 
0 32768 32768 32768 0 0 0 1:-0.540081 2:-0.629934 3:-0.896671 4:-0.512244 
0 32768 0 32768 32768 0 0 1:-0.59971 2:-0.576048 3:-0.917383 4:-0.582102 
32768 32768 32768 0 0 0 0 1:-0.500951 2:-0.6704 3:-0.881885 4:-0.46575 
0 0 0 32768 0 0 0 1:-0.677178 2:-0.743 3:-0.946305 4:-0.654115 
0 0 0 32768 0 0 0 1:-0.644251 2:-0.713029 3:-0.93584 4:-0.620065 
0 32768 0 32768 0 0 0 1:-0.640352 2:-0.701195 3:-0.934364 4:-0.61662 
0 32768 32768 32768 32768 0 0 1:-0.636742 2:-0.697417 3:-0.933106 4:-0.613011 
0 0 0 0 20917.06057965963 0 0 1:-0.652464 2:-0.759528 3:-0.93922 4:-0.626072 
0 0 0 32768 32768 32768 0 1:-0.674235 2:-0.707155 3:-0.944791 4:-0.653313 
0 0 0 32768 0 0 0 1:-0.516607 2:-0.78735 3:-0.891503 4:-0.47475 
0 0 0 0 0 8772.054545466121 0 1:-0.53922 2:-0.736304 3:-0.899335 4:-0.502966 
0 32768 32768 32768 26573.51869566151 0 0 1:-0.618271 2:-0.674399 3:-0.926525 4:-0.594455 
0 11967.23141125733 0 0 0 0 0 1:-0.575867 2:-0.707763 3:-0.912497 4:-0.545331 
0 0 0 67.88471418749941 1398.426807405192 111.7073702411208 0.5910106258505132 1:-0.307121 2:0.576598 3:-0.651829 4:-0.420593 
0 0 0 50.11955704169094 2300.421941023377 0 0 1:-0.271101 2:0.532262 3:-0.632177 4:-0.378551 
0 32768 0 32768 32768 0 0 1:-0.596087 2:-0.610021 3:-0.917131 4:-0.575328 
0 0 32768 0 0 0 0 1:-0.620898 2:-0.733142 3:-0.928691 4:-0.593104 
0 0 0 32768 0 0 0 1:-0.65009 2:-0.711801 3:-0.937634 4:-0.626497 
0 32768 0 32768 32768 32768 0 1:-0.653655 2:-0.654919 3:-0.937488 4:-0.634533 
0 0 0 32768 0 32768 0 1:-0.589724 2:-0.778964 3:-0.91904 4:-0.555664 
32768 32768 32768 32768 32768 32768 0 1:-0.481285 2:-0.567306 3:-0.869631 4:-0.453551 
32768 32768 32768 32768 8472.77613147561 0 0 1:-0.511138 2:-0.594298 3:-0.883615 4:-0.483611 
0 32768 0 32768 0 0 0 1:-0.573681 2:-0.638906 3:-0.909838 4:-0.548306 
0 32768 32768 32768 32768 32768 0 1:-0.62749 2:-0.61911 3:-0.928185 4:-0.609089 
0 32768 32768 32768 32768 32768 0 1:-0.658555 2:-0.572882 3:-0.936908 4:-0.647197 
0 32768 32768 32768 32768 32768 0 1:-0.678693 2:-0.671117 3:-0.945338 4:-0.661072 
0 0 0 0 0 0 28550.14875137859 1:-0.723905 2:-0.912014 3:-0.960838 4:-0.696721 
0 0 0 0 0 32768 0 1:-0.720434 2:-0.915606 3:-0.959999 4:-0.692815 
0 0 0 0 0 1779.60189641498 0 1:-0.723529 2:-0.933791 3:-0.960887 4:-0.695644 
32768 32768 32768 20718.4316418426 0 32768 0 1:-0.431544 2:-0.661478 3:-0.850331 4:-0.390314 
0 32768 0 32768 0 0 0 1:-0.573761 2:-0.658381 3:-0.910439 4:-0.546713 
0 32768 0 32768 0 0 0 1:-0.605609 2:-0.679841 3:-0.922377 4:-0.580088 
0 32768 0 32768 32768 0 0 1:-0.632791 2:-0.664959 3:-0.931109 4:-0.61105 
5961.704225100443 0 0 0 0 0 0 1:-0.666214 2:-0.87368 3:-0.94501 4:-0.634788 
0 18026.37038307812 0 0 0 32768 0 1:-0.694559 2:-0.861355 3:-0.952792 4:-0.666592 
0 32768 0 0 0 0 0 1:-0.547964 2:-0.674387 3:-0.90111 4:-0.517198 
0 0 0 32768 0 0 0 1:-0.62798 2:-0.701831 3:-0.930386 4:-0.602939 
0 0 0 0 26048.24118031597 32768 0 1:-0.698013 2:-0.888334 3:-0.953995 4:-0.669208 
0 32768 32768 32768 32768 0 0 1:-0.580463 2:-0.567223 3:-0.910113 4:-0.562204 
0 32768 0 32768 0 0 0 1:-0.596746 2:-0.677464 3:-0.919229 4:-0.570548 
32768 32768 32768 32768 32768 0 0 1:-0.552541 2:-0.514748 3:-0.897508 4:-0.536807 
32768 32768 32768 32768 32768 0 0 1:-0.464701 2:-0.487828 3:-0.858564 4:-0.443173 
0 32768 32768 32768 0 0 0 1:-0.546226 2:-0.610459 3:-0.89847 4:-0.520568 
0 32768 32768 32768 32768 32768 0 1:-0.593273 2:-0.455206 3:-0.910747 4:-0.587577 
0 32768 24086.56497722157 32768 32768 32768 0 1:-0.630028 2:-0.427344 3:-0.92279 4:-0.630418 
32768 32768 32768 32768 32768 32768 0 1:-0.34106 2:-0.39054 3:-0.789242 4:-0.319125 
32768 32768 32768 32768 32768 32768 0 1:-0.393637 2:-0.34752 3:-0.815153 4:-0.381758 
0 32768 0 32768 0 0 0 1:-0.622078 2:-0.665711 3:-0.927599 4:-0.599249 
0 32768 0 32768 32768 0 0 1:-0.644273 2:-0.683294 3:-0.935191 4:-0.622282 
0 32768 32768 32768 32768 0 0 1:-0.579716 2:-0.556283 3:-0.909453 4:-0.562391 
0 32768 0 32768 32768 32768 0 1:-0.640883 2:-0.585362 3:-0.93165 4:-0.626629 
0 32768 32768 32768 32768 0 0 1:-0.557466 2:-0.606501 3:-0.902719 4:-0.533329 
0 0 0 4165.116712398585 0 0 0 1:-0.549644 2:-0.752663 3:-0.903766 4:-0.513273 
0 32768 0 32768 0 0 0 1:-0.560463 2:-0.636751 3:-0.904815 4:-0.533997 
32768 32768 32768 0 0 0 0 1:-0.505486 2:-0.62172 3:-0.882211 4:-0.474764 
0 32768 32768 32768 32768 32768 0 1:-0.623157 2:-0.634371 3:-0.927147 4:-0.603071 
0 0 0 32768 0 0 0 1:-0.68855 2:-0.751213 3:-0.949657 4:-0.666048 
32768 32768 32768 32768 0 0 0 1:-0.514555 2:-0.717678 3:-0.888961 4:-0.477164 
-0 0 0 32768 32768 32768 0 1:-0.693609 2:-0.737799 3:-0.950831 4:-0.672511 
0 32768 0 32768 32768 32768 0 1:-0.673622 2:-0.686721 3:-0.944199 4:-0.654205 
0 32768 0 32768 32768 32768 0 1:-0.672554 2:-0.698924 3:-0.944124 4:-0.65215 
77.06265746857152 0 0 0 0 0 0 1:-0.711541 2:-0.995701 3:-0.958234 4:-0.680876 
0 0 0 1205.738431723668 0 32768 0 1:-0.718631 2:-0.942094 3:-0.959723 4:-0.690036 
32768 32768 32768 32768 32768 0 0 1:-0.402642 2:-0.4794 3:-0.827855 4:-0.37621 
32768 32768 32768 30655.56396937943 32768 0 0 1:-0.279304 2:-0.408769 3:-0.754145 4:-0.248861 
32768 32768 32768 32768 32768 0 0 1:-0.413744 2:-0.387371 3:-0.828197 4:-0.398175 
0 32768 0 0 0 32768 0 1:-0.545316 2:-0.700901 3:-0.900799 4:-0.512214 
0 32768 0 0 0 0 0 1:-0.570928 2:-0.678278 3:-0.909933 4:-0.542075 
0 32768 32768 32768 32768 0 0 1:-0.59175 2:-0.59655 3:-0.915178 4:-0.571891 
0 32768 32768 32768 32768 32768 0 1:-0.593015 2:-0.548095 3:-0.914062 4:-0.57792 
0 32768 32768 32768 32768 32768 0 1:-0.542914 2:-0.406491 3:-0.888903 4:-0.538237 
0 32768 32768 32768 32768 32768 0 1:-0.533546 2:-0.363915 3:-0.882826 4:-0.533077 
20402.65943067017 32768 32768 32768 32768 32768 0 1:-0.630405 2:-0.56017 3:-0.927458 4:-0.617504 
0 32768 32768 32768 32768 32768 0 1:-0.650873 2:-0.660803 3:-0.936745 4:-0.631277 
0 0 0 32768 0 0 0 1:-0.656203 2:-0.698454 3:-0.939222 4:-0.634123 
32768 32768 32768 32768 32768 32768 0 1:-0.385906 2:-0.538283 3:-0.822302 4:-0.351662 
32768 32768 32768 32768 32768 0 0 1:-0.433514 2:-0.553245 3:-0.84686 4:-0.402347 
32768 32768 32768 14256.07805183735 32768 20493.79672168525 0 1:-0.399234 2:-0.643613 3:-0.833839 4:-0.356365 
32768 32768 32768 32768 32568.86947185589 0 0 1:-0.452483 2:-0.583365 3:-0.857174 4:-0.420246 
0 32768 0 32768 32768 0 0 1:-0.603437 2:-0.612173 3:-0.919789 4:-0.583218 
0 32768 0 32768 32768 32768 0 1:-0.705814 2:-0.714363 3:-0.953737 4:-0.687503 
0 0 0 32768 32768 32768 0 1:-0.700757 2:-0.744368 3:-0.952884 4:-0.679925 
32768 32768 32768 0 0 11802.94872599848 0 1:-0.430874 2:-0.660129 3:-0.849967 4:-0.389668 
32768 32768 32768 0 11995.11286919395 3256.9524754647 0 1:-0.335026 2:-0.695438 3:-0.802153 4:-0.2815 
32768 32768 32768 32768 32768 32768 0 1:-0.379728 2:-0.511922 3:-0.817701 4:-0.347577 
32768 32768 32768 32768 32768 0 0 1:-0.51667 2:-0.487699 3:-0.881649 4:-0.500166 
0 32768 32768 32768 0 0 0 1:-0.542308 2:-0.600249 3:-0.896581 4:-0.51713 
32768 32768 32768 0 0 0 0 1:-0.474521 2:-0.615558 3:-0.868506 4:-0.441533 
32768 32768 32768 32768 0 0 0 1:-0.521483 2:-0.608367 3:-0.888432 4:-0.493667 
0 0 0 32768 0 0 0 1:-0.627825 2:-0.701471 3:-0.930338 4:-0.602815 
0 0 32768 0 0 32768 0 1:-0.583066 2:-0.732436 3:-0.915662 4:-0.55148 
0 32768 0 32768 32768 32768 32768 1:-0.657129 2:-0.602496 3:-0.937265 4:-0.642664 
0 32768 0 32768 32768 32768 0 1:-0.653577 2:-0.609826 3:-0.936347 4:-0.63839 
0 0 0 0 0 0 19305.00787385849 1:-0.674951 2:-0.782839 3:-0.946321 4:-0.649101 
0 32768 0 32768 32768 32768 0 1:-0.723238 2:-0.695343 3:-0.95795 4:-0.707993 
0 32768 0 32768 32768 32768 0 1:-0.707054 2:-0.701453 3:-0.953836 4:-0.689803 
32768 32768 32768 32768 32768 0 0 1:-0.512992 2:-0.553333 3:-0.882847 4:-0.489524 
32768 32768 32768 32768 32768 0 0 1:-0.508095 2:-0.522253 3:-0.879494 4:-0.48718 
0 32768 0 32768 32768 32768 0 1:-0.605067 2:-0.573738 3:-0.919204 4:-0.588489 
0 0 0 32768 0 22.69394215470299 0 1:-0.714581 2:-0.940648 3:-0.958695 4:-0.685634 
0 0 0 24280.69034249964 0 0 0 1:-0.702883 2:-0.91712 3:-0.955541 4:-0.673425 
32768 32768 32768 32768 24137.88686512592 0 0 1:-0.326419 2:-0.641462 3:-0.79516 4:-0.276542 
32768 32768 0 32768 0 0 0 1:-0.49448 2:-0.495353 3:-0.872398 4:-0.474295 
0 0 0 32768 0 0 0 1:-0.695406 2:-0.750514 3:-0.951538 4:-0.673625 
0 32768 22363.6573597983 0 0 0 0 1:-0.534742 2:-0.691903 3:-0.896413 4:-0.501278 
0 0 0 0 0 32768 0 1:-0.722555 2:-0.934238 3:-0.960647 4:-0.694578 
0 32768 0 32768 0 0 0 1:-0.564378 2:-0.622795 3:-0.905872 4:-0.539279 
0 32768 0 32768 0 0 0 1:-0.582559 2:-0.630397 3:-0.912866 4:-0.558592 
0 0 0 32768 0 0 0 1:-0.649106 2:-0.711766 3:-0.93733 4:-0.625465 
0 0 0 32768 0 0 0 1:-0.676337 2:-0.728617 3:-0.945805 4:-0.654171 
0 32768 0 32768 0 0 0 1:-0.576734 2:-0.63735 3:-0.910932 4:-0.551774 
0 0 0 32768 0 0 0 1:-0.689487 2:-0.898665 3:-0.951809 4:-0.659363 
32768 0 0 32768 0 0 0 1:-0.520307 2:-0.461084 3:-0.882016 4:-0.505709 
32768 32768 0 32768 32768 0 0 1:-0.521853 2:-0.482564 3:-0.883633 4:-0.505792 
0 32768 32768 32768 32768 32768 0 1:-0.633435 2:-0.631955 3:-0.930491 4:-0.614533 
0 32768 32768 32768 32768 0 0 1:-0.562982 2:-0.587748 3:-0.904211 4:-0.541135 
0 32768 32768 32768 0 0 0 1:-0.546532 2:-0.60632 3:-0.898455 4:-0.521259 
0 0 0 32768 0 0 0 1:-0.584699 2:-0.815035 3:-0.917926 4:-0.548039 
0 0 0 32645.60045548679 0 0 0 1:-0.678249 2:-0.90211 3:-0.948734 4:-0.646874 
0 0 0 32768 0 0 0 1:-0.646905 2:-0.711194 3:-0.93662 4:-0.623104 
0 0 0 32768 0 0 0 1:-0.660857 2:-0.882188 3:-0.943536 4:-0.628538 
32768 32768 0 0 0 0 0 1:-0.355227 2:-0.434134 3:-0.800006 4:-0.327396 
0 32768 0 32768 0 0 0 1:-0.597086 2:-0.66847 3:-0.919115 4:-0.571635 
0 0 0 32768 0 0 0 1:-0.590899 2:-0.780393 3:-0.919478 4:-0.556886 
0 0 0 32768 16759.96377419957 0 0 1:-0.584683 2:-0.790761 3:-0.91748 4:-0.549423 
0 32768 32768 32768 32768 0 0 1:-0.553879 2:-0.618627 3:-0.901723 4:-0.52836 
0 32768 32768 32768 32768 0 0 1:-0.563616 2:-0.550664 3:-0.903154 4:-0.545321 
0 0 14112.6636435904 0 0 0 0 1:-0.611716 2:-0.730616 3:-0.925607 4:-0.583113 
0 0 0 32768 0 0 0 1:-0.609714 2:-0.843309 3:-0.92698 4:-0.574063 
0 0 0 32768 0 0 0 1:-0.566469 2:-0.768536 3:-0.910445 4:-0.530755 
0 0 0 32768 0 0 0 1:-0.592536 2:-0.816489 3:-0.920701 4:-0.556571 
0 32768 32768 0 0 32768 0 1:-0.534473 2:-0.668871 3:-0.895644 4:-0.502844 
32768 32768 32768 0 0 0 0 1:-0.524508 2:-0.666164 3:-0.89155 4:-0.492097 
0 0 0 32768 32768 31272.9333884165 0 1:-0.579666 2:-0.788996 3:-0.915654 4:-0.544011 
0 21125.79801316459 0 0 0 0 0 1:-0.628261 2:-0.864432 3:-0.933319 4:-0.593489 
0 32768 0 32768 0 0 0 1:-0.591027 2:-0.620627 3:-0.915645 4:-0.5688 
0 0 0 0 0 5496.91468736234 0 1:-0.630729 2:-0.958545 3:-0.935041 4:-0.592799 
0 0 0 0 0 32768 0 1:-0.641918 2:-0.9688 3:-0.938592 4:-0.60484 
0 32768 0 32768 32768 32768 0 1:-0.664592 2:-0.683069 3:-0.94145 4:-0.644498 
32768 32768 32768 32768 32768 32768 0 1:-0.51272 2:-0.555743 3:-0.882813 4:-0.489175 
32768 0 0 0 0 0 0 1:-0.654423 2:-0.825764 3:-0.940924 4:-0.624118 
0 0 0 32768 0 0 0 1:-0.672456 2:-0.884024 3:-0.946918 4:-0.641215 
0 32768 0 32768 0 0 0 1:-0.580935 2:-0.667581 3:-0.913322 4:-0.553833 
0 0 0 31368.76189798167 0 0 0 1:-0.629798 2:-0.815678 3:-0.933128 4:-0.597591 
0 0 0 32768 0 0 0 1:-0.592239 2:-0.807128 3:-0.920439 4:-0.556769 
0 0 0 32768 0 0 0 1:-0.599829 2:-0.812069 3:-0.923146 4:-0.564835 
0 0 0 32768 0 0 0 1:-0.631741 2:-0.829898 3:-0.933961 4:-0.598973 
0 0 0 32768 0 0 0 1:-0.605219 2:-0.795723 3:-0.9247 4:-0.571675 
0 32768 32768 32768 32768 0 0 1:-0.562979 2:-0.554854 3:-0.903081 4:-0.544172 
0 0 0 32768 0 32768 32768 1:-0.688259 2:-0.73238 3:-0.949253 4:-0.666928 
32768 32768 32768 32768 0 0 0 1:-0.494667 2:-0.708416 3:-0.880371 4:-0.455975 
0 19235.84114560741 32768 32768 18606.614657618 32768 0 1:-0.476905 2:-0.805298 3:-0.875181 4:-0.430038 
0 0 0 0 0 0 7271.492241438064 1:-0.52842 2:-0.873719 3:-0.89782 4:-0.483234 
0 0 0 0 0 32768 0 1:-0.565507 2:-0.751554 3:-0.909715 4:-0.530811 
0 32768 0 0 0 0 0 1:-0.561989 2:-0.675187 3:-0.906504 4:-0.532391 
1470.530307207236 59.53139056623238 0 24.67260801107607 41.33898123217228 7.642898011515312 4.484572706112427 1:0.435889 2:-0.177206 3:-0.086209 4:0.501035 
1061.435428349971 2046.308183685366 2012.605364748574 415.8117537874181 262.9215880951692 0 0 1:0.0198666 2:0.220945 3:-0.444747 4:-0.0110337 
130.102039979826 0 32768 32768 32768 32768 1504.331761299869 1:-0.497749 2:-0.766169 3:-0.883209 4:-0.455339 
0 0 0 32768 32768 0 0 1:-0.515104 2:-0.754834 3:-0.89014 4:-0.475165 
0 0 0 0 0 0 27075.97097568972 1:-0.572218 2:-0.885468 3:-0.914531 4:-0.530904 
-0 32768 0 0 0 0 32768 1:-0.459102 2:-0.616521 3:-0.861544 4:-0.424467 
-32768 32768 32768 32768 32768 32768 0 1:-0.626814 2:-0.636653 3:-0.928418 4:-0.606933 
-32768 32768 32768 32768 32768 32768 0 1:-0.527318 2:-0.467542 3:-0.885226 4:-0.513876 
-0 11352.12704085498 32768 0 32768 0 0 1:-0.306735 2:-0.232903 3:-0.756793 4:-0.302728 
-0 32768 0 0 0 0 0 1:-0.416727 2:-0.470895 3:-0.834532 4:-0.392643 
-0 32768 0 0 0 0 0 1:-0.413724 2:-0.461212 3:-0.832489 4:-0.390473 
-0 0 32768 0 0 0 0 1:-0.315507 2:-0.508818 3:-0.78217 4:-0.277652 
-0 32768 0 0 0 0 0 1:-0.317529 2:-0.542769 3:-0.785158 4:-0.276408 
-0 32768 32768 0 0 0 0 1:-0.206482 2:-0.409975 3:-0.707754 4:-0.169731 
-0 0 32768 0 0 0 0 1:-0.00735176 2:-0.241085 3:-0.541631 4:0.0253102 
-0 1924.448054245043 0 0 0 0 0 1:0.0538614 2:-0.191616 3:-0.482566 4:0.084552 
-0 0 0 2.242091393690624 0 0 0.2687150576290097 1:0.516174 2:-0.270416 3:-0.00664926 4:0.604178 
-0 0 6243.558733891899 0 0 0 0 1:-0.241209 2:-0.406532 3:-0.730136 4:-0.208284 
-0 32768 32768 0 0 0 0 1:0.00242558 2:-0.452535 3:-0.556173 4:0.0646898 
-0 30643.68624930175 0 0 0 16508.76804773797 0 1:-0.0674864 2:-0.385643 3:-0.60543 4:-0.0207348 
-0 32768 0 0 0 0 0 1:-0.0565362 2:-0.337999 3:-0.592184 4:-0.015071 
-0 0 32768 0 0 0 0 1:-0.225194 2:-0.370929 3:-0.716975 4:-0.194927 
-0 0 0 0 0 10841.34477592857 0 1:-0.317006 2:-0.367147 3:-0.773649 4:-0.296004 
-0 32768 0 0 0 0 0 1:-0.396257 2:-0.461272 3:-0.823511 4:-0.371423 
-0 0 32768 0 0 0 0 1:-0.301026 2:-0.419564 3:-0.768014 4:-0.271486 
-0 32768 32768 0 0 0 0 1:-0.241777 2:-0.265343 3:-0.718667 4:-0.227682 
-0 32768 0 0 0 0 0 1:-0.14574 2:-0.174299 3:-0.642455 4:-0.136112 
-0 6394.04910228122 0 0 0 0 0 1:0.0832521 2:-0.276747 3:-0.467549 4:0.129602 
-0 0 32768 0 0 0 0 1:-0.307716 2:-0.438833 3:-0.77327 4:-0.276553 
-0 32768 0 32768 32768 0 0 1:-0.439656 2:-0.409653 3:-0.842484 4:-0.424565 
-0 0 32768 0 0 0 0 1:-0.231023 2:-0.35776 3:-0.719722 4:-0.202844 
-0 32768 32768 0 0 0 0 1:-0.208438 2:-0.560707 3:-0.719596 4:-0.154669 
-0 0 32768 0 0 0 0 1:-0.172138 2:-0.439934 3:-0.686682 4:-0.128639 
-0 32768 0 0 0 0 0 1:-0.26757 2:-0.469547 3:-0.751171 4:-0.229447 
-0 5905.23977186423 32768 0 0 0 0 1:-0.211451 2:-0.234427 3:-0.69541 4:-0.198488 
-0 32768 0 0 32768 0 0 1:-0.0980705 2:-0.308591 3:-0.621096 4:-0.0646153 
-0 32768 0 0 0 0 0 1:0.26068 2:-0.226589 3:-0.288591 4:0.316592 
-32768 0 32768 0 0 0 0 1:-0.460921 2:-0.674404 3:-0.864457 4:-0.421592 
-0 0 32768 0 0 0 0 1:-0.0840637 2:-0.364839 3:-0.616316 4:-0.041331 
-0 0 32768 0 0 0 0 1:-0.109629 2:-0.32098 3:-0.631309 4:-0.0751261 
-0 32768 0 0 0 0 0 1:0.0275797 2:-0.250034 3:-0.513155 4:0.065064 
-0 0 0 0 0 2076.789701279004 0 1:0.120997 2:-0.276865 3:-0.433167 4:0.172132 
-0 32768 32768 32768 3300.106807110252 0 0 1:-0.356258 2:-0.398699 3:-0.798186 4:-0.335355 
-0 32768 0 0 0 0 0 1:-0.309625 2:-0.432893 3:-0.773971 4:-0.280099 
-0 32768 0 0 32768 0 0 1:-0.418327 2:-0.46758 3:-0.835071 4:-0.395178 
-0 32768 0 32768 32768 0 0 1:-0.414301 2:-0.423121 3:-0.830524 4:-0.395721 
-0 32768 32768 0 0 0 0 1:-0.0520836 2:-0.52278 3:-0.605581 4:0.0131211 
-0 0 32768 0 0 0 0 1:0.0287669 2:-0.33484 3:-0.522169 4:0.0782943 
-32768 32768 32768 32768 0 0 0 1:-0.489394 2:-0.640415 3:-0.875949 4:-0.455716 
-0 32768 0 0 0 0 0 1:-0.442899 2:-0.560662 3:-0.851697 4:-0.412089 
-0 32768 0 0 0 0 0 1:-0.453641 2:-0.533113 3:-0.855516 4:-0.42649 
-0 32768 0.2434826358784209 0 0 0 0 1:-0.400432 2:-0.519423 3:-0.828799 4:-0.369753 
-0 32768 0 0 0 0 0 1:-0.260668 2:-0.44959 3:-0.745572 4:-0.224256 
-0 32768 0 0 0 0 0 1:-0.164941 2:-0.397072 3:-0.678298 4:-0.125719 
-0 0 10411.99908967838 0 0 0 0 1:-0.100401 2:-0.429568 3:-0.634547 4:-0.0507291 
-0 0 6805.598854609352 0 0 0 0 1:0.0397023 2:-0.325791 3:-0.511819 4:0.0890133 
-0 32768 0 0 0 0 0 1:0.245584 2:-0.253067 3:-0.308059 4:0.303889 
-9151.267429963595 32768 0 0 0 0 0 1:0.182593 2:-0.161673 3:-0.357366 4:0.22063 
-0 0 0 0 8792.772284945833 0 0 1:0.0555425 2:-0.155287 3:-0.475996 4:0.0812805 
-281.9936358894213 32768 32768 2199.633955110744 32768 0 0 1:-0.197153 2:-0.0997408 3:-0.67104 4:-0.20257 
-0 32768 32768 17601.0155412083 32768 0 0 1:-0.246554 2:-0.223133 3:-0.717765 4:-0.238689 
-0 32768 32768 0 0 0 0 1:-0.0530142 2:-0.233371 3:-0.5779 4:-0.0261154 
-0 32768 0 0 0 0 0 1:0.170672 2:-0.265606 3:-0.384445 4:0.223562 
-0 32768 0 0 0 0 0 1:0.269567 2:-0.211599 3:-0.277066 4:0.323741 
-0 0 32768 0 0 0 0 1:-0.371744 2:-0.593974 3:-0.81757 4:-0.330711 
-0 0 0 31176.21283390905 0 13101.3679138882 0 1:-0.212157 2:-0.437461 3:-0.713367 4:-0.172955 
-0 32768 16089.50346593028 0 0 0 0 1:-0.110284 2:-0.289415 3:-0.628554 4:-0.0805648 
-0 12019.49655121997 0 0 0 0 0 1:0.234569 2:-0.268693 3:-0.321852 4:0.294277 
-0 0 79.84908557299157 0 0 0 0 1:-0.361524 2:-0.498315 3:-0.807209 4:-0.329092 
-0 19892.70675896154 0 0 0 0 0 1:-0.338422 2:-0.45011 3:-0.791593 4:-0.309541 
-0 0 32768 0 0 0 0 1:-0.32263 2:-0.433874 3:-0.781616 4:-0.293739 
-0 32768 19532.35715891951 0 0 0 0 1:-0.00804804 2:-0.143777 3:-0.529627 4:0.00917223 
-0 32768 0 0 0 0 0 1:-0.112483 2:-0.357374 3:-0.636869 4:-0.0736757 
-0 354.024555620883 0 0 0 0 0 1:-0.0526523 2:-0.3171 3:-0.587049 4:-0.0135113 
-0 397.1499470765625 0 0 0 0 0 1:0.285196 2:-0.242123 3:-0.265471 4:0.345778 
-0 32768 14335.74741353864 0 0 0 0 1:-0.383133 2:-0.396922 3:-0.812771 4:-0.364602 
-0 0 32768 0 0 0 0 1:-0.173741 2:-0.263654 3:-0.672247 4:-0.153171 
-0 32768 0 32768 32768 0 0 1:-0.410076 2:-0.378139 3:-0.825741 4:-0.396284 
-0 32768 0 0 0 0 0 1:-0.321292 2:-0.372712 3:-0.776582 4:-0.300079 
-0 0 6103.836739560262 0 0 0 0 1:0.0404748 2:-0.270471 3:-0.504565 4:0.0819699 
-0 0 0 4165.91139459322 0 0 0 1:0.0538193 2:-0.32278 3:-0.499218 4:0.10399 
-0 32768 0 0 0 0 0 1:0.410418 2:-0.092022 3:-0.0994844 4:0.458212 
-0 32768 0 0 0 0 0 1:0.269975 2:-0.126446 3:-0.262273 4:0.31037 
-0 32768 10765.56374713376 0 0 0 0 1:0.25154 2:-0.0958761 3:-0.276295 4:0.285168 
-0 0 32768 0 0 0 0 1:-0.222777 2:-0.367725 3:-0.71514 4:-0.192755 
-0 32768 32768 0 0 0 0 1:-0.137361 2:-0.534649 3:-0.669577 4:-0.0793063 
-0 32768 32768 0 0 0 0 1:-0.0965314 2:-0.380398 3:-0.627255 4:-0.0528435 
-0 32768 0 0 0 0 0 1:-0.0846266 2:-0.320258 3:-0.612301 4:-0.0480773 
-0 0 32768 0 0 0 0 1:-0.257865 2:-0.485453 3:-0.746227 4:-0.217012 
-0 32768 32768 32768 32768 0 0 1:-0.240628 2:-0.189494 3:-0.710527 4:-0.236683 
-0 0 32768 0 32768 0 0 1:-0.184694 2:-0.173191 3:-0.670424 4:-0.178089 
-0 0 32768 0 0 0 0 1:-0.272056 2:-0.514319 3:-0.756726 4:-0.229525 
-0 32768 0 32768 0 0 0 1:-0.363172 2:-0.409775 3:-0.802684 4:-0.34143 
-0 32768 0 0 0 0 0 1:-0.302661 2:-0.325659 3:-0.762022 4:-0.285827 
-0 32768 10177.05944600116 0 0 0 0 1:-0.0882256 2:-0.285025 3:-0.611381 4:-0.0572157 
-0 32768 0 0 0 0 0 1:0.0210779 2:-0.208162 3:-0.513355 4:0.0513052 
-0 0 32768 0 0 0 0 1:-0.150179 2:-0.401191 3:-0.668322 4:-0.109001 
-0 0 0 29353.60080339606 0 0 0 1:0.0365728 2:-0.258053 3:-0.506397 4:0.0756842 
-0 32768 32768 32768 32768 0 0 1:-0.400318 2:-0.423073 3:-0.823365 4:-0.3807 
-0 0 32768 0 0 0 0 1:-0.21555 2:-0.439387 3:-0.715981 4:-0.175884 
-0 32768 0 0 0 0 0 1:0.151226 2:-0.145082 3:-0.385584 4:0.183576 
-0 31713.38434653396 0 0 0 0 0 1:0.2674 2:-0.194545 3:-0.276558 4:0.31895 
-0 32109.69914462337 0 0 0 0 0 1:0.375818 2:-0.248885 3:-0.167925 4:0.446026 
-32768 32768 32768 32768 0 0 0 1:-0.505446 2:-0.593927 3:-0.881197 4:-0.477354 
-32768 32768 32768 32768 32768 32768 0 1:-0.597774 2:-0.620085 3:-0.917998 4:-0.57657 
-0 32768 32768 0 0 0 0 1:-0.230385 2:-0.572668 3:-0.734426 4:-0.177504 
-32768 0 0 0 0 0 0 1:-0.381155 2:-0.483876 3:-0.816935 4:-0.351481 
-0 49.34808187811144 32768 0 0 0 0 1:-0.388156 2:-0.532672 3:-0.823149 4:-0.354956 
-0 0 32768 0 0 0 0 1:-0.276981 2:-0.418282 3:-0.753411 4:-0.245769 
-0 14275.65063778031 0 0 0 0 0 1:-0.0482008 2:-0.370924 3:-0.588963 4:-0.00143264 
-0 0.3431487451639872 0 21204.19835844822 0 0 0 1:0.0547611 2:-0.228929 3:-0.486775 4:0.0912914 
-0 32768 0 0 0 0 0 1:-0.44725 2:-0.616075 3:-0.855984 4:-0.41176 
-0 0 32768 0 0 0 0 1:-0.391621 2:-0.521076 3:-0.824365 4:-0.35994 
-0 32768 0 32768 32768 0 0 1:-0.446008 2:-0.441434 3:-0.847351 4:-0.428041 
-0 32768 0 0 0 0 0 1:-0.412311 2:-0.379755 3:-0.826989 4:-0.39804 
-32768 0 0 0 0 0 0 1:-0.392206 2:-0.42185 3:-0.819151 4:-0.371279 
-0 32768 8182.534326932209 0 32768 0 0 1:-0.408782 2:-0.398941 3:-0.82635 4:-0.392494 
-0 0 32768 0 0 0 0 1:-0.321653 2:-0.210735 3:-0.763831 4:-0.321433 
-0 0 32768 0 0 0 0 1:-0.241284 2:-0.22465 3:-0.714504 4:-0.232333 
-0 0 5192.293945367152 0 0 0 0 1:-0.0559218 2:-0.308381 3:-0.588776 4:-0.0178073 
-0 30814.80523129465 0 0 0 0 0 1:0.0429895 2:-0.227117 3:-0.49688 4:0.0785457 
-0 32768 0 0 0 0 0 1:0.0990994 2:-0.256461 3:-0.450402 4:0.143679 
-0 32768 32768 0 0 0 0 1:-0.228195 2:-0.284238 3:-0.711308 4:-0.210073 
-0 32768 3984.867578989211 0 8576.899105723063 0 0 1:-0.0335778 2:-0.145883 3:-0.550521 4:-0.0190827 
-0 32768 0 0 0 0 0 1:0.0902995 2:-0.175836 3:-0.447243 4:0.121076 
-0 10.84569289358405 0 0 0 0 0 1:0.0407037 2:-0.356248 3:-0.51436 4:0.094528 
-0 0 0 1.897406669019454 0 23.27053641121735 0 1:0.624234 2:0.104589 3:0.217696 4:0.653957 
-0 234.5605230960131 0 0 0 72.37665818851842 0 1:0.714655 2:0.243959 3:0.386805 4:0.723347 
-0 0 0 0.1154864326070592 0 0 0 1:0.55228 2:0.0387833 3:0.104785 4:0.588246 
-0 32768 32768 0 0 0 0 1:-0.477238 2:-0.549479 3:-0.867073 4:-0.450905 
-32768 32768 32768 32768 32768 32768 0 1:-0.501222 2:-0.69187 3:-0.88267 4:-0.464496 
-0 0 32768 0 0 0 0 1:-0.308499 2:-0.362346 3:-0.768263 4:-0.287389 
-0 0 32768 0 0 0 0 1:-0.211438 2:-0.239448 3:-0.695884 4:-0.196982 
-0 32768 0 32768 0 0 0 1:-0.222815 2:-0.3153 3:-0.710516 4:-0.200176 
-0 32768 0 0 187.6675016811102 0 0 1:0.0548219 2:-0.198765 3:-0.482412 4:0.086094 
-0 32768 0 0 24748.30709453515 0 0 1:0.00935776 2:-0.246459 3:-0.528041 4:0.044146 
-0 32768 23316.56186341287 0 0 0 0 1:0.0690718 2:-0.479746 3:-0.502538 4:0.141279 
-0 32768 0 32768 0 0 0 1:-0.32712 2:-0.430242 3:-0.783712 4:-0.299473 
-0 32750.12265286873 0 32768 1864.725130577157 0 0 1:-0.212206 2:-0.375644 3:-0.708569 4:-0.180563 
-0 32768 32768 0 0 0 0 1:-0.189032 2:-0.208445 3:-0.677213 4:-0.178509 
-0 6012.580228391569 0 0 0 0 0 1:-0.114369 2:-0.38149 3:-0.640671 4:-0.0722782 
-0 32768 0 32768 32768 0 0 1:-0.466874 2:-0.441082 3:-0.857233 4:-0.450712 
-0 0 32768 0 0 0 0 1:-0.211253 2:-0.47461 3:-0.715754 4:-0.16705 
-0 0 32768 0 0 0 0 1:-0.174106 2:-0.248818 3:-0.670995 4:-0.155576 
-0 32768 0 5494.200478115759 0 0 0 1:0.0317291 2:-0.0194622 3:-0.476601 4:0.0335868 
-0 0 7388.26798429568 0 0 0 0 1:-0.00531511 2:-0.220082 3:-0.537313 4:0.0247369 
-0 0 10.8920898659191 0 0 0 0 1:-0.319267 2:-0.433663 3:-0.779658 4:-0.290304 
-0 0 32768 0 0 0 0 1:-0.222799 2:-0.424461 3:-0.719623 4:-0.18577 
-0 32768 0 0 0 0 0 1:-0.0795612 2:-0.396421 3:-0.615793 4:-0.0324891 
-0 32768 0 0 0 0 0 1:-0.16301 2:-0.215884 3:-0.659602 4:-0.148854 
-0 16865.60950721092 0 0 0 0 0 1:-0.117061 2:-0.0624797 3:-0.606969 4:-0.121638 
-0 0 32768 0 0 0 0 1:-0.213039 2:-0.310059 3:-0.703706 4:-0.189621 
-0 32768 27598.42776601557 0 0 0 0 1:-0.122189 2:-0.23228 3:-0.631459 4:-0.101889 
-0 32768 0 0 0 0 0 1:0.253321 2:-0.327197 3:-0.310966 4:0.323292 
-1159.798404823945 31933.2925293817 0 0 0 0 0 1:0.451537 2:-0.192375 3:-0.070376 4:0.520168 
-0 32768 0 0 32768 0 0 1:-0.36509 2:-0.540371 3:-0.811394 4:-0.328844 
-0 0 0 0 0 1340.27496046057 0 1:0.078704 2:-0.161045 3:-0.455923 4:0.108056 
-0 32768 0 0 0 0 0 1:0.0845649 2:-0.217465 3:-0.45859 4:0.122578 
-0 32768 0 0 0 0 0 1:0.0672535 2:-0.217514 3:-0.474002 4:0.102949 
-0 32768 0 0 0 0 0 1:-0.0789095 2:-0.368365 3:-0.612742 4:-0.0351948 
-0 32768 32768 0 0 0 0 1:-0.0503456 2:-0.16766 3:-0.567753 4:-0.0331463 
-0 0 12406.94835660832 0 0 0 0 1:-0.0588153 2:-0.288715 3:-0.588914 4:-0.0239799 
-0 32768 32768 0 0 1415.12773485612 0 1:0.0487784 2:-0.367428 3:-0.508618 4:0.105928 
-0 32768 0 0 0 0 0 1:-0.446484 2:-0.592826 3:-0.854746 4:-0.412947 
-0 32768 32768 0 0 0 0 1:-0.351668 2:-0.329096 3:-0.790894 4:-0.338766 
-0 32763.61320310419 0 0 0 0 0 1:-0.262509 2:-0.356826 3:-0.739716 4:-0.237977 
-0 12990.74165369893 0 18181.06675751272 0 0 0 1:-0.178985 2:-0.381708 3:-0.686653 4:-0.143448 
-0 32768 0 0 0 0 0 1:-0.162573 2:-0.349989 3:-0.672572 4:-0.12949 
-0 32768 0 0 0 0 0 1:-0.0582524 2:-0.38317 3:-0.598218 4:-0.0107016 
-0 0 32768 0 0 0 0 1:-0.0408171 2:-0.204198 3:-0.564649 4:-0.016845 
-0 32768 0 0 0 0 0 1:-0.0482056 2:-0.371951 3:-0.589051 4:-0.00126238 
-0 32768 0 0 0 0 0 1:0.0148632 2:-0.293608 3:-0.529039 4:0.0571679 
-32768 32768 32768 0 0 0 0 1:-0.476357 2:-0.549432 3:-0.866689 4:-0.449799 
-0 32768 0 0 0 0 0 1:-0.42889 2:-0.525533 3:-0.84333 4:-0.400163 
-0 32768 32768 0 0 0 0 1:-0.370958 2:-0.288362 3:-0.798657 4:-0.364551 
-0 32768 32768 0 0 0 0 1:-0.10499 2:-0.203539 3:-0.615195 4:-0.0873134 
-0 0 32768 0 0 0 0 1:-0.353099 2:-0.275917 3:-0.787628 4:-0.346733 
-0 32768 0 0 0 0 0 1:-0.138425 2:-0.202234 3:-0.640148 4:-0.124295 
-0 32768 0 0 0 0 0 1:0.0343413 2:-0.228927 3:-0.504625 4:0.0690701 
-0 12953.88212579416 0 0 0 0 0 1:0.263596 2:-0.29216 3:-0.295473 4:0.329637 
-0 0 32768 0 0 0 0 1:-0.156444 2:-0.403836 3:-0.672963 4:-0.11556 
-0 32768 32768 0 0 0 0 1:-0.0126215 2:-0.479795 3:-0.570909 4:0.0515171 
-0 32768 0 0 0 0 0 1:0.106595 2:-0.204902 3:-0.436565 4:0.143997 
-0 195.1525049317414 0 0 0 0 0 1:0.333995 2:-0.142053 3:-0.195868 4:0.382922 
-0 0 0 1.615819222853953 3.171310554236547 0 0.4558429049802999 1:0.735954 2:-0.0241311 3:0.338228 4:0.801712 
-0 269.6998218842363 0 0 0 0 0 1:0.755312 2:0.221936 3:0.439762 4:0.77765 
-0 32768 32768 0 32768 0 0 1:-0.329025 2:-0.249782 3:-0.771614 4:-0.324697 
-0 32768 0 0 0 0 0 1:-0.451166 2:-0.629917 3:-0.858382 4:-0.414715 
-0 32768 32768 0 0 0 0 1:-0.470349 2:-0.554771 3:-0.864199 4:-0.442768 
-32768 32768 32768 32768 32768 0 0 1:-0.482834 2:-0.525195 3:-0.868555 4:-0.459432 
-0 32768 0 0 0 0 0 1:-0.406358 2:-0.389702 3:-0.824549 4:-0.390802 
-0 27532.30494008878 0 0 0 0 0 1:0.148903 2:-0.133984 3:-0.386052 4:0.179424 
-0 32768 0 0 0 0 0 1:0.169483 2:-0.0713189 3:-0.355399 4:0.190999 
-0 32768 0 0 0 0 0 1:0.326961 2:-0.0010057 3:-0.176305 4:0.351559 
-0 32768 0 0 0 0 0 1:0.524258 2:-0.060472 3:0.0453598 4:0.577075 
-0 32768 0 10345.46541895336 32768 0 0 1:-0.413578 2:-0.39051 3:-0.828317 4:-0.398683 
-0 31689.68698054754 0 0 0 0 0 1:-0.284739 2:-0.29496 3:-0.748612 4:-0.270455 
-32768 32768 32768 32768 32768 32768 0 1:-0.441646 2:-0.269683 3:-0.834691 4:-0.444365 
-32768 32768 32768 32768 32768 32768 0 1:-0.611968 2:-0.586978 3:-0.921982 4:-0.595085 
-0 32768 0 0 0 0 0 1:-0.458011 2:-0.504744 3:-0.856259 4:-0.433982 
-0 0 0 0 1705.973981092272 0 0 1:-0.0823341 2:-0.0589311 3:-0.579149 4:-0.0831418 
-0 32768 32768 0 0 0 0 1:-0.0851536 2:-0.223835 3:-0.602106 4:-0.0625045 
-0 27755.08869791197 32768 8309.972794337969 0 0 0 1:-0.023174 2:-0.229161 3:-0.553289 4:0.00604542 
-0 32768 0 0 0 0 0 1:0.322613 2:-0.0508594 3:-0.191237 4:0.35463 
-0 32768 0 0 0 0 0 1:0.358561 2:-0.0726439 3:-0.155203 4:0.397578 
-0 32768 0 0 0 0 0 1:-0.344489 2:-0.369859 3:-0.789745 4:-0.325829 
-0 0 32768 0 0 0 0 1:-0.381119 2:-0.616807 3:-0.823462 4:-0.338954 
-0 0 32768 0 0 0 0 1:-0.387747 2:-0.499362 3:-0.821235 4:-0.357973 
-0 32768 0 0 0 0 0 1:-0.381374 2:-0.45815 3:-0.81559 4:-0.355592 
-0 0 1333.013862437535 0 0 0 0 1:-0.290139 2:-0.455865 3:-0.763981 4:-0.255649 
-0 0 3255.622527458867 0 0 0 0 1:-0.143154 2:-0.367086 3:-0.660273 4:-0.105799 
-0 0 32768 0 0 0 0 1:-0.0819807 2:-0.337784 3:-0.612042 4:-0.0424297 
-0 32768 32768 0 0 0 0 1:-0.0352944 2:-0.496545 3:-0.590296 4:0.0284089 
-0 0 10346.84997751395 0 0 0 0.106008585607454 1:0.212866 2:-0.0702775 3:-0.311769 4:0.241482 
-0 32768 0 0 0 0 0 1:0.273075 2:-0.0681249 3:-0.248346 4:0.304258 
-0 32768 3929.818005801935 0 0 0 0 1:-0.00604108 2:-0.281444 3:-0.54526 4:0.032338 
-0 2247.2846239143 0 0 0 0 0 1:0.727828 2:-0.0237307 3:0.327026 4:0.79322 
-0 11741.34841110825 0 0 0 0 0 1:0.598853 2:-0.0728055 3:0.13877 4:0.660769 
-0 32768 0 0 0 0 0 1:0.389608 2:-0.0462272 3:-0.114308 4:0.426821 
-0 32768 27749.48479321176 0 0 0 0 1:-0.451836 2:-0.689381 3:-0.860767 4:-0.410497 
-0 32768 0 0 0 0 0 1:-0.336786 2:-0.43632 3:-0.789789 4:-0.309486 
-0 32768 0 0 0 0 0 1:-0.347464 2:-0.380781 3:-0.792168 4:-0.327571 
-0 32768 0 32768 32768 0 0 1:-0.453848 2:-0.44911 3:-0.851465 4:-0.435797 
-0 32768 0 11437.00231093498 32768 0 0 1:-0.267274 2:-0.281173 3:-0.736361 4:-0.253366 
-0 30281.55778836685 0 0 0 0 0 1:-0.177172 2:-0.274448 3:-0.67573 4:-0.155706 
-0 32768 0 0 0 0 0 1:-0.159172 2:-0.318047 3:-0.667014 4:-0.130266 
-0 32768 0 0 0 0 0 1:0.216503 2:-0.307852 3:-0.345336 4:0.280169 
-0 28788.92450230706 0 0 0 0 0.4931708753092506 1:0.321398 2:-0.41238 3:-0.251378 4:0.410064 
-0 32768 0 0 0 0 0 1:0.162682 2:0.0425777 3:-0.341733 4:0.167986 
-0 32768 0 0 0 0 0 1:0.47413 2:0.120703 3:0.0260753 4:0.488732 
-32768 32768 32768 32768 32768 32768 0 1:-0.53521 2:-0.563403 3:-0.892415 4:-0.51308 
-32768 32768 32768 32768 32768 32768 0 1:-0.530053 2:-0.602862 3:-0.891726 4:-0.503732 
-32768 32758.55215901201 0 0 0 0 0 1:-0.416738 2:-0.432828 3:-0.832418 4:-0.396613 
-0 0 32768 0 0 0 0 1:-0.373582 2:-0.457708 3:-0.811409 4:-0.347058 
-0 32768 32768 0 0 0 0 1:-0.355649 2:-0.42346 3:-0.799563 4:-0.331454 
-0 0 32768 0 0 0 0 1:-0.205328 2:-0.190793 3:-0.686837 4:-0.197555 
-0 0 0 0 571.7241929162101 0 0 1:-0.117365 2:-0.203207 3:-0.624529 4:-0.0981402 
-0 0 0 0 3315.28707710667 0 0 1:-0.0972716 2:-0.0529806 3:-0.590236 4:-0.0978152 
-27577.90712922989 0 0 0 0 0 0 1:0.0260273 2:0.0148772 3:-0.476179 4:0.0237661 
-0 32768 0 0 0 0 0 1:0.141132 2:0.0203686 3:-0.367244 4:0.144881 
-0 32768 4229.167484806529 0 0 0 0 1:0.274199 2:0.153861 3:-0.201106 4:0.266386 
-0 32768 0 0 0 0 0 1:0.330651 2:-0.047879 3:-0.181571 4:0.36333 
-0 32768 0 0 0 0 0 1:0.301714 2:0.00820988 3:-0.202335 4:0.321136 
-0 32768 0 0 0 0 0 1:-0.0942063 2:-0.385599 3:-0.626017 4:-0.0496907 
-0 0.7090585874231438 0 0 0 0 0 1:0.00903026 2:-0.126582 3:-0.512579 4:0.0252762 
-0 32768 0 0 0 0 0 1:0.274127 2:-0.169947 3:-0.265403 4:0.322031 
-0 19289.03024718892 0 0 0 0 0 1:0.354191 2:-0.259679 3:-0.193646 4:0.423957 
-0 2347.903781661822 0 0 0 0 0 1:0.627502 2:-0.0510843 3:0.181683 4:0.688646 
-1.190067973516478 0 0 8.570977900377834 7.164721502968283 10.08214447932758 1.415040249061546 1:0.950783 2:0.154234 3:0.718599 4:1 
-0 32768 32768 0 0 0 0 1:-0.31644 2:-0.565965 3:-0.785861 4:-0.272709 
-0 32768 32768 32768 32768 0 0 1:-0.479138 2:-0.506994 3:-0.866056 4:-0.457179 
-0 32768 32768 32768 32768 0 0 1:-0.400083 2:-0.324633 3:-0.817025 4:-0.392182 
-0 0 32768 0 0 0 0 1:-0.252963 2:-0.35607 3:-0.733656 4:-0.227074 
-0 32768 0 0 32768 0 0 1:-0.227467 2:-0.39153 3:-0.720001 4:-0.19524 
-0 32768 0 32768 32768 0 0 1:-0.268999 2:-0.388812 3:-0.74612 4:-0.241181 
-0 0 32768 0 0 0 0 1:-0.10627 2:-0.232783 3:-0.619421 4:-0.082858 
-0 32768 0 0 14112.46957225141 0 0 1:0.00976712 2:-0.194324 3:-0.520921 4:0.0374732 
-32768 32768 32768 32768 32768 0 0 1:-0.491005 2:-0.380852 3:-0.865135 4:-0.483689 
-0 32768 0 0 0 0 0 1:-0.446806 2:-0.578739 3:-0.854322 4:-0.414554 
-0 32768 0 0 0 0 0 1:-0.334056 2:-0.574892 3:-0.796248 4:-0.291212 
-0 0 32768 0 0 0 0 1:-0.377178 2:-0.531255 3:-0.817379 4:-0.342888 
-0 32768 0 0 0 0 0 1:-0.424513 2:-0.481504 3:-0.838977 4:-0.39991 
-0 0 32768 0 0 0 0 1:-0.0215566 2:-0.0192424 3:-0.523119 4:-0.0234031 
-0 32768 32768 0 0 0 0 1:0.0133344 2:-0.052252 3:-0.498032 4:0.0180559 
-0 10760.64589861959 0 0 0 0 0 1:0.461361 2:-0.101381 3:-0.0409464 4:0.516197 
-0 32768 11359.29781094647 0 0 0 0 1:0.188493 2:-0.125574 3:-0.345881 4:0.220916 
-32768 32768 32768 32768 32768 0 0 1:-0.508415 2:-0.569275 3:-0.881529 4:-0.483007 
-0 32768 1052.824627420061 32768 180.0956580011938 0 0 1:-0.105644 2:0.113961 3:-0.572305 4:-0.133064 
-4220.86389412538 32768 21971.78116417523 6387.27488212411 554.0040695656734 0 0 1:0.0193496 2:0.11457 3:-0.465051 4:0.000435866 
-0 32768 0 0 0 0 0 1:0.316865 2:0.0229553 3:-0.182474 4:0.335054 
-0 0 0 23529.72546487319 0 0 0 1:-0.210033 2:-0.364122 3:-0.706269 4:-0.179593 
-0 32768 32768 0 0 0 0 1:-0.0967005 2:-0.369388 3:-0.626376 4:-0.0543534 
-0 32768 0 0 0 0 0 1:0.0449186 2:-0.398529 3:-0.515125 4:0.104332 
-0 0 0 32768 0 0 0 1:-0.182798 2:-0.41319 3:-0.691932 4:-0.143592 
-0 16286.22985020906 0 0 0 0 0 1:-0.0253128 2:-0.360516 3:-0.569808 4:0.0223787 
-0 0 3967.555967434503 0 0 0 0 1:-0.0304444 2:-0.369707 3:-0.574879 4:0.0182549 
-0 19507.81512594386 0 0 0 0 0 1:0.180212 2:-0.334291 3:-0.384466 4:0.244183 
-0 14379.52829188275 0 0 0 0 0.7466161573995477 1:0.424552 2:-0.372146 3:-0.13183 4:0.517841 
-0.8652421413042557 0 0 1.444977194971654 0.8736773689159525 0 0.2297834129942666 1:0.88348 2:0.264372 3:0.650021 4:0.902682 
-0.1491521254654128 2900.045527545247 0 8.283109783910673 7.202358109300543 248.5951005231452 1.38992373025482 1:0.676583 2:0.393634 3:0.382611 4:0.655243 
-0 25334.96280262428 21763.63128573012 0 32768 0 0 1:-0.34734 2:-0.142879 3:-0.773025 4:-0.357081 
-32768 32768 32768 32768 32768 32768 30739.19559650907 1:-0.583545 2:-0.544187 3:-0.910455 4:-0.567626 
-32768 32768 32768 32768 32768 32768 0 1:-0.517783 2:-0.538235 3:-0.884264 4:-0.496475 
-0 32768 0 32768 32768 0 0 1:-0.423655 2:-0.398827 3:-0.83393 4:-0.408719 
-0 0 14158.14963437395 0 0 0 0 1:-0.325935 2:-0.449643 3:-0.784499 4:-0.295722 
-0 32768 0 0 0 0 0 1:-0.144649 2:-0.226806 3:-0.647496 4:-0.127098 
-0 32768 32768 0 0 0 0 1:-0.10688 2:-0.523987 3:-0.646879 4:-0.0470078 
-32768 32768 32768 32768 32768 32768 0 1:-0.545145 2:-0.662638 3:-0.899672 4:-0.51501 
-32768 32768 32768 32768 0 0 0 1:-0.499067 2:-0.610528 3:-0.87907 4:-0.468962 
-32768 32768 32768 32768 32768 32768 0 1:-0.546532 2:-0.555293 3:-0.896658 4:-0.526213 
-0 32768 0 0 0 0 0 1:-0.441672 2:-0.48825 3:-0.8477 4:-0.41819 
-0 0 32768 0 0 0 0 1:-0.125558 2:-0.332908 3:-0.644347 4:-0.0902893 
-0 0 32768 0 0 0 0 1:-0.344408 2:-0.397255 3:-0.791587 4:-0.322117 
-0 32768 0 0 0 0 0 1:-0.263464 2:-0.315133 3:-0.736914 4:-0.244575 
-0 32768 0 0 15907.31908413768 0 0 1:-0.0994888 2:-0.233557 3:-0.614148 4:-0.0770909 
-0 32768 0 0 17473.16946643912 0 0 1:-0.0704173 2:-0.299214 3:-0.598851 4:-0.0356426 
-0 32768 0 0 0 0 0 1:-0.0755146 2:-0.267232 3:-0.599655 4:-0.0457473 
-32768 32768 32768 32768 32768 32768 0 1:-0.492991 2:-0.368735 3:-0.865347 4:-0.487788 
-32768 32768 32768 32768 0 0 0 1:-0.503074 2:-0.635191 3:-0.881648 4:-0.4712 
-0 32768 32768 0 0 0 0 1:-0.462215 2:-0.592448 3:-0.862036 4:-0.430195 
-0 32768 0 0 0 0 0 1:-0.438507 2:-0.594025 3:-0.850969 4:-0.404183 
-0 32768 0 32768 29346.05343997393 0 0 1:-0.455986 2:-0.454852 3:-0.852831 4:-0.437282 
-0 32768 0 0 0 0 0 1:-0.395171 2:-0.35917 3:-0.816707 4:-0.381941 
-0 32768 32768 0 0 0 0 1:-0.290522 2:-0.457717 3:-0.764156 4:-0.256131 
-0 0 0 23573.08806064979 0 0 0 1:-0.278307 2:-0.347668 3:-0.748724 4:-0.256116 
-0 32768 0 0 0 0 0 1:-0.149024 2:-0.348856 3:-0.662589 4:-0.114954 
-0 32768 0 0 0 0 0 1:-0.0744651 2:-0.142717 3:-0.583937 4:-0.0629744 
-0 32768 32768 0 0 0 0 1:0.0238761 2:-0.284974 3:-0.520566 4:0.0658902 
-0 32768 0 0 0 0 0 1:-0.0781125 2:-0.353961 3:-0.610479 4:-0.0363067 
-0 32768 0 0 0 0 0 1:0.0908122 2:-0.299541 3:-0.463508 4:0.141377 
-0 7034.387502462913 0 0 0 0 0 1:0.147582 2:-0.413584 3:-0.425017 4:0.219191 
-0 32106.75785520618 0 0 0 0 0 1:0.117399 2:-0.521566 3:-0.463611 4:0.199077 
-0 32768 0 95.93210263984301 0 0 0 1:0.194643 2:-0.41743 3:-0.380576 4:0.271163 
-0 509.0423504086249 0 0 0 0 0 1:0.294165 2:-0.232181 3:-0.254413 4:0.354022 
-210.4805762734049 32768 0 0 0 0 0 1:0.429753 2:-0.0912041 3:-0.0766132 4:0.479242 
-0 0 0 6.796427561323076 4.140618345252202 2.643390968855542 1.048559173216914 1:0.671155 2:-0.197234 3:0.207127 4:0.761898 
-0 32768 0 0 0 0 0 1:0.239119 2:-0.0417805 3:-0.27936 4:0.261457 
-201.2014837403574 454.5621181316282 0 0 0 16.78261335508968 5.993268063337527 1:-0.150736 2:0.267894 3:-0.583622 4:-0.208889 
-0 32768 0 0 0 0 0 1:-0.452862 2:-0.629239 3:-0.859153 4:-0.416586 
-0 32768 0 32768 32768 1475.477757760332 0 1:-0.33384 2:-0.498704 3:-0.791613 4:-0.299766 
-0 0 0 32768 2948.188557908304 32768 0 1:-0.213249 2:-0.440347 3:-0.714132 4:-0.174082 
-0 0 3563.897958085465 0 0 0 0 1:-0.132551 2:-0.381996 3:-0.65392 4:-0.0920768 
-0 32768 14490.17131339 0 0 0 0 1:-0.160757 2:-0.379413 3:-0.673916 4:-0.123134 
-32768 32768 32768 32768 32768 32768 23578.3547957925 1:-0.623741 2:-0.557227 3:-0.925139 4:-0.610498 
-0 0 32768 0 0 0 0 1:-0.351819 2:-0.29066 3:-0.788087 4:-0.343479 
-0 32768 0 0 0 0 0 1:-0.17332 2:-0.402042 3:-0.684606 4:-0.134094 
-32768 32768 32768 0 0 0 0 1:-0.485804 2:-0.622213 3:-0.87374 4:-0.453379 
-0 32768 32768 0 0 0 0 1:-0.468665 2:-0.624383 3:-0.866157 4:-0.434455 
-0 32768 0 0 0 0 0 1:-0.44376 2:-0.489121 3:-0.848718 4:-0.420051 
-0 32768 0 0 0 0 0 1:-0.442356 2:-0.451233 3:-0.846078 4:-0.422608 
-0 32768 0 0 0 7831.344161823871 0 1:-0.397358 2:-0.51201 3:-0.826769 4:-0.367269 
-0 0 23155.80039884641 0 0 0 0 1:-0.186369 2:-0.377025 3:-0.691367 4:-0.152153 
-0 32768 9635.766375011051 0 0 0 0 1:0.0633548 2:-0.419515 3:-0.50157 4:0.12758 
-0 0 0 0 7130.097954633306 0 0 1:0.106535 2:-0.401963 3:-0.461379 4:0.172563 
-32768 32768 32768 32768 32768 32768 0 1:-0.546881 2:-0.478771 3:-0.893784 4:-0.534486 
-32768 32768 32768 32768 32768 0 0 1:-0.50163 2:-0.500118 3:-0.875743 4:-0.482579 
-0 32768 0 0 0 0 0 1:-0.365268 2:-0.391924 3:-0.802796 4:-0.345669 
-0 0 10642.34159736987 0 0 0 0 1:-0.0451716 2:-0.146765 3:-0.560909 4:-0.030321 
-32768 32768 32768 32768 32768 0 0 1:-0.511082 2:-0.516824 3:-0.88053 4:-0.491175 
-0 32768 0 0 0 0 0 1:-0.436536 2:-0.48926 3:-0.845253 4:-0.412334 
-0 32768 0 0 0 0 0 1:-0.40931 2:-0.491608 3:-0.831896 4:-0.382298 
-0 0 32768 0 0 0 0 1:-0.398587 2:-0.510481 3:-0.827414 4:-0.368593 
-0 32768 0 0 0 0 0 1:-0.229649 2:-0.424844 3:-0.724019 4:-0.193196 
-0 32768 0 0 0 0 0 1:-0.0966416 2:-0.295027 3:-0.618762 4:-0.0649531 
-0 32768 0 0 0 0 0 1:-0.128967 2:-0.221682 3:-0.635298 4:-0.110816 
-0 32768 0 0 0 0 0 1:0.0663257 2:-0.324081 3:-0.488294 4:0.117848 
-0 32768 0 0 0 0 0 1:0.0808309 2:-0.319685 3:-0.474962 4:0.133148 
-0 32768 0 0 0 0 0 1:0.0487964 2:-0.280015 3:-0.498501 4:0.0925792 
-0 0 141.2318333137113 0 0 0 0 1:-0.280115 2:-0.559453 3:-0.764243 4:-0.233558 
-0 32768 0 0 0 0 0 1:-0.0364979 2:-0.254818 3:-0.56709 4:-0.00467804 
-0 0 5187.919264203568 0 0 0 0 1:0.0041411 2:-0.259025 3:-0.534175 4:0.0405828 
-0 0 0 0 5267.140932186861 0 0 1:0.22274 2:-0.163105 3:-0.317481 4:0.265563 
-0 32768 32768 0 0 0 0 1:-0.0443337 2:-0.0428916 3:-0.5457 4:-0.0465444 
-0 32768 0 32768 32768 0 0 1:-0.470374 2:-0.495056 3:-0.861469 4:-0.448978 
-0 0 15355.47405602113 0 0 0 0 1:-0.0912456 2:-0.397379 3:-0.62487 4:-0.0448869 
-32768 32768 32768 27799.60083095383 0 0 0 1:-0.48632 2:-0.612591 3:-0.873593 4:-0.454693 
-5357.507285857731 0 0 0 0 0 0 1:-0.436989 2:-0.490156 3:-0.845533 4:-0.412208 
-0 0 24389.79383248502 0 0 0 0 1:-0.205916 2:-0.352417 3:-0.702643 4:-0.1758 
-32768 0 0 0 0 0 0 1:-0.25807 2:-0.284351 3:-0.730928 4:-0.240734 
-0 32768 0 0 0 0 0 1:-0.454381 2:-0.592396 3:-0.858423 4:-0.421589 
-0 0 32768 0 0 0 0 1:-0.377159 2:-0.532714 3:-0.817424 4:-0.34266 
-0 0 32768 0 0 0 0 1:-0.387481 2:-0.566125 3:-0.824452 4:-0.350695 
-0 3489.588134694437 0 0 0 0 0 1:-0.434058 2:-0.544101 3:-0.846714 4:-0.403864 
-0 32768 32768 0 0 0 0 1:-0.351952 2:-0.56747 3:-0.805702 4:-0.311636 
-0 0 32768 0 0 0 0 1:-0.4002 2:-0.576598 3:-0.831465 4:-0.363663 
-0 0 32768 0 0 0 0 1:-0.0466779 2:-0.45915 3:-0.596155 4:0.0116264 
-0 0 23282.88773782023 0 0 0 0 1:-0.135861 2:-0.25982 3:-0.644541 4:-0.112014 
-0 0 32768 0 0 0 0 1:-0.14319 2:-0.273201 3:-0.651305 4:-0.11809 
-0 24.28728820677868 0 0 0 0 0 1:-0.336071 2:-0.504718 3:-0.793577 4:-0.300833 
-0 0 6.490339993501959 0 0 0 0 1:-0.244549 2:-0.468715 3:-0.736775 4:-0.204381 
-0 0 32768 0 0 0 0 1:-0.103267 2:-0.259629 3:-0.620183 4:-0.0767803 
-0 0 32768 0 0 0 0 1:-0.169876 2:-0.247514 3:-0.667882 4:-0.150482 
-0 32768 0 0 0 0 0 1:0.00844273 2:-0.160221 3:-0.517788 4:0.0296902 
-0 32768 0 0 0 0 0 1:-0.150859 2:-0.210768 3:-0.650156 4:-0.136378 
-0 32768 27930.88549170563 32768 32768 0 0 1:-0.466916 2:-0.424574 3:-0.856349 4:-0.453248 
-0 0 6946.870193314211 0 0 0 0 1:-0.285615 2:-0.29113 3:-0.748845 4:-0.27181 
-6023.768368627674 0 0 0 0 0 0 1:-0.244818 2:-0.24196 3:-0.718499 4:-0.231748 
-0 0 32768 0 0 0 0 1:-0.135456 2:-0.245218 3:-0.64272 4:-0.113799 
-0 32768 0 0 0 0 0 1:-0.0982279 2:-0.384088 3:-0.628899 4:-0.0541184 
-0 32768 2985.579349061061 0 0 0 0 1:0.0616502 2:-0.33131 3:-0.49331 4:0.113801 
-0 0 32768 0 0 0 0 1:-0.298628 2:-0.197423 3:-0.74862 4:-0.298093 
-0 32768 0 0 0 0 0 1:-0.409474 2:-0.40104 3:-0.826854 4:-0.392438 
-0 0 32768 0 0 0 0 1:-0.322518 2:-0.50422 3:-0.785915 4:-0.285832 
-0 32768 0 0 0 0 0 1:-0.320528 2:-0.47735 3:-0.783119 4:-0.286835 
-0 32768 0 32768 32768 0 0 1:-0.363823 2:-0.550027 3:-0.811182 4:-0.32656 
-0 32768 0 0 0 0 0 1:-0.123766 2:-0.383129 3:-0.647596 4:-0.0826446 
-0 0 32768 0 0 0 0 1:-0.081078 2:-0.404056 3:-0.617732 4:-0.0330185 
-0 20396.10172480625 0 0 0 0 0 1:0.00728808 2:-0.24888 3:-0.530285 4:0.0422043 
-0 0 32768 0 0 0 0 1:-0.299016 2:-0.410139 3:-0.766156 4:-0.271092 
-0 0 32768 0 0 0 0 1:-0.257915 2:-0.34418 3:-0.735897 4:-0.233381 
-0 0 32768 0 0 0 0 1:-0.135416 2:-0.396499 3:-0.657339 4:-0.0934563 
-0 0 0 2091.26028663657 0 0 0 1:-0.117973 2:-0.420486 3:-0.646774 4:-0.0709426 
-0 0 1929.61116968581 0 0 0 0 1:0.0343327 2:-0.341602 3:-0.5182 4:0.0855376 
-0 32768 0 7808.621891058458 0 0 0 1:0.132073 2:-0.123118 3:-0.400264 4:0.158405 
-0 32768 32768 0 24858.19698563429 0 0 1:-0.0999046 2:-0.0436966 3:-0.590839 4:-0.107251 
-0 32768 0 0 0 0 0 1:-0.345803 2:-0.421652 3:-0.793976 4:-0.321015 
-0 32768 32768 0 0 0 0 1:-0.386871 2:-0.479537 3:-0.819698 4:-0.359293 
-0 0 32768 0 0 0 0 1:-0.187357 2:-0.249732 3:-0.680411 4:-0.170195 
-0 0 0 0 0 0 4.679174640186329 1:-0.171855 2:-0.291544 3:-0.6736 4:-0.147116 
-15189.977841078 0 0 0 25005.00893601658 0 0 1:0.166766 2:-0.204727 3:-0.379664 4:0.210328 
-0 0 0 24025.88316609629 0 0 0 1:0.0994146 2:-0.188194 3:-0.440862 4:0.133983 
-0 0 32768 0 0 32768 0 1:-0.279102 2:-0.19989 3:-0.736603 4:-0.275812 
-0 32768 32768 0 32768 0 0 1:-0.367033 2:-0.288952 3:-0.796514 4:-0.360512 
-0 32768 0 0 0 0 0 1:-0.164991 2:-0.538215 3:-0.689077 4:-0.109263 
-0 32768 0 0 0 0 0 1:-0.347006 2:-0.350294 3:-0.789795 4:-0.330876 
-0 32768 21610.02444587747 0 0 0 0 1:-0.462916 2:-0.523352 3:-0.859363 4:-0.43769 
-0 0 32768 0 0 0 0 1:-0.330247 2:-0.426299 3:-0.785467 4:-0.303316 
-0 81.31639965949252 0 0 0 0 0 1:-0.281604 2:-0.467307 3:-0.759568 4:-0.245286 
-0 32768 32768 0 0 0 0 1:-0.0693126 2:-0.194293 3:-0.586334 4:-0.0499163 
-0 0 32768 0 0 0 0 1:-0.0945126 2:-0.505041 3:-0.636364 4:-0.0355586 
-0 32768 0 0 0 0 0 1:-0.030916 2:-0.400792 3:-0.578296 4:0.0217119 
-0 0 32768 0 0 0 0 1:-0.264919 2:-0.500966 3:-0.75161 4:-0.223062 
-0 32768 32768 0 0 0 0 1:-0.246812 2:-0.40637 3:-0.73369 4:-0.214401 
-0 4725.370423235113 0 0 0 0 0 1:-0.0633363 2:-0.315943 3:-0.595199 4:-0.0253285 
-0 32768 0 0 0 0 0 1:-0.0457154 2:-0.353365 3:-0.585176 4:-0.00107849 
-0 2.350233244998968 0 0 0 0 0 1:0.129783 2:-0.428772 3:-0.443132 4:0.201551 
-0 12634.46358037728 0 0 0 0 0 1:0.0559719 2:-0.349832 3:-0.50024 4:0.109981 
-0 0 32768 0 0 0 0 1:-0.0982624 2:-0.440753 3:-0.633914 4:-0.0471278 
-0 32768 0 0 0 21768.22288771047 0 1:-0.230738 2:-0.552576 3:-0.73344 4:-0.179999 
-0 32768 32768 0 0 0 0 1:-0.142534 2:-0.554372 3:-0.674513 4:-0.0830123 
-0 3874.099458444427 32768 0 0 0 0 1:-0.119779 2:-0.518867 3:-0.655897 4:-0.0617473 
-0 32768 0 0 0 0 0 1:-0.310389 2:-0.399581 3:-0.772084 4:-0.284996 
-0 32768 0 0 0 0 0 1:-0.414561 2:-0.549187 3:-0.837304 4:-0.382251 
-0 32768 32768 0 0 0 0 1:-0.444087 2:-0.517794 3:-0.850299 4:-0.41777 
-0 0 32768 0 0 0 0 1:-0.357049 2:-0.498064 3:-0.804796 4:-0.324272 
-0 32768 0 0 0 0 0 1:-0.176323 2:-0.534912 3:-0.696559 4:-0.122128 
-0 32768 0 32768 32768 0 0 1:-0.356036 2:-0.509925 3:-0.804784 4:-0.322321 
-0 32768 0 0 0 0 0 1:-0.405758 2:-0.423266 3:-0.826244 4:-0.385923 
-0 0 32768 0 0 0 0 1:-0.281598 2:-0.404892 3:-0.755289 4:-0.252445 
-0 25470.05513860575 0 0 0 0 0 1:0.0648835 2:-0.376689 3:-0.495696 4:0.12382 
-0 0 0 0 0 13827.19984540302 0 1:0.0855001 2:-0.0960685 3:-0.439891 4:0.106025 
-0 19981.33864511074 0 0 0 0 0 1:0.191012 2:0.0131232 3:-0.318748 4:0.203746 
-0 32768 0 0 0 0 0 1:0.165777 2:-0.0428809 3:-0.354219 4:0.184042 
-0 32768 32768 0 0 0 0 1:-0.0665741 2:-0.208924 3:-0.585909 4:-0.044527 
-0 32768 0 0 0 0 0 1:-0.25495 2:-0.472255 3:-0.74357 4:-0.215147 
-0 0 32768 0 0 0 0 1:-0.266723 2:-0.427955 3:-0.747787 4:-0.233506 
-0 32768 0 0 0 0 0 1:-0.310505 2:-0.567123 3:-0.782508 4:-0.266199 
-0 32768 0 0 0 0 0 1:-0.298946 2:-0.363013 3:-0.762622 4:-0.27702 
-0 1204.037281728441 0 0 0 0 0 1:-0.12361 2:-0.354571 3:-0.644896 4:-0.085961 
-0 32768 32768 0 0 0 0 1:0.0537344 2:-0.30597 3:-0.497337 4:0.101737 
-0 32768 0 0 0 0 0 1:0.401123 2:-0.049053 3:-0.101519 4:0.440078 
-0 32768 0 0 0 0 0 1:-0.259755 2:-0.468021 3:-0.746264 4:-0.221046 
-0 4260.471839761667 0 0 0 0 0 1:-0.000599149 2:-0.296401 3:-0.542346 4:0.0408281 
-4210.635083426477 0 0 0 8825.20646664965 0 0 1:0.153841 2:-0.171938 3:-0.387204 4:0.191647 
-0 32768 0 0 0 0 0 1:0.179402 2:-0.058269 3:-0.343445 4:0.200591 
-0 32768 0 0 0 0 0 1:-0.405664 2:-0.669999 3:-0.838057 4:-0.361225 
-32768 0 0 0 0 0 0 1:-0.39153 2:-0.590737 3:-0.827695 4:-0.352574 
-7511.797154487814 0 0 0 0 0 0 1:-0.402029 2:-0.492193 3:-0.828229 4:-0.374074 
-0 0 22214.52928711835 0 0 0 0 1:-0.169415 2:-0.251244 3:-0.667934 4:-0.149489 
-0 0 32768 0 0 0 0 1:-0.0206223 2:-0.288765 3:-0.558211 4:0.0177386 
-0 32768 0 0 0 0 0 1:-0.0655103 2:-0.112605 3:-0.572903 4:-0.0579254 
-0 32768 32768 0 0 0 0 1:-0.119833 2:-0.0682684 3:-0.609888 4:-0.124627 
-0 32768 0 32768 32768 0 0 1:-0.440036 2:-0.403903 3:-0.842289 4:-0.426043 
-0 32768 32768 32768 32768 0 0 1:-0.366525 2:-0.260327 3:-0.794048 4:-0.36404 
-0 0 32768 17364.0551564475 0 0 0 1:-0.105226 2:-0.282502 3:-0.624117 4:-0.0743713 
-0 32768 2.336964584681013 0 0 0 0 1:-0.220744 2:-0.416878 3:-0.717666 4:-0.184325 
-0 0 32768 0 0 0 0 1:-0.248539 2:-0.436399 3:-0.737029 4:-0.212372 
-0 32768 32768 0 0 0 0 1:-0.391454 2:-0.416699 3:-0.818421 4:-0.371516 
-0 0 32768 0 0 0 0 1:-0.373439 2:-0.522727 3:-0.814957 4:-0.339751 
-0 0 856.7277777241162 0 0 0 0 1:-0.362173 2:-0.597535 3:-0.812668 4:-0.319893 
-0 32768 25034.76635067355 0 0 0 0 1:-0.38401 2:-0.442287 3:-0.815982 4:-0.360469 
-0 32768 32768 0 0 0 0 1:-0.255915 2:-0.240943 3:-0.725593 4:-0.246379 
-0 32768 32768 0 0 0 0 1:-0.0640927 2:-0.543132 3:-0.616358 4:0.00211241 
-0 32768 32768 0 0 0 0 1:-0.261323 2:-0.603256 3:-0.755342 4:-0.20856 
-0 32768 0 0 0 0 0 1:-0.337459 2:-0.609598 3:-0.799747 4:-0.291762 
-0 29893.84756920785 32768 0 0 0 0 1:-0.188509 2:-0.315193 3:-0.687447 4:-0.162522 
-0 32768 30898.90084324571 0 0 0 0 1:-0.130117 2:-0.519062 3:-0.663328 4:-0.0729947 
-0 32768 0 0 0 0 0 1:0.301273 2:-0.170497 3:-0.236579 4:0.351541 
-0 32768 0 0 0 0 0 1:-0.276321 2:-0.492476 3:-0.75799 4:-0.236405 
-0 0 32768 0 0 0 0 1:-0.0476507 2:-0.462081 3:-0.597169 4:0.011013 
-0 0 9417.387616554362 0 0 0 0 1:-0.0324392 2:-0.309779 3:-0.570172 4:0.00806306 
-0 0 10698.97534087694 0 0 0 0 1:-0.119088 2:-0.270576 3:-0.633273 4:-0.0926233 
-0 0 32768 0 0 0 0 1:-0.155543 2:-0.396921 3:-0.671732 4:-0.115465 
-0 32768 32768 0 0 0 0 1:-0.00761157 2:-0.456392 3:-0.564679 4:0.0540895 
-0 0 32768 0 0 0 0 1:-0.329011 2:-0.433704 3:-0.785264 4:-0.301139 
-0 31078.90409441403 0 32768 0 0 0 1:-0.23836 2:-0.31842 3:-0.720951 4:-0.21639 
-0 0 0 0 0 24043.59836797916 0 1:-0.33912 2:-0.35471 3:-0.785587 4:-0.320915 
-32768 32768 32768 32768 32768 0 0 1:-0.492886 2:-0.562905 3:-0.874559 4:-0.466741 
-0 0 32768 0 0 0 0 1:-0.367839 2:-0.549357 3:-0.813354 4:-0.330854 
-0 0 32768 0 0 0 0 1:-0.340734 2:-0.546636 3:-0.798503 4:-0.301277 
-0 0 32768 0 0 0 0 1:-0.402146 2:-0.585716 3:-0.832862 4:-0.364893 
-0 32768 0 0 0 0 0 1:-0.282596 2:-0.448555 3:-0.758952 4:-0.248465 
-0 32768 0 0 0 0 0 1:-0.0626048 2:-0.392983 3:-0.602527 4:-0.0140466 
-0 0 32768 0 0 0 0 1:-0.0829056 2:-0.497132 3:-0.627042 4:-0.0236514 
-0 0 7656.391170705859 0 0 0 0 1:-0.0620413 2:-0.335735 3:-0.596456 4:-0.021112 
-0 0 32768 0 0 0 0 1:-0.0884504 2:-0.316492 3:-0.614893 4:-0.0525171 
-0 0 32768 0 0 0 0 1:-0.222702 2:-0.335251 3:-0.712353 4:-0.1972 
-0 0 13345.39703945654 0 0 0 0 1:-0.237827 2:-0.279032 3:-0.717348 4:-0.220878 
-0 32768 0 0 0 0 0 1:-0.25106 2:-0.282345 3:-0.726208 4:-0.235247 
-0 32768 0 0 0 0 0 1:-0.230718 2:-0.369108 3:-0.720443 4:-0.201565 
-0 8095.810918195769 0 0 0 0 0 1:-0.164995 2:-0.333506 3:-0.67269 4:-0.134361 
-0 32768 0 32768 0 0 0 1:-0.169113 2:-0.329538 3:-0.675056 4:-0.139641 
-0 32768 0 0 0 0 0 1:0.293428 2:-0.221138 3:-0.253163 4:0.351063 
-0 32768 0 32768 3843.445163074235 0 0 1:-0.40255 2:-0.339616 3:-0.819326 4:-0.392505 
-0 32768 0 0 0 0 0 1:-0.325846 2:-0.558431 3:-0.790751 4:-0.283932 
-0 0 32768 0 0 0 0 1:-0.346479 2:-0.492927 3:-0.79871 4:-0.313428 
-0 32768 32768 0 0 0 0 1:-0.356902 2:-0.430127 3:-0.800679 4:-0.332149 
-0 0 21521.79898493938 0 0 0 0 1:-0.265704 2:-0.371215 3:-0.742914 4:-0.239636 
-0 32768 32768 0 0 0 0 1:-0.284713 2:-0.401548 3:-0.75694 4:-0.25658 
-0 32768 32768 0 0 0 0 1:-0.286911 2:-0.489756 3:-0.764213 4:-0.248543 
-0 32768 0 0 0 0 0 1:-0.28964 2:-0.507764 3:-0.76688 4:-0.24956 
-0 0 15565.19763749542 0 0 0 0 1:-0.253903 2:-0.286798 3:-0.728479 4:-0.236903 
-0 0 32768 0 0 0 0 1:-0.316243 2:-0.344176 3:-0.771565 4:-0.298137 
-0 5.333273867939596 0 0 0 0 0 1:-0.42037 2:-0.558934 3:-0.840726 4:-0.387528 
-0 18743.89339247219 0 0 0 0 0 1:-0.368168 2:-0.458477 3:-0.808521 4:-0.341096 
-0 185.4605447881745 0 0 0 0 0 1:-0.322938 2:-0.612033 3:-0.791755 4:-0.275635 
-0 32768 32768 32768 32768 32768 0 1:-0.465989 2:-0.337437 3:-0.850992 4:-0.462009 
-0 32768 0 32768 32768 0 0 1:-0.47634 2:-0.486249 3:-0.86384 4:-0.456179 
-0 1.213704704714904 0 0 0 0 0 1:-0.302854 2:-0.509401 3:-0.774862 4:-0.263774 
-0 32768 0 32768 0 0 0 1:-0.353348 2:-0.422717 3:-0.798134 4:-0.329281 
-0 32768 0 0 0 0 0 1:-0.209791 2:-0.415733 3:-0.710409 4:-0.172643 
-0 32768 0 0 0 0 0 1:-0.284841 2:-0.438294 3:-0.759596 4:-0.252244 
-0 0 32768 0 0 0 0 1:-0.246344 2:-0.418577 3:-0.734351 4:-0.212199 
-0 0 32768 0 0 0 0 1:-0.235868 2:-0.470343 3:-0.73136 4:-0.194612 
-0 0 32768 0 0 0 0 1:-0.341105 2:-0.446768 3:-0.792889 4:-0.312793 
-0 0 32768 0 0 0 0 1:-0.227014 2:-0.424795 3:-0.722391 4:-0.190159 
-0 32768 32768 0 0 0 0 1:-0.357378 2:-0.337899 3:-0.794737 4:-0.343769 
-0 0 32768 0 0 0 0 1:-0.282876 2:-0.476116 3:-0.760932 4:-0.245431 
-0 0 32768 0 0 0 0 1:-0.123271 2:-0.410177 3:-0.649749 4:-0.0783821 
-0 32768 16133.04745012205 0 0 0 0 1:0.0365726 2:-0.0682906 3:-0.479989 4:0.0454519 
-0 32768 0 0 0 0 0 1:0.140464 2:-0.0364819 3:-0.378059 4:0.153084 
-0 32768 25522.4183684768 0 0 0 0 1:-0.190291 2:-0.54387 3:-0.706575 4:-0.136355 
-0 27.63022669388022 0 0 0 0 0 1:-0.185678 2:-0.402001 3:-0.693096 4:-0.147294 
-0 0 32768 0 0 0 0 1:-0.209511 2:-0.373052 3:-0.706791 4:-0.177681 
-0 0 32768 0 0 0 0 1:-0.336478 2:-0.459852 3:-0.791144 4:-0.306194 
-0 0 32768 0 0 0 0 1:-0.391672 2:-0.585381 3:-0.827528 4:-0.353455 
-0 32768 0 0 0 0 0 1:-0.288849 2:-0.49283 3:-0.76558 4:-0.250206 
-0 32768 0 0 0 0 0 1:-0.317747 2:-0.526553 3:-0.78447 4:-0.278296 
-0 32768 0 0 0 0 0 1:-0.389448 2:-0.522191 3:-0.82327 4:-0.357536 
-0 32768 9890.690026107915 0 0 0 0 1:-0.420482 2:-0.58679 3:-0.841981 4:-0.385058 
-0 32768 0 0 0 0 0 1:-0.445335 2:-0.617946 3:-0.855205 4:-0.409365 
-0 32768 0 0 0 0 0 1:-0.267256 2:-0.438667 3:-0.748811 4:-0.232981 
-0 32768 11532.41377291802 32768 0 0 0 1:-0.19165 2:-0.353203 3:-0.692856 4:-0.161095 
-0 0 32768 0 0 0 0 1:-0.204351 2:-0.294979 3:-0.69645 4:-0.182295 
-0 32768 0 0 0 0 0 1:-0.311392 2:-0.400001 3:-0.772684 4:-0.285945 
-32768 32768 0 0 0 0 0 1:-0.384767 2:-0.381945 3:-0.812715 4:-0.367902 
-0 0 32768 0 0 0 0 1:-0.342944 2:-0.449512 3:-0.794143 4:-0.314393 
-0 0 1023.715831594605 0 0 0 0 1:-0.23174 2:-0.357613 3:-0.720162 4:-0.20357 
-0 0 32768 0 0 0 0 1:-0.0952718 2:-0.444109 3:-0.631991 4:-0.0434091 
-0 32768 32768 0 0 0 0 1:-0.461804 2:-0.577065 3:-0.861216 4:-0.43123 
-0 32768 32768 0 0 0 0 1:-0.467385 2:-0.543301 3:-0.862355 4:-0.440523 
-0 32768 0 0 32768 32768 0 1:-0.399668 2:-0.497822 3:-0.827211 4:-0.371457 
-0 32768 0 32768 32768 0 0 1:-0.366845 2:-0.514448 3:-0.81093 4:-0.333634 
-0 32768 32768 0 0 0 0 1:-0.212791 2:-0.54794 3:-0.72163 4:-0.160782 
-0 0 32768 0 0 0 0 1:-0.227233 2:-0.473783 3:-0.726089 4:-0.184915 
-0 0 6288.912185287977 0 0 0 0 1:-0.350348 2:-0.52219 3:-0.802484 4:-0.314473 
-0 32768 92.48399899431249 32768 32768 0 0 1:-0.428445 2:-0.406745 3:-0.83664 4:-0.413329 
-0 32768 0 0 0 0 0 1:-0.379707 2:-0.642208 3:-0.823828 4:-0.335074 
-0 32768 0 0 0 0 0 1:-0.306118 2:-0.532372 3:-0.778104 4:-0.264971 
-9930.316991916296 32768 0 0 0 0 0 1:-0.371436 2:-0.663211 3:-0.82036 4:-0.324209 
-0 0 32768 0 0 0 0 1:-0.292599 2:-0.427497 3:-0.763537 4:-0.261746 
-0 0 32768 0 0 0 0 1:-0.174037 2:-0.417593 3:-0.68637 4:-0.133334 
-0 32768 0 0 0 0 0 1:-0.0561131 2:-0.291644 3:-0.586993 4:-0.0210506 
-0 32768 32768 0 0 0 0 1:0.067127 2:-0.0573066 3:-0.45066 4:0.0766537 
-0 15209.54322719287 32768 0 0 0 0 1:-0.0323158 2:-0.066102 3:-0.539155 4:-0.028674 
-0 32768 0 0 0 0 0 1:0.193359 2:0.0777331 3:-0.303719 4:0.194014 
-0 0 0 0 0 5192.487449265133 0 1:0.116173 2:-0.116468 3:-0.414415 4:0.141498 
-0 32768 176.9967899087875 0 0 0 0 1:-0.0948293 2:-0.201937 3:-0.607218 4:-0.0764343 
-0 32768 32768 0 0 0 0 1:-0.0450502 2:-0.160511 3:-0.562576 4:-0.0286366 
-0 32768 32768 0 0 0 0 1:0.00906007 2:-0.451109 3:-0.550532 4:0.0717259 
-0 32768 32768 0 0 0 0 1:-0.00526197 2:-0.470198 3:-0.564076 4:0.0583605 
-0 20880.40075082323 0 0 0 0 0 1:0.0122211 2:-0.159398 3:-0.514458 4:0.0339441 
-0 32752.91885163916 0 0 0 0 0 1:-0.0602808 2:-0.270796 3:-0.587997 4:-0.0284235 
-0 18973.58396216781 0 0 0 0 0 1:-0.0147952 2:-0.269356 3:-0.551074 4:0.0214929 
-32768 0 32768 0 0 0 0 1:-0.377111 2:-0.623799 3:-0.821706 4:-0.333804 
-0 32768 9082.943770714912 0 0 0 0 1:-0.353742 2:-0.602804 3:-0.808375 4:-0.310155 
-0 0 32768 0 0 0 0 1:-0.348399 2:-0.548885 3:-0.802822 4:-0.309534 
-0 32768 32768 0 16419.6222162487 32768 0 1:-0.398853 2:-0.539426 3:-0.828954 4:-0.366066 
-0 32768 0 0 0 0 0 1:-0.330653 2:-0.556666 3:-0.793404 4:-0.289328 
-0 0 32768 0 0 0 0 1:-0.273566 2:-0.502876 3:-0.757015 4:-0.232216 
-0 32768 0 0 0 0 0 1:-0.264791 2:-0.493833 3:-0.751079 4:-0.223775 
-0 0 27055.81762014988 0 0 0 0 1:-0.165735 2:-0.381659 3:-0.677609 4:-0.128613 
-0 32768 0 0 32768 0 0 1:-0.326386 2:-0.516235 3:-0.788708 4:-0.289041 
-0 0 32768 0 0 21104.12739859644 0 1:-0.225467 2:-0.426204 3:-0.721442 4:-0.188652 
-0 0 32768 0 0 0 0 1:-0.1425 2:-0.258567 3:-0.649299 4:-0.119988 
-0 32761.1648694243 0 0 0 0 0 1:-0.275354 2:-0.540341 3:-0.760328 4:-0.230292 
-0 1947.892948869101 0 0 0 0 0 1:-0.127492 2:-0.5189 3:-0.661427 4:-0.0702823 
-0 0 32768 0 0 0 0 1:-0.221869 2:-0.52509 3:-0.726003 4:-0.17318 
-0 32768 0 0 0 0 0 1:0.0735675 2:-0.245278 3:-0.472164 4:0.114016 
-0 13499.328084026 0 0 0 0 0 1:0.443708 2:0.0235935 3:-0.0346812 4:0.47236 
-0 32768 0 0 0 0 0 1:-0.257718 2:-0.458773 3:-0.74423 4:-0.220272 
-0 0 32768 0 0 0 0 1:-0.245935 2:-0.568174 3:-0.743846 4:-0.195187 
-0 32768 0 0 0 0 0 1:-0.28846 2:-0.485508 3:-0.764798 4:-0.250745 
-0 32768 32768 0 0 0 0 1:-0.28591 2:-0.483373 3:-0.763233 4:-0.248065 
-0 32768 32768 0 0 0 0 1:-0.198072 2:-0.383974 3:-0.700019 4:-0.163775 
-0 0 0 0 9642.216466600084 0 0 1:-0.164554 2:-0.169206 3:-0.655613 4:-0.156104 
-0 0 0 0 19208.4687817086 0 0 1:0.0524924 2:-0.18219 3:-0.48246 4:0.0823095 
-0 0 28965.2301025633 0 0 0 0 1:-0.026509 2:-0.269541 3:-0.560818 4:0.00915605 
-0 0 0 0 0 24442.06220890667 0 1:0.156215 2:-0.243633 3:-0.39546 4:0.204961 
-0 32768 0 0 0 0 0 1:0.382079 2:0.0500828 3:-0.102211 4:0.400404 
-0 21604.59438942765 32549.232399514 0 0 0 0 1:0.203165 2:0.178675 3:-0.271963 4:0.181189 
-0 32768 32768 4552.592433598241 0 0 0 1:0.0736513 2:-0.0160818 3:-0.437827 4:0.0776976 
-0 32768 26261.75426468176 0 0 0 0 1:0.213818 2:-0.0649902 3:-0.309871 4:0.238407 
-0 32768 0 17482.82314093878 0 0 0 1:0.123347 2:-0.0942459 3:-0.404209 4:0.144368 
-0 32768 0 0 0 0 0 1:0.132502 2:-0.0609556 3:-0.389946 4:0.149138 
-0 0 0 0 0 2688.90741656265 0 1:0.188749 2:-0.258056 3:-0.365967 4:0.24363 
-0 32768 0 0 0 0 0 1:-0.188421 2:-0.521662 3:-0.703842 4:-0.136842 
-0 0 32768 0 0 0 0 1:-0.19363 2:-0.277994 3:-0.687486 4:-0.17289 
-0 9.573646011154464 0 0 0 0 0 1:-0.0923437 2:-0.22731 3:-0.608157 4:-0.0698212 
-0 0 32768 32768 0 0 0 1:-0.200298 2:-0.432656 3:-0.705164 4:-0.160453 
-0 2400.826710820396 32768 0 0 0 0 1:-0.178973 2:-0.447648 3:-0.692128 4:-0.134539 
-0 32768 0 0 0 0 0 1:-0.0847373 2:-0.324745 3:-0.612732 4:-0.0476751 
-0 32768 0 0 0 0 0 1:0.132319 2:-0.386773 3:-0.436167 4:0.198811 
-0 32768 0 0 0 0 0 1:-0.218933 2:-0.541941 3:-0.725184 4:-0.168231 
-0 32768 0 1146.513846472643 29228.45093734954 0 0 1:-0.328337 2:-0.39924 3:-0.782481 4:-0.304778 
-0 32768 0 0 0 0 0 1:-0.326537 2:-0.512863 3:-0.788696 4:-0.289428 
-0 32768 0 0 0 0 0 1:-0.3188 2:-0.516091 3:-0.784427 4:-0.280591 
-0 0 0 0 0 603.4159377773231 0 1:-0.0675257 2:-0.433182 3:-0.609828 4:-0.0147625 
-0 32768 0 0 0 0 0 1:0.0763415 2:-0.114094 3:-0.450639 4:0.0966232 
-0 32768 10634.7416116497 0 0 0 0 1:-0.453623 2:-0.575508 3:-0.857369 4:-0.422303 
-0 0 32768 0 0 0 0 1:-0.105573 2:-0.238733 3:-0.619655 4:-0.0822773 
-0 32768 0 0 0 0 0 1:0.245484 2:-0.224084 3:-0.303973 4:0.29946 
-0 0 0 17745.43153401027 0 1037.989018456845 0 1:0.128332 2:-0.170931 3:-0.411417 4:0.164054 
-0 32767.56732403185 0 0 0 0 0 1:-0.141446 2:-0.389099 3:-0.661018 4:-0.100802 
-0 0 32768 0 0 0 0 1:-0.280699 2:-0.427478 3:-0.756336 4:-0.248911 
-0 0 32768 0 0 0 0 1:-0.23314 2:-0.530383 3:-0.733622 4:-0.185026 
-0 0 32768 0 0 0 0 1:-0.234173 2:-0.52646 3:-0.733913 4:-0.186729 
-0 129.7873928579956 32768 0 0 0 0 1:-0.269856 2:-0.440663 3:-0.75063 4:-0.235324 
-0 0 32768 0 0 0 0 1:-0.260572 2:-0.563868 3:-0.752739 4:-0.211597 
-0 0 32768 0 0 0 0 1:-0.121137 2:-0.353635 3:-0.643029 4:-0.0836026 
-0 0 32768 0 0 0 0 1:-0.140996 2:-0.435271 3:-0.664549 4:-0.0948833 
-0 32768 0 0 0 0 0 1:-0.300537 2:-0.530403 3:-0.77471 4:-0.259 
-0 32768 0 0 0 0 0 1:-0.345596 2:-0.423013 3:-0.793949 4:-0.32065 
-0 0 32768 0 0 0 0 1:-0.220921 2:-0.473552 3:-0.721974 4:-0.177936 
-0 32768 32768 0 0 0 0 1:-0.123607 2:-0.550152 3:-0.660851 4:-0.0625957 
-0 0 32768 0 0 0 0 1:-0.159483 2:-0.370294 3:-0.672214 4:-0.123284 
-0 32768 0 0 0 0 0 1:-0.244142 2:-0.280375 3:-0.721517 4:-0.228264 
-0 21562.82982185389 0 0 0 0 0 1:-0.300966 2:-0.406579 3:-0.766948 4:-0.273679 
-0 32768 593.9636782615253 0 0 0 0 1:-0.319017 2:-0.298618 3:-0.769674 4:-0.307231 
-0 32768 0 0 0 0 0 1:-0.268416 2:-0.409771 3:-0.747534 4:-0.237676 
-0 0 18730.53849075688 25377.37201695628 0 0 0 1:-0.0871558 2:-0.258424 3:-0.607705 4:-0.0593604 
-0 32768 0 0 0 0 0 1:0.292516 2:-0.172888 3:-0.246319 4:0.342229 
-0 32768 0 0 0 0 0 1:0.176994 2:0.0431826 3:-0.327057 4:0.178886 
-0 32768 0 0 0 0 0 1:-0.455423 2:-0.537812 3:-0.85658 4:-0.427888 
-32768 0 0 0 0 0 0 1:-0.397196 2:-0.464883 3:-0.824202 4:-0.371831 
-0 32768 0 0 32768 0 0 1:-0.39952 2:-0.485865 3:-0.826501 4:-0.372561 
-0 32768 0 0 0 0 0 1:-0.458607 2:-0.597666 3:-0.860586 4:-0.425775 
-0 32768 11993.15467445585 0 0 0 0 1:-0.424504 2:-0.560864 3:-0.842841 4:-0.391904 
-0 32768 0 0 0 0 0 1:-0.401543 2:-0.663806 3:-0.835715 4:-0.357365 
-0 0 32768 0 0 0 0 1:-0.286498 2:-0.58204 3:-0.76933 4:-0.238282 
-0 27047.86524403663 0 0 0 0 0 1:-0.112411 2:-0.397562 3:-0.640629 4:-0.0681903 
-0 0 32768 0 0 0 0 1:-0.240905 2:-0.495578 3:-0.736304 4:-0.197132 
-0 0 32768 0 0 0 0 1:-0.357331 2:-0.451128 3:-0.80221 4:-0.330035 
-0 32768 9543.778690716532 0 0 0 0 1:-0.227468 2:-0.421712 3:-0.722467 4:-0.190938 
-0 0 32768 0 0 0 0 1:-0.219503 2:-0.437195 3:-0.718442 4:-0.180581 
-0 32768 32768 0 32768 0 0 1:-0.340932 2:-0.282196 3:-0.781186 4:-0.333444 
-0 32768 0 0 0 0 0 1:-0.434332 2:-0.476826 3:-0.843542 4:-0.411527 
-0 32768 0 32768 32768 0 0 1:-0.462723 2:-0.435999 3:-0.854952 4:-0.447373 
-32768 32768 32768 32768 32768 0 0 1:-0.498078 2:-0.549872 3:-0.876311 4:-0.473638 
-32768 32768 32768 32768 0 0 0 1:-0.491469 2:-0.568745 3:-0.874198 4:-0.464518 
-0 32768 32768 0 0 0 0 1:-0.42806 2:-0.496726 3:-0.841508 4:-0.402483 
-0 32768 0 31484.81559702054 32768 0 0 1:-0.44279 2:-0.447673 3:-0.846132 4:-0.424005 
-0 32768 0 32768 32768 0 0 1:-0.470393 2:-0.419023 3:-0.857697 4:-0.457447 
-0 32768 0 32768 32768 0 0 1:-0.451076 2:-0.41684 3:-0.848453 4:-0.436311 
-0 32768 32768 0 0 0 0 1:-0.45957 2:-0.538365 3:-0.858482 4:-0.432618 
-0 32768 30751.5526727424 0 0 0 0 1:-0.266366 2:-0.484768 3:-0.751457 4:-0.226403 
-0 0 32768 0 0 0 0 1:-0.340088 2:-0.453389 3:-0.792774 4:-0.310727 
-0 32768 0 32768 0 0 0 1:-0.310796 2:-0.442339 3:-0.775148 4:-0.280369 
-0 32768 32768 0 32768 0 0 1:-0.340667 2:-0.313626 3:-0.78334 4:-0.328947 
-0 32768 32768 0 0 0 0 1:-0.32444 2:-0.362397 3:-0.777649 4:-0.305103 
-0 32768 0 0 0 0 0 1:-0.319266 2:-0.511892 3:-0.784489 4:-0.281566 
-0 0 32768 0 0 0 0 1:-0.264289 2:-0.491114 3:-0.75059 4:-0.223424 
-0 32768 0 0 0 0 0 1:-0.286598 2:-0.495652 3:-0.764415 4:-0.247364 
-0 32768 32768 0 0 0 0 1:-0.125041 2:-0.528217 3:-0.660343 4:-0.0665334 
-0 0 9830.061272587172 0 0 0 0 1:-0.148155 2:-0.42381 3:-0.668788 4:-0.103911 
