svm_type c_svc
kernel_type rbf
gamma 0.0078125
nr_class 2
total_sv 203
rho -0.892607
label 1 -1
nr_sv 103 100
SV
0.03125 1:0.74902 2:0.582677 3:0.517787 4:0.771654 5:0.634146 6:0.573123 7:0.780392 8:0.638554 9:0.637097 10:0.787402 11:0.622047 12:0.667984 13:0.796078 14:0.606299 15:0.645669 16:0.858921 17:0.562753 18:0.612903 19:0.771186 20:0.473251 21:0.491667 22:0.775 23:0.462185 24:0.478992 25:0.733906 26:0.44664 27:0.451613 28:0.686099 29:0.39759 30:0.385827 31:0.753304 32:0.463636 33:0.524229 34:0.818182 35:0.561983 36:0.659751 37:0.780392 38:0.608 39:0.616 40:0.68559 41:0.506173 42:0.471074 43:0.585586 44:0.366255 45:0.3 46:0.594828 47:0.403361 48:0.27572 49:0.575 50:0.43083 51:0.233871 52:0.566372 53:0.438735 54:0.286275 55:0.59292 56:0.445783 57:0.385892 58:0.639216 59:0.490196 60:0.455319 61:0.647059 62:0.614458 63:0.518987 64:0.717647 65:0.731707 66:0.633333 67:0.72549 68:0.700787 69:0.643154 70:0.662745 71:0.555556 72:0.416 73:0.584314 74:0.391304 75:0.222222 76:0.552941 77:0.354331 78:0.181102 79:0.584314 80:0.427419 81:0.25 82:0.576471 83:0.388889 84:0.238866 85:0.560784 86:0.370518 87:0.195219 88:0.559055 89:0.338583 90:0.220472 91:0.786561 92:0.569721 93:0.51004 94:0.834646 95:0.689243 96:0.675889 97:0.803922 98:0.662651 99:0.664 100:0.795276 101:0.637795 102:0.696 103:0.833992 104:0.674603 105:0.731225 106:0.837398 107:0.665339 108:0.690476 109:0.76824 110:0.53527 111:0.535865 112:0.783333 113:0.506173 114:0.539683 115:0.73913 116:0.449153 117:0.45082 118:0.713004 119:0.434599 120:0.425101 121:0.770925 122:0.53719 123:0.526531 124:0.801587 125:0.559184 126:0.57551 127:0.740157 128:0.564516 129:0.542169 130:0.700405 131:0.494071 132:0.448819 133:0.619048 134:0.437751 135:0.376 136:0.656904 137:0.527426 138:0.42623 139:0.675214 140:0.596639 141:0.491667 142:0.651064 143:0.679654 144:0.561404 145:0.603448 146:0.458824 147:0.32549 148:0.615686 149:0.443137 150:0.286275 151:0.629921 152:0.646552 153:0.459227 154:0.639216 155:0.570248 156:0.416667 157:0.662745 158:0.555556 159:0.410359 160:0.670588 161:0.561753 162:0.469388 163:0.686275 164:0.541502 165:0.432 166:0.662745 167:0.515873 168:0.39759 169:0.637795 170:0.508065 171:0.379592 172:0.598425 173:0.424 174:0.279352 175:0.568627 176:0.373016 177:0.225806 178:0.543307 179:0.330677 180:0.219917 181:0.808765 182:0.537849 183:0.442231 184:0.811765 185:0.639216 186:0.652174 187:0.803922 188:0.631373 189:0.657371 190:0.810277 191:0.65873 192:0.656 193:0.833333 194:0.694779 195:0.704 196:0.756863 197:0.603175 198:0.585657 199:0.724138 200:0.493671 201:0.485714 202:0.817427 203:0.523013 204:0.552846 205:0.811966 206:0.528926 207:0.582677 208:0.801724 209:0.56 210:0.609756 211:0.802575 212:0.547325 213:0.548387 214:0.74902 215:0.417323 216:0.411765 217:0.708661 218:0.522267 219:0.489879 220:0.677165 221:0.506073 222:0.455285 223:0.684211 224:0.502008 225:0.417323 226:0.702811 227:0.55102 228:0.502041 229:0.70751 230:0.689076 231:0.598291 232:0.685039 233:0.704348 234:0.585903 235:0.631373 236:0.576271 237:0.433476 238:0.607843 239:0.553648 240:0.391304 241:0.559055 242:0.471861 243:0.292576 244:0.576471 245:0.384 246:0.271967 247:0.607843 248:0.417323 249:0.285141 250:0.661417 251:0.521912 252:0.39759 253:0.709804 254:0.576471 255:0.458824 256:0.700787 257:0.563492 258:0.497942 259:0.654902 260:0.515873 261:0.453782 262:0.622047 263:0.464 264:0.319838 265:0.670588 266:0.531746 267:0.417004 268:0.669291 269:0.509881 270:0.468354 271:0.716535 272:0.420635 273:0.336032 274:0.685039 275:0.456693 276:0.412698 277:0.74902 278:0.552941 279:0.535433 280:0.772549 281:0.62249 282:0.587302 283:0.754941 284:0.569721 285:0.533597 286:0.72549 287:0.528 288:0.491935 289:0.68254 290:0.462451 291:0.403922 292:0.690377 293:0.442623 294:0.417004 295:0.682403 296:0.449153 297:0.433333 298:0.715481 299:0.502041 300:0.487805 301:0.756863 302:0.563492 303:0.583673 304:0.699605 305:0.46988 306:0.434263 307:0.654902 308:0.428571 309:0.356863 310:0.669291 311:0.535865 312:0.487179 313:0.685039 314:0.506173 315:0.45679 316:0.706349 317:0.662222 318:0.510373 319:0.648536 320:0.735849 321:0.431034 322:0.577093 323:0.531532 324:0.278689 325:0.590551 326:0.537118 327:0.377778 328:0.590551 329:0.454545 330:0.362445 331:0.592157 332:0.418327 333:0.359307 334:0.607843 335:0.43083 336:0.34728 337:0.615686 338:0.44664 339:0.314516 340:0.623529 341:0.454545 342:0.325301 343:0.6 344:0.411765 345:0.254902 346:0.584314 347:0.380392 348:0.215686 349:0.581028 350:0.388889 351:0.26971 352:0.568627 353:0.375494 354:0.261411 355:0.677165 356:0.531746 357:0.452282 358:0.72549 359:0.633466 360:0.565574 361:0.699605 362:0.396825 363:0.300813 364:0.637795 365:0.375494 366:0.330645 367:0.733333 368:0.537255 369:0.52381 370:0.780392 371:0.645161 372:0.6 373:0.76378 374:0.574803 375:0.566929 376:0.73913 377:0.543307 378:0.527559 379:0.662745 380:0.43083 381:0.408907 382:0.558333 383:0.325203 384:0.241935 385:0.504202 386:0.274194 387:0.153226 388:0.576471 389:0.341463 390:0.233871 391:0.700787 392:0.504 393:0.516667 394:0.754941 395:0.63786 396:0.647059 397:0.694118 398:0.496 399:0.427451 400:0.708661 401:0.588235 402:0.594828 403:0.739837 404:0.616667 405:0.632479 406:0.715481 407:0.757848 408:0.662338 409:0.656388 410:0.669565 411:0.403226 412:0.565217 413:0.6 414:0.336406 415:0.579832 416:0.479452 417:0.267857 418:0.622047 419:0.479675 420:0.336066 421:0.629921 422:0.508197 423:0.398305 424:0.678431 425:0.529412 426:0.455285 427:0.670588 428:0.539683 429:0.444898 430:0.607843 431:0.442231 432:0.319672 433:0.545098 434:0.330709 435:0.177419 436:0.545098 437:0.32549 438:0.168 439:0.574803 440:0.367589 441:0.206349 442:0.568627 443:0.356863 444:0.192157 445:0.598425 446:0.418327 447:0.300412 448:0.652174 449:0.502008 450:0.423729 451:0.716535 452:0.428571 453:0.349593 454:0.653543 455:0.428571 456:0.34413 457:0.717647 458:0.513725 459:0.458167 460:0.788235 461:0.625498 462:0.577689 463:0.826087 464:0.660079 465:0.629921 466:0.748031 467:0.565217 468:0.549407 469:0.697211 470:0.485944 471:0.435484 472:0.607843 473:0.341176 474:0.261905 475:0.488 476:0.190283 477:0.0645161 478:0.515873 479:0.222672 480:0.0938776 481:0.675889 482:0.464 483:0.459016 484:0.740157 485:0.557312 486:0.569106 487:0.635628 488:0.395161 489:0.312 490:0.614754 491:0.376 492:0.301587 493:0.634855 494:0.422764 495:0.34413 496:0.680328 497:0.46988 498:0.456067 499:0.670782 500:0.531746 501:0.404762 502:0.610169 503:0.495935 504:0.346939 505:0.591304 506:0.446809 507:0.319502 508:0.631373 509:0.488 510:0.374486 511:0.622047 512:0.508197 513:0.392405 514:0.65873 515:0.522267 516:0.408333 517:0.639216 518:0.530364 519:0.416667 520:0.622047 521:0.510373 522:0.384615 523:0.619048 524:0.487603 525:0.330544 526:0.584314 527:0.421687 528:0.253012 529:0.607843 530:0.448 531:0.288 532:0.615686 533:0.438735 534:0.322449 535:0.552941 536:0.357143 537:0.211382 538:0.513725 539:0.293651 540:0.210526 541:0.740157 542:0.470356 543:0.408907 544:0.662745 545:0.433071 546:0.354839 547:0.615686 548:0.362205 549:0.23622 550:0.644269 551:0.383399 552:0.256917 553:0.716535 554:0.5 555:0.428571 556:0.730159 557:0.52381 558:0.484127 559:0.748031 560:0.577689 561:0.552 562:0.731225 563:0.539683 564:0.504 565:0.623529 566:0.4 567:0.322709 568:0.572581 569:0.374486 570:0.278689 571:0.62753 572:0.436735 573:0.430962 574:0.636364 575:0.445378 576:0.428571 577:0.553719 578:0.270492 579:0.205128 580:0.506073 581:0.201581 582:0.107438 583:0.528926 584:0.306122 585:0.244635 586:0.658537 587:0.47541 588:0.461538 589:0.732794 590:0.611336 591:0.554622 592:0.715447 593:0.640816 594:0.579399 595:0.682008 596:0.571429 597:0.474576 598:0.692913 599:0.541502 600:0.455285 601:0.678431 602:0.550201 603:0.460581 604:0.652174 605:0.528455 606:0.432203 607:0.664 608:0.522634 609:0.412766 610:0.644269 611:0.589744 612:0.464912 613:0.615686 614:0.6 615:0.444934 616:0.568627 617:0.478632 618:0.256198 619:0.549407 620:0.415254 621:0.228814 622:0.513725 623:0.309237 624:0.164557 625:0.488189 626:0.250996 627:0.105485 628:0.47451 629:0.238095 630:0.116883 631:0.738095 632:0.444444 633:0.360324 634:0.615686 635:0.354331 636:0.258065 637:0.584314 638:0.301961 639:0.160784 640:0.6 641:0.333333 642:0.227092 643:0.639216 644:0.385827 645:0.275591 646:0.660079 647:0.422925 648:0.375494 649:0.669291 650:0.44664 651:0.388889 652:0.713147 653:0.503937 654:0.454545 655:0.770751 656:0.616327 657:0.634855 658:0.780488 659:0.609756 660:0.606557 661:0.715481 662:0.512397 663:0.506276 664:0.608163 665:0.430962 666:0.443946 667:0.536 668:0.271255 669:0.245763 670:0.492063 671:0.164659 672:0.075 673:0.557377 674:0.277108 675:0.241935 676:0.706349 677:0.507937 678:0.495935 679:0.690476 680:0.539683 681:0.453061 682:0.696 683:0.552941 684:0.433071 685:0.68595 686:0.586777 687:0.467811 688:0.644269 689:0.516393 690:0.409283 691:0.656 692:0.587983 693:0.473214 694:0.607843 695:0.506276 696:0.39738 697:0.607843 698:0.548936 699:0.433628 700:0.611111 701:0.412698 702:0.286885 703:0.566929 704:0.508772 705:0.333333 706:0.535433 707:0.504505 708:0.297297 709:0.541502 710:0.449782 711:0.243478 712:0.505882 713:0.352941 714:0.20354 715:0.503937 716:0.28 717:0.196429 718:0.47451 719:0.243028 720:0.150442 721:0.636364 722:0.304348 723:0.198381 724:0.607843 725:0.338583 726:0.246964 727:0.607843 728:0.34902 729:0.223529 730:0.607843 731:0.333333 732:0.232 733:0.596838 734:0.31746 735:0.190476 736:0.6 737:0.338583 738:0.267717 739:0.6 740:0.346457 741:0.259843 742:0.639216 743:0.429719 744:0.35743 745:0.730159 746:0.578512 747:0.589744 748:0.72549 749:0.585366 750:0.589958 751:0.717742 752:0.539749 753:0.532468 754:0.58871 755:0.306452 756:0.232 757:0.512195 758:0.229508 759:0.103734 760:0.481172 761:0.208696 762:0.0901288 763:0.56962 764:0.311475 765:0.227642 766:0.675889 767:0.53527 768:0.477178 769:0.646586 770:0.516393 771:0.360656 772:0.647541 773:0.453061 774:0.297959 775:0.569721 776:0.420408 777:0.237705 778:0.552941 779:0.365462 780:0.193548 781:0.584314 782:0.377953 783:0.236948 784:0.560784 785:0.441667 786:0.279661 787:0.537255 788:0.341365 789:0.165992 790:0.521569 791:0.380753 792:0.198312 793:0.529412 794:0.431034 795:0.243478 796:0.535433 797:0.366255 798:0.181818 799:0.529412 800:0.495495 801:0.282511 802:0.573123 803:0.583333 804:0.360731 805:0.537255 806:0.322709 807:0.285714 808:0.529412 809:0.294118 810:0.224138 811:0.615686 812:0.372549 813:0.33871 814:0.652174 815:0.404762 816:0.368421 817:0.637795 818:0.413655 819:0.341365 820:0.614173 821:0.343874 822:0.272727 823:0.592157 824:0.328063 825:0.249012 826:0.545098 827:0.351779 828:0.209486 829:0.557312 830:0.330645 831:0.236515 832:0.592157 833:0.34413 834:0.291667 835:0.645669 836:0.404762 837:0.35743 838:0.699605 839:0.612069 840:0.603524 841:0.653543 842:0.442231 843:0.367589 844:0.6 845:0.354582 846:0.254902 847:0.52381 848:0.231373 849:0.121569 850:0.510373 851:0.279352 852:0.137255 853:0.506073 854:0.227092 855:0.0988142 856:0.477178 857:0.2 858:0.0745098 859:0.497942 860:0.272 861:0.072 862:0.483871 863:0.247059 864:0.0278884 865:0.513944 866:0.286275 867:0.100402 868:0.545098 869:0.32549 870:0.160784 871:0.555556 872:0.344 873:0.24898 874:0.568627 875:0.42623 876:0.286307 877:0.552941 878:0.376518 879:0.204918 880:0.537849 881:0.333333 882:0.135802 883:0.576 884:0.482456 885:0.348624 886:0.560784 887:0.544643 888:0.339286 889:0.541502 890:0.539171 891:0.342723 892:0.584314 893:0.422414 894:0.289474 895:0.590551 896:0.437229 897:0.327434 898:0.576471 899:0.301961 900:0.347826 901:0.772549 902:0.61753 903:0.62753 904:0.700787 905:0.518072 906:0.495935 907:0.625498 908:0.408907 909:0.363265 910:0.632 911:0.403922 912:0.338583 913:0.662745 914:0.45098 915:0.418327 916:0.623529 917:0.454545 918:0.351779 919:0.622047 920:0.426295 921:0.349593 922:0.631373 923:0.495798 924:0.448276 925:0.639216 926:0.465587 927:0.433333 928:0.677165 929:0.614035 930:0.61086 931:0.701961 932:0.58159 933:0.531381 934:0.685039 935:0.571429 936:0.533898 937:0.686275 938:0.488 939:0.493776 940:0.676113 941:0.485944 942:0.453815 943:0.523013 944:0.255061 945:0.162055 946:0.427386 947:0.125984 948:-0.00813008 949:0.479339 950:0.264822 951:0.0745098 952:0.487805 953:0.256917 954:0.0745098 955:0.565217 956:0.356863 957:0.184314 958:0.607843 959:0.427451 960:0.286275 961:0.568627 962:0.395161 963:0.303279 964:0.660079 965:0.498008 966:0.364706 967:0.642857 968:0.435294 969:0.301961 970:0.632 971:0.527897 972:0.391304 973:0.669355 974:0.619469 975:0.453744 976:0.620553 977:0.497908 978:0.378723 979:0.574803 980:0.568807 981:0.40367 982:0.592157 983:0.409283 984:0.2827 985:0.584314 986:0.377593 987:0.2827 988:0.598425 989:0.286275 990:0.336207 991:0.779528 992:0.624 993:0.635628 994:0.72549 995:0.505882 996:0.472441 997:0.678431 998:0.466135 999:0.439024 1000:0.660079 1001:0.550201 1002:0.491803 1003:0.699605 1004:0.566929 1005:0.488189 1006:0.694118 1007:0.552941 1008:0.482353 1009:0.701961 1010:0.6 1011:0.534137 1012:0.686275 1013:0.622951 1014:0.571429 1015:0.686747 1016:0.522634 1017:0.497872 1018:0.661417 1019:0.5 1020:0.506494 1021:0.694118 1022:0.532787 1023:0.514644 1024:0.762846 1025:0.634146 1026:0.631148 1027:0.746032 1028:0.634855 1029:0.642553 1030:0.741176 1031:0.736842 1032:0.64557 1033:0.647059 1034:0.596413 1035:0.545455 1036:0.593625 1037:0.442478 1038:0.348214 1039:0.558233 1040:0.459227 1041:0.281385 1042:0.487603 1043:0.369748 1044:0.193133 1045:0.425 1046:0.228216 1047:-0.0243902 1048:0.490196 1049:0.279352 1050:0.08 1051:0.584314 1052:0.481172 1053:0.336066 1054:0.647059 1055:0.47451 1056:0.388235 1057:0.662745 1058:0.6 1059:0.497942 1060:0.670588 1061:0.630252 1062:0.541667 1063:0.662745 1064:0.604938 1065:0.6 1066:0.661417 1067:0.525 1068:0.491525 1069:0.622047 1070:0.526786 1071:0.475113 1072:0.607843 1073:0.54955 1074:0.461883 1075:0.574803 1076:0.344262 1077:0.254098 1078:0.592157 1079:0.193676 1080:0.13834 1081:0.685039 1082:0.462451 1083:0.452381 1084:0.706349 1085:0.492063 1086:0.520325 1087:0.716535 1088:0.544 1089:0.567347 1090:0.694118 1091:0.601626 1092:0.528455 1093:0.694118 1094:0.552941 1095:0.482353 1096:0.678431 1097:0.541502 1098:0.454545 1099:0.709804 1100:0.6 1101:0.509881 1102:0.678431 1103:0.543307 1104:0.47619 1105:0.623529 1106:0.473684 1107:0.425 1108:0.606299 1109:0.42623 1110:0.378723 1111:0.677419 1112:0.455285 1113:0.434599 1114:0.731225 1115:0.714286 1116:0.615385 1117:0.741176 1118:0.621399 1119:0.583673 1120:0.772549 1121:0.592157 1122:0.601594 1123:0.76378 1124:0.67364 1125:0.648536 1126:0.708661 1127:0.513944 1128:0.460317 1129:0.647059 1130:0.488 1131:0.349206 1132:0.568 1133:0.35743 1134:0.185484 1135:0.405858 1136:0.16 1137:-0.0894309 1138:0.435294 1139:0.160784 1140:-0.0352941 1141:0.552941 1142:0.330709 1143:0.212598 1144:0.616 1145:0.408 1146:0.288 1147:0.631373 1148:0.48 1149:0.376 1150:0.662745 1151:0.505882 1152:0.419608 1153:0.653543 1154:0.568465 1155:0.477178 1156:0.615686 1157:0.438017 1158:0.378151 1159:0.626984 1160:0.576037 1161:0.45045 1162:0.628458 1163:0.433476 1164:0.364807 1165:0.573123 1166:0.276423 1167:0.186992 1168:0.505882 1169:0.0980392 1171:0.670588 1172:0.435294 1173:0.503937 1174:0.661417 1175:0.48 1176:0.569106 1177:0.661417 1178:0.49004 1179:0.577236 1180:0.670588 1181:0.564516 1182:0.479675 1183:0.662745 1184:0.537849 1185:0.471545 1186:0.660079 1187:0.498039 1188:0.409449 1189:0.6917 1190:0.625 1191:0.454545 1192:0.686275 1193:0.628099 1194:0.480315 1195:0.623529 1196:0.495935 1197:0.370518 1198:0.568627 1199:0.392 1200:0.256 1201:0.606299 1202:0.404082 1203:0.269841 1204:0.647059 1205:0.388235 1206:0.328063 1207:0.686275 1208:0.456693 1209:0.409449 1210:0.709804 1211:0.490196 1212:0.45098 1213:0.74902 1214:0.545098 1215:0.537255 1216:0.678431 1217:0.448819 1218:0.393701 1219:0.576471 1220:0.405622 1221:0.222222 1222:0.61753 1223:0.471545 1224:0.285141 1225:0.680672 1226:0.526971 1227:0.360996 1228:0.6 1229:0.427451 1230:0.286275 1231:0.509881 1232:0.367089 1233:0.213389 1234:0.490196 1235:0.293173 1236:0.1417 1237:0.551181 1238:0.449153 1239:0.299578 1240:0.614173 1241:0.529412 1242:0.432203 1243:0.565217 1244:0.357143 1245:0.217391 1246:0.545098 1247:0.303644 1248:0.22314 1249:0.604743 1250:0.488987 1251:0.39207 1252:0.657371 1253:0.325103 1254:0.26749 1255:0.623529 1256:0.279352 1257:0.230769 1258:0.571429 1259:0.184 1260:0.108434 1261:0.678431 1262:0.478261 1263:0.547619 1264:0.65873 1265:0.458167 1266:0.51004 1267:0.642857 1268:0.422925 1269:0.502041 1270:0.652174 1271:0.468254 1272:0.5 1273:0.647059 1274:0.47619 1275:0.491803 1276:0.662745 1277:0.537849 1278:0.483607 1279:0.661417 1280:0.552846 1281:0.459677 1282:0.622047 1283:0.510373 1284:0.335968 1285:0.631373 1286:0.518367 1287:0.378486 1288:0.667984 1289:0.501976 1290:0.432 1291:0.607843 1292:0.396078 1293:0.294118 1294:0.592157 1295:0.362205 1296:0.259843 1297:0.6 1298:0.372549 1299:0.270588 1300:0.573123 1301:0.373984 1302:0.230159 1303:0.549407 1304:0.296443 1305:0.185771 1306:0.559055 1307:0.299213 1308:0.181102 1309:0.503937 1310:0.212598 1311:0.0629921 1312:0.637795 1313:0.425197 1314:0.330709 1315:0.733333 1316:0.743119 1317:0.634043 1318:0.701961 1319:0.631799 1320:0.52459 1321:0.557312 1322:0.380753 1323:0.251029 1324:0.537255 1325:0.344398 1326:0.214876 1327:0.511811 1328:0.313559 1329:0.186441 1330:0.596838 1331:0.368421 1332:0.266129 1333:0.545098 1334:0.291339 1335:0.179283 1336:0.541502 1337:0.273504 1338:0.177489 1339:0.637097 1340:0.325 1341:0.241667 1342:0.639216 1343:0.330612 1344:0.281633 1345:0.615686 1346:0.297959 1347:0.232653 1348:0.566929 1349:0.165354 1350:0.0787402 
0.0209556235148563 1:0.0588235 2:-0.228346 3:-0.494071 4:0.204724 5:-0.0731707 6:-0.41502 7:0.317647 8:0.0763052 9:-0.306452 10:0.244094 11:0.0314961 12:-0.335968 13:0.270588 14:0.204724 15:-0.15748 16:0.20332 17:0.271255 18:-0.0645161 19:-0.211864 20:-0.176955 21:-0.408333 22:-0.616667 23:-0.731092 24:-0.857143 25:-0.467811 26:-0.44664 27:-0.532258 28:-0.300448 29:-0.24498 30:-0.314961 31:-0.154185 32:-0.227273 33:-0.312775 34:-0.165289 35:-0.297521 36:-0.377593 37:0.0196078 38:-0.184 39:-0.368 40:0.126638 41:-0.0534979 42:-0.297521 43:0.351351 44:0.193416 45:-0.125 46:0.5 47:0.403361 48:-0.00411523 49:0.65 50:0.588933 51:0.177419 52:0.513274 53:0.478261 54:0.129412 55:0.371681 56:0.325301 57:0.0539419 58:0.32549 59:0.168627 60:-0.0553191 61:0.270588 62:0.13253 63:-0.105485 64:0.294118 65:0.219512 66:-0.05 67:0.176471 68:0.0393701 69:-0.145228 70:-0.152941 71:-0.396825 72:-0.544 73:-0.00392157 74:-0.280632 75:-0.436508 76:0.396078 77:0.149606 78:-0.0708661 79:0.670588 80:0.459677 81:0.193548 82:0.717647 83:0.444444 84:0.157895 85:0.686275 86:0.410359 87:0.059761 88:0.574803 89:0.275591 90:-0.102362 91:0.343874 92:0.163347 93:-0.148594 94:0.551181 95:0.386454 96:-0.0118577 97:0.670588 98:0.542169 99:0.096 100:0.637795 101:0.566929 102:0.136 103:0.581028 104:0.674603 105:0.256917 106:0.097561 107:0.227092 108:-0.0793651 109:-0.742489 110:-0.742739 111:-0.898734 112:-0.866667 113:-0.909465 114:-0.888889 115:-0.782609 116:-0.79661 117:-0.786885 118:-0.748879 119:-0.687764 120:-0.684211 121:-0.656388 122:-0.586777 123:-0.64898 124:-0.492063 125:-0.57551 126:-0.673469 127:-0.433071 128:-0.58871 129:-0.694779 130:-0.238866 131:-0.375494 132:-0.527559 133:-0.038961 134:-0.0682731 135:-0.288 136:0.129707 137:0.130802 138:-0.155738 139:0.264957 140:0.268908 141:0.0166667 142:0.00425532 143:0.0909091 144:-0.131579 145:-0.405172 146:-0.419608 147:-0.568627 148:-0.498039 149:-0.709804 150:-0.819608 151:-0.409449 152:-0.543103 153:-0.699571 154:-0.105882 155:-0.123967 156:-0.333333 157:0.254902 158:0.31746 159:0.0916335 160:0.0901961 161:0.0677291 162:-0.0857143 163:-0.184314 164:-0.41502 165:-0.512 166:0.00392157 167:-0.277778 168:-0.39759 169:0.377953 170:0.129032 171:-0.0857143 172:0.527559 173:0.224 174:-0.0688259 175:0.607843 176:0.333333 177:-0.0322581 178:0.551181 179:0.266932 180:-0.0954357 181:0.195219 182:-0.00398406 183:-0.314741 184:0.388235 185:0.168627 186:-0.16996 187:0.47451 188:0.270588 189:-0.0996016 190:0.494071 191:0.412698 192:0.032 193:0.214286 194:0.220884 195:-0.104 196:-0.380392 197:-0.404762 198:-0.585657 199:-0.87069 200:-0.85654 201:-0.853061 202:-0.834025 203:-0.8159 204:-0.813008 205:-0.905983 206:-0.818182 207:-0.716535 208:-1 209:-0.84 210:-0.804878 211:-1 212:-0.917695 213:-0.887097 214:-0.843137 215:-0.897638 216:-0.898039 217:-0.826772 218:-0.927126 219:-0.927126 220:-0.661417 221:-0.765182 222:-0.804878 223:-0.465587 224:-0.493976 225:-0.582677 226:-0.269076 227:-0.273469 228:-0.363265 229:-0.241107 230:-0.252101 231:-0.324786 232:-0.456693 233:-0.513043 234:-0.524229 235:-0.670588 236:-0.771186 237:-0.733906 238:-0.678431 239:-0.76824 240:-0.782609 241:-0.488189 242:-0.480519 243:-0.572052 244:-0.458824 245:-0.464 246:-0.564854 247:-0.294118 248:-0.259843 249:-0.381526 250:-0.125984 251:-0.0836653 252:-0.212851 253:-0.364706 254:-0.505882 255:-0.592157 256:-0.228346 257:-0.420635 258:-0.530864 259:0.192157 260:0.00793651 261:-0.176471 262:0.385827 263:0.144 264:-0.182186 265:0.466667 266:0.230159 267:-0.157895 268:0.433071 269:0.185771 270:-0.172996 271:0.0314961 272:-0.134921 273:-0.417004 274:0.244094 275:0.0314961 276:-0.269841 277:0.317647 278:0.0980392 279:-0.212598 280:0.372549 281:0.293173 282:-0.0634921 283:-0.0197628 284:-0.0677291 285:-0.320158 286:-0.482353 287:-0.528 288:-0.66129 289:-0.68254 290:-0.628458 291:-0.662745 292:-0.866109 293:-0.754098 294:-0.724696 295:-1 296:-0.898305 297:-0.783333 298:-1 299:-0.893878 300:-0.747967 301:-0.898039 302:-0.849206 303:-0.746939 304:-0.865613 305:-0.815261 306:-0.721116 307:-0.85098 308:-0.857143 309:-0.788235 310:-0.80315 311:-0.873418 312:-0.794872 313:-0.629921 314:-0.728395 315:-0.62963 316:-0.539683 317:-0.591111 318:-0.510373 319:-0.648536 320:-0.669811 321:-0.568966 322:-0.709251 323:-0.63964 324:-0.508197 325:-0.614173 326:-0.641921 327:-0.511111 328:-0.677165 329:-0.752066 330:-0.668122 331:-0.615686 332:-0.665339 333:-0.662338 334:-0.670588 335:-0.70751 336:-0.715481 337:-0.584314 338:-0.573123 339:-0.620968 340:-0.435294 341:-0.422925 342:-0.46988 343:-0.498039 344:-0.576471 345:-0.647059 346:-0.372549 347:-0.498039 348:-0.639216 349:0.0592885 350:-0.031746 351:-0.261411 352:0.34902 353:0.217391 354:-0.103734 355:0.330709 356:0.142857 357:-0.228216 358:0.309804 359:0.14741 360:-0.270492 361:-0.177866 362:-0.349206 363:-0.577236 364:0.0787402 365:-0.114625 366:-0.387097 367:0.247059 368:0.0588235 369:-0.238095 370:0.270588 371:0.193548 372:-0.137255 373:-0.228346 374:-0.338583 375:-0.511811 376:-0.612648 377:-0.669291 378:-0.708661 379:-0.709804 380:-0.683794 381:-0.659919 382:-0.941667 383:-0.796748 384:-0.693548 385:-1 386:-0.806452 387:-0.653226 388:-0.85098 389:-0.780488 390:-0.604839 391:-0.92126 392:-0.88 393:-0.708333 394:-0.849802 395:-0.802469 396:-0.655462 397:-0.764706 398:-0.8 399:-0.670588 400:-0.76378 401:-0.882353 402:-0.724138 403:-0.699187 404:-0.833333 405:-0.649573 406:-0.740586 407:-0.829596 408:-0.65368 409:-0.779736 410:-0.834783 411:-0.66129 412:-0.652174 413:-0.726829 414:-0.539171 415:-0.638655 416:-0.771689 417:-0.607143 418:-0.488189 419:-0.585366 420:-0.516393 421:-0.409449 422:-0.467213 423:-0.483051 424:-0.356863 425:-0.396078 426:-0.422764 427:-0.32549 428:-0.293651 429:-0.330612 430:-0.498039 431:-0.513944 432:-0.532787 433:-0.529412 434:-0.614173 435:-0.669355 436:-0.490196 437:-0.623529 438:-0.752 439:-0.133858 440:-0.256917 441:-0.492063 442:0.317647 443:0.231373 444:-0.137255 445:0.338583 446:0.227092 447:-0.160494 448:0.304348 449:0.180723 450:-0.211864 451:-0.228346 452:-0.357143 453:-0.560976 455:-0.18254 456:-0.433198 457:0.145098 458:-0.0352941 459:-0.306773 460:0.168627 461:0.0756972 462:-0.195219 463:-0.328063 464:-0.462451 465:-0.574803 466:-0.653543 467:-0.731225 468:-0.73913 469:-0.713147 470:-0.686747 471:-0.637097 472:-0.764706 473:-0.686275 474:-0.587302 475:-0.736 476:-0.611336 477:-0.451613 478:-0.634921 479:-0.497976 480:-0.387755 481:-0.699605 482:-0.608 483:-0.467213 484:-0.629921 485:-0.612648 486:-0.520325 487:-0.45749 488:-0.427419 489:-0.4 490:-0.442623 491:-0.496 492:-0.452381 493:-0.419087 494:-0.569106 495:-0.530364 496:-0.270492 497:-0.46988 498:-0.430962 499:-0.176955 500:-0.365079 501:-0.34127 502:-0.211864 503:-0.341463 504:-0.257143 505:-0.182609 506:-0.251064 507:-0.0954357 508:-0.0117647 509:-0.104 510:-0.0781893 511:0.00787402 512:-0.0491803 513:-0.105485 514:0.047619 515:0.0121457 516:-0.075 517:-0.0509804 518:-0.0364372 519:-0.0833333 520:-0.299213 521:-0.327801 522:-0.333333 523:-0.412698 524:-0.53719 525:-0.564854 526:-0.411765 527:-0.574297 528:-0.678715 529:-0.0823529 530:-0.2 531:-0.424 532:0.333333 533:0.272727 534:-0.0612245 535:0.372549 536:0.301587 537:-0.0894309 538:0.294118 539:0.206349 540:-0.149123 541:-0.251969 542:-0.351779 543:-0.562753 544:0.0352941 545:-0.102362 546:-0.33871 547:0.160784 548:-0.023622 549:-0.267717 550:0.12253 551:-0.0118577 552:-0.241107 553:-0.472441 554:-0.650794 555:-0.738095 556:-0.603175 557:-0.674603 558:-0.698413 559:-0.535433 560:-0.466135 561:-0.48 562:-0.636364 563:-0.547619 564:-0.512 565:-0.662745 566:-0.568 567:-0.49004 568:-0.612903 569:-0.432099 570:-0.401639 571:-0.57085 572:-0.453061 573:-0.414226 574:-0.553719 575:-0.521008 576:-0.478992 577:-0.297521 578:-0.360656 579:-0.358974 580:-0.133603 581:-0.296443 582:-0.305785 583:-0.0661157 584:-0.257143 585:-0.287554 586:0.097561 587:-0.180328 588:-0.205128 589:0.174089 590:-0.125506 591:-0.168067 592:0.097561 593:-0.159184 594:-0.150215 595:0.0376569 596:-0.15873 597:-0.110169 598:0.0393701 599:-0.233202 600:-0.195122 601:-0.0196078 602:-0.293173 603:-0.302905 604:-0.083004 605:-0.317073 606:-0.330508 607:-0.184 608:-0.374486 609:-0.353191 610:-0.335968 611:-0.504274 612:-0.45614 613:-0.380392 614:-0.547826 615:-0.550661 616:-0.254902 617:-0.393162 618:-0.53719 619:0.0592885 621:-0.271186 622:0.32549 623:0.293173 624:-0.0464135 625:0.299213 626:0.211155 627:-0.164557 628:0.247059 629:0.150794 630:-0.212121 631:-0.214286 632:-0.301587 633:-0.522267 634:0.0117647 635:-0.125984 636:-0.346774 637:0.0352941 638:-0.207843 639:-0.388235 640:0.121569 641:-0.0745098 642:-0.250996 643:-0.301961 644:-0.464567 645:-0.582677 646:-0.517787 647:-0.612648 648:-0.683794 649:-0.448819 650:-0.438735 651:-0.507937 652:-0.561753 653:-0.551181 654:-0.581028 655:-0.644269 656:-0.657143 657:-0.651452 658:-0.642276 659:-0.650407 660:-0.655738 661:-0.514644 662:-0.545455 663:-0.556485 664:-0.404082 665:-0.506276 666:-0.515695 667:-0.208 668:-0.45749 669:-0.440678 670:0.0634921 671:-0.309237 672:-0.275 673:0.163934 674:-0.253012 675:-0.201613 676:0.269841 677:-0.190476 678:-0.162602 679:0.357143 680:-0.0873016 681:-0.118367 682:0.44 683:0.0745098 684:0.023622 685:0.429752 686:0.132231 687:0.124464 688:0.438735 689:0.139344 690:0.139241 691:0.376 692:0.133047 693:0.116071 694:0.168627 695:-0.0292887 696:-0.0305677 697:-0.00392157 698:-0.131915 699:-0.141593 700:-0.126984 701:-0.293651 702:-0.319672 703:-0.204724 704:-0.298246 705:-0.386667 706:-0.0629921 707:-0.0900901 708:-0.306306 709:0.249012 710:0.275109 711:-0.0695652 712:0.356863 713:0.394958 714:0.0176991 715:0.251969 716:0.2 717:-0.160714 718:0.176471 719:0.131474 720:-0.230088 721:-0.249012 722:-0.343874 723:-0.538462 724:-0.0196078 725:-0.165354 726:-0.376518 727:0.0509804 728:-0.168627 729:-0.380392 730:0.0745098 731:-0.113725 732:-0.304 733:-0.00395257 734:-0.103175 735:-0.301587 736:-0.301961 737:-0.354331 738:-0.480315 739:-0.411765 740:-0.448819 741:-0.551181 742:-0.45098 743:-0.493976 744:-0.566265 745:-0.325397 746:-0.38843 747:-0.410256 748:-0.254902 749:-0.349593 750:-0.355649 751:-0.169355 752:-0.297071 753:-0.333333 754:-0.104839 755:-0.306452 756:-0.368 757:0.0406504 758:-0.213115 759:-0.278008 760:0.138075 761:-0.208696 762:-0.227468 763:0.265823 764:-0.114754 765:-0.121951 766:0.359684 767:0.00414938 768:-0.0124481 769:0.429719 770:0.0245902 771:-0.00819672 772:0.540984 773:0.142857 774:0.102041 775:0.450199 776:0.126531 777:0.0901639 778:0.45098 779:0.13253 780:0.0806452 781:0.372549 782:0.0708661 783:0.0120482 784:0.145098 785:-0.0416667 786:-0.118644 787:-0.0196078 788:-0.188755 789:-0.263158 790:-0.0666667 791:-0.104603 792:-0.232068 793:-0.0745098 794:-0.0862069 795:-0.26087 796:0.0314961 797:-0.00411523 798:-0.247934 799:0.254902 800:0.387387 801:0.0224215 802:0.320158 803:0.481481 804:-0.00456621 805:0.239216 806:0.195219 807:-0.133929 808:0.145098 809:0.121569 810:-0.215517 811:-0.32549 812:-0.372549 813:-0.564516 814:-0.106719 815:-0.230159 816:-0.441296 817:0.0629921 818:-0.0843373 819:-0.333333 820:0.023622 821:-0.130435 822:-0.375494 823:0.0745098 824:0.00395257 825:-0.264822 826:0.0117647 827:-0.0118577 828:-0.249012 829:-0.209486 830:-0.25 831:-0.40249 832:-0.309804 833:-0.392713 834:-0.483333 835:-0.228346 836:-0.349206 837:-0.421687 838:-0.312253 839:-0.439655 840:-0.471366 841:-0.346457 842:-0.545817 843:-0.620553 844:-0.168627 845:-0.378486 846:-0.482353 847:-0.0873016 848:-0.317647 849:-0.396078 850:0.00414938 851:-0.198381 852:-0.278431 853:0.1417 854:-0.10757 855:-0.177866 856:0.120332 857:-0.137255 858:-0.176471 859:0.176955 860:-0.12 861:-0.176 862:0.290323 863:-0.0196078 864:-0.0836653 865:0.314741 866:-0.027451 867:-0.0843373 868:0.333333 869:0.00392157 870:-0.0980392 871:0.190476 872:-0.112 873:-0.216327 874:-0.0196078 875:-0.278689 876:-0.385892 877:-0.027451 878:-0.157895 879:-0.327869 880:0.0996016 881:0.0864198 882:-0.152263 883:0.008 884:0.0175439 885:-0.201835 886:0.00392157 887:0.0357143 888:-0.232143 889:0.193676 890:0.299539 891:-0.0328638 892:0.207843 893:0.232759 894:-0.149123 895:0.149606 896:0.220779 897:-0.176991 898:0.0823529 899:0.113725 900:-0.165217 901:-0.396078 902:-0.386454 903:-0.546559 904:-0.251969 905:-0.309237 906:-0.512195 907:-0.123506 908:-0.214575 909:-0.453061 910:-0.008 911:-0.0823529 912:-0.362205 913:-0.00392157 914:-0.0666667 915:-0.330677 916:-0.0588235 917:-0.0988142 918:-0.343874 919:-0.15748 920:-0.23506 921:-0.406504 922:-0.223529 923:-0.277311 924:-0.431034 925:-0.152941 926:-0.230769 927:-0.35 928:-0.23622 929:-0.263158 930:-0.411765 931:-0.278431 932:-0.372385 933:-0.556485 934:-0.330709 935:-0.453782 936:-0.610169 937:-0.32549 938:-0.504 939:-0.626556 940:-0.255061 941:-0.39759 942:-0.502008 943:-0.271967 944:-0.40081 945:-0.478261 946:-0.261411 947:-0.417323 948:-0.487805 949:-0.190083 950:-0.383399 951:-0.435294 952:-0.0731707 953:-0.328063 954:-0.396078 955:0.0197628 956:-0.301961 957:-0.403922 958:0.0666667 959:-0.262745 960:-0.388235 961:0.0431373 962:-0.233871 963:-0.385246 964:0.0750988 965:-0.139442 966:-0.356863 967:0.166667 968:0.0509804 969:-0.207843 970:0.208 971:0.227468 972:-0.0695652 973:0.0967742 974:0.0619469 975:-0.207048 976:0.0434783 977:-0.0878661 978:-0.293617 979:0.0866142 980:0.0550459 981:-0.220183 982:0.0431373 983:0.0126582 984:-0.316456 985:-0.0588235 986:-0.0290456 987:-0.333333 988:-0.11811 989:-0.027451 990:-0.224138 991:-0.551181 992:-0.504 993:-0.619433 994:-0.411765 995:-0.427451 996:-0.590551 997:-0.270588 998:-0.290837 999:-0.512195 1000:-0.146245 1001:-0.140562 1002:-0.418033 1003:-0.114625 1004:-0.110236 1005:-0.393701 1006:-0.160784 1007:-0.176471 1008:-0.419608 1009:-0.223529 1010:-0.272 1011:-0.453815 1012:-0.247059 1013:-0.327869 1014:-0.487395 1015:-0.164659 1016:-0.218107 1017:-0.387234 1018:-0.220472 1019:-0.25 1020:-0.445887 1021:-0.223529 1022:-0.303279 1023:-0.531381 1024:-0.209486 1025:-0.276423 1026:-0.508197 1027:-0.198413 1028:-0.278008 1029:-0.506383 1030:-0.231373 1031:-0.298246 1032:-0.535865 1033:-0.207843 1034:-0.246637 1035:-0.445455 1036:-0.131474 1037:-0.238938 1038:-0.383929 1039:-0.0682731 1040:-0.193133 1041:-0.316017 1043:-0.109244 1044:-0.261803 1045:0.1 1046:-0.0622407 1047:-0.276423 1048:0.176471 1049:-0.0283401 1050:-0.256 1051:0.223529 1052:0.104603 1053:-0.188525 1054:0.262745 1055:0.129412 1056:-0.168627 1057:0.176471 1058:0.15 1059:-0.185185 1060:0.137255 1061:0.109244 1062:-0.2 1063:0.0980392 1064:0.0123457 1065:-0.182609 1066:0.0393701 1067:-0.133333 1068:-0.305085 1070:-0.116071 1071:-0.303167 1072:-0.105882 1073:-0.0810811 1074:-0.363229 1075:-0.19685 1076:-0.147541 1077:-0.360656 1078:-0.286275 1079:-0.12253 1080:-0.264822 1081:-0.629921 1082:-0.557312 1083:-0.619048 1084:-0.563492 1085:-0.52381 1086:-0.626016 1087:-0.472441 1088:-0.432 1089:-0.608163 1090:-0.364706 1091:-0.292683 1092:-0.520325 1093:-0.32549 1094:-0.270588 1095:-0.490196 1096:-0.333333 1097:-0.304348 1098:-0.501976 1099:-0.364706 1100:-0.36 1101:-0.549407 1102:-0.341176 1103:-0.377953 1104:-0.547619 1105:-0.247059 1106:-0.255061 1107:-0.458333 1108:-0.204724 1109:-0.254098 1110:-0.455319 1111:-0.120968 1112:-0.211382 1113:-0.443038 1114:-0.0434783 1115:-0.0535714 1116:-0.393162 1117:0.00392157 1118:-0.0452675 1119:-0.355102 1120:-0.0117647 1121:-0.137255 1122:-0.394422 1123:0.023622 1124:-0.0460251 1125:-0.305439 1126:0.0944882 1127:-0.0438247 1128:-0.277778 1129:0.215686 1130:0.04 1131:-0.174603 1132:0.312 1133:0.124498 1134:-0.129032 1135:0.313808 1136:0.152 1137:-0.146341 1138:0.380392 1139:0.215686 1140:-0.0588235 1141:0.388235 1142:0.220472 1143:-0.0708661 1144:0.296 1145:0.16 1146:-0.16 1147:0.184314 1148:0.136 1149:-0.2 1150:0.121569 1151:0.0823529 1152:-0.231373 1153:0.102362 1154:0.0954357 1155:-0.186722 1156:0.0196078 1157:-0.0826446 1158:-0.260504 1159:-0.00793651 1160:-0.0138249 1161:-0.216216 1162:-0.162055 1163:-0.11588 1164:-0.313305 1165:-0.328063 1166:-0.235772 1167:-0.341463 1168:-0.309804 1169:-0.0666667 1170:-0.0787402 1171:-0.647059 1172:-0.560784 1173:-0.551181 1174:-0.598425 1175:-0.512 1176:-0.544715 1177:-0.606299 1178:-0.52988 1179:-0.601626 1180:-0.576471 1181:-0.483871 1182:-0.601626 1183:-0.529412 1184:-0.434263 1185:-0.544715 1186:-0.486166 1187:-0.411765 1188:-0.527559 1189:-0.462451 1190:-0.383333 1191:-0.549407 1192:-0.435294 1193:-0.363636 1194:-0.543307 1195:-0.32549 1196:-0.276423 1197:-0.49004 1198:-0.231373 1199:-0.24 1200:-0.464 1201:-0.110236 1202:-0.15102 1203:-0.420635 1204:-0.0509804 1205:-0.160784 1206:-0.454545 1207:0.0431373 1208:-0.0551181 1209:-0.370079 1210:0.0980392 1211:0.0117647 1212:-0.301961 1213:0.137255 1214:0.027451 1215:-0.254902 1216:0.207843 1217:0.0866142 1218:-0.204724 1219:0.356863 1220:0.220884 1221:-0.0793651 1222:0.418327 1223:0.268293 1224:-0.0522088 1225:0.403361 1226:0.195021 1227:-0.145228 1228:0.403922 1229:0.223529 1230:-0.0745098 1231:0.359684 1232:0.248945 1233:-0.0543933 1234:0.262745 1235:0.164659 1236:-0.125506 1237:0.173228 1238:0.220339 1239:-0.130802 1240:0.0629921 1241:0.142857 1242:-0.194915 1243:0.0434783 1244:0.0873016 1245:-0.209486 1246:-0.0823529 1247:-0.0931174 1248:-0.264463 1249:-0.15415 1250:-0.118943 1251:-0.259912 1252:-0.258964 1253:-0.226337 1254:-0.333333 1255:-0.380392 1256:-0.230769 1257:-0.230769 1258:-0.198413 1259:0.184 1260:0.261044 1261:-0.670588 1262:-0.596838 1263:-0.531746 1264:-0.68254 1265:-0.609562 1266:-0.574297 1267:-0.698413 1268:-0.612648 1269:-0.591837 1270:-0.683794 1271:-0.595238 1272:-0.581967 1273:-0.670588 1274:-0.563492 1275:-0.57377 1276:-0.639216 1277:-0.52988 1278:-0.57377 1279:-0.598425 1280:-0.479675 1281:-0.58871 1282:-0.503937 1283:-0.377593 1284:-0.533597 1285:-0.419608 1286:-0.314286 1287:-0.482072 1288:-0.304348 1289:-0.280632 1290:-0.448 1291:-0.145098 1292:-0.184314 1293:-0.396078 1294:-0.0431373 1295:-0.125984 1296:-0.385827 1297:0.0352941 1298:-0.0823529 1299:-0.372549 1300:0.12253 1301:0.0650407 1302:-0.285714 1303:0.209486 1304:0.146245 1305:-0.193676 1306:0.212598 1307:0.11811 1308:-0.220472 1309:0.338583 1310:0.204724 1311:-0.125984 1312:0.409449 1313:0.267717 1314:-0.0866142 1315:0.375 1316:0.376147 1317:-0.0382979 1318:0.403922 1319:0.338912 1320:-0.0245902 1321:0.320158 1322:0.25523 1323:-0.0617284 1324:0.231373 1325:0.219917 1326:-0.0909091 1327:0.11811 1328:0.220339 1329:-0.118644 1330:-0.0118577 1331:0.0607287 1332:-0.258065 1333:-0.0666667 1334:0.00787402 1335:-0.23506 1336:-0.185771 1337:-0.128205 1338:-0.281385 1339:-0.274194 1340:-0.275 1341:-0.366667 1342:-0.372549 1343:-0.273469 1344:-0.330612 1345:-0.490196 1346:-0.289796 1347:-0.208163 1348:-0.102362 1349:0.354331 1350:0.503937 
0.01851676554075923 1:0.505882 2:-0.173228 3:-0.335968 4:0.590551 5:-0.0487805 6:-0.217391 7:0.662745 8:0.0281124 9:-0.0887097 10:0.740157 11:0.0944882 12:-0.00395257 13:0.74902 14:0.141732 15:0.0314961 16:0.742739 17:0.1417 18:0.00806452 19:0.627119 20:0.037037 21:-0.108333 22:0.425 23:-0.201681 24:-0.369748 25:0.296137 26:-0.233202 27:-0.435484 28:0.587444 29:0.0281124 30:-0.188976 31:0.867841 32:0.172727 33:-0.0484581 34:0.727273 35:0.0661157 36:-0.128631 37:0.733333 38:0.136 39:-0.112 40:0.930131 41:0.325103 42:0.0743802 43:1 44:0.473251 45:0.191667 46:0.931034 47:0.386555 48:0.0205761 49:0.591667 50:0.0197628 51:-0.33871 52:0.60177 53:0.027668 54:-0.278431 55:0.716814 56:0.060241 57:-0.120332 58:0.709804 59:0.027451 60:-0.0723404 61:0.403922 62:-0.261044 63:-0.316456 64:0.286275 65:-0.317073 66:-0.383333 67:0.756863 68:0.165354 69:0.128631 70:0.905882 71:0.325397 72:0.232 73:0.796078 74:0.193676 75:0.0952381 76:0.772549 77:0.11811 78:0.00787402 79:0.678431 80:0.0241935 81:-0.112903 82:0.694118 83:-0.0238095 84:-0.165992 85:0.662745 86:-0.0836653 87:-0.250996 88:0.566929 89:-0.204724 90:-0.370079 91:0.517787 92:-0.14741 93:-0.365462 94:0.519685 95:-0.115538 96:-0.328063 97:0.576471 98:-0.0522088 99:-0.232 100:0.669291 101:0.0393701 102:-0.096 103:0.683794 104:0.0793651 105:-0.00395257 106:0.707317 107:0.115538 108:0.031746 109:0.690987 110:0.0539419 111:-0.113924 112:0.633333 113:-0.0205761 114:-0.166667 115:0.443478 116:-0.186441 117:-0.385246 118:0.461883 119:-0.0970464 120:-0.295547 121:0.585903 122:0.0495868 123:-0.167347 124:0.484127 125:-0.0612245 126:-0.306122 127:0.503937 128:-0.0241935 129:-0.253012 130:0.740891 131:0.201581 133:0.974026 134:0.445783 135:0.24 136:0.807531 137:0.367089 138:0.0901639 139:0.478632 141:-0.225 142:0.370213 143:-0.021645 144:-0.280702 145:0.491379 146:-0.0352941 147:-0.231373 148:0.670588 149:0.0588235 150:-0.0745098 151:0.314961 152:-0.215517 153:-0.304721 154:0.270588 155:-0.247934 156:-0.291667 157:0.623529 158:0.103175 159:0.0278884 160:0.803922 161:0.282869 162:0.191837 163:0.835294 164:0.264822 165:0.136 166:0.835294 167:0.214286 168:0.060241 169:0.708661 170:0.0403226 171:-0.102041 172:0.677165 173:-0.04 174:-0.182186 175:0.662745 176:-0.0555556 177:-0.209677 178:0.543307 179:-0.195219 180:-0.344398 181:0.466135 182:-0.203187 183:-0.474104 184:0.443137 185:-0.207843 186:-0.44664 187:0.521569 188:-0.121569 189:-0.346614 190:0.596838 191:-0.0238095 192:-0.2 193:0.650794 194:0.060241 195:-0.056 196:0.72549 197:0.15873 198:0.0358566 199:0.689655 200:0.0548523 201:-0.077551 202:0.751037 203:0.104603 204:-0.0894309 205:0.529915 206:-0.0661157 207:-0.228346 208:0.284483 209:-0.176 210:-0.365854 211:0.158798 212:-0.283951 213:-0.467742 214:0.137255 215:-0.338583 216:-0.521569 217:0.228346 218:-0.214575 219:-0.392713 220:0.338583 221:-0.0850202 222:-0.235772 223:0.465587 224:0.060241 225:-0.102362 226:0.349398 227:-0.0367347 228:-0.191837 229:0.15415 230:-0.226891 231:-0.367521 232:0.133858 233:-0.26087 234:-0.409692 235:0.0980392 236:-0.330508 237:-0.44206 238:0.215686 239:-0.253219 240:-0.313043 241:0.19685 242:-0.290043 243:-0.327511 244:0.341176 245:-0.152 246:-0.138075 247:0.615686 248:0.133858 249:0.0843373 250:0.700787 251:0.211155 252:0.0843373 253:0.835294 254:0.286275 255:0.0980392 256:0.905512 257:0.285714 258:0.119342 259:0.733333 260:0.0555556 261:-0.092437 262:0.637795 263:-0.064 264:-0.246964 265:0.607843 266:-0.0873016 267:-0.263158 268:0.488189 269:-0.209486 270:-0.367089 271:0.385827 272:-0.253968 273:-0.522267 274:0.464567 275:-0.204724 276:-0.460317 277:0.513725 278:-0.145098 279:-0.362205 280:0.6 281:-0.00401606 282:-0.206349 283:0.628458 284:0.059761 285:-0.12253 286:0.678431 287:0.152 288:-0.016129 289:0.674603 290:0.177866 291:0.00392157 292:0.682008 293:0.147541 294:-0.0364372 295:0.364807 296:-0.169492 297:-0.341667 298:0.0376569 299:-0.412245 300:-0.585366 301:0.0509804 302:-0.388889 303:-0.534694 304:0.12253 305:-0.285141 306:-0.40239 307:0.286275 308:-0.103175 309:-0.223529 310:0.188976 311:-0.122363 312:-0.239316 313:0.00787402 314:-0.292181 315:-0.399177 316:-0.00793651 317:-0.253333 318:-0.40249 319:-0.0711297 320:-0.292453 321:-0.413793 322:-0.030837 323:-0.324324 324:-0.377049 325:0.0393701 326:-0.344978 327:-0.36 328:0.0393701 329:-0.429752 330:-0.388646 331:0.113725 332:-0.40239 333:-0.341991 334:0.396078 335:-0.083004 336:-0.0376569 337:0.623529 338:0.177866 339:0.129032 340:0.72549 341:0.272727 342:0.140562 343:0.780392 344:0.262745 345:0.0509804 346:0.764706 347:0.160784 348:-0.0823529 349:0.715415 350:0.047619 351:-0.161826 352:0.576471 353:-0.0909091 354:-0.302905 355:0.527559 356:-0.142857 357:-0.3361 358:0.427451 359:-0.219124 360:-0.418033 361:0.438735 362:-0.190476 363:-0.471545 364:0.440945 365:-0.225296 366:-0.475806 367:0.545098 368:-0.113725 369:-0.325397 370:0.529412 371:-0.0483871 372:-0.270588 373:0.637795 374:0.102362 375:-0.0866142 376:0.636364 377:0.19685 379:0.545098 380:0.146245 381:-0.0121457 382:0.391667 383:0.00813008 384:-0.120968 385:0.0420168 386:-0.306452 387:-0.427419 388:-0.254902 389:-0.650407 390:-0.806452 391:-0.299213 392:-0.672 393:-0.808333 394:-0.13834 395:-0.45679 396:-0.537815 397:0.0745098 398:-0.232 399:-0.341176 400:0.0866142 401:-0.159664 402:-0.241379 403:0.203252 405:-0.0683761 406:-0.0627615 407:-0.147982 408:-0.246753 409:-0.215859 410:-0.330435 411:-0.41129 412:-0.382609 413:-0.658537 414:-0.631336 415:-0.277311 416:-0.689498 417:-0.642857 418:-0.0787402 419:-0.504065 420:-0.459016 421:-0.0629921 422:-0.5 423:-0.440678 424:0.286275 425:-0.152941 426:-0.113821 427:0.458824 428:0.047619 429:0.0204082 430:0.647059 431:0.23506 432:0.122951 433:0.694118 434:0.220472 435:0.0322581 436:0.717647 437:0.145098 438:-0.088 439:0.677165 440:0.0434783 441:-0.230159 442:0.545098 443:-0.0901961 444:-0.364706 445:0.425197 446:-0.187251 447:-0.423868 448:0.351779 449:-0.228916 450:-0.440678 451:0.370079 452:-0.206349 453:-0.471545 454:0.425197 455:-0.198413 456:-0.441296 457:0.427451 458:-0.192157 459:-0.386454 460:0.490196 461:-0.0677291 462:-0.250996 463:0.596838 464:0.130435 465:-0.0787402 466:0.346457 467:-0.00395257 468:-0.209486 469:-0.10757 470:-0.39759 471:-0.556452 472:-0.184314 473:-0.490196 474:-0.603175 475:-0.152 476:-0.497976 477:-0.556452 478:-0.277778 479:-0.651822 480:-0.755102 481:-0.328063 482:-0.672 483:-0.754098 484:-0.338583 485:-0.636364 486:-0.731707 487:-0.57085 488:-0.806452 489:-0.912 490:-0.663934 491:-0.848 492:-0.952381 493:-0.0539419 494:-0.276423 495:-0.433198 496:-0.377049 497:-0.598394 498:-0.698745 499:-0.45679 500:-0.698413 501:-0.730159 502:-0.305085 503:-0.577236 504:-0.559184 505:-0.443478 506:-0.770213 507:-0.643154 508:-0.278431 509:-0.656 510:-0.588477 511:-0.417323 512:-0.786885 513:-0.729958 514:-0.396825 515:-0.748988 516:-0.733333 517:-0.231373 518:-0.546559 519:-0.583333 520:0.141732 521:-0.178423 522:-0.264957 523:0.595238 524:0.198347 525:0.0460251 526:0.662745 527:0.148594 528:-0.0441767 529:0.670588 530:0.08 531:-0.144 532:0.615686 533:-0.00395257 534:-0.208163 535:0.403922 536:-0.15873 537:-0.382114 538:0.294118 539:-0.222222 540:-0.394737 541:0.401575 542:-0.13834 543:-0.384615 544:0.466667 545:-0.133858 546:-0.314516 547:0.427451 548:-0.15748 549:-0.322835 550:0.604743 551:0.0671937 552:-0.083004 553:0.354331 554:-0.0396825 555:-0.206349 556:-0.293651 557:-0.563492 558:-0.730159 559:-0.543307 560:-0.752988 561:-0.864 562:-0.375494 563:-0.650794 564:-0.688 565:-0.0666667 566:-0.416 567:-0.40239 569:-0.341564 570:-0.352459 571:-0.0283401 572:-0.379592 573:-0.405858 575:-0.319328 576:-0.378151 577:-0.115702 578:-0.409836 579:-0.521368 580:-0.352227 581:-0.620553 582:-0.760331 583:-0.0495868 584:-0.281633 585:-0.467811 586:-0.105691 587:-0.401639 588:-0.547009 589:-0.0850202 590:-0.45749 591:-0.512605 592:-0.0243902 593:-0.404082 594:-0.407725 595:-0.179916 596:-0.507937 597:-0.508475 598:-0.11811 599:-0.494071 600:-0.422764 601:-0.254902 602:-0.590361 603:-0.53527 604:-0.478261 605:-0.739837 606:-0.728814 607:-0.696 608:-0.917695 609:-0.957447 610:-0.533597 611:-0.752137 612:-0.833333 613:0.207843 614:-0.0521739 615:-0.145374 616:0.568627 617:0.188034 618:0.0247934 619:0.557312 620:0.0423729 621:-0.0847458 622:0.552941 623:-0.0281124 624:-0.122363 625:0.385827 626:-0.171315 627:-0.299578 628:0.239216 629:-0.253968 630:-0.367965 631:0.468254 632:-0.0634921 633:-0.279352 634:0.466667 635:-0.0944882 636:-0.233871 637:0.498039 638:-0.0509804 639:-0.168627 640:0.498039 641:0.0196078 642:-0.0756972 643:-0.00392157 644:-0.338583 645:-0.456693 646:-0.399209 647:-0.628458 648:-0.73913 649:-0.291339 650:-0.509881 651:-0.571429 652:-0.0358566 653:-0.338583 654:-0.328063 655:0.264822 656:-0.134694 657:-0.0622407 658:0.439024 659:-0.00813008 660:0.0409836 661:0.48954 662:0.0247934 663:0.0460251 664:0.542857 665:0.16318 666:0.156951 667:0.608 668:0.198381 669:0.127119 670:0.539683 671:0.0923695 672:-0.0333333 673:0.565574 674:0.108434 675:-0.0241935 676:0.619048 677:0.134921 678:0.00813008 679:0.642857 680:0.0952381 681:0.044898 682:0.464 683:-0.0666667 684:-0.0708661 685:0.347107 686:-0.107438 687:-0.0729614 688:0.280632 689:-0.106557 690:-0.0295359 691:0.184 692:-0.11588 693:-0.0535714 694:-0.152941 695:-0.330544 696:-0.327511 697:-0.419608 698:-0.523404 699:-0.584071 700:-0.547619 701:-0.706349 702:-0.770492 703:-0.338583 704:-0.552632 705:-0.6 706:0.314961 707:0.018018 708:-0.045045 709:0.509881 710:0.0567686 711:-0.00869565 712:0.419608 713:-0.109244 714:-0.150442 715:0.322835 716:-0.232 717:-0.258929 718:0.254902 719:-0.258964 720:-0.309735 721:0.407115 722:-0.12253 723:-0.303644 724:0.45098 725:-0.0866142 726:-0.206478 727:0.490196 728:-0.0352941 729:-0.137255 730:0.32549 731:-0.113725 732:-0.176 733:-0.114625 734:-0.428571 735:-0.507937 736:-0.129412 737:-0.385827 738:-0.456693 739:-0.129412 740:-0.409449 741:-0.440945 742:-0.0745098 743:-0.421687 744:-0.421687 745:0.0714286 746:-0.355372 747:-0.316239 748:0.129412 749:-0.349593 750:-0.305439 751:0.322581 752:-0.171548 753:-0.168831 754:0.387097 755:-0.153226 756:-0.2 757:0.373984 758:-0.131148 759:-0.228216 760:0.330544 761:-0.182609 762:-0.296137 763:0.392405 764:-0.139344 765:-0.260163 766:0.375494 767:-0.145228 768:-0.253112 769:0.373494 770:-0.213115 771:-0.286885 772:0.508197 773:-0.126531 774:-0.15102 775:0.434263 776:-0.0938776 777:-0.0819672 778:0.309804 779:-0.13253 780:-0.0967742 781:0.0509804 782:-0.330709 783:-0.277108 784:-0.176471 785:-0.341667 786:-0.389831 787:-0.34902 788:-0.437751 789:-0.546559 790:-0.356863 791:-0.447699 792:-0.544304 793:-0.396078 794:-0.577586 795:-0.652174 796:0.0472441 797:-0.308642 798:-0.355372 799:0.47451 800:0.0810811 801:0.0313901 802:0.41502 803:-0.037037 804:-0.114155 805:0.317647 806:-0.250996 807:-0.25 808:0.270588 809:-0.278431 810:-0.301724 811:0.411765 812:-0.137255 813:-0.314516 814:0.470356 815:-0.0793651 816:-0.222672 817:0.496063 818:0.00401606 819:-0.116466 820:0.385827 821:-0.0434783 822:-0.130435 823:0.027451 824:-0.296443 825:-0.351779 826:-0.129412 827:-0.41502 828:-0.470356 829:-0.0197628 830:-0.346774 831:-0.385892 832:0.137255 833:-0.279352 834:-0.316667 835:0.141732 836:-0.373016 837:-0.421687 838:0.177866 839:-0.310345 840:-0.339207 841:0.299213 842:-0.250996 843:-0.296443 844:0.411765 845:-0.155378 846:-0.223529 847:0.404762 848:-0.160784 849:-0.223529 850:0.40249 851:-0.101215 852:-0.184314 853:0.425101 854:-0.139442 855:-0.225296 856:0.40249 857:-0.192157 858:-0.262745 859:0.432099 860:-0.224 861:-0.272 862:0.419355 863:-0.215686 864:-0.2749 865:0.386454 866:-0.184314 867:-0.228916 868:0.176471 869:-0.32549 870:-0.34902 872:-0.408 873:-0.420408 874:-0.105882 875:-0.327869 876:-0.427386 877:-0.231373 878:-0.376518 879:-0.508197 880:-0.243028 881:-0.399177 882:-0.539095 883:-0.128 884:-0.307018 885:-0.422018 886:0.152941 887:-0.125 888:-0.241071 889:0.399209 890:0.0230415 891:-0.0798122 892:0.372549 893:-0.112069 894:-0.210526 895:0.299213 896:-0.177489 897:-0.274336 898:0.176471 899:-0.317647 900:-0.365217 901:0.458824 902:-0.139442 903:-0.319838 904:0.456693 905:-0.100402 906:-0.276423 907:0.442231 908:-0.0607287 909:-0.191837 910:0.456 911:0.027451 912:-0.0787402 913:0.247059 914:-0.113725 915:-0.155378 916:0.0588235 917:-0.264822 918:-0.320158 919:0.259843 920:-0.139442 921:-0.211382 922:0.419608 923:-0.0168067 924:-0.137931 925:0.372549 926:-0.174089 927:-0.283333 928:0.401575 929:-0.105263 930:-0.18552 931:0.47451 932:-0.0711297 933:-0.146444 934:0.527559 935:-0.0168067 936:-0.101695 937:0.662745 938:0.072 939:0.0456432 940:0.773279 941:0.180723 942:0.164659 943:0.740586 944:0.1417 945:0.12253 946:0.701245 947:0.0551181 948:0.0406504 949:0.727273 950:0.0513834 951:0.0117647 952:0.593496 953:-0.083004 954:-0.137255 955:0.478261 956:-0.145098 957:-0.223529 958:0.317647 959:-0.231373 960:-0.32549 961:0.247059 962:-0.201613 963:-0.303279 964:0.177866 965:-0.179283 966:-0.317647 967:0.206349 968:-0.105882 969:-0.254902 970:0.112 971:-0.107296 972:-0.26087 973:0.120968 974:-0.106195 975:-0.295154 976:0.41502 977:0.0543933 978:-0.114894 979:0.456693 980:0.100917 981:-0.110092 982:0.372549 983:-0.105485 984:-0.291139 985:0.223529 986:-0.228216 987:-0.383966 988:0.0787402 989:-0.356863 990:-0.456897 991:0.401575 992:-0.192 993:-0.384615 994:0.443137 995:-0.0980392 996:-0.307087 997:0.435294 998:-0.0517928 999:-0.203252 1000:0.454545 1001:0.0281124 1002:-0.0655738 1003:0.422925 1005:-0.0393701 1006:0.364706 1007:-0.0431373 1008:-0.105882 1009:0.47451 1010:0.04 1011:-0.0923695 1012:0.443137 1013:-0.0245902 1014:-0.210084 1015:0.35743 1016:-0.193416 1017:-0.370213 1018:0.377953 1019:-0.158333 1020:-0.290043 1021:0.505882 1022:-0.057377 1023:-0.154812 1024:0.581028 1025:0.0162602 1026:-0.0983607 1027:0.730159 1028:0.195021 1029:0.140426 1030:0.788235 1031:0.350877 1032:0.274262 1033:0.835294 1034:0.408072 1035:0.445455 1036:0.920319 1037:0.433628 1038:0.446429 1039:0.831325 1040:0.304721 1041:0.255411 1042:0.595041 1043:0.0672269 1044:-0.0128755 1045:0.466667 1046:-0.0705394 1047:-0.219512 1048:0.356863 1049:-0.174089 1050:-0.32 1051:0.34902 1052:-0.121339 1053:-0.278689 1054:0.270588 1055:-0.192157 1056:-0.317647 1057:0.286275 1058:-0.05 1059:-0.226337 1060:0.32549 1061:0.0420168 1062:-0.158333 1063:0.270588 1064:-0.0123457 1065:-0.2 1066:0.377953 1067:0.05 1068:-0.186441 1069:0.385827 1070:0.0625 1071:-0.18552 1072:0.333333 1073:-0.036036 1074:-0.264574 1075:0.188976 1076:-0.245902 1077:-0.418033 1078:0.0196078 1079:-0.375494 1080:-0.525692 1081:0.346457 1082:-0.201581 1083:-0.420635 1084:0.380952 1085:-0.0952381 1086:-0.325203 1087:0.370079 1088:-0.064 1089:-0.257143 1090:0.380392 1091:-0.0162602 1092:-0.154472 1093:0.396078 1094:-0.027451 1095:-0.105882 1096:0.427451 1097:-0.00395257 1098:-0.106719 1099:0.521569 1100:0.064 1101:-0.114625 1102:0.47451 1103:-0.0314961 1104:-0.246032 1105:0.372549 1106:-0.1417 1107:-0.341667 1108:0.401575 1109:-0.147541 1110:-0.285106 1111:0.41129 1112:-0.162602 1113:-0.257384 1114:0.399209 1115:-0.0446429 1116:-0.213675 1117:0.490196 1118:0.0123457 1119:-0.0857143 1120:0.47451 1121:-0.027451 1122:-0.0517928 1123:0.488189 1124:0.0543933 1125:0.0460251 1126:0.535433 1127:0.059761 1128:0.0238095 1129:0.435294 1130:-0.048 1131:-0.119048 1132:0.288 1133:-0.196787 1134:-0.346774 1135:0.280335 1136:-0.192 1137:-0.365854 1138:0.294118 1139:-0.231373 1140:-0.364706 1141:0.34902 1142:-0.212598 1143:-0.314961 1144:0.352 1145:-0.176 1146:-0.288 1147:0.294118 1148:-0.136 1149:-0.272 1150:0.364706 1151:-0.0196078 1152:-0.207843 1153:0.291339 1154:-0.00414938 1155:-0.253112 1156:0.301961 1157:-0.00826446 1158:-0.235294 1159:0.333333 1160:0.0506912 1161:-0.207207 1162:0.249012 1163:-0.150215 1164:-0.330472 1165:0.193676 1166:-0.227642 1167:-0.390244 1168:0.0509804 1169:-0.333333 1170:-0.488189 1171:0.231373 1172:-0.270588 1173:-0.496063 1174:0.291339 1175:-0.152 1176:-0.382114 1177:0.338583 1178:-0.0517928 1179:-0.252033 1180:0.309804 1181:-0.0241935 1182:-0.211382 1183:0.32549 1184:-0.0278884 1185:-0.186992 1186:0.41502 1187:0.0117647 1188:-0.149606 1189:0.501976 1190:0.0833333 1191:-0.13834 1192:0.498039 1193:0.0247934 1194:-0.204724 1195:0.505882 1196:-0.0487805 1197:-0.219124 1198:0.411765 1199:-0.176 1200:-0.288 1201:0.330709 1202:-0.216327 1203:-0.333333 1204:0.247059 1205:-0.262745 1206:-0.343874 1207:0.129412 1208:-0.322835 1209:-0.409449 1210:0.0666667 1211:-0.341176 1212:-0.427451 1213:0.0901961 1214:-0.286275 1215:-0.388235 1216:0.0352941 1217:-0.299213 1218:-0.433071 1219:0.027451 1220:-0.309237 1221:-0.452381 1222:0.0836653 1223:-0.276423 1224:-0.429719 1225:0.193277 1226:-0.253112 1227:-0.40249 1228:0.231373 1229:-0.239216 1230:-0.341176 1231:0.296443 1232:-0.156118 1233:-0.230126 1234:0.317647 1235:-0.156627 1236:-0.246964 1237:0.299213 1238:-0.0847458 1239:-0.232068 1240:0.307087 1241:-0.0252101 1242:-0.186441 1243:0.256917 1244:-0.0952381 1245:-0.296443 1246:0.247059 1247:-0.0850202 1248:-0.280992 1249:0.256917 1250:-0.0484581 1251:-0.251101 1252:0.187251 1253:-0.209877 1254:-0.374486 1255:0.121569 1256:-0.263158 1257:-0.425101 1258:0.0793651 1259:-0.264 1260:-0.437751 1261:0.0901961 1262:-0.367589 1263:-0.563492 1264:0.134921 1265:-0.322709 1266:-0.51004 1267:0.253968 1268:-0.13834 1269:-0.306122 1270:0.241107 1271:-0.0952381 1272:-0.245902 1273:0.223529 1274:-0.0793651 1275:-0.229508 1276:0.356863 1277:0.00398406 1278:-0.122951 1279:0.440945 1281:-0.112903 1282:0.527559 1283:0.0290456 1284:-0.0988142 1285:0.584314 1286:0.044898 1287:-0.059761 1288:0.533597 1289:-0.0592885 1290:-0.144 1291:0.490196 1292:-0.0666667 1293:-0.160784 1294:0.443137 1295:-0.0551181 1296:-0.149606 1297:0.341176 1298:-0.121569 1299:-0.223529 1300:0.351779 1301:-0.0487805 1302:-0.198413 1303:0.367589 1304:-0.0118577 1305:-0.16996 1306:0.291339 1307:-0.0472441 1308:-0.228346 1309:0.330709 1310:-0.015748 1311:-0.19685 1312:0.338583 1313:-0.0472441 1314:-0.188976 1315:0.291667 1316:-0.0458716 1317:-0.157447 1318:0.372549 1319:-0.0460251 1320:-0.139344 1321:0.383399 1322:-0.0543933 1323:-0.135802 1324:0.32549 1325:-0.0954357 1326:-0.181818 1327:0.314961 1328:-0.0762712 1329:-0.177966 1330:0.335968 1331:-0.0526316 1332:-0.177419 1333:0.309804 1334:-0.0708661 1335:-0.195219 1336:0.225296 1337:-0.0683761 1338:-0.220779 1339:0.185484 1340:-0.166667 1341:-0.316667 1342:0.0352941 1343:-0.297959 1344:-0.444898 1345:-0.0745098 1346:-0.379592 1347:-0.542857 1348:-0.0708661 1349:-0.362205 1350:-0.527559 
0.03125 1:0.882353 2:0.425197 3:0.217391 4:0.968504 5:0.593496 6:0.359684 7:0.976471 8:0.654618 9:0.5 10:0.992126 11:0.685039 12:0.573123 13:1 14:0.724409 15:0.653543 16:0.950207 17:0.578947 18:0.491935 19:0.661017 20:0.201646 21:0.108333 22:0.758333 23:0.277311 24:0.184874 25:0.690987 26:0.217391 27:0.145161 28:0.434978 29:-0.0441767 30:-0.110236 31:0.629956 32:0.1 33:0.0220264 34:0.966942 35:0.553719 36:0.46888 37:0.992157 38:0.664 39:0.56 40:1 41:0.695473 42:0.603306 43:0.954955 44:0.539095 45:0.425 46:0.732759 47:0.302521 48:0.135802 49:0.591667 50:0.130435 51:0.0322581 52:0.495575 53:0.083004 54:0.027451 55:0.858407 56:0.39759 57:0.443983 58:0.882353 59:0.396078 60:0.47234 61:0.686275 62:0.212851 63:0.206751 64:0.898039 65:0.552846 66:0.433333 67:0.968627 68:0.700787 69:0.659751 70:0.945098 71:0.730159 72:0.656 73:1 74:0.818182 75:0.777778 76:0.976471 77:0.779528 78:0.716535 79:0.937255 80:0.66129 81:0.548387 82:0.937255 83:0.539683 84:0.408907 85:0.890196 86:0.434263 87:0.266932 88:0.826772 89:0.314961 90:0.11811 91:0.865613 92:0.40239 93:0.196787 94:0.944882 95:0.521912 96:0.320158 97:0.968627 98:0.630522 99:0.44 100:0.976378 101:0.653543 102:0.52 103:0.968379 104:0.626984 105:0.533597 106:0.902439 107:0.482072 108:0.365079 109:0.682403 110:0.145228 111:0.0126582 112:0.558333 113:0.0123457 114:-0.047619 115:0.704348 116:0.135593 117:0.0409836 118:0.686099 119:0.206751 120:0.109312 121:0.559471 122:0.157025 123:0.044898 124:0.666667 125:0.257143 126:0.142857 127:0.818898 128:0.419355 129:0.309237 130:0.82996 131:0.422925 132:0.322835 133:0.679654 134:0.333333 135:0.248 136:0.824268 137:0.535865 138:0.409836 139:0.965812 140:0.596639 141:0.533333 142:0.897872 143:0.575758 144:0.526316 145:0.87069 146:0.341176 147:0.294118 148:0.756863 149:0.223529 150:0.168627 151:0.779528 152:0.37931 153:0.261803 154:0.905882 155:0.545455 156:0.391667 157:0.952941 158:0.619048 159:0.49004 160:0.968627 161:0.673307 162:0.62449 163:0.976471 164:0.731225 165:0.712 166:0.952941 167:0.753968 168:0.702811 169:0.952756 170:0.66129 171:0.559184 172:0.937008 173:0.512 174:0.368421 175:0.921569 176:0.460317 177:0.306452 178:0.826772 179:0.338645 180:0.186722 181:0.864542 182:0.354582 183:0.14741 184:0.898039 185:0.435294 186:0.272727 187:0.937255 188:0.537255 189:0.370518 190:0.936759 191:0.587302 192:0.424 193:0.936508 194:0.526104 195:0.4 196:0.827451 197:0.373016 198:0.23506 199:0.62069 200:0.0801688 201:-0.0204082 202:0.568465 203:0.0292887 204:-0.097561 205:0.641026 206:0.140496 207:0.023622 208:0.62931 209:0.264 210:0.130081 211:0.665236 212:0.333333 213:0.185484 214:0.701961 215:0.322835 216:0.231373 217:0.732283 218:0.40081 219:0.327935 220:0.80315 221:0.473684 222:0.406504 223:0.821862 224:0.502008 225:0.440945 226:0.991968 227:0.738776 228:0.714286 229:0.841897 230:0.605042 231:0.589744 232:0.755906 233:0.443478 234:0.400881 235:0.788235 236:0.40678 237:0.321888 238:0.717647 239:0.330472 240:0.234783 241:0.748031 242:0.385281 243:0.240175 244:0.882353 245:0.472 246:0.364017 247:0.937255 248:0.559055 249:0.46988 250:0.952756 251:0.633466 252:0.558233 253:0.976471 254:0.694118 255:0.639216 256:0.968504 257:0.698413 258:0.662551 259:0.945098 260:0.603175 261:0.537815 262:0.944882 263:0.504 264:0.34413 265:0.827451 266:0.333333 267:0.174089 268:0.795276 269:0.256917 270:0.130802 271:0.818898 272:0.285714 273:0.0931174 274:0.866142 275:0.330709 276:0.166667 277:0.890196 278:0.419608 279:0.267717 280:0.890196 281:0.502008 282:0.325397 283:0.833992 284:0.410359 285:0.249012 286:0.686275 287:0.24 288:0.0887097 289:0.507937 290:0.0513834 291:-0.0901961 292:0.39749 293:-0.0327869 294:-0.157895 295:0.416309 296:0.0169492 297:-0.0833333 298:0.430962 299:0.077551 300:-0.0162602 301:0.631373 302:0.285714 303:0.232653 304:0.644269 305:0.317269 306:0.227092 307:0.709804 308:0.396825 309:0.309804 310:0.866142 311:0.654008 312:0.598291 313:0.787402 314:0.506173 315:0.465021 316:0.84127 317:0.742222 318:0.576763 319:0.8159 320:0.735849 321:0.577586 322:0.585903 323:0.36036 324:0.245902 325:0.456693 326:0.187773 327:0.111111 328:0.566929 329:0.198347 330:0.126638 331:0.694118 332:0.266932 333:0.203463 334:0.866667 335:0.462451 336:0.380753 337:0.913725 338:0.557312 339:0.451613 340:0.945098 341:0.628458 342:0.526104 343:0.952941 344:0.647059 345:0.552941 346:0.937255 347:0.631373 348:0.498039 349:0.944664 350:0.547619 351:0.435685 352:0.882353 353:0.43083 354:0.286307 355:0.811024 356:0.285714 357:0.145228 358:0.694118 359:0.163347 360:-0.0245902 361:0.786561 362:0.246032 363:0.0162602 364:0.826772 365:0.312253 366:0.104839 367:0.835294 368:0.372549 369:0.198413 370:0.803922 371:0.435484 372:0.262745 373:0.543307 374:0.173228 375:0.0787402 376:0.343874 377:-0.023622 378:-0.102362 379:0.231373 380:-0.15415 381:-0.222672 382:0.183333 383:-0.130081 384:-0.217742 385:0.453782 386:0.153226 387:0.0483871 388:0.513725 389:0.178862 390:0.0967742 391:0.535433 392:0.176 393:0.133333 394:0.612648 395:0.27572 396:0.218487 397:0.584314 398:0.24 399:0.168627 400:0.527559 401:0.243697 402:0.232759 403:0.593496 404:0.25 405:0.264957 406:0.589958 407:0.452915 408:0.350649 409:0.594714 410:0.356522 411:0.217742 412:0.530435 413:0.278049 414:0.170507 415:0.394958 416:0.0319635 417:-0.0446429 418:0.330709 419:-0.0162602 420:-0.0901639 421:0.362205 422:0.0327869 423:-0.0254237 424:0.584314 425:0.215686 426:0.146341 427:0.780392 428:0.428571 429:0.355102 430:0.952941 431:0.61753 432:0.532787 433:0.913725 434:0.574803 435:0.491935 436:0.890196 437:0.537255 438:0.408 439:0.913386 440:0.478261 441:0.293651 442:0.858824 443:0.356863 444:0.152941 445:0.858268 446:0.322709 447:0.144033 448:0.675889 449:0.172691 450:-0.0254237 451:0.76378 452:0.253968 453:0.0406504 454:0.779528 455:0.31746 456:0.125506 457:0.733333 458:0.32549 459:0.195219 460:0.505882 461:0.179283 462:0.123506 463:0.0988142 464:-0.185771 465:-0.181102 466:0.0629921 467:-0.217391 468:-0.233202 469:0.211155 470:-0.124498 471:-0.209677 472:0.356863 473:-0.0431373 474:-0.190476 475:0.496 476:0.0931174 477:-0.0483871 478:0.595238 479:0.157895 480:0.044898 481:0.652174 482:0.208 483:0.155738 484:0.787402 485:0.328063 486:0.276423 487:0.805668 488:0.387097 489:0.312 490:0.721311 491:0.304 492:0.238095 493:0.784232 494:0.341463 495:0.279352 496:0.778689 497:0.333333 498:0.322176 499:0.654321 500:0.214286 501:0.150794 502:0.584746 503:0.162602 504:0.044898 505:0.53913 506:0.123404 507:0.0705394 508:0.403922 509:0.032 510:0.0123457 511:0.291339 512:-0.0245902 513:-0.0801688 514:0.309524 515:0.00404858 516:-0.0666667 517:0.419608 518:0.133603 519:0.1 520:0.700787 521:0.435685 522:0.376068 523:0.928571 524:0.636364 525:0.539749 526:0.866667 527:0.526104 528:0.349398 529:0.882353 530:0.448 531:0.24 532:0.913725 533:0.391304 534:0.216327 535:0.843137 536:0.309524 537:0.113821 538:0.678431 539:0.18254 540:0.0614035 541:0.716535 542:0.249012 543:0.0445344 544:0.756863 545:0.322835 546:0.145161 547:0.717647 548:0.354331 549:0.220472 550:0.343874 551:0.0197628 552:-0.027668 553:0.15748 554:-0.0952381 555:-0.126984 556:0.238095 557:-0.0634921 558:-0.103175 559:0.377953 560:-0.0119522 561:-0.144 562:0.541502 563:0.0714286 564:-0.08 565:0.639216 566:0.184 567:0.0677291 568:0.725806 569:0.292181 570:0.213115 571:0.781377 572:0.314286 573:0.297071 574:0.842975 575:0.420168 576:0.403361 577:0.867769 578:0.434426 579:0.470085 580:0.94332 581:0.517787 582:0.578512 583:0.900826 584:0.6 585:0.656652 586:0.926829 587:0.581967 588:0.649573 589:0.927126 590:0.506073 591:0.563025 592:0.861789 593:0.453061 594:0.433476 595:0.774059 596:0.325397 597:0.237288 598:0.637795 599:0.16996 600:0.0894309 601:0.552941 602:0.100402 603:0.00414938 604:0.470356 605:0.113821 606:0.0423729 607:0.352 608:0.0781893 609:0.0638298 610:0.422925 611:0.213675 612:0.192982 613:0.780392 614:0.608696 615:0.515419 616:0.819608 617:0.581197 618:0.355372 619:0.849802 620:0.483051 621:0.271186 622:0.890196 623:0.413655 624:0.240506 625:0.850394 626:0.314741 627:0.172996 628:0.678431 629:0.174603 630:0.0822511 631:0.666667 632:0.230159 633:0.0283401 634:0.733333 635:0.314961 636:0.137097 637:0.74902 638:0.380392 639:0.207843 640:0.568627 641:0.223529 642:0.14741 643:0.419608 644:0.133858 645:0.00787402 646:0.256917 647:-0.106719 648:-0.16996 649:0.354331 650:-0.114625 651:-0.198413 652:0.577689 653:0.0866142 654:0.00395257 655:0.683794 656:0.232653 657:0.195021 658:0.739837 659:0.227642 660:0.229508 661:0.841004 662:0.305785 663:0.355649 664:0.836735 665:0.414226 666:0.524664 667:0.72 668:0.271255 669:0.415254 670:0.81746 671:0.333333 672:0.508333 673:0.770492 674:0.309237 675:0.427419 676:0.753968 677:0.309524 678:0.373984 679:0.746032 680:0.285714 681:0.330612 682:0.696 683:0.270588 684:0.299213 685:0.669421 686:0.247934 687:0.261803 688:0.644269 689:0.172131 690:0.164557 691:0.608 692:0.124464 693:0.107143 694:0.490196 695:0.0878661 696:0.0567686 697:0.498039 698:0.251064 699:0.20354 700:0.452381 701:0.134921 702:0.114754 703:0.661417 704:0.5 705:0.386667 706:0.818898 707:0.684685 708:0.486486 709:0.818182 710:0.502183 711:0.286957 712:0.835294 713:0.436975 714:0.247788 715:0.779528 716:0.272 717:0.169643 718:0.6 719:0.115538 720:0.0176991 721:0.565217 722:0.16996 723:-0.0283401 724:0.701961 725:0.275591 726:0.101215 727:0.772549 728:0.396078 729:0.215686 730:0.741176 731:0.372549 732:0.272 733:0.660079 734:0.277778 735:0.18254 736:0.388235 737:-0.023622 738:-0.0551181 739:0.262745 740:-0.244094 741:-0.251969 742:0.552941 743:0.060241 744:0.0682731 745:0.68254 746:0.264463 747:0.324786 748:0.592157 749:0.162602 750:0.25523 751:0.693548 752:0.263598 753:0.367965 754:0.709677 755:0.217742 756:0.304 757:0.699187 758:0.262295 759:0.385892 760:0.698745 761:0.321739 762:0.484979 763:0.696203 764:0.327869 765:0.447154 766:0.6917 767:0.435685 768:0.551867 769:0.7751 770:0.52459 771:0.565574 772:0.811475 773:0.567347 774:0.583673 775:0.601594 776:0.371429 777:0.42623 778:0.513725 779:0.116466 780:0.193548 781:0.411765 782:-0.110236 783:-0.00401606 784:0.231373 785:-0.183333 786:-0.177966 787:0.388235 788:0.0441767 789:-0.0526316 790:0.576471 791:0.313808 792:0.232068 793:0.662745 794:0.482759 795:0.356522 796:0.818898 797:0.572016 798:0.404959 799:0.803922 800:0.594595 801:0.372197 802:0.826087 803:0.564815 804:0.278539 805:0.72549 806:0.23506 807:0.133929 808:0.568627 809:0.0901961 810:-0.0344828 811:0.490196 812:0.0901961 813:-0.0887097 814:0.683794 815:0.253968 816:0.0850202 817:0.755906 818:0.413655 819:0.24498 820:0.724409 821:0.391304 822:0.264822 823:0.709804 824:0.312253 825:0.233202 826:0.678431 827:0.264822 828:0.217391 829:0.407115 830:-0.104839 831:-0.0788382 832:0.388235 833:-0.157895 834:-0.0666667 835:0.456693 836:-0.047619 837:0.0441767 838:0.612648 839:0.310345 840:0.444934 841:0.724409 842:0.40239 843:0.478261 844:0.811765 845:0.641434 846:0.647059 847:0.968254 848:0.913725 849:0.937255 850:0.950207 851:0.94332 852:0.913725 853:0.991903 854:0.976096 855:0.952569 856:1 857:1 858:1 859:1 860:1 861:1 862:0.862903 863:0.811765 864:0.832669 865:0.952191 866:0.803922 867:0.911647 868:0.568627 869:0.239216 870:0.32549 871:0.253968 872:-0.224 873:-0.142857 874:0.403922 875:-0.0245902 876:-0.0124481 877:0.568627 878:0.206478 879:0.147541 880:0.577689 881:0.259259 882:0.176955 883:0.672 884:0.517544 885:0.440367 886:0.835294 887:0.758929 888:0.598214 889:0.794466 890:0.640553 891:0.464789 892:0.756863 893:0.413793 894:0.201754 895:0.637795 896:0.272727 897:0.0530973 898:0.537255 899:0.0823529 900:-0.026087 901:0.427451 902:0.0836653 903:-0.117409 904:0.645669 905:0.277108 906:0.0813008 907:0.74502 908:0.425101 909:0.281633 910:0.744 911:0.396078 912:0.275591 913:0.670588 914:0.301961 915:0.211155 916:0.568627 917:0.177866 918:0.0988142 919:0.480315 920:-0.00398406 921:-0.0162602 922:0.513725 923:-0.0840336 925:0.607843 926:-0.117409 927:0.025 928:0.685039 929:0.0877193 930:0.257919 931:0.780392 932:0.221757 933:0.364017 934:0.88189 935:0.613445 936:0.720339 937:0.921569 938:0.776 939:0.883817 940:0.878543 941:0.62249 942:0.73494 943:0.899582 944:0.716599 945:0.747036 946:0.93361 947:0.818898 948:0.934959 949:0.884298 950:0.73913 951:0.827451 952:0.682927 953:0.328063 954:0.466667 955:0.660079 956:0.176471 957:0.356863 958:0.537255 959:-0.0117647 960:0.0901961 961:0.568627 962:0.0241935 963:0.0819672 964:0.660079 965:0.14741 966:0.105882 967:0.706349 968:0.262745 969:0.160784 970:0.704 971:0.459227 972:0.347826 973:0.741935 974:0.59292 975:0.436123 976:0.857708 977:0.640167 978:0.523404 979:0.80315 980:0.642202 981:0.449541 982:0.733333 983:0.35865 984:0.147679 985:0.568627 986:0.170124 987:-0.0464135 988:0.488189 989:0.0431373 990:-0.0517241 991:0.314961 992:0.016 993:-0.206478 994:0.576471 995:0.223529 997:0.686275 998:0.36255 999:0.219512 1000:0.73913 1001:0.413655 1002:0.303279 1003:0.70751 1004:0.346457 1005:0.220472 1006:0.568627 1007:0.192157 1008:0.0823529 1009:0.45098 1010:0.008 1011:-0.0441767 1012:0.458824 1013:-0.106557 1014:-0.0588235 1015:0.678715 1016:-0.0617284 1017:0.0468085 1018:0.84252 1019:0.166667 1020:0.290043 1021:0.898039 1022:0.286885 1023:0.380753 1024:0.865613 1025:0.260163 1026:0.377049 1027:0.84127 1028:0.302905 1029:0.429787 1030:0.827451 1031:0.324561 1032:0.400844 1033:0.780392 1034:0.372197 1035:0.5 1036:0.760956 1037:0.415929 1038:0.580357 1039:0.759036 1040:0.330472 1041:0.52381 1042:0.727273 1043:0.226891 1044:0.373391 1045:0.708333 1046:0.103734 1047:0.178862 1048:0.607843 1049:-0.00404858 1050:0.056 1051:0.537255 1052:0.0627615 1053:0.0327869 1054:0.576471 1055:0.137255 1056:0.0352941 1057:0.72549 1058:0.408333 1059:0.242798 1060:0.756863 1061:0.504202 1062:0.358333 1063:0.709804 1064:0.489712 1065:0.426087 1066:0.80315 1067:0.575 1068:0.466102 1069:0.771654 1070:0.580357 1071:0.402715 1072:0.631373 1073:0.351351 1074:0.130045 1075:0.527559 1076:0.122951 1077:-0.0737705 1078:0.443137 1079:0.027668 1080:-0.146245 1081:0.322835 1082:-0.0118577 1083:-0.18254 1084:0.531746 1085:0.174603 1086:-0.0162602 1087:0.629921 1088:0.304 1089:0.142857 1090:0.647059 1091:0.341463 1092:0.243902 1093:0.694118 1094:0.333333 1095:0.223529 1096:0.678431 1097:0.320158 1098:0.185771 1099:0.466667 1100:0.08 1101:-0.0355731 1102:0.403922 1103:-0.0787402 1104:-0.0873016 1105:0.537255 1106:-0.0688259 1107:0.00833333 1108:0.771654 1109:0.213115 1110:0.302128 1111:0.91129 1112:0.365854 1113:0.459916 1114:0.928854 1115:0.544643 1116:0.529915 1117:0.913725 1118:0.489712 1119:0.510204 1120:0.929412 1121:0.47451 1122:0.545817 1123:0.944882 1124:0.548117 1125:0.615063 1126:0.905512 1127:0.521912 1128:0.571429 1129:0.898039 1130:0.448 1131:0.539683 1132:0.872 1133:0.325301 1134:0.387097 1135:0.648536 1136:0.104 1137:0.113821 1138:0.529412 1139:-0.00392157 1140:-0.0117647 1141:0.568627 1142:0.0866142 1143:0.015748 1144:0.64 1145:0.24 1146:0.08 1147:0.756863 1148:0.424 1149:0.232 1150:0.764706 1151:0.396078 1152:0.278431 1153:0.716535 1154:0.46888 1155:0.352697 1156:0.764706 1157:0.520661 1158:0.420168 1159:0.690476 1160:0.539171 1161:0.315315 1162:0.549407 1163:0.218884 1164:0.0472103 1165:0.478261 1166:0.0731707 1167:-0.0894309 1168:0.411765 1169:0.0117647 1170:-0.149606 1171:0.254902 1172:-0.0823529 1173:-0.220472 1174:0.433071 1175:0.072 1176:-0.097561 1177:0.566929 1178:0.23506 1179:0.0731707 1180:0.607843 1181:0.298387 1182:0.195122 1183:0.670588 1184:0.330677 1185:0.235772 1186:0.73913 1187:0.364706 1188:0.212598 1189:0.581028 1190:0.258333 1191:0.0671937 1192:0.458824 1193:0.0909091 1194:-0.0472441 1195:0.615686 1196:0.130081 1197:0.0836653 1198:0.733333 1199:0.168 1200:0.184 1201:0.826772 1202:0.306122 1203:0.301587 1204:0.890196 1205:0.356863 1206:0.422925 1207:0.913725 1208:0.440945 1209:0.503937 1210:0.945098 1211:0.505882 1212:0.584314 1213:0.945098 1214:0.568627 1215:0.639216 1216:0.952941 1217:0.606299 1218:0.661417 1219:0.905882 1220:0.46988 1221:0.539683 1222:0.768924 1223:0.292683 1224:0.325301 1225:0.638655 1226:0.136929 1227:0.112033 1228:0.584314 1229:0.105882 1230:0.0431373 1231:0.636364 1232:0.265823 1233:0.138075 1234:0.741176 1235:0.365462 1236:0.206478 1237:0.740157 1238:0.457627 1239:0.2827 1240:0.724409 1241:0.436975 1242:0.322034 1243:0.731225 1244:0.396825 1245:0.296443 1246:0.709804 1247:0.45749 1248:0.347107 1249:0.667984 1250:0.453744 1251:0.295154 1252:0.553785 1253:0.168724 1254:0.037037 1255:0.435294 1256:0.0607287 1257:-0.0931174 1258:0.365079 1259:-0.008 1260:-0.164659 1261:0.129412 1262:-0.185771 1263:-0.301587 1264:0.380952 1265:0.00398406 1266:-0.164659 1267:0.539683 1268:0.185771 1269:0.0285714 1270:0.525692 1271:0.18254 1272:0.0819672 1273:0.592157 1274:0.261905 1275:0.147541 1276:0.678431 1277:0.330677 1278:0.180328 1279:0.661417 1280:0.325203 1281:0.16129 1282:0.574803 1283:0.253112 1284:0.0592885 1285:0.568627 1286:0.2 1287:0.059761 1288:0.628458 1289:0.185771 1290:0.104 1291:0.678431 1292:0.223529 1293:0.160784 1294:0.756863 1295:0.283465 1296:0.283465 1297:0.803922 1298:0.317647 1299:0.333333 1300:0.786561 1301:0.365854 1302:0.357143 1303:0.770751 1304:0.343874 1305:0.359684 1306:0.748031 1307:0.299213 1308:0.322835 1309:0.700787 1310:0.228346 1311:0.259843 1312:0.629921 1313:0.181102 1314:0.165354 1315:0.641667 1316:0.357798 1317:0.242553 1318:0.709804 1319:0.405858 1320:0.245902 1321:0.754941 1322:0.422594 1323:0.226337 1324:0.772549 1325:0.460581 1326:0.289256 1327:0.755906 1328:0.474576 1329:0.347458 1330:0.73913 1331:0.408907 1332:0.266129 1333:0.686275 1334:0.354331 1335:0.258964 1336:0.6917 1337:0.495726 1338:0.359307 1339:0.709677 1340:0.383333 1341:0.233333 1342:0.505882 1343:0.142857 1344:0.0204082 1345:0.356863 1346:0.00408163 1347:-0.142857 1348:0.314961 1349:-0.0551181 1350:-0.19685 
0.03125 1:0.380392 2:-0.173228 3:-0.0750988 4:0.433071 5:-0.0731707 6:-0.0434783 7:0.513725 8:-0.00401606 9:0.0564516 10:0.598425 11:0.133858 12:0.225296 13:0.607843 14:0.228346 15:0.322835 16:0.576763 17:0.165992 18:0.241935 19:0.483051 20:0.0288066 21:0.1 22:0.2 23:-0.277311 24:-0.210084 25:-0.00429185 26:-0.343874 27:-0.298387 28:0.0134529 29:-0.269076 30:-0.220472 31:-0.0220264 32:-0.427273 33:-0.321586 34:-0.0413223 35:-0.355372 36:-0.302905 37:0.176471 38:-0.272 39:-0.256 40:0.318777 41:-0.144033 42:-0.115702 43:0.396396 44:-0.0452675 45:-0.0166667 46:0.439655 47:0.0588235 48:0.0534979 49:0.375 50:-0.0118577 51:0.0403226 52:0.20354 53:-0.0988142 54:-0.00392157 55:0.176991 56:-0.0763052 57:0.0207469 58:0.388235 59:0.0196078 60:0.157447 61:0.403922 62:0.0361446 63:0.147679 64:0.262745 65:-0.105691 66:-0.0583333 67:0.333333 68:-0.110236 69:-0.0456432 70:0.45098 71:-0.0634921 72:-0.016 73:0.521569 74:0.027668 75:0.0873016 76:0.647059 77:0.173228 78:0.259843 79:0.654902 80:0.225806 81:0.346774 82:0.678431 83:0.253968 84:0.417004 85:0.654902 86:0.219124 87:0.410359 88:0.582677 89:0.0472441 90:0.23622 91:0.351779 92:-0.290837 93:-0.164659 94:0.425197 95:-0.195219 96:-0.114625 97:0.47451 98:-0.100402 99:-0.032 100:0.543307 101:0.023622 102:0.088 103:0.533597 104:0.0634921 105:0.146245 106:0.487805 107:0.0278884 108:0.0714286 109:0.347639 110:-0.128631 111:-0.139241 112:0.175 113:-0.292181 114:-0.214286 115:-0.0173913 116:-0.432203 117:-0.344262 118:-0.139013 119:-0.451477 120:-0.384615 121:-0.259912 122:-0.570248 123:-0.534694 124:-0.142857 125:-0.55102 126:-0.485714 127:0.00787402 128:-0.362903 129:-0.285141 130:0.157895 131:-0.177866 132:-0.133858 133:0.194805 134:-0.124498 135:-0.08 136:0.25523 137:-0.0464135 138:-0.0163934 139:0.282051 140:-0.0168067 141:0.075 142:-0.0723404 143:-0.316017 144:-0.219298 145:-0.293103 146:-0.560784 147:-0.521569 148:0.027451 149:-0.32549 150:-0.301961 151:0.212598 152:-0.112069 153:-0.0643777 154:0.34902 155:-0.0247934 156:0.0166667 157:0.403922 159:0.0199203 160:0.333333 161:-0.10757 162:-0.102041 163:0.403922 164:-0.0909091 165:-0.056 166:0.529412 167:0.0238095 168:0.108434 169:0.582677 170:0.120968 171:0.216327 172:0.645669 173:0.208 174:0.311741 175:0.678431 176:0.261905 177:0.395161 178:0.574803 179:0.0836653 180:0.302905 181:0.338645 182:-0.322709 183:-0.211155 184:0.396078 185:-0.262745 186:-0.13834 187:0.443137 188:-0.152941 189:-0.0517928 190:0.478261 191:-0.0555556 192:-0.016 193:0.47619 194:-0.060241 195:0.016 196:0.435294 197:-0.0634921 198:-0.0278884 199:0.258621 200:-0.206751 201:-0.191837 202:0.219917 203:-0.230126 204:-0.227642 205:0.128205 206:-0.31405 207:-0.212598 208:-0.0172414 209:-0.368 210:-0.300813 211:-0.124464 212:-0.497942 213:-0.459677 214:-0.0901961 215:-0.519685 216:-0.466667 217:-0.110236 218:-0.465587 219:-0.384615 220:-0.015748 221:-0.327935 222:-0.252033 223:0.0202429 224:-0.253012 225:-0.220472 226:0.0843373 227:-0.126531 228:-0.126531 229:0.12253 230:-0.0420168 231:-0.025641 232:0.149606 233:-0.104348 234:-0.0132159 235:0.2 236:-0.0847458 237:0.00429185 238:0.137255 239:-0.11588 240:-0.0173913 241:0.307087 242:-0.021645 243:0.0742358 244:0.427451 245:0.024 246:0.146444 247:0.466667 248:0.0787402 249:0.140562 250:0.370079 251:-0.0438247 252:-0.0441767 253:0.364706 254:-0.145098 255:-0.129412 256:0.496063 257:-0.0396825 258:0.0781893 259:0.498039 261:0.159664 262:0.566929 263:0.096 264:0.214575 265:0.623529 266:0.166667 267:0.295547 268:0.551181 269:0.0434783 270:0.257384 271:0.283465 272:-0.373016 273:-0.222672 274:0.338583 275:-0.322835 276:-0.174603 277:0.403922 278:-0.192157 279:-0.0708661 280:0.443137 281:-0.0763052 282:-0.0396825 283:0.462451 284:-0.0836653 285:-0.0355731 286:0.372549 287:-0.064 288:-0.0564516 289:0.301587 290:-0.106719 291:-0.105882 292:0.305439 293:-0.139344 294:-0.117409 295:0.218884 296:-0.279661 297:-0.2 298:0.188285 299:-0.338776 300:-0.243902 301:0.152941 302:-0.31746 303:-0.257143 304:-0.00395257 305:-0.381526 306:-0.40239 307:-0.0196078 308:-0.388889 309:-0.388235 310:0.0314961 311:-0.2827 312:-0.230769 314:-0.259259 315:-0.251029 316:0.015873 317:-0.12 318:-0.186722 319:0.0460251 320:-0.0566038 321:-0.103448 322:0.145374 323:-0.0720721 324:-0.0409836 325:0.19685 326:-0.0655022 327:0.0311111 328:0.330709 329:-0.0165289 330:0.117904 331:0.45098 332:0.0517928 333:0.212121 334:0.458824 335:0.0750988 336:0.188285 337:0.498039 338:0.15415 339:0.225806 340:0.435294 341:0.0750988 342:0.0843373 343:0.341176 344:-0.105882 345:-0.129412 346:0.45098 347:-0.0823529 348:-0.0509804 349:0.470356 350:-0.0634921 351:0.0539419 352:0.529412 353:0.027668 354:0.161826 355:0.582677 356:0.0634921 357:0.219917 358:0.529412 359:0.0278884 360:0.155738 361:0.272727 362:-0.309524 363:-0.195122 364:0.338583 365:-0.272727 366:-0.153226 367:0.380392 368:-0.192157 369:-0.111111 370:0.388235 371:-0.0806452 372:-0.0823529 373:0.393701 374:-0.0708661 375:-0.0472441 376:0.320158 377:-0.0944882 378:-0.0708661 379:0.301961 380:-0.0750988 381:-0.0526316 382:0.316667 383:-0.0813008 384:-0.0322581 385:0.252101 386:-0.153226 387:-0.0887097 388:0.262745 389:-0.195122 390:-0.120968 391:0.188976 392:-0.24 393:-0.158333 394:0.0671937 395:-0.251029 396:-0.277311 397:0.121569 398:-0.208 399:-0.270588 400:0.204724 401:-0.0252101 403:0.186992 404:-0.025 405:-0.017094 406:0.121339 407:0.0134529 408:-0.047619 409:0.162996 410:0.00869565 411:-0.0645161 412:0.191304 413:-0.00487805 414:-0.0230415 415:0.235294 416:-0.0776256 417:-0.0625 418:0.417323 419:0.0813008 420:0.122951 421:0.472441 422:0.122951 423:0.20339 424:0.498039 425:0.0980392 426:0.211382 427:0.513725 428:0.15873 429:0.265306 430:0.490196 431:0.171315 432:0.229508 433:0.403922 434:0.0314961 435:0.0725806 436:0.34902 437:-0.105882 438:-0.08 439:0.440945 440:-0.0434783 441:0.00793651 442:0.466667 443:-0.027451 444:0.0745098 445:0.503937 446:0.0119522 447:0.152263 448:0.501976 449:0.0120482 450:0.152542 451:0.188976 452:-0.309524 453:-0.186992 454:0.299213 455:-0.230159 456:-0.109312 457:0.372549 458:-0.137255 459:-0.0836653 460:0.380392 461:-0.0438247 462:-0.0438247 463:0.320158 464:-0.0434783 465:-0.0472441 466:0.283465 467:-0.0750988 468:-0.0671937 469:0.298805 470:-0.060241 471:-0.0322581 472:0.223529 473:-0.137255 474:-0.134921 475:0.216 476:-0.133603 477:-0.137097 478:0.166667 479:-0.182186 480:-0.17551 481:0.114625 482:-0.168 483:-0.114754 484:0.133858 485:-0.15415 486:-0.154472 487:0.206478 488:-0.0806452 489:-0.104 490:0.237705 491:0.064 492:0.0793651 493:0.26971 494:0.0731707 495:0.0769231 496:0.254098 497:-0.0200803 498:0.0209205 499:0.300412 500:0.0714286 501:0.0714286 502:0.271186 503:0.0813008 504:0.0938776 505:0.278261 506:0.0382979 507:0.120332 508:0.380392 509:0.12 510:0.193416 511:0.385827 512:0.106557 513:0.198312 514:0.444444 515:0.109312 516:0.216667 517:0.498039 518:0.157895 519:0.258333 520:0.464567 521:0.178423 522:0.290598 523:0.452381 524:0.157025 525:0.263598 526:0.301961 527:-0.0441767 528:-0.0441767 529:0.32549 530:-0.072 531:-0.072 532:0.458824 533:-0.027668 534:0.0857143 535:0.47451 536:0.015873 537:0.130081 538:0.490196 539:0.015873 540:0.184211 541:0.181102 542:-0.249012 543:-0.190283 544:0.294118 545:-0.173228 546:-0.104839 547:0.341176 548:-0.0787402 549:-0.0708661 550:0.375494 551:-0.0197628 552:-0.027668 553:0.322835 554:-0.031746 555:-0.0396825 556:0.238095 557:-0.0555556 558:-0.0793651 559:0.181102 560:-0.0836653 561:-0.04 562:0.106719 563:-0.142857 564:-0.128 565:0.0980392 566:-0.144 567:-0.131474 568:0.0725806 569:-0.152263 570:-0.131148 571:0.101215 572:-0.0857143 573:-0.0292887 574:0.115702 576:0.0336134 577:0.173554 578:0.0163934 579:0.0854701 580:0.133603 581:0.0118577 582:0.0991736 583:0.239669 584:0.17551 585:0.261803 586:0.138211 587:0.0245902 588:0.0940171 589:0.190283 590:0.0526316 591:0.117647 592:0.235772 593:0.0693878 594:0.124464 595:0.25523 596:0.0793651 597:0.110169 598:0.283465 599:0.0671937 600:0.154472 601:0.231373 602:0.0281124 603:0.120332 604:0.280632 605:0.0406504 606:0.127119 607:0.416 608:0.0946502 609:0.157447 610:0.43083 611:0.188034 612:0.263158 613:0.396078 614:0.234783 615:0.277533 616:0.341176 617:0.136752 618:0.0826446 619:0.256917 620:-0.0169492 621:-0.0338983 622:0.388235 623:-0.0522088 624:0.0126582 625:0.472441 626:0.00398406 627:0.147679 628:0.47451 629:-0.015873 630:0.160173 631:0.222222 632:-0.222222 633:-0.165992 634:0.34902 635:-0.125984 636:-0.0887097 637:0.396078 638:-0.0431373 639:-0.027451 640:0.364706 641:-0.00392157 642:0.00398406 643:0.301961 644:-0.00787402 645:-0.023622 646:0.114625 647:-0.130435 648:-0.13834 649:0.0472441 650:-0.114625 651:-0.126984 652:0.14741 653:0.023622 654:0.00395257 655:0.12253 656:0.00408163 657:0.0373444 658:0.0813008 659:-0.0731707 660:-0.0737705 661:0.121339 662:0.0247934 663:0.0878661 664:0.110204 665:0.104603 666:0.192825 667:0.048 668:-0.0202429 669:0.0677966 670:0.150794 671:0.100402 672:0.2 673:0.0819672 674:-0.00401606 675:0.104839 676:-0.0396825 677:-0.111111 678:-0.0569106 679:0.0952381 680:0.015873 681:0.0367347 682:0.272 683:0.113725 684:0.102362 685:0.198347 686:0.0661157 687:0.0729614 688:0.12253 690:0.0970464 691:0.176 692:0.0901288 693:0.160714 694:0.215686 695:0.112971 696:0.231441 697:0.176471 698:0.0723404 699:0.132743 700:0.333333 701:0.142857 702:0.147541 703:0.346457 704:0.245614 705:0.28 706:0.354331 707:0.207207 708:0.261261 709:0.328063 710:0.126638 711:0.147826 712:0.270588 713:-0.0756303 714:-0.00884956 715:0.425197 716:0.016 717:0.160714 718:0.466667 719:0.0438247 720:0.20354 721:0.249012 722:-0.241107 723:-0.190283 724:0.364706 725:-0.125984 726:-0.109312 727:0.396078 728:-0.00392157 729:-0.0117647 730:0.396078 731:0.0588235 732:0.024 733:0.241107 734:-0.015873 735:-0.0714286 736:0.00392157 737:-0.165354 738:-0.15748 739:0.00392157 740:-0.110236 741:-0.102362 742:-0.0196078 743:-0.100402 744:-0.0843373 745:0.015873 746:-0.0826446 747:-0.0683761 748:-0.105882 749:-0.211382 750:-0.322176 751:-0.0887097 752:-0.138075 753:-0.168831 754:-0.0564516 755:-0.129032 756:-0.112 757:-0.0487805 758:-0.114754 759:-0.120332 760:0.0041841 762:-0.0214592 763:0.00421941 764:-0.139344 765:-0.097561 766:0.0118577 767:-0.0954357 768:-0.0622407 769:0.124498 770:-0.00819672 771:-0.0163934 772:0.188525 773:-0.0530612 774:-0.0530612 775:0.123506 776:-0.0612245 777:-0.0491803 778:-0.0117647 779:-0.172691 780:-0.145161 781:-0.027451 782:-0.19685 783:-0.172691 784:0.168627 785:0.0916667 786:0.135593 787:-0.0196078 788:-0.0843373 789:-0.117409 790:0.00392157 791:-0.0627615 792:-0.122363 793:0.231373 794:0.198276 795:0.226087 796:0.228346 797:0.0946502 798:0.132231 799:0.286275 800:0.189189 801:0.156951 802:0.328063 803:0.148148 804:0.0776256 805:0.396078 806:0.0438247 807:0.160714 808:0.482353 809:0.0980392 810:0.206897 811:0.231373 812:-0.231373 813:-0.193548 814:0.343874 815:-0.111111 816:-0.0769231 817:0.440945 818:0.0763052 819:0.0120482 820:0.401575 821:0.0909091 822:0.0197628 823:0.207843 824:-0.0118577 825:-0.0355731 826:-0.027451 827:-0.162055 828:-0.15415 829:-0.241107 830:-0.314516 831:-0.294606 832:-0.333333 833:-0.441296 834:-0.441667 835:-0.23622 836:-0.404762 837:-0.405622 838:-0.217391 839:-0.37069 840:-0.38326 841:-0.338583 842:-0.482072 843:-0.494071 844:-0.286275 845:-0.314741 846:-0.364706 847:-0.198413 848:-0.317647 849:-0.333333 850:-0.20332 851:-0.327935 852:-0.32549 853:0.0283401 854:-0.2749 855:-0.249012 856:0.0788382 857:-0.231373 858:-0.176471 859:-0.0781893 860:-0.32 861:-0.304 862:-0.0725806 863:-0.309804 864:-0.330677 865:-0.131474 866:-0.403922 867:-0.381526 868:-0.152941 869:-0.419608 870:-0.427451 871:-0.0238095 872:-0.288 873:-0.281633 874:-0.0196078 875:-0.221311 876:-0.20332 877:-0.137255 878:-0.263158 879:-0.295082 880:-0.282869 881:-0.440329 882:-0.473251 883:-0.112 884:-0.175439 885:-0.146789 886:-0.0196078 887:-0.0267857 888:-0.0267857 889:0.225296 890:0.18894 891:0.192488 892:0.34902 893:0.155172 894:0.131579 895:0.433071 896:0.160173 897:0.212389 898:0.482353 899:0.0745098 900:0.234783 901:0.231373 902:-0.171315 903:-0.182186 904:0.330709 905:-0.108434 906:-0.0731707 907:0.410359 908:0.0283401 909:0.00408163 910:0.432 911:0.129412 912:0.0472441 913:0.247059 914:0.0196078 915:0.0358566 916:-0.0509804 917:-0.209486 918:-0.185771 919:-0.244094 920:-0.410359 921:-0.422764 922:-0.223529 923:-0.436975 924:-0.517241 925:-0.34902 926:-0.643725 927:-0.6 928:-0.362205 929:-0.719298 930:-0.556561 931:-0.294118 932:-0.690377 933:-0.548117 934:-0.480315 935:-0.764706 936:-0.711864 937:-0.278431 938:-0.624 939:-0.53527 940:-0.0931174 941:-0.421687 942:-0.261044 943:-0.0543933 944:-0.34413 945:-0.241107 946:-0.195021 947:-0.527559 948:-0.430894 949:-0.14876 950:-0.557312 951:-0.411765 952:-0.0162602 953:-0.486166 954:-0.396078 955:-0.0671937 956:-0.505882 957:-0.435294 958:-0.0117647 959:-0.364706 960:-0.309804 961:-0.0352941 962:-0.41129 963:-0.336066 964:-0.12253 965:-0.52988 966:-0.435294 967:-0.0952381 968:-0.403922 969:-0.32549 970:-0.072 971:-0.261803 972:-0.234783 973:-0.145161 974:-0.283186 975:-0.374449 976:-0.312253 977:-0.447699 978:-0.46383 979:0.0708661 980:0.0366972 981:0.0917431 982:0.309804 983:0.139241 984:0.156118 985:0.466667 986:0.186722 987:0.206751 988:0.488189 989:0.0901961 990:0.215517 991:0.165354 992:-0.224 993:-0.190283 994:0.317647 995:-0.113725 996:-0.125984 997:0.443137 998:0.00398406 999:0.0243902 1000:0.486166 1001:0.148594 1002:0.131148 1003:0.407115 1004:0.165354 1005:0.165354 1006:-0.0352941 1007:-0.247059 1008:-0.223529 1009:-0.0588235 1010:-0.296 1011:-0.349398 1012:0.176471 1013:-0.0901639 1014:-0.142857 1015:0.060241 1016:-0.26749 1017:-0.217021 1018:-0.102362 1019:-0.483333 1020:-0.376623 1021:-0.027451 1022:-0.57377 1023:-0.380753 1024:0.0197628 1025:-0.495935 1026:-0.319672 1027:0.0873016 1028:-0.410788 1029:-0.234043 1030:0.215686 1031:-0.210526 1032:-0.0632911 1033:0.207843 1034:-0.165919 1036:0.155378 1037:-0.265487 1038:-0.0982143 1039:0.204819 1040:-0.253219 1041:-0.021645 1042:0.280992 1043:-0.184874 1044:0.0128755 1045:0.3 1046:-0.178423 1047:-0.0650407 1048:0.254902 1049:-0.174089 1050:-0.088 1051:0.254902 1052:-0.0878661 1053:-0.0655738 1054:0.301961 1055:-0.0823529 1056:-0.0352941 1057:0.372549 1058:0.116667 1059:0.135802 1060:0.435294 1061:0.201681 1062:0.175 1063:0.356863 1064:0.0534979 1065:0.0869565 1066:0.0629921 1067:-0.216667 1068:-0.228814 1069:0.023622 1070:-0.151786 1071:-0.131222 1072:0.309804 1073:0.18018 1074:0.183857 1075:0.496063 1076:0.188525 1077:0.188525 1078:0.482353 1079:0.0988142 1080:0.114625 1081:0.15748 1082:-0.233202 1083:-0.198413 1084:0.301587 1085:-0.126984 1086:-0.0731707 1087:0.425197 1088:-0.016 1089:0.044898 1090:0.47451 1091:0.138211 1092:0.146341 1093:0.403922 1094:0.129412 1095:0.105882 1096:0.0352941 1097:-0.185771 1098:-0.209486 1099:0.192157 1100:-0.064 1101:-0.106719 1102:0.239216 1103:-0.0629921 1104:-0.0793651 1105:0.0823529 1106:-0.190283 1107:-0.208333 1108:0.0629921 1109:-0.245902 1110:-0.242553 1111:0.201613 1112:-0.243902 1113:-0.147679 1114:0.280632 1115:-0.0982143 1116:-0.0512821 1117:0.341176 1118:-0.0946502 1119:-0.0122449 1120:0.34902 1121:-0.0745098 1122:0.00398406 1123:0.346457 1124:-0.0543933 1125:0.0125523 1126:0.370079 1127:-0.10757 1128:-0.0238095 1129:0.411765 1130:-0.024 1131:0.0634921 1132:0.424 1133:0.0200803 1134:0.0725806 1135:0.414226 1136:0.056 1137:0.0731707 1138:0.411765 1139:0.0745098 1140:0.0901961 1141:0.427451 1142:0.102362 1143:0.11811 1144:0.472 1145:0.168 1146:0.16 1147:0.443137 1148:0.144 1149:0.12 1150:0.482353 1151:0.0901961 1152:0.0901961 1153:0.511811 1154:0.161826 1155:0.195021 1156:0.380392 1157:0.0413223 1158:0.0756303 1159:0.174603 1160:-0.0230415 1161:-0.045045 1162:0.328063 1163:0.11588 1164:0.0987124 1165:0.494071 1166:0.162602 1167:0.170732 1168:0.45098 1169:0.0745098 1170:0.11811 1171:0.168627 1172:-0.231373 1173:-0.212598 1174:0.299213 1175:-0.08 1176:-0.105691 1177:0.377953 1178:-0.0199203 1179:-0.00813008 1180:0.466667 1181:0.0967742 1182:0.138211 1183:0.341176 1184:0.0358566 1185:0.0650407 1186:0.083004 1187:-0.176471 1188:-0.204724 1189:0.280632 1190:0.025 1191:-0.0355731 1192:0.231373 1193:-0.0578512 1194:-0.110236 1195:0.137255 1196:-0.162602 1197:-0.23506 1198:0.0901961 1199:-0.232 1200:-0.288 1201:0.188976 1202:-0.167347 1203:-0.174603 1204:0.254902 1205:-0.0823529 1206:-0.0909091 1207:0.294118 1208:-0.0393701 1209:-0.023622 1210:0.301961 1211:-0.0666667 1212:-0.027451 1213:0.301961 1214:-0.0509804 1215:-0.027451 1216:0.254902 1217:-0.0708661 1218:-0.0708661 1219:0.294118 1220:-0.0200803 1221:-0.031746 1222:0.36255 1223:0.0569106 1224:0.0361446 1225:0.403361 1226:0.0788382 1227:0.0705394 1228:0.380392 1229:0.0745098 1230:0.0823529 1231:0.391304 1232:0.113924 1233:0.16318 1234:0.45098 1235:0.13253 1236:0.165992 1237:0.480315 1238:0.20339 1239:0.189873 1240:0.496063 1241:0.159664 1242:0.186441 1243:0.525692 1244:0.119048 1245:0.13834 1246:0.482353 1247:0.125506 1248:0.165289 1249:0.375494 1250:0.154185 1251:0.145374 1252:0.282869 1253:0.0288066 1254:0.00411523 1255:0.427451 1256:0.117409 1257:0.101215 1258:0.468254 1259:0.112 1260:0.124498 1261:0.121569 1262:-0.288538 1263:-0.198413 1264:0.246032 1265:-0.14741 1266:-0.140562 1267:0.34127 1268:-0.0592885 1269:-0.0938776 1270:0.438735 1271:0.0555556 1272:0.0491803 1273:0.403922 1274:0.0873016 1275:0.122951 1276:0.192157 1277:-0.0756972 1278:-0.0737705 1279:0.251969 1280:-0.0569106 1281:-0.0645161 1282:0.275591 1283:-0.0539419 1284:-0.106719 1285:0.207843 1286:-0.126531 1287:-0.179283 1288:0.146245 1289:-0.233202 1290:-0.224 1291:0.129412 1292:-0.247059 1293:-0.215686 1294:0.207843 1295:-0.0944882 1296:-0.102362 1297:0.231373 1298:-0.0588235 1299:-0.0588235 1300:0.280632 1301:-0.0569106 1302:-0.047619 1303:0.304348 1304:-0.027668 1305:0.00395257 1306:0.251969 1307:-0.0629921 1308:-0.015748 1309:0.275591 1310:-0.0629921 1311:-0.00787402 1312:0.322835 1313:-0.0393701 1314:0.00787402 1315:0.333333 1316:0.0733945 1317:0.114894 1318:0.388235 1319:0.146444 1320:0.131148 1321:0.43083 1322:0.146444 1323:0.144033 1324:0.47451 1325:0.178423 1326:0.190083 1327:0.472441 1328:0.20339 1329:0.194915 1330:0.478261 1331:0.109312 1332:0.104839 1333:0.498039 1334:0.102362 1335:0.14741 1336:0.501976 1337:0.205128 1338:0.238095 1339:0.491935 1340:0.175 1341:0.166667 1342:0.34902 1343:0.077551 1344:0.0693878 1345:0.435294 1346:0.134694 1347:0.110204 1348:0.464567 1349:0.102362 1350:0.0787402 
