svm_type c_svc
kernel_type rbf
gamma 2
nr_class 4
total_sv 2523
rho 11.8105 -4.21379 22.6011 8.43543 4.20186 16.4331
label 3 2 4 1
nr_sv 984 984 423 132
SV
32768 32768 0 1:-0.572843 2:-0.675692 3:-0.914573 4:-0.513923 
32768 0 0 1:-0.518015 2:-0.614322 3:-0.893631 4:-0.456368 
32768 0 0 1:-0.525856 2:-0.633598 3:-0.897202 4:-0.463238 
32768 32768 0 1:-0.523536 2:-0.647793 3:-0.896949 4:-0.458658 
32768 32768 0 1:-0.240781 2:-0.524881 3:-0.765985 4:-0.139611 
32768 0 0 1:-0.498284 2:-0.381816 3:-0.872687 4:-0.466111 
32768 32768 0 1:-0.771474 2:-0.811125 3:-0.969397 4:-0.736574 
32768 0 0 1:-0.658066 2:-0.551076 3:-0.935297 4:-0.632342 
32768 12340.86409243142 0 1:-0.409299 2:-0.315837 3:-0.830331 4:-0.37608 
32768 0 0 1:0.0728461 2:-0.0333759 3:-0.498687 4:0.131969 
32768 0 0 1:0.308357 2:-0.135624 3:-0.325633 4:0.436668 
32768 0 0 1:-0.679039 2:-0.688278 3:-0.945683 4:-0.639174 
32768 0 0 1:-0.769928 2:-0.750549 3:-0.967928 4:-0.741205 
32768 32768 0 1:-0.782308 2:-0.769456 3:-0.970724 4:-0.754096 
32768 0 0 1:-0.726136 2:-0.621595 3:-0.955284 4:-0.704026 
32768 0 0 1:-0.696236 2:-0.58012 3:-0.946444 4:-0.674622 
32768 0 0 1:-0.647769 2:-0.544809 3:-0.932123 4:-0.621374 
32768 22520.26619899378 0 1:-0.690925 2:-0.552046 3:-0.944247 4:-0.671466 
32768 0 0 1:-0.498525 2:-0.329249 3:-0.869033 4:-0.47523 
32768 0 0 1:0.0719162 2:-0.0942615 3:-0.51022 4:0.142451 
32768 0 0 1:0.0655414 2:-0.108224 3:-0.518294 4:0.138712 
32768 8408.106728732939 0 1:-0.358974 2:-0.430746 3:-0.816973 4:-0.296625 
32768 0 0 1:-0.625708 2:-0.434965 3:-0.920456 4:-0.612235 
32768 0 0 1:-0.551047 2:-0.456539 3:-0.896964 4:-0.518662 
32768 0 0 1:-0.670629 2:-0.67507 3:-0.942948 4:-0.631405 
32768 32768 0 1:-0.254214 2:0.0235613 3:-0.710255 4:-0.259843 
32768 15866.61846793705 0 1:-0.243457 2:0.0726226 3:-0.696257 4:-0.251201 
32768 0 0 1:-0.642272 2:-0.430133 3:-0.92531 4:-0.632188 
32768 32768 0 1:-0.732072 2:-0.759656 3:-0.960188 4:-0.694424 
32768 32768 0 1:-0.747539 2:-0.774108 3:-0.963829 4:-0.711557 
32768 0 0 1:-0.733782 2:-0.738095 3:-0.960092 4:-0.698828 
32768 0 0 1:-0.635138 2:-0.689652 3:-0.933891 4:-0.586164 
32768 32768 0 1:-0.589921 2:-0.707848 3:-0.921178 4:-0.529925 
0 0 32768 1:-0.47781 2:-0.44496 3:-0.869036 4:-0.425189 
32768 32768 0 1:-0.282097 2:-0.478965 3:-0.783507 4:-0.195218 
32768 0 0 1:-0.241229 2:-0.437398 3:-0.759035 4:-0.154238 
32768 0 0 1:-0.33957 2:-0.408039 3:-0.806046 4:-0.276744 
32768 0 0 1:0.0614618 2:-0.0788075 3:-0.515314 4:0.133531 
32768 0 0 1:-0.0157535 2:-0.00327307 3:-0.55815 4:0.0290939 
32768 0 8675.906968939516 1:-0.693651 2:-0.605237 3:-0.946819 4:-0.667032 
32768 32768 32768 1:-0.8262 2:-0.830462 3:-0.979574 4:-0.80045 
32768 32768 32768 1:-0.82153 2:-0.815616 3:-0.978601 4:-0.79619 
32768 0 0 1:-0.751405 2:-0.685781 3:-0.962703 4:-0.726128 
32768 0 0 1:-0.641512 2:-0.684367 3:-0.935452 4:-0.594968 
32768 32768 0 1:-0.462057 2:-0.678248 3:-0.875926 4:-0.38015 
32768 32768 0 1:-0.587433 2:-0.637085 3:-0.917745 4:-0.536411 
32768 32768 0 1:-0.597391 2:-0.676743 3:-0.922378 4:-0.542859 
32768 0 0 1:-0.247873 2:-0.0590047 3:-0.718617 4:-0.23173 
32768 0 0 1:-0.561104 2:-0.358747 3:-0.894346 4:-0.547342 
32768 0 0 1:-0.751724 2:-0.717918 3:-0.963544 4:-0.722616 
32768 0 0 1:-0.765038 2:-0.699486 3:-0.96593 4:-0.74065 
32768 0 0 1:-0.781817 2:-0.739982 3:-0.970139 4:-0.756263 
32768 32768 0 1:-0.739196 2:-0.75322 3:-0.961622 4:-0.70367 
32768 32768 0 1:-0.744022 2:-0.802651 3:-0.963534 4:-0.704916 
32768 0 0 1:-0.702873 2:-0.694365 3:-0.951686 4:-0.667438 
32768 13569.08021617932 0 1:-0.421583 2:-0.559744 3:-0.853444 4:-0.349622 
32768 0 0 1:-0.253297 2:-0.557615 3:-0.775542 4:-0.147882 
32768 0 0 1:-0.0956895 2:-0.499788 3:-0.682261 4:0.0308836 
32768 0 0 1:0.0640442 2:-0.410145 3:-0.566534 4:0.204454 
32768 0 0 1:-0.0886814 2:-0.401954 3:-0.667562 4:0.0205914 
32768 0 0 1:-0.357851 2:-0.473395 3:-0.819653 4:-0.287746 
32768 32768 0 1:-0.481756 2:-0.585296 3:-0.878773 4:-0.417637 
32768 20944.77499311606 0 1:-0.479299 2:-0.65784 3:-0.881553 4:-0.403765 
32768 0 0 1:-0.468181 2:-0.597892 3:-0.874379 4:-0.399159 
32768 0 0 1:-0.456186 2:-0.500485 3:-0.863853 4:-0.400782 
32768 0 0 1:-0.312881 2:-0.39527 3:-0.791991 4:-0.248228 
32768 0 0 1:-0.0718147 2:-0.42935 3:-0.660036 4:0.0460165 
32768 0 0 1:-0.114831 2:-0.498516 3:-0.693174 4:0.00673884 
32768 0 0 1:-0.0817793 2:-0.448596 3:-0.667907 4:0.0375996 
32768 0 0 1:-0.405202 2:-0.482845 3:-0.841666 4:-0.340397 
32768 0 0 1:-0.53019 2:-0.337962 3:-0.881863 4:-0.510434 
32768 32768 0 1:-0.766023 2:-0.804175 3:-0.968148 4:-0.730991 
32768 0 0 1:-0.721952 2:-0.719045 3:-0.956966 4:-0.686895 
32768 32768 0 1:-0.538263 2:-0.568664 3:-0.898538 4:-0.486836 
32768 0 0 1:-0.453091 2:-0.624135 3:-0.869855 4:-0.377175 
32768 0 0 1:-0.244846 2:-0.348417 3:-0.752287 4:-0.175049 
32768 0 0 1:0.0483178 2:-0.310809 3:-0.564052 4:0.165005 
32768 0 0 1:0.0961653 2:-0.333199 3:-0.532761 4:0.226725 
32768 0 0 1:-0.188349 2:-0.320076 3:-0.717703 4:-0.112827 
32768 32768 0 1:-0.606892 2:-0.579915 3:-0.921124 4:-0.568793 
32768 0 0 1:-0.61754 2:-0.642644 3:-0.927146 4:-0.571569 
32768 4594.829265537631 0 1:-0.566547 2:-0.676743 3:-0.912668 4:-0.506002 
32768 32768 0 1:-0.587431 2:-0.701399 3:-0.920192 4:-0.527744 
32768 0 0 1:-0.521049 2:-0.669086 3:-0.897133 4:-0.452319 
32768 32768 0 1:-0.573408 2:-0.635258 3:-0.913281 4:-0.51946 
32768 0 0 1:-0.613688 2:-0.60292 3:-0.924508 4:-0.572373 
32768 0 0 1:-0.586468 2:-0.610011 3:-0.916402 4:-0.538884 
32768 19119.8832960265 0 1:-0.625084 2:-0.540299 3:-0.925296 4:-0.595071 
32768 0 0 1:-0.561101 2:-0.480477 3:-0.901827 4:-0.527364 
32768 0 0 1:-0.469328 2:-0.548791 3:-0.872117 4:-0.407958 
32768 0 0 1:-0.569391 2:-0.539887 3:-0.907391 4:-0.529336 
32768 0 0 1:-0.411879 2:-0.59002 3:-0.851345 4:-0.332259 
27801.14234833447 3137.976336249108 0 1:-0.270005 2:0.21116 3:-0.688927 4:-0.311026 
32768 0 0 1:0.147308 2:-0.0635329 3:-0.445944 4:0.227041 
32768 0 0 1:0.135212 2:-0.302577 3:-0.499351 4:0.267617 
32768 30734.31174328346 0 1:0.402385 2:-0.277002 3:-0.269685 4:0.580196 
32768 0 0 1:0.350897 2:-0.309712 3:-0.322778 4:0.526644 
32768 118.3804646623369 0 1:0.205136 2:-0.470082 3:-0.469984 4:0.386415 
32768 0 0 1:0.382665 2:-0.486649 3:-0.324566 4:0.602819 
31558.62695452558 0 0 1:0.322083 2:-0.394329 3:-0.36213 4:0.510319 
32768 0 0 1:0.148795 2:-0.391007 3:-0.501973 4:0.302185 
32768 6918.635641883148 0 1:0.289073 2:-0.333498 3:-0.380838 4:0.458512 
9610.728482972592 32768 0 1:0.385163 2:-0.373645 3:-0.304072 4:0.582469 
32768 1637.665175383285 0 1:0.217046 2:-0.449596 3:-0.457702 4:0.396724 
32768 0 0 1:0.102767 2:-0.407058 3:-0.538795 4:0.25108 
32768 0 0 1:0.131626 2:-0.419183 3:-0.519257 4:0.288172 
32768 0 0 1:0.252194 2:-0.448026 3:-0.429082 4:0.438077 
32768 20191.92329110706 0 1:0.493083 2:-0.355527 3:-0.200433 4:0.7077 
22300.06083835714 0 0 1:0.616654 2:-0.311417 3:-0.0679679 4:0.845779 
32768 0 0 1:0.357844 2:-0.26634 3:-0.307206 4:0.524211 
32768 27207.1047873252 0 1:-0.546028 2:-0.532426 3:-0.899138 4:-0.502457 
32768 0 0 1:-0.34084 2:-0.543362 3:-0.817051 4:-0.2551 
32768 32768 0 1:-0.40585 2:-0.491176 3:-0.842517 4:-0.341154 
32768 0 0 1:-0.618564 2:-0.537242 3:-0.923203 4:-0.587801 
32768 0 0 1:-0.678586 2:-0.691885 3:-0.945657 4:-0.638281 
32768 0 0 1:-0.686461 2:-0.6831 3:-0.947411 4:-0.64875 
32768 0 0 1:-0.667034 2:-0.707253 3:-0.943096 4:-0.622413 
32768 32768 0 1:-0.604971 2:-0.68948 3:-0.92511 4:-0.55019 
32768 0 0 1:-0.634189 2:-0.656794 3:-0.932465 4:-0.589791 
32768 0 0 1:-0.681089 2:-0.680733 3:-0.945924 4:-0.642881 
32768 0 0 1:-0.348461 2:-0.414885 3:-0.810703 4:-0.284763 
32768 0 0 1:-0.276432 2:-0.485867 3:-0.781456 4:-0.18781 
32768 0 0 1:-0.42337 2:-0.590968 3:-0.855943 4:-0.347039 
32768 0 0 1:-0.389018 2:-0.580391 3:-0.841083 4:-0.306707 
32768 0 0 1:-0.405795 2:-0.441952 3:-0.838648 4:-0.3497 
32768 0 0 1:-0.564092 2:-0.470363 3:-0.901564 4:-0.535772 
32768 0 0 1:-0.559689 2:-0.539912 3:-0.904414 4:-0.517498 
32768 0 0 1:-0.584004 2:-0.49305 3:-0.910171 4:-0.553763 
32768 0 0 1:-0.598261 2:-0.447724 3:-0.912421 4:-0.577498 
32768 0 0 1:-0.556355 2:-0.521491 3:-0.902358 4:-0.51615 
32768 1529.328238226453 0 1:-0.428403 2:-0.662111 3:-0.862009 4:-0.342081 
32768 32768 0 1:-0.591641 2:-0.724168 3:-0.922201 4:-0.530116 
32768 32768 0 1:-0.591414 2:-0.749441 3:-0.922956 4:-0.526067 
32768 0 0 1:-0.681152 2:-0.723296 3:-0.94702 4:-0.638166 
32768 32768 0 1:-0.606552 2:-0.765431 3:-0.927515 4:-0.544795 
32768 32768 0 1:-0.539011 2:-0.696923 3:-0.904378 4:-0.47021 
32768 32768 0 1:-0.524461 2:-0.719682 3:-0.900315 4:-0.449861 
32768 32768 0 1:-0.388582 2:-0.457245 3:-0.832382 4:-0.327408 
32768 0 0 1:-0.408333 2:-0.54512 3:-0.847029 4:-0.336059 
32768 0 0 1:-0.526894 2:-0.598888 3:-0.895948 4:-0.469514 
32768 0 0 1:-0.442277 2:-0.524289 3:-0.859893 4:-0.379502 
32768 0 0 1:-0.428169 2:-0.533318 3:-0.854688 4:-0.361282 
32768 32768 0 1:-0.547316 2:-0.555085 3:-0.900972 4:-0.500215 
32768 0 0 1:-0.507643 2:-0.49283 3:-0.88341 4:-0.462433 
32768 0 0 1:-0.399337 2:-0.465793 3:-0.837897 4:-0.338277 
32768 0 0 1:-0.436304 2:-0.521383 3:-0.857244 4:-0.373103 
32768 32768 0 1:-0.302044 2:-0.505239 3:-0.795657 4:-0.215726 
32768 32768 0 1:-0.0498116 2:-0.552838 3:-0.659065 4:0.0952312 
32768 0 0 1:-0.378121 2:-0.589228 3:-0.836828 4:-0.292691 
32768 32768 0 1:-0.303067 2:-0.459472 3:-0.792206 4:-0.225041 
32768 0 0 1:-0.22509 2:-0.488026 3:-0.754389 4:-0.127516 
32768 0 0 1:-0.248741 2:-0.548429 3:-0.772507 4:-0.143969 
32768 0 0 1:-0.213935 2:-0.559681 3:-0.755076 4:-0.100522 
32768 0 0 1:-0.348156 2:-0.586864 3:-0.823387 4:-0.256866 
32768 0 0 1:-0.373698 2:-0.530038 3:-0.831053 4:-0.296631 
32768 0 0 1:-0.312712 2:-0.488464 3:-0.799439 4:-0.231611 
32768 0 0 1:-0.165086 2:-0.466136 3:-0.719777 4:-0.0585129 
32768 0 0 1:-0.161484 2:-0.529427 3:-0.723752 4:-0.0426246 
32768 32768 0 1:-0.24261 2:-0.485177 3:-0.76414 4:-0.147595 
32768 32768 0 1:-0.332613 2:-0.607376 3:-0.81748 4:-0.235224 
32768 32768 0 1:-0.236044 2:-0.562293 3:-0.766967 4:-0.126528 
32768 32768 0 1:-0.218245 2:-0.511307 3:-0.753276 4:-0.114152 
32768 0 0 1:0.137747 2:-0.0898692 3:-0.459315 4:0.227664 
32768 32768 14517.84301203621 1:-0.487302 2:-0.590485 3:-0.881241 4:-0.420997 
32768 32768 0 1:-0.654156 2:-0.761956 3:-0.941204 4:-0.600614 
32768 0 0 1:-0.61669 2:-0.669241 3:-0.927732 4:-0.567516 
32768 0 0 1:-0.438956 2:-0.580846 3:-0.861915 4:-0.366556 
32768 0 0 1:-0.438605 2:-0.446583 3:-0.852997 4:-0.388398 
32768 32768 0 1:-0.547479 2:-0.643297 3:-0.90509 4:-0.487267 
32768 0 0 1:-0.529149 2:-0.565858 3:-0.895207 4:-0.476233 
32768 0 0 1:-0.641662 2:-0.593197 3:-0.93219 4:-0.607694 
32768 0 0 1:-0.656621 2:-0.691763 3:-0.939616 4:-0.61296 
32768 0 0 1:-0.46619 2:-0.454842 3:-0.864979 4:-0.419881 
32768 0 0 1:-0.275477 2:-0.407789 3:-0.774244 4:-0.201164 
32768 32768 0 1:-0.389275 2:-0.455366 3:-0.832699 4:-0.327925 
32768 32768 0 1:-0.586945 2:-0.699796 3:-0.919985 4:-0.527374 
32768 0 0 1:-0.61711 2:-0.649504 3:-0.92707 4:-0.570884 
32768 0 0 1:-0.355514 2:-0.595969 3:-0.827281 4:-0.263897 
32768 32768 0 1:-0.516339 2:-0.723495 3:-0.89754 4:-0.43999 
32768 32768 0 1:-0.539759 2:-0.763165 3:-0.906947 4:-0.463244 
0 32768 0 1:-0.574556 2:-0.829042 3:-0.920036 4:-0.498005 
0 32768 0 1:-0.607901 2:-0.833564 3:-0.930091 4:-0.53778 
32768 32768 0 1:-0.673702 2:-0.811389 3:-0.947454 4:-0.618917 
32768 32768 0 1:-0.666114 2:-0.771657 3:-0.944582 4:-0.613982 
0 32768 0 1:-0.58318 2:-0.820143 3:-0.922418 4:-0.509366 
32768 0 0 1:-0.62133 2:-0.500265 3:-0.922182 4:-0.595169 
32768 32768 0 1:-0.6731 2:-0.777427 3:-0.946528 4:-0.621376 
0 32768 0 1:-0.614898 2:-0.836125 3:-0.932183 4:-0.545786 
24783.24884067833 32768 32768 1:-0.685095 2:-0.864634 3:-0.951312 4:-0.627776 
32768 32768 32768 1:-0.745916 2:-0.854087 3:-0.964927 4:-0.701766 
32768 32768 32768 1:-0.79831 2:-0.850412 3:-0.975061 4:-0.765072 
32768 0 0 1:-0.784485 2:-0.759418 3:-0.971041 4:-0.757287 
32768 32768 18803.31758632939 1:-0.687299 2:-0.491334 3:-0.940915 4:-0.675054 
32768 32768 0 1:-0.548961 2:-0.539621 3:-0.900622 4:-0.50486 
32768 0 0 1:-0.620343 2:-0.642815 3:-0.927858 4:-0.575277 
32768 32768 0 1:-0.736831 2:-0.777552 3:-0.961514 4:-0.698661 
32768 32768 0 1:-0.764416 2:-0.782282 3:-0.96746 4:-0.731089 
32768 32768 32768 1:-0.806304 2:-0.84372 3:-0.976389 4:-0.775256 
32768 32768 0 1:-0.570985 2:-0.698218 3:-0.914925 4:-0.508371 
32768 0 0 1:-0.553176 2:-0.658084 3:-0.907575 4:-0.492457 
32768 32768 0 1:0.159529 2:-0.560682 3:-0.516 4:0.349693 
32768 32768 0 1:-0.394989 2:-0.694263 3:-0.849705 4:-0.297837 
0 32768 0 1:-0.0763437 2:-0.292517 3:-0.64626 4:0.017371 
32768 0 0 1:-0.190762 2:-0.384349 3:-0.72627 4:-0.10429 
32768 0 0 1:0.0457394 2:-0.429012 3:-0.582205 4:0.186819 
32768 32768 32768 1:-0.77153 2:-0.571658 3:-0.964007 4:-0.757185 
0 32768 0 1:-0.631506 2:-0.83955 3:-0.936913 4:-0.565362 
32768 32768 32768 1:-0.756998 2:-0.828312 3:-0.966771 4:-0.717491 
32768 32768 32768 1:-0.584654 2:-0.55784 3:-0.913484 4:-0.540983 
0 32768 32768 1:-0.598412 2:-0.521313 3:-0.916205 4:-0.561403 
32768 32768 32768 1:-0.823543 2:-0.782439 3:-0.97847 4:-0.801642 
32768 0 0 1:-0.194065 2:-0.781272 3:-0.758895 4:-0.045201 
32768 32768 0 1:-0.463229 2:-0.721964 3:-0.878303 4:-0.375944 
32768 32768 0 1:-0.037526 2:-0.277293 3:-0.618813 4:0.0569202 
32768 0 0 1:-0.371875 2:-0.409778 3:-0.821013 4:-0.315697 
32768 32768 32768 1:-0.824854 2:-0.859804 3:-0.979687 4:-0.796515 
32768 32768 32768 1:-0.791866 2:-0.806239 3:-0.973217 4:-0.761476 
32768 32768 0 1:-0.670961 2:-0.750929 3:-0.945324 4:-0.622056 
32768 0 0 1:-0.648624 2:-0.655942 3:-0.936537 4:-0.606742 
32768 32768 32768 1:-0.806227 2:-0.805545 3:-0.97583 4:-0.778645 
32768 32768 32768 1:-0.747782 2:-0.816153 3:-0.964686 4:-0.707498 
32768 0 0 1:-0.577121 2:-0.49333 3:-0.907896 4:-0.543389 
32768 32768 0 1:-0.304732 2:-0.480485 3:-0.795221 4:-0.222321 
32768 32768 0 1:-0.222723 2:-0.484991 3:-0.753599 4:-0.123709 
32768 18376.81814963233 0 1:-0.216793 2:-0.324398 3:-0.734422 4:-0.147219 
32768 32768 0 1:-0.458203 2:-0.214544 3:-0.842829 4:-0.450658 
32768 0 0 1:-0.444536 2:-0.451962 3:-0.856104 4:-0.394337 
0 32768 0 1:-0.16912 2:-0.527917 3:-0.72791 4:-0.0511507 
32768 0 0 1:-0.367476 2:-0.450025 3:-0.822438 4:-0.302513 
32768 0 0 1:-0.629224 2:-0.50674 3:-0.925048 4:-0.604661 
32768 0 0 1:-0.658733 2:-0.70486 3:-0.940845 4:-0.612743 
32768 0 0 1:-0.365727 2:-0.263194 3:-0.805229 4:-0.332374 
32768 0 0 1:-0.714539 2:-0.727934 3:-0.955463 4:-0.676908 
32768 32768 0 1:-0.772302 2:-0.763388 3:-0.968735 4:-0.742227 
32768 32768 0 1:-0.753473 2:-0.765963 3:-0.964935 4:-0.719415 
32768 0 0 1:-0.718779 2:-0.714701 3:-0.95612 4:-0.683562 
32768 0 0 1:-0.681527 2:-0.649253 3:-0.945121 4:-0.647185 
32768 0 0 1:-0.640841 2:-0.65005 3:-0.934177 4:-0.598251 
32768 0 0 1:-0.354244 2:-0.538407 3:-0.822873 4:-0.272138 
32768 0 0 1:-0.414311 2:-0.562983 3:-0.850773 4:-0.339871 
0 32768 0 1:-0.0883388 2:-0.204834 3:-0.641902 4:-0.0145785 
0 13092.45874639128 0 1:-0.117805 2:-0.155943 3:-0.653655 4:-0.0563489 
32768 26537.34344215758 32768 1:-0.69418 2:-0.568988 3:-0.945696 4:-0.67218 
32768 32768 32768 1:-0.833237 2:-0.831003 3:-0.980735 4:-0.808765 
32768 32768 0 1:-0.751591 2:-0.768794 3:-0.964596 4:-0.716821 
32768 32768 0 1:-0.705534 2:-0.733184 3:-0.953455 4:-0.665553 
32768 0 0 1:-0.676312 2:-0.658104 3:-0.944025 4:-0.639848 
32768 0 0 1:-0.606988 2:-0.595552 3:-0.922149 4:-0.565484 
32768 0 0 1:-0.273736 2:-0.0803452 3:-0.73626 4:-0.2585 
32768 0 0 1:-0.106792 2:-0.218213 3:-0.65563 4:-0.0383053 
32768 0 0 1:-0.47497 2:-0.505569 3:-0.871778 4:-0.421166 
32768 0 0 1:-0.664667 2:-0.686791 3:-0.941872 4:-0.622197 
32768 32768 0 1:-0.687203 2:-0.723139 3:-0.948723 4:-0.644743 
32768 32768 0 1:-0.703386 2:-0.784116 3:-0.954133 4:-0.657347 
32768 0 0 1:-0.682856 2:-0.680126 3:-0.946421 4:-0.644706 
32768 32768 0 1:-0.515638 2:-0.544565 3:-0.88928 4:-0.463805 
32768 0 0 1:-0.395796 2:-0.660692 3:-0.848506 4:-0.303111 
32768 32768 0 1:-0.42365 2:-0.64969 3:-0.859464 4:-0.338084 
32768 32768 0 1:-0.352902 2:-0.658269 3:-0.829759 4:-0.251887 
17784.07317767257 0 0 1:-0.318326 2:-0.645713 3:-0.813206 4:-0.212286 
32768 0 0 1:-0.413947 2:-0.597688 3:-0.852636 4:-0.334229 
32768 0 0 1:-0.396225 2:-0.560547 3:-0.84294 4:-0.31863 
32768 18846.8513809969 0 1:0.114676 2:-0.135346 3:-0.486223 4:0.207823 
32768 0 0 1:0.198879 2:-0.163908 3:-0.424715 4:0.312508 
32768 0 0 1:-0.279835 2:-0.38281 3:-0.774188 4:-0.210809 
32768 32768 0 1:-0.544632 2:-0.553286 3:-0.899976 4:-0.496241 
32768 32768 0 1:-0.629487 2:-0.698149 3:-0.93256 4:-0.578581 
32768 0 0 1:-0.466354 2:-0.50633 3:-0.868368 4:-0.410882 
32768 0 0 1:-0.402143 2:-0.512569 3:-0.842322 4:-0.333002 
32768 0 0 1:-0.455055 2:-0.608732 3:-0.86985 4:-0.38166 
32768 0 0 1:-0.405819 2:-0.529665 3:-0.845082 4:-0.335183 
32768 0 0 1:-0.303035 2:-0.444989 3:-0.791469 4:-0.227035 
32768 0 0 1:-0.260615 2:-0.395782 3:-0.765433 4:-0.185216 
32768 32768 0 1:0.125337 2:-0.247969 3:-0.49801 4:0.244791 
32768 32768 0 1:0.0919732 2:-0.230083 3:-0.520218 4:0.200695 
32768 0 0 1:-0.444944 2:-0.480791 3:-0.858221 4:-0.38982 
0 27021.51429515348 0 1:-0.140095 2:-0.475549 3:-0.706461 4:-0.0249128 
32768 0 0 1:-0.35717 2:-0.561589 3:-0.825829 4:-0.271227 
32768 32768 0 1:-0.0667625 2:-0.61433 3:-0.675189 4:0.0853686 
32768 1249.046824834071 0 1:-0.316054 2:-0.515251 3:-0.803425 4:-0.230072 
32768 0 0 1:-0.40563 2:-0.530142 3:-0.845036 4:-0.334493 
32768 0 0 1:-0.409871 2:-0.556651 3:-0.848502 4:-0.335614 
32768 32768 0 1:-0.276022 2:-0.416748 3:-0.775395 4:-0.199906 
32768 32768 0 1:-0.572582 2:-0.644395 3:-0.913379 4:-0.517461 
32768 0 0 1:-0.399259 2:-0.554777 3:-0.843879 4:-0.323062 
32768 32768 0 1:-0.302773 2:-0.582743 3:-0.801885 4:-0.203023 
32768 0 0 1:-0.460001 2:-0.554139 3:-0.868767 4:-0.395686 
32768 0 0 1:-0.631529 2:-0.642334 3:-0.931249 4:-0.588261 
32768 0 0 1:-0.67798 2:-0.722952 3:-0.946387 4:-0.633694 
32768 0 0 1:-0.702675 2:-0.695785 3:-0.951804 4:-0.666552 
32768 0 0 1:-0.699942 2:-0.730237 3:-0.952041 4:-0.659177 
32768 32768 0 1:-0.572259 2:-0.728948 3:-0.916392 4:-0.506067 
32768 32768 0 1:-0.38946 2:-0.304993 3:-0.82033 4:-0.355417 
32768 0 0 1:-0.663964 2:-0.675206 3:-0.941335 4:-0.622791 
32768 0 0 1:-0.667356 2:-0.699549 3:-0.942976 4:-0.623774 
32768 32768 0 1:-0.602948 2:-0.709745 3:-0.925187 4:-0.545241 
32768 32768 0 1:-0.708133 2:-0.740908 3:-0.95427 4:-0.667683 
32768 32768 0 1:-0.70412 2:-0.764771 3:-0.953876 4:-0.660255 
32768 32768 0 1:-0.537237 2:-0.671144 3:-0.902791 4:-0.471071 
32768 32768 0 1:-0.541986 2:-0.660843 3:-0.903975 4:-0.478107 
32768 0 0 1:-0.742395 2:-0.720775 3:-0.961595 4:-0.711064 
32768 0 0 1:-0.735548 2:-0.67626 3:-0.958978 4:-0.708055 
32768 0 0 1:-0.680276 2:-0.685835 3:-0.945926 4:-0.640924 
32768 0 0 1:-0.661948 2:-0.653902 3:-0.940121 4:-0.62299 
32768 0 0 1:-0.648108 2:-0.584991 3:-0.933849 4:-0.61587 
32768 0 0 1:-0.633665 2:-0.605979 3:-0.930523 4:-0.595803 
32768 0 0 1:-0.255994 2:-0.475764 3:-0.770314 4:-0.165252 
32768 0 0 1:-0.190392 2:-0.444176 3:-0.732123 4:-0.0925955 
32768 0 0 1:0.00198367 2:-0.338056 3:-0.60067 4:0.116915 
32768 0 0 1:-0.619009 2:-0.563954 3:-0.9245 4:-0.584299 
32768 0 0 1:-0.648721 2:-0.530469 3:-0.931823 4:-0.62467 
32768 0 0 1:-0.596822 2:-0.560342 3:-0.917506 4:-0.558466 
32768 0 0 1:-0.549826 2:-0.591282 3:-0.903574 4:-0.497844 
32768 0 0 1:-0.677108 2:-0.671419 3:-0.944682 4:-0.638887 
32768 0 0 1:-0.697694 2:-0.70744 3:-0.950902 4:-0.659146 
32768 32768 0 1:-0.525489 2:-0.49218 3:-0.889951 4:-0.482637 
32768 32768 0 1:-0.60147 2:-0.531846 3:-0.917673 4:-0.566517 
32768 32768 0 1:-0.647312 2:-0.538088 3:-0.931738 4:-0.620658 
32768 32768 0 1:-0.533679 2:-0.554708 3:-0.89624 4:-0.483734 
32768 32768 0 1:-0.549596 2:-0.598808 3:-0.903852 4:-0.496315 
32768 0 0 1:-0.666073 2:-0.625935 3:-0.940277 4:-0.631586 
32768 1087.860702558467 0 1:-0.594467 2:-0.649574 3:-0.920462 4:-0.542959 
32768 32768 0 1:-0.628853 2:-0.678544 3:-0.931728 4:-0.580268 
32768 0 32768 1:-0.589721 2:-0.642718 3:-0.918744 4:-0.537531 
32768 0 0 1:-0.488553 2:-0.660385 3:-0.885008 4:-0.414757 
32768 32768 0 1:-0.568324 2:-0.676399 3:-0.913194 4:-0.508207 
32768 0 0 1:-0.586359 2:-0.555477 3:-0.913972 4:-0.546683 
32768 32768 0 1:-0.569555 2:-0.558882 3:-0.908663 4:-0.526085 
32768 32768 0 1:-0.587922 2:-0.708289 3:-0.920579 4:-0.527451 
24538.74727973235 0 18.45065509755452 1:0.728035 2:-0.27169 3:0.060126 4:0.970339 
32768 0 0 1:0.405332 2:-0.197886 3:-0.251281 4:0.566306 
32768 0 0 1:0.0154558 2:-0.472323 3:-0.608324 4:0.159292 
32768 0 0 1:-0.351778 2:-0.612889 3:-0.826643 4:-0.257069 
32768 0 0 1:-0.234254 2:-0.359063 3:-0.747737 4:-0.160613 
32768 0 0 1:-0.114125 2:-0.4907 3:-0.692602 4:0.00740492 
32768 0 0 1:-0.221538 2:-0.508933 3:-0.754987 4:-0.118009 
32768 0 0 1:-0.19727 2:-0.546988 3:-0.745136 4:-0.0823054 
32768 32768 0 1:-0.222221 2:-0.505025 3:-0.755031 4:-0.119453 
32768 0 0 1:-0.257186 2:-0.457585 3:-0.76928 4:-0.169665 
32768 0 0 1:-0.406922 2:-0.432802 3:-0.838774 4:-0.352922 
32768 0 0 1:-0.591945 2:-0.494215 3:-0.91281 4:-0.562673 
32768 0 0 1:-0.750532 2:-0.721821 3:-0.963347 4:-0.720673 
32768 32768 32768 1:-0.820214 2:-0.811385 3:-0.978322 4:-0.794962 
32768 32768 32768 1:-0.84265 2:-0.827691 3:-0.982185 4:-0.820305 
32768 32768 32768 1:-0.764461 2:-0.610256 3:-0.963578 4:-0.750572 
32768 0 0 1:-0.716763 2:-0.638595 3:-0.953578 4:-0.690346 
32768 0 0 1:-0.709507 2:-0.62796 3:-0.951506 4:-0.683305 
32768 0 32768 1:-0.737628 2:-0.618186 3:-0.957862 4:-0.718006 
32768 0 0 1:-0.521283 2:-0.513061 3:-0.889607 4:-0.474069 
32768 32768 0 1:-0.671407 2:-0.748364 3:-0.945354 4:-0.622923 
32768 32768 0 1:-0.527568 2:-0.680382 3:-0.899849 4:-0.458564 
32768 0 0 1:-0.445869 2:-0.647038 3:-0.868203 4:-0.364702 
32768 32768 0 1:-0.538268 2:-0.623746 3:-0.901109 4:-0.478909 
32768 0 32768 1:-0.752588 2:-0.673947 3:-0.962683 4:-0.728311 
32768 32768 32768 1:-0.838591 2:-0.822946 3:-0.981486 4:-0.815907 
32768 32768 32768 1:-0.838505 2:-0.818306 3:-0.981385 4:-0.816417 
32768 32768 32768 1:-0.852823 2:-0.83723 3:-0.983842 4:-0.831703 
32768 32768 32768 1:-0.860744 2:-0.839149 3:-0.985028 4:-0.841019 
32768 0 32768 1:-0.818675 2:-0.740236 3:-0.976952 4:-0.800008 
32768 0 32768 1:-0.795793 2:-0.764307 3:-0.97326 4:-0.770127 
32768 32768 32768 1:-0.849514 2:-0.8562 3:-0.983565 4:-0.826081 
32768 0 0 1:-0.454945 2:-0.514035 3:-0.864392 4:-0.394363 
32768 0 0 1:-0.600321 2:-0.630688 3:-0.921536 4:-0.552297 
32768 0 0 1:-0.730737 2:-0.685276 3:-0.958125 4:-0.701386 
32768 0 0 1:-0.774102 2:-0.713441 3:-0.968085 4:-0.74985 
32768 0 32768 1:-0.707571 2:-0.603716 3:-0.950266 4:-0.682792 
32768 0 32768 1:-0.643232 2:-0.67273 3:-0.93561 4:-0.597389 
32768 32768 0 1:-0.649914 2:-0.711458 3:-0.93866 4:-0.601244 
32768 0 0 1:-0.737348 2:-0.688915 3:-0.959715 4:-0.708708 
32768 32768 0 1:-0.439535 2:-0.56604 3:-0.86132 4:-0.368725 
32768 32768 0 1:-0.608033 2:-0.735257 3:-0.927504 4:-0.548338 
32768 32768 0 1:-0.5877 2:-0.723899 3:-0.921032 4:-0.525254 
32768 32768 26445.79384212683 1:-0.438296 2:-0.683486 3:-0.866978 4:-0.350472 
32768 0 0 1:-0.443406 2:-0.651338 3:-0.86741 4:-0.361537 
32768 0 0 1:-0.628489 2:-0.629431 3:-0.929898 4:-0.586313 
32768 0 0 1:-0.629949 2:-0.627881 3:-0.930271 4:-0.58839 
32768 0 0 1:-0.369756 2:-0.43383 3:-0.822271 4:-0.307522 
32768 0 0 1:-0.235769 2:-0.467732 3:-0.758935 4:-0.142598 
32768 32768 0 1:-0.157385 2:-0.544851 3:-0.722777 4:-0.0350008 
32768 0 0 1:-0.116942 2:-0.422636 3:-0.687232 4:-0.00871376 
32768 0 0 1:-0.136929 2:-0.357629 3:-0.692016 4:-0.0454777 
32768 0 0 1:-0.311627 2:-0.484582 3:-0.79893 4:-0.230268 
32768 0 0 1:-0.274471 2:-0.384626 3:-0.771393 4:-0.204513 
32768 0 0 1:-0.0909083 2:-0.306193 3:-0.657373 4:-0.00142987 
32768 0 0 1:0.0359163 2:-0.279944 3:-0.568816 4:0.14417 
32768 0 0 1:-0.0598288 2:-0.359923 3:-0.644427 4:0.04696 
32768 32768 0 1:-0.241689 2:-0.565857 3:-0.770198 4:-0.132545 
32768 0 0 1:-0.290468 2:-0.531776 3:-0.792228 4:-0.196789 
32768 0 0 1:-0.280296 2:-0.526641 3:-0.786751 4:-0.18551 
32768 0 0 1:-0.463517 2:-0.511233 3:-0.867623 4:-0.405132 
0 0 2524.423719940882 1:-0.339337 2:-0.612425 3:-0.820965 4:-0.240775 
0 32768 32768 1:-0.919013 2:-0.875336 3:-0.992747 4:-0.907812 
32768 0 32768 1:-0.697905 2:-0.648373 3:-0.949266 4:-0.666275 
32768 0 0 1:-0.45802 2:-0.462732 3:-0.86233 4:-0.40789 
32768 1.860379804579057 0 1:-0.343372 2:-0.505207 3:-0.815559 4:-0.264387 
32768 0 0 1:-0.547661 2:-0.486684 3:-0.897519 4:-0.508556 
32768 0 0 1:-0.732263 2:-0.654257 3:-0.95765 4:-0.707065 
32768 0 32768 1:-0.753329 2:-0.607305 3:-0.961063 4:-0.738061 
32768 0 0 1:-0.770655 2:-0.748507 3:-0.968112 4:-0.741837 
32768 32768 0 1:-0.706826 2:-0.761061 3:-0.954434 4:-0.663952 
0 0 936.5373247874295 1:-0.274537 2:-0.1042 3:-0.739861 4:-0.249921 
32768 0 0 1:-0.572771 2:-0.478378 3:-0.905672 4:-0.542115 
32768 0 0 1:-0.415869 2:-0.407268 3:-0.840713 4:-0.368182 
32768 0 0 1:-0.503236 2:-0.471953 3:-0.880502 4:-0.460634 
0 0 811.6389264050289 1:-0.286046 2:-0.043047 3:-0.738054 4:-0.273878 
32768 0 0 1:-0.745073 2:-0.676801 3:-0.961122 4:-0.719445 
32768 0 0 1:-0.717615 2:-0.628814 3:-0.95348 4:-0.692836 
32768 0 0 1:-0.681433 2:-0.64121 3:-0.944856 4:-0.647897 
32768 0 0 1:-0.642292 2:-0.674949 3:-0.935421 4:-0.596673 
32768 32768 0 1:-0.619586 2:-0.706959 3:-0.929997 4:-0.56558 
32768 0 0 1:-0.340575 2:-0.415881 3:-0.807194 4:-0.276909 
32768 0 0 1:-0.260324 2:-0.396723 3:-0.765393 4:-0.184813 
32768 0 0 1:-0.183743 2:-0.193859 3:-0.699548 4:-0.130386 
32768 12150.17457124291 0 1:-0.497013 2:-0.0559871 3:-0.844512 4:-0.520539 
32768 32768 32768 1:-0.820402 2:-0.832616 3:-0.978654 4:-0.793189 
32768 0 0 1:-0.389997 2:-0.546018 3:-0.839313 4:-0.313268 
32768 32768 0 1:-0.36275 2:-0.538838 3:-0.826822 4:-0.281865 
32768 0 0 1:-0.154846 2:-0.229339 3:-0.686925 4:-0.0901284 
32768 0 0 1:-0.173238 2:-0.472428 3:-0.725204 4:-0.0664438 
32768 0 0 1:-0.106753 2:-0.497034 3:-0.688805 4:0.0177649 
32768 32768 0 1:-0.278724 2:-0.497136 3:-0.783603 4:-0.188741 
32768 0 0 1:-0.259012 2:-0.401361 3:-0.765114 4:-0.182571 
32768 0 0 1:-0.386827 2:-0.403281 3:-0.827579 4:-0.333872 
0 0 930.5059152754533 1:-0.33443 2:-0.452011 3:-0.807267 4:-0.256506 
0 0 4897.190411705859 1:-0.335687 2:-0.334629 3:-0.797584 4:-0.277871 
32768 0 0 1:-0.464632 2:-0.35291 3:-0.857152 4:-0.43524 
32768 0 0 1:-0.358731 2:-0.395181 3:-0.814016 4:-0.302149 
32768 0 0 1:-0.422173 2:-0.598883 3:-0.856105 4:-0.343587 
32768 0 0 1:-0.450816 2:-0.616105 3:-0.868588 4:-0.375422 
32768 32768 0 1:-0.490778 2:-0.597303 3:-0.88289 4:-0.42618 
32768 0 0 1:-0.522151 2:-0.513022 3:-0.889896 4:-0.476309 
32768 0 0 1:-0.348102 2:-0.322163 3:-0.802434 4:-0.302888 
32768 0 0 1:-0.22293 2:-0.451395 3:-0.750675 4:-0.129864 
32768 0 0 1:-0.194839 2:-0.456269 3:-0.735753 4:-0.095189 
32768 0 0 1:-0.0858029 2:-0.32153 3:-0.656156 4:0.00834231 
32768 0 0 1:0.271503 2:0.00431328 3:-0.326387 4:0.355987 
32768 0 0 1:0.36926 2:-0.0801208 3:-0.257888 4:0.493152 
32768 0 0 1:-0.467533 2:-0.435452 3:-0.864314 4:-0.421481 
32768 32768 0 1:-0.579489 2:-0.58631 3:-0.913157 4:-0.533527 
32768 32768 0 1:-0.741847 2:-0.759492 3:-0.962304 4:-0.706264 
32768 0 0 1:-0.531759 2:-0.484362 3:-0.891725 4:-0.489582 
32768 0 0 1:-0.520548 2:-0.492884 3:-0.888198 4:-0.47529 
32768 0 0 1:-0.701079 2:-0.717792 3:-0.952 4:-0.661998 
32768 0 0 1:-0.675624 2:-0.705487 3:-0.945299 4:-0.632872 
32768 0 0 1:-0.699078 2:-0.718454 3:-0.951523 4:-0.659554 
32768 32768 0 1:-0.710217 2:-0.749494 3:-0.954965 4:-0.669302 
32768 32768 0 1:-0.680603 2:-0.758001 3:-0.947957 4:-0.63276 
32768 32768 0 1:-0.709093 2:-0.754549 3:-0.954818 4:-0.667395 
32768 32768 0 1:-0.759189 2:-0.788129 3:-0.966519 4:-0.724127 
32768 32768 0 1:-0.611017 2:-0.80015 3:-0.930201 4:-0.544612 
32768 32768 0 1:-0.582537 2:-0.68565 3:-0.918115 4:-0.523696 
32768 0 0 1:-0.543954 2:-0.601404 3:-0.902051 4:-0.489198 
32768 0 0 1:-0.249323 2:-0.246384 3:-0.743557 4:-0.201175 
32768 0 0 1:0.0357146 2:-0.286826 3:-0.570003 4:0.145525 
32768 0 0 1:0.15684 2:-0.376103 3:-0.494117 4:0.309691 
32768 6551.061619987463 0 1:-0.0645397 2:-0.311062 3:-0.641209 4:0.0318493 
32768 0 0 1:-0.53874 2:-0.454252 3:-0.892509 4:-0.504595 
32768 32768 0 1:-0.601907 2:-0.585193 3:-0.920183 4:-0.560778 
32768 9063.222302874778 0 1:-0.518574 2:-0.589495 3:-0.892634 4:-0.460615 
32768 0 0 1:-0.556508 2:-0.619223 3:-0.90708 4:-0.501715 
32768 0 0 1:-0.610784 2:-0.671553 3:-0.926211 4:-0.559599 
32768 0 0 1:-0.634228 2:-0.662962 3:-0.932745 4:-0.588788 
32768 0 0 1:-0.649822 2:-0.626641 3:-0.935855 4:-0.612373 
32768 0 0 1:-0.612917 2:-0.608121 3:-0.924472 4:-0.570668 
32768 0 0 1:-0.537533 2:-0.591754 3:-0.899397 4:-0.482808 
32768 0 0 1:-0.584878 2:-0.54104 3:-0.912818 4:-0.54708 
32768 32768 0 1:-0.618975 2:-0.566177 3:-0.924585 4:-0.58386 
32768 0 0 1:-0.529806 2:-0.631844 3:-0.898559 4:-0.467957 
32768 32768 0 1:-0.349818 2:-0.504104 3:-0.818427 4:-0.272576 
32768 0 0 1:-0.440347 2:-0.409717 3:-0.851326 4:-0.396378 
32768 0 0 1:-0.627399 2:-0.596213 3:-0.928313 4:-0.58975 
32768 0 0 1:-0.587682 2:-0.482051 3:-0.910789 4:-0.559475 
32768 32768 0 1:-0.764599 2:-0.795002 3:-0.967768 4:-0.729671 
32768 32768 32768 1:-0.809977 2:-0.810454 3:-0.976543 4:-0.782817 
32768 0 32768 1:-0.773476 2:-0.69526 3:-0.967554 4:-0.751261 
32768 0 0 1:-0.701479 2:-0.667627 3:-0.950722 4:-0.668535 
32768 0 0 1:-0.656949 2:-0.668665 3:-0.939248 4:-0.615217 
32768 32768 0 1:-0.574735 2:-0.633251 3:-0.913621 4:-0.52136 
32768 0 0 1:-0.517137 2:-0.630476 3:-0.89407 4:-0.452758 
32768 32768 0 1:-0.609657 2:-0.592216 3:-0.922854 4:-0.568912 
32768 0 0 1:-0.61328 2:-0.654226 3:-0.926345 4:-0.56476 
0 32768 0 1:-0.223913 2:-0.546768 3:-0.759405 4:-0.112742 
32768 32768 0 1:-0.0439664 2:-0.559488 3:-0.656144 4:0.103951 
32768 32768 0 1:-0.240079 2:-0.50184 3:-0.764241 4:-0.141426 
32768 32768 0 1:-0.34174 2:-0.551774 3:-0.818112 4:-0.254913 
32768 0 0 1:-0.106131 2:-0.451575 3:-0.683814 4:0.0101177 
32768 0 0 1:-0.136803 2:-0.452265 3:-0.702204 4:-0.0262527 
32768 0 0 1:-0.205124 2:-0.420323 3:-0.737974 4:-0.114633 
32768 0 0 1:-0.263316 2:-0.353291 3:-0.762694 4:-0.196545 
32768 0 0 1:-0.510279 2:-0.491975 3:-0.884373 4:-0.465877 
32768 0 0 1:-0.623614 2:-0.517876 3:-0.923855 4:-0.596519 
32768 15306.24207558115 32768 1:-0.814757 2:-0.694451 3:-0.975391 4:-0.800203 
20768.13203574033 32768 32768 1:-0.889339 2:-0.838523 3:-0.988894 4:-0.875523 
32768 32768 32768 1:-0.845413 2:-0.768393 3:-0.981808 4:-0.829303 
32768 32768 32768 1:-0.826242 2:-0.750441 3:-0.978419 4:-0.80815 
32768 0 0 1:-0.758383 2:-0.680812 3:-0.964068 4:-0.735013 
32768 0 0 1:-0.72877 2:-0.700167 3:-0.958008 4:-0.69748 
32768 0 0 1:-0.766641 2:-0.742837 3:-0.967188 4:-0.737689 
32768 30341.86360715428 32768 1:-0.800547 2:-0.764685 3:-0.974131 4:-0.776037 
32768 0 32768 1:-0.798388 2:-0.755115 3:-0.973572 4:-0.774416 
32768 0 0 1:-0.775818 2:-0.713192 3:-0.968425 4:-0.751961 
32768 29815.27942678868 0 1:-0.658362 2:-0.360139 3:-0.92655 4:-0.660323 
32768 0 0 1:-0.640046 2:-0.379741 3:-0.922025 4:-0.636148 
32768 0 32768 1:-0.748933 2:-0.650398 3:-0.961289 4:-0.727382 
32768 0 0 1:-0.725862 2:-0.64742 3:-0.955973 4:-0.700314 
32768 0 0 1:-0.481155 2:-0.397818 3:-0.867117 4:-0.445019 
32768 0 0 1:-0.278262 2:-0.429387 3:-0.777684 4:-0.200014 
32768 0 0 1:-0.352406 2:-0.529763 3:-0.821503 4:-0.271102 
32768 32768 0 1:-0.534138 2:-0.69606 3:-0.902725 4:-0.464325 
32768 0 0 1:-0.569177 2:-0.476145 3:-0.904309 4:-0.537214 
31668.02368799688 0 0 1:-0.2784 2:-0.0274194 3:-0.731549 4:-0.272122 
32768 0 0 1:-0.408005 2:0.0438721 3:-0.791473 4:-0.438285 
32768 32768 0 1:-0.531799 2:-0.676912 3:-0.901071 4:-0.464464 
32768 0 0 1:-0.559059 2:-0.640312 3:-0.908803 4:-0.501833 
32768 0 0 1:-0.443515 2:-0.419419 3:-0.853376 4:-0.396568 
0 0 32768 1:-0.595933 2:-0.257128 3:-0.900091 4:-0.594733 
32768 32768 32768 1:-0.850057 2:-0.797273 3:-0.982934 4:-0.832006 
32768 32768 32768 1:-0.836249 2:-0.781426 3:-0.980548 4:-0.817014 
32768 32768 32768 1:-0.872133 2:-0.826114 3:-0.986483 4:-0.855898 
32768 32768 32768 1:-0.882048 2:-0.879638 3:-0.988344 4:-0.863364 
32768 32768 32768 1:-0.873732 2:-0.849276 3:-0.986954 4:-0.855759 
0 32768 32768 1:-0.890666 2:-0.840119 3:-0.989095 4:-0.876833 
32768 32768 32768 1:-0.866592 2:-0.784556 3:-0.985218 4:-0.852762 
32768 32768 32768 1:-0.845268 2:-0.793257 3:-0.982144 4:-0.82647 
32768 32768 32768 1:-0.885003 2:-0.85167 3:-0.988478 4:-0.869078 
32768 32768 32768 1:-0.899308 2:-0.886519 3:-0.99057 4:-0.883498 
32768 32768 0 1:-0.621264 2:-0.772118 3:-0.932402 4:-0.559564 
0 0 16558.53729662735 1:-0.397047 2:-0.441007 3:-0.835057 4:-0.332716 
32768 32768 32768 1:-0.789426 2:-0.819152 3:-0.972982 4:-0.75723 
32768 32768 32768 1:-0.760083 2:-0.817021 3:-0.967224 4:-0.72226 
32768 0 32768 1:-0.489998 2:-0.595837 3:-0.882538 4:-0.423582 
32768 32768 32768 1:-0.604593 2:-0.688964 3:-0.924976 4:-0.549023 
0 32768 0 1:-0.495245 2:-0.772237 3:-0.891958 4:-0.408319 
32768 32768 0 1:-0.709512 2:-0.733488 3:-0.954409 4:-0.66977 
32768 32768 0 1:-0.685348 2:-0.790095 3:-0.949894 4:-0.634858 
0 32768 0 1:-0.657336 2:-0.859856 3:-0.944247 4:-0.5947 
32768 32768 0 1:-0.768272 2:-0.805085 3:-0.96868 4:-0.733154 
32768 0 0 1:-0.747729 2:-0.737491 3:-0.963123 4:-0.715469 
20270.16427154571 32768 0 1:-0.572149 2:-0.790761 3:-0.918263 4:-0.498957 
32768 26140.84014793244 0 1:-0.485968 2:-0.534433 3:-0.877707 4:-0.42982 
32768 32768 0 1:-0.236029 2:-0.521682 3:-0.76377 4:-0.132915 
27666.8936143635 0 0 1:-0.148148 2:-0.757413 3:-0.732711 4:0.00729337 
0 32768 0 1:-0.392895 2:-0.7472 3:-0.851381 4:-0.288018 
32768 0 0 1:-0.666454 2:-0.705125 3:-0.942863 4:-0.621696 
32768 0 0 1:-0.745474 2:-0.737083 3:-0.962604 4:-0.713104 
32768 0 0 1:-0.593769 2:-0.635703 3:-0.919706 4:-0.543935 
32768 32768 0 1:-0.445902 2:-0.690069 3:-0.870256 4:-0.359309 
32768 0 0 1:-0.383633 2:-0.381941 3:-0.824377 4:-0.333869 
32768 0 0 1:-0.295131 2:-0.352192 3:-0.779039 4:-0.234771 
32768 0 0 1:-0.357647 2:-0.464479 3:-0.819049 4:-0.288434 
32768 0 0 1:-0.54479 2:-0.482187 3:-0.896253 4:-0.508638 
32768 0 0 1:-0.550183 2:-0.504886 3:-0.899359 4:-0.511291 
0 32768 0 1:-0.319024 2:-0.705901 3:-0.81692 4:-0.204653 
32768 32768 0 1:-0.00801828 2:-0.697533 3:-0.644899 4:0.168211 
0 8170.625429214514 0 1:0.15594 2:-0.780239 3:-0.538539 4:0.375903 
0 32768 0 1:-0.0814807 2:-0.670082 3:-0.688427 4:0.0763238 
32768 32768 0 1:-0.4313 2:-0.683367 3:-0.864164 4:-0.342705 
32768 32407.64184754209 0 1:-0.479818 2:-0.581613 3:-0.877973 4:-0.415436 
32768 0 0 1:-0.400099 2:-0.372378 3:-0.830952 4:-0.355164 
32768 0 0 1:-0.399714 2:-0.36175 3:-0.829959 4:-0.356231 
32768 0 0 1:-0.349885 2:-0.41628 3:-0.811614 4:-0.287994 
32768 32768 0 1:-0.375724 2:-0.712453 3:-0.842533 4:-0.272038 
32768 0 0 1:-0.410687 2:-0.521232 3:-0.846612 4:-0.342216 
32768 0 0 1:-0.328911 2:-0.456396 3:-0.804992 4:-0.255396 
32768 0 0 1:0.0122751 2:-0.377647 3:-0.59892 4:0.138047 
32768 32768 0 1:0.129638 2:-0.471178 3:-0.527557 4:0.296381 
32768 0 0 1:-0.105941 2:-0.539134 3:-0.692306 4:0.0258486 
32768 24712.60264735394 0 1:-0.216415 2:-0.455176 3:-0.747502 4:-0.12153 
32768 0 0 1:-0.198471 2:-0.361425 3:-0.728172 4:-0.118283 
32768 0 0 1:-0.21072 2:-0.432849 3:-0.742261 4:-0.118986 
32768 0 0 1:-0.263218 2:-0.479372 3:-0.774323 4:-0.173233 
32768 0 0 1:0.21534 2:-0.103215 3:-0.398889 4:0.316992 
32768 0 0 1:-0.199583 2:-0.379666 3:-0.73076 4:-0.11577 
32768 0 0 1:-0.0954323 2:-0.508688 3:-0.683116 4:0.0334913 
32768 32768 0 1:-0.400939 2:-0.483678 3:-0.839874 4:-0.336497 
32768 0 0 1:-0.352135 2:-0.385914 3:-0.810101 4:-0.295837 
32768 0 0 1:-0.192765 2:-0.435997 3:-0.732657 4:-0.096758 
32768 0 0 1:-0.271209 2:-0.545844 3:-0.783732 4:-0.171298 
32768 0 0 1:-0.214055 2:-0.535229 3:-0.753235 4:-0.104591 
32768 32768 0 1:-0.248546 2:-0.521084 3:-0.77024 4:-0.148339 
32768 0 0 1:-0.189222 2:-0.457943 3:-0.732778 4:-0.0878497 
32768 0 0 1:-0.150252 2:-0.486922 3:-0.713457 4:-0.036441 
32768 0 0 1:-0.0758281 2:-0.535776 3:-0.673742 4:0.0614216 
32768 0 0 1:-0.198833 2:-0.496795 3:-0.741695 4:-0.0929145 
32768 0 0 1:-0.322325 2:-0.478215 3:-0.80358 4:-0.244126 
32768 0 0 1:-0.27284 2:-0.469013 3:-0.77837 4:-0.186644 
32768 0 0 1:-0.216809 2:-0.489043 3:-0.750779 4:-0.115912 
32768 0 0 1:-0.332898 2:-0.533223 3:-0.812725 4:-0.247032 
32768 32768 0 1:-0.177374 2:-0.513712 3:-0.731315 4:-0.0641827 
32768 25491.38968097029 0 1:-0.18168 2:-0.511819 3:-0.733555 4:-0.0696747 
32768 0 0 1:-0.0647125 2:-0.426496 3:-0.655444 4:0.0548036 
32768 6913.28386339224 0 1:0.392465 2:-0.171313 3:-0.257406 4:0.547809 
32768 0 0 1:-0.274023 2:-0.30396 3:-0.763227 4:-0.218375 
3162.468443144687 0 240.903459062532 1:0.152296 2:0.389512 3:-0.329194 4:0.134537 
32768 32768 0 1:-0.563529 2:-0.684523 3:-0.912028 4:-0.501054 
3050.303077735459 32768 0 1:-0.382142 2:-0.695753 3:-0.844485 4:-0.281781 
0 1326.981365053576 0 1:0.35001 2:0.108848 3:-0.227253 4:0.430772 
32768 32768 0 1:-0.449747 2:-0.53401 3:-0.863526 4:-0.386669 
32768 0 0 1:-0.298795 2:-0.273999 3:-0.772984 4:-0.251882 
0 13492.54923559835 0 1:0.441098 2:0.24016 3:-0.097619 4:0.510044 
32768 32768 0 1:-0.457352 2:-0.671721 3:-0.873861 4:-0.37497 
32768 0 0 1:-0.541578 2:-0.654933 3:-0.903592 4:-0.478601 
32768 32768 0 1:-0.539518 2:-0.623344 3:-0.901535 4:-0.480466 
32768 32768 0 1:-0.600666 2:-0.606291 3:-0.920678 4:-0.555635 
32768 0 0 1:-0.407765 2:-0.352474 3:-0.832731 4:-0.366376 
32768 0 0 1:-0.141036 2:-0.442572 3:-0.703708 4:-0.033341 
32768 0 0 1:-0.201188 2:-0.346365 3:-0.72803 4:-0.124213 
32768 0 0 1:-0.455318 2:-0.278581 3:-0.847223 4:-0.4333 
32768 0 0 1:-0.711887 2:-0.725623 3:-0.954777 4:-0.674009 
32768 0 0 1:-0.54102 2:-0.438187 3:-0.892372 4:-0.50995 
32768 0 0 1:-0.483133 2:-0.434271 3:-0.870405 4:-0.443069 
32768 0 0 1:-0.642392 2:-0.56448 3:-0.931381 4:-0.612243 
32768 0 0 1:-0.668092 2:-0.564438 3:-0.938528 4:-0.643068 
32768 0 0 1:-0.675904 2:-0.591044 3:-0.941705 4:-0.648171 
32768 0 0 1:-0.640483 2:-0.628695 3:-0.93332 4:-0.600695 
32768 0 0 1:-0.569121 2:-0.638728 3:-0.91204 4:-0.514023 
32768 0 0 1:-0.634703 2:-0.64231 3:-0.932157 4:-0.592111 
32768 0 0 1:-0.628684 2:-0.66093 3:-0.931086 4:-0.582419 
32768 32768 0 1:-0.539075 2:-0.678534 3:-0.90369 4:-0.472692 
0 32768 0 1:-0.0711095 2:-0.633714 3:-0.679416 4:0.0831863 
0 32768 0 1:-0.070236 2:-0.653976 3:-0.680486 4:0.0873067 
0 0 93.84893906145238 1:-0.394215 2:-0.572375 3:-0.84282 4:-0.311987 
32768 32768 0 1:-0.644064 2:-0.82826 3:-0.940092 4:-0.581657 
32768 32768 0 1:-0.692136 2:-0.776677 3:-0.951261 4:-0.644637 
32768 32768 0 1:-0.753093 2:-0.801595 3:-0.965538 4:-0.715261 
32768 0 0 1:-0.741896 2:-0.726537 3:-0.961614 4:-0.709882 
32768 0 0 1:-0.715421 2:-0.72308 3:-0.95554 4:-0.678579 
32768 32768 0 1:-0.697804 2:-0.796627 3:-0.953071 4:-0.649365 
32768 32768 0 1:-0.62677 2:-0.814157 3:-0.935022 4:-0.562215 
0 32768 0 1:-0.566487 2:-0.823685 3:-0.917391 4:-0.488793 
32768 32768 0 1:-0.643462 2:-0.736512 3:-0.937622 4:-0.590616 
32768 32768 0 1:-0.723461 2:-0.752013 3:-0.958078 4:-0.684881 
32768 27228.03843706399 0 1:-0.460331 2:-0.657969 3:-0.874372 4:-0.380123 
32768 32768 0 1:-0.624328 2:-0.725087 3:-0.931921 4:-0.56903 
32768 32768 0 1:-0.667206 2:-0.765002 3:-0.944712 4:-0.615967 
32768 32631.47402168694 0 1:-0.401219 2:-0.214715 3:-0.817221 4:-0.381405 
32768 0 0 1:-0.278769 2:-0.332891 3:-0.768721 4:-0.218014 
32768 0 0 1:-0.427033 2:-0.378735 3:-0.843325 4:-0.385993 
32768 0 0 1:-0.497544 2:-0.241754 3:-0.861745 4:-0.493493 
32768 0 0 1:-0.567525 2:-0.465002 3:-0.903174 4:-0.538042 
32768 0 0 1:-0.653451 2:-0.57198 3:-0.934835 4:-0.623757 
0 32768 32768 1:-0.934263 2:-0.941859 3:-0.994731 4:-0.921871 
0 32768 0 1:-0.543175 2:-0.798618 3:-0.909206 4:-0.463202 
32768 32768 0 1:-0.713759 2:-0.742764 3:-0.955615 4:-0.674405 
32768 0 0 1:-0.694947 2:-0.709932 3:-0.950295 4:-0.655551 
32768 0 0 1:-0.63451 2:-0.625512 3:-0.931494 4:-0.594108 
32768 32768 0 1:-0.508182 2:-0.61066 3:-0.889941 4:-0.444806 
32768 32768 0 1:-0.461385 2:-0.681676 3:-0.875856 4:-0.378949 
32768 0 0 1:-0.598592 2:-0.641998 3:-0.921439 4:-0.548942 
32768 0 0 1:-0.452279 2:-0.356405 3:-0.852293 4:-0.41894 
32768 0 0 1:-0.0961817 2:-0.324285 3:-0.663032 4:-0.00380497 
32768 32768 0 1:0.0539625 2:-0.255542 3:-0.552159 4:0.160842 
32768 0 0 1:-0.120174 2:-0.189211 3:-0.659799 4:-0.0595612 
32768 0 0 1:-0.216315 2:-0.298705 3:-0.731167 4:-0.151547 
32768 0 0 1:-0.0598041 2:-0.268713 3:-0.632392 4:0.0276808 
32768 0 0 1:-0.0565546 2:-0.219227 3:-0.62319 4:0.0211929 
32768 0 0 1:-0.104044 2:-0.300647 3:-0.664958 4:-0.017806 
32768 0 0 1:-0.170982 2:-0.322268 3:-0.708035 4:-0.0930216 
32768 4145.051028007786 0 1:-0.244091 2:-0.239892 3:-0.739779 4:-0.196725 
32768 32768 0 1:-0.303942 2:-0.287675 3:-0.777037 4:-0.258239 
32768 32768 0 1:-0.416913 2:-0.470525 3:-0.84582 4:-0.358268 
32768 0 0 1:-0.394079 2:-0.521788 3:-0.839513 4:-0.322431 
32768 0 0 1:-0.177686 2:-0.232949 3:-0.701058 4:-0.120074 
32768 6445.548151693172 0 1:-0.216177 2:-0.177912 3:-0.716445 4:-0.177003 
32768 0 0 1:-0.265102 2:-0.462711 3:-0.773881 4:-0.178014 
32768 0 0 1:-0.351543 2:-0.466969 3:-0.81647 4:-0.280417 
32768 0 0 1:-0.472008 2:-0.55369 3:-0.873452 4:-0.410176 
32768 0 0 1:-0.167434 2:-0.267887 3:-0.699411 4:-0.0997746 
32768 0 0 1:-0.0447256 2:-0.255485 3:-0.620598 4:0.042632 
32768 0 0 1:-0.155038 2:-0.372007 3:-0.70438 4:-0.0643378 
32768 0 0 1:-0.39216 2:-0.396781 3:-0.829433 4:-0.341384 
32768 32768 0 1:-0.56949 2:-0.664973 3:-0.913205 4:-0.510873 
32768 0 0 1:-0.443125 2:-0.305045 3:-0.84422 4:-0.418254 
32768 0 0 1:-0.458061 2:-0.301879 3:-0.850352 4:-0.436389 
32768 32768 0 1:-0.510635 2:-0.595052 3:-0.890065 4:-0.450318 
32768 0 0 1:-0.394891 2:-0.437271 3:-0.833831 4:-0.337424 
32768 0 0 1:-0.328011 2:-0.444046 3:-0.803551 4:-0.256184 
32768 0 0 1:-0.292894 2:-0.535205 3:-0.793694 4:-0.198862 
32768 0 0 1:-0.212892 2:-0.511477 3:-0.75057 4:-0.106956 
32768 32768 0 1:-0.5848 2:-0.579242 3:-0.914546 4:-0.540774 
32768 0 0 1:-0.633408 2:-0.671866 3:-0.932811 4:-0.586496 
32768 32768 0 1:-0.552334 2:-0.642379 3:-0.906673 4:-0.49327 
32768 0 0 1:-0.523688 2:-0.646391 3:-0.897079 4:-0.458552 
32768 32768 0 1:-0.684694 2:-0.826549 3:-0.950506 4:-0.630677 
32768 0 0 1:-0.375852 2:-0.654021 3:-0.839607 4:-0.280122 
32768 32768 0 1:0.328055 2:-0.255483 3:-0.332994 4:0.48894 
0 0 2.458953762923896 1:0.729151 2:0.0823336 3:0.165043 4:0.878458 
32768 32768 0 1:-0.113416 2:0.138428 3:-0.600553 4:-0.126329 
29637.91227849498 13263.56399638733 0 1:0.332059 2:0.231096 3:-0.209175 4:0.370962 
32768 32768 0 1:-0.537321 2:-0.760898 3:-0.90611 4:-0.460138 
32768 32768 0 1:-0.740541 2:-0.769014 3:-0.96224 4:-0.703546 
32768 0 0 1:-0.738209 2:-0.745278 3:-0.961232 4:-0.703283 
32768 0 0 1:-0.706551 2:-0.702826 3:-0.95293 4:-0.67029 
32768 32768 0 1:-0.734513 2:-0.760446 3:-0.960748 4:-0.697207 
32768 32768 0 1:-0.397719 2:-0.670217 3:-0.849803 4:-0.303813 
0 32768 0 1:-0.531489 2:-0.801417 3:-0.905426 4:-0.44894 
32768 32768 0 1:-0.51686 2:-0.631605 3:-0.894022 4:-0.451843 
32768 0 0 1:-0.0601623 2:-0.215059 3:-0.624964 4:0.0170199 
32768 0 0 1:-0.457063 2:-0.631265 3:-0.871806 4:-0.380717 
32768 0 0 1:-0.360663 2:-0.413556 3:-0.816433 4:-0.300898 
32768 0 0 1:-0.17549 2:-0.341521 3:-0.712878 4:-0.0940626 
32768 0 0 1:-0.280542 2:-0.400591 3:-0.776213 4:-0.206396 
32768 0 0 1:-0.626562 2:-0.596667 3:-0.928091 4:-0.588371 
32768 0 0 1:-0.714671 2:-0.670496 3:-0.953995 4:-0.683848 
32768 32768 0 1:-0.555358 2:-0.54328 3:-0.903137 4:-0.511529 
32768 0 0 1:-0.106504 2:-0.232745 3:-0.657465 4:-0.0351304 
32768 0 0 1:0.0491532 2:-0.286145 3:-0.560291 4:0.161493 
32768 0 0 1:-0.216152 2:-0.482044 3:-0.749733 4:-0.116521 
32768 0 0 1:-0.421211 2:-0.61048 3:-0.856383 4:-0.340797 
32768 0 0 1:-0.377375 2:-0.544734 3:-0.833735 4:-0.298598 
32768 0 0 1:-0.123942 2:-0.296424 3:-0.676669 4:-0.0425755 
32768 3419.833408283583 0 1:-0.105879 2:-0.230116 3:-0.656655 4:-0.0343992 
32768 0 0 1:-0.430665 2:-0.345109 3:-0.842203 4:-0.395612 
32768 0 0 1:-0.450971 2:-0.450327 3:-0.858628 4:-0.400102 
32768 32768 0 1:-0.63265 2:-0.731688 3:-0.934483 4:-0.578269 
32768 32768 0 1:-0.487124 2:-0.522273 3:-0.877449 4:-0.433291 
32768 0 0 1:-0.147066 2:-0.403907 3:-0.703115 4:-0.0480282 
32768 0 0 1:-0.0429049 2:-0.43226 3:-0.642181 4:0.0818874 
32768 32768 0 1:0.04759 2:-0.225759 3:-0.552079 4:0.146617 
32768 32768 0 1:-0.646867 2:-0.767426 3:-0.939388 4:-0.591269 
32768 32768 32768 1:-0.587239 2:-0.674711 3:-0.919177 4:-0.530149 
32768 0 0 1:-0.470024 2:-0.569881 3:-0.873579 4:-0.404469 
32768 0 0 1:-0.647863 2:-0.664334 3:-0.936614 4:-0.60482 
32768 32768 0 1:-0.714025 2:-0.773005 3:-0.956384 4:-0.67131 
32768 32768 0 1:-0.605811 2:-0.610836 3:-0.922429 4:-0.56187 
32768 32768 0 1:-0.537573 2:-0.536766 3:-0.896683 4:-0.49123 
32768 0 0 1:-0.422194 2:-0.391737 3:-0.84226 4:-0.378054 
32768 0 0 1:-0.422079 2:-0.424401 3:-0.844686 4:-0.372419 
32768 0 0 1:-0.61777 2:-0.659559 3:-0.927867 4:-0.569453 
32768 32768 0 1:-0.656755 2:-0.727891 3:-0.940971 4:-0.60761 
32768 0 0 1:-0.645319 2:-0.638827 3:-0.935041 4:-0.605244 
32768 0 0 1:-0.657644 2:-0.610043 3:-0.937437 4:-0.623619 
32768 0 0 1:-0.671121 2:-0.680279 3:-0.943386 4:-0.630642 
32768 0 0 1:-0.118038 2:-0.397266 3:-0.685151 4:-0.0142914 
32768 0 0 1:0.0666399 2:-0.347404 3:-0.55679 4:0.196295 
32768 32017.4130950713 0 1:-0.12521 2:-0.352125 3:-0.684315 4:-0.0324114 
32768 0 0 1:-0.389478 2:-0.603808 3:-0.842681 4:-0.303661 
32768 0 0 1:-0.373418 2:-0.562674 3:-0.833157 4:-0.290845 
32768 32768 0 1:-0.519463 2:-0.732861 3:-0.899079 4:-0.442118 
32768 32768 0 1:-0.549011 2:-0.655375 3:-0.906112 4:-0.487639 
32768 0 0 1:-0.371178 2:-0.554525 3:-0.831638 4:-0.289558 
32768 0 0 1:-0.171139 2:-0.492063 3:-0.725861 4:-0.0604584 
32768 32768 0 1:-0.197595 2:-0.531146 3:-0.743994 4:-0.085424 
32768 0 0 1:-0.390867 2:-0.658672 3:-0.846312 4:-0.297447 
32768 32768 0 1:-0.0929285 2:-0.345689 3:-0.663659 4:0.00731753 
32768 0 0 1:0.00322811 2:-0.430887 3:-0.611693 4:0.137441 
0 32768 0 1:-0.311534 2:-0.551131 3:-0.803893 4:-0.218077 
32768 0 0 1:-0.0903728 2:-0.428591 3:-0.671717 4:0.0245787 
32768 0 0 1:-0.107283 2:-0.429672 3:-0.682192 4:0.0044554 
32768 0 0 1:-0.019291 2:-0.374523 3:-0.619768 4:0.0986414 
32768 201.7327438466841 0 1:0.515911 2:-0.158319 3:-0.135471 4:0.688538 
32768 0 0 1:0.684961 2:-0.142638 3:0.0459882 4:0.885971 
32768 0 0 1:0.235464 2:-0.172555 3:-0.396157 4:0.35715 
32768 0 0 1:0.0114564 2:-0.37963 3:-0.599738 4:0.136462 
32768 0 0 1:0.00591581 2:-0.459215 3:-0.613185 4:0.145431 
32768 0 0 1:-0.0203954 2:-0.496224 3:-0.634691 4:0.120823 
32768 32768 0 1:0.100527 2:-0.348757 3:-0.532378 4:0.237108 
32768 0 0 1:0.0539152 2:-0.338126 3:-0.564485 4:0.178698 
32768 0 0 1:0.00100406 2:-0.299589 3:-0.596018 4:0.107148 
32768 32768 0 1:-0.0463093 2:-0.294603 3:-0.627106 4:0.0497777 
32768 0 0 1:-0.339057 2:-0.51375 3:-0.814184 4:-0.25788 
32768 32752.84338250032 0 1:-0.431361 2:-0.56444 3:-0.85789 4:-0.360143 
32768 0 0 1:-0.387778 2:-0.555111 3:-0.838956 4:-0.309403 
32768 0 0 1:-0.389029 2:-0.534214 3:-0.838151 4:-0.314169 
32768 0 32768 1:-0.540696 2:-0.64302 3:-0.902791 4:-0.478523 
32768 32768 0 1:-0.675999 2:-0.7594 3:-0.946828 4:-0.627164 
32768 32768 0 1:-0.500877 2:-0.681024 3:-0.890474 4:-0.425974 
32768 0 0 1:-0.484721 2:-0.6401 3:-0.882738 4:-0.412228 
32768 32768 0 1:-0.653897 2:-0.700734 3:-0.939413 4:-0.607496 
32768 0 0 1:-0.609582 2:-0.663117 3:-0.925548 4:-0.559223 
32768 0 0 1:-0.548084 2:-0.642823 3:-0.90524 4:-0.488376 
32768 0 0 1:-0.620324 2:-0.676771 3:-0.929214 4:-0.570278 
32768 0 0 1:-0.520449 2:-0.560298 3:-0.891833 4:-0.466647 
32768 32768 0 1:-0.411253 2:-0.546401 3:-0.848467 4:-0.337843 
32768 32768 0 1:-0.482831 2:-0.6701 3:-0.883404 4:-0.406256 
32768 0 0 1:-0.517123 2:-0.505437 3:-0.887635 4:-0.471907 
32768 32768 0 1:-0.290952 2:-0.258861 3:-0.767277 4:-0.248215 
32768 0 0 1:-0.0684436 2:-0.319977 3:-0.644884 4:0.0284534 
32768 0 0 1:-0.097233 2:-0.463462 3:-0.679661 4:0.0225812 
32768 0 0 1:-0.0142395 2:-0.410726 3:-0.62091 4:0.111912 
32768 0 0 1:-0.159044 2:-0.307957 3:-0.699332 4:-0.0802262 
32768 32768 0 1:-0.557534 2:-0.603769 3:-0.906742 4:-0.504983 
32768 0 0 1:-0.554116 2:-0.642751 3:-0.907278 4:-0.495407 
32768 32768 0 1:-0.563403 2:-0.616455 3:-0.909234 4:-0.510236 
32768 0 0 1:-0.533451 2:-0.612694 3:-0.898933 4:-0.475058 
32768 0 0 1:-0.503065 2:-0.645437 3:-0.88971 4:-0.433922 
32768 0 0 1:-0.636952 2:-0.667739 3:-0.933676 4:-0.5914 
32768 32768 0 1:-0.622802 2:-0.603172 3:-0.927237 4:-0.583147 
32768 0 0 1:-0.557753 2:-0.573044 3:-0.905396 4:-0.509863 
32768 0 0 1:-0.59102 2:-0.609758 3:-0.917823 4:-0.544213 
32768 0 0 1:-0.475186 2:-0.524039 3:-0.872962 4:-0.418767 
32768 0 0 1:-0.401349 2:-0.574479 3:-0.845987 4:-0.322634 
32768 0 0 1:-0.279095 2:-0.514316 3:-0.785227 4:-0.185872 
32768 0 0 1:-0.238405 2:-0.469728 3:-0.760565 4:-0.144851 
32768 0 0 1:-0.439578 2:-0.495037 3:-0.856962 4:-0.380838 
32768 0 0 1:-0.546654 2:-0.478775 3:-0.896725 4:-0.511299 
32768 0 0 1:-0.554892 2:-0.505205 3:-0.901007 4:-0.516935 
32768 29859.90438270264 0 1:-0.572187 2:-0.59008 3:-0.910957 4:-0.52448 
32768 0 0 1:-0.607589 2:-0.588383 3:-0.922 4:-0.56724 
32768 32768 0 1:-0.574335 2:-0.61028 3:-0.912527 4:-0.524317 
32768 31900.83462026744 0 1:-0.458651 2:-0.607106 3:-0.871176 4:-0.386314 
32768 32768 0 1:-0.606845 2:-0.625658 3:-0.923341 4:-0.560937 
32768 0 0 1:-0.649868 2:-0.669179 3:-0.937332 4:-0.60663 
32768 0 0 1:-0.568412 2:-0.448435 3:-0.902553 4:-0.541871 
32768 0 0 1:-0.562009 2:-0.446693 3:-0.900252 4:-0.534645 
32768 32768 0 1:-0.606565 2:-0.691387 3:-0.925655 4:-0.551852 
32768 0 0 1:-0.532935 2:-0.647005 3:-0.90028 4:-0.469359 
32768 0 0 1:-0.52681 2:-0.628619 3:-0.897382 4:-0.464588 
32768 32768 0 1:-0.591398 2:-0.692505 3:-0.921103 4:-0.533585 
32768 32768 0 1:-0.471137 2:-0.266641 3:-0.852916 4:-0.45878 
32768 32768 0 1:-0.353955 2:-0.299552 3:-0.803098 4:-0.314665 
32768 0 0 1:-0.484366 2:-0.588362 3:-0.880042 4:-0.419796 
32768 0 0 1:-0.507846 2:-0.620956 3:-0.890306 4:-0.443174 
32768 0 0 1:-0.138778 2:-0.292945 3:-0.685358 4:-0.0601651 
32768 0 0 1:-0.54267 2:-0.53096 3:-0.898133 4:-0.498021 
32768 0 0 1:-0.445546 2:-0.582901 3:-0.864681 4:-0.374244 
32768 32768 0 1:-0.281427 2:-0.22448 3:-0.758384 4:-0.243435 
32768 0 0 1:0.0787569 2:-0.103496 3:-0.507792 4:0.15507 
32768 0 0 1:-0.145501 2:-0.105561 3:-0.663649 4:-0.107201 
32768 0 0 1:0.0375241 2:-0.32035 3:-0.573619 4:0.155007 
32768 0 0 1:-0.165399 2:-0.469197 3:-0.72045 4:-0.0579927 
32768 0 0 1:-0.135113 2:-0.525653 3:-0.708283 4:-0.0115316 
32768 32768 32768 1:-0.761308 2:-0.853933 3:-0.968077 4:-0.72023 
32768 0 0 1:-0.567266 2:-0.475945 3:-0.903679 4:-0.535363 
32768 32768 0 1:-0.31649 2:-0.500308 3:-0.8025 4:-0.232352 
32768 32768 0 1:-0.208908 2:-0.53996 3:-0.750851 4:-0.0974268 
32768 0 0 1:-0.279614 2:-0.517031 3:-0.785704 4:-0.186201 
32768 0 0 1:-0.300023 2:-0.585536 3:-0.800743 4:-0.199458 
32768 0 0 1:-0.139184 2:-0.540878 3:-0.712 4:-0.0137533 
0 32768 0 1:-0.195054 2:-0.537352 3:-0.743128 4:-0.0810918 
32768 0 0 1:-0.261278 2:-0.484362 3:-0.773772 4:-0.170011 
32768 0 0 1:-0.281931 2:-0.447016 3:-0.78107 4:-0.201218 
32768 0 0 1:-0.397431 2:-0.521182 3:-0.840895 4:-0.326579 
32768 0 0 1:-0.484672 2:-0.552357 3:-0.878223 4:-0.425737 
32768 0 0 1:-0.698468 2:-0.698836 3:-0.950852 4:-0.660992 
32768 0 0 1:-0.749739 2:-0.714999 3:-0.963026 4:-0.720711 
32768 0 0 1:-0.673882 2:-0.702383 3:-0.94475 4:-0.631223 
32768 0 0 1:-0.725959 2:-0.71882 3:-0.957881 4:-0.691656 
32768 0 0 1:-0.735454 2:-0.724366 3:-0.960152 4:-0.702381 
32768 0 0 1:-0.704593 2:-0.733437 3:-0.953241 4:-0.664377 
32768 0 0 1:-0.760639 2:-0.691558 3:-0.964825 4:-0.736383 
32768 0 0 1:-0.77291 2:-0.704447 3:-0.967598 4:-0.749717 
0 32768 0 1:-0.336781 2:-0.761506 3:-0.82772 4:-0.219099 
32768 0 0 1:-0.431575 2:-0.637771 3:-0.862047 4:-0.348904 
32768 0 32768 1:-0.663709 2:-0.622366 3:-0.939528 4:-0.628322 
32768 32768 0 1:-0.747141 2:-0.766881 3:-0.963592 4:-0.711847 
18462.24656159374 0 0 1:-0.32307 2:0.100026 3:-0.738442 4:-0.349517 
0 13689.27145728096 0 1:-0.18821 2:0.017509 3:-0.671142 4:-0.174547 
32768 32768 0 1:-0.547291 2:-0.740704 3:-0.908741 4:-0.474556 
32768 32768 0 1:-0.665354 2:-0.737808 3:-0.943489 4:-0.616834 
32768 32768 0 1:-0.651563 2:-0.715159 3:-0.939217 4:-0.602893 
32768 0 0 1:-0.409151 2:-0.557135 3:-0.848215 4:-0.334422 
0 32768 0 1:-0.289809 2:-0.616612 3:-0.797874 4:-0.182236 
32768 0 0 1:-0.46505 2:-0.61488 3:-0.874063 4:-0.392648 
32768 0 0 1:-0.672608 2:-0.670046 3:-0.943444 4:-0.633564 
32768 32768 0 1:-0.783942 2:-0.795139 3:-0.971552 4:-0.753029 
32768 32768 32768 1:-0.80584 2:-0.825009 3:-0.976025 4:-0.776521 
32768 0 0 1:-0.672866 2:-0.664661 3:-0.943367 4:-0.634715 
32768 32768 0 1:-0.601178 2:-0.722965 3:-0.925082 4:-0.540914 
32768 32768 32768 1:-0.71979 2:-0.871722 3:-0.959546 4:-0.668859 
32768 32768 0 1:-0.625985 2:-0.765635 3:-0.933565 4:-0.566191 
32768 32768 0 1:-0.598768 2:-0.756031 3:-0.925386 4:-0.534693 
32768 32768 0 1:-0.612374 2:-0.791449 3:-0.930366 4:-0.547233 
32768 32768 0 1:-0.626965 2:-0.765406 3:-0.933826 4:-0.56759 
32768 0 32768 1:-0.498864 2:-0.670634 3:-0.889316 4:-0.424128 
32768 0 0 1:-0.390623 2:-0.636842 3:-0.845037 4:-0.300278 
32768 0 0 1:-0.163163 2:-0.40897 3:-0.713029 4:-0.0649336 
486.4959863997776 0 0 1:0.275008 2:-0.748718 3:-0.445111 4:0.515469 
32768 32768 0 1:-0.437922 2:-0.672415 3:-0.8663 4:-0.351976 
32768 0 0 1:-0.398574 2:-0.582412 3:-0.845297 4:-0.317927 
32768 32768 0 1:-0.393353 2:-0.683047 3:-0.848598 4:-0.297119 
0 32768 0 1:-0.32683 2:-0.688572 3:-0.819617 4:-0.216387 
0 32768 0 1:-0.326323 2:-0.779502 3:-0.823788 4:-0.204519 
0 25196.10740799327 0 1:-0.281576 2:-0.776527 3:-0.802792 4:-0.151004 
32768 32768 0 1:0.0113904 2:-0.659023 3:-0.62931 4:0.186052 
32768 32768 0 1:-0.451221 2:-0.694745 3:-0.872544 4:-0.365065 
32768 32768 0 1:-0.49666 2:-0.654384 3:-0.887792 4:-0.425086 
32768 0 0 1:-0.344422 2:-0.486157 3:-0.814589 4:-0.268659 
32768 32768 0 1:-0.0294773 2:-0.526295 3:-0.643685 4:0.115473 
32768 31718.12031731758 0 1:-0.0515953 2:-0.539536 3:-0.65902 4:0.0911931 
11402.24669620728 0 0 1:-0.227076 2:-0.562028 3:-0.762287 4:-0.115638 
32768 0 0 1:-0.35354 2:-0.518065 3:-0.821182 4:-0.27446 
32768 0 0 1:-0.236253 2:-0.367842 3:-0.749725 4:-0.161189 
32768 0 0 1:-0.178608 2:-0.409073 3:-0.721978 4:-0.0846861 
32768 32768 0 1:-0.289653 2:-0.515325 3:-0.790571 4:-0.198501 
32768 0 0 1:-0.190189 2:-0.467933 3:-0.73428 4:-0.0877279 
32768 0 0 1:-0.138148 2:-0.515136 3:-0.709081 4:-0.0170725 
32768 92.21926329211884 0 1:-0.0219366 2:-0.403633 3:-0.625107 4:0.103268 
32768 0 0 1:-0.213264 2:-0.510548 3:-0.750717 4:-0.107594 
32768 0 0 1:-0.157733 2:-0.511648 3:-0.720048 4:-0.0410238 
32768 0 0 1:-0.144623 2:-0.410386 3:-0.702445 4:-0.0440824 
32768 0 0 1:-0.0477673 2:-0.379197 3:-0.63897 4:0.0653084 
32768 0 0 1:-0.130609 2:-0.456747 3:-0.698996 4:-0.0185392 
32768 32768 0 1:-0.371214 2:-0.512875 3:-0.828811 4:-0.29618 
6946.053165812158 0 0 1:0.267061 2:0.200937 3:-0.279215 4:0.313271 
32768 32768 0 1:-0.595996 2:-0.648833 3:-0.920898 4:-0.544392 
32768 0 0 1:-0.514497 2:-0.485748 3:-0.88556 4:-0.471094 
8386.089428748724 0 0 1:0.544562 2:0.140567 3:-0.0214575 4:0.645157 
32768 0 0 1:-0.382361 2:-0.347755 3:-0.820862 4:-0.338166 
32768 0 0 1:-0.324315 2:-0.316744 3:-0.790239 4:-0.275217 
24403.73399464441 12206.68119401614 0 1:0.415083 2:0.0769621 3:-0.173365 4:0.519097 
32768 0 0 1:-0.493638 2:-0.474028 3:-0.877032 4:-0.4487 
32768 0 0 1:-0.440206 2:-0.607998 3:-0.863946 4:-0.363329 
0 32768 6447.781757032987 1:-0.398892 2:-0.699048 3:-0.851708 4:-0.301302 
32768 32768 0 1:-0.615926 2:-0.773725 3:-0.930915 4:-0.55343 
32768 0 0 1:-0.618082 2:-0.651437 3:-0.927667 4:-0.570877 
32768 0 0 1:-0.411963 2:-0.478581 3:-0.844273 4:-0.350666 
32768 0 0 1:-0.158977 2:-0.495686 3:-0.719289 4:-0.0453605 
32768 0 0 1:-0.320821 2:-0.445541 3:-0.800208 4:-0.247251 
32768 0 0 1:-0.6595 2:-0.664156 3:-0.939791 4:-0.61878 
32768 32768 0 1:-0.672178 2:-0.719993 3:-0.944807 4:-0.627109 
32768 32768 0 1:-0.594269 2:-0.731672 3:-0.923284 4:-0.532209 
32768 32768 0 1:-0.578804 2:-0.658841 3:-0.915919 4:-0.522927 
32768 0 0 1:-0.59093 2:-0.67188 3:-0.920187 4:-0.535841 
32768 0 0 1:-0.578114 2:-0.62298 3:-0.914262 4:-0.527058 
32768 32768 0 1:-0.55954 2:-0.623974 3:-0.908292 4:-0.504621 
32768 32768 0 1:-0.524209 2:-0.687688 3:-0.898981 4:-0.453663 
32768 0 0 1:-0.595838 2:-0.609785 3:-0.919323 4:-0.549981 
32768 0 0 1:-0.636382 2:-0.577426 3:-0.930191 4:-0.603096 
32768 3265.291547046733 0 1:-0.599793 2:-0.616536 3:-0.920824 4:-0.553903 
32768 0 0 1:-0.665688 2:-0.706277 3:-0.942719 4:-0.621029 
32768 32768 0 1:-0.640649 2:-0.701985 3:-0.935817 4:-0.591482 
32768 32768 0 1:-0.64394 2:-0.734357 3:-0.937689 4:-0.591541 
32768 32768 0 1:-0.704787 2:-0.749193 3:-0.953672 4:-0.662838 
32768 0 0 1:-0.694469 2:-0.702129 3:-0.949959 4:-0.655961 
32768 0 0 1:-0.688301 2:-0.658843 3:-0.947165 4:-0.653929 
32768 0 0 1:-0.682975 2:-0.642435 3:-0.945296 4:-0.64967 
32768 32768 32768 1:-0.696215 2:-0.843831 3:-0.953619 4:-0.642946 
32768 32768 0 1:-0.472816 2:-0.527714 3:-0.872266 4:-0.413682 
32768 32768 0 1:-0.674804 2:-0.806901 3:-0.947608 4:-0.620825 
32768 32768 0 1:-0.720419 2:-0.804615 3:-0.95849 4:-0.675805 
32768 32768 32768 1:-0.729998 2:-0.823899 3:-0.961002 4:-0.68535 
32768 32768 0 1:-0.727344 2:-0.786512 3:-0.959697 4:-0.685894 
32768 32768 0 1:-0.728543 2:-0.756921 3:-0.959343 4:-0.690416 
32768 32768 0 1:-0.71113 2:-0.813706 3:-0.956555 4:-0.663668 
32768 32768 0 1:-0.637561 2:-0.756675 3:-0.936555 4:-0.581196 
32768 32768 0 1:-0.619754 2:-0.756344 3:-0.931537 4:-0.559835 
32768 32768 0 1:-0.646222 2:-0.784392 3:-0.939647 4:-0.588642 
32768 0 0 1:-0.595917 2:-0.651818 3:-0.921009 4:-0.544055 
32768 0 0 1:-0.650386 2:-0.690593 3:-0.938145 4:-0.604432 
32768 32768 0 1:-0.56553 2:-0.657362 3:-0.911629 4:-0.506758 
32768 32768 0 1:-0.615927 2:-0.677745 3:-0.927957 4:-0.564533 
32768 32768 0 1:-0.741842 2:-0.782377 3:-0.962796 4:-0.703711 
32768 32768 0 1:-0.715551 2:-0.807778 3:-0.957448 4:-0.669614 
32768 32768 32768 1:-0.73937 2:-0.822555 3:-0.963016 4:-0.696703 
32768 32768 0 1:-0.688565 2:-0.738059 3:-0.94945 4:-0.644454 
32768 32768 0 1:-0.574974 2:-0.763962 3:-0.918346 4:-0.505291 
32768 32768 0 1:-0.533741 2:-0.69524 3:-0.902542 4:-0.464024 
32768 0 0 1:-0.446695 2:-0.422159 3:-0.854883 4:-0.402067 
32768 0 0 1:-0.431696 2:-0.403502 3:-0.847223 4:-0.387316 
32768 0 0 1:-0.604745 2:-0.547107 3:-0.919397 4:-0.56912 
32768 32768 0 1:-0.556055 2:-0.625329 3:-0.907193 4:-0.499423 
32768 32768 0 1:-0.72127 2:-0.797326 3:-0.958543 4:-0.677512 
32768 0 0 1:-0.75305 2:-0.756088 3:-0.964621 4:-0.720057 
32768 0 0 1:-0.783268 2:-0.752441 3:-0.970678 4:-0.756499 
32768 0 0 1:-0.746165 2:-0.737083 3:-0.962763 4:-0.713786 
32768 0 32768 1:-0.539715 2:-0.626735 3:-0.901753 4:-0.47926 
32768 0 0 1:-0.487396 2:-0.668803 3:-0.885055 4:-0.411757 
32768 0 0 1:-0.482959 2:-0.421695 3:-0.8695 4:-0.444536 
32768 0 0 1:-0.218133 2:-0.28691 3:-0.730944 4:-0.155695 
32768 32768 0 1:0.061639 2:-0.260573 3:-0.54738 4:0.170856 
32768 0 0 1:-0.13758 2:-0.192912 3:-0.671404 4:-0.0784897 
32768 0 0 1:-0.199917 2:-0.337962 3:-0.72636 4:-0.123706 
32768 0 0 1:-0.058329 2:-0.442079 3:-0.653156 4:0.0652503 
32768 0 0 1:-0.00148523 2:-0.287376 3:-0.595876 4:0.101414 
32768 0 0 1:0.061027 2:-0.316553 3:-0.556257 4:0.182177 
32768 19993.94344184477 0 1:-0.248027 2:-0.498197 3:-0.768088 4:-0.151059 
32768 0 0 1:-0.274116 2:-0.477763 3:-0.77974 4:-0.186085 
32768 0 0 1:-0.0470946 2:-0.442339 3:-0.645969 4:0.0786386 
32768 0 0 1:-0.280043 2:-0.365652 3:-0.772621 4:-0.213376 
32768 0 0 1:-0.474301 2:-0.594525 3:-0.876549 4:-0.406931 
32768 32768 0 1:-0.401597 2:-0.556423 3:-0.844994 4:-0.32578 
32768 0 0 1:-0.143959 2:-0.324133 3:-0.692284 4:-0.060539 
32768 32768 0 1:-0.600505 2:-0.695625 3:-0.923963 4:-0.543693 
32768 32768 0 1:-0.503424 2:-0.67929 3:-0.89131 4:-0.429812 
32768 0 0 1:-0.353257 2:-0.613811 3:-0.827361 4:-0.258608 
6809.491383349805 0 0 1:-0.295254 2:-0.708837 3:-0.805865 4:-0.176 
32768 32768 0 1:-0.498562 2:-0.68278 3:-0.88972 4:-0.423428 
32768 0 0 1:-0.37782 2:-0.585169 3:-0.836511 4:-0.292613 
32768 0 0 1:-0.152103 2:-0.516298 3:-0.717243 4:-0.0334493 
32768 0 0 1:0.310705 2:0.174571 3:-0.245892 4:0.35558 
23270.69079620791 977.6202543214667 241.2648947613986 1:-0.070819 2:0.543758 3:-0.476054 4:-0.146172 
32768 32768 27563.7673345296 1:-0.740719 2:-0.82331 3:-0.963299 4:-0.698421 
32768 32768 9036.807639898941 1:-0.60786 2:-0.681322 3:-0.925692 4:-0.554296 
-32768 0 0 1:-0.668031 2:-0.715225 3:-0.943597 4:-0.622682 
-32768 32768 0 1:-0.702463 2:-0.7591 3:-0.95334 4:-0.65902 
-32768 32768 0 1:-0.33651 2:-0.474828 3:-0.810061 4:-0.261832 
-32768 0 0 1:-0.329049 2:-0.480822 3:-0.806971 4:-0.251862 
-32768 0 0 1:-0.287205 2:0.189039 3:-0.703468 4:-0.325838 
-32768 32768 32768 1:-0.732407 2:-0.605239 3:-0.956273 4:-0.712991 
-29980.73581477748 32768 3483.357077138281 1:-0.732675 2:-0.593162 3:-0.955943 4:-0.714963 
-5301.931716148963 0 0 1:-0.500389 2:-0.555662 3:-0.884274 4:-0.444063 
-32768 0 0 1:-0.261148 2:-0.40492 3:-0.766603 4:-0.184682 
-32768 0 0 1:-0.531446 2:-0.63902 3:-0.899455 4:-0.468811 
-32768 32768 8273.509793302133 1:-0.551086 2:-0.661363 3:-0.907042 4:-0.489018 
-32768 32768 0 1:-0.445642 2:-0.514794 3:-0.860449 4:-0.384649 
-0 32768 0 1:-0.32888 2:-0.128036 3:-0.771326 4:-0.319335 
-17605.13818066482 0 0 1:-0.563873 2:-0.560383 3:-0.906832 4:-0.518968 
-32768 0 0 1:-0.196079 2:-0.29519 3:-0.719389 4:-0.127981 
-32768 0 0 1:-0.311908 2:-0.205559 3:-0.772161 4:-0.280698 
-32768 0 0 1:-0.688202 2:-0.610251 3:-0.945582 4:-0.6603 
-32768 32768 0 1:-0.744507 2:-0.784732 3:-0.963413 4:-0.706685 
-32768 0 0 1:-0.670626 2:-0.599784 3:-0.94053 4:-0.640745 
-4195.305337116128 0 0 1:0.21661 2:-0.0577142 3:-0.388095 4:0.307355 
-32768 0 0 1:-0.654009 2:-0.630502 3:-0.937166 4:-0.616615 
-32768 32768 32768 1:-0.586642 2:-0.622142 3:-0.916907 4:-0.536674 
-32768 0 0 1:-0.642735 2:-0.649841 3:-0.934677 4:-0.600564 
-32768 0 0 1:-0.751129 2:-0.71792 3:-0.963387 4:-0.722095 
-32768 0 0 1:-0.72517 2:-0.738046 3:-0.958155 4:-0.688546 
-32768 32768 0 1:-0.630095 2:-0.709873 3:-0.933103 4:-0.577848 
-32768 0 0 1:-0.669851 2:-0.724898 3:-0.944302 4:-0.623918 
-32768 32768 0 1:-0.674374 2:-0.7727 3:-0.946682 4:-0.624019 
-0 32768 0 1:-0.78618 2:-0.804587 3:-0.972137 4:-0.754722 
-32768 32768 0 1:-0.727614 2:-0.803461 3:-0.960096 4:-0.684496 
-0 23516.34580716217 0 1:-0.73014 2:-0.776025 3:-0.960061 4:-0.690574 
-32768 0 0 1:-0.790662 2:-0.740836 3:-0.971871 4:-0.766676 
-32768 0 0 1:-0.753399 2:-0.712389 3:-0.963779 4:-0.725194 
-7654.879896367042 0 0 1:-0.153677 2:-0.176459 3:-0.678972 4:-0.102324 
-23676.42604142244 0 0 1:-0.107255 2:-0.213485 3:-0.655031 4:-0.0398256 
-32768 0 0 1:-0.448418 2:-0.533595 3:-0.86294 4:-0.385547 
-32768 32768 0 1:-0.31289 2:-0.46964 3:-0.79833 4:-0.23394 
-32768 32768 0 1:-0.235363 2:-0.517796 3:-0.763096 4:-0.13281 
-32768 0 0 1:-0.461133 2:-0.526086 3:-0.867554 4:-0.40158 
-32768 0 0 1:-0.418926 2:-0.416573 3:-0.842716 4:-0.370014 
-32768 0 0 1:-0.42388 2:-0.508329 3:-0.851281 4:-0.360436 
-32768 32768 0 1:-0.631498 2:-0.719218 3:-0.933781 4:-0.578386 
-32768 7364.283190431433 0 1:-0.29279 2:-0.303747 3:-0.773006 4:-0.23698 
-32768 0 0 1:0.036864 2:-0.441432 3:-0.590004 4:0.179054 
-32768 0 0 1:-0.178863 2:-0.334548 3:-0.714039 4:-0.0998506 
-32768 0 0 1:-0.40439 2:-0.615429 3:-0.849368 4:-0.320838 
-32768 0 0 1:-0.316716 2:-0.604361 3:-0.809732 4:-0.217088 
-32768 32768 0 1:-0.274956 2:-0.567817 3:-0.787125 4:-0.172426 
-32768 32768 0 1:-0.219604 2:-0.50152 3:-0.753369 4:-0.116991 
-32768 32768 0 1:-0.241908 2:-0.514453 3:-0.766197 4:-0.141543 
-32768 24487.12825125311 0 1:0.490729 2:-0.234312 3:-0.177668 4:0.676515 
-32768 0 0 1:0.378423 2:-0.188094 3:-0.273409 4:0.530285 
-32768 0 0 1:0.191364 2:-0.328577 3:-0.459573 4:0.339785 
-32768 0 0 1:0.187949 2:-0.418585 3:-0.476178 4:0.355334 
-32768 0 0 1:-0.487447 2:-0.602723 3:-0.881916 4:-0.421497 
-32768 0 0 1:-0.466817 2:-0.623228 3:-0.875088 4:-0.393954 
-32768 0 0 1:-0.275713 2:-0.369632 3:-0.770535 4:-0.208526 
-32768 26379.22527473627 0 1:0.365821 2:-0.275808 3:-0.303396 4:0.537229 
-32768 0 0 1:-0.0336345 2:-0.34517 3:-0.625404 4:0.0753602 
-32768 0 0 1:-0.308548 2:-0.398833 3:-0.790073 4:-0.242345 
-32768 0 0 1:-0.248195 2:-0.528416 3:-0.770031 4:-0.148039 
-32768 0 0 1:-0.172921 2:-0.52143 3:-0.729362 4:-0.0580056 
-32768 0 0 1:-0.108167 2:-0.439764 3:-0.683813 4:0.00509452 
-32768 0 0 1:0.165193 2:-0.486511 3:-0.5024 4:0.341046 
-32768 0 0 1:0.29568 2:0.237144 3:-0.241753 4:0.328204 
-32768 0 0 1:-0.48027 2:-0.535754 3:-0.87561 4:-0.423028 
-32768 32768 0 1:-0.481031 2:-0.665046 3:-0.88247 4:-0.405015 
-32768 32768 0 1:-0.544651 2:-0.714848 3:-0.906725 4:-0.475501 
-32768 32768 0 1:-0.577483 2:-0.707268 3:-0.917137 4:-0.515634 
-32768 32768 0 1:-0.572162 2:-0.727551 3:-0.916305 4:-0.50623 
-32768 32768 0 1:-0.601195 2:-0.719854 3:-0.92498 4:-0.542008 
-32768 0 0 1:-0.690151 2:-0.735387 3:-0.949776 4:-0.646803 
-32768 0 0 1:-0.682897 2:-0.726394 3:-0.947707 4:-0.639269 
-32768 0 0 1:-0.71974 2:-0.766822 3:-0.957558 4:-0.678874 
-32768 0 0 1:-0.695195 2:-0.699389 3:-0.950069 4:-0.657118 
-32768 0 0 1:-0.751952 2:-0.667028 3:-0.96236 4:-0.7288 
-32768 32768 32768 1:-0.807636 2:-0.819777 3:-0.976277 4:-0.779096 
-32768 32768 32768 1:-0.838343 2:-0.800399 3:-0.981125 4:-0.817812 
-32768 32768 32768 1:-0.836563 2:-0.756356 3:-0.980171 4:-0.8202 
-32768 0 0 1:-0.693927 2:-0.751166 3:-0.951074 4:-0.649722 
-32768 0 0 1:-0.704676 2:-0.73356 3:-0.953267 4:-0.664478 
-32768 32768 0 1:-0.621614 2:-0.704546 3:-0.930504 4:-0.568356 
-32768 32768 0 1:-0.590607 2:-0.718866 3:-0.921738 4:-0.529437 
-32768 0 0 1:-0.494246 2:-0.574438 3:-0.883004 4:-0.433447 
-32768 0 0 1:-0.456675 2:-0.437565 3:-0.860001 4:-0.410973 
-32768 0 0 1:-0.497418 2:-0.527101 3:-0.881562 4:-0.444931 
-0 32768 0 1:-0.570487 2:-0.693995 3:-0.91445 4:-0.508936 
-32768 32768 0 1:-0.581728 2:-0.717584 3:-0.918977 4:-0.518889 
-32768 32768 0 1:-0.66922 2:-0.761265 3:-0.945135 4:-0.61884 
-32768 32768 0 1:-0.572408 2:-0.686085 3:-0.914861 4:-0.511914 
-32768 32768 0 1:-0.634266 2:-0.726086 3:-0.934678 4:-0.581292 
-32768 0 0 1:-0.49792 2:-0.567474 3:-0.883934 4:-0.43938 
-32768 0 0 1:-0.11324 2:-0.400712 3:-0.682627 4:-0.00845448 
-32768 0 0 1:-0.661142 2:-0.705006 3:-0.941487 4:-0.6157 
-32768 0 0 1:-0.681554 2:-0.69448 3:-0.9465 4:-0.641444 
-32768 0 0 1:-0.677313 2:-0.730236 3:-0.946409 4:-0.632094 
-23165.11054539901 0 0 1:-0.694061 2:-0.714247 3:-0.950191 4:-0.654033 
-32768 0 0 1:-0.61032 2:-0.563922 3:-0.921853 4:-0.573819 
-32768 0 0 1:-0.636974 2:-0.52384 3:-0.928047 4:-0.611533 
-32768 0 0 1:-0.693911 2:-0.69619 3:-0.949646 4:-0.6561 
-24864.24199652056 0 0 1:-0.705461 2:-0.755185 3:-0.953919 4:-0.663235 
-32768 0 0 1:-0.644704 2:-0.623021 3:-0.934256 4:-0.60661 
-32768 0 0 1:-0.514539 2:-0.628884 3:-0.893043 4:-0.450185 
-32768 0 0 1:-0.645786 2:-0.61496 3:-0.934319 4:-0.608822 
-32768 0 0 1:-0.550287 2:-0.627836 3:-0.905351 4:-0.493116 
-32768 0 0 1:-0.641102 2:-0.662378 3:-0.93467 4:-0.597039 
-32768 32768 0 1:-0.649166 2:-0.729572 3:-0.938872 4:-0.598842 
-32768 0 0 1:-0.536083 2:-0.629981 3:-0.900642 4:-0.47571 
-32768 0 0 1:-0.517943 2:-0.623061 3:-0.894001 4:-0.455044 
-32768 0 0 1:-0.497611 2:-0.573061 3:-0.884165 4:-0.43795 
-32768 0 0 1:-0.451336 2:-0.558016 3:-0.865519 4:-0.385289 
-32768 0 0 1:-0.472716 2:-0.606579 3:-0.876565 4:-0.403293 
-32768 0 0 1:-0.691443 2:-0.73754 3:-0.950144 4:-0.648206 
-32768 0 0 1:-0.669103 2:-0.716669 3:-0.943924 4:-0.623828 
-32768 32768 0 1:-0.624906 2:-0.711812 3:-0.931685 4:-0.571366 
-32768 32768 0 1:-0.514968 2:-0.643379 3:-0.893883 4:-0.448334 
-32768 32768 0 1:-0.512995 2:-0.67365 3:-0.894498 4:-0.441992 
-32768 32768 0 1:-0.585882 2:-0.805758 3:-0.922886 4:-0.513981 
-3453.408385223989 0 0 1:-0.00428571 2:0.706918 3:-0.37038 4:-0.122288 
-32768 32768 0 1:-0.219762 2:-0.292874 3:-0.732398 4:-0.154833 
-32768 32768 0 1:-0.357299 2:-0.450495 3:-0.81784 4:-0.290532 
-32768 0 0 1:-0.738488 2:-0.683689 3:-0.959838 4:-0.710893 
-32768 32768 32768 1:-0.812559 2:-0.819497 3:-0.977134 4:-0.785002 
-32768 32768 32768 1:-0.824519 2:-0.822122 3:-0.979196 4:-0.799104 
-32768 32768 0 1:-0.805811 2:-0.791771 3:-0.975539 4:-0.779541 
-0 32768 0 1:-0.761032 2:-0.790494 3:-0.966957 4:-0.725989 
-32768 0 10003.38119077475 1:-0.389855 2:-0.316704 3:-0.821586 4:-0.348387 
-32768 32768 0 1:-0.238914 2:-0.457552 3:-0.75977 4:-0.147152 
-32768 32768 0 1:-0.412644 2:-0.618783 3:-0.85331 4:-0.32938 
-32768 32768 0 1:-0.329753 2:-0.673423 3:-0.820095 4:-0.222124 
-29201.3234402566 0 0 1:-0.291426 2:-0.54441 3:-0.792927 4:-0.197276 
-32768 0 0 1:-0.521766 2:-0.615074 3:-0.894994 4:-0.460731 
-32768 0 0 1:-0.459159 2:-0.625128 3:-0.8722 4:-0.384521 
-32768 32768 0 1:-0.345996 2:-0.633949 3:-0.82519 4:-0.247304 
-32768 32768 8415.356258808049 1:-0.392893 2:-0.660171 3:-0.847172 4:-0.299623 
-32768 32768 0 1:-0.500987 2:-0.66278 3:-0.889687 4:-0.429283 
-32768 32768 0 1:-0.511257 2:-0.668163 3:-0.89364 4:-0.440743 
-32768 0 0 1:-0.635609 2:-0.629451 3:-0.93196 4:-0.594857 
-32768 0 0 1:-0.663362 2:-0.681073 3:-0.941363 4:-0.621346 
-32768 0 0 1:-0.654601 2:-0.696059 3:-0.939453 4:-0.609023 
-32768 32768 0 1:-0.708255 2:-0.772706 3:-0.955032 4:-0.664433 
-32768 0 0 1:-0.408093 2:-0.569551 3:-0.84855 4:-0.331498 
-32768 32768 0 1:-0.6149 2:-0.737198 3:-0.929445 4:-0.556877 
-32768 32768 0 1:-0.64134 2:-0.738835 3:-0.937101 4:-0.587863 
-32768 0 0 1:-0.364466 2:-0.495026 3:-0.824313 4:-0.292002 
-32768 32768 0 1:-0.658594 2:-0.778994 3:-0.942695 4:-0.604629 
-32768 32768 0 1:-0.624228 2:-0.747567 3:-0.932561 4:-0.566353 
-18659.46012628504 0 0 1:-0.08558 2:0.489593 3:-0.501098 4:-0.159412 
-32768 0 0 1:-0.399272 2:-0.617299 3:-0.84754 4:-0.313557 
-32768 32768 0 1:-0.359878 2:-0.673271 3:-0.833498 4:-0.258694 
-32768 30003.33910864862 0 1:-0.251471 2:-0.773237 3:-0.78787 4:-0.115391 
-32768 32768 0 1:-0.461766 2:-0.47839 3:-0.864843 4:-0.410113 
-32768 14753.64178032214 0 1:-0.469607 2:-0.484562 3:-0.868306 4:-0.418616 
-32768 32768 0 1:-0.342924 2:-0.428923 3:-0.809388 4:-0.276346 
-32768 32768 0 1:-0.262783 2:-0.491153 3:-0.774941 4:-0.170651 
-32768 0 0 1:-0.361381 2:-0.44933 3:-0.819501 4:-0.295948 
-32768 0 0 1:-0.314453 2:-0.456466 3:-0.797962 4:-0.2388 
-32768 0 0 1:-0.452924 2:-0.578573 3:-0.867346 4:-0.383926 
-32768 0 0 1:-0.326226 2:-0.418944 3:-0.800586 4:-0.259515 
-32768 12559.98004800898 0 1:-0.226919 2:0.0241022 3:-0.693659 4:-0.229602 
-9674.442517744041 0 0 1:-0.453782 2:0.110437 3:-0.805759 4:-0.50909 
-32768 0 0 1:-0.664039 2:-0.711792 3:-0.942447 4:-0.61838 
-32768 32768 0 1:-0.683203 2:-0.752238 3:-0.948464 4:-0.636647 
-32768 0 0 1:-0.505408 2:-0.607084 3:-0.888765 4:-0.441948 
-32768 0 0 1:-0.141834 2:-0.603145 3:-0.718095 4:-0.00745627 
-32768 0 0 1:-0.119737 2:-0.604855 3:-0.70567 4:0.0193566 
-32768 0 0 1:-0.0410438 2:-0.350309 3:-0.631024 4:0.0680499 
-32768 0 0 1:0.409381 2:-0.454554 3:-0.295775 4:0.628543 
-32768 0 0 1:0.26341 2:-0.46958 3:-0.423351 4:0.456811 
-32768 0 0 1:-0.233617 2:-0.476949 3:-0.758677 4:-0.138001 
-32768 0 0 1:-0.244222 2:-0.464013 3:-0.762791 4:-0.154074 
-32768 0 0 1:-0.14356 2:-0.463006 3:-0.707249 4:-0.0329269 
-32768 0 0 1:-0.154671 2:-0.457978 3:-0.713181 4:-0.0473182 
-32768 0 0 1:-0.265676 2:-0.473058 3:-0.775069 4:-0.177328 
-32768 0 0 1:-0.291911 2:-0.525987 3:-0.792386 4:-0.199777 
-32768 32768 0 1:-0.204218 2:-0.503746 3:-0.745226 4:-0.0983833 
-32768 0 0 1:-0.156975 2:-0.473795 3:-0.716017 4:-0.0472257 
-32768 0 0 1:-0.317501 2:-0.523469 3:-0.804508 4:-0.230713 
-32768 0 0 1:-0.366261 2:-0.520562 3:-0.82701 4:-0.289748 
-32768 3551.6917226399 0 1:-0.288701 2:-0.470897 3:-0.786487 4:-0.205355 
-29724.21058353004 0 0 1:-0.223904 2:-0.381532 3:-0.744386 4:-0.144731 
-32768 0 0 1:-0.170485 2:-0.44856 3:-0.721288 4:-0.0681313 
-32768 16995.29281475081 0 1:-0.27118 2:-0.523815 3:-0.781641 4:-0.175913 
-32768 0 0 1:-0.236802 2:-0.481716 3:-0.760732 4:-0.141408 
-32768 0 0 1:-0.246905 2:-0.43551 3:-0.761947 4:-0.161989 
-32768 0 0 1:-0.42494 2:-0.584187 3:-0.856133 4:-0.350172 
-3319.355243856191 14761.32343482863 0 1:-0.0982314 2:0.210199 3:-0.575322 4:-0.108905 
-359.8753599407274 0 0 1:0.77659 2:0.0930507 3:0.224833 4:0.935261 
-32768 0 0 1:-0.686811 2:-0.682105 3:-0.947483 4:-0.649251 
-32768 0 0 1:-0.631919 2:-0.507456 3:-0.925876 4:-0.60773 
-32768 0 0 1:-0.580624 2:-0.479476 3:-0.908353 4:-0.551051 
-0 32768 0 1:-0.61763 2:-0.715616 3:-0.929555 4:-0.562799 
-32768 32768 0 1:-0.672748 2:-0.759218 3:-0.945962 4:-0.623425 
-32768 0 0 1:-0.751832 2:-0.725406 3:-0.963734 4:-0.721892 
-32768 0 0 1:-0.678846 2:-0.636875 3:-0.944046 4:-0.645448 
-0 32768 0 1:-0.766946 2:-0.788235 3:-0.968126 4:-0.73327 
-0 32768 0 1:-0.712739 2:-0.766061 3:-0.955873 4:-0.67082 
-32768 32768 0 1:-0.698255 2:-0.775437 3:-0.952714 4:-0.652138 
-32768 0 0 1:-0.275184 2:-0.361641 3:-0.769533 4:-0.208825 
-32768 32768 0 1:-0.712927 2:-0.79034 3:-0.956466 4:-0.668361 
-32768 0 0 1:-0.726508 2:-0.766733 3:-0.9591 4:-0.686994 
-32768 0 0 1:-0.693467 2:-0.752629 3:-0.950984 4:-0.649048 
-32768 0 0 1:-0.703779 2:-0.725662 3:-0.952854 4:-0.66432 
-32768 0 0 1:-0.787999 2:-0.752436 3:-0.97154 4:-0.762497 
-32768 0 0 1:-0.740178 2:-0.732383 3:-0.961366 4:-0.707012 
-32768 32768 0 1:-0.615404 2:-0.802836 3:-0.93153 4:-0.54967 
-32768 0 0 1:-0.64703 2:-0.637944 3:-0.935487 4:-0.607229 
-32768 0 0 1:-0.246472 2:-0.481747 3:-0.76558 4:-0.153414 
-32768 9669.662606991065 0 1:-0.354593 2:-0.47612 3:-0.81846 4:-0.282642 
-32768 0 0 1:-0.428556 2:-0.468833 3:-0.850627 4:-0.37213 
-32768 0 0 1:-0.35832 2:-0.516304 3:-0.823232 4:-0.280604 
-32768 32768 0 1:-0.0920609 2:-0.290012 3:-0.655913 4:-0.00457232 
-32768 0 0 1:-0.468195 2:-0.636906 3:-0.876363 4:-0.393404 
-32768 0 0 1:-0.501546 2:-0.636456 3:-0.888707 4:-0.433607 
-32768 0 0 1:-0.163539 2:-0.223337 3:-0.69138 4:-0.103993 
-32768 0 0 1:-0.229262 2:-0.16336 3:-0.722072 4:-0.191738 
-32768 32768 0 1:-0.55809 2:-0.685007 3:-0.910204 4:-0.494909 
-32768 0 0 1:-0.215909 2:-0.441619 3:-0.745709 4:-0.123952 
-32768 0 0 1:-0.157871 2:-0.394363 3:-0.708485 4:-0.0630093 
-32768 0 0 1:-0.249884 2:-0.417128 3:-0.761843 4:-0.168869 
-32768 0 0 1:-0.134625 2:-0.423741 3:-0.697843 4:-0.0296491 
-32768 0 0 1:0.5558 2:-0.175296 3:-0.0993099 4:0.740218 
-32768 0 0 1:0.196639 2:-0.0678226 3:-0.406943 4:0.287276 
-32768 0 0 1:-0.168844 2:-0.484948 3:-0.723863 4:-0.0593002 
-32768 32768 0 1:-0.249578 2:-0.53979 3:-0.772089 4:-0.14685 
-32768 0 0 1:-0.237255 2:-0.481236 3:-0.760797 4:-0.142194 
-32768 0 0 1:-0.254861 2:-0.488858 3:-0.770774 4:-0.161776 
-32768 14920.21680829989 0 1:-0.364374 2:-0.565537 3:-0.829319 4:-0.27974 
-32768 0 0 1:-0.17592 2:-0.306759 3:-0.709002 4:-0.101584 
-32768 0 0 1:-0.194958 2:-0.288392 3:-0.717925 4:-0.1275 
-32768 0 0 1:-0.243571 2:-0.274383 3:-0.743607 4:-0.188018 
-32768 0 0 1:-0.273571 2:-0.259647 3:-0.75818 4:-0.226235 
-32768 0 0 1:-0.350577 2:-0.493828 3:-0.817907 4:-0.275285 
-32768 0 0 1:-0.241447 2:-0.531898 3:-0.767024 4:-0.138901 
-32768 0 0 1:-0.268497 2:-0.483804 3:-0.777413 4:-0.178736 
-32768 0 0 1:-0.432034 2:-0.423213 3:-0.848824 4:-0.384306 
-32768 0 0 1:-0.494391 2:-0.603547 3:-0.884559 4:-0.429679 
-29076.50362958655 0 0 1:-0.556338 2:-0.645001 3:-0.908077 4:-0.498049 
-32768 32768 0 1:-0.559162 2:-0.65596 3:-0.909478 4:-0.499837 
-32768 0 0 1:-0.578272 2:-0.663847 3:-0.915963 4:-0.52166 
-0 32768 0 1:-0.550727 2:-0.578459 3:-0.903218 4:-0.500611 
-32768 0 0 1:-0.426506 2:-0.49616 3:-0.851592 4:-0.365358 
-32768 0 0 1:-0.513462 2:-0.491101 3:-0.885392 4:-0.469692 
-32768 0 0 1:-0.630025 2:-0.620148 3:-0.930005 4:-0.589324 
-32768 0 0 1:-0.636377 2:-0.608477 3:-0.931402 4:-0.598542 
-32768 0 0 1:-0.8014 2:-0.76473 3:-0.974261 4:-0.777215 
-32768 0 0 1:-0.761594 2:-0.6862 3:-0.9649 4:-0.738025 
-32768 0 0 1:-0.800803 2:-0.762244 3:-0.974148 4:-0.776543 
-32768 0 0 1:-0.803929 2:-0.776219 3:-0.974946 4:-0.778887 
-32768 0 0 1:-0.619911 2:-0.659 3:-0.928457 4:-0.571993 
-32768 0 0 1:-0.666643 2:-0.718508 3:-0.943323 4:-0.62071 
-32768 0 0 1:-0.168185 2:-0.360897 3:-0.71076 4:-0.0816434 
-32768 0 0 1:0.137567 2:-0.41685 3:-0.514047 4:0.294808 
-32768 0 0 1:-0.0784918 2:-0.422381 3:-0.663317 4:0.03707 
-32768 32768 0 1:-0.483427 2:-0.548272 3:-0.877485 4:-0.4251 
-32768 32768 0 1:-0.62815 2:-0.755102 3:-0.933889 4:-0.570193 
-32768 0 0 1:-0.277552 2:-0.0235806 3:-0.730608 4:-0.277401 
-32768 0 0 1:-0.428299 2:-0.608471 3:-0.859118 4:-0.349854 
-32768 0 0 1:-0.489362 2:-0.616717 3:-0.883331 4:-0.421701 
-32768 0 0 1:-0.426389 2:-0.572336 3:-0.856332 4:-0.353044 
-32768 32768 0 1:-0.74121 2:-0.81254 3:-0.963218 4:-0.70002 
-32768 32768 0 1:-0.790795 2:-0.79757 3:-0.972897 4:-0.760926 
-32768 32768 32768 1:-0.834501 2:-0.819857 3:-0.980796 4:-0.811292 
-32768 0 0 1:-0.736122 2:-0.642907 3:-0.958219 4:-0.712802 
-0 30058.84557972682 32768 1:-0.753543 2:-0.62702 3:-0.961673 4:-0.735415 
-32768 32768 32768 1:-0.843695 2:-0.786185 3:-0.981785 4:-0.825583 
-32768 0 0 1:-0.795478 2:-0.757899 3:-0.973091 4:-0.770592 
-32768 0 0 1:-0.690466 2:-0.631245 3:-0.94686 4:-0.660052 
-32768 0 0 1:-0.595087 2:-0.522945 3:-0.915232 4:-0.561383 
-0 0 3450.769630902825 1:-0.0493181 2:0.20985 3:-0.540007 4:-0.0596783 
-16704.19349532081 0 0 1:-0.140431 2:0.345804 3:-0.576916 4:-0.186515 
-32768 0 0 1:-0.596534 2:-0.532931 3:-0.916146 4:-0.561602 
-28407.95808231249 0 0 1:0.476071 2:0.101985 3:-0.104772 4:0.570149 
-0 2188.105615221489 0 1:-0.540883 2:-0.0938874 3:-0.866538 4:-0.570049 
-32768 32768 0 1:-0.603179 2:-0.530244 3:-0.918129 4:-0.569353 
-32768 32768 0 1:-0.564423 2:-0.558584 3:-0.906945 4:-0.519668 
-32768 32768 0 1:-0.520021 2:-0.483758 3:-0.887477 4:-0.477468 
-32768 32768 0 1:-0.594563 2:-0.511241 3:-0.914497 4:-0.561659 
-32768 32768 0 1:-0.656788 2:-0.578011 3:-0.936004 4:-0.626778 
-32768 0 0 1:-0.483046 2:-0.360851 3:-0.865224 4:-0.454678 
-4427.219409507095 0 0 1:0.426692 2:0.354125 3:-0.0741554 4:0.450004 
-32768 0 0 1:-0.390348 2:-0.248437 3:-0.815442 4:-0.36606 
-32768 0 0 1:-0.646448 2:-0.611354 3:-0.934374 4:-0.610252 
-32768 0 0 1:-0.471579 2:-0.412429 3:-0.864313 4:-0.432836 
-32768 0 0 1:-0.350533 2:-0.385656 3:-0.809345 4:-0.294223 
-32768 0 0 1:-0.545089 2:-0.621059 3:-0.903331 4:-0.487754 
-32768 0 0 1:-0.635346 2:-0.616357 3:-0.931401 4:-0.596245 
-32768 0 0 1:-0.452103 2:-0.413883 3:-0.856531 4:-0.409381 
-32768 0 0 1:-0.067259 2:-0.0400205 3:-0.601618 4:-0.0284313 
-27120.70205239037 0 0 1:0.284553 2:-0.127899 3:-0.344969 4:0.404476 
-0 13082.05935666979 0 1:-0.357629 2:-0.202097 3:-0.795019 4:-0.337521 
-32768 0 0 1:-0.51759 2:-0.515141 3:-0.888373 4:-0.470783 
-32768 0 0 1:0.136108 2:-0.160312 3:-0.474093 4:0.236109 
-31671.27175213166 0 0 1:-0.0757727 2:-0.364092 3:-0.655075 4:0.0288199 
-32768 32768 0 1:-0.569786 2:-0.674926 3:-0.913681 4:-0.509884 
-32768 32768 0 1:0.0957443 2:-0.185172 3:-0.509706 4:0.194226 
-32768 0 0 1:-0.265919 2:-0.452532 3:-0.77341 4:-0.181118 
-32768 0 0 1:-0.459482 2:-0.406282 3:-0.859008 4:-0.418871 
-18783.16451943266 0 0 1:-0.560209 2:-0.381384 3:-0.895659 4:-0.54284 
-29960.79416372742 0 0 1:-0.707885 2:-0.622685 3:-0.95093 4:-0.682087 
-32768 0 0 1:-0.700438 2:-0.630228 3:-0.949339 4:-0.672143 
-32768 0 0 1:-0.628449 2:-0.512567 3:-0.925076 4:-0.60312 
-32768 0 0 1:-0.694308 2:-0.656575 3:-0.948607 4:-0.661306 
-32768 32768 0 1:-0.634722 2:-0.719365 3:-0.934697 4:-0.58218 
-32768 0 0 1:-0.644825 2:-0.592018 3:-0.933179 4:-0.610919 
-32768 32768 0 1:-0.597426 2:-0.700969 3:-0.923233 4:-0.539703 
-32768 0 0 1:-0.650496 2:-0.717032 3:-0.938982 4:-0.601419 
-32768 0 0 1:-0.391238 2:-0.159961 3:-0.806877 4:-0.382441 
-32768 32768 0 1:-0.578418 2:-0.668995 3:-0.916201 4:-0.521024 
-32768 0 0 1:-0.676168 2:-0.718948 3:-0.945808 4:-0.632023 
-32768 32768 0 1:-0.696688 2:-0.787321 3:-0.952603 4:-0.648967 
-32768 0 0 1:-0.606447 2:-0.601588 3:-0.92226 4:-0.56388 
-0 32768 0 1:-0.328915 2:-0.227472 3:-0.783396 4:-0.299399 
-32768 0 0 1:-0.213405 2:-0.37125 3:-0.737575 4:-0.133889 
-32768 0 0 1:-0.0425549 2:-0.215793 3:-0.613302 4:0.0372357 
-32768 0 0 1:-0.540707 2:-0.638765 3:-0.90261 4:-0.480007 
-32768 0 0 1:-0.639534 2:-0.697578 3:-0.935356 4:-0.590672 
-32768 0 0 1:-0.32241 2:-0.484918 3:-0.80415 4:-0.242924 
-32768 0 0 1:-0.189256 2:-0.351864 3:-0.721938 4:-0.108846 
-32768 32768 0 1:0.0683907 2:-0.217643 3:-0.535618 4:0.169008 
-32768 32768 0 1:-0.0322738 2:-0.199562 3:-0.603914 4:0.0470376 
-32768 16839.8902054443 0 1:0.115539 2:-0.259291 3:-0.507329 4:0.234782 
-32768 0 0 1:0.111323 2:-0.408214 3:-0.532805 4:0.261723 
-32768 0 0 1:-0.140905 2:-0.433086 3:-0.702642 4:-0.0354244 
-32768 3794.139827517854 0 1:-0.48981 2:-0.522569 3:-0.878486 4:-0.436473 
-10182.04024569104 0 0 1:0.129288 2:-0.160441 3:-0.479565 4:0.227803 
-29810.7782559711 0 0 1:0.0970008 2:-0.415699 3:-0.544245 4:0.245948 
-32768 0 0 1:0.000703513 2:-0.408051 3:-0.610602 4:0.129259 
-32768 0 0 1:-0.11116 2:-0.402226 3:-0.68152 4:-0.00570284 
-32768 0 0 1:-0.0254718 2:-0.451454 3:-0.633064 4:0.106325 
-32768 32768 0 1:0.0949608 2:-0.23422 3:-0.518668 4:0.204594 
-32768 0 0 1:-0.275135 2:-0.287721 3:-0.762089 4:-0.221736 
-32768 32768 0 1:-0.460443 2:-0.549901 3:-0.868725 4:-0.397062 
-32768 32768 0 1:-0.505075 2:-0.517761 3:-0.883933 4:-0.455299 
-32768 0 0 1:-0.473758 2:-0.556493 3:-0.874284 4:-0.411835 
-32768 32768 0 1:-0.173481 2:-0.501921 3:-0.728075 4:-0.0616308 
-32768 0 0 1:-0.0569242 2:-0.272062 3:-0.630981 4:0.0323986 
-32768 0 0 1:-0.0140674 2:-0.129058 3:-0.579868 4:0.0524089 
-32768 32768 0 1:-0.684792 2:-0.775796 3:-0.949428 4:-0.635897 
-32768 32768 0 1:-0.685084 2:-0.771538 3:-0.949406 4:-0.63672 
-32768 0 22012.22964282201 1:-0.66047 2:-0.661653 3:-0.939972 4:-0.619948 
-32768 32768 0 1:-0.660705 2:-0.793126 3:-0.943703 4:-0.605145 
-32768 13255.23234806963 0 1:-0.537519 2:-0.622865 3:-0.9008 4:-0.478341 
-32768 32134.93042758428 0 1:-0.591941 2:-0.563705 3:-0.916118 4:-0.551867 
-32768 0 0 1:-0.514243 2:-0.567055 3:-0.889938 4:-0.458614 
-32768 0 0 1:-0.447383 2:-0.609705 3:-0.866897 4:-0.372346 
-32768 0 0 1:-0.434264 2:-0.558898 3:-0.85877 4:-0.364459 
-1308.652081640439 0 0 1:-0.28543 2:-0.0187564 3:-0.73422 4:-0.289229 
-32768 0 0 1:-0.621672 2:-0.682057 3:-0.929766 4:-0.571279 
-32768 32768 0 1:-0.630861 2:-0.71785 3:-0.933563 4:-0.577808 
-32768 0 0 1:-0.607758 2:-0.577407 3:-0.92165 4:-0.568698 
-32768 10310.80485114829 0 1:-0.276686 2:-0.181475 3:-0.750777 4:-0.244341 
-32768 32768 0 1:-0.522416 2:-0.56703 3:-0.892884 4:-0.468495 
-32768 0 0 1:-0.42071 2:-0.523135 3:-0.850955 4:-0.353881 
-32768 0 0 1:-0.392308 2:-0.570865 3:-0.841881 4:-0.312391 
-32768 0 0 1:-0.461872 2:-0.608412 3:-0.872491 4:-0.389919 
-32768 32768 0 1:-0.534173 2:-0.69232 3:-0.902554 4:-0.465107 
-32768 32768 0 1:-0.53323 2:-0.659362 3:-0.900934 4:-0.468197 
-32768 0 0 1:-0.500554 2:-0.573073 3:-0.885263 4:-0.441577 
-32768 32768 0 1:-0.327113 2:-0.528355 3:-0.809544 4:-0.241166 
-32768 0 0 1:0.211221 2:-0.109732 3:-0.403565 4:0.313294 
-32768 32768 0 1:-0.115982 2:-0.189608 3:-0.657365 4:-0.0528669 
-32768 32768 0 1:-0.572063 2:-0.705061 3:-0.915422 4:-0.509159 
-32768 32768 0 1:-0.508154 2:-0.701735 3:-0.893922 4:-0.43251 
-32768 30354.52304643651 0 1:-0.403693 2:-0.62485 3:-0.849901 4:-0.317622 
-32768 32768 0 1:-0.393103 2:-0.647705 3:-0.846663 4:-0.301674 
-32768 32768 0 1:-0.52671 2:-0.699945 3:-0.900337 4:-0.454897 
-32768 0 0 1:-0.478967 2:-0.441531 3:-0.869172 4:-0.436107 
-32768 0 0 1:-0.402068 2:-0.479615 3:-0.839978 4:-0.339181 
-32768 32768 0 1:-0.55696 2:-0.590239 3:-0.905934 4:-0.506279 
-32768 0 0 1:-0.483781 2:-0.42383 3:-0.869952 4:-0.445396 
-32768 0 0 1:-0.511206 2:-0.433166 3:-0.881112 4:-0.47582 
-32768 0 0 1:-0.60211 2:-0.663151 3:-0.923319 4:-0.550245 
-32768 32768 0 1:-0.519935 2:-0.666741 3:-0.896626 4:-0.451271 
-32768 32768 0 1:-0.599014 2:-0.671307 3:-0.92263 4:-0.545423 
-32768 32768 0 1:-0.670723 2:-0.754283 3:-0.945336 4:-0.621449 
-32768 0 0 1:0.0627148 2:-0.404206 3:-0.567321 4:0.202587 
-32768 0 0 1:-0.160887 2:-0.503142 3:-0.721062 4:-0.0464268 
-32768 0 0 1:-0.0775297 2:-0.454974 3:-0.666607 4:0.0446569 
-32768 0 0 1:-0.25252 2:-0.31933 3:-0.753416 4:-0.1903 
-32768 0 0 1:-0.124992 2:-0.369626 3:-0.68618 4:-0.0286786 
-32768 0 0 1:-0.771957 2:-0.757684 3:-0.968556 4:-0.742457 
-32768 0 0 1:-0.734914 2:-0.624979 3:-0.957434 4:-0.713892 
-32768 0 0 1:-0.428908 2:-0.29759 3:-0.837436 4:-0.399469 
-32768 0 0 1:-0.227787 2:-0.455951 3:-0.753702 4:-0.134697 
-32768 32768 0 1:-0.350864 2:-0.647325 3:-0.828248 4:-0.250988 
-32768 32768 32768 1:-0.536385 2:-0.661364 3:-0.902099 4:-0.471233 
-32768 0 0 1:-0.642262 2:-0.640259 3:-0.93423 4:-0.601229 
-32768 0 0 1:-0.311324 2:-0.0358031 3:-0.751068 4:-0.309578 
-32768 0 0 1:-0.331677 2:-0.0498187 3:-0.763853 4:-0.331903 
-32768 32768 32768 1:-0.898051 2:-0.834501 3:-0.989966 4:-0.886137 
-32768 32768 32768 1:-0.860759 2:-0.792325 3:-0.984464 4:-0.845208 
-32768 32768 32768 1:-0.553557 2:-0.45622 3:-0.897839 4:-0.518971 
-32768 0 0 1:-0.400077 2:-0.590649 3:-0.846425 4:-0.318429 
-32768 0 0 1:-0.428014 2:-0.611687 3:-0.859222 4:-0.348812 
-32768 32768 0 1:-0.409409 2:-0.692393 3:-0.855691 4:-0.315264 
-32768 32768 0 1:-0.460226 2:-0.694165 3:-0.87598 4:-0.375918 
-32768 32768 0 1:-0.591258 2:-0.53235 3:-0.914459 4:-0.555508 
-32768 0 0 1:-0.718954 2:-0.63695 3:-0.954041 4:-0.693372 
-32768 32768 0 1:-0.682701 2:-0.753272 3:-0.94837 4:-0.635812 
-32768 32768 0 1:-0.655825 2:-0.732845 3:-0.940858 4:-0.605994 
-32768 0 0 1:-0.638067 2:-0.665032 3:-0.933899 4:-0.592883 
-32768 32768 32768 1:-0.630142 2:-0.699995 3:-0.9328 4:-0.578482 
-32768 0 32768 1:-0.673496 2:-0.711524 3:-0.94492 4:-0.629206 
-32768 0 0 1:-0.692641 2:-0.665766 3:-0.948458 4:-0.658319 
-32768 0 0 1:-0.712241 2:-0.671247 3:-0.953432 4:-0.680925 
-32768 0 0 1:-0.650502 2:-0.608366 3:-0.935401 4:-0.615451 
-32768 32768 32768 1:-0.856189 2:-0.752455 3:-0.983225 4:-0.843834 
-32768 20305.1841670243 32768 1:-0.824379 2:-0.766191 3:-0.978359 4:-0.804277 
-32768 32768 0 1:-0.795632 2:-0.796928 3:-0.973772 4:-0.766802 
-32768 0 32768 1:-0.800315 2:-0.683068 3:-0.972538 4:-0.784575 
-32768 0 0 1:-0.513998 2:-0.367061 3:-0.877771 4:-0.488589 
-32768 32768 0 1:-0.197334 2:-0.501321 3:-0.741264 4:-0.0903964 
-32768 0 0 1:-0.206544 2:-0.360118 3:-0.732586 4:-0.127603 
-32768 0 0 1:-0.509124 2:-0.240006 3:-0.86628 4:-0.505685 
-0 32768 0 1:-0.780865 2:-0.816787 3:-0.971335 4:-0.747158 
-0 32768 32768 1:-0.78402 2:-0.820594 3:-0.971989 4:-0.750592 
-32768 32768 0 1:-0.724282 2:-0.76927 3:-0.958641 4:-0.683986 
-32768 32768 32768 1:-0.706179 2:-0.804983 3:-0.955231 4:-0.658571 
-32768 32768 32768 1:-0.651059 2:-0.461939 3:-0.929451 4:-0.632917 
-32768 32768 32768 1:-0.715865 2:-0.557944 3:-0.950785 4:-0.697564 
-32768 32768 32768 1:-0.544244 2:-0.691718 3:-0.905961 4:-0.476207 
-32768 32768 32768 1:-0.729595 2:-0.877822 3:-0.961806 4:-0.680125 
-32768 0 22984.29783028491 1:-0.805707 2:-0.774475 3:-0.975236 4:-0.781116 
-32768 32768 0 1:-0.798265 2:-0.787731 3:-0.974098 4:-0.770949 
-32768 32768 0 1:-0.746926 2:-0.801402 3:-0.964233 4:-0.7079 
-32768 32768 32768 1:-0.70873 2:-0.834889 3:-0.956395 4:-0.65882 
-32768 0 0 1:-0.277545 2:-0.203231 3:-0.753784 4:-0.236908 
-32768 32768 0 1:0.176379 2:-0.4093 3:-0.483885 4:0.341766 
-32076.73541392088 21351.06599669026 0 1:0.428888 2:-0.453477 3:-0.277969 4:0.651987 
-12977.44924523537 0 0 1:0.4721 2:-0.142968 3:-0.175062 4:0.632133 
-32768 0 0 1:0.679755 2:-0.301978 3:0.000406201 4:0.920064 
-0 216.3810357502717 0 1:0.274759 2:0.819229 3:-0.0574835 4:0.179931 
-0 0 105.9075797351408 1:-0.278713 2:0.919694 3:-0.542819 4:-0.450813 
-32768 0 32768 1:-0.812518 2:-0.753895 3:-0.976108 4:-0.791396 
-32768 32768 32768 1:-0.835823 2:-0.820522 3:-0.981 4:-0.812915 
-32768 0 0 1:-0.745227 2:-0.681861 3:-0.961261 4:-0.719089 
-32768 0 0 1:-0.733844 2:-0.66136 3:-0.958206 4:-0.707937 
-32768 32768 32768 1:-0.840474 2:-0.754811 3:-0.980809 4:-0.824862 
-0 2411.978339681763 0 1:-0.62706 2:-0.227945 3:-0.9087 4:-0.643671 
-32768 0 0 1:-0.636531 2:-0.509182 3:-0.92734 4:-0.612188 
-32768 32768 0 1:-0.562363 2:-0.545441 3:-0.905596 4:-0.518867 
-32768 32768 0 1:-0.607667 2:-0.693618 3:-0.926049 4:-0.552991 
-32768 32768 0 1:-0.631079 2:-0.571954 3:-0.928424 4:-0.596874 
-32768 0 0 1:-0.706725 2:-0.582842 3:-0.949349 4:-0.685637 
-32768 0 0 1:-0.623155 2:-0.505988 3:-0.923169 4:-0.597453 
-32768 0 0 1:-0.579495 2:-0.52934 3:-0.910504 4:-0.542176 
-32768 0 0 1:-0.706796 2:-0.700469 3:-0.952924 4:-0.670773 
-32768 0 0 1:-0.530921 2:-0.350721 3:-0.883028 4:-0.512212 
-32768 0 0 1:-0.534268 2:-0.353418 3:-0.884464 4:-0.515677 
-32768 32768 0 1:-0.728627 2:-0.796083 3:-0.960142 4:-0.686617 
-32768 0 0 1:-0.733641 2:-0.743126 3:-0.960168 4:-0.698123 
-32768 0 0 1:-0.576167 2:-0.442469 3:-0.904851 4:-0.551363 
-32768 0 0 1:-0.603623 2:-0.416954 3:-0.912498 4:-0.586948 
-32768 0 0 1:-0.693045 2:-0.592395 3:-0.946181 4:-0.668525 
-32768 0 0 1:-0.52059 2:-0.613364 3:-0.894452 4:-0.4594 
-32768 32768 0 1:-0.556302 2:-0.627796 3:-0.907384 4:-0.500097 
-32768 0 0 1:-0.529805 2:-0.459977 3:-0.889636 4:-0.493775 
-32768 32768 0 1:-0.497712 2:-0.494935 3:-0.879846 4:-0.450239 
-32768 0 0 1:-0.727017 2:-0.666803 3:-0.956789 4:-0.698967 
-32768 0 0 1:-0.778126 2:-0.762655 3:-0.969861 4:-0.749262 
-15721.54508417021 0 0 1:-0.74596 2:-0.745247 3:-0.962916 4:-0.712629 
-32768 0 0 1:-0.716379 2:-0.694018 3:-0.955034 4:-0.683092 
-32768 32768 0 1:-0.574469 2:-0.766758 3:-0.918281 4:-0.504368 
-32768 32768 32768 1:-0.701698 2:-0.753335 3:-0.953032 4:-0.658336 
-32768 32768 32768 1:-0.868345 2:-0.856441 3:-0.986275 4:-0.848733 
-32768 32768 32768 1:-0.903701 2:-0.88787 3:-0.991077 4:-0.888918 
-32768 0 0 1:-0.633558 2:-0.456053 3:-0.923958 4:-0.617218 
-32768 32768 0 1:-0.512644 2:-0.536319 3:-0.887743 4:-0.461401 
-32768 0 0 1:-0.431679 2:-0.510095 3:-0.854686 4:-0.368609 
-32768 0 0 1:-0.529993 2:-0.414515 3:-0.88691 4:-0.500279 
-32768 0 0 1:-0.704516 2:-0.613576 3:-0.949826 4:-0.679091 
-0 5495.054883519537 32768 1:-0.755451 2:-0.608147 3:-0.961567 4:-0.740405 
-32768 0 0 1:-0.800068 2:-0.768359 3:-0.974117 4:-0.775008 
-32768 32768 0 1:-0.797317 2:-0.802647 3:-0.974163 4:-0.768392 
-32768 32768 6506.122385108238 1:-0.679746 2:-0.58566 3:-0.942526 4:-0.652568 
-32768 32768 0 1:-0.51937 2:-0.616254 3:-0.894204 4:-0.457613 
-32768 0 0 1:-0.466244 2:-0.574307 3:-0.872366 4:-0.400174 
-32768 32768 0 1:-0.552325 2:-0.534749 3:-0.901687 4:-0.508094 
-32768 0 0 1:-0.619403 2:-0.642702 3:-0.927735 4:-0.573524 
-32768 0 0 1:-0.61784 2:-0.683035 3:-0.928703 4:-0.566498 
-32768 32768 0 1:-0.656837 2:-0.745205 3:-0.941474 4:-0.605731 
-32768 32768 0 1:-0.63864 2:-0.727689 3:-0.936028 4:-0.585961 
-32768 0 0 1:-0.614987 2:-0.6051 3:-0.924947 4:-0.573557 
-32768 0 0 1:-0.458522 2:-0.438621 3:-0.860891 4:-0.412928 
-32768 0 0 1:-0.610882 2:-0.378424 3:-0.912722 4:-0.60198 
-32768 32768 0 1:-0.675535 2:-0.762155 3:-0.946779 4:-0.626203 
-32768 0 0 1:-0.634719 2:-0.664338 3:-0.932933 4:-0.589162 
-32768 0 0 1:-0.714169 2:-0.605004 3:-0.951925 4:-0.691816 
-32768 0 0 1:-0.768451 2:-0.700567 3:-0.966658 4:-0.74463 
-32768 0 0 1:-0.659318 2:-0.599746 3:-0.937496 4:-0.627326 
-32768 32768 0 1:-0.642156 2:-0.57272 3:-0.931636 4:-0.610069 
-32768 32768 0 1:-0.654142 2:-0.760422 3:-0.941154 4:-0.600798 
-32768 32768 0 1:-0.695276 2:-0.75874 3:-0.951582 4:-0.650474 
-32768 32768 0 1:-0.670298 2:-0.795673 3:-0.946228 4:-0.616491 
-32768 0 0 1:-0.648774 2:-0.701919 3:-0.938041 4:-0.601324 
-32768 0 0 1:-0.642468 2:-0.625938 3:-0.933782 4:-0.603372 
-32768 0 32768 1:-0.675714 2:-0.673213 3:-0.944374 4:-0.636327 
-32768 32768 0 1:-0.702518 2:-0.794822 3:-0.954155 4:-0.655209 
-0 32768 0 1:-0.757706 2:-0.788124 3:-0.966246 4:-0.722134 
-0 32768 0 1:-0.79029 2:-0.806711 3:-0.972951 4:-0.759442 
-17299.62501411361 0 1335.857233265815 1:-0.534388 2:0.00194716 3:-0.854806 4:-0.571216 
-32768 20251.5786513694 0 1:-0.426398 2:-0.116011 3:-0.818831 4:-0.430907 
-0 16430.3337617835 0 1:-0.55537 2:-0.593717 3:-0.905566 4:-0.503975 
-32768 0 0 1:-0.64218 2:-0.69525 3:-0.936038 4:-0.59403 
-32768 32768 0 1:-0.73493 2:-0.77607 3:-0.961167 4:-0.696052 
-32768 32768 0 1:-0.733306 2:-0.7775 3:-0.960825 4:-0.694009 
-32768 0 0 1:-0.70756 2:-0.745421 3:-0.954239 4:-0.666562 
-32768 0 0 1:-0.531665 2:-0.600372 3:-0.897775 4:-0.474509 
-32768 0 0 1:-0.480105 2:-0.54495 3:-0.876067 4:-0.421487 
-32768 0 0 1:-0.696927 2:-0.666724 3:-0.949565 4:-0.663098 
-32768 0 0 1:-0.721968 2:-0.661893 3:-0.955478 4:-0.693747 
-32768 0 0 1:-0.697845 2:-0.713773 3:-0.951106 4:-0.658555 
-32768 0 0 1:0.101348 2:-0.190149 3:-0.506305 4:0.201483 
-0 3208.703486467119 0 1:-0.382836 2:-0.0710122 3:-0.792816 4:-0.393352 
-32768 0 0 1:-0.661414 2:-0.669008 3:-0.940463 4:-0.620433 
-32768 0 0 1:-0.400973 2:-0.35777 3:-0.830189 4:-0.358473 
-32768 32768 0 1:-0.137003 2:-0.513529 3:-0.708268 4:-0.0153286 
-32768 32768 11702.8359166142 1:-0.354162 2:-0.42893 3:-0.814673 4:-0.284762 
-32768 32768 0 1:-0.517642 2:-0.513845 3:-0.888327 4:-0.470487 
-32768 32768 0 1:-0.346241 2:-0.55892 3:-0.820683 4:-0.258771 
-32768 0 0 1:-0.220842 2:-0.431777 3:-0.747702 4:-0.131325 
-32768 0 0 1:-0.0485267 2:-0.339812 3:-0.634559 4:0.0565992 
-32768 0 0 1:-0.0836285 2:-0.390374 3:-0.663189 4:0.0248571 
-32768 0 0 1:-0.201684 2:-0.48958 3:-0.742589 4:-0.0977189 
-32768 0 0 1:-0.238797 2:-0.472112 3:-0.761004 4:-0.145267 
-32768 0 0 1:-0.299107 2:-0.455551 3:-0.790426 4:-0.220165 
-32768 0 0 1:-0.420559 2:-0.526289 3:-0.851084 4:-0.353021 
-32768 0 0 1:-0.455736 2:-0.517378 3:-0.864897 4:-0.396782 
-32768 0 0 1:-0.403964 2:-0.591099 3:-0.84809 4:-0.323077 
-32768 0 0 1:-0.408453 2:-0.515412 3:-0.845206 4:-0.340709 
-32768 0 0 1:-0.35362 2:-0.487892 3:-0.818884 4:-0.280205 
-32768 0 0 1:-0.406473 2:-0.59489 3:-0.849359 4:-0.325671 
-32768 32768 0 1:-0.209012 2:-0.405437 3:-0.738639 4:-0.121376 
-32768 32768 0 1:0.0876512 2:-0.504806 3:-0.562013 4:0.252105 
-32768 32768 0 1:-0.0616368 2:-0.542079 3:-0.66557 4:0.0799841 
-32768 32768 0 1:-0.31805 2:-0.693887 3:-0.815868 4:-0.205057 
-32768 32768 0 1:-0.419385 2:-0.75205 3:-0.862429 4:-0.319623 
-32768 0 0 1:-0.411998 2:-0.614202 3:-0.852788 4:-0.329251 
-32768 0 0 1:-0.253568 2:-0.39033 3:-0.761221 4:-0.178079 
-32768 0 0 1:-0.128757 2:-0.264134 3:-0.675567 4:-0.0538292 
-32768 32768 0 1:0.0899964 2:-0.236008 3:-0.522673 4:0.200701 
-14805.67855624671 0 0 1:0.204162 2:-0.236877 3:-0.434092 4:0.335438 
-32768 32768 0 1:-0.283951 2:-0.669116 3:-0.798272 4:-0.167631 
-32768 0 0 1:-0.35937 2:-0.586403 3:-0.828393 4:-0.270405 
-32768 0 0 1:-0.615477 2:-0.673807 3:-0.927691 4:-0.564828 
-32768 32768 32768 1:-0.81991 2:-0.857356 3:-0.97889 4:-0.790416 
-32768 32768 32768 1:-0.780965 2:-0.80412 3:-0.971149 4:-0.748188 
-32768 32768 32768 1:-0.787193 2:-0.816285 3:-0.972524 4:-0.754484 
-32768 4886.416712726103 0 1:-0.343704 2:-0.486172 3:-0.814307 4:-0.268149 
-32768 0 0 1:-0.342991 2:-0.341027 3:-0.801702 4:-0.293365 
-32768 0 0 1:-0.0718539 2:-0.331172 3:-0.648473 4:0.0270502 
-32768 0 0 1:-0.041107 2:-0.360218 3:-0.632331 4:0.0694789 
-32768 0 0 1:-0.286924 2:-0.472419 3:-0.785768 4:-0.202714 
-32768 0 0 1:-0.356091 2:-0.514438 3:-0.822099 4:-0.277978 
-32768 0 0 1:-0.284644 2:-0.481609 3:-0.785323 4:-0.198609 
-32768 0 0 1:-0.174045 2:-0.457383 3:-0.724219 4:-0.0705304 
-32768 0 0 1:-0.278974 2:-0.432345 3:-0.778152 4:-0.200769 
-32768 0 0 1:-0.176818 2:-0.423026 3:-0.722375 4:-0.0802834 
-32768 0 0 1:-0.228121 2:-0.430283 3:-0.751492 4:-0.140237 
-32768 18243.31142598672 0 1:-0.146077 2:-0.669694 3:-0.726067 4:-0.0017295 
-32768 32768 0 1:-0.237591 2:-0.539831 3:-0.766053 4:-0.131686 
-32768 0 0 1:-0.449122 2:-0.511417 3:-0.861894 4:-0.389738 
-32768 32768 0 1:-0.255934 2:-0.499818 3:-0.772287 4:-0.160261 
-32768 32768 0 1:0.0111025 2:-0.675959 3:-0.630873 4:0.188188 
-32768 32768 0 1:-0.109733 2:-0.545279 3:-0.695136 4:0.0223168 
-32768 0 0 1:-0.380016 2:-0.286023 3:-0.814164 4:-0.34688 
-32768 0 0 1:-0.686032 2:-0.642623 3:-0.946079 4:-0.653262 
-0 32768 32768 1:-0.750165 2:-0.584143 3:-0.959652 4:-0.73607 
-32768 32768 32768 1:-0.858456 2:-0.797009 3:-0.984188 4:-0.842112 
-32768 32768 32768 1:-0.818749 2:-0.778183 3:-0.977587 4:-0.7964 
-32768 0 0 1:-0.631506 2:-0.575366 3:-0.928689 4:-0.597541 
-32768 0 0 1:-0.655206 2:-0.582371 3:-0.935737 4:-0.624736 
-32768 0 0 1:-0.67694 2:-0.682988 3:-0.944974 4:-0.637384 
-32768 0 0 1:-0.43091 2:-0.423693 3:-0.8484 4:-0.382837 
-32768 32768 0 1:-0.386088 2:-0.116519 3:-0.799619 4:-0.385633 
-32768 0 0 1:-0.398586 2:-0.425352 3:-0.834542 4:-0.344287 
-32768 0 0 1:-0.644589 2:-0.664583 3:-0.935719 4:-0.600993 
-32768 0 0 1:-0.326557 2:-0.246053 3:-0.78419 4:-0.291174 
-32768 0 0 1:0.0123783 2:-0.107014 3:-0.557381 4:0.0772936 
-32768 0 0 1:-0.446091 2:-0.526947 3:-0.861577 4:-0.383919 
-32768 0 0 1:-0.516336 2:-0.429852 3:-0.882826 4:-0.482245 
-32768 32768 0 1:-0.587911 2:-0.706512 3:-0.920505 4:-0.527715 
-32768 32768 0 1:-0.502827 2:-0.667535 3:-0.890578 4:-0.430694 
-32768 32768 0 1:-0.490992 2:-0.690737 3:-0.887317 4:-0.413324 
-32768 32768 0 1:-0.608022 2:-0.708968 3:-0.926664 4:-0.551373 
-32768 0 0 1:-0.62015 2:-0.463435 3:-0.9202 4:-0.600346 
-32768 0 0 1:-0.579614 2:-0.407256 3:-0.904002 4:-0.561248 
-32768 0 0 1:-0.630651 2:-0.582073 3:-0.928709 4:-0.595515 
-32768 0 0 1:-0.592082 2:-0.576711 3:-0.916728 4:-0.550118 
-32768 0 0 1:-0.646281 2:-0.605612 3:-0.934109 4:-0.610915 
-32768 0 0 1:-0.657574 2:-0.606752 3:-0.93729 4:-0.62425 
-32768 32768 0 1:-0.567217 2:-0.612663 3:-0.910299 4:-0.515381 
-32768 25847.36650710992 0 1:-0.450042 2:-0.419422 3:-0.856076 4:-0.405485 
-16678.02603632481 0 0 1:0.163644 2:0.0777474 3:-0.401884 4:0.218448 
-32768 32768 0 1:0.365478 2:-0.310176 3:-0.310214 4:0.544956 
-32768 0 0 1:0.297675 2:-0.278526 3:-0.363661 4:0.4564 
-32768 0 0 1:0.0618351 2:-0.178202 3:-0.533789 4:0.152277 
-32768 0 0 1:-0.117 2:-0.405897 3:-0.685461 4:-0.0121675 
-32768 0 0 1:0.0120337 2:-0.382369 3:-0.599593 4:0.137444 
-32768 0 0 1:-0.217626 2:-0.434517 3:-0.746216 4:-0.126757 
-32768 0 0 1:-0.124781 2:-0.353754 3:-0.68424 4:-0.0315314 
-32768 0 0 1:-0.0293528 2:-0.310457 3:-0.618036 4:0.073302 
-32768 0 0 1:-0.267511 2:-0.470882 3:-0.775503 4:-0.180535 
-32768 0 0 1:-0.221756 2:-0.441581 3:-0.749071 4:-0.130581 
-32768 0 0 1:-0.205012 2:-0.38069 3:-0.733899 4:-0.122103 
-32768 0 0 1:-0.157882 2:-0.488457 3:-0.71798 4:-0.0454385 
-32768 32768 0 1:-0.653256 2:-0.755504 3:-0.940794 4:-0.600247 
-32768 32768 0 1:-0.701398 2:-0.778552 3:-0.953535 4:-0.655523 
-32768 32768 771.6854583420566 1:-0.740511 2:-0.812108 3:-0.963074 4:-0.699106 
-32768 32768 6548.974805301063 1:-0.534278 2:-0.547289 3:-0.896073 4:-0.484399 
-32768 0 9555.68711886593 1:-0.418117 2:-0.61008 3:-0.855091 4:-0.337095 
-32768 0 0 1:-0.459644 2:-0.59827 3:-0.871089 4:-0.388641 
-32768 32768 0 1:-0.531275 2:-0.740208 3:-0.903354 4:-0.455599 
-32768 32768 0 1:-0.534912 2:-0.64974 3:-0.901108 4:-0.471493 
-32768 0 0 1:-0.61728 2:-0.536616 3:-0.922758 4:-0.585902 
-32768 0 0 1:-0.733924 2:-0.624838 3:-0.957204 4:-0.712533 
-32768 0 0 1:-0.734256 2:-0.668261 3:-0.958485 4:-0.707491 
-32768 9300.609553082946 0 1:-0.596717 2:-0.613706 3:-0.919732 4:-0.550149 
-32768 32768 32768 1:-0.502159 2:-0.63772 3:-0.889016 4:-0.433227 
-32768 32768 32768 1:-0.504356 2:-0.585547 3:-0.88731 4:-0.442951 
-32768 32768 0 1:-0.598359 2:-0.530942 3:-0.916651 4:-0.5631 
-32768 32768 0 1:-0.682968 2:-0.760447 3:-0.948612 4:-0.635369 
-32768 0 0 1:-0.587476 2:-0.39397 3:-0.905876 4:-0.572504 
-32768 0 32768 1:-0.804006 2:-0.693232 3:-0.973437 4:-0.787854 
-32768 0 32768 1:-0.816792 2:-0.718301 3:-0.976231 4:-0.80031 
