svm_type c_svc
kernel_type rbf
gamma 0.5
nr_class 4
total_sv 3131
rho -19.3536 0.231587 18.5841 25.1431 33.9939 10.0764
label 1 3 2 4
probA -1.8932 -1.76351 -1.52726 -1.4652 -1.39122 -1.0291
probB 0.541395 0.110711 -0.00688006 -0.0190572 -0.189714 -0.242497
nr_sv 177 935 1195 824
SV
0 32768 36.12090160526807 1:-0.668961 2:-0.7412 3:-0.939106 4:-0.645777 5:-0.794784 6:-0.706101 7:-0.976407 8:-0.789086 
0 32768 0 1:-0.584648 2:-0.632076 3:-0.906804 4:-0.56195 5:-0.792568 6:-0.614154 7:-0.974106 8:-0.796206 
32768 32768 32768 1:-0.681495 2:-0.665282 3:-0.940962 4:-0.666508 5:-0.750067 6:-0.550481 7:-0.963931 8:-0.75671 
0 32768 32768 1:-0.730223 2:-0.693202 3:-0.955538 4:-0.717901 5:-0.697328 6:-0.616391 7:-0.953885 8:-0.691872 
32768 32768 32768 1:-0.734577 2:-0.680026 3:-0.956379 4:-0.723931 5:-0.669291 6:-0.536741 7:-0.943943 8:-0.670504 
32768 32768 32768 1:-0.69715 2:-0.594515 3:-0.943662 4:-0.690254 5:-0.699161 6:-0.509229 7:-0.950637 8:-0.705959 
0 32768 32768 1:-0.728209 2:-0.597245 3:-0.952563 4:-0.724326 5:-0.775313 6:-0.655365 7:-0.971822 8:-0.772836 
0 32768 24232.06814701262 1:-0.781321 2:-0.667904 3:-0.967563 4:-0.77674 5:-0.801883 6:-0.613273 7:-0.975779 8:-0.806521 
0 0 32768 1:-0.742861 2:-0.469187 3:-0.952847 4:-0.752906 5:-0.772441 6:-0.75928 7:-0.973367 8:-0.758902 
32768 32768 32768 1:-0.621252 2:-0.607204 3:-0.919345 4:-0.605077 5:-0.751971 6:-0.670272 7:-0.967556 8:-0.745865 
24538.04182620718 32768 32768 1:-0.669676 2:-0.747695 3:-0.939494 4:-0.645888 5:-0.71584 6:-0.646905 7:-0.959122 8:-0.708553 
0 32768 32768 1:-0.706696 2:-0.697536 3:-0.949204 4:-0.691386 5:-0.711775 6:-0.631163 7:-0.957754 8:-0.705732 
0 32768 32768 1:-0.720948 2:-0.706442 3:-0.953347 4:-0.70658 5:-0.78516 6:-0.622484 7:-0.972932 8:-0.787281 
32768 32768 32768 1:-0.463831 2:-0.420667 3:-0.843634 4:-0.452001 5:-0.684298 6:-0.283957 7:-0.936346 8:-0.72274 
32768 32768 32768 1:-0.587231 2:-0.489858 3:-0.901911 4:-0.57927 5:-0.761813 6:-0.564164 7:-0.966801 8:-0.769348 
0 3827.940819572234 0 1:-0.789725 2:-0.583604 3:-0.967692 4:-0.793701 5:-0.807526 6:-0.568062 7:-0.97574 8:-0.817709 
0 0 9809.82415483705 1:-0.868828 2:-0.722925 3:-0.985286 4:-0.868885 5:-0.812008 6:-0.673262 7:-0.978761 8:-0.811335 
0 32768 0 1:-0.595806 2:-0.60476 3:-0.909985 4:-0.576794 5:-0.818826 6:-0.620999 7:-0.97882 8:-0.824515 
32768 32768 32768 1:-0.452428 2:-0.44587 3:-0.839622 4:-0.436323 5:-0.739932 6:-0.581058 7:-0.96262 8:-0.74301 
32768 32768 32768 1:-0.372421 2:-0.446094 3:-0.797373 4:-0.347382 5:-0.750482 6:-0.579558 7:-0.964874 8:-0.753935 
23757.60298422148 32768 32768 1:-0.656444 2:-0.58162 3:-0.930485 4:-0.646665 5:-0.769162 6:-0.613165 7:-0.969617 8:-0.770746 
0 32768 32768 1:-0.692797 2:-0.710875 3:-0.94553 4:-0.674849 5:-0.766884 6:-0.71926 7:-0.971564 8:-0.756972 
0 32768 0 1:-0.698704 2:-0.695288 3:-0.946863 4:-0.682698 5:-0.840165 6:-0.657038 7:-0.982934 8:-0.844133 
32768 32768 32768 1:-0.591118 2:-0.599402 3:-0.908028 4:-0.572438 5:-0.754945 6:-0.682459 7:-0.968437 8:-0.74783 
0 32768 0 1:-0.606122 2:-0.586823 3:-0.913138 4:-0.590022 5:-0.810476 6:-0.624863 7:-0.977534 8:-0.814695 
0 32768 0 1:-0.600623 2:-0.505233 3:-0.907755 4:-0.592776 5:-0.799108 6:-0.564791 7:-0.974137 8:-0.808175 
0 32768 32768 1:-0.710082 2:-0.755846 3:-0.951458 4:-0.690231 5:-0.7227 6:-0.618433 7:-0.959882 8:-0.718928 
32768 32768 32768 1:-0.642633 2:-0.739572 3:-0.930684 4:-0.616548 5:-0.698888 6:-0.614884 7:-0.954177 8:-0.694426 
0 32768 32768 1:-0.624826 2:-0.737263 3:-0.924658 4:-0.596858 5:-0.786328 6:-0.621195 7:-0.97312 8:-0.789269 
0 32768 0 1:-0.66958 2:-0.648292 3:-0.936792 4:-0.654832 5:-0.800182 6:-0.577589 7:-0.974645 8:-0.808826 
0 32768 32768 1:-0.698242 2:-0.553112 3:-0.942707 4:-0.695001 5:-0.789529 6:-0.631867 7:-0.973924 8:-0.791594 
1460.52794094134 0 1561.439245118642 1:-0.3548 2:0.356788 3:-0.696686 4:-0.415195 5:-0.547845 6:0.248915 7:-0.839595 8:-0.642598 
7370.5835846362 0 2522.918798646581 1:-0.337048 2:0.137877 3:-0.715981 4:-0.386554 5:-0.66461 6:-0.0444703 7:-0.91496 8:-0.729357 
0 32768 0 1:-0.712194 2:-0.645582 3:-0.949451 4:-0.702114 5:-0.815918 6:-0.626016 7:-0.978443 8:-0.820557 
0 32768 0 1:-0.626973 2:-0.645561 3:-0.922651 4:-0.607789 5:-0.823874 6:-0.54452 7:-0.978057 8:-0.837582 
32768 32768 32768 1:-0.590654 2:-0.518654 3:-0.904531 4:-0.580281 5:-0.75135 6:-0.520601 7:-0.963285 8:-0.762901 
4114.906569194434 0 0 1:-0.508531 2:-0.0323126 3:-0.836113 4:-0.544324 5:-0.583629 6:-0.232053 7:-0.900507 8:-0.613009 
32768 32768 32768 1:-0.259316 2:-0.295629 3:-0.715512 4:-0.242654 5:-0.475452 6:-0.428871 7:-0.87375 8:-0.474621 
0 25786.46170199919 0 1:-0.494336 2:-0.404833 3:-0.85735 4:-0.487725 5:-0.793972 6:-0.637299 7:-0.974892 8:-0.795532 
32768 32768 32768 1:-0.480134 2:-0.676805 3:-0.86483 4:-0.441107 5:-0.783784 6:-0.550909 7:-0.970873 8:-0.79381 
32768 32768 32768 1:-0.442404 2:-0.69618 3:-0.847889 4:-0.397302 5:-0.664224 6:-0.459868 7:-0.939351 8:-0.67624 
32768 32768 32768 1:-0.550059 2:-0.505389 3:-0.887607 4:-0.535327 5:-0.722284 6:-0.472226 7:-0.95494 8:-0.736857 
0 32768 32768 1:-0.769784 2:-0.68312 3:-0.965209 4:-0.762671 5:-0.797822 6:-0.560606 7:-0.973797 8:-0.808334 
0 0 2183.487435246248 1:-0.944213 2:-0.94526 3:-0.99619 4:-0.939098 5:-0.853476 6:-0.7163 7:-0.985805 8:-0.852283 
0 0 32768 1:-0.861739 2:-0.719043 3:-0.984101 4:-0.861156 5:-0.804595 6:-0.666736 7:-0.97738 8:-0.803645 
0 0 17017.43131062072 1:-0.777738 2:-0.550503 3:-0.964076 4:-0.782442 5:-0.799242 6:-0.630333 7:-0.975665 8:-0.801828 
0 5826.659333948888 0 1:-0.580145 2:-0.69907 3:-0.907422 4:-0.55037 5:-0.838065 6:-0.574209 7:-0.981049 8:-0.850136 
0 0 20537.83209567826 1:-0.852387 2:-0.860672 3:-0.984149 4:-0.841343 5:-0.783975 6:-0.75095 7:-0.975287 8:-0.772538 
0 32768 32768 1:-0.749123 2:-0.707517 3:-0.960706 4:-0.737231 5:-0.758166 6:-0.671169 7:-0.968809 8:-0.752284 
32768 32768 32768 1:-0.410358 2:-0.277703 3:-0.805361 4:-0.411768 5:-0.713737 6:-0.624645 7:-0.95802 8:-0.709147 
20891.47396541733 9978.79850203016 32768 1:-0.453746 2:-0.176223 3:-0.820206 4:-0.472012 5:-0.762405 6:-0.616569 7:-0.968348 8:-0.763003 
0 32768 23832.35320350834 1:-0.713351 2:-0.639437 3:-0.949615 4:-0.704101 5:-0.798675 6:-0.679384 7:-0.9766 8:-0.796102 
32768 32768 0 1:-0.584304 2:-0.513802 3:-0.901847 4:-0.573526 5:-0.78585 6:-0.529379 7:-0.970691 8:-0.798437 
32768 32768 32768 1:-0.379207 2:-0.536336 3:-0.807132 4:-0.343965 5:-0.677865 6:-0.526611 7:-0.94582 8:-0.681968 
32768 32768 32768 1:-0.392664 2:-0.55374 3:-0.81543 4:-0.357022 5:-0.74531 6:-0.563443 7:-0.963288 8:-0.75098 
1668.002453086612 0 3829.594329770405 1:-0.340542 2:0.291565 3:-0.696573 4:-0.414155 5:-0.637155 6:-0.224999 7:-0.918356 8:-0.681432 
32768 14893.27791465248 32768 1:-0.217944 2:0.0813672 3:-0.639316 4:-0.255887 5:-0.585165 6:-0.280757 7:-0.904437 8:-0.619313 
32768 32768 32768 1:-0.498546 2:-0.552046 3:-0.867332 4:-0.475632 5:-0.788297 6:-0.590374 7:-0.972724 8:-0.795144 
32768 0 0 1:-0.503213 2:-0.412284 3:-0.86184 4:-0.497039 5:-0.800926 6:-0.531858 7:-0.973642 8:-0.813733 
21130.2315477703 32768 32768 1:-0.229291 2:-0.51355 3:-0.715043 4:-0.18 5:-0.828979 6:-0.518421 7:-0.978315 8:-0.846048 
0 32768 10414.82149549479 1:-0.280928 2:-0.59541 3:-0.753922 4:-0.227586 5:-0.87699 6:-0.68072 7:-0.988425 8:-0.88147 
0 32768 0 1:-0.626944 2:-0.569262 3:-0.919919 4:-0.615543 5:-0.80781 6:-0.627531 7:-0.977055 8:-0.811919 
0 32768 0 1:-0.63346 2:-0.567781 3:-0.922138 4:-0.622738 5:-0.820928 6:-0.652911 7:-0.979844 8:-0.823377 
32768 32768 32768 1:-0.367807 2:-0.140385 3:-0.768283 4:-0.383034 5:-0.664944 6:-0.499046 7:-0.941234 8:-0.670999 
32768 32768 32768 1:-0.0133537 2:-0.408458 3:-0.543326 4:0.0458251 5:-0.686843 6:-0.462357 7:-0.945552 8:-0.700172 
0 0 32768 1:-0.393396 2:-0.0883903 3:-0.778192 4:-0.408798 5:-0.858178 6:-0.63948 7:-0.985252 8:-0.86545 
32768 32768 32768 1:-0.450617 2:-0.519936 3:-0.843153 4:-0.425333 5:-0.751839 6:-0.661121 7:-0.967308 8:-0.746934 
0 32768 0 1:-0.547943 2:-0.589767 3:-0.890596 4:-0.525394 5:-0.814594 6:-0.619161 7:-0.978119 8:-0.81991 
32768 0 0 1:-0.496763 2:-0.50128 3:-0.864068 4:-0.478622 5:-0.767397 6:-0.539585 7:-0.967252 8:-0.775959 
0 32768 0 1:-0.650659 2:-0.397386 3:-0.921238 4:-0.660186 5:-0.792813 6:-0.57455 7:-0.973196 8:-0.80058 
1284.764558028096 0 0 1:-0.581427 2:-0.590193 3:-0.903948 4:-0.562581 5:-0.774276 6:-0.413944 7:-0.964721 8:-0.797578 
32768 32768 32768 1:-0.571117 2:-0.54881 3:-0.898203 4:-0.555431 5:-0.709897 6:-0.43747 7:-0.950499 8:-0.727758 
0 32768 32768 1:-0.749277 2:-0.466284 3:-0.954472 4:-0.759278 5:-0.784253 6:-0.624983 7:-0.972816 8:-0.78612 
0 32768 32768 1:-0.670404 2:-0.61849 3:-0.936189 4:-0.658434 5:-0.790752 6:-0.690166 7:-0.975413 8:-0.786241 
0 15018.49518731794 0 1:-0.618414 2:-0.611464 3:-0.918483 4:-0.60156 5:-0.79272 6:-0.686811 7:-0.975696 8:-0.788806 
0 32768 0 1:-0.744287 2:-0.693805 3:-0.959198 4:-0.733455 5:-0.8194 6:-0.679333 7:-0.980059 8:-0.81892 
0 32768 32768 1:-0.628275 2:-0.665803 3:-0.923753 4:-0.606993 5:-0.791913 6:-0.677242 7:-0.975361 8:-0.788977 
0 0 32768 1:-0.680728 2:-0.533271 3:-0.936655 4:-0.677079 5:-0.794798 6:-0.671731 7:-0.975764 8:-0.792522 
0 32768 0 1:-0.631879 2:-0.572925 3:-0.92184 4:-0.620351 5:-0.814845 6:-0.651142 7:-0.97881 8:-0.816708 
0 32768 9951.148842782583 1:-0.624082 2:-0.526363 3:-0.917277 4:-0.615822 5:-0.795133 6:-0.618141 7:-0.974673 8:-0.798933 
32768 32768 32768 1:-0.268093 2:-0.309155 3:-0.722622 4:-0.24884 5:-0.647106 6:-0.522266 7:-0.937222 8:-0.649128 
32768 32768 32768 1:-0.283926 2:-0.311585 3:-0.733104 4:-0.265336 5:-0.729181 6:-0.500683 7:-0.957555 8:-0.74121 
32768 32768 32768 1:-0.629869 2:-0.597394 3:-0.922014 4:-0.615907 5:-0.752533 6:-0.499816 7:-0.962861 8:-0.765606 
32768 32768 32768 1:-0.546349 2:-0.531654 3:-0.88733 4:-0.530292 5:-0.687156 6:-0.439599 7:-0.94458 8:-0.703901 
32768 32768 32768 1:-0.455677 2:-0.371298 3:-0.836276 4:-0.449042 5:-0.770945 6:-0.463071 7:-0.965649 8:-0.791147 
32768 32768 32768 1:-0.422516 2:-0.483138 3:-0.826801 4:-0.398657 5:-0.68124 6:-0.49622 7:-0.945487 8:-0.687923 
32768 32768 32768 1:-0.432637 2:-0.428688 3:-0.828489 4:-0.416012 5:-0.726804 6:-0.441811 7:-0.954868 8:-0.744369 
0 5985.150604904207 0 1:-0.588897 2:-0.610186 3:-0.907599 4:-0.568936 5:-0.823778 6:-0.644623 7:-0.980156 8:-0.827223 
0 32659.30372770376 0 1:-0.771082 2:-0.726917 3:-0.966361 4:-0.760502 5:-0.835592 6:-0.63284 7:-0.981806 8:-0.841274 
0 32768 0 1:-0.577336 2:-0.66822 3:-0.905311 4:-0.550171 5:-0.795088 6:-0.629412 7:-0.97492 8:-0.79752 
0 32768 0 1:-0.659791 2:-0.56872 3:-0.931136 4:-0.651514 5:-0.796942 6:-0.662488 7:-0.975919 8:-0.796063 
0 32768 31405.87504523175 1:-0.746622 2:-0.783686 3:-0.961499 4:-0.729045 5:-0.813069 6:-0.611825 7:-0.977686 8:-0.819229 
2597.084251684255 32768 32768 1:-0.712393 2:-0.7384 3:-0.951717 4:-0.694391 5:-0.733248 6:-0.466616 7:-0.95733 8:-0.751107 
9621.938316275147 3772.988789675861 32768 1:-0.661546 2:-0.358698 3:-0.923232 4:-0.677071 5:-0.677486 6:-0.184349 7:-0.928556 8:-0.72983 
0 32768 32768 1:-0.696633 2:-0.576824 3:-0.942943 4:-0.691467 5:-0.733194 6:-0.3185 7:-0.951247 8:-0.769962 
32768 15039.7739937039 32768 1:-0.188923 2:-0.27432 3:-0.664629 4:-0.168895 5:-0.741702 6:-0.371034 7:-0.955657 8:-0.772186 
0 32768 0 1:-0.549625 2:-0.675334 3:-0.894665 4:-0.518775 5:-0.796452 6:-0.528735 7:-0.972719 8:-0.809678 
32768 32768 32768 1:-0.489552 2:-0.717651 3:-0.870703 4:-0.447685 5:-0.764569 6:-0.527492 7:-0.966323 8:-0.775706 
0 32768 0 1:-0.644088 2:-0.601715 3:-0.927052 4:-0.630166 5:-0.796219 6:-0.612123 7:-0.974708 8:-0.800577 
0 32768 0 1:-0.807752 2:-0.777458 3:-0.975097 4:-0.797323 5:-0.822889 6:-0.665784 7:-0.980397 8:-0.823989 
32768 32768 0 1:-0.567881 2:-0.526447 3:-0.895875 4:-0.554645 5:-0.775171 6:-0.49642 7:-0.96759 8:-0.791024 
0 10096.99519449852 0 1:-0.587523 2:-0.770011 3:-0.912276 4:-0.55256 5:-0.83718 6:-0.690772 7:-0.983043 8:-0.837112 
0 32768 0 1:-0.50621 2:-0.640442 3:-0.875001 4:-0.473817 5:-0.814358 6:-0.600909 7:-0.977674 8:-0.821265 
0 32768 0 1:-0.578448 2:-0.601382 3:-0.903258 4:-0.558229 5:-0.808413 6:-0.571234 7:-0.975982 8:-0.817569 
11834.07729329362 0 3137.851494678019 1:-0.348753 2:-0.0814153 3:-0.75036 4:-0.371857 5:-0.807455 6:-0.534208 7:-0.974889 8:-0.821724 
32768 8967.240301910255 32768 1:-0.0757698 2:-0.128297 3:-0.558561 4:-0.0641133 5:-0.744237 6:-0.554566 7:-0.96277 8:-0.75125 
32768 0 32768 1:-0.282928 2:-0.180042 3:-0.718972 4:-0.285829 5:-0.782578 6:-0.650365 7:-0.973082 8:-0.781578 
32768 32768 32768 1:-0.358633 2:-0.433327 3:-0.788531 4:-0.334249 5:-0.800242 6:-0.484732 7:-0.972239 8:-0.820279 
0 32768 32768 1:-0.596839 2:-0.755402 3:-0.915302 4:-0.564116 5:-0.788414 6:-0.535494 7:-0.971329 8:-0.800892 
0 32768 32768 1:-0.711999 2:-0.749733 3:-0.95186 4:-0.692998 5:-0.796334 6:-0.703919 7:-0.976619 8:-0.791286 
6302.979648142101 32768 0 1:-0.682465 2:-0.351639 3:-0.930096 4:-0.700087 5:-0.757124 6:-0.425181 7:-0.96127 8:-0.781049 
32768 0 32768 1:-0.318308 2:-0.0103146 3:-0.722545 4:-0.351315 5:-0.641562 6:-0.381539 7:-0.928951 8:-0.662689 
32768 32768 32768 1:-0.0715349 2:-0.196703 3:-0.564777 4:-0.0513683 5:-0.612387 6:-0.401309 7:-0.920876 8:-0.629573 
32768 32768 32768 1:0.0460712 2:-0.331321 3:-0.482582 4:0.100515 5:-0.567934 6:-0.486012 7:-0.911064 8:-0.568529 
32768 32768 32768 1:-0.481017 2:-0.500667 3:-0.856711 4:-0.461137 5:-0.721362 6:-0.559286 7:-0.957767 8:-0.725295 
32768 32768 32768 1:-0.383149 2:-0.54119 3:-0.809554 4:-0.347775 5:-0.780348 6:-0.624521 7:-0.972057 8:-0.782302 
32768 32768 32768 1:-0.340808 2:-0.619644 3:-0.790764 4:-0.29162 5:-0.78687 6:-0.638598 7:-0.973619 8:-0.787437 
0 3804.514079505078 0 1:-0.433983 2:-0.633067 3:-0.840935 4:-0.394098 5:-0.825685 6:-0.574069 7:-0.979027 8:-0.836379 
32768 32768 32768 1:-0.455152 2:-0.684572 3:-0.853521 4:-0.412604 5:-0.7683 6:-0.549774 7:-0.967716 8:-0.778021 
0 32768 0 1:-0.61438 2:-0.505142 3:-0.912879 4:-0.607099 5:-0.807721 6:-0.561219 7:-0.975605 8:-0.819134 
0 32768 0 1:-0.717765 2:-0.598192 3:-0.949726 4:-0.713109 5:-0.837658 6:-0.603043 7:-0.981482 8:-0.847001 
32768 32768 32768 1:-0.293358 2:-0.454673 3:-0.751472 4:-0.258641 5:-0.602277 6:-0.38645 7:-0.916911 8:-0.619404 
32768 171.1850017871798 32768 1:-0.407512 2:-0.59516 3:-0.825562 4:-0.368876 5:-0.717521 6:-0.39004 7:-0.950469 8:-0.740566 
0 32768 32768 1:-0.673816 2:-0.693219 3:-0.939386 4:-0.65538 5:-0.772189 6:-0.653464 7:-0.971157 8:-0.769867 
0 32768 32768 1:-0.73234 2:-0.668899 3:-0.955506 4:-0.72271 5:-0.764131 6:-0.604323 7:-0.968375 8:-0.766604 
0 32768 0 1:-0.719988 2:-0.552474 3:-0.949011 4:-0.720116 5:-0.805854 6:-0.562896 7:-0.975323 8:-0.816781 
0 32768 0 1:-0.728822 2:-0.676088 3:-0.954766 4:-0.717969 5:-0.809865 6:-0.539428 7:-0.975463 8:-0.823169 
32768 0 32768 1:-0.385655 2:-0.167481 3:-0.781533 4:-0.398006 5:-0.774747 6:-0.456518 7:-0.966253 8:-0.796001 
32768 32768 32768 1:-0.262265 2:-0.347429 3:-0.722475 4:-0.238321 5:-0.753242 6:-0.581678 7:-0.965519 8:-0.757369 
32768 32768 32768 1:-0.359969 2:-0.586914 3:-0.799614 4:-0.316559 5:-0.762071 6:-0.540601 7:-0.966188 8:-0.771314 
32768 32768 32768 1:-0.362177 2:-0.48547 3:-0.794348 4:-0.33121 5:-0.729641 6:-0.590418 7:-0.960632 8:-0.730256 
32768 0 0 1:-0.480778 2:-0.408679 3:-0.85115 4:-0.47197 5:-0.794065 6:-0.45672 7:-0.970217 8:-0.815889 
0 2911.635879854846 0 1:-0.581591 2:-0.418637 3:-0.896197 4:-0.582434 5:-0.823702 6:-0.534275 7:-0.977773 8:-0.839027 
32768 32768 32768 1:-0.44812 2:-0.492752 3:-0.84035 4:-0.42587 5:-0.763404 6:-0.452483 7:-0.963593 8:-0.784295 
0 32768 0 1:-0.58833 2:-0.439256 3:-0.899932 4:-0.586486 5:-0.811588 6:-0.587724 7:-0.976915 8:-0.819866 
0 32768 0 1:-0.505031 2:-0.646377 3:-0.874732 4:-0.471981 5:-0.806897 6:-0.625519 7:-0.976926 8:-0.810455 
32768 32768 32768 1:-0.582798 2:-0.44766 3:-0.898122 4:-0.579891 5:-0.772922 6:-0.615123 7:-0.970397 8:-0.774969 
32768 32768 32768 1:-0.543381 2:-0.429541 3:-0.880877 4:-0.538362 5:-0.721179 6:-0.59183 7:-0.95875 8:-0.720893 
32768 32768 0 1:-0.544624 2:-0.580926 3:-0.888836 4:-0.522942 5:-0.792404 6:-0.637559 7:-0.974601 8:-0.793918 
32768 32768 32768 1:-0.514259 2:-0.609381 3:-0.877179 4:-0.485861 5:-0.783171 6:-0.607103 7:-0.972175 8:-0.787122 
0 32768 0 1:-0.638876 2:-0.57137 3:-0.924206 4:-0.627812 5:-0.805843 6:-0.627561 7:-0.976792 8:-0.809548 
0 32768 0 1:-0.74165 2:-0.723282 3:-0.959147 4:-0.728151 5:-0.833733 6:-0.616335 7:-0.981201 8:-0.841076 
0 0 32768 1:-0.733599 2:-0.394805 3:-0.94771 4:-0.745983 5:-0.741565 6:-0.648734 7:-0.964808 8:-0.736907 
32768 32768 32768 1:-0.635808 2:-0.546989 3:-0.922251 4:-0.626942 5:-0.704893 6:-0.653963 7:-0.956778 8:-0.695935 
0 2499.187698646262 32768 1:-0.762915 2:-0.659853 3:-0.963044 4:-0.757444 5:-0.780689 6:-0.705479 7:-0.973888 8:-0.77347 
0 32768 0 1:-0.672323 2:-0.729506 3:-0.939866 4:-0.650474 5:-0.832948 6:-0.622817 7:-0.9812 8:-0.839308 
0 32768 0 1:-0.781256 2:-0.689179 3:-0.967973 4:-0.774931 5:-0.817741 6:-0.617244 7:-0.978602 8:-0.823099 
0 32768 32768 1:-0.773976 2:-0.707663 3:-0.966638 4:-0.765475 5:-0.796963 6:-0.622369 7:-0.975097 8:-0.800439 
0 32768 0 1:-0.690076 2:-0.646654 3:-0.943042 4:-0.677714 5:-0.827976 6:-0.633294 7:-0.980612 8:-0.832977 
32768 32768 32768 1:-0.373669 2:-0.59204 3:-0.807439 4:-0.331406 5:-0.74331 6:-0.597879 7:-0.963835 8:-0.744806 
0 0 12021.67589375464 1:-0.751467 2:-0.271893 3:-0.948255 4:-0.774352 5:-0.824702 6:-0.719355 7:-0.981601 8:-0.820534 
30466.84831622118 32768 0 1:-0.483469 2:-0.455195 3:-0.855252 4:-0.468547 5:-0.802931 6:-0.55932 7:-0.974704 8:-0.813889 
32768 32768 32768 1:-0.384295 2:-0.497283 3:-0.807409 4:-0.354293 5:-0.771047 6:-0.648903 7:-0.970851 8:-0.769284 
16254.60950521719 0 0 1:-0.418503 2:-0.330965 3:-0.81406 4:-0.414387 5:-0.816406 6:-0.495068 7:-0.975529 8:-0.835369 
32768 32768 32768 1:-0.486279 2:-0.524396 3:-0.860464 4:-0.464427 5:-0.759404 6:-0.661251 7:-0.968811 8:-0.755083 
0 32768 0 1:-0.618078 2:-0.411302 3:-0.910033 4:-0.622062 5:-0.791948 6:-0.619956 7:-0.974134 8:-0.794675 
0 32768 32768 1:-0.682167 2:-0.733806 3:-0.94293 4:-0.661085 5:-0.784328 6:-0.617242 7:-0.972644 8:-0.787149 
0 32768 32768 1:-0.693175 2:-0.764335 3:-0.946855 4:-0.670817 5:-0.780822 6:-0.618359 7:-0.972011 8:-0.783302 
0 32768 18814.66337990836 1:-0.606979 2:-0.558657 3:-0.912359 4:-0.594251 5:-0.789725 6:-0.653255 7:-0.974457 8:-0.789175 
32768 32768 32768 1:-0.555671 2:-0.645256 3:-0.895976 4:-0.528501 5:-0.746728 6:-0.525409 7:-0.962424 8:-0.756806 
32768 32768 32768 1:-0.643124 2:-0.658743 3:-0.928451 4:-0.624749 5:-0.750134 6:-0.571181 7:-0.964553 8:-0.755617 
0 0 32768 1:-0.527012 2:-0.472109 3:-0.876013 4:-0.514453 5:-0.773339 6:-0.690052 7:-0.972181 8:-0.767163 
32768 32768 32768 1:-0.461486 2:-0.433881 3:-0.843359 4:-0.447233 5:-0.730899 6:-0.654573 7:-0.96271 8:-0.724043 
0 32768 0 1:-0.61056 2:-0.458104 3:-0.909399 4:-0.609188 5:-0.788159 6:-0.599017 7:-0.972937 8:-0.792925 
32768 32768 32768 1:-0.177096 2:-0.169536 3:-0.643566 4:-0.171 5:-0.671092 6:-0.549099 7:-0.944907 8:-0.671931 
32768 32768 32768 1:-0.246273 2:-0.113218 3:-0.686344 4:-0.253929 5:-0.688485 6:-0.523321 7:-0.948458 8:-0.69462 
0 32768 32768 1:-0.691093 2:-0.748967 3:-0.945929 4:-0.669709 5:-0.805954 6:-0.598599 7:-0.976143 8:-0.813323 
32768 0 0 1:-0.439887 2:-0.463605 3:-0.834442 4:-0.41987 5:-0.788842 6:-0.650982 7:-0.974248 8:-0.788255 
17464.87563177824 0 25024.03355094323 1:-0.410593 2:-0.503022 3:-0.821839 4:-0.382564 5:-0.786385 6:-0.703112 7:-0.974864 8:-0.780228 
0 32768 32768 1:-0.769204 2:-0.740207 3:-0.966167 4:-0.757364 5:-0.777189 6:-0.492813 7:-0.967858 8:-0.794617 
0 11616.98860537015 16375.26887368925 1:-0.780578 2:-0.757737 3:-0.969032 4:-0.768692 5:-0.798879 6:-0.480405 7:-0.971842 8:-0.819031 
32768 22158.9180131016 32768 1:-0.133896 2:-0.276633 3:-0.624216 4:-0.107015 5:-0.306752 6:-0.301616 7:-0.785408 8:-0.312399 
32768 0 32768 1:-0.274417 2:-0.15171 3:-0.710109 4:-0.279876 5:-0.688106 6:-0.406732 7:-0.943468 8:-0.706013 
5017.07930322538 32768 0 1:-0.477336 2:-0.647147 3:-0.862283 4:-0.441038 5:-0.800302 6:-0.621842 7:-0.975685 8:-0.803845 
0 32768 0 1:-0.597697 2:-0.510924 3:-0.906877 4:-0.588339 5:-0.786658 6:-0.602136 7:-0.972726 8:-0.790625 
0 32768 0 1:-0.720204 2:-0.64916 3:-0.951775 4:-0.71063 5:-0.817751 6:-0.564804 7:-0.977457 8:-0.829921 
0 32768 0 1:-0.73343 2:-0.699758 3:-0.956528 4:-0.720974 5:-0.830079 6:-0.54613 7:-0.979081 8:-0.84535 
-32768 32768 32768 1:-0.518919 2:-0.645447 3:-0.880729 4:-0.487502 5:-0.756907 6:-0.614874 7:-0.967158 8:-0.757747 
-0 32768 32768 1:-0.507744 2:-0.692537 3:-0.877754 4:-0.470398 5:-0.661889 6:-0.606994 7:-0.944574 8:-0.654574 
-0 32768 32768 1:-0.539434 2:-0.68689 3:-0.890902 4:-0.506404 5:-0.691605 6:-0.514579 7:-0.948925 8:-0.699016 
-32768 32768 32768 1:-0.592781 2:-0.67794 3:-0.911449 4:-0.566656 5:-0.820758 6:-0.521473 7:-0.976969 8:-0.83742 
-32768 32768 0 1:-0.536187 2:-0.511703 3:-0.881991 4:-0.521232 5:-0.739742 6:-0.395987 7:-0.956197 8:-0.764866 
-0 32768 32768 1:-0.027053 2:-0.472416 3:-0.561582 4:0.0394414 5:-0.659802 6:-0.460002 7:-0.938053 8:-0.672578 
-0 32768 32768 1:-0.219779 2:-0.511728 3:-0.708633 4:-0.169623 5:-0.643384 6:-0.419707 7:-0.931421 8:-0.660503 
-12305.64392463891 32768 32768 1:-0.412075 2:-0.689027 3:-0.83257 4:-0.364088 5:-0.692825 6:-0.474086 7:-0.947601 8:-0.706173 
-32768 32768 32768 1:-0.483119 2:-0.717807 3:-0.867822 4:-0.440617 5:-0.725537 6:-0.567566 7:-0.958918 8:-0.729701 
-0 32768 32768 1:-0.520837 2:-0.6409 3:-0.881299 4:-0.490076 5:-0.676368 6:-0.58017 7:-0.947384 8:-0.674158 
-0 0 32768 1:-0.183613 2:-0.311066 3:-0.664859 4:-0.156358 5:-0.648538 6:-0.131802 7:-0.915821 8:-0.705191 
-0 32768 0 1:-0.324644 2:-0.413269 3:-0.767236 4:-0.299116 5:-0.435594 6:0.059836 7:-0.808327 8:-0.513678 
-0 0 32768 1:-0.253723 2:-0.499673 3:-0.729999 4:-0.20911 5:-0.301883 6:-0.30457 7:-0.783194 8:-0.307885 
-0 32768 32768 1:-0.497566 2:-0.586338 3:-0.868737 4:-0.470135 5:-0.671687 6:-0.514304 7:-0.943649 8:-0.678157 
-0 32768 0 1:-0.442517 2:-0.334455 3:-0.826948 4:-0.440309 5:-0.566708 6:-0.469669 7:-0.909684 8:-0.570234 
-0 32768 32768 1:-0.500399 2:-0.522034 3:-0.866827 4:-0.480293 5:-0.591744 6:-0.436935 7:-0.916318 8:-0.602097 
-0 0 10956.62212508405 1:-0.0276904 2:0.0999936 3:-0.478705 4:-0.0547087 5:-0.172271 6:-0.248808 7:-0.703301 8:-0.178458 
-0 32768 32768 1:-0.374263 2:-0.511988 3:-0.802866 4:-0.341726 5:-0.481272 6:-0.340633 7:-0.869391 8:-0.498385 
-0 32768 32768 1:-0.465849 2:-0.520729 3:-0.850619 4:-0.442337 5:-0.477694 6:-0.474156 7:-0.877459 8:-0.472079 
-0 0 32768 1:0.0426683 2:0.140852 3:-0.405701 4:0.0148648 5:-0.567797 6:-0.309337 7:-0.899989 8:-0.596467 
-0 32768 0 1:-0.399268 2:-0.408312 3:-0.809433 4:-0.382632 5:-0.631346 6:-0.412991 7:-0.927399 8:-0.649325 
-0 32768 32768 1:-0.447926 2:-0.571808 3:-0.844673 4:-0.416542 5:-0.69427 6:-0.605681 7:-0.95249 8:-0.691745 
-0 32768 32768 1:-0.422601 2:-0.586858 3:-0.832846 4:-0.386487 5:-0.637095 6:-0.519886 7:-0.934314 8:-0.639511 
-0 32768 32768 1:-0.424817 2:-0.57254 3:-0.833212 4:-0.390683 5:-0.668938 6:-0.515016 7:-0.942964 8:-0.674989 
-0 32768 32768 1:-0.332322 2:-0.553364 3:-0.781844 4:-0.289946 5:-0.69095 6:-0.481994 7:-0.947031 8:-0.705049 
-0 32768 32768 1:-0.225571 2:-0.525659 3:-0.71357 4:-0.174525 5:-0.559781 6:-0.360275 7:-0.900484 8:-0.580387 
-0 32768 32768 1:-0.616033 2:-0.469544 3:-0.911958 4:-0.614682 5:-0.700847 6:-0.498542 7:-0.950656 8:-0.711642 
-32768 32768 32768 1:-0.601973 2:-0.582945 3:-0.911457 4:-0.586461 5:-0.74801 6:-0.468588 7:-0.960777 8:-0.766136 
-0 32768 32768 1:-0.465856 2:-0.588737 3:-0.854169 4:-0.434552 5:-0.680488 6:-0.44595 7:-0.943192 8:-0.696888 
-0 32768 32768 1:-0.447277 2:-0.511419 3:-0.841036 4:-0.422415 5:-0.593394 6:-0.270904 7:-0.906655 8:-0.628149 
-0 32768 32768 1:-0.38286 2:-0.498286 3:-0.806672 4:-0.3531 5:-0.416828 6:-0.240182 7:-0.832965 8:-0.444945 
-12171.83665186764 0 0 1:-0.378308 2:-0.546163 3:-0.807225 4:-0.342116 5:-0.617268 6:-0.366951 7:-0.920475 8:-0.633737 
-0 32768 32768 1:-0.604642 2:-0.396623 3:-0.904166 4:-0.610396 5:-0.557686 6:-0.452272 7:-0.905757 8:-0.561347 
-0 32768 32768 1:-0.541169 2:-0.559784 3:-0.886448 4:-0.521204 5:-0.448617 6:-0.2808 7:-0.850896 8:-0.470894 
-0 32768 32768 1:-0.496954 2:-0.622182 3:-0.870095 4:-0.465538 5:-0.627949 6:-0.337204 7:-0.922292 8:-0.656803 
-0 32768 32768 1:-0.473888 2:-0.696297 3:-0.862769 4:-0.432348 5:-0.467755 6:-0.309673 7:-0.861269 8:-0.489369 
-0 32768 32768 1:-0.408983 2:-0.597334 3:-0.826464 4:-0.370259 5:-0.526566 6:-0.362331 7:-0.888675 8:-0.544166 
-0 0 32768 1:-0.36792 2:-0.561947 3:-0.802476 4:-0.328504 5:-0.518704 6:-0.441223 7:-0.891026 8:-0.521458 
-0 32768 32768 1:-0.441351 2:-0.614778 3:-0.843645 4:-0.404429 5:-0.451631 6:-0.288753 7:-0.852923 8:-0.472751 
-0 32768 32768 1:-0.224869 2:-0.446305 3:-0.706648 4:-0.183356 5:-0.528997 6:-0.310471 7:-0.886052 8:-0.553545 
-0 32768 32768 1:-0.266158 2:-0.380499 3:-0.727952 4:-0.238892 5:-0.438079 6:-0.280467 7:-0.846306 8:-0.462141 
-0 32768 32768 1:-0.329105 2:-0.444077 3:-0.772301 4:-0.300003 5:-0.362787 6:-0.267039 7:-0.810027 8:-0.382572 
-0 32768 0 1:-0.0791162 2:-0.21996 3:-0.574108 4:-0.0566187 5:-0.172752 6:-0.129145 7:-0.686195 8:-0.205157 
-0 0 32768 1:0.0515357 2:0.122842 3:-0.400736 4:0.0286727 5:-0.399195 6:0.116247 7:-0.781886 8:-0.490642 
-32768 32768 32768 1:-0.37852 2:-0.575557 3:-0.809083 4:-0.338717 5:-0.789864 6:-0.576042 7:-0.972623 8:-0.798704 
-0 32768 32768 1:-0.455252 2:-0.693832 3:-0.853958 4:-0.411829 5:-0.662335 6:-0.58243 7:-0.943827 8:-0.65839 
-0 32768 32768 1:-0.446724 2:-0.659684 3:-0.84832 4:-0.405838 5:-0.646458 6:-0.566537 7:-0.938773 8:-0.643418 
-0 32768 32768 1:-0.467603 2:-0.537793 3:-0.852392 4:-0.442115 5:-0.679282 6:-0.584602 7:-0.948131 8:-0.677438 
-17333.44358506306 0 0 1:-0.310961 2:-0.300024 3:-0.749108 4:-0.299384 5:-0.742189 6:-0.548248 7:-0.962132 8:-0.749407 
-0 32768 32768 1:-0.565978 2:-0.503551 3:-0.894033 4:-0.555339 5:-0.721196 6:-0.42896 7:-0.952998 8:-0.74212 
-0 0 32768 1:-0.377 2:-0.50508 3:-0.803891 4:-0.3456 5:-0.571055 6:-0.278594 7:-0.899319 8:-0.603455 
-0 0 32768 1:-0.273877 2:-0.544778 3:-0.746049 4:-0.225912 5:-0.649885 6:-0.485651 7:-0.936463 8:-0.658122 
-0 32768 32768 1:-0.556507 2:-0.574624 3:-0.89345 4:-0.536843 5:-0.608197 6:-0.436943 7:-0.921591 8:-0.619183 
-0 32768 0 1:-0.46308 2:-0.473413 3:-0.846547 4:-0.444667 5:-0.617294 6:-0.524031 7:-0.928668 8:-0.616793 
-0 0 32768 1:-0.351927 2:-0.538412 3:-0.792107 4:-0.313372 5:-0.444357 6:-0.407148 7:-0.859469 8:-0.445343 
-32768 0 32768 1:-0.194682 2:-0.305532 3:-0.672179 4:-0.16979 5:-0.756407 6:-0.51674 7:-0.964261 8:-0.769373 
-0 32768 0 1:-0.400355 2:-0.506661 3:-0.81664 4:-0.371189 5:-0.678942 6:-0.482799 7:-0.944286 8:-0.690553 
-0 32768 0 1:-0.448465 2:-0.42404 3:-0.836238 4:-0.434444 5:-0.599426 6:-0.474938 7:-0.920748 8:-0.605033 
-0 32768 0 1:-0.442525 2:-0.525616 3:-0.839436 4:-0.41567 5:-0.684766 6:-0.543795 7:-0.948218 8:-0.688111 
-32768 32768 0 1:-0.416046 2:-0.535795 3:-0.826641 4:-0.38523 5:-0.749707 6:-0.596456 7:-0.965158 8:-0.752427 
-0 32768 0 1:-0.441189 2:-0.447503 3:-0.834061 4:-0.423861 5:-0.724627 6:-0.558415 7:-0.958489 8:-0.729599 
-0 32768 0 1:-0.384533 2:-0.539447 3:-0.810179 4:-0.349709 5:-0.716096 6:-0.4865 7:-0.953934 8:-0.730116 
-0 32768 32768 1:-0.279866 2:-0.549451 3:-0.750173 4:-0.231878 5:-0.597536 6:-0.199213 7:-0.903 8:-0.646579 
-0 32768 32768 1:-0.331332 2:-0.476483 3:-0.776008 4:-0.298294 5:-0.401361 6:-0.269839 7:-0.828594 8:-0.423622 
-0 32768 32768 1:-0.439465 2:-0.586961 3:-0.841324 4:-0.40519 5:-0.508488 6:-0.32122 7:-0.878966 8:-0.530571 
-0 32768 32768 1:-0.473515 2:-0.604473 3:-0.858555 4:-0.441336 5:-0.606482 6:-0.414449 7:-0.919727 8:-0.621747 
-0 32768 32768 1:-0.487496 2:-0.54968 3:-0.862319 4:-0.463059 5:-0.46849 6:-0.388257 7:-0.868019 8:-0.476149 
-0 32768 0 1:-0.312847 2:-0.37786 3:-0.757195 4:-0.290892 5:-0.536369 6:-0.33966 7:-0.890646 8:-0.558467 
-0 32768 32768 1:-0.502314 2:-0.525848 3:-0.867883 4:-0.482155 5:-0.560946 6:-0.415019 7:-0.904423 8:-0.573091 
-0 32768 32768 1:-0.520703 2:-0.635158 3:-0.880963 4:-0.490877 5:-0.614594 6:-0.466522 7:-0.92508 8:-0.622744 
-0 32768 32768 1:-0.485019 2:-0.604669 3:-0.863863 4:-0.454109 5:-0.583777 6:-0.523583 7:-0.918233 8:-0.580549 
-0 32768 32768 1:-0.503929 2:-0.567987 3:-0.870659 4:-0.479407 5:-0.620351 6:-0.490963 7:-0.927869 8:-0.626072 
-0 29788.49950070946 0 1:0.522797 2:0.0907796 3:0.128901 4:0.550493 5:0.13683 6:-0.111736 7:-0.458225 8:0.127438 
-0 74.3921449591693 32768 1:-0.360797 2:-0.501318 3:-0.79468 4:-0.32804 5:-0.623017 6:-0.331341 7:-0.920301 8:-0.651865 
-0 0 32768 1:-0.351431 2:-0.609039 3:-0.796042 4:-0.305035 5:-0.407472 6:-0.442481 7:-0.846263 8:-0.398771 
-32768 0 32768 1:-0.126849 2:-0.247974 3:-0.615059 4:-0.10521 5:-0.753991 6:-0.453438 7:-0.961637 8:-0.774773 
-0 32768 32768 1:-0.311096 2:-0.53078 3:-0.767883 4:-0.268985 5:-0.685525 6:-0.36538 7:-0.940566 8:-0.714736 
-0 32768 32768 1:-0.322326 2:-0.457807 3:-0.769316 4:-0.290495 5:-0.581026 6:-0.331974 7:-0.90641 8:-0.60762 
-0 32768 32768 1:-0.429705 2:-0.525204 3:-0.832995 4:-0.401543 5:-0.530152 6:-0.471993 7:-0.897156 8:-0.529836 
-0 32768 32768 1:-0.433695 2:-0.472934 3:-0.831889 4:-0.411692 5:-0.611948 6:-0.406922 7:-0.921157 8:-0.628654 
-0 32768 0 1:-0.381236 2:-0.419813 3:-0.800387 4:-0.360697 5:-0.67856 6:-0.311221 7:-0.936125 8:-0.713686 
-0 32768 0 1:-0.14486 2:-0.0533869 3:-0.602801 4:-0.15172 5:-0.243093 6:-0.0833228 7:-0.722249 8:-0.283025 
-0 32768 32768 1:-0.0761207 2:-0.578687 3:-0.610517 4:-0.00157265 5:-0.377707 6:-0.187712 7:-0.808946 8:-0.407576 
-0 32768 32768 1:0.139189 2:-0.485404 3:-0.41655 4:0.226908 5:-0.387701 6:-0.185183 7:-0.813449 8:-0.421838 
-0 0 32768 1:0.107421 2:-0.290148 3:-0.42057 4:0.162269 5:-0.591348 6:-0.306086 7:-0.908314 8:-0.622364 
-0 32768 0 1:-0.464517 2:-0.387124 3:-0.841816 4:-0.457277 5:-0.665888 6:-0.404945 7:-0.937232 8:-0.687355 
-0 32768 32768 1:-0.561129 2:-0.611666 3:-0.896773 4:-0.538207 5:-0.471571 6:-0.378857 7:-0.86825 8:-0.48012 
-0 32768 32768 1:-0.5883 2:-0.586172 3:-0.906348 4:-0.571175 5:-0.397126 6:-0.342312 7:-0.833232 8:-0.405707 
-0 32768 32768 1:-0.48823 2:-0.582777 3:-0.86432 4:-0.460072 5:-0.379734 6:-0.405983 7:-0.830848 8:-0.375258 
-0 0 32768 1:-0.150813 2:-0.293186 3:-0.638821 4:-0.123791 5:-0.655587 6:-0.0592583 7:-0.913022 8:-0.72205 
-0 32768 32768 1:-0.20794 2:-0.397412 3:-0.690694 4:-0.171935 5:-0.776517 6:-0.63973 7:-0.971564 8:-0.777186 
-0 32768 0 1:-0.329647 2:-0.477693 3:-0.775122 4:-0.295947 5:-0.752163 6:-0.575007 7:-0.96503 8:-0.757654 
-32768 32768 0 1:-0.443951 2:-0.446869 3:-0.835445 4:-0.426725 5:-0.765701 6:-0.562919 7:-0.967561 8:-0.773582 
-32768 32768 32768 1:-0.488839 2:-0.462342 3:-0.858215 4:-0.474454 5:-0.778732 6:-0.645489 7:-0.972218 8:-0.778408 
-32768 32768 32768 1:-0.558429 2:-0.596677 3:-0.895148 4:-0.536311 5:-0.736121 6:-0.557148 7:-0.961043 8:-0.742405 
-0 32768 0 1:-0.385923 2:-0.506439 3:-0.808882 4:-0.35494 5:-0.710634 6:-0.504925 7:-0.953146 8:-0.722007 
-0 32768 32768 1:-0.393011 2:-0.531748 3:-0.814304 4:-0.360037 5:-0.706642 6:-0.39447 7:-0.94776 8:-0.732568 
-0 32768 32768 1:-0.554563 2:-0.600421 3:-0.893716 4:-0.53202 5:-0.544384 6:-0.300456 7:-0.891129 8:-0.573109 
-0 32768 32768 1:-0.533817 2:-0.482784 3:-0.879529 4:-0.521958 5:-0.52164 6:-0.354894 7:-0.886393 8:-0.540047 
-0 32768 32768 1:-0.480055 2:-0.510992 3:-0.856838 4:-0.459132 5:-0.658375 6:-0.510036 7:-0.939887 8:-0.664258 
-0 32768 32768 1:-0.589412 2:-0.571458 3:-0.906274 4:-0.573715 5:-0.685554 6:-0.579495 7:-0.949743 8:-0.684327 
-32768 32768 32768 1:-0.696584 2:-0.681267 3:-0.945865 4:-0.68187 5:-0.686863 6:-0.578606 7:-0.950043 8:-0.685721 
-32768 32768 32768 1:-0.543555 2:-0.526277 3:-0.885902 4:-0.527616 5:-0.7522 6:-0.571879 7:-0.964923 8:-0.758486 
-0 3676.517364565396 18783.40786728246 1:-0.0369751 2:-0.113012 3:-0.523638 4:-0.0230077 5:-0.563521 6:0.444715 7:-0.822529 8:-0.677187 
-0 1666.020479611982 0 1:0.0356632 2:-0.202091 3:-0.473466 4:0.0689176 5:-0.399183 6:0.187457 7:-0.771555 8:-0.498536 
-0 32768 0 1:-0.516823 2:-0.410708 3:-0.86784 4:-0.512975 5:-0.629143 6:-0.434769 7:-0.927872 8:-0.641626 
-0 32768 32768 1:-0.436613 2:-0.333732 3:-0.82379 4:-0.433455 5:-0.586448 6:-0.286811 7:-0.905021 8:-0.619963 
-0 32768 32768 1:-0.323616 2:-0.442306 3:-0.768843 4:-0.293946 5:-0.614782 6:-0.385847 7:-0.92072 8:-0.635652 
-0 32768 32768 1:-0.171039 2:-0.478867 3:-0.672357 4:-0.119538 5:-0.355275 6:-0.242346 7:-0.801422 8:-0.383703 
-0 32768 32768 1:-0.215656 2:-0.268996 3:-0.682999 4:-0.199252 5:-0.332268 6:-0.280556 7:-0.793786 8:-0.351871 
-0 32768 0 1:-0.302541 2:-0.273952 3:-0.741327 4:-0.294342 5:-0.428266 6:-0.226875 7:-0.836794 8:-0.460802 
-0 32768 0 1:-0.172975 2:-0.330325 3:-0.659178 4:-0.142942 5:-0.303204 6:-0.282384 7:-0.781211 8:-0.315526 
-0 32768 32768 1:-0.0429884 2:-0.467051 3:-0.574081 4:0.0212606 5:-0.243179 6:-0.150583 7:-0.732247 8:-0.27492 
-0 0 25791.12419687133 1:-0.0785126 2:-0.147382 3:-0.563565 4:-0.066471 5:-0.539736 6:0.0948475 7:-0.853496 8:-0.625983 
-0 32768 32768 1:-0.500308 2:-0.564821 3:-0.868732 4:-0.475777 5:-0.381865 6:-0.304915 7:-0.822927 8:-0.395448 
-0 32768 32768 1:-0.440804 2:-0.535296 3:-0.839161 4:-0.41288 5:-0.253805 6:-0.0993249 7:-0.731295 8:-0.294992 
-0 32768 0 1:-0.443124 2:-0.538621 3:-0.840524 4:-0.41502 5:-0.114048 6:-0.151844 7:-0.652272 8:-0.133205 
-0 0 32768 1:-0.287588 2:-0.555449 3:-0.755345 4:-0.239869 5:-0.522089 6:-0.41447 7:-0.890669 8:-0.5287 
-0 0 1218.241320037356 1:-0.159598 2:-0.100252 3:-0.62119 4:-0.160984 5:-0.544908 6:-0.257998 7:-0.888152 8:-0.574561 
-0 32768 32768 1:-0.423851 2:-0.61549 3:-0.834995 4:-0.384746 5:-0.621371 6:-0.464531 7:-0.92708 8:-0.629797 
-0 32768 32768 1:-0.497517 2:-0.66809 3:-0.872311 4:-0.461447 5:-0.605278 6:-0.573387 7:-0.927219 8:-0.59686 
-0 32768 32768 1:-0.510839 2:-0.601272 3:-0.87531 4:-0.483176 5:-0.62371 6:-0.495537 7:-0.929156 8:-0.628486 
-0 0 32768 1:-0.138801 2:-0.514651 3:-0.652295 4:-0.0792481 5:-0.410845 6:-0.354724 7:-0.840707 8:-0.416138 
-0 32768 32768 1:-0.512811 2:-0.459711 3:-0.868979 4:-0.501869 5:-0.594551 6:-0.499047 7:-0.920307 8:-0.596399 
-0 32768 32768 1:-0.431163 2:-0.533802 3:-0.834169 4:-0.402453 5:-0.506678 6:-0.427564 7:-0.885771 8:-0.510883 
-0 10092.23213619785 0 1:0.0440603 2:-0.327012 3:-0.483686 4:0.097549 5:-0.380824 6:-0.233753 7:-0.815361 8:-0.407242 
-0 32768 0 1:-0.441372 2:-0.440513 3:-0.833724 4:-0.424719 5:-0.623604 6:-0.407104 7:-0.924824 8:-0.641233 
-0 32768 32768 1:-0.370628 2:-0.464419 3:-0.79765 4:-0.343116 5:-0.586575 6:-0.367111 7:-0.910514 8:-0.608002 
-0 32768 32768 1:-0.463435 2:-0.596746 3:-0.853445 4:-0.430565 5:-0.512602 6:-0.346097 7:-0.882066 8:-0.53186 
-0 32768 32768 1:-0.508832 2:-0.673532 3:-0.877474 4:-0.473555 5:-0.551462 6:-0.443601 7:-0.903082 8:-0.557417 
-0 32768 32768 1:-0.533667 2:-0.692411 3:-0.888716 4:-0.499418 5:-0.598628 6:-0.464504 7:-0.919869 8:-0.605858 
-0 32768 32768 1:-0.534695 2:-0.546283 3:-0.883101 4:-0.515818 5:-0.602914 6:-0.445349 7:-0.920297 8:-0.612809 
-0 32768 32768 1:-0.409138 2:-0.443714 3:-0.817215 4:-0.388575 5:-0.500316 6:-0.408633 7:-0.881315 8:-0.509035 
-0 32768 0 1:-0.403867 2:-0.478554 3:-0.81672 4:-0.378706 5:-0.581878 6:-0.419853 7:-0.912015 8:-0.594555 
-0 32768 32768 1:-0.411298 2:-0.565288 3:-0.82587 4:-0.376547 5:-0.521237 6:-0.420211 7:-0.890367 8:-0.528601 
-0 32768 32768 1:-0.201944 2:-0.393527 3:-0.686151 4:-0.165698 5:-0.327019 6:-0.263291 7:-0.791749 8:-0.3448 
-0 32768 0 1:0.0680213 2:-0.111096 3:-0.429119 4:0.0878382 5:0.0901396 6:-0.0385151 7:-0.481676 8:0.0612451 
-0 32768 0 1:0.435361 2:0.257894 3:0.0644691 4:0.419241 5:-0.112383 6:0.0930338 7:-0.607658 8:-0.185483 
-17404.76135453873 0 32768 1:-0.0576099 2:-0.00251296 3:-0.523569 4:-0.0660366 5:-0.605968 6:-0.454749 7:-0.921775 8:-0.614655 
-0 32768 32768 1:-0.44813 2:-0.557529 3:-0.844013 4:-0.418355 5:-0.608429 6:-0.464215 7:-0.923085 8:-0.616357 
-0 32768 32768 1:-0.471618 2:-0.584951 3:-0.856727 4:-0.441307 5:-0.608988 6:-0.478442 7:-0.923898 8:-0.615157 
-0 32768 32768 1:-0.536818 2:-0.555372 3:-0.884426 4:-0.516898 5:-0.616978 6:-0.544318 7:-0.929243 8:-0.614709 
-13595.15251018925 32768 32768 1:-0.63737 2:-0.708583 3:-0.928115 4:-0.6134 5:-0.601828 6:-0.454583 7:-0.920404 8:-0.611032 
-0 32768 32768 1:-0.408898 2:-0.30123 3:-0.806429 4:-0.40685 5:-0.489921 6:-0.206982 7:-0.860954 8:-0.53196 
-0 32768 0 1:-0.163933 2:-0.364195 3:-0.656215 4:-0.127864 5:-0.446631 6:-0.218762 7:-0.844244 8:-0.481867 
-0 32768 0 1:-0.496563 2:-0.52403 3:-0.865152 4:-0.475895 5:-0.700503 6:-0.500208 7:-0.950596 8:-0.710375 
-0 32768 0 1:-0.0641808 2:-0.379062 3:-0.581671 4:-0.0146958 5:-0.631486 6:-0.429734 7:-0.928414 8:-0.646426 
-0 32768 32768 1:-0.0655498 2:-0.442355 3:-0.58962 4:-0.00686008 5:-0.500066 6:-0.356219 7:-0.878276 8:-0.515055 
-0 32768 0 1:-0.13642 2:-0.257688 3:-0.623809 4:-0.112668 5:-0.18775 6:0.0204346 7:-0.671959 8:-0.248657 
-0 32768 32768 1:-0.376187 2:-0.56581 3:-0.807262 4:-0.336886 5:-0.422162 6:-0.265227 7:-0.837786 8:-0.44538 
-0 32768 0 1:-0.0827058 2:-0.38568 3:-0.597109 4:-0.0346899 5:-0.11833 6:-0.0608283 7:-0.640189 8:-0.159109 
-0 32768 32768 1:-0.344923 2:-0.494191 3:-0.785069 4:-0.311523 5:-0.488205 6:-0.445047 7:-0.879206 8:-0.489842 
-1812.389280492109 0 0 1:0.00926301 2:-0.317165 3:-0.512987 4:0.0578049 5:-0.510515 6:-0.435444 7:-0.88766 8:-0.513928 
-0 32768 32768 1:-0.376063 2:-0.593166 3:-0.808805 4:-0.33396 5:-0.687758 6:-0.433243 7:-0.944562 8:-0.70587 
-0 32768 1761.602501339079 1:-0.474539 2:-0.496942 3:-0.853417 4:-0.454785 5:-0.631314 6:-0.438283 7:-0.928772 8:-0.644808 
-0 32768 32768 1:-0.467788 2:-0.432286 3:-0.846347 4:-0.454613 5:-0.604104 6:-0.426704 7:-0.919728 8:-0.617084 
-0 0 16841.56761803344 1:-0.253089 2:-0.449225 3:-0.725532 4:-0.215043 5:-0.457563 6:-0.304724 7:-0.85678 8:-0.477584 
-0 32768 0 1:-0.118748 2:-0.407787 3:-0.627268 4:-0.0710679 5:-0.439016 6:-0.357149 7:-0.853252 8:-0.449106 
-0 32768 32768 1:-0.233367 2:-0.5486 3:-0.720451 4:-0.180297 5:-0.429022 6:-0.377609 7:-0.85062 8:-0.434592 
-0 0 32768 1:0.117499 2:0.212181 3:-0.315534 4:0.0831182 5:-0.601468 6:-0.363255 7:-0.915282 8:-0.622949 
-0 32768 25364.09486382972 1:-0.421675 2:-0.4409 3:-0.823606 4:-0.403084 5:-0.662914 6:-0.479566 7:-0.939429 8:-0.674877 
-0 32768 32768 1:-0.456155 2:-0.617297 3:-0.850971 4:-0.420523 5:-0.673508 6:-0.489885 7:-0.942665 8:-0.685185 
-0 32768 0 1:-0.386244 2:-0.48124 3:-0.807426 4:-0.358923 5:-0.718892 6:-0.4746 7:-0.954117 8:-0.735043 
-0 32768 0 1:-0.403159 2:-0.459036 3:-0.814993 4:-0.380631 5:-0.728655 6:-0.494844 7:-0.957159 8:-0.742877 
-0 32768 0 1:-0.397695 2:-0.456179 3:-0.811924 4:-0.374394 5:-0.736544 6:-0.544307 7:-0.960532 8:-0.745328 
-0 32768 0 1:-0.330298 2:-0.390001 3:-0.768708 4:-0.308489 5:-0.609422 6:-0.348253 7:-0.916719 8:-0.636001 
-0 32768 0 1:-0.290806 2:-0.362983 3:-0.742201 4:-0.268695 5:-0.551233 6:-0.359785 7:-0.897179 8:-0.572115 
-0 0 32768 1:-0.320824 2:-0.540229 3:-0.77429 4:-0.278783 5:-0.543666 6:-0.486749 7:-0.902621 8:-0.542743 
-0 32768 32768 1:-0.339735 2:-0.531333 3:-0.784696 4:-0.300943 5:-0.456657 6:-0.382639 7:-0.862486 8:-0.46397 
-0 32768 32768 1:-0.463041 2:-0.56673 3:-0.851566 4:-0.434185 5:-0.376612 6:-0.211434 7:-0.810905 8:-0.407128 
-0 32768 32768 1:-0.374738 2:-0.580134 3:-0.807272 4:-0.334211 5:-0.626487 6:-0.453602 7:-0.928001 8:-0.637719 
-0 32768 0 1:-0.442914 2:-0.553029 3:-0.841164 4:-0.413116 5:-0.681056 6:-0.534763 7:-0.9469 8:-0.685769 
-0 32768 32768 1:-0.349696 2:-0.570458 3:-0.792873 4:-0.307081 5:-0.449075 6:-0.374899 7:-0.858973 8:-0.456542 
-0 0 25811.40385703065 1:-0.188721 2:-0.41361 3:-0.678862 4:-0.147117 5:-0.633989 6:-0.0570245 7:-0.90532 8:-0.700201 
-0 32768 32768 1:-0.228961 2:-0.563143 3:-0.71866 4:-0.173666 5:-0.646798 6:-0.48165 7:-0.935292 8:-0.655691 
-0 32768 32768 1:-0.222323 2:-0.521363 3:-0.711109 4:-0.171133 5:-0.654441 6:-0.498911 7:-0.938314 8:-0.661384 
-0 0 11625.76579779675 1:-0.172728 2:-0.234245 3:-0.648113 4:-0.15687 5:-0.724701 6:-0.544987 7:-0.95807 8:-0.73128 
-0 32768 0 1:-0.380882 2:-0.419566 3:-0.800044 4:-0.360341 5:-0.571074 6:-0.42216 7:-0.908608 8:-0.582254 
-0 32768 32768 1:-0.506689 2:-0.469877 3:-0.86687 4:-0.493326 5:-0.63945 6:-0.44311 7:-0.93141 8:-0.652961 
-0 32768 32768 1:-0.552185 2:-0.653306 3:-0.894865 4:-0.523875 5:-0.585048 6:-0.381787 7:-0.910917 8:-0.603406 
-0 32768 32768 1:-0.418736 2:-0.542557 3:-0.828421 4:-0.387422 5:-0.500292 6:-0.505953 7:-0.888 8:-0.492358 
-0 32768 354.7775891758971 1:-0.411461 2:-0.494174 3:-0.821734 4:-0.38514 5:-0.393229 6:-0.409214 7:-0.837377 8:-0.39019 
-0 32768 0 1:-0.381875 2:-0.444254 3:-0.802493 4:-0.3581 5:-0.335811 6:-0.363723 7:-0.80616 8:-0.335166 
-0 32768 32768 1:-0.31872 2:-0.303486 3:-0.75421 4:-0.308079 5:-0.516591 6:-0.162354 7:-0.869075 8:-0.56734 
-0 32768 32768 1:-0.225948 2:-0.475737 3:-0.709842 4:-0.181395 5:-0.340684 6:-0.111676 7:-0.780935 8:-0.390182 
-0 32768 0 1:-0.197786 2:-0.370095 3:-0.680997 4:-0.164603 5:-0.513051 6:-0.410788 7:-0.886181 8:-0.523004 
-0 32768 5427.277044419233 1:-0.052553 2:0.0439285 3:-0.511242 4:-0.0724512 5:-0.00268966 6:0.0342078 7:-0.538995 8:-0.0576783 
-0 32768 0 1:0.184321 2:0.158165 3:-0.257907 4:0.165247 5:0.178508 6:-0.00815752 7:-0.399342 8:0.145753 
-0 1586.04719686547 0 1:-0.108513 2:0.288061 3:-0.514632 4:-0.173246 5:-0.27926 6:0.326576 7:-0.675346 8:-0.389161 
-32768 32768 0 1:-0.498865 2:-0.401319 3:-0.859212 4:-0.493414 5:-0.784686 6:-0.551199 7:-0.971036 8:-0.795541 
-32768 32768 32768 1:-0.494408 2:-0.58884 3:-0.867429 4:-0.466097 5:-0.768955 6:-0.455317 7:-0.964982 8:-0.790129 
-0 32768 32768 1:-0.405417 2:-0.630104 3:-0.826338 4:-0.362662 5:-0.724347 6:-0.444279 7:-0.954335 8:-0.744442 
-0 32768 32768 1:-0.439963 2:-0.618516 3:-0.843151 4:-0.402384 5:-0.722887 6:-0.472001 7:-0.954932 8:-0.739894 
-0 32768 32768 1:-0.450411 2:-0.517699 3:-0.84291 4:-0.424407 5:-0.687468 6:-0.458406 7:-0.945537 8:-0.70246 
-0 32768 0 1:-0.456711 2:-0.509458 3:-0.845557 4:-0.433314 5:-0.661153 6:-0.485367 7:-0.939604 8:-0.669763 
-0 0 32768 1:-0.36028 2:-0.538258 3:-0.796806 4:-0.322766 5:-0.618408 6:-0.487696 7:-0.927315 8:-0.6237 
-0 32768 32768 1:-0.28685 2:-0.621484 3:-0.759174 4:-0.231407 5:-0.633748 6:-0.497194 7:-0.932287 8:-0.639083 
-0 32768 32768 1:-0.399791 2:-0.558138 3:-0.819407 4:-0.364535 5:-0.581858 6:-0.38282 7:-0.909811 8:-0.599937 
-0 32768 32768 1:-0.443657 2:-0.532208 3:-0.840407 4:-0.416467 5:-0.447971 6:-0.324995 7:-0.854256 8:-0.465156 
-0 32768 32768 1:-0.363198 2:-0.412308 3:-0.789641 4:-0.34224 5:-0.4559 6:-0.345066 7:-0.858777 8:-0.471436 
-0 32768 32768 1:-0.365932 2:-0.4257 3:-0.792197 4:-0.343261 5:-0.524288 6:-0.398893 7:-0.889631 8:-0.536895 
-0 0 32768 1:-0.368734 2:-0.607485 3:-0.8056 4:-0.324356 5:-0.67107 6:-0.550946 7:-0.944969 8:-0.671829 
-0 32768 0 1:-0.412252 2:-0.560696 3:-0.826121 4:-0.378173 5:-0.701173 6:-0.507713 7:-0.951073 8:-0.710639 
-32768 32768 27631.76956433737 1:-0.50046 2:-0.523026 3:-0.866888 4:-0.480572 5:-0.755991 6:-0.625525 7:-0.967273 8:-0.755621 
-32768 32768 32768 1:-0.600854 2:-0.526761 3:-0.908759 4:-0.590931 5:-0.771832 6:-0.617833 7:-0.970261 8:-0.773542 
-0 32768 32768 1:-0.291992 2:-0.332921 3:-0.740251 4:-0.2714 5:-0.689688 6:-0.580041 7:-0.950803 8:-0.6883 
-0 32768 32768 1:-0.391799 2:-0.623881 3:-0.8189 4:-0.348012 5:-0.58785 6:-0.464655 7:-0.916553 8:-0.592686 
-0 0 32768 1:-0.322186 2:-0.566154 3:-0.776779 4:-0.276998 5:-0.643885 6:-0.425291 7:-0.931887 8:-0.659845 
-0 32768 0 1:0.220903 2:-0.346184 3:-0.317431 4:0.297093 5:-0.476649 6:-0.367743 7:-0.869726 8:-0.48849 
-0 32768 32768 1:-0.58663 2:-0.607076 3:-0.906605 4:-0.566719 5:-0.378606 6:-0.366184 7:-0.827023 8:-0.380614 
-0 32768 0 1:0.508553 2:-0.0868211 3:0.0636959 4:0.570899 5:-0.290299 6:-0.229174 7:-0.768589 8:-0.309917 
-0 0 32768 1:-0.298235 2:-0.456219 3:-0.754598 4:-0.264333 5:-0.448924 6:-0.280509 7:-0.851054 8:-0.472773 
-0 32768 32768 1:-0.240513 2:-0.452191 3:-0.717547 4:-0.200305 5:-0.498095 6:-0.422481 7:-0.881427 8:-0.504016 
-0 32768 32768 1:-0.483354 2:-0.466335 3:-0.855831 4:-0.468413 5:-0.526827 6:-0.363415 7:-0.888978 8:-0.543029 
-0 32768 32768 1:-0.435903 2:-0.393202 3:-0.827766 4:-0.424712 5:-0.479767 6:-0.29783 7:-0.865454 8:-0.504655 
-0 24343.28863109698 0 1:-0.0106613 2:0.423785 3:-0.394469 4:-0.0952219 5:-0.272701 6:-0.157187 7:-0.749953 8:-0.307428 
-0 19624.38113969823 0 1:0.446903 2:0.324545 3:0.100266 4:0.417005 5:0.095248 6:-0.0241857 7:-0.47446 8:0.0622143 
-0 32768 0 1:0.270833 2:0.111295 3:-0.173885 4:0.269128 5:0.0623083 6:-0.0645662 7:-0.509185 8:0.0371993 
-0 32768 0 1:-0.40102 2:-0.256414 3:-0.798413 4:-0.404267 5:-0.479579 6:-0.267114 7:-0.862684 8:-0.507602 
-0 32768 0 1:-0.193542 2:-0.258375 3:-0.666015 4:-0.17579 5:0.0643483 6:-0.167938 7:-0.527858 8:0.0647774 
-0 0 32768 1:-0.294733 2:-0.483208 3:-0.754502 4:-0.25659 5:-0.54033 6:-0.286792 7:-0.888614 8:-0.569638 
-0 32768 0 1:-0.458947 2:-0.533588 3:-0.847989 4:-0.433078 5:-0.727869 6:-0.521248 7:-0.958013 8:-0.737153 
-0 32768 32768 1:-0.523333 2:-0.366678 3:-0.868353 4:-0.523219 5:-0.61348 6:-0.441437 7:-0.923463 8:-0.625068 
-0 32768 32768 1:-0.592981 2:-0.407899 3:-0.900196 4:-0.595794 5:-0.657405 6:-0.509397 7:-0.939591 8:-0.662635 
-0 0 32768 1:-0.266053 2:0.0402932 3:-0.680311 4:-0.301195 5:-0.481771 6:-0.293152 7:-0.865983 8:-0.505097 
-0 32768 32768 1:-0.286906 2:-0.425337 3:-0.745114 4:-0.255525 5:-0.30018 6:-0.146268 7:-0.763779 8:-0.337422 
-0 32768 32768 1:-0.177865 2:-0.466575 3:-0.676038 4:-0.128983 5:-0.229038 6:-0.161442 7:-0.7254 8:-0.258027 
-0 32768 32768 1:-0.222889 2:-0.47973 3:-0.708093 4:-0.177344 5:-0.465637 6:-0.420496 7:-0.869061 8:-0.467963 
-0 0 32768 1:-0.166307 2:-0.245592 3:-0.644865 4:-0.146068 5:-0.655314 6:-0.484487 7:-0.93795 8:-0.66296 
-5055.2460925027 0 32768 1:-0.0971862 2:-0.0919892 3:-0.570479 4:-0.0970303 5:-0.657857 6:-0.412009 7:-0.935306 8:-0.677045 
-0 32768 0 1:-0.455126 2:-0.499083 3:-0.844185 4:-0.432215 5:-0.670343 6:-0.496342 7:-0.942588 8:-0.678346 
-0 0 32768 1:-0.37832 2:-0.609352 3:-0.810848 4:-0.33498 5:-0.613405 6:-0.563624 7:-0.929209 8:-0.606934 
-0 20345.86570985744 0 1:-0.197687 2:-0.582695 3:-0.699215 4:-0.136397 5:-0.187614 6:-0.405955 7:-0.731322 8:-0.163628 
-0 32768 0 1:-0.283241 2:-0.512062 3:-0.749595 4:-0.240367 5:-0.123857 6:-0.240309 7:-0.67196 8:-0.126918 
-0 31805.04843433752 0 1:-0.121676 2:-0.131949 3:-0.59609 4:-0.115955 5:0.0375553 6:-0.183773 7:-0.550977 8:0.0399449 
-0 0 32768 1:-0.030976 2:-0.00952922 3:-0.50144 4:-0.0355635 5:-0.592445 6:-0.575862 7:-0.923195 8:-0.583261 
-0 32768 32768 1:-0.554774 2:-0.557732 3:-0.891987 4:-0.536641 5:-0.58699 6:-0.526518 7:-0.919392 8:-0.583619 
-3950.373307078504 32768 32768 1:-0.605108 2:-0.694399 3:-0.916465 4:-0.578769 5:-0.692628 6:-0.505562 7:-0.94872 8:-0.70211 
-0 32768 32768 1:-0.210035 2:-0.50711 3:-0.701758 4:-0.159156 5:-0.667922 6:-0.482236 7:-0.941329 8:-0.678132 
-0 32768 32768 1:-0.470267 2:-0.591581 3:-0.856398 4:-0.439178 5:-0.530677 6:-0.373068 7:-0.890911 8:-0.546994 
-0 32768 32768 1:-0.335991 2:-0.485848 3:-0.779417 4:-0.301927 5:-0.50598 6:-0.435108 7:-0.885857 8:-0.509425 
-0 32768 32768 1:-0.246059 2:-0.375801 3:-0.714413 4:-0.216642 5:-0.398029 6:-0.310255 7:-0.830934 8:-0.412911 
-0 32768 32768 1:-0.20072 2:-0.429122 3:-0.688598 4:-0.159336 5:-0.458029 6:-0.341122 7:-0.860023 8:-0.472608 
-0 32768 32768 1:-0.38307 2:-0.405158 3:-0.800299 4:-0.365224 5:-0.439092 6:-0.292873 7:-0.847802 8:-0.460591 
-0 32768 32768 1:-0.255826 2:-0.456183 3:-0.727879 4:-0.216718 5:-0.224149 6:-0.144406 7:-0.720094 8:-0.257292 
-0 32768 32768 1:-0.543105 2:-0.304056 3:-0.873314 4:-0.551448 5:-0.62739 6:-0.494098 7:-0.930306 8:-0.631893 
-0 32768 32768 1:-0.549483 2:-0.2969 3:-0.875691 4:-0.561791 5:-0.545575 6:-0.424804 7:-0.899872 8:-0.553687 
-0 32768 32768 1:-0.370176 2:-0.565321 3:-0.803944 4:-0.330655 5:-0.586153 6:-0.479755 7:-0.916421 8:-0.59077 
-0 32768 32768 1:-0.40844 2:-0.649573 3:-0.828865 4:-0.363989 5:-0.595719 6:-0.51209 7:-0.921466 8:-0.595337 
-0 32768 32768 1:-0.454976 2:-0.634697 3:-0.851214 4:-0.417505 5:-0.681873 6:-0.518005 7:-0.946531 8:-0.688418 
-0 32768 32768 1:-0.373063 2:-0.5638 3:-0.805387 4:-0.334189 5:-0.616522 6:-0.499149 7:-0.92712 8:-0.620331 
-0 16976.31218822575 32768 1:-0.284976 2:-0.508498 3:-0.750346 4:-0.242883 5:-0.379792 6:-0.393662 7:-0.829703 8:-0.378177 
-32768 0 0 1:-0.415479 2:-0.565373 3:-0.82805 4:-0.381181 5:-0.762496 6:-0.601987 7:-0.967983 8:-0.764229 
-0 32768 0 1:-0.436808 2:-0.35532 3:-0.825548 4:-0.431052 5:-0.640744 6:-0.460057 7:-0.932565 8:-0.651889 
-0 0 32768 1:-0.392647 2:-0.617674 3:-0.819021 4:-0.349733 5:-0.468882 6:-0.348296 7:-0.865139 8:-0.480726 
-0 32768 0 1:-0.0746122 2:-0.316166 3:-0.582692 4:-0.0357067 5:-0.156219 6:-0.214227 7:-0.688693 8:-0.167888 
-0 0 32768 1:-0.0399797 2:-0.0697004 3:-0.51881 4:-0.0389516 5:-0.72672 6:-0.515577 7:-0.957554 8:-0.737386 
-15959.59908643174 0 32768 1:-0.26444 2:-0.159337 3:-0.704239 4:-0.267005 5:-0.646937 6:-0.469093 7:-0.934874 8:-0.656248 
-0 32768 30430.43323641293 1:-0.205434 2:-0.400981 3:-0.689286 4:-0.168776 5:-0.426864 6:-0.356482 7:-0.847456 8:-0.437274 
-0 32768 32768 1:-0.104884 2:-0.524653 3:-0.627964 4:-0.040211 5:-0.510016 6:-0.395463 7:-0.884471 8:-0.521053 
-0 32768 536.4531414827096 1:-0.138226 2:-0.437832 3:-0.644778 4:-0.0888105 5:-0.471612 6:-0.382355 7:-0.86882 8:-0.480529 
-0 0 32768 1:-0.236651 2:-0.0294696 3:-0.668764 4:-0.259004 5:-0.544948 6:-0.304119 7:-0.890919 8:-0.574167 
-0 1698.025313487517 32768 1:-0.14078 2:0.0130768 3:-0.589903 4:-0.160677 5:-0.435825 6:-0.278729 7:-0.845105 8:-0.459944 
-13069.44134969124 32768 32768 1:-0.132936 2:-0.149728 3:-0.607393 4:-0.123604 5:-0.491433 6:-0.366566 7:-0.875396 8:-0.504771 
-0 32768 0 1:-0.00980554 2:-0.191224 3:-0.512016 4:0.0155764 5:-0.0799697 6:0.114225 7:-0.579784 8:-0.158603 
-0 32768 0 1:0.156541 2:-0.356026 3:-0.383054 4:0.227332 5:0.0145043 6:0.188232 7:-0.490723 8:-0.0739324 
-0 0 32768 1:-0.353567 2:-0.47564 3:-0.788789 4:-0.323183 5:-0.378726 6:-0.189727 7:-0.809664 8:-0.411731 
-0 32768 32768 1:-0.46011 2:-0.559675 3:-0.849966 4:-0.431378 5:-0.651335 6:-0.491071 7:-0.937059 8:-0.659219 
-0 32768 32768 1:-0.365924 2:-0.492362 3:-0.796892 4:-0.334483 5:-0.578231 6:-0.367741 7:-0.907732 8:-0.598688 
-0 32768 32768 1:-0.235552 2:-0.623271 3:-0.727103 4:-0.174003 5:-0.467622 6:-0.345374 7:-0.864379 8:-0.48246 
-32768 32768 32768 1:-0.578166 2:-0.231587 3:-0.883973 4:-0.601555 5:-0.74304 6:-0.466557 7:-0.959603 8:-0.761062 
-0 32768 0 1:-0.441483 2:-0.2943 3:-0.823414 4:-0.444889 5:-0.677537 6:-0.525817 7:-0.945649 8:-0.682987 
-0 0 32768 1:-0.500463 2:-0.488812 3:-0.865078 4:-0.4844 5:-0.681402 6:-0.676682 7:-0.951758 8:-0.667539 
-0 32768 32768 1:-0.471944 2:-0.538057 3:-0.854333 4:-0.447086 5:-0.683273 6:-0.65445 7:-0.951139 8:-0.674079 
-32768 32768 14300.4303433288 1:-0.52593 2:-0.564634 3:-0.879897 4:-0.504286 5:-0.75363 6:-0.488206 7:-0.962606 8:-0.76997 
-0 32768 12308.77271983876 1:-0.497364 2:-0.512541 3:-0.864944 4:-0.477994 5:-0.537583 6:-0.567426 7:-0.905026 8:-0.523379 
-0 32768 0 1:-0.46761 2:-0.473901 3:-0.848785 4:-0.450069 5:-0.650386 6:-0.481795 7:-0.936401 8:-0.659337 
-0 32768 32768 1:-0.519286 2:-0.592268 3:-0.878601 4:-0.493596 5:-0.564801 6:-0.313717 7:-0.89953 8:-0.592286 
-0 32768 32768 1:-0.449474 2:-0.631029 3:-0.848405 4:-0.411666 5:-0.502301 6:-0.369687 7:-0.880131 8:-0.51586 
-0 32768 0 1:-0.422941 2:-0.444017 3:-0.824458 4:-0.403803 5:-0.63398 6:-0.453627 7:-0.930346 8:-0.645312 
-0 32768 32768 1:-0.488442 2:-0.456691 3:-0.857673 4:-0.475107 5:-0.525486 6:-0.323689 7:-0.885709 8:-0.547363 
-0 32768 32768 1:-0.186649 2:-0.399047 3:-0.675994 4:-0.147695 5:-0.29817 6:-0.317724 7:-0.782619 8:-0.302386 
-0 32768 32768 1:-0.427768 2:-0.594339 3:-0.835862 4:-0.391446 5:-0.608152 6:-0.484583 7:-0.923981 8:-0.613163 
-0 1108.460062601502 0 1:-0.408409 2:-0.0557864 3:-0.78362 4:-0.443158 5:-0.622524 6:-0.539699 7:-0.930918 8:-0.620756 
-0 10240.40223959725 0 1:-0.216349 2:-0.160891 3:-0.67101 4:-0.216415 5:-0.4125 6:-0.298375 7:-0.835899 8:-0.432327 
-0 32768 1187.199182571414 1:-0.267078 2:-0.235755 3:-0.71434 4:-0.261507 5:-0.462172 6:-0.261567 7:-0.853956 8:-0.493768 
-0 32768 32768 1:-0.382561 2:-0.554021 3:-0.809996 4:-0.345872 5:-0.524519 6:-0.348727 7:-0.887039 8:-0.543933 
-0 32768 32768 1:-0.352653 2:-0.546516 3:-0.793052 4:-0.313277 5:-0.449546 6:-0.30951 7:-0.853806 8:-0.469192 
-0 32768 32768 1:-0.278548 2:-0.462994 3:-0.74292 4:-0.241565 5:-0.344714 6:-0.247703 7:-0.799013 8:-0.367324 
-0 32768 0 1:-0.178781 2:-0.208147 3:-0.649583 4:-0.168632 5:-0.175367 6:-0.127815 7:-0.687992 8:-0.208026 
-0 24515.3431103877 0 1:0.0401784 2:-0.135921 3:-0.458906 4:0.0616663 5:-0.0512289 6:-0.100094 7:-0.600499 8:-0.0788973 
-0 32768 0 1:-0.491144 2:-0.38278 3:-0.854454 4:-0.487585 5:-0.686923 6:-0.54178 7:-0.948716 8:-0.690848 
-0 0 32768 1:-0.290353 2:-0.571197 3:-0.75807 4:-0.241049 5:-0.596129 6:-0.487857 7:-0.920401 8:-0.598979 
-0 32768 32768 1:-0.422615 2:-0.552766 3:-0.830991 4:-0.390366 5:-0.521637 6:-0.508335 7:-0.896153 8:-0.514752 
-0 0 32768 1:-0.229735 2:-0.27973 3:-0.693854 4:-0.211266 5:-0.611386 6:-0.477748 7:-0.924664 8:-0.617243 
-0 32768 32768 1:-0.510905 2:-0.496081 3:-0.870192 4:-0.495315 5:-0.613485 6:-0.402834 7:-0.921425 8:-0.63116 
-0 32768 32768 1:-0.156238 2:-0.448125 3:-0.658893 4:-0.107523 5:-0.453512 6:-0.399076 7:-0.862245 8:-0.458887 
-0 32768 0 1:-0.307591 2:-0.511862 3:-0.764458 4:-0.266967 5:-0.727578 6:-0.564797 7:-0.959367 8:-0.732015 
-31267.93514123967 32768 0 1:-0.484077 2:-0.460926 3:-0.855869 4:-0.46993 5:-0.726372 6:-0.634367 7:-0.961109 8:-0.72238 
-0 32768 0 1:-0.505165 2:-0.378151 3:-0.86068 4:-0.504022 5:-0.665624 6:-0.543435 7:-0.943223 8:-0.667216 
-0 17514.28313835873 0 1:-0.466655 2:-0.43017 3:-0.845658 4:-0.454685 5:-0.622965 6:-0.320985 7:-0.919736 8:-0.65212 
-6800.210321552189 0 0 1:-0.305624 2:-0.437278 3:-0.757656 4:-0.274799 5:-0.443248 6:-0.380088 7:-0.856906 8:-0.445458 
-0 28799.11781959768 0 1:-0.366442 2:-0.271046 3:-0.779929 4:-0.36515 5:-0.240026 6:-0.0612309 7:-0.717599 8:-0.286666 
-0 32768 0 1:-0.0405878 2:0.199057 3:-0.471705 4:-0.0877929 5:-0.0971601 6:-0.0123452 7:-0.6169 8:-0.147699 
-0 544.0058638456528 0 1:-0.0615107 2:0.306033 3:-0.467981 4:-0.129141 5:-0.161006 6:-0.0992207 7:-0.674405 8:-0.197187 
-32452.0914636728 0 32768 1:-0.300578 2:-0.164974 3:-0.728871 4:-0.305286 5:-0.710764 6:-0.2534 7:-0.942223 8:-0.753045 
-0 0 32768 1:-0.374439 2:-0.260205 3:-0.783541 4:-0.374122 5:-0.603842 6:-0.0606127 7:-0.894517 8:-0.669993 
-0 0 32768 1:-0.37728 2:-0.288286 3:-0.787708 4:-0.372981 5:-0.659234 6:0.00833489 7:-0.909224 8:-0.732435 
-32768 32768 32768 1:-0.595955 2:-0.491232 3:-0.905308 4:-0.589869 5:-0.79856 6:-0.515993 7:-0.97269 8:-0.814518 
-32768 32768 0 1:-0.422556 2:-0.359935 3:-0.818392 4:-0.414132 5:-0.794283 6:-0.515226 7:-0.971937 8:-0.809715 
-32768 32768 0 1:-0.382963 2:-0.507133 3:-0.807323 4:-0.351887 5:-0.773494 6:-0.578791 7:-0.969569 8:-0.779913 
-0 32768 32768 1:-0.492727 2:-0.58785 3:-0.866622 4:-0.464462 5:-0.727852 6:-0.530716 7:-0.958324 8:-0.736494 
-32768 0 0 1:-0.408452 2:-0.406883 3:-0.814219 4:-0.393281 5:-0.760676 6:-0.530118 7:-0.965535 8:-0.772526 
-0 32768 0 1:-0.438522 2:-0.523284 3:-0.837363 4:-0.411672 5:-0.701849 6:-0.52167 7:-0.951648 8:-0.71037 
-0 32768 32768 1:-0.37609 2:-0.534265 3:-0.805301 4:-0.340891 5:-0.584761 6:-0.379635 7:-0.91071 8:-0.602995 
-0 0 32768 1:-0.347138 2:-0.4888 3:-0.785959 4:-0.314766 5:-0.504384 6:-0.37811 7:-0.881441 8:-0.516906 
-0 32768 32768 1:-0.347848 2:-0.48118 3:-0.785942 4:-0.315974 5:-0.567435 6:-0.415112 7:-0.906109 8:-0.580402 
-0 32768 32768 1:-0.314531 2:-0.479347 3:-0.766261 4:-0.279242 5:-0.643849 6:-0.374022 7:-0.929081 8:-0.668488 
-0 32768 32768 1:-0.343606 2:-0.442498 3:-0.78069 4:-0.316105 5:-0.606899 6:-0.375971 7:-0.917572 8:-0.628857 
-0 18682.62717838936 0 1:-0.0539731 2:-0.332417 3:-0.567908 4:-0.0107433 5:-0.464654 6:-0.332457 7:-0.861827 8:-0.482355 
-0 32768 32768 1:-0.128329 2:-0.658879 3:-0.655926 4:-0.0502306 5:-0.576972 6:-0.0465552 7:-0.883021 8:-0.646097 
-0 0 32768 1:-0.169679 2:-0.288556 3:-0.652265 4:-0.14495 5:-0.732185 6:-0.63576 7:-0.962473 8:-0.728368 
-0 32768 32768 1:-0.394588 2:-0.559787 3:-0.81682 4:-0.358383 5:-0.672854 6:-0.477813 7:-0.942501 8:-0.684321 
-0 32768 32768 1:-0.412745 2:-0.644297 3:-0.830806 4:-0.369342 5:-0.702575 6:-0.526724 7:-0.952042 8:-0.70964 
-0 32768 0 1:-0.418493 2:-0.39943 3:-0.819108 4:-0.404408 5:-0.577713 6:-0.465601 7:-0.913217 8:-0.582662 
-0 32768 0 1:-0.437008 2:-0.558956 3:-0.838606 4:-0.40578 5:-0.64609 6:-0.55295 7:-0.93825 8:-0.64469 
-0 32768 32768 1:-0.287593 2:-0.539266 3:-0.754232 4:-0.241926 5:-0.529913 6:-0.385589 7:-0.891703 8:-0.543103 
-0 32768 0 1:-0.445969 2:-0.520084 3:-0.840866 4:-0.420395 5:-0.698933 6:-0.426616 7:-0.947193 8:-0.718473 
-24585.97271755754 0 0 1:-0.536875 2:-0.524889 3:-0.882988 4:-0.520773 5:-0.687917 6:-0.255697 7:-0.935862 8:-0.726644 
-0 32768 32768 1:-0.377948 2:-0.525529 3:-0.805768 4:-0.342883 5:-0.61838 6:-0.292342 7:-0.916396 8:-0.651832 
-0 4667.703555464122 0 1:-0.107992 2:-0.605961 3:-0.637051 4:-0.0337796 5:-0.120925 6:-0.195503 7:-0.663417 8:-0.129758 
-0 32768 0 1:-0.0958076 2:-0.553007 3:-0.623585 4:-0.0264937 5:-0.129879 6:-0.24246 7:-0.676105 8:-0.131796 
-0 13578.85643360626 0 1:0.121156 2:-0.334007 3:-0.413942 4:0.184335 5:-0.0509415 6:0.0297393 7:-0.576048 8:-0.103716 
-0 32768 32768 1:0.0110033 2:-0.479167 3:-0.53044 4:0.0827187 5:-0.305407 6:-0.177119 7:-0.770481 8:-0.336506 
-0 32768 0 1:0.081959 2:-0.371855 3:-0.455422 4:0.146492 5:-0.387132 6:-0.382806 7:-0.832138 8:-0.388074 
-0 0 32768 1:0.0357369 2:0.0808745 3:-0.42431 4:0.0162437 5:-0.661975 6:-0.364065 7:-0.934079 8:-0.689005 
-0 32768 32768 1:-0.435389 2:-0.326934 3:-0.82269 4:-0.432508 5:-0.684563 6:-0.481564 7:-0.945572 8:-0.697505 
-32768 32768 32768 1:-0.675577 2:-0.660807 3:-0.939052 4:-0.660435 5:-0.72964 6:-0.532851 7:-0.958636 8:-0.739486 
-0 32768 32768 1:-0.143256 2:-0.423173 3:-0.64706 4:-0.0965402 5:-0.375253 6:-0.294246 7:-0.818722 8:-0.390921 
-32768 2808.596504435654 32768 1:-0.333941 2:0.00273021 3:-0.731023 4:-0.369244 5:-0.759668 6:-0.517217 7:-0.96497 8:-0.772967 
-32768 32768 32768 1:-0.594796 2:-0.42409 3:-0.901721 4:-0.596448 5:-0.766887 6:-0.53018 7:-0.966881 8:-0.779153 
-32768 32768 0 1:-0.47183 2:-0.476075 3:-0.850948 4:-0.454253 5:-0.769906 6:-0.50931 7:-0.966889 8:-0.784233 
-32768 32768 32768 1:-0.47998 2:-0.618523 3:-0.86222 4:-0.446995 5:-0.775934 6:-0.629364 7:-0.971245 8:-0.777182 
-0 7000.18446705287 0 1:-0.35211 2:-0.603308 3:-0.796139 4:-0.306404 5:-0.727926 6:-0.625391 7:-0.961249 8:-0.724941 
-0 32768 1563.462898299516 1:-0.318358 2:-0.599467 3:-0.776572 4:-0.269257 5:-0.736964 6:-0.622914 7:-0.963181 8:-0.735027 
-0 32768 32768 1:-0.506322 2:-0.637293 3:-0.874842 4:-0.474568 5:-0.598135 6:-0.49509 7:-0.921389 8:-0.600767 
-0 32768 0 1:-0.472685 2:-0.380848 3:-0.845406 4:-0.467205 5:-0.530492 6:-0.484655 7:-0.898071 8:-0.528062 
-0 32768 0 1:-0.474263 2:-0.372873 3:-0.845584 4:-0.469922 5:-0.511772 6:-0.448481 7:-0.88885 8:-0.513755 
-0 32768 0 1:-0.461749 2:-0.305475 3:-0.834552 4:-0.465773 5:-0.609328 6:-0.50956 7:-0.925473 8:-0.610959 
-0 32768 0 1:-0.469972 2:-0.484931 3:-0.850574 4:-0.451319 5:-0.650469 6:-0.541542 7:-0.938941 8:-0.650926 
-21524.31825043912 32768 32768 1:-0.594176 2:-0.565869 3:-0.907862 4:-0.579719 5:-0.729258 6:-0.478125 7:-0.956811 8:-0.744311 
-0 32768 0 1:0.485565 2:-0.0398486 3:0.0458547 4:0.536877 5:0.0045299 6:-0.0550141 7:-0.551635 8:-0.0258504 
-0 32768 32768 1:-0.238015 2:-0.586965 3:-0.726272 4:-0.180891 5:-0.516613 6:-0.236736 7:-0.875492 8:-0.552091 
-0 32768 32768 1:-0.109255 2:-0.426186 3:-0.6219 4:-0.0583544 5:-0.620892 6:-0.343087 7:-0.920393 8:-0.648678 
-0 0 1310.731858482487 1:-0.311765 2:0.0159194 3:-0.71493 4:-0.34949 5:-0.63025 6:-0.550626 7:-0.933497 8:-0.628154 
-0 32768 0 1:-0.0790597 2:-0.293525 3:-0.583366 4:-0.0444497 5:-0.316261 6:-0.221265 7:-0.781072 8:-0.34172 
-0 22306.13927534804 0 1:0.255199 2:0.323487 3:-0.136326 4:0.20754 5:0.079863 6:0.112333 7:-0.45555 8:0.0135608 
-0 32768 12785.98980996078 1:-0.407186 2:-0.577234 3:-0.824396 4:-0.370515 5:-0.729979 6:-0.520553 7:-0.958465 8:-0.740284 
-0 32768 32768 1:-0.286641 2:-0.479522 3:-0.74926 4:-0.24837 5:-0.528349 6:-0.318208 7:-0.885854 8:-0.553985 
-0 32768 32768 1:-0.349266 2:-0.533812 3:-0.790116 4:-0.311539 5:-0.343544 6:-0.141717 7:-0.78561 8:-0.386898 
-0 32768 32768 1:-0.389367 2:-0.552391 3:-0.813564 4:-0.353658 5:-0.379737 6:-0.149458 7:-0.805612 8:-0.421847 
-0 32768 0 1:-0.452428 2:-0.397798 3:-0.836495 4:-0.442391 5:-0.709787 6:-0.474058 7:-0.95195 8:-0.724258 
-0 32768 0 1:-0.415992 2:-0.367623 3:-0.815466 4:-0.406074 5:-0.639217 6:-0.418467 7:-0.930164 8:-0.65628 
-0 32768 0 1:-0.456656 2:-0.458625 3:-0.84252 4:-0.439555 5:-0.616873 6:-0.467351 7:-0.925855 8:-0.62492 
-0 32768 0 1:-0.182737 2:-0.333418 3:-0.666466 4:-0.152867 5:-0.645859 6:-0.466913 7:-0.933461 8:-0.659786 
-0 32768 32768 1:-0.417924 2:-0.335496 3:-0.81406 4:-0.413018 5:-0.535356 6:-0.339403 7:-0.889949 8:-0.557496 
-0 32768 32768 1:-0.523097 2:-0.506944 3:-0.876157 4:-0.507505 5:-0.489913 6:-0.394468 7:-0.877029 8:-0.498049 
-0 0 12492.78754890764 1:-0.196744 2:-0.0890388 3:-0.647645 4:-0.206942 5:-0.631739 6:-0.202819 7:-0.915029 8:-0.678208 
-838.117966562551 0 0 1:-0.0391218 2:-0.356612 3:-0.558681 4:0.00951615 5:-0.0698726 6:-0.154522 7:-0.623038 8:-0.0751696 
-0 32768 32768 1:-0.0378865 2:-0.378721 3:-0.560322 4:0.014637 5:-0.527748 6:-0.176272 7:-0.87473 8:-0.576488 
-0 32768 32768 1:-0.216896 2:-0.288106 3:-0.685874 4:-0.197552 5:-0.481328 6:-0.213115 7:-0.858768 8:-0.521253 
-0 32768 32768 1:-0.270567 2:-0.4766 3:-0.738953 4:-0.230838 5:-0.538425 6:-0.374069 7:-0.893887 8:-0.555146 
-0 32768 32768 1:-0.240042 2:-0.55751 3:-0.725466 4:-0.186711 5:-0.433719 6:-0.358169 7:-0.850967 8:-0.443644 
-0 32768 32768 1:-0.283518 2:-0.540639 3:-0.751797 4:-0.237087 5:-0.355758 6:-0.337432 7:-0.81354 8:-0.362041 
-0 32768 32768 1:-0.100802 2:-0.237846 3:-0.59368 4:-0.0776251 5:-0.212242 6:-0.156469 7:-0.711965 8:-0.246262 
-0 32768 23917.15155169723 1:0.0351523 2:-0.134127 3:-0.463192 4:0.0585754 5:-0.376923 6:0.0284434 7:-0.782107 8:-0.450054 
-0 32768 0 1:0.169959 2:-0.41882 3:-0.37824 4:0.251093 5:0.150792 6:-0.0333149 7:-0.430584 8:0.126057 
-0 32768 0 1:0.162841 2:-0.380214 3:-0.380295 4:0.237746 5:-0.129942 6:-0.084724 7:-0.65177 8:-0.166502 
-0 32768 0 1:-0.420009 2:-0.555518 3:-0.82971 4:-0.387502 5:-0.692018 6:-0.458827 7:-0.94678 8:-0.707617 
-0 32768 0 1:-0.42169 2:-0.534475 3:-0.829478 4:-0.391643 5:-0.710319 6:-0.46407 7:-0.95169 8:-0.726491 
-0 32768 0 1:-0.0616427 2:-0.448004 3:-0.587123 4:-0.00208311 5:-0.418944 6:-0.369156 7:-0.845489 8:-0.4235 
-0 0 7913.472545986865 1:0.255142 2:0.389772 3:-0.117398 4:0.191377 5:-0.487029 6:-0.439196 7:-0.879019 8:-0.487587 
-0 32768 32768 1:-0.501871 2:-0.536373 3:-0.868227 4:-0.480606 5:-0.618574 6:-0.45228 7:-0.925424 8:-0.628853 
-0 32768 32768 1:-0.355717 2:-0.165882 3:-0.76356 4:-0.366881 5:-0.685408 6:-0.494846 7:-0.946495 8:-0.695138 
-4136.22103240395 0 32768 1:-0.190847 2:-0.122488 3:-0.647664 4:-0.190019 5:-0.480656 6:-0.545459 7:-0.883168 8:-0.462434 
-0 32768 32768 1:-0.241174 2:-0.475906 3:-0.719927 4:-0.198313 5:-0.226481 6:-0.157781 7:-0.723446 8:-0.255033 
-0 9276.445119420821 0 1:0.0548495 2:-0.149943 3:-0.447096 4:0.0787544 5:0.254789 6:0.163852 7:-0.286165 8:0.195952 
-0 32768 0 1:-0.0936086 2:-0.34317 3:-0.600879 4:-0.05307 5:-0.375834 6:-0.249331 7:-0.813934 8:-0.401028 
-0 32768 0 1:0.0535832 2:0.297974 3:-0.360547 4:-0.00347227 5:-0.28825 6:0.00323877 7:-0.736422 8:-0.352037 
-0 1304.923954576761 13574.79577791077 1:-0.0812074 2:0.451511 3:-0.455422 4:-0.176538 5:-0.353188 6:0.00729943 7:-0.772246 8:-0.423111 
-32768 0 0 1:-0.160972 2:-0.355558 3:-0.653209 4:-0.12428 5:-0.517825 6:-0.366997 7:-0.885878 8:-0.52556 
-32768 0 0 1:-0.183321 2:-0.337538 3:-0.667461 4:-0.151364 5:-0.544366 6:-0.463402 7:-0.901771 8:-0.544524 
-17809.50965493598 0 32768 1:-0.2978 2:-0.128516 3:-0.723017 4:-0.311166 5:-0.697563 6:-0.586003 7:-0.95295 8:-0.696177 
-32768 0 0 1:-0.310164 2:-0.187368 3:-0.737392 4:-0.314232 5:-0.644109 6:-0.340803 7:-0.927482 8:-0.666372 
-0 0 32768 1:-0.405477 2:-0.599008 3:-0.824563 4:-0.366563 5:-0.422838 6:-0.410758 7:-0.850576 8:-0.420737 
-0 32768 0 1:-0.386388 2:-0.331188 3:-0.796428 4:-0.377038 5:-0.577761 6:-0.412393 7:-0.910287 8:-0.589973 
-0 32768 0 1:0.125266 2:-0.390826 3:-0.417426 4:0.197032 5:-0.287381 6:-0.251409 7:-0.769605 8:-0.30196 
-0 32768 32768 1:-0.322298 2:-0.509491 3:-0.773025 4:-0.284087 5:-0.496776 6:-0.37124 7:-0.877819 8:-0.509889 
-0 32768 32768 1:-0.471763 2:-0.479476 3:-0.8511 4:-0.453877 5:-0.571709 6:-0.380323 7:-0.90621 8:-0.589476 
-0 32768 32768 1:-0.436274 2:-0.417405 3:-0.829607 4:-0.422317 5:-0.500629 6:-0.354914 7:-0.87837 8:-0.516765 
-0 32768 0 1:-0.0229289 2:-0.129321 3:-0.514025 4:-0.00806003 5:-0.336513 6:-0.0812097 7:-0.775051 8:-0.391016 
-0 29159.95452822127 0 1:0.279493 2:-0.0447982 3:-0.200008 4:0.309239 5:-0.233623 6:-0.09374 7:-0.717892 8:-0.277165 
-0 32768 32768 1:-0.042062 2:-0.432718 3:-0.569767 4:0.0174825 5:-0.49654 6:-0.220152 7:-0.865903 8:-0.535411 
-0 32768 12149.00409102476 1:-0.440737 2:-0.606426 3:-0.84295 4:-0.404663 5:-0.731607 6:-0.570831 7:-0.96047 8:-0.735285 
-0 32768 32768 1:-0.485094 2:-0.66277 3:-0.866515 4:-0.448083 5:-0.670327 6:-0.678033 7:-0.949055 8:-0.655061 
-32768 32768 32768 1:-0.468934 2:-0.560373 3:-0.854199 4:-0.441003 5:-0.729109 6:-0.649643 7:-0.962137 8:-0.723297 
-0 32768 32768 1:-0.405461 2:-0.550616 3:-0.822018 4:-0.371458 5:-0.648398 6:-0.499032 7:-0.936561 8:-0.654572 
-0 32768 32768 1:-0.375404 2:-0.48775 3:-0.801915 4:-0.345889 5:-0.607362 6:-0.483842 7:-0.923269 8:-0.613658 
-0 32768 32768 1:-0.317185 2:-0.352854 3:-0.757703 4:-0.299129 5:-0.609232 6:-0.338603 7:-0.91554 8:-0.63812 
-0 32768 0 1:-0.116281 2:-0.330497 3:-0.617 4:-0.0800598 5:0.0757148 6:-0.00432178 7:-0.485962 8:0.038869 
-0 32768 1197.098613643378 1:-0.0176578 2:-0.196316 3:-0.519447 4:0.00765648 5:-0.201119 6:0.144025 7:-0.658453 8:-0.289912 
-0 0 32768 1:0.0952651 2:-0.045693 3:-0.391414 4:0.10619 5:-0.59149 6:-0.251294 7:-0.904582 8:-0.631043 
-0 0 32768 1:-0.341425 2:-0.503101 3:-0.783736 4:-0.306281 5:-0.41612 6:-0.21315 7:-0.829901 8:-0.448119 
-0 32768 1826.651783427047 1:0.209717 2:0.629181 3:-0.0974083 4:0.118899 5:-0.239314 6:0.130465 7:-0.685907 8:-0.325254 
-0 0 32768 1:-0.20905 2:-0.133031 3:-0.662369 4:-0.212684 5:-0.617798 6:-0.153075 7:-0.906783 8:-0.674796 
-32768 0 0 1:-0.386766 2:-0.292916 3:-0.793494 4:-0.38069 5:-0.680085 6:-0.291523 7:-0.935528 8:-0.712156 
-0 24702.38767879785 0 1:-0.0428715 2:-0.177598 3:-0.538101 4:-0.0205479 5:-0.409922 6:-0.413683 7:-0.845159 8:-0.407059 
-0 32768 32768 1:-0.132462 2:-0.0246734 3:-0.589095 4:-0.141864 5:-0.404641 6:-0.510999 7:-0.849762 8:-0.385994 
-0 0 32768 1:-0.405727 2:-0.541152 3:-0.821595 4:-0.373199 5:-0.614621 6:-0.355702 7:-0.918994 8:-0.638507 
-0 32768 32768 1:-0.441186 2:-0.650298 3:-0.845283 4:-0.400327 5:-0.62686 6:-0.57042 7:-0.93349 8:-0.621197 
-0 32768 32768 1:-0.323665 2:-0.593775 3:-0.779378 4:-0.275502 5:-0.480573 6:-0.178247 7:-0.853904 8:-0.529618 
-0 32768 125.8354207183105 1:0.156935 2:-0.180017 3:-0.355004 4:0.199913 5:0.236441 6:0.48422 7:-0.199765 8:0.0943357 
-0 32768 0 1:0.317721 2:-0.121395 3:-0.173481 4:0.366181 5:0.256808 6:0.413826 7:-0.204621 8:0.128865 
-0 32768 32768 1:-0.117863 2:-0.557844 3:-0.640561 4:-0.0503926 5:-0.296074 6:0.0416124 7:-0.735184 8:-0.367129 
-0 32768 32768 1:-0.000302151 2:-0.455026 3:-0.537646 4:0.0673216 5:-0.620396 6:-0.548986 7:-0.930684 8:-0.617194 
-0 32768 32768 1:-0.407983 2:-0.585852 3:-0.825313 4:-0.370476 5:-0.58524 6:-0.463255 7:-0.91563 8:-0.59112 
-0 32768 32768 1:-0.382728 2:-0.535999 3:-0.809002 4:-0.348189 5:-0.671571 6:-0.41499 7:-0.93934 8:-0.692105 
-0 0 18142.85708335861 1:-0.137186 2:-0.106525 3:-0.604783 4:-0.137782 5:-0.61013 6:-0.0829873 7:-0.898712 8:-0.669419 
-32768 32768 32768 1:-0.446826 2:-0.602972 3:-0.845759 4:-0.41158 5:-0.776657 6:-0.591221 7:-0.970537 8:-0.782222 
-0 32768 0 1:-0.483252 2:-0.498956 3:-0.857658 4:-0.464045 5:-0.732968 6:-0.589673 7:-0.961348 8:-0.734889 
-32768 0 0 1:-0.418493 2:-0.332629 3:-0.814177 4:-0.413509 5:-0.736574 6:-0.593457 7:-0.962249 8:-0.737406 
-32768 0 0 1:-0.391377 2:-0.286317 3:-0.795515 4:-0.390064 5:-0.728326 6:-0.596617 7:-0.960517 8:-0.728625 
-0 32768 0 1:-0.419691 2:-0.505649 3:-0.826734 4:-0.392881 5:-0.70969 6:-0.467288 7:-0.951661 8:-0.725367 
-0 32768 32768 1:-0.361306 2:-0.565192 3:-0.799053 4:-0.320914 5:-0.694589 6:-0.389991 7:-0.944376 8:-0.719672 
-0 32768 32768 1:-0.344187 2:-0.540013 3:-0.787816 4:-0.304831 5:-0.581354 6:-0.377263 7:-0.90939 8:-0.600351 
-0 32768 0 1:-0.438315 2:-0.41578 3:-0.830543 4:-0.42475 5:-0.591594 6:-0.421076 7:-0.915359 8:-0.604437 
-32768 0 0 1:-0.460213 2:-0.413626 3:-0.841432 4:-0.448788 5:-0.720295 6:-0.598994 7:-0.958752 8:-0.718921 
-32768 32768 32768 1:-0.221831 2:-0.126745 3:-0.670762 4:-0.224283 5:-0.704791 6:-0.594652 7:-0.954988 8:-0.702834 
-32768 0 32768 1:-0.288503 2:-0.093459 3:-0.712802 4:-0.305074 5:-0.706826 6:-0.482764 7:-0.951498 8:-0.719616 
-0 32768 0 1:0.0125171 2:-0.404924 3:-0.521109 4:0.0742435 5:-0.384253 6:-0.389119 7:-0.831617 8:-0.382929 
-0 32768 32768 1:-0.258573 2:-0.305302 3:-0.715984 4:-0.23884 5:-0.666356 6:-0.493345 7:-0.941377 8:-0.675175 
-2633.783844287763 32768 32768 1:-0.500316 2:-0.683333 3:-0.874148 4:-0.462971 5:-0.486723 6:-0.372003 7:-0.874164 8:-0.49551 
-0 13562.7458693106 32768 1:-0.280327 2:-0.0518474 3:-0.702218 4:-0.30229 5:-0.571164 6:-0.471946 7:-0.91143 8:-0.574596 
-0 32768 0 1:-0.0859802 2:-0.0349289 3:-0.552776 4:-0.093974 5:-0.212486 6:-0.122329 7:-0.710039 8:-0.248731 
-0 32768 0 1:0.113675 2:-0.0621246 3:-0.376534 4:0.128978 5:0.0940114 6:0.180936 7:-0.426612 8:0.0107781 
-0 32768 2554.111478146004 1:0.103716 2:0.108469 3:-0.352587 4:0.0905755 5:0.0905109 6:0.226901 7:-0.415673 8:-0.00490237 
-0 0 32768 1:-0.421772 2:-0.573657 3:-0.831732 4:-0.38711 5:-0.392291 6:-0.284733 7:-0.82574 8:-0.409152 
-0 32768 0 1:-0.0577136 2:-0.351371 3:-0.573242 4:-0.0117699 5:-0.382139 6:-0.286863 7:-0.821051 8:-0.399849 
-0 32768 32768 1:-0.410518 2:-0.419972 3:-0.816319 4:-0.391337 5:-0.655437 6:-0.461569 7:-0.936828 8:-0.66762 
-0 32768 0 1:-0.425395 2:-0.44788 3:-0.82598 4:-0.406116 5:-0.667806 6:-0.534797 7:-0.943473 8:-0.670962 
-0 32768 0 1:-0.476126 2:-0.50396 3:-0.854592 4:-0.45584 5:-0.638265 6:-0.560902 7:-0.936168 8:-0.63553 
-0 32768 0 1:-0.404804 2:-0.45399 3:-0.815517 4:-0.382866 5:-0.563571 6:-0.365317 7:-0.902232 8:-0.582822 
-0 0 32768 1:-0.246724 2:-0.492543 3:-0.724827 4:-0.202233 5:-0.362145 6:-0.418157 7:-0.823745 8:-0.354234 
-0 32768 736.9303070353188 1:0.149339 2:-0.352097 3:-0.389541 4:0.218553 5:-0.283723 6:-0.291497 7:-0.771928 8:-0.291877 
-0 32768 32768 1:-0.275116 2:-0.608745 3:-0.751187 4:-0.219836 5:-0.603661 6:-0.437551 7:-0.920194 8:-0.613603 
-0 32768 0 1:0.00606725 2:-0.3856 3:-0.524329 4:0.064212 5:-0.575253 6:-0.306199 7:-0.902352 8:-0.605803 
-0 32768 32768 1:-0.24967 2:-0.514018 3:-0.728465 4:-0.202812 5:-0.515716 6:-0.396566 7:-0.887111 8:-0.526027 
-0 14083.72107674873 0 1:-0.415473 2:-0.376882 3:-0.81588 4:-0.404417 5:-0.734228 6:-0.589307 7:-0.961607 8:-0.736285 
-0 32768 32768 1:-0.214819 2:-0.504067 3:-0.70472 4:-0.165201 5:-0.491122 6:-0.377749 7:-0.876301 8:-0.502158 
-0 32768 0 1:-0.335379 2:-0.544125 3:-0.782972 4:-0.294708 5:-0.761639 6:-0.579328 7:-0.967126 8:-0.767702 
-0 32768 32768 1:-0.229023 2:-0.526793 3:-0.715902 4:-0.17839 5:-0.717092 6:-0.500716 7:-0.95474 8:-0.729076 
-18764.86335456735 32768 0 1:-0.373397 2:-0.49062 3:-0.800948 4:-0.343351 5:-0.757018 6:-0.432487 7:-0.961486 8:-0.780961 
-0 32768 32768 1:-0.477214 2:-0.520317 3:-0.856007 4:-0.454945 5:-0.639828 6:-0.43917 7:-0.931371 8:-0.654009 
-0 32768 32768 1:-0.224149 2:-0.705404 3:-0.724713 4:-0.152677 5:-0.596173 6:-0.350647 7:-0.912723 8:-0.620717 
-0 32768 32768 1:-0.429367 2:-0.652988 3:-0.839595 4:-0.386827 5:-0.551942 6:-0.403234 7:-0.900808 8:-0.564247 
-0 32768 32768 1:-0.494541 2:-0.529216 3:-0.86453 4:-0.473009 5:-0.537679 6:-0.519737 7:-0.90237 8:-0.531261 
-0 0 32768 1:-0.377747 2:-0.562722 3:-0.807822 4:-0.339711 5:-0.549343 6:-0.410107 7:-0.900325 8:-0.559699 
-0 32768 0 1:-0.463275 2:-0.302589 3:-0.83525 4:-0.467246 5:-0.606056 6:-0.393597 7:-0.918472 8:-0.623525 
-0 32768 9750.008455219959 1:-0.478735 2:-0.299901 3:-0.842765 4:-0.483968 5:-0.604892 6:-0.322208 7:-0.913903 8:-0.632822 
-0 10940.63864381165 2584.355301467073 1:0.454088 2:0.296908 3:0.100797 4:0.430126 5:-0.316785 6:-0.177864 7:-0.776656 8:-0.348873 
-0 32768 0 1:0.0290913 2:-0.0806332 3:-0.459804 4:0.0433456 5:-0.304892 6:-0.133646 7:-0.764679 8:-0.3424 
-0 0 32768 1:-0.16692 2:-0.237757 3:-0.64437 4:-0.149465 5:-0.705298 6:-0.548354 7:-0.953544 8:-0.709912 
-0 0 32768 1:-0.244211 2:-0.533421 3:-0.726411 4:-0.194323 5:-0.51803 6:-0.497113 7:-0.894273 8:-0.512681 
-0 32768 32768 1:-0.314733 2:-0.573428 3:-0.772765 4:-0.268288 5:-0.490674 6:-0.406992 7:-0.878201 8:-0.497307 
-0 32768 32768 1:-0.507865 2:-0.401625 3:-0.863386 4:-0.503311 5:-0.53679 6:-0.373735 7:-0.892861 8:-0.554152 
-0 32768 32768 1:-0.394008 2:-0.338847 3:-0.801313 4:-0.385698 5:-0.507028 6:-0.384039 7:-0.882393 8:-0.519622 
-0 32768 0 1:-0.18743 2:-0.406084 3:-0.677231 4:-0.148084 5:-0.193727 6:-0.134249 7:-0.700377 8:-0.224136 
-0 0 3329.41310283762 1:0.0671462 2:-0.0362713 3:-0.416694 4:0.0757404 5:-0.145449 6:-0.408124 7:-0.706679 8:-0.116938 
-0 32768 0 1:-0.384418 2:-0.398884 3:-0.800597 4:-0.367233 5:-0.590821 6:-0.332675 7:-0.909813 8:-0.617155 
-0 32768 32768 1:-0.363215 2:-0.554149 3:-0.799437 4:-0.324273 5:-0.441903 6:-0.410032 7:-0.858639 8:-0.443267 
-0 32768 0 1:0.0258299 2:-0.159293 3:-0.475683 4:0.0498128 5:0.0516352 6:-0.105013 7:-0.525646 8:0.0339807 
-0 32768 0 1:-0.0830979 2:-0.163397 3:-0.569607 4:-0.0699405 5:-0.0780357 6:0.0400479 7:-0.593512 8:-0.139081 
-0 32768 32768 1:-0.473518 2:-0.51728 3:-0.854038 4:-0.450974 5:-0.724659 6:-0.503741 7:-0.956649 8:-0.736961 
-0 32768 0 1:-0.445796 2:-0.556242 3:-0.842785 4:-0.415785 5:-0.743324 6:-0.526914 7:-0.961714 8:-0.754036 
-32768 32768 0 1:-0.458444 2:-0.529469 3:-0.84745 4:-0.433074 5:-0.7672 6:-0.546071 7:-0.967414 8:-0.777424 
-0 32768 32768 1:-0.434243 2:-0.485618 3:-0.832952 4:-0.411049 5:-0.676693 6:-0.371982 7:-0.938682 8:-0.703143 
-0 32768 32768 1:-0.482461 2:-0.585066 3:-0.861789 4:-0.453085 5:-0.680463 6:-0.395888 7:-0.940877 8:-0.70359 
-32768 32768 32768 1:-0.570697 2:-0.632693 3:-0.901447 4:-0.546337 5:-0.733196 6:-0.609922 7:-0.961994 8:-0.732599 
-32768 32768 32768 1:-0.497617 2:-0.60876 3:-0.869798 4:-0.467414 5:-0.755576 6:-0.678591 7:-0.968481 8:-0.749039 
-0 32768 0 1:-0.424686 2:-0.591603 3:-0.834161 4:-0.388475 5:-0.692083 6:-0.584974 7:-0.951504 8:-0.690943 
-32768 32768 32768 1:-0.430141 2:-0.598858 3:-0.837307 4:-0.393647 5:-0.751732 6:-0.528802 7:-0.963505 8:-0.762534 
-0 0 5397.370750788281 1:0.177841 2:0.0845694 3:-0.28146 4:0.172235 5:-0.249493 6:-0.412482 7:-0.766244 8:-0.231967 
-552.0812418589751 0 0 1:-0.225127 2:-0.377391 3:-0.700533 4:-0.193909 5:-0.36364 6:-0.370625 7:-0.820392 8:-0.36146 
-0 4222.154138722245 28681.37006061128 1:0.00636216 2:-0.0968634 3:-0.483158 4:0.0206044 5:-0.477058 6:-0.469441 7:-0.876981 8:-0.47203 
-0 32768 32768 1:-0.219447 2:-0.529039 3:-0.709819 4:-0.167205 5:-0.628919 6:-0.463655 7:-0.929303 8:-0.638186 
-0 0 32768 1:-0.250309 2:0.050966 3:-0.667576 4:-0.28695 5:-0.580262 6:-0.344855 7:-0.907019 8:-0.602962 
-0 32768 0 1:-0.438788 2:-0.752959 3:-0.848409 4:-0.388075 5:-0.231355 6:-0.367736 7:-0.752014 8:-0.217406 
-0 32768 1238.14566584704 1:-0.0415863 2:-0.496124 3:-0.575928 4:0.0266357 5:-0.309603 6:-0.468519 7:-0.802276 8:-0.288552 
-0 32768 32768 1:-0.190682 2:-0.504523 3:-0.68828 4:-0.138038 5:-0.517228 6:-0.328001 7:-0.882592 8:-0.538881 
-32768 32768 0 1:-0.406165 2:-0.383836 3:-0.811377 4:-0.392675 5:-0.774153 6:-0.568587 7:-0.969448 8:-0.781673 
-32768 0 0 1:-0.357349 2:-0.398429 3:-0.785237 4:-0.337427 5:-0.760113 6:-0.632614 7:-0.968291 8:-0.759087 
-0 32768 32768 1:-0.513045 2:-0.578228 3:-0.87523 4:-0.488127 5:-0.640042 6:-0.60718 7:-0.938662 8:-0.630344 
-0 32768 32768 1:-0.314312 2:-0.592602 3:-0.773765 4:-0.265401 5:-0.309764 6:-0.319115 7:-0.78881 8:-0.313263 
-0 32768 32768 1:-0.320861 2:-0.529193 3:-0.773503 4:-0.280295 5:-0.539385 6:-0.287744 7:-0.888332 8:-0.568887 
-0 32768 0 1:-0.359375 2:-0.260846 3:-0.774861 4:-0.356054 5:-0.476429 6:-0.321601 7:-0.866115 8:-0.493559 
-0 32768 32768 1:-0.495816 2:-0.355775 3:-0.854917 4:-0.494991 5:-0.577635 6:-0.318322 7:-0.904381 8:-0.603546 
-0 32768 0 1:-0.468848 2:-0.476235 3:-0.849508 4:-0.450824 5:-0.480269 6:-0.37201 7:-0.871507 8:-0.490178 
-0 17881.40595064583 0 1:-0.610522 2:-0.523286 3:-0.91221 4:-0.602597 5:-0.219655 6:-0.351057 7:-0.743636 8:-0.208959 
-0 0 2813.566420405771 1:-0.273739 2:-0.54222 3:-0.74586 4:-0.225993 5:-0.479032 6:-0.571547 7:-0.884008 8:-0.458083 
-0 32768 32768 1:-0.317358 2:-0.410043 3:-0.762593 4:-0.29097 5:-0.521832 6:-0.501996 7:-0.8952 8:-0.518045 
-0 32768 0 1:-0.166568 2:-0.24312 3:-0.644649 4:-0.149045 5:-0.263395 6:-0.244999 7:-0.754607 8:-0.280465 
-0 32768 32768 1:-0.29223 2:-0.134037 3:-0.719977 4:-0.303393 5:-0.278813 6:-0.257988 7:-0.763549 8:-0.296086 
-0 32768 0 1:-0.474199 2:-0.554523 3:-0.856395 4:-0.44773 5:-0.518227 6:-0.511443 7:-0.895198 8:-0.510031 
-0 32768 32768 1:-0.492799 2:-0.546345 3:-0.864609 4:-0.469213 5:-0.597301 6:-0.414223 7:-0.916818 8:-0.611633 
-0 32768 0 1:-0.469977 2:-0.399411 3:-0.84528 4:-0.461294 5:-0.633255 6:-0.384627 7:-0.92659 8:-0.65403 
-0 32768 0 1:-0.403843 2:-0.324878 3:-0.805622 4:-0.398026 5:-0.701455 6:-0.548621 7:-0.952592 8:-0.705833 
-0 0 32768 1:-0.418145 2:-0.572518 3:-0.829725 4:-0.383445 5:-0.496902 6:-0.354439 7:-0.876903 8:-0.510684 
-0 32768 32768 1:-0.197564 2:-0.481042 3:-0.691074 4:-0.148303 5:-0.361864 6:-0.312913 7:-0.814081 8:-0.371493 
-0 0 32768 1:-0.139082 2:-0.470293 3:-0.648444 4:-0.0854713 5:-0.37878 6:-0.269762 7:-0.818038 8:-0.397098 
-0 0 9672.11598580757 1:-0.234434 2:-0.224513 3:-0.690937 4:-0.226768 5:-0.716509 6:-0.401108 7:-0.950505 8:-0.743 
-0 32768 32768 1:-0.535669 2:-0.616081 3:-0.886488 4:-0.509613 5:-0.717628 6:-0.588306 7:-0.957795 8:-0.718206 
-0 32768 0 1:-0.520919 2:-0.460311 3:-0.872725 4:-0.510636 5:-0.682221 6:-0.459976 7:-0.944265 8:-0.695053 
-0 32768 32768 1:-0.457658 2:-0.0982167 3:-0.815395 4:-0.488417 5:-0.643831 6:-0.317536 7:-0.926122 8:-0.675154 
-0 32768 32768 1:-0.459538 2:-0.579911 3:-0.850723 4:-0.428518 5:-0.536876 6:-0.382434 7:-0.893975 8:-0.550794 
-0 32768 32768 1:-0.500915 2:-0.514821 3:-0.866684 4:-0.481998 5:-0.374199 6:-0.256988 7:-0.814542 8:-0.39471 
-0 32768 32768 1:-0.35738 2:-0.243199 3:-0.772055 4:-0.357757 5:-0.355529 6:-0.0379312 7:-0.7796 8:-0.415393 
-0 32768 0 1:-0.470094 2:-0.490319 3:-0.85094 4:-0.450725 5:-0.70804 6:-0.486332 7:-0.951899 8:-0.720801 
-0 4327.099789152645 32768 1:-0.212486 2:-0.481442 3:-0.701277 4:-0.165576 5:-0.252924 6:-0.272376 7:-0.753131 8:-0.260776 
-0 0 32768 1:-0.225607 2:-0.47237 3:-0.709301 4:-0.18162 5:-0.4472 6:-0.374418 7:-0.858103 8:-0.455103 
-0 0 32768 1:-0.0420195 2:-0.132081 3:-0.530812 4:-0.0298018 5:-0.643979 6:-0.372511 7:-0.929047 8:-0.669047 
-0 0 11375.65071892909 1:-0.182645 2:0.00450738 3:-0.62397 4:-0.200771 5:-0.404288 6:0.0195871 7:-0.797595 8:-0.476008 
-0 32768 32768 1:-0.51351 2:-0.512064 3:-0.872198 4:-0.496196 5:-0.507179 6:-0.366306 7:-0.881777 8:-0.520896 
-0 32768 32768 1:-0.204321 2:-0.43079 3:-0.691305 4:-0.163081 5:-0.350809 6:-0.282569 7:-0.80573 8:-0.366102 
-0 32768 20686.09384570921 1:-0.468227 2:-0.50599 3:-0.850915 4:-0.446718 5:-0.384495 6:-0.313591 7:-0.824982 8:-0.396276 
-0 0 32768 1:-0.222816 2:0.0770842 3:-0.643555 4:-0.262683 5:-0.635849 6:-0.362743 7:-0.926113 8:-0.661498 
-0 32768 32768 1:-0.346269 2:-0.524001 3:-0.787964 4:-0.308921 5:-0.553436 6:-0.304251 7:-0.894752 8:-0.58245 
-0 32768 32768 1:-0.235839 2:-0.483696 3:-0.716958 4:-0.191486 5:-0.503051 6:-0.281311 7:-0.873374 8:-0.532356 
-0 32768 32768 1:-0.130337 2:-0.354075 3:-0.630319 4:-0.0922765 5:-0.126917 6:0.106206 7:-0.615265 8:-0.20555 
-0 32768 0 1:-0.123279 2:-0.326652 3:-0.621939 4:-0.0880189 5:-0.0428233 6:0.066219 7:-0.562485 8:-0.107273 
-0 32768 32768 1:-0.510874 2:-0.62944 3:-0.876563 4:-0.480281 5:-0.512951 6:-0.226083 7:-0.873065 8:-0.548193 
-0 32768 32768 1:-0.331821 2:-0.57109 3:-0.782711 4:-0.2874 5:-0.449449 6:-0.284064 7:-0.851594 8:-0.471833 
-0 32768 32768 1:-0.0540092 2:-0.450227 3:-0.581259 4:0.00679414 5:-0.374995 6:-0.200596 7:-0.809014 8:-0.406305 
-5041.716466111103 32768 32768 1:0.0299371 2:-0.402673 3:-0.505799 4:0.0935515 5:-0.576436 6:-0.48427 7:-0.913832 8:-0.578607 
-0 32768 25206.32822019772 1:-0.110227 2:-0.399785 3:-0.619959 4:-0.0628094 5:-0.632834 6:-0.406767 7:-0.927524 8:-0.652151 
-0 32768 32768 1:-0.197137 2:-0.540964 3:-0.695661 4:-0.140908 5:-0.605204 6:-0.461918 7:-0.921951 8:-0.612918 
-0 32768 32768 1:-0.183595 2:-0.486417 3:-0.681836 4:-0.132393 5:-0.53805 6:-0.272985 7:-0.886706 8:-0.571142 
-0 32768 32768 1:-0.345864 2:-0.404507 3:-0.779096 4:-0.32398 5:-0.467449 6:-0.333195 7:-0.863093 8:-0.48535 
-0 27363.1248306828 0 1:-0.349492 2:-0.385962 3:-0.779748 4:-0.330611 5:-0.414841 6:-0.381746 7:-0.844189 8:-0.419597 
-16641.83281349228 0 32768 1:-0.360395 2:0.167008 3:-0.727496 4:-0.418665 5:-0.568708 6:-0.145347 7:-0.888211 8:-0.617728 
-0 32768 32768 1:-0.116043 2:0.127173 3:-0.550981 4:-0.144663 5:-0.494109 6:-0.180307 7:-0.86126 8:-0.536983 
-0 32768 32768 1:-0.179121 2:-0.564098 3:-0.685069 4:-0.117875 5:-0.530641 6:-0.370776 7:-0.890955 8:-0.545163 
-0 32768 0 1:-0.256147 2:-0.380463 3:-0.721496 4:-0.227584 5:-0.129618 6:-0.0551905 7:-0.64679 8:-0.170879 
-0 32768 32299.49846232061 1:-0.0578108 2:-0.538067 3:-0.592727 4:0.0138918 5:-0.176477 6:-0.16073 7:-0.693634 8:-0.199469 
-10635.37384888785 32768 32768 1:-0.0188227 2:-0.337402 3:-0.539455 4:0.0298798 5:-0.683751 6:-0.511443 7:-0.946758 8:-0.691552 
-0 0 32768 1:-0.25195 2:-0.564992 3:-0.733707 4:-0.19896 5:-0.630769 6:-0.626637 7:-0.936756 8:-0.617986 
-0 32768 32768 1:-0.383381 2:-0.518615 3:-0.808283 4:-0.350868 5:-0.564914 6:-0.245644 7:-0.894712 8:-0.602499 
-0 32768 32768 1:-0.383051 2:-0.634035 3:-0.814794 4:-0.3373 5:-0.491541 6:-0.352617 7:-0.874455 8:-0.507655 
-0 32768 32768 1:-0.284472 2:-0.523712 3:-0.75118 4:-0.240321 5:-0.49391 6:-0.380626 7:-0.877639 8:-0.504668 
-0 32768 0 1:-0.061768 2:-0.225706 3:-0.560652 4:-0.0349549 5:-0.330301 6:-0.113706 7:-0.775689 8:-0.375831 
-0 32768 0 1:0.130672 2:-0.193817 3:-0.383232 4:0.172793 5:-0.010822 6:-0.0550461 7:-0.563099 8:-0.0422336 
-0 32768 0 1:-0.411908 2:-0.493185 3:-0.821889 4:-0.385717 5:-0.633996 6:-0.406689 7:-0.92788 8:-0.65209 
-0 32768 15550.00567374407 1:-0.403002 2:-0.400479 3:-0.810841 4:-0.387789 5:-0.0365886 6:-0.0618641 7:-0.583254 8:-0.0683874 
-0 32768 0 1:-0.31618 2:-0.34099 3:-0.756045 4:-0.300184 5:-0.104096 6:-0.0659287 7:-0.631429 8:-0.141647 
-0 32768 1001.035168021267 1:-0.0197226 2:0.408713 3:-0.406888 4:-0.0974624 5:-0.361559 6:-0.170809 7:-0.799012 8:-0.39526 
-0 32768 15680.2271946608 1:-0.232726 2:-0.446626 3:-0.71192 4:-0.192454 5:-0.206213 6:-0.169145 7:-0.712979 8:-0.229986 
-0 32768 32768 1:-0.176063 2:-0.353965 3:-0.663936 4:-0.143134 5:-0.183023 6:-0.00298068 7:-0.672943 8:-0.240626 
-0 32768 0 1:0.241687 2:-0.213481 3:-0.274026 4:0.298154 5:-0.138283 6:-0.021432 7:-0.646561 8:-0.188609 
-14244.32560015799 0 0 1:-0.0346571 2:-0.328611 3:-0.551642 4:0.0102483 5:-0.587913 6:-0.428103 7:-0.914566 8:-0.598534 
-0 32768 32768 1:-0.166301 2:-0.47092 3:-0.668278 4:-0.115581 5:-0.605465 6:-0.442884 7:-0.920745 8:-0.617177 
-0 32768 0 1:-0.112406 2:-0.296465 3:-0.61004 4:-0.0812283 5:-0.520028 6:-0.396447 7:-0.886371 8:-0.536259 
-0 32768 32768 1:-0.163983 2:-0.437932 3:-0.663586 4:-0.117124 5:-0.571051 6:-0.405745 7:-0.905455 8:-0.589797 
-0 0 32768 1:-0.0495274 2:-0.219094 3:-0.549684 4:-0.0235832 5:-0.327171 6:0.00242268 7:-0.758234 8:-0.397521 
-0 32768 0 1:0.0682425 2:-0.222092 3:-0.446848 4:0.10733 5:0.11403 6:0.00152462 7:-0.453406 8:0.0764636 
-0 32768 0 1:-0.0696857 2:-0.016599 3:-0.536177 4:-0.0802845 5:-0.053195 6:-0.0625144 7:-0.594925 8:-0.0891964 
-0 32768 32768 1:-0.343707 2:-0.547063 3:-0.787991 4:-0.303162 5:-0.711647 6:-0.562175 7:-0.955242 8:-0.71644 
-0 32768 32768 1:-0.465865 2:-0.658492 3:-0.857457 4:-0.427106 5:-0.704593 6:-0.559444 7:-0.953641 8:-0.708193 
-0 32768 0 1:-0.410433 2:-0.487522 3:-0.820777 4:-0.38448 5:-0.728847 6:-0.556132 7:-0.959391 8:-0.734712 
-0 25686.51306067547 0 1:-0.386674 2:-0.488819 3:-0.808131 4:-0.358465 5:-0.74011 6:-0.480613 7:-0.959365 8:-0.756587 
-0 32768 0 1:-0.423433 2:-0.455672 3:-0.825507 4:-0.40333 5:-0.654425 6:-0.45929 7:-0.936386 8:-0.66735 
-0 32768 32768 1:-0.366091 2:-0.674204 3:-0.807657 4:-0.314398 5:-0.451635 6:-0.530286 7:-0.870901 8:-0.434257 
-0 32768 32768 1:-0.255696 2:-0.547758 3:-0.73478 4:-0.205328 5:-0.56887 6:-0.509443 7:-0.912515 8:-0.566818 
-0 32768 32768 1:-0.451998 2:-0.630109 3:-0.849516 4:-0.414771 5:-0.532784 6:-0.467618 7:-0.897797 8:-0.533105 
-0 32768 32768 1:-0.324925 2:-0.541499 3:-0.776786 4:-0.283209 5:-0.521549 6:-0.395652 7:-0.8892 8:-0.532781 
-0 32768 0 1:-0.406304 2:-0.520416 3:-0.820604 4:-0.376444 5:-0.691879 6:-0.444597 7:-0.946165 8:-0.709713 
-0 32768 32768 1:-0.452254 2:-0.461868 3:-0.840337 4:-0.435054 5:-0.625519 6:-0.243363 7:-0.915561 8:-0.66857 
-0 32768 32768 1:-0.438904 2:-0.671784 3:-0.845137 4:-0.395824 5:-0.556979 6:-0.466007 7:-0.906311 8:-0.559046 
-0 32768 32768 1:-0.502184 2:-0.560125 3:-0.869551 4:-0.478171 5:-0.530544 6:-0.393797 7:-0.892474 8:-0.541491 
-160.3198519629602 0 0 1:0.000745984 2:-0.286604 3:-0.516253 4:0.0427493 5:0.0362418 6:-0.16302 7:-0.548271 8:0.0346335 
-0 32768 32768 1:-0.508958 2:-0.544145 3:-0.871793 4:-0.487597 5:-0.449685 6:-0.408195 7:-0.861604 8:-0.451299 
-0 32768 0 1:-0.0721662 2:-0.420436 3:-0.592574 4:-0.0177041 5:-0.643376 6:-0.47521 7:-0.934106 8:-0.652303 
-0 0 32768 1:-0.26441 2:-0.378067 3:-0.726647 4:-0.236928 5:-0.536992 6:-0.27594 7:-0.886539 8:-0.568805 
-0 32768 32768 1:-0.324989 2:-0.265546 3:-0.754498 4:-0.318714 5:-0.51555 6:-0.296467 7:-0.879527 8:-0.543401 
-0 32768 32768 1:-0.108132 2:-0.354861 3:-0.613455 4:-0.0672893 5:-0.399455 6:-0.242249 7:-0.824619 8:-0.428242 
-0 32768 0 1:-0.126641 2:-0.334765 3:-0.625324 4:-0.0909955 5:-0.39088 6:-0.260149 7:-0.822812 8:-0.414773 
-0 32768 10449.18973204025 1:0.262684 2:-0.320557 3:-0.270082 4:0.339774 5:-0.152486 6:0.0132426 7:-0.650062 8:-0.211405 
-0 32768 0 1:0.414677 2:-0.299868 3:-0.0968248 4:0.506385 5:0.0418206 6:0.0400192 7:-0.502973 8:-0.0099868 
-0 32768 32768 1:-0.410195 2:-0.626825 3:-0.828594 4:-0.368494 5:-0.641247 6:-0.298859 7:-0.92422 8:-0.675184 
-0 32768 0 1:-0.506148 2:-0.414723 3:-0.863257 4:-0.499935 5:-0.729345 6:-0.411 7:-0.954271 8:-0.752646 
-32768 32768 32768 1:-0.468529 2:-0.547908 3:-0.853361 4:-0.442021 5:-0.785276 6:-0.646014 7:-0.973481 8:-0.785256 
-0 32768 13562.79088759677 1:-0.496325 2:-0.359666 3:-0.855187 4:-0.495661 5:-0.629595 6:-0.571354 7:-0.934267 8:-0.624055 
-0 32768 0 1:-0.47303 2:-0.316436 3:-0.841049 4:-0.476236 5:-0.540135 6:-0.352694 7:-0.89319 8:-0.5583 
-0 32768 0 1:-0.484363 2:-0.523295 3:-0.859502 4:-0.462641 5:-0.591276 6:-0.501762 7:-0.919539 8:-0.591547 
-0 52.12980687762171 0 1:0.247829 2:0.289033 3:-0.15428 4:0.210097 5:0.333864 6:-0.144202 7:-0.293153 8:0.354924 
-0 32768 0 1:0.037952 2:-0.178303 3:-0.467472 4:0.0655104 5:0.467653 6:0.193377 7:-0.0608051 8:0.418236 
-0 32768 0 1:-0.486022 2:-0.509127 3:-0.859525 4:-0.465788 5:-0.502 6:-0.382927 7:-0.880954 8:-0.511647 
-0 32768 32768 1:-0.227894 2:-0.522846 3:-0.714926 4:-0.177382 5:-0.688512 6:-0.422577 7:-0.944271 8:-0.708973 
-0 0 25689.1273222289 1:-0.166413 2:-0.235731 3:-0.643714 4:-0.150135 5:-0.421138 6:0.0406646 7:-0.803431 8:-0.50054 
-0 32768 32768 1:-0.124065 2:-0.474447 3:-0.637737 4:-0.0680734 5:-0.456684 6:-0.030221 7:-0.829369 8:-0.527512 
-0 32768 0 1:0.311939 2:-0.214886 3:-0.198365 4:0.376547 5:0.0105391 6:0.179999 7:-0.495909 8:-0.074083 
-0 32768 6317.278007617847 1:0.327847 2:-0.316089 3:-0.198837 4:0.411508 5:-0.205322 6:0.181406 7:-0.653582 8:-0.303778 
-0 0 32768 1:0.188742 2:0.0836532 3:-0.270282 4:0.185512 5:-0.48149 6:-0.427211 7:-0.876023 8:-0.482369 
-0 32768 32768 1:-0.497676 2:-0.508123 3:-0.864644 4:-0.479638 5:-0.481743 6:-0.358341 7:-0.871028 8:-0.494731 
-0 0 32768 1:-0.2425 2:-0.501101 3:-0.722845 4:-0.196309 5:-0.337807 6:-0.296535 7:-0.800663 8:-0.348483 
-0 32768 32768 1:-0.106461 2:-0.465125 3:-0.623653 4:-0.0496515 5:-0.291016 6:-0.305904 7:-0.777652 8:-0.295779 
-0 32768 0 1:-0.430543 2:-0.5737 3:-0.836177 4:-0.396931 5:-0.0573409 6:-0.187975 7:-0.619869 8:-0.0644449 
-0 32768 0 1:-0.140438 2:-0.188521 3:-0.618228 4:-0.129752 5:0.138679 6:-0.0119886 7:-0.435813 8:0.10939 
-0 32768 0 1:-0.190677 2:-0.360304 3:-0.67496 4:-0.158394 5:-0.0264923 6:-0.0623262 7:-0.575775 8:-0.0604301 
-0 32768 0 1:-0.0921282 2:-0.388191 3:-0.60476 4:-0.0446452 5:-0.0729504 6:-0.0961883 7:-0.615054 8:-0.101737 
-0 7500.750836636067 0 1:-0.137209 2:-0.225467 3:-0.620441 4:-0.119549 5:0.236611 6:-0.0439652 7:-0.358526 8:0.225281 
-0 32768 0 1:-0.0172579 2:-0.415814 3:-0.547514 4:0.0429634 5:-0.463479 6:-0.426189 7:-0.86869 8:-0.463781 
-0 32768 0 1:-0.105824 2:-0.440245 3:-0.620749 4:-0.0521974 5:-0.516232 6:-0.356761 7:-0.884503 8:-0.532651 
-0 32768 0 1:-0.450087 2:-0.318996 3:-0.829749 4:-0.450455 5:-0.583647 6:-0.464668 7:-0.914995 8:-0.589907 
-0 32768 0 1:-0.474533 2:-0.453401 3:-0.850889 4:-0.460133 5:-0.587927 6:-0.469955 7:-0.91686 8:-0.593022 
-0 32768 32768 1:-0.418786 2:-0.583548 3:-0.83072 4:-0.382795 5:-0.614257 6:-0.458922 7:-0.924563 8:-0.62363 
-0 32768 0 1:0.204186 2:-0.0413481 3:-0.280524 4:0.22529 5:-0.0235117 6:0.0782497 7:-0.545564 8:-0.0895415 
-0 5358.730444640609 0 1:0.111171 2:-0.130915 3:-0.391272 4:0.138598 5:-0.0647143 6:0.132536 7:-0.564864 8:-0.141818 
-0 32768 32768 1:-0.381752 2:-0.54356 3:-0.808866 4:-0.346377 5:-0.494439 6:-0.183303 7:-0.861774 8:-0.537748 
-0 11607.49187967796 4124.876112067116 1:-0.419704 2:-0.17791 3:-0.801812 4:-0.435365 5:-0.582715 6:-0.569465 7:-0.920048 8:-0.572474 
-0 32768 0 1:-0.482614 2:-0.535781 3:-0.859305 4:-0.459437 5:-0.38268 6:-0.300064 7:-0.822851 8:-0.396503 
-0 32768 0 1:-0.322208 2:-0.423982 3:-0.766584 4:-0.295375 5:-0.037547 6:-0.0213618 7:-0.576307 8:-0.0785313 
-503.5459091352947 0 0 1:0.000496775 2:-0.235813 3:-0.509401 4:0.0340734 5:0.0301739 6:-0.0964784 7:-0.540434 8:0.0108824 
-0 32768 32768 1:-0.117965 2:0.00827882 3:-0.572334 4:-0.129344 5:-0.380449 6:-0.1199 7:-0.802622 8:-0.425349 
-0 32768 0 1:-0.252298 2:-0.170563 3:-0.697314 4:-0.25347 5:-0.294379 6:-0.065445 7:-0.749763 8:-0.345119 
-0 32768 0 1:-0.474986 2:-0.594023 3:-0.858673 4:-0.444373 5:-0.232399 6:-0.289335 7:-0.743719 8:-0.234867 
-0 24817.62290791615 0 1:-0.49348 2:-0.403334 3:-0.856822 4:-0.487637 5:-0.644861 6:-0.582052 7:-0.939019 8:-0.638976 
-0 32768 32768 1:-0.524759 2:-0.685441 3:-0.884755 4:-0.490165 5:-0.601955 6:-0.499572 7:-0.922722 8:-0.60424 
-0 32768 32768 1:-0.455818 2:-0.582552 3:-0.849085 4:-0.424096 5:-0.449762 6:-0.290596 7:-0.851686 8:-0.473207 
-0 32768 32768 1:-0.416367 2:-0.500515 3:-0.824686 4:-0.389869 5:-0.344577 6:-0.217457 7:-0.795168 8:-0.372751 
-0 32768 32768 1:-0.42307 2:-0.521751 3:-0.829396 4:-0.394357 5:-0.417681 6:-0.322063 7:-0.840917 8:-0.431791 
-0 32768 0 1:-0.119903 2:0.107443 3:-0.557569 4:-0.156889 5:-0.21163 6:-0.122971 7:-0.709494 8:-0.248293 
-0 32768 0 1:0.0923707 2:-0.129487 3:-0.409207 4:0.117632 5:0.21844 6:0.0666315 7:-0.346861 8:0.17542 
-0 32768 0 1:0.115403 2:-0.227502 3:-0.403328 4:0.16012 5:-0.0759729 6:0.237877 7:-0.549754 8:-0.174136 
-0 5817.772842269461 0 1:0.0602258 2:0.081931 3:-0.400747 4:0.0458633 5:-0.303098 6:-0.0168583 7:-0.747827 8:-0.362911 
-32768 0 0 1:-0.608993 2:-0.520649 3:-0.911506 4:-0.601128 5:-0.690341 6:-0.442702 7:-0.945595 8:-0.703276 
-0 32768 32768 1:-0.447504 2:-0.60945 3:-0.846405 4:-0.411879 5:-0.661209 6:-0.505772 7:-0.940508 8:-0.666787 
-0 32768 32768 1:-0.396512 2:-0.63275 3:-0.821821 4:-0.35248 5:-0.637527 6:-0.517 7:-0.93423 8:-0.6398 
-0 32768 0 1:-0.234637 2:-0.40932 3:-0.70992 4:-0.200022 5:-0.2416 6:-0.0466848 7:-0.716137 8:-0.292292 
-0 32768 5467.413286567165 1:-0.356956 2:-0.0895325 3:-0.756243 4:-0.382344 5:0.0492092 6:-0.0232986 7:-0.511067 8:0.0163506 
-0 5890.102226151686 919.7653850013988 1:-0.314184 2:-0.111944 3:-0.731776 4:-0.332004 5:0.237799 6:-0.0439034 7:-0.357376 8:0.226481 
-0 30703.780000922 0 1:0.0437192 2:-0.409119 3:-0.49426 4:0.109343 5:-0.116109 6:-0.2455 7:-0.667714 8:-0.116896 
-0 32768 0 1:-0.000438908 2:-0.416268 3:-0.533456 4:0.0615754 5:-0.425137 6:-0.351952 7:-0.846822 8:-0.434476 
-0 32768 32768 1:-0.339979 2:-0.221824 3:-0.759473 4:-0.338924 5:-0.585642 6:-0.211219 7:-0.899648 8:-0.627835 
-0 30667.37303061799 31401.79115754031 1:-0.441106 2:-0.0839237 3:-0.804911 4:-0.47077 5:-0.369904 6:0.0404022 7:-0.776737 8:-0.442765 
-0 32768 32768 1:-0.220685 2:-0.572889 3:-0.713884 4:-0.16317 5:-0.334761 6:-0.271723 7:-0.796507 8:-0.34817 
-0 32768 32768 1:-0.148499 2:-0.526898 3:-0.660314 4:-0.0881312 5:-0.501566 6:-0.47732 7:-0.887018 8:-0.497438 
-0 32768 0 1:-0.439811 2:-0.523517 3:-0.837995 4:-0.413052 5:-0.733482 6:-0.584734 7:-0.961311 8:-0.73591 
-32768 32768 0 1:-0.521764 2:-0.46597 3:-0.873358 4:-0.510572 5:-0.75092 6:-0.523182 7:-0.963263 8:-0.761624 
-0 32768 0 1:-0.521255 2:-0.544276 3:-0.87717 4:-0.500823 5:-0.700388 6:-0.523581 7:-0.95147 8:-0.706688 
-0 32768 32768 1:-0.488634 2:-0.653809 3:-0.867731 4:-0.452967 5:-0.661102 6:-0.607581 7:-0.944397 8:-0.652886 
-0 32768 32768 1:-0.530355 2:-0.659684 3:-0.886148 4:-0.498835 5:-0.705222 6:-0.590245 7:-0.954957 8:-0.703824 
-0 32768 32768 1:-0.578034 2:-0.610905 3:-0.90347 4:-0.556799 5:-0.643769 6:-0.486919 7:-0.934773 8:-0.650009 
-0 32768 32768 1:-0.540426 2:-0.590738 3:-0.887436 4:-0.517328 5:-0.543588 6:-0.567532 7:-0.907092 8:-0.529812 
-0 32768 0 1:-0.36949 2:-0.372656 3:-0.790208 4:-0.354452 5:-0.599266 6:-0.429133 7:-0.918098 8:-0.612578 
-0 32768 0 1:0.259266 2:-0.151124 3:-0.243641 4:0.306328 5:0.137094 6:-0.0947192 7:-0.455493 8:0.125187 
-0 32768 32768 1:-0.387016 2:-0.141308 3:-0.779727 4:-0.405521 5:-0.64174 6:-0.522115 7:-0.935735 8:-0.644201 
-0 32768 32768 1:-0.414638 2:-0.603896 3:-0.829723 4:-0.375807 5:-0.563657 6:-0.466306 7:-0.908561 8:-0.567062 
-0 32768 32768 1:-0.432419 2:-0.572715 3:-0.837053 4:-0.398953 5:-0.422708 6:-0.429172 7:-0.851933 8:-0.418217 
-0 32768 32768 1:-0.0720871 2:-0.521441 3:-0.60254 4:-0.00397433 5:-0.480796 6:-0.146498 7:-0.852458 8:-0.527965 
-0 32768 32768 1:-0.46517 2:-0.583586 3:-0.853602 4:-0.43423 5:-0.52202 6:-0.398454 7:-0.889487 8:-0.531447 
-0 0 32768 1:-0.347555 2:-0.569825 3:-0.791583 4:-0.305014 5:-0.546371 6:-0.318737 7:-0.893183 8:-0.569814 
-0 4020.829713752471 0 1:-0.122151 2:-0.0721986 3:-0.587982 4:-0.128771 5:0.278367 6:-0.193978 7:-0.355341 8:0.304984 
-0 32768 0 1:0.148752 2:-0.273194 3:-0.378366 4:0.2053 5:0.285317 6:-0.00653494 7:-0.304603 8:0.268338 
-0 0 32768 1:0.116539 2:-0.220777 3:-0.401267 4:0.16084 5:-0.663199 6:-0.488797 7:-0.94033 8:-0.672167 
-0 32768 32768 1:-0.392236 2:-0.529328 3:-0.81374 4:-0.359214 5:-0.548408 6:-0.31471 7:-0.893609 8:-0.574721 
-0 32768 0 1:0.189754 2:-0.190637 3:-0.323846 4:0.237016 5:0.106641 6:-0.0978353 7:-0.480962 8:0.0929101 
-0 32768 0 1:0.108445 2:-0.388189 3:-0.433278 4:0.17872 5:-0.0918526 6:-0.000716383 7:-0.61109 8:-0.142462 
-0 0 32768 1:-0.122601 2:-0.184871 3:-0.60393 4:-0.109641 5:-0.58486 6:-0.197837 7:-0.898228 8:-0.632898 
-0 32768 0 1:-0.333082 2:-0.448152 3:-0.774957 4:-0.304057 5:-0.695973 6:-0.505197 7:-0.949328 8:-0.707051 
-0 32768 32768 1:-0.425799 2:-0.601824 3:-0.83528 4:-0.388518 5:-0.432862 6:-0.331062 7:-0.848443 8:-0.446963 
-0 32768 32768 1:-0.405649 2:-0.503789 3:-0.819243 4:-0.37726 5:-0.476968 6:-0.31603 7:-0.865902 8:-0.4974 
-0 32768 0 1:-0.454905 2:-0.518384 3:-0.845185 4:-0.43046 5:-0.58948 6:-0.510641 7:-0.919369 8:-0.588616 
-0 25877.52928080788 32768 1:-0.499646 2:-0.64695 3:-0.872375 4:-0.466016 5:-0.541972 6:-0.224093 7:-0.884338 8:-0.579352 
-0 32768 32768 1:-0.509575 2:-0.623202 3:-0.875736 4:-0.479475 5:-0.542304 6:-0.136532 7:-0.877225 8:-0.595161 
-0 32768 32768 1:-0.484333 2:-0.589357 3:-0.862859 4:-0.45501 5:-0.429656 6:-0.344503 7:-0.848177 8:-0.43983 
-0 0 32768 1:-0.311984 2:-0.567361 3:-0.770842 4:-0.265641 5:-0.281659 6:-0.297129 7:-0.771731 8:-0.286376 
-0 32768 32768 1:-0.543671 2:-0.574518 3:-0.888164 4:-0.5224 5:-0.609997 6:-0.450398 7:-0.922866 8:-0.61895 
-0 32768 32768 1:-0.14642 2:-0.450376 3:-0.651978 4:-0.0962788 5:-0.638174 6:-0.374776 7:-0.927509 8:-0.662004 
-0 32768 0 1:-0.0114072 2:-0.188073 3:-0.512938 4:0.0140954 5:0.0771805 6:-0.0450747 7:-0.492991 8:0.0489247 
-0 32768 0 1:0.1074 2:-0.328118 3:-0.426013 4:0.168061 5:0.0694447 6:-0.0525152 7:-0.500955 8:0.0431786 
-0 32768 32768 1:-0.137617 2:-0.496784 3:-0.649513 4:-0.0807977 5:-0.410759 6:-0.379975 7:-0.842702 8:-0.414493 
-0 32768 0 1:-0.162506 2:-0.569975 3:-0.673803 4:-0.0987717 5:-0.200723 6:-0.301898 7:-0.72704 8:-0.1974 
-32768 32768 32768 1:-0.294154 2:-0.555956 3:-0.75939 4:-0.247223 5:-0.765306 6:-0.54132 7:-0.966877 8:-0.775866 
-32768 32768 0 1:-0.37304 2:-0.578974 3:-0.806342 4:-0.332365 5:-0.792793 6:-0.581323 7:-0.973362 8:-0.800407 
-32768 0 0 1:-0.424031 2:-0.471419 3:-0.826824 4:-0.401763 5:-0.733393 6:-0.656302 7:-0.96329 8:-0.726999 
-0 0 32768 1:-0.194745 2:-0.188004 3:-0.658789 4:-0.185727 5:-0.573157 6:-0.108867 7:-0.886874 8:-0.632625 
-0 32768 0 1:-0.137491 2:-0.27963 3:-0.627206 4:-0.111623 5:0.205622 6:-0.13872 7:-0.407233 8:0.211593 
-0 32768 0 1:0.180705 2:-0.364841 3:-0.360651 4:0.255456 5:-0.110623 6:-0.207521 7:-0.658329 8:-0.118445 
-0 32768 0 1:-0.124208 2:-0.43307 3:-0.633931 4:-0.0736889 5:-0.53475 6:-0.333379 7:-0.889866 8:-0.556906 
-0 32768 32768 1:-0.0826344 2:-0.426768 3:-0.601468 4:-0.0283887 5:-0.39288 6:-0.34573 7:-0.831703 8:-0.400286 
-0 32768 0 1:0.0880222 2:-0.320982 3:-0.442929 4:0.145215 5:-0.416166 6:-0.293645 7:-0.837713 8:-0.435531 
-0 32768 2994.847755197841 1:0.363681 2:-0.159739 3:-0.128849 4:0.424585 5:-0.312622 6:-0.198098 7:-0.776781 8:-0.341649 
-0 32768 32768 1:-0.425373 2:-0.421248 3:-0.82423 4:-0.409223 5:-0.529837 6:-0.292099 7:-0.88497 8:-0.556955 
-0 32768 0 1:-0.462121 2:-0.24534 3:-0.8303 4:-0.473121 5:-0.657685 6:-0.412479 7:-0.935256 8:-0.675703 
-0 25643.04158561873 0 1:0.286213 2:-0.084218 3:-0.200948 4:0.325431 5:0.336398 6:-0.17345 7:-0.297651 8:0.363314 
-0 32768 0 1:-0.0882752 2:-0.377201 3:-0.600501 4:-0.0418147 5:-0.479338 6:-0.370709 7:-0.870621 8:-0.492334 
-0 32768 32768 1:-0.229483 2:-0.506632 3:-0.714608 4:-0.181327 5:-0.492897 6:-0.375931 7:-0.876804 8:-0.505132 
-0 32768 32768 1:-0.357672 2:-0.490604 3:-0.792195 4:-0.325832 5:-0.558956 6:-0.432769 7:-0.904788 8:-0.56822 
-0 32768 0 1:0.175635 2:0.0431303 3:-0.292952 4:0.180384 5:-0.244291 6:-0.292591 7:-0.750812 8:-0.248881 
-0 32768 32768 1:0.238491 2:-0.0849644 3:-0.253084 4:0.273038 5:-0.359456 6:-0.315107 7:-0.813171 8:-0.36971 
-0 0 12646.01859514906 1:-0.0682655 2:-0.110911 3:-0.549765 4:-0.0617025 5:-0.581738 6:-0.254318 7:-0.901432 8:-0.619119 
-0 32768 32768 1:0.0824331 2:-0.508595 3:-0.471512 4:0.166779 5:-0.395742 6:-0.327541 7:-0.831453 8:-0.405906 
