svm_type c_svc
kernel_type rbf
gamma 8
nr_class 4
total_sv 5647
rho 0.222044 0.340806 -0.28631 -0.0480239 -0.361689 -0.506367
label 4 2 3 1
probA -1.64015 -1.38518 -2.27839 -0.877182 -3.2072 -2.82347
probB -0.00346667 -0.100617 0.0526119 0.200831 -0.335787 -0.150563
nr_sv 984 2127 2211 325
SV
2 2 0 1:-0.57511 2:-0.739504 3:-0.916896 4:-0.515493 5:-0.828734 6:-0.717884 7:-0.977494 8:-0.832064 
2 2 0 1:-0.686854 2:-0.676772 3:-0.948526 4:-0.652457 5:-0.759937 6:-0.665736 7:-0.960261 8:-0.76461 
2 2 0 1:-0.624645 2:-0.695709 3:-0.931469 4:-0.577568 5:-0.732393 6:-0.61076 7:-0.951044 8:-0.741 
2 2 0 1:-0.615954 2:-0.665977 3:-0.927897 4:-0.570789 5:-0.685317 6:-0.586172 7:-0.935077 8:-0.69496 
2 2 0 1:-0.553603 2:-0.643038 3:-0.906515 4:-0.50047 5:-0.523271 6:-0.387145 7:-0.855359 8:-0.55147 
2 2 0 1:-0.561997 2:-0.662461 3:-0.910153 4:-0.507922 5:-0.560462 6:-0.373053 7:-0.871466 8:-0.593291 
2 2 0 1:-0.461107 2:-0.498941 3:-0.863238 4:-0.412877 5:-0.195868 6:-0.197752 7:-0.617629 8:-0.240644 
2 2 0 1:-0.501638 2:-0.51436 3:-0.88096 4:-0.457485 5:-0.238168 6:-0.408262 7:-0.686118 8:-0.241168 
2 2 0 1:-0.423193 2:-0.54581 3:-0.850298 4:-0.359968 5:-0.184138 6:-0.330024 7:-0.633531 8:-0.198727 
2 2 0 1:-0.171075 2:-0.52018 3:-0.715548 4:-0.0684271 5:-0.577706 6:-0.379743 7:-0.879901 8:-0.610951 
2 2 0 1:-0.602633 2:-0.64203 3:-0.922895 4:-0.558151 5:-0.556164 6:-0.475942 7:-0.878523 8:-0.571753 
2 2 0 1:-0.581849 2:-0.629108 3:-0.915256 4:-0.536595 5:-0.489821 6:-0.441791 7:-0.843149 8:-0.507972 
2 2 0 1:-0.562627 2:-0.581684 3:-0.906214 4:-0.521826 5:-0.486051 6:-0.378027 7:-0.834034 8:-0.515914 
2 2 0 1:-0.560875 2:-0.51224 3:-0.902881 4:-0.527801 5:-0.542911 6:-0.391015 7:-0.864291 8:-0.573366 
2 2 0 1:-0.552724 2:-0.512565 3:-0.900877 4:-0.515621 5:-0.510103 6:-0.464584 7:-0.85596 8:-0.524304 
2 2 0 1:-0.582565 2:-0.585837 3:-0.914446 4:-0.540611 5:-0.607473 6:-0.471281 7:-0.899867 8:-0.627339 
2 2 0 1:-0.677854 2:-0.653244 3:-0.945599 4:-0.6441 5:-0.724783 6:-0.708417 7:-0.952496 8:-0.720684 
2 2 0 1:-0.643812 2:-0.648229 3:-0.935841 4:-0.604954 5:-0.574468 6:-0.466833 7:-0.884778 8:-0.594012 
2 2 0 1:-0.608779 2:-0.687623 3:-0.926383 4:-0.559834 5:-0.595855 6:-0.401197 7:-0.888844 8:-0.626009 
2 2 0 1:-0.718654 2:-0.71265 3:-0.957434 4:-0.685688 5:-0.759414 6:-0.604263 7:-0.958201 8:-0.770644 
2 2 0 1:-0.749307 2:-0.710654 3:-0.964392 4:-0.721978 5:-0.736188 6:-0.615005 7:-0.95227 8:-0.744633 
2 2 0 1:-0.760196 2:-0.739591 3:-0.967292 4:-0.731862 5:-0.762784 6:-0.596395 7:-0.958833 8:-0.775225 
2 2 0 1:-0.748437 2:-0.667243 3:-0.963392 4:-0.724851 5:-0.746417 6:-0.667097 7:-0.956917 8:-0.74934 
2 2 0 1:-0.771172 2:-0.698716 3:-0.968864 4:-0.748563 5:-0.8407 6:-0.672187 7:-0.978841 8:-0.849211 
2 2 0 1:-0.736757 2:-0.768816 3:-0.962661 4:-0.701916 5:-0.733159 6:-0.651079 7:-0.952742 8:-0.736781 
2 2 0 1:-0.706389 2:-0.771816 3:-0.955612 4:-0.665892 5:-0.718062 6:-0.690265 7:-0.94996 8:-0.715502 
2 2 0 1:-0.693016 2:-0.696667 3:-0.95068 4:-0.657381 5:-0.751895 6:-0.708637 7:-0.959832 8:-0.749903 
2 2 0 1:-0.746389 2:-0.688925 3:-0.963377 4:-0.720394 5:-0.749879 6:-0.675824 7:-0.958169 8:-0.75189 
2 2 0 1:-0.784369 2:-0.765966 3:-0.972681 4:-0.757486 5:-0.720968 6:-0.543509 7:-0.944667 8:-0.73729 
2 2 0 1:-0.79534 2:-0.705546 3:-0.973821 4:-0.775457 5:-0.734134 6:-0.534942 7:-0.948284 8:-0.752025 
2 2 0 1:-0.682573 2:-0.635639 3:-0.946389 4:-0.651134 5:-0.784532 6:-0.724388 7:-0.968265 8:-0.783414 
0 2 0 1:-0.588509 2:-0.791707 3:-0.922658 4:-0.526192 5:-0.787099 6:-0.761162 7:-0.969777 8:-0.782127 
2 2 0 1:-0.572295 2:-0.801327 3:-0.917626 4:-0.506298 5:-0.822774 6:-0.732788 7:-0.976711 8:-0.823605 
0 2 0 1:-0.607829 2:-0.760412 3:-0.927931 4:-0.551666 5:-0.831083 6:-0.776246 7:-0.979185 8:-0.828377 
2 2 1.747433820314618 1:-0.781267 2:-0.715538 3:-0.971263 4:-0.75786 5:-0.840667 6:-0.816739 7:-0.981686 8:-0.83471 
2 2 2 1:-0.844193 2:-0.798451 3:-0.983531 4:-0.824703 5:-0.844494 6:-0.842433 7:-0.982736 8:-0.836729 
0 0 2 1:-0.839812 2:-0.822705 3:-0.983081 4:-0.81792 5:-0.844543 6:-0.888659 7:-0.98338 8:-0.832874 
0 0 2 1:-0.872536 2:-0.857223 3:-0.988142 4:-0.853583 5:-0.840066 6:-0.899635 7:-0.98275 8:-0.827206 
2 2 0 1:-0.522358 2:-0.651218 3:-0.895232 4:-0.463839 5:-0.521347 6:-0.360563 7:-0.850282 8:-0.556456 
2 2 0 1:-0.56061 2:-0.55522 3:-0.904416 4:-0.522391 5:-0.501193 6:-0.310359 7:-0.836088 8:-0.541348 
2 2 0 1:-0.670814 2:-0.534907 3:-0.938448 4:-0.654765 5:-0.644218 6:-0.431068 7:-0.911217 8:-0.673679 
2 2 0 1:-0.748716 2:-0.710167 3:-0.964174 4:-0.721727 5:-0.703655 6:-0.59455 7:-0.941678 8:-0.712544 
2 2 0 1:-0.692137 2:-0.673074 3:-0.949886 4:-0.65873 5:-0.654277 6:-0.581435 7:-0.924688 8:-0.660717 
2 2 0 1:-0.669631 2:-0.659241 3:-0.943151 4:-0.635379 5:-0.607681 6:-0.515179 7:-0.903219 8:-0.620106 
2 2 0 1:-0.741324 2:-0.696241 3:-0.962113 4:-0.715059 5:-0.683114 6:-0.463494 7:-0.928117 8:-0.708384 
2 2 0 1:-0.812056 2:-0.710476 3:-0.977006 4:-0.794862 5:-0.783092 6:-0.568038 7:-0.962976 8:-0.800102 
2 2 0 1:-0.771869 2:-0.62326 3:-0.967535 4:-0.756624 5:-0.790192 6:-0.680137 7:-0.968349 8:-0.794332 
2 2 0 1:-0.698441 2:-0.697008 3:-0.952074 4:-0.663637 5:-0.785206 6:-0.704669 7:-0.967904 8:-0.786234 
2 2 0 1:-0.759665 2:-0.741011 3:-0.967258 4:-0.730841 5:-0.793011 6:-0.779222 7:-0.971365 8:-0.7874 
2 2 0 1:-0.815905 2:-0.770087 3:-0.978547 4:-0.794036 5:-0.833547 6:-0.751853 7:-0.979155 8:-0.833632 
2 2 0 1:-0.784083 2:-0.788323 3:-0.972946 4:-0.755297 5:-0.868149 6:-0.766587 7:-0.985498 8:-0.869026 
2 2 0 1:-0.744194 2:-0.836711 3:-0.96533 4:-0.705292 5:-0.863811 6:-0.792126 7:-0.985167 8:-0.862229 
2 2 0 1:-0.807642 2:-0.781347 3:-0.977086 4:-0.784312 5:-0.864438 6:-0.81171 7:-0.985598 8:-0.861022 
2 2 2 1:-0.893455 2:-0.785188 3:-0.990159 4:-0.883725 5:-0.862259 6:-0.794233 7:-0.984973 8:-0.860233 
2 2 2 1:-0.922864 2:-0.8255 3:-0.993814 4:-0.914697 5:-0.845352 6:-0.814309 7:-0.982368 8:-0.840497 
0 0 2 1:-0.85917 2:-0.789577 3:-0.985677 4:-0.842635 5:-0.840181 6:-0.8885 7:-0.982625 8:-0.828225 
0 0 2 1:-0.852251 2:-0.770677 3:-0.984435 4:-0.836142 5:-0.850658 6:-0.918272 7:-0.984729 8:-0.83744 
2 0 2 1:-0.916809 2:-0.729321 3:-0.992433 4:-0.914586 5:-0.851388 6:-0.896947 7:-0.984607 8:-0.839731 
1.012188320904005 2 0 1:-0.214966 2:-0.619027 3:-0.748433 4:-0.107183 5:-0.771649 6:-0.655306 7:-0.963147 8:-0.7773 
0 2 0 1:-0.439219 2:-0.573523 3:-0.858754 4:-0.375122 5:-0.740059 6:-0.679529 7:-0.955721 8:-0.740363 
0 2 0 1:-0.502582 2:-0.616716 3:-0.886637 4:-0.443845 5:-0.715923 6:-0.76423 7:-0.951808 8:-0.704593 
0 2 1.56205987193002 1:-0.554557 2:-0.622676 3:-0.906135 4:-0.503862 5:-0.676124 6:-0.801883 7:-0.94114 8:-0.657291 
2 2 0 1:-0.650733 2:-0.626385 3:-0.937228 4:-0.615541 5:-0.649678 6:-0.731496 7:-0.930022 8:-0.636557 
2 2 0 1:-0.659931 2:-0.669006 3:-0.940979 4:-0.621873 5:-0.613468 6:-0.610197 7:-0.911272 8:-0.612842 
2 2 0 1:-0.633666 2:-0.589661 3:-0.930825 4:-0.600502 5:-0.54296 6:-0.4723 7:-0.872233 8:-0.557298 
2 2 0 1:-0.713541 2:-0.550841 3:-0.952034 4:-0.697541 5:-0.485115 6:-0.572963 7:-0.852376 8:-0.480209 
0.651882927200292 2 0 1:-0.59736 2:-0.48997 3:-0.915543 4:-0.568239 5:-0.571929 6:-0.757003 7:-0.902412 8:-0.548735 
0 2 2 1:-0.118563 2:-0.566714 3:-0.686357 4:-0.000286943 5:-0.779463 6:-0.737538 7:-0.967453 8:-0.775569 
2 2 0 1:-0.715997 2:-0.675398 3:-0.955975 4:-0.686284 5:-0.759651 6:-0.639801 7:-0.959403 8:-0.767004 
2 2 0 1:-0.752873 2:-0.696859 3:-0.964976 4:-0.727169 5:-0.813902 6:-0.642406 7:-0.972209 8:-0.82566 
2 2 0 1:-0.774743 2:-0.779577 3:-0.970957 4:-0.745264 5:-0.809034 6:-0.628293 7:-0.971115 8:-0.820701 
2 2 0 1:-0.770009 2:-0.707227 3:-0.968794 4:-0.746286 5:-0.742597 6:-0.576308 7:-0.952486 8:-0.755317 
2 2 0 1:-0.778586 2:-0.703184 3:-0.97051 4:-0.756502 5:-0.730224 6:-0.598756 7:-0.949899 8:-0.740306 
2 2 0 1:-0.732172 2:-0.767131 3:-0.961641 4:-0.696439 5:-0.746783 6:-0.666749 7:-0.957122 8:-0.749388 
2 2 0 1:-0.75476 2:-0.718949 3:-0.965776 4:-0.727291 5:-0.769359 6:-0.692027 7:-0.963742 8:-0.770749 
2 2 0 1:-0.796541 2:-0.739167 3:-0.974596 4:-0.774102 5:-0.775777 6:-0.75602 7:-0.967013 8:-0.7707 
2 2 0 1:-0.793855 2:-0.760526 3:-0.974359 4:-0.769421 5:-0.776631 6:-0.747286 7:-0.96699 8:-0.772529 
2 2 0 1:-0.802803 2:-0.731877 3:-0.975541 4:-0.782747 5:-0.769927 6:-0.730541 7:-0.964964 8:-0.766983 
2 2 0 1:-0.813119 2:-0.719106 3:-0.977165 4:-0.796299 5:-0.78097 6:-0.735578 7:-0.967701 8:-0.778318 
2 2 0 1:-0.797668 2:-0.731388 3:-0.97468 4:-0.776192 5:-0.806997 6:-0.75327 7:-0.973716 8:-0.805519 
2 2 0 1:-0.733057 2:-0.772319 3:-0.961945 4:-0.696953 5:-0.8472 6:-0.783977 7:-0.98229 8:-0.844783 
0 0 2 1:-0.676427 2:-0.826161 3:-0.949006 4:-0.626182 5:-0.861423 6:-0.858613 7:-0.985761 8:-0.85369 
0 0 1.162309564344383 1:-0.58977 2:-0.892919 3:-0.925107 4:-0.519986 5:-0.867445 6:-0.866118 7:-0.986787 8:-0.859572 
0 2 2 1:-0.685925 2:-0.754665 3:-0.950109 4:-0.643293 5:-0.872877 6:-0.888826 7:-0.987828 8:-0.86393 
0 0 2 1:-0.841823 2:-0.785024 3:-0.982988 4:-0.823145 5:-0.857781 6:-0.919053 7:-0.985867 8:-0.845192 
0 0 2 1:-0.918293 2:-0.822027 3:-0.993335 4:-0.90941 5:-0.855328 6:-0.927423 7:-0.985574 8:-0.841905 
0 0 2 1:-0.936246 2:-0.864448 3:-0.995311 4:-0.928005 5:-0.863431 6:-0.943407 7:-0.986979 8:-0.849672 
0 0 2 1:-0.903336 2:-0.823317 3:-0.991688 4:-0.892036 5:-0.865504 6:-0.932453 7:-0.987191 8:-0.852658 
2 2 0.6792911578219524 1:-0.129485 2:-0.707256 3:-0.70264 4:0.00349428 5:-0.780556 6:-0.623945 7:-0.964068 8:-0.791676 
2 2 0 1:-0.145403 2:-0.706217 3:-0.712388 4:-0.0152997 5:-0.73985 6:-0.625485 7:-0.953659 8:-0.746545 
2 2 0 1:-0.378166 2:-0.615663 3:-0.833124 4:-0.299114 5:-0.681135 6:-0.590767 7:-0.933796 8:-0.6898 
2 2 0 1:-0.534959 2:-0.564682 3:-0.896721 4:-0.487975 5:-0.601635 6:-0.583518 7:-0.905148 8:-0.603885 
2 2 0 1:-0.621994 2:-0.508142 3:-0.924331 4:-0.596555 5:-0.525621 6:-0.620318 7:-0.875041 8:-0.516683 
0 2 0.3529923088566457 1:-0.351749 2:-0.227796 3:-0.792476 4:-0.318195 5:-0.642468 6:-0.598171 7:-0.920954 8:-0.646415 
1.640657096257427 2 2 1:0.20303 2:-0.543949 3:-0.443727 4:0.371972 5:-0.82455 6:-0.702873 7:-0.976368 8:-0.828668 
0.2547225192958179 2 2 1:0.241325 2:-0.7743 3:-0.431406 4:0.444848 5:-0.903219 6:-0.795074 7:-0.990951 8:-0.90416 
2 1.116408047487477 0.6338288212327294 1:0.537603 2:-0.282536 3:-0.079789 4:0.718162 5:-0.103544 6:-0.0196118 7:-0.497143 8:-0.181366 
2 0.6483178106711248 0.2173055731441866 1:0.151654 2:-0.281965 3:-0.45437 4:0.267623 5:-0.255503 6:-0.291302 7:-0.680488 8:-0.283512 
2 2 0 1:-0.243125 2:-0.529628 3:-0.758441 4:-0.15214 5:-0.430506 6:-0.543384 7:-0.82217 8:-0.425525 
2 2 0 1:-0.249127 2:-0.61776 3:-0.767547 4:-0.147501 5:-0.304247 6:-0.418223 7:-0.732935 8:-0.310716 
2 2 0.3997975930214616 1:-0.159893 2:-0.701382 3:-0.720897 4:-0.0329533 5:-0.265825 6:-0.438517 7:-0.709238 8:-0.266366 
2 2 0 1:0.0619632 2:-0.551057 3:-0.558539 4:0.208448 5:-0.563943 6:-0.453219 7:-0.880041 8:-0.583333 
2 2 0.6532276286197135 1:0.368614 2:-0.711826 3:-0.311622 4:0.587749 5:-0.759179 6:-0.561478 7:-0.956402 8:-0.776192 
2 2 0 1:-0.358069 2:-0.379643 3:-0.808684 4:-0.308225 5:-0.248254 6:-0.286569 7:-0.674548 8:-0.276609 
2 2 0 1:-0.351989 2:-0.402639 3:-0.807369 4:-0.298208 5:-0.446491 6:-0.324572 7:-0.807199 8:-0.481941 
2 2 0 1:-0.501747 2:-0.557346 3:-0.883313 4:-0.451549 5:-0.558863 6:-0.480148 7:-0.877152 8:-0.57904 
2 2 0 1:-0.628321 2:-0.543476 3:-0.926932 4:-0.601982 5:-0.602948 6:-0.556087 7:-0.903301 8:-0.611111 
2 2 0 1:-0.75214 2:-0.595198 3:-0.962399 4:-0.7378 5:-0.689655 6:-0.641448 7:-0.93945 8:-0.690954 
2 2 0 1:-0.811032 2:-0.717932 3:-0.976947 4:-0.79293 5:-0.713503 6:-0.676763 7:-0.948149 8:-0.71231 
2 2 0 1:-0.852098 2:-0.697854 3:-0.98352 4:-0.842535 5:-0.754446 6:-0.682467 7:-0.959656 8:-0.75581 
2 2 2 1:-0.875275 2:-0.731453 3:-0.987131 4:-0.867873 5:-0.777156 6:-0.758825 7:-0.967388 8:-0.771965 
1.585559801299766 2 2 1:-0.619953 2:-0.485102 3:-0.922767 4:-0.592224 5:-0.826388 6:-0.736327 7:-0.977404 8:-0.82741 
2 2 0 1:-0.365404 2:-0.849569 3:-0.836766 4:-0.259928 5:-0.89166 6:-0.792752 7:-0.989159 8:-0.893282 
0 2 2 1:-0.203902 2:-0.756289 3:-0.749652 4:-0.0785252 5:-0.917565 6:-0.878194 7:-0.993494 8:-0.913185 
2 2 0 1:-0.832543 2:-0.727901 3:-0.980809 4:-0.817061 5:-0.796288 6:-0.655102 7:-0.969052 8:-0.803644 
2 2 0 1:-0.828938 2:-0.74819 3:-0.980403 4:-0.811559 5:-0.79616 6:-0.657742 7:-0.969057 8:-0.803589 
2 2 0 1:-0.822537 2:-0.705341 3:-0.97861 4:-0.808581 5:-0.783262 6:-0.664951 7:-0.965954 8:-0.790118 
2 2 0 1:-0.708543 2:-0.640344 3:-0.953217 4:-0.681141 5:-0.751584 6:-0.661982 7:-0.958236 8:-0.754985 
2 2 0 1:-0.65141 2:-0.725911 3:-0.94006 4:-0.606037 5:-0.703141 6:-0.648022 7:-0.943659 8:-0.705199 
2 2 0 1:-0.74286 2:-0.725476 3:-0.963142 4:-0.713534 5:-0.668132 6:-0.525882 7:-0.926453 8:-0.683745 
2 2 0 1:-0.77715 2:-0.700991 3:-0.970182 4:-0.755015 5:-0.660202 6:-0.473421 7:-0.920592 8:-0.680121 
2 2 0 1:-0.319159 2:-0.694297 3:-0.808655 4:-0.220113 5:-0.703007 6:-0.554076 7:-0.939652 8:-0.716654 
2 2 0 1:-0.427004 2:-0.382605 3:-0.841995 4:-0.386514 5:-0.660553 6:-0.551457 7:-0.925231 8:-0.670848 
0 2 2 1:-0.193432 2:-0.374496 3:-0.716637 4:-0.113665 5:-0.739069 6:-0.614389 7:-0.953052 8:-0.746663 
0 2 2 1:-0.206661 2:-0.548629 3:-0.738996 4:-0.104539 5:-0.860277 6:-0.770798 7:-0.984286 8:-0.860019 
2 2 0 1:-0.28643 2:-0.555611 3:-0.783938 4:-0.199264 5:-0.591741 6:-0.565518 7:-0.900068 8:-0.596061 
2 2 0 1:-0.508089 2:-0.591909 3:-0.887765 4:-0.453297 5:-0.664921 6:-0.594826 7:-0.92888 8:-0.671212 
2 2 0 1:-0.655525 2:-0.658502 3:-0.93934 4:-0.618332 5:-0.581482 6:-0.479468 7:-0.889521 8:-0.598984 
2 2 0 1:-0.654 2:-0.544853 3:-0.935356 4:-0.629411 5:-0.640259 6:-0.455175 7:-0.911703 8:-0.66501 
2 2 0 1:-0.609452 2:-0.536979 3:-0.921467 4:-0.578161 5:-0.625438 6:-0.481237 7:-0.907959 8:-0.644832 
2 2 0 1:-0.581636 2:-0.545926 3:-0.912492 4:-0.544771 5:-0.654721 6:-0.570212 7:-0.924259 8:-0.663203 
0 2 0 1:-0.45757 2:-0.383878 3:-0.855546 4:-0.423221 5:-0.739037 6:-0.623388 7:-0.953401 8:-0.74658 
2 2 0 1:-0.353541 2:-0.442549 3:-0.811011 4:-0.293857 5:-0.271621 6:-0.00400563 7:-0.638414 8:-0.351672 
2 2 0.6095724619927739 1:-0.481468 2:-0.261722 3:-0.857689 4:-0.469391 5:0.132192 6:0.150186 7:-0.200589 8:0.0285728 
2 2 0.7037754894900603 1:-0.0386405 2:-0.290899 3:-0.604547 4:0.0487209 5:0.779821 6:-0.131311 7:0.569858 8:0.794674 
2 2 0 1:-0.547035 2:-0.654754 3:-0.904179 4:-0.492791 5:-0.610017 6:-0.512543 7:-0.903828 8:-0.623921 
2 2 0 1:-0.576849 2:-0.612102 3:-0.913494 4:-0.530942 5:-0.493525 6:-0.378535 7:-0.837154 8:-0.524263 
2 2 0 1:-0.482031 2:-0.566439 3:-0.876259 4:-0.426213 5:-0.447605 6:-0.409112 7:-0.817269 8:-0.468235 
2 2 0 1:-0.527983 2:-0.588532 3:-0.895148 4:-0.476847 5:-0.670381 6:-0.54095 7:-0.928145 8:-0.683473 
2 2 0 1:-0.685081 2:-0.598865 3:-0.946032 4:-0.658586 5:-0.729053 6:-0.647461 7:-0.951454 8:-0.732218 
2 2 0.4399586733299654 1:-0.829059 2:-0.605528 3:-0.978275 4:-0.824793 5:-0.714788 6:-0.714874 7:-0.949763 8:-0.709183 
2 2 0 1:-0.722418 2:-0.419827 3:-0.949904 4:-0.718558 5:-0.752944 6:-0.705485 7:-0.96001 8:-0.75113 
0 2 2 1:-0.304589 2:-0.538195 3:-0.791982 4:-0.22286 5:-0.839348 6:-0.712637 7:-0.979476 8:-0.842529 
0.2101489839225688 2 2 1:-0.0948994 2:-0.849463 3:-0.687582 4:0.0570641 5:-0.9037 6:-0.819387 7:-0.991275 8:-0.902775 
0 2 2 1:-0.280536 2:-0.762133 3:-0.791898 4:-0.167762 5:-0.912595 6:-0.842317 7:-0.992621 8:-0.910388 
2 2 0.1665277533249758 1:-0.398142 2:-0.48939 3:-0.835393 4:-0.339418 5:-0.0116314 6:-0.301575 7:-0.477221 8:-0.0244905 
2 2 0 1:-0.429048 2:-0.51835 3:-0.851375 4:-0.370826 5:-0.227172 6:-0.173886 7:-0.638112 8:-0.27823 
2 2 0 1:-0.56919 2:-0.6177 3:-0.910791 4:-0.522352 5:-0.638592 6:-0.318744 7:-0.899958 8:-0.684351 
2 2 0.423670633756978 1:-0.685987 2:-0.672154 3:-0.948225 4:-0.6518 5:-0.726073 6:-0.489672 7:-0.943636 8:-0.750109 
2 2 0 1:-0.626355 2:-0.53711 3:-0.92675 4:-0.598339 5:-0.549061 6:-0.392812 7:-0.868235 8:-0.577305 
2 2 0 1:-0.574018 2:-0.546637 3:-0.909976 4:-0.535752 5:-0.451644 6:-0.296343 7:-0.806979 8:-0.491325 
2 2 0 1:-0.647552 2:-0.618827 3:-0.936071 4:-0.61263 5:-0.512325 6:-0.349501 7:-0.845734 8:-0.545183 
2 2 0 1:-0.714993 2:-0.610492 3:-0.954126 4:-0.692124 5:-0.661181 6:-0.562077 7:-0.926093 8:-0.671143 
2 2 0 1:-0.726369 2:-0.689761 3:-0.958787 4:-0.696866 5:-0.756892 6:-0.631653 7:-0.958551 8:-0.76469 
2 2 0 1:-0.78322 2:-0.768383 3:-0.97245 4:-0.756091 5:-0.769993 6:-0.715256 7:-0.964582 8:-0.768625 
2 2 0 1:-0.861506 2:-0.816669 3:-0.986275 4:-0.843584 5:-0.783828 6:-0.69276 7:-0.967097 8:-0.786697 
2 2 0 1:-0.889389 2:-0.843353 3:-0.990194 4:-0.874232 5:-0.800663 6:-0.652652 7:-0.969836 8:-0.808543 
2 2 2 1:-0.751254 2:-0.506685 3:-0.960053 4:-0.743206 5:-0.802285 6:-0.70856 7:-0.97178 8:-0.803254 
0 2 2 1:-0.596466 2:-0.697174 3:-0.922758 4:-0.544073 5:-0.833776 6:-0.789341 7:-0.979963 8:-0.829814 
0 0 2 1:-0.609172 2:-0.84184 3:-0.930181 4:-0.546402 5:-0.878814 6:-0.868311 7:-0.98846 8:-0.872011 
0 2 2 1:-0.500147 2:-0.698253 3:-0.888882 4:-0.431371 5:-0.89378 6:-0.909773 7:-0.99092 8:-0.885037 
2 2 0 1:-0.548514 2:-0.544062 3:-0.900603 4:-0.507069 5:-0.640187 6:-0.533887 7:-0.916783 8:-0.65333 
2 2 0 1:-0.410442 2:-0.466856 3:-0.839756 4:-0.356875 5:-0.55224 6:-0.491917 7:-0.878018 8:-0.565024 
2 2 0 1:-0.307934 2:-0.408405 3:-0.784729 4:-0.246449 5:-0.292929 6:-0.419447 7:-0.725576 8:-0.29858 
2 2 0 1:-0.199476 2:-0.397276 3:-0.722356 4:-0.121622 5:-0.326066 6:-0.383581 7:-0.742272 8:-0.341282 
0 2 0.05409966295820313 1:0.119705 2:-0.265536 3:-0.478653 4:0.227525 5:-0.104546 6:-0.0752161 7:-0.514689 8:-0.168192 
2 2 0.5363875253743426 1:0.303488 2:-0.269684 3:-0.315279 4:0.440662 5:0.0205439 6:-0.119703 7:-0.405305 8:-0.0297344 
2 2 0 1:-0.461056 2:-0.581513 3:-0.868348 4:-0.399706 5:-0.554671 6:-0.477591 7:-0.877986 8:-0.569763 
1.41885416115758 2 0.3053922528273195 1:-0.231388 2:-0.262286 3:-0.727985 4:-0.181749 5:-0.35695 6:-0.34395 7:-0.756996 8:-0.382024 
1.43042730272602 1.415998977149828 0.93624769266163 1:0.0166958 2:0.2885 3:-0.462095 4:-0.0069706 5:-0.294765 6:-0.258078 7:-0.702915 8:-0.332594 
0.9295016858186879 0.9694731400766281 0.5321675008268197 1:0.515988 2:0.572043 3:0.144089 4:0.523238 5:-0.143025 6:-0.0972633 7:-0.552507 8:-0.202822 
0.9084104266531046 1.155422117805078 0.550379395517492 1:0.330853 2:0.534001 3:-0.0860566 4:0.321363 5:-0.201423 6:-0.0769651 7:-0.59772 8:-0.266104 
0.7638831336642974 0.8377991979144175 0.4464244142131641 1:1 2:0.900406 3:1 4:1 5:0.368896 6:0.241573 7:0.133291 8:0.274592 
0.7641649218309601 0.8386510372444462 0.4455500312740753 1:0.882289 2:1 3:0.869567 4:0.848615 5:0.376122 6:0.243168 7:0.144103 8:0.27627 
2 2 0 1:-0.587067 2:-0.425015 3:-0.908424 4:-0.569385 5:-0.530687 6:-0.316164 7:-0.851438 8:-0.57226 
2 2 0 1:-0.668844 2:-0.615816 3:-0.941419 4:-0.640322 5:-0.696901 6:-0.551771 7:-0.937038 8:-0.712269 
2 2 0 1:-0.583645 2:-0.674132 3:-0.917883 4:-0.531675 5:-0.777924 6:-0.585883 7:-0.962158 8:-0.793381 
2 2 0 1:-0.450932 2:-0.854907 3:-0.874131 4:-0.359846 5:-0.728545 6:-0.63264 7:-0.95041 8:-0.735282 
2 2 0 1:-0.508903 2:-0.77871 3:-0.894568 4:-0.434526 5:-0.68662 6:-0.672227 7:-0.939576 8:-0.684251 
2 2 0 1:-0.50776 2:-0.615155 3:-0.888531 4:-0.450254 5:-0.555588 6:-0.341625 7:-0.866356 8:-0.592945 
2 2 0 1:-0.20117 2:-0.434829 3:-0.726532 4:-0.116645 5:-0.42532 6:-0.261413 7:-0.78746 8:-0.466974 
2 0.8788734305844191 0.1514795829940222 1:0.212269 2:-0.667271 3:-0.448208 4:0.399473 5:-0.51234 6:-0.393763 7:-0.850586 8:-0.533619 
0 2 2 1:-0.567205 2:-0.785255 3:-0.915557 4:-0.501627 5:-0.851149 6:-0.819225 7:-0.983538 8:-0.845931 
0 2 2 1:-0.728423 2:-0.728871 3:-0.960048 4:-0.69529 5:-0.862944 6:-0.830573 7:-0.985548 8:-0.858265 
2 2 2 1:-0.705456 2:-0.449109 3:-0.946528 4:-0.701238 5:-0.828673 6:-0.645591 7:-0.975778 8:-0.839356 
2 2 0 1:-0.503535 2:-0.297608 3:-0.869688 4:-0.4883 5:-0.463376 6:-0.229571 7:-0.80587 8:-0.512314 
2 2 0 1:-0.573684 2:-0.333904 3:-0.899412 4:-0.563028 5:-0.39184 6:-0.372161 7:-0.782196 8:-0.413334 
2 2 0 1:-0.736982 2:-0.898921 3:-0.964613 4:-0.692185 5:-0.770389 6:-0.703012 7:-0.964319 8:-0.769479 
2 2 0 1:-0.482318 2:-0.700219 3:-0.88193 4:-0.41069 5:-0.74611 6:-0.581361 7:-0.953698 8:-0.759586 
2 2 0 1:-0.624953 2:-0.602421 3:-0.928729 4:-0.58806 5:-0.734358 6:-0.63962 7:-0.952368 8:-0.740361 
2 2 0 1:-0.800985 2:-0.770724 3:-0.97583 4:-0.776869 5:-0.780836 6:-0.652788 7:-0.965131 8:-0.788146 
2 2 2 1:-0.759758 2:-0.442369 3:-0.960154 4:-0.762083 5:-0.80069 6:-0.639671 7:-0.969386 8:-0.81063 
0 2 1.896296712363087 1:-0.397336 2:-0.361542 3:-0.826579 4:-0.354241 5:-0.746977 6:-0.633027 7:-0.955868 8:-0.753975 
2 2 0 1:-0.0375109 2:-0.483116 3:-0.624813 4:0.0818372 5:-0.452042 6:-0.37857 7:-0.817462 8:-0.473808 
1.508175641930982 0.3210425676349475 0.2603891051392956 1:0.101389 2:-0.376071 3:-0.508515 4:0.226544 5:-0.227854 6:-0.383887 7:-0.675051 8:-0.231115 
2 2 0.01275754957859886 1:-0.543663 2:-0.799422 3:-0.907858 4:-0.472829 5:-0.681975 6:-0.529373 7:-0.931462 8:-0.696154 
2 2 0 1:-0.51614 2:-0.778699 3:-0.897429 4:-0.442358 5:-0.653565 6:-0.540785 7:-0.922207 8:-0.664073 
2 2 0 1:-0.629369 2:-0.694612 3:-0.932818 4:-0.582869 5:-0.700901 6:-0.640833 7:-0.942936 8:-0.702196 
2 2 0 1:-0.706482 2:-0.629754 3:-0.952403 4:-0.67948 5:-0.776386 6:-0.709638 7:-0.965957 8:-0.775968 
2 2 0 1:-0.609511 2:-0.660021 3:-0.925789 4:-0.563497 5:-0.782493 6:-0.656447 7:-0.965848 8:-0.788606 
2 2 0 1:-0.66164 2:-0.700346 3:-0.942364 4:-0.620216 5:-0.779755 6:-0.631433 7:-0.964347 8:-0.788919 
2 2 0 1:-0.744305 2:-0.816782 3:-0.965155 4:-0.706452 5:-0.794131 6:-0.657202 7:-0.968616 8:-0.80119 
2 2 0 1:-0.756918 2:-0.840987 3:-0.968191 4:-0.719389 5:-0.823269 6:-0.689427 7:-0.975744 8:-0.828983 
2 0.5317303311193823 0 1:-0.775278 2:-0.857203 3:-0.972092 4:-0.739842 5:-0.86668 6:-0.794097 7:-0.985668 8:-0.865045 
2 2 0 1:-0.739633 2:-0.843993 3:-0.964522 4:-0.698915 5:-0.874691 6:-0.746625 7:-0.986198 8:-0.877359 
2 2 0 1:-0.727791 2:-0.791848 3:-0.961065 4:-0.689141 5:-0.855077 6:-0.684504 7:-0.981738 8:-0.862737 
2 2 0 1:-0.745402 2:-0.774236 3:-0.964724 4:-0.71127 5:-0.794135 6:-0.722024 7:-0.970399 8:-0.793869 
2 2 0 1:-0.790763 2:-0.77366 3:-0.973954 4:-0.764518 5:-0.817232 6:-0.736438 7:-0.975668 8:-0.817252 
2 2 0 1:-0.825648 2:-0.701402 3:-0.97926 4:-0.811111 5:-0.827623 6:-0.672031 7:-0.976259 8:-0.834726 
2 2 2 1:-0.857102 2:-0.688714 3:-0.984177 4:-0.848848 5:-0.834264 6:-0.682463 7:-0.977818 8:-0.841066 
2 2 2 1:-0.868117 2:-0.783528 3:-0.986874 4:-0.853877 5:-0.844565 6:-0.528169 7:-0.975762 8:-0.867666 
2 2 2 1:-0.894392 2:-0.761797 3:-0.990131 4:-0.886039 5:-0.855995 6:-0.503237 7:-0.977369 8:-0.880823 
2 2 2 1:-0.92579 2:-0.868628 3:-0.994376 4:-0.915118 5:-0.915187 6:-0.841419 7:-0.99291 8:-0.913251 
2 2 2 1:-0.926045 2:-0.849711 3:-0.994295 4:-0.916565 5:-0.907013 6:-0.8662 7:-0.992176 8:-0.902557 
2 2 2 1:-0.957836 2:-0.809967 3:-0.996902 4:-0.956306 5:-0.892172 6:-0.870544 7:-0.99035 8:-0.886096 
2 2 0 1:-0.778521 2:-0.814127 3:-0.972216 4:-0.746694 5:-0.811643 6:-0.677726 7:-0.973027 8:-0.817416 
2 2 0 1:-0.782793 2:-0.693589 3:-0.971144 4:-0.762483 5:-0.64553 6:-0.162013 7:-0.890221 8:-0.709516 
2 2 0 1:-0.785578 2:-0.666371 3:-0.971188 4:-0.768009 5:-0.596868 6:-0.238504 7:-0.875778 8:-0.650561 
2 2 0 1:-0.865382 2:-0.745778 3:-0.986065 4:-0.853696 5:-0.797588 6:-0.703478 7:-0.970693 8:-0.799626 
2 2 0.7141031643154409 1:-0.890427 2:-0.778881 3:-0.989795 4:-0.880115 5:-0.779254 6:-0.600405 7:-0.963205 8:-0.791601 
2 2 0 1:-0.87214 2:-0.81746 3:-0.987753 4:-0.855968 5:-0.725407 6:-0.650449 7:-0.950597 8:-0.727997 
2 2 0 1:-0.829081 2:-0.801944 3:-0.981167 4:-0.806728 5:-0.769435 6:-0.791437 7:-0.966418 8:-0.759931 
2 2 0 1:-0.784025 2:-0.847021 3:-0.973667 4:-0.750829 5:-0.827665 6:-0.789213 7:-0.978804 8:-0.823213 
0 0.2105089023139583 0 1:-0.558374 2:-0.900621 3:-0.914965 4:-0.482865 5:-0.926878 6:-0.839512 7:-0.994191 8:-0.925897 
0.2917484484824333 2 2 1:-0.589933 2:-0.813181 3:-0.923619 4:-0.52593 5:-0.941942 6:-0.85227 7:-0.995796 8:-0.941287 
0 0.8766430217235583 2 1:-0.755188 2:-0.776479 3:-0.966869 4:-0.722339 5:-0.925696 6:-0.868924 7:-0.9943 8:-0.922693 
0 0 2 1:-0.765164 2:-0.838847 3:-0.96984 4:-0.729273 5:-0.897344 6:-0.884858 7:-0.991158 8:-0.890672 
0 2 2 1:-0.645026 2:-0.46919 3:-0.930008 4:-0.627063 5:-0.866134 6:-0.903658 7:-0.987007 8:-0.855315 
2 2 0 1:-0.720691 2:-0.63735 3:-0.95618 4:-0.695912 5:-0.642678 6:-0.497742 7:-0.915637 8:-0.65946 
2 2 0 1:-0.742853 2:-0.656866 3:-0.961821 4:-0.719846 5:-0.709006 6:-0.519605 7:-0.939846 8:-0.727033 
2 2 0 1:-0.704685 2:-0.626613 3:-0.951948 4:-0.677956 5:-0.748057 6:-0.567171 7:-0.953685 8:-0.76226 
2 2 0 1:-0.641671 2:-0.708036 3:-0.936867 4:-0.596048 5:-0.774807 6:-0.664623 7:-0.964245 8:-0.77958 
2 2 0 1:-0.75934 2:-0.719907 3:-0.966756 4:-0.732647 5:-0.782706 6:-0.695344 7:-0.967061 8:-0.784664 
2 2 0 1:-0.688806 2:-0.65676 3:-0.948569 4:-0.656582 5:-0.810731 6:-0.69086 7:-0.973233 8:-0.815059 
2 2 0 1:-0.5987 2:-0.656042 3:-0.922221 4:-0.551374 5:-0.713652 6:-0.539372 7:-0.942285 8:-0.729713 
2 2 2 1:-0.7513 2:-0.456003 3:-0.958553 4:-0.751731 5:-0.754378 6:-0.613665 7:-0.957255 8:-0.763976 
2 2 0 1:-0.641534 2:-0.609451 3:-0.933951 4:-0.606895 5:-0.54864 6:-0.424377 7:-0.870728 8:-0.571426 
2 2 0 1:-0.476539 2:-0.476095 3:-0.869425 4:-0.431837 5:-0.251648 6:-0.135374 7:-0.649868 8:-0.308748 
2 2 0 1:-0.480752 2:-0.501524 3:-0.872488 4:-0.433311 5:-0.365417 6:-0.087381 7:-0.723198 8:-0.434378 
2 2 0 1:-0.636784 2:-0.671071 3:-0.934269 4:-0.594951 5:-0.653682 6:-0.577349 7:-0.924296 8:-0.660796 
2 2 0 1:-0.735885 2:-0.686422 3:-0.960891 4:-0.708528 5:-0.652023 6:-0.53493 7:-0.921309 8:-0.665158 
2 2 0 1:-0.779232 2:-0.747274 3:-0.971384 4:-0.753141 5:-0.754904 6:-0.589448 7:-0.956369 8:-0.767513 
2 2 0 1:-0.735166 2:-0.678024 3:-0.960588 4:-0.708466 5:-0.668532 6:-0.520325 7:-0.926341 8:-0.684341 
2 2 0 1:-0.740916 2:-0.687417 3:-0.962093 4:-0.714211 5:-0.696814 6:-0.479975 7:-0.933756 8:-0.719941 
2 2 0 1:-0.769085 2:-0.699957 3:-0.968478 4:-0.745817 5:-0.816121 6:-0.652563 7:-0.973364 8:-0.825163 
2 2 0 1:-0.718172 2:-0.733205 3:-0.957738 4:-0.683023 5:-0.766665 6:-0.60116 7:-0.960027 8:-0.778441 
0 2 0 1:-0.37457 2:-0.320182 3:-0.812295 4:-0.334616 5:-0.663187 6:-0.552505 7:-0.926292 8:-0.674061 
2 2 0 1:-0.663378 2:-0.647638 3:-0.941452 4:-0.627847 5:-0.581842 6:-0.621201 7:-0.899464 8:-0.577143 
2 2 0 1:-0.653853 2:-0.674804 3:-0.939507 4:-0.613818 5:-0.499202 6:-0.417968 7:-0.84637 8:-0.519509 
2 2 0 1:-0.678885 2:-0.718319 3:-0.947485 4:-0.638619 5:-0.574182 6:-0.348345 7:-0.875746 8:-0.609231 
2 2 0 1:-0.755355 2:-0.692891 3:-0.965431 4:-0.730435 5:-0.760757 6:-0.655951 7:-0.960429 8:-0.765491 
2 2 0 1:-0.801641 2:-0.713282 3:-0.975148 4:-0.7824 5:-0.772904 6:-0.668028 7:-0.963795 8:-0.777443 
2 2 0 1:-0.802276 2:-0.736561 3:-0.975629 4:-0.780883 5:-0.756999 6:-0.683095 7:-0.960338 8:-0.75834 
2 2 0 1:-0.814927 2:-0.757267 3:-0.978213 4:-0.793881 5:-0.765518 6:-0.636773 7:-0.961004 8:-0.772346 
2 2 0 1:-0.802233 2:-0.784834 3:-0.976313 4:-0.776721 5:-0.830055 6:-0.654823 7:-0.97632 8:-0.838448 
2 2 0 1:-0.638514 2:-0.722727 3:-0.93634 4:-0.590594 5:-0.857676 6:-0.745845 7:-0.983422 8:-0.859637 
2 2 0 1:-0.562847 2:-0.81139 3:-0.914712 4:-0.494346 5:-0.854247 6:-0.764017 7:-0.983163 8:-0.85422 
2 2 0 1:-0.645187 2:-0.821691 3:-0.940425 4:-0.589925 5:-0.892785 6:-0.780723 7:-0.98936 8:-0.894282 
2 2 0 1:-0.814935 2:-0.825851 3:-0.97906 4:-0.788384 5:-0.91972 6:-0.819956 7:-0.993202 8:-0.920024 
2 2 2 1:-0.844615 2:-0.800207 3:-0.983602 4:-0.825109 5:-0.929505 6:-0.800003 7:-0.994106 8:-0.931843 
2 2 2 1:-0.898516 2:-0.7891 3:-0.990863 4:-0.888782 5:-0.930543 6:-0.76832 7:-0.993908 8:-0.935171 
2 2 2 1:-0.931241 2:-0.888455 3:-0.994998 4:-0.92033 5:-0.941933 6:-0.819535 7:-0.995537 8:-0.943573 
0 2 2 1:-0.90897 2:-0.860279 3:-0.992582 4:-0.895997 5:-0.955509 6:-0.851978 7:-0.996984 8:-0.955851 
0 0 2 1:-0.860772 2:-0.857198 3:-0.986524 4:-0.839872 5:-0.957734 6:-0.864389 7:-0.997238 8:-0.957396 
0 2 2 1:-0.784471 2:-0.743819 3:-0.972361 4:-0.759478 5:-0.951676 6:-0.858631 7:-0.996706 8:-0.951216 
2 2 0 1:-0.567833 2:-0.612428 3:-0.91041 4:-0.520396 5:-0.477681 6:-0.550153 7:-0.847209 8:-0.475513 
2 2 0 1:-0.569635 2:-0.620622 3:-0.911294 4:-0.521559 5:-0.457694 6:-0.465105 7:-0.829436 8:-0.467834 
2 2 0 1:-0.576907 2:-0.607689 3:-0.913258 4:-0.531831 5:-0.500587 6:-0.421816 7:-0.847261 8:-0.521303 
2 2 0 1:-0.552439 2:-0.652528 3:-0.906504 4:-0.497735 5:-0.593139 6:-0.466081 7:-0.893429 8:-0.613225 
2 2 0 1:-0.637576 2:-0.598257 3:-0.932425 4:-0.603098 5:-0.564473 6:-0.348622 7:-0.87135 8:-0.600477 
2 2 0 1:-0.726114 2:-0.621443 3:-0.957139 4:-0.7037 5:-0.613366 6:-0.340544 7:-0.892389 8:-0.652066 
2 2 0 1:-0.650971 2:-0.602356 3:-0.936529 4:-0.618575 5:-0.724937 6:-0.624294 7:-0.949427 8:-0.730818 
2 2 0 1:-0.582438 2:-0.680451 3:-0.917668 4:-0.529776 5:-0.670063 6:-0.613194 7:-0.931761 8:-0.673439 
2 2 0 1:-0.587076 2:-0.811042 3:-0.922679 4:-0.52274 5:-0.707853 6:-0.604913 7:-0.943533 8:-0.714369 
2 2 0 1:-0.678249 2:-0.763556 3:-0.948297 4:-0.633576 5:-0.817418 6:-0.673853 7:-0.974189 8:-0.823807 
2 2 0 1:-0.737514 2:-0.75423 3:-0.962602 4:-0.703893 5:-0.820741 6:-0.698606 7:-0.97544 8:-0.825361 
2 2 0 1:-0.734944 2:-0.808992 3:-0.962963 4:-0.696047 5:-0.848207 6:-0.738158 7:-0.98161 8:-0.850515 
2 2 0 1:-0.782909 2:-0.822472 3:-0.973175 4:-0.751186 5:-0.905569 6:-0.82185 7:-0.991553 8:-0.904476 
2 2 2 1:-0.849771 2:-0.77147 3:-0.984071 4:-0.833453 5:-0.913078 6:-0.838217 7:-0.992619 8:-0.911353 
2 2 2 1:-0.921577 2:-0.792616 3:-0.993461 4:-0.915422 5:-0.920917 6:-0.837758 7:-0.993524 8:-0.919619 
2 2 2 1:-0.957856 2:-0.84402 3:-0.997071 4:-0.954167 5:-0.935825 6:-0.844789 7:-0.995137 8:-0.935369 
2 2 2 1:-0.918467 2:-0.810407 3:-0.99325 4:-0.910403 5:-0.947468 6:-0.843225 7:-0.996236 8:-0.947837 
0 0 2 1:-0.91527 2:-0.837203 3:-0.993104 4:-0.904768 5:-0.965077 6:-0.893727 7:-0.997937 8:-0.963555 
0 0 2 1:-0.972545 2:-0.876238 3:-0.998282 4:-0.969205 5:-0.979637 6:-0.881632 7:-0.998855 8:-0.979759 
0 2 2 1:-0.982162 2:-0.886154 3:-0.998931 4:-0.979836 5:-0.975798 6:-0.877058 7:-0.998597 8:-0.975984 
2 2 0 1:-0.600721 2:-0.600648 3:-0.920925 4:-0.56035 5:-0.324391 6:-0.453056 7:-0.750364 8:-0.326052 
2 2 0.1685223009200797 1:-0.715613 2:-0.675726 3:-0.955889 4:-0.685696 5:-0.423044 6:-0.547203 7:-0.818551 8:-0.416258 
2 2 0 1:-0.714946 2:-0.672616 3:-0.955571 4:-0.685671 5:-0.590072 6:-0.557284 7:-0.898851 8:-0.594575 
2 2 0 1:-0.718486 2:-0.676691 3:-0.956517 4:-0.689416 5:-0.594479 6:-0.629168 7:-0.90495 8:-0.589709 
2 2 0 1:-0.753452 2:-0.71934 3:-0.965536 4:-0.72554 5:-0.61994 6:-0.615264 7:-0.914021 8:-0.618883 
2 2 0 1:-0.759605 2:-0.677773 3:-0.966061 4:-0.736794 5:-0.700922 6:-0.53241 7:-0.937908 8:-0.716873 
2 2 0 1:-0.768352 2:-0.60761 3:-0.966458 4:-0.753769 5:-0.686463 6:-0.494449 7:-0.931086 8:-0.706621 
2 2 0 1:-0.699563 2:-0.646257 3:-0.951139 4:-0.670034 5:-0.712936 6:-0.545335 7:-0.942347 8:-0.727889 
2 2 0 1:-0.652196 2:-0.789246 3:-0.94176 4:-0.600824 5:-0.724958 6:-0.644813 7:-0.950265 8:-0.728408 
2 2 0 1:-0.664836 2:-0.811573 3:-0.945667 4:-0.613782 5:-0.702213 6:-0.65294 7:-0.94384 8:-0.702854 
2 2 0 1:-0.702115 2:-0.71402 3:-0.953399 4:-0.665972 5:-0.734179 6:-0.614601 7:-0.951714 8:-0.741646 
2 2 0.8761064892799934 1:-0.761324 2:-0.724154 3:-0.967307 4:-0.734204 5:-0.789842 6:-0.514837 7:-0.962703 8:-0.811929 
2 2 0 1:-0.738952 2:-0.854533 3:-0.964507 4:-0.69738 5:-0.816713 6:-0.494587 7:-0.968512 8:-0.839765 
2 2 0 1:-0.682384 2:-0.889575 3:-0.95151 4:-0.628814 5:-0.865457 6:-0.716401 7:-0.984162 8:-0.870732 
2 2 0 1:-0.711043 2:-0.858466 3:-0.958156 4:-0.664449 5:-0.905111 6:-0.776622 7:-0.99097 8:-0.907399 
0 0 2 1:-0.82969 2:-0.858671 3:-0.981844 4:-0.803375 5:-0.928211 6:-0.851069 7:-0.994419 8:-0.926667 
0 2 2 1:-0.840728 2:-0.731321 3:-0.982163 4:-0.826005 5:-0.947181 6:-0.880962 7:-0.996439 8:-0.945127 
0 2 2 1:-0.806111 2:-0.754547 3:-0.976604 4:-0.783063 5:-0.969732 6:-0.852929 7:-0.998076 8:-0.970867 
0 0 2 1:-0.875813 2:-0.7858 3:-0.987952 4:-0.862535 5:-0.962852 6:-0.876657 7:-0.9977 8:-0.962049 
0 0 2 1:-0.920396 2:-0.856086 3:-0.993758 4:-0.909657 5:-0.950499 6:-0.878005 7:-0.996728 8:-0.948676 
0 0 2 1:-0.888234 2:-0.874522 3:-0.990254 4:-0.870992 5:-0.953528 6:-0.874208 7:-0.99695 8:-0.9523 
2 2 0 1:-0.713915 2:-0.664106 3:-0.955196 4:-0.684928 5:-0.750371 6:-0.697698 7:-0.959101 8:-0.749434 
2 2 0 1:-0.811713 2:-0.719772 3:-0.977101 4:-0.793488 5:-0.796309 6:-0.704512 7:-0.970435 8:-0.798046 
2 2 2 1:-0.821595 2:-0.71395 3:-0.978755 4:-0.805292 5:-0.844123 6:-0.792377 7:-0.981832 8:-0.841035 
0 2 0 1:-0.723581 2:-0.731846 3:-0.958991 4:-0.689433 5:-0.836233 6:-0.805743 7:-0.980705 8:-0.830756 
2 2 2 1:-0.556102 2:-0.73804 3:-0.910522 4:-0.492936 5:-0.866369 6:-0.773141 7:-0.98532 8:-0.865879 
2 2 0 1:-0.507315 2:-0.811767 3:-0.895044 4:-0.42919 5:-0.896418 6:-0.811436 7:-0.990261 8:-0.8955 
0 2 0 1:-0.627556 2:-0.835521 3:-0.935609 4:-0.56823 5:-0.90326 6:-0.809413 7:-0.991131 8:-0.903012 
2 2 0 1:-0.768054 2:-0.805232 3:-0.969994 4:-0.735084 5:-0.914017 6:-0.806261 7:-0.99242 8:-0.914868 
0 0 2 1:-0.753325 2:-0.869206 3:-0.967788 4:-0.713208 5:-0.957708 6:-0.906763 7:-0.997448 8:-0.954847 
0 0 2 1:-0.743581 2:-0.85776 3:-0.965517 4:-0.702799 5:-0.960244 6:-0.88864 7:-0.997551 8:-0.958658 
0 0 2 1:-0.822665 2:-0.845214 3:-0.980507 4:-0.796507 5:-0.960784 6:-0.880742 7:-0.997569 8:-0.95953 
0 0 2 1:-0.898408 2:-0.83051 3:-0.991177 4:-0.885647 5:-0.970044 6:-0.870931 7:-0.998185 8:-0.970151 
2 2 2 1:-0.896063 2:-0.851224 3:-0.991044 4:-0.88157 5:-0.963124 6:-0.838342 7:-0.997506 8:-0.964886 
0 0 2 1:-0.851572 2:-0.920376 3:-0.985671 4:-0.825337 5:-0.953295 6:-0.853455 7:-0.996769 8:-0.953805 
0 0 2 1:-0.873555 2:-0.881449 3:-0.988455 4:-0.853234 5:-0.956893 6:-0.870851 7:-0.997206 8:-0.956104 
0 0 2 1:-0.907605 2:-0.893131 3:-0.99262 4:-0.892452 5:-0.948512 6:-0.876264 7:-0.996547 8:-0.946656 
0.2384303961853169 2 2 1:-0.876493 2:-0.662682 3:-0.986635 4:-0.87385 5:-0.955871 6:-0.883687 7:-0.997202 8:-0.95409 
2 2 0 1:-0.820336 2:-0.725328 3:-0.978666 4:-0.803285 5:-0.695179 6:-0.536926 7:-0.936279 8:-0.710528 
2 2 2 1:-0.831244 2:-0.717028 3:-0.980378 4:-0.816866 5:-0.835006 6:-0.628714 7:-0.976648 8:-0.847616 
2 2 0 1:-0.804621 2:-0.760364 3:-0.976415 4:-0.781612 5:-0.819929 6:-0.596658 7:-0.972586 8:-0.835236 
2 2 0 1:-0.771184 2:-0.762995 3:-0.970011 4:-0.742329 5:-0.727233 6:-0.563515 7:-0.947538 8:-0.741144 
2 2 0 1:-0.704843 2:-0.695735 3:-0.953669 4:-0.671142 5:-0.700696 6:-0.539459 7:-0.938168 8:-0.716099 
2 2 0 1:-0.693161 2:-0.659563 3:-0.94974 4:-0.661599 5:-0.624967 6:-0.620386 7:-0.916152 8:-0.623818 
2 2 0 1:-0.760309 2:-0.650325 3:-0.965609 4:-0.740527 5:-0.596077 6:-0.65797 7:-0.907167 8:-0.587529 
2 2 0 1:-0.809069 2:-0.698926 3:-0.976298 4:-0.792323 5:-0.678983 6:-0.59452 7:-0.933823 8:-0.68553 
2 2 0 1:-0.811441 2:-0.717584 3:-0.977021 4:-0.793333 5:-0.748292 6:-0.637848 7:-0.956511 8:-0.754004 
2 2 0 1:-0.835202 2:-0.726855 3:-0.981232 4:-0.820156 5:-0.801965 6:-0.669617 7:-0.970741 8:-0.807933 
2 2 0 1:-0.832717 2:-0.771341 3:-0.981392 4:-0.813553 5:-0.84522 6:-0.68179 7:-0.97991 8:-0.852569 
2 2 0 1:-0.759159 2:-0.843736 3:-0.968693 4:-0.721751 5:-0.881998 6:-0.792503 7:-0.988008 8:-0.881499 
0 0 1.230248651268779 1:-0.788516 2:-0.909678 3:-0.97517 4:-0.751971 5:-0.956049 6:-0.876185 7:-0.997172 8:-0.954736 
0 0 2 1:-0.839588 2:-0.931164 3:-0.983961 4:-0.810745 5:-0.970983 6:-0.909564 7:-0.998431 8:-0.968745 
0 0 2 1:-0.859019 2:-0.896997 3:-0.986579 4:-0.835339 5:-0.971191 6:-0.912546 7:-0.998457 8:-0.96877 
0 0 2 1:-0.908222 2:-0.823012 3:-0.99225 4:-0.897435 5:-0.974513 6:-0.907276 7:-0.998649 8:-0.972694 
0 0 2 1:-0.961529 2:-0.848728 3:-0.997385 4:-0.957985 5:-0.978944 6:-0.925264 7:-0.998987 8:-0.97641 
0 0 2 1:-0.95197 2:-0.856713 3:-0.996669 4:-0.946399 5:-0.964122 6:-0.931767 7:-0.99805 8:-0.960049 
0 0 2 1:-0.929474 2:-0.852609 3:-0.994625 4:-0.920659 5:-0.968626 6:-0.927442 7:-0.998336 8:-0.965297 
2 2 0 1:-0.662924 2:-0.66918 3:-0.94182 4:-0.625296 5:-0.712956 6:-0.673966 7:-0.947877 8:-0.71186 
2 2 0 1:-0.674526 2:-0.640358 3:-0.944223 4:-0.642057 5:-0.729775 6:-0.662213 7:-0.952214 8:-0.731445 
2 2 0 1:-0.615587 2:-0.623712 3:-0.926444 4:-0.575162 5:-0.681506 6:-0.596305 7:-0.934705 8:-0.688004 
2 2 0 1:-0.694198 2:-0.620722 3:-0.949011 4:-0.666612 5:-0.699667 6:-0.584606 7:-0.939968 8:-0.709036 
2 2 0 1:-0.74749 2:-0.665456 3:-0.962963 4:-0.724796 5:-0.720199 6:-0.577195 7:-0.946008 8:-0.732 
2 2 0 1:-0.668041 2:-0.631053 3:-0.942265 4:-0.635076 5:-0.65027 6:-0.5844 7:-0.923425 8:-0.656227 
2 2 0 1:-0.682021 2:-0.688624 3:-0.947592 4:-0.645338 5:-0.727135 6:-0.555582 7:-0.947144 8:-0.741042 
2 2 0 1:-0.757811 2:-0.706347 3:-0.966222 4:-0.732004 5:-0.744479 6:-0.546303 7:-0.951795 8:-0.761587 
2 2 0 1:-0.806442 2:-0.683031 3:-0.975556 4:-0.790669 5:-0.780891 6:-0.608232 7:-0.963893 8:-0.792626 
2 2 2 1:-0.824754 2:-0.724841 3:-0.979454 4:-0.808161 5:-0.863648 6:-0.770858 7:-0.984836 8:-0.863765 
2 2 0 1:-0.822348 2:-0.761962 3:-0.979556 4:-0.802073 5:-0.870641 6:-0.784818 7:-0.986182 8:-0.870031 
2 2 0 1:-0.822518 2:-0.752473 3:-0.979461 4:-0.80302 5:-0.852294 6:-0.780665 7:-0.983115 8:-0.850385 
2 2 0 1:-0.79387 2:-0.778977 3:-0.974683 4:-0.767487 5:-0.873049 6:-0.784444 7:-0.986549 8:-0.872128 
2 2 2 1:-0.828921 2:-0.765857 3:-0.980711 4:-0.80936 5:-0.896452 6:-0.791313 7:-0.990015 8:-0.897094 
2 2 2 1:-0.874884 2:-0.837822 3:-0.9883 4:-0.857608 5:-0.919045 6:-0.796346 7:-0.992908 8:-0.92071 
0 0 2 1:-0.828103 2:-0.865427 3:-0.981653 4:-0.801066 5:-0.950282 6:-0.910428 7:-0.996893 8:-0.946305 
0 0 2 1:-0.842699 2:-0.887445 3:-0.984129 4:-0.816757 5:-0.952764 6:-0.925752 7:-0.997171 8:-0.948078 
0 0 2 1:-0.918756 2:-0.885223 3:-0.99376 4:-0.905847 5:-0.961331 6:-0.919903 7:-0.997791 8:-0.957868 
2 2 0 1:-0.649837 2:-0.630158 3:-0.93708 4:-0.613989 5:-0.510694 6:-0.424547 7:-0.852695 8:-0.531243 
2 2 0.6458927499239858 1:-0.695796 2:-0.754196 3:-0.952653 4:-0.654925 5:-0.701278 6:-0.478445 7:-0.935154 8:-0.724772 
2 2 0 1:-0.642458 2:-0.788984 3:-0.938966 4:-0.589597 5:-0.86532 6:-0.730617 7:-0.984427 8:-0.869145 
2 2 0 1:-0.671499 2:-0.7728 3:-0.946702 4:-0.624812 5:-0.899698 6:-0.767336 7:-0.990116 8:-0.903022 
0 2 2 1:-0.736572 2:-0.788278 3:-0.962978 4:-0.699825 5:-0.906851 6:-0.84105 7:-0.991849 8:-0.904859 
0 2 2 1:-0.774598 2:-0.783795 3:-0.971016 4:-0.744529 5:-0.876774 6:-0.852701 7:-0.987968 8:-0.871144 
2 2 0 1:-0.794397 2:-0.797693 3:-0.975029 4:-0.766573 5:-0.845066 6:-0.82926 7:-0.98265 8:-0.83835 
0 2 0 1:-0.772258 2:-0.781778 3:-0.970518 4:-0.741906 5:-0.814792 6:-0.82105 7:-0.97688 8:-0.806376 
0 0 2 1:-0.821128 2:-0.769094 3:-0.979415 4:-0.799696 5:-0.807272 6:-0.895177 7:-0.976586 8:-0.791871 
1.48456861269468 2 2 1:-0.580385 2:-0.064012 3:-0.884284 4:-0.590637 5:-0.837547 6:-0.860593 7:-0.981798 8:-0.827515 
2 2 0 1:-0.371518 2:-0.431635 3:-0.818866 4:-0.316865 5:-0.343356 6:-0.435545 7:-0.76023 8:-0.349637 
2 2 0 1:-0.472802 2:-0.35198 3:-0.859916 4:-0.446015 5:-0.572223 6:-0.536407 7:-0.88989 8:-0.579681 
2 2 0 1:-0.457718 2:-0.41842 3:-0.85803 4:-0.417086 5:-0.556669 6:-0.562523 7:-0.885111 8:-0.558751 
2 2 0 1:-0.329797 2:-0.472893 3:-0.801156 4:-0.260676 5:-0.528845 6:-0.505282 7:-0.868197 8:-0.53784 
2 2 0 1:-0.290705 2:-0.495494 3:-0.782275 4:-0.212276 5:-0.518187 6:-0.42298 7:-0.856246 8:-0.539169 
2 2 0 1:-0.431683 2:-0.388111 3:-0.844513 4:-0.391885 5:-0.477209 6:-0.488088 7:-0.841749 8:-0.484499 
2 2 0 1:-0.621777 2:-0.555893 3:-0.926116 4:-0.590084 5:-0.547371 6:-0.594553 7:-0.883262 8:-0.54356 
2 2 0 1:-0.468009 2:-0.613915 3:-0.872787 4:-0.403381 5:-0.618254 6:-0.571623 7:-0.910912 8:-0.623363 
2 2 0 1:-0.304225 2:-0.753201 3:-0.803727 4:-0.196509 5:-0.654572 6:-0.404048 7:-0.913861 8:-0.686191 
2 2 0 1:-0.640993 2:-0.821128 3:-0.93922 4:-0.585144 5:-0.811898 6:-0.637465 7:-0.972023 8:-0.821735 
2 2 0 1:-0.664028 2:-0.770385 3:-0.944589 4:-0.616522 5:-0.747229 6:-0.585296 7:-0.954151 8:-0.75967 
2 2 0 1:-0.61686 2:-0.63547 3:-0.927309 4:-0.574942 5:-0.732884 6:-0.655761 7:-0.952886 8:-0.735855 
2 2 0 1:-0.652064 2:-0.551859 3:-0.935201 4:-0.625467 5:-0.75647 6:-0.699828 7:-0.960719 8:-0.754323 
2 2 0 1:-0.776833 2:-0.657125 3:-0.969257 4:-0.75901 5:-0.762232 6:-0.683567 7:-0.961702 8:-0.763393 
2 2 0 1:-0.71511 2:-0.572229 3:-0.953056 4:-0.696299 5:-0.806223 6:-0.630871 7:-0.970588 8:-0.816283 
2 2 0 1:-0.649577 2:-0.648274 3:-0.937539 4:-0.610815 5:-0.840767 6:-0.691892 7:-0.979301 8:-0.847165 
2 2 0 1:-0.706796 2:-0.744414 3:-0.955197 4:-0.668658 5:-0.850065 6:-0.744657 7:-0.982085 8:-0.851838 
2 2 0 1:-0.763808 2:-0.794091 3:-0.968952 4:-0.731183 5:-0.889517 6:-0.746503 7:-0.988432 8:-0.893843 
2 2 0 1:-0.795402 2:-0.793788 3:-0.975168 4:-0.76808 5:-0.848968 6:-0.753494 7:-0.981969 8:-0.849998 
2 2 0 1:-0.84186 2:-0.792182 3:-0.983101 4:-0.822512 5:-0.820889 6:-0.773109 7:-0.977195 8:-0.817349 
2 2 0 1:-0.832555 2:-0.771599 3:-0.981377 4:-0.813241 5:-0.856271 6:-0.741029 7:-0.983078 8:-0.858233 
2 2 0 1:-0.816577 2:-0.776137 3:-0.978745 4:-0.79421 5:-0.837393 6:-0.729155 7:-0.979472 8:-0.839719 
2 2 0 1:-0.826598 2:-0.788072 3:-0.980572 4:-0.805154 5:-0.837672 6:-0.745333 7:-0.979853 8:-0.83843 
2 2 0 1:-0.85133 2:-0.804707 3:-0.984671 4:-0.832628 5:-0.88002 6:-0.755231 7:-0.987165 8:-0.882774 
2 2 2 1:-0.909942 2:-0.805568 3:-0.99231 4:-0.900875 5:-0.904662 6:-0.782643 7:-0.990993 8:-0.906705 
2 2 2 1:-0.941925 2:-0.863305 3:-0.995831 4:-0.934491 5:-0.900594 6:-0.789297 7:-0.990539 8:-0.901742 
2 2 2 1:-0.909602 2:-0.836307 3:-0.992497 4:-0.898293 5:-0.902514 6:-0.775582 7:-0.990602 8:-0.90497 
2 2 2 1:-0.852591 2:-0.797246 3:-0.984791 4:-0.834609 5:-0.921675 6:-0.858658 7:-0.993797 8:-0.918898 
0 0 2 1:-0.849686 2:-0.797525 3:-0.98436 4:-0.831147 5:-0.939935 6:-0.891148 7:-0.99585 8:-0.936646 
0 0 2 1:-0.915951 2:-0.81822 3:-0.993054 4:-0.906971 5:-0.943704 6:-0.875503 7:-0.996111 8:-0.941595 
2 2 0 1:-0.549519 2:-0.769283 3:-0.909102 4:-0.482346 5:-0.798015 6:-0.729799 7:-0.971448 8:-0.797292 
2 2 0 1:-0.622967 2:-0.835199 3:-0.934244 4:-0.562909 5:-0.830357 6:-0.655705 7:-0.976404 8:-0.839775 
2 2 2 1:-0.721752 2:-0.606439 3:-0.955682 4:-0.699088 5:-0.852853 6:-0.767556 7:-0.982943 8:-0.852729 
2 2 0.9267136665932691 1:-0.547415 2:-0.741587 3:-0.907608 4:-0.482373 5:-0.877829 6:-0.75886 7:-0.986821 8:-0.880617 
2 2 0 1:-0.55109 2:-0.738183 3:-0.908786 4:-0.487166 5:-0.806942 6:-0.637084 7:-0.970915 8:-0.816948 
2 2 0 1:-0.702872 2:-0.665547 3:-0.952459 4:-0.671907 5:-0.743049 6:-0.639693 7:-0.95515 8:-0.748653 
2 2 0 1:-0.760931 2:-0.765966 3:-0.9679 4:-0.730298 5:-0.807264 6:-0.666546 7:-0.971829 8:-0.814229 
2 2 0 1:-0.547835 2:-0.592252 3:-0.902582 4:-0.498251 5:-0.811796 6:-0.674806 7:-0.973037 8:-0.818064 
2 2 0 1:-0.493944 2:-0.646668 3:-0.884548 4:-0.42875 5:-0.770262 6:-0.646723 7:-0.962541 8:-0.776701 
2 2 0 1:-0.739664 2:-0.625596 3:-0.960453 4:-0.718539 5:-0.761535 6:-0.697275 7:-0.961896 8:-0.761407 
2 2 0 1:-0.843289 2:-0.78798 3:-0.983277 4:-0.824448 5:-0.760529 6:-0.650265 7:-0.960122 8:-0.76513 
2 2 0 1:-0.84736 2:-0.806202 3:-0.984095 4:-0.827776 5:-0.806563 6:-0.6142 7:-0.970159 8:-0.818445 
2 2 0 1:-0.830467 2:-0.817836 3:-0.98156 4:-0.807177 5:-0.871376 6:-0.703289 7:-0.984924 8:-0.87755 
2 2 2 1:-0.675708 2:-0.710399 3:-0.946437 4:-0.635254 5:-0.88774 6:-0.760757 7:-0.988387 8:-0.890349 
2 2 0 1:-0.467372 2:-0.873443 3:-0.881108 4:-0.377936 5:-0.936843 6:-0.787629 7:-0.994759 8:-0.940586 
0 2 0 1:-0.4748 2:-0.884754 3:-0.884319 4:-0.38579 5:-0.968535 6:-0.853239 7:-0.997994 8:-0.969664 
0 2 2 1:-0.660129 2:-0.781837 3:-0.943743 4:-0.610978 5:-0.960037 6:-0.857194 7:-0.997376 8:-0.960343 
2 2 2 1:-0.822829 2:-0.761771 3:-0.979635 4:-0.80259 5:-0.956805 6:-0.835353 7:-0.996973 8:-0.958564 
2 2 2 1:-0.893944 2:-0.790277 3:-0.990307 4:-0.883494 5:-0.948785 6:-0.811077 7:-0.996097 8:-0.951787 
0 2 2 1:-0.878035 2:-0.843079 3:-0.988729 4:-0.861207 5:-0.95435 6:-0.84906 7:-0.996867 8:-0.954836 
0 0 2 1:-0.819628 2:-0.744898 3:-0.978862 4:-0.800341 5:-0.960035 6:-0.903491 7:-0.997629 8:-0.957297 
2 2 0 1:-0.779355 2:-0.815232 3:-0.972392 4:-0.747581 5:-0.915423 6:-0.793025 7:-0.992447 8:-0.916959 
2 2 2 1:-0.733289 2:-0.726672 3:-0.961164 4:-0.70088 5:-0.919668 6:-0.793404 7:-0.992927 8:-0.921972 
2 2 0 1:-0.675941 2:-0.830175 3:-0.948953 4:-0.625332 5:-0.921915 6:-0.801211 7:-0.993283 8:-0.923679 
0 0 2 1:-0.800124 2:-0.776688 3:-0.975816 4:-0.774696 5:-0.977086 6:-0.893133 7:-0.998753 8:-0.976298 
2 2 2 1:-0.902627 2:-0.831329 3:-0.991679 4:-0.890518 5:-0.909961 6:-0.757579 7:-0.991341 8:-0.914729 
2 2 2 1:-0.888901 2:-0.839458 3:-0.990074 4:-0.874202 5:-0.915187 6:-0.799653 7:-0.992435 8:-0.917159 
2 2 2 1:-0.780667 2:-0.54472 3:-0.967605 4:-0.774428 5:-0.893334 6:-0.757362 7:-0.989128 8:-0.896753 
1.979730529847303 2 2 1:-0.506881 2:-0.471925 3:-0.881516 4:-0.466342 5:-0.871264 6:-0.750383 7:-0.985698 8:-0.874186 
0 2 2 1:-0.803847 2:-0.755203 3:-0.976201 4:-0.780867 5:-0.961951 6:-0.863932 7:-0.997566 8:-0.961896 
0 0 2 1:-0.847505 2:-0.81771 3:-0.98423 4:-0.826937 5:-0.97049 6:-0.905578 7:-0.998377 8:-0.968495 
0 0 2 1:-0.891509 2:-0.818046 3:-0.990217 4:-0.878778 5:-0.971535 6:-0.929706 7:-0.998539 8:-0.968288 
0 0 2 1:-0.866674 2:-0.843996 3:-0.987219 4:-0.847846 5:-0.974677 6:-0.907956 7:-0.99865 8:-0.973013 
0 0 2 1:-0.889588 2:-0.860062 3:-0.990311 4:-0.873607 5:-0.983764 6:-0.924072 7:-0.999257 8:-0.981681 
0 0 2 1:-0.945993 2:-0.838248 3:-0.996042 4:-0.940948 5:-0.978206 6:-0.918912 7:-0.998918 8:-0.976022 
0 2 2 1:-0.405295 2:-0.462319 3:-0.837253 4:-0.348163 5:-0.901118 6:-0.839164 7:-0.991185 8:-0.898269 
0 2 2 1:-0.81855 2:-0.414429 3:-0.972148 4:-0.82958 5:-0.936065 6:-0.884954 7:-0.995471 8:-0.932576 
1.779243764909577 1.781727838141338 2 1:-0.937153 2:-0.786941 3:-0.994955 4:-0.934078 5:-0.953135 6:-0.877516 7:-0.996912 8:-0.95192 
2 2 2 1:-0.844152 2:-0.755703 3:-0.98301 4:-0.827748 5:-0.947874 6:-0.853657 7:-0.996323 8:-0.947825 
2 2 0 1:-0.8105 2:-0.757578 3:-0.977426 4:-0.78873 5:-0.785463 6:-0.610022 7:-0.965076 8:-0.795551 
2 2 0 1:-0.875844 2:-0.79737 3:-0.988068 4:-0.861795 5:-0.786131 6:-0.687821 7:-0.967635 8:-0.788598 
2 2 0 1:-0.878167 2:-0.814454 3:-0.988524 4:-0.863295 5:-0.781675 6:-0.671026 7:-0.966106 8:-0.785831 
2 2 0 1:-0.836462 2:-0.704291 3:-0.98112 4:-0.823713 5:-0.796283 6:-0.713569 7:-0.970649 8:-0.797114 
2 2 0 1:-0.770031 2:-0.708342 3:-0.968839 4:-0.745993 5:-0.793702 6:-0.776678 7:-0.971575 8:-0.787901 
0 2 0 1:-0.700874 2:-0.812243 3:-0.954993 4:-0.655961 5:-0.837192 6:-0.785566 7:-0.980522 8:-0.833929 
2 2 0 1:-0.780457 2:-0.82774 3:-0.972769 4:-0.747899 5:-0.847035 6:-0.750841 7:-0.981665 8:-0.847886 
2 2 0 1:-0.831051 2:-0.810871 3:-0.981585 4:-0.808401 5:-0.805201 6:-0.738288 7:-0.973202 8:-0.804145 
2 2 1.380789142925638 1:-0.888498 2:-0.814759 3:-0.989856 4:-0.875219 5:-0.860047 6:-0.714412 7:-0.983243 8:-0.865489 
2 2 2 1:-0.918096 2:-0.854971 3:-0.993502 4:-0.90723 5:-0.876087 6:-0.716099 7:-0.985912 8:-0.882232 
2 2 2 1:-0.911551 2:-0.857259 3:-0.99279 4:-0.899769 5:-0.858511 6:-0.717129 7:-0.983022 8:-0.86334 
2 2 2 1:-0.903458 2:-0.854721 3:-0.991929 4:-0.889965 5:-0.887488 6:-0.773655 7:-0.988535 8:-0.888989 
2 2 2 1:-0.874534 2:-0.858264 3:-0.988413 4:-0.855878 5:-0.922366 6:-0.84233 7:-0.993722 8:-0.920929 
0 0 2 1:-0.852153 2:-0.889116 3:-0.985542 4:-0.827758 5:-0.940652 6:-0.872142 7:-0.995816 8:-0.938433 
0 0 2 1:-0.788261 2:-0.832202 3:-0.974313 4:-0.756622 5:-0.952388 6:-0.865437 7:-0.996808 8:-0.95159 
0 0 2 1:-0.762669 2:-0.866559 3:-0.969688 4:-0.724363 5:-0.967541 6:-0.861755 7:-0.997968 8:-0.967927 
2 2 2 1:-0.836616 2:-0.719412 3:-0.98136 4:-0.822327 5:-0.877801 6:-0.749965 7:-0.986745 8:-0.880896 
2 2 2 1:-0.906249 2:-0.804845 3:-0.99188 4:-0.89676 5:-0.919082 6:-0.818532 7:-0.993124 8:-0.919355 
0 0 2 1:-0.936799 2:-0.849755 3:-0.9953 4:-0.929369 5:-0.940445 6:-0.876491 7:-0.995811 8:-0.93803 
0 0 2 1:-0.931937 2:-0.82334 3:-0.994707 4:-0.925271 5:-0.939417 6:-0.890047 7:-0.995821 8:-0.935914 
0 0 2 1:-0.89471 2:-0.831793 3:-0.990754 4:-0.881182 5:-0.931214 6:-0.905496 7:-0.995136 8:-0.925985 
0 0 2 1:-0.826825 2:-0.823695 3:-0.981018 4:-0.802507 5:-0.945739 6:-0.893191 7:-0.996406 8:-0.942562 
0 0 2 1:-0.769258 2:-0.871861 3:-0.971085 4:-0.731682 5:-0.970891 6:-0.872841 7:-0.99825 8:-0.971076 
0 0 2 1:-0.783629 2:-0.903224 3:-0.974197 4:-0.746621 5:-0.971336 6:-0.869076 7:-0.998256 8:-0.971687 
0 0 2 1:-0.892586 2:-0.780202 3:-0.990072 4:-0.881682 5:-0.968373 6:-0.902804 7:-0.998217 8:-0.96638 
0 0 2 1:-0.976075 2:-0.922973 3:-0.998659 4:-0.970861 5:-0.966427 6:-0.930936 7:-0.998211 8:-0.962571 
0 0 2 1:-0.97666 2:-0.90896 3:-0.998655 4:-0.972277 5:-0.96681 6:-0.900071 7:-0.998104 8:-0.964831 
2 2 2 1:-0.712065 2:-0.486735 3:-0.949712 4:-0.698768 5:-0.889698 6:-0.709414 7:-0.987878 8:-0.89678 
2 2 2 1:-0.773465 2:-0.733621 3:-0.969998 4:-0.747117 5:-0.950586 6:-0.808344 7:-0.996251 8:-0.953624 
0 0 2 1:-0.741117 2:-0.838937 3:-0.964778 4:-0.700925 5:-0.950279 6:-0.873642 7:-0.996673 8:-0.948839 
0 0 2 1:-0.876893 2:-0.816614 3:-0.988385 4:-0.861438 5:-0.958899 6:-0.871655 7:-0.997367 8:-0.95824 
0 0 2 1:-0.943917 2:-0.883649 3:-0.996113 4:-0.935457 5:-0.959564 6:-0.878038 7:-0.997447 8:-0.958574 
2 2 2 1:-0.893275 2:-0.550169 3:-0.987447 4:-0.903049 5:-0.943624 6:-0.860979 7:-0.996012 8:-0.94245 
0 2 0 1:-0.397218 2:-0.85529 3:-0.851292 4:-0.296887 5:-0.927996 6:-0.815942 7:-0.994085 8:-0.929182 
0 2 2 1:-0.544446 2:-0.660244 3:-0.903932 4:-0.487207 5:-0.90321 6:-0.868532 7:-0.991695 8:-0.898538 
0 2 2 1:-0.786774 2:-0.740238 3:-0.972757 4:-0.762051 5:-0.909997 6:-0.876584 7:-0.99263 8:-0.904984 
0 0 2 1:-0.876356 2:-0.88767 3:-0.988858 4:-0.856179 5:-0.927943 6:-0.917762 7:-0.994874 8:-0.921779 
2 2 0 1:-0.662279 2:-0.69546 3:-0.94242 4:-0.621476 5:-0.643898 6:-0.585371 7:-0.921206 8:-0.648926 
2 2 0 1:-0.786929 2:-0.717842 3:-0.972416 4:-0.764779 5:-0.762179 6:-0.603064 7:-0.958919 8:-0.773105 
2 2 0 1:-0.834106 2:-0.738278 3:-0.981206 4:-0.817929 5:-0.843911 6:-0.67888 7:-0.979598 8:-0.851963 
2 2 0 1:-0.832759 2:-0.810567 3:-0.981861 4:-0.810399 5:-0.846522 6:-0.702226 7:-0.9806 8:-0.851891 
2 2 0 1:-0.802539 2:-0.774536 3:-0.976205 4:-0.778066 5:-0.843997 6:-0.711926 7:-0.9803 8:-0.848711 
2 2 0 1:-0.623967 2:-0.69703 3:-0.931335 4:-0.576042 5:-0.864186 6:-0.693664 7:-0.983546 8:-0.871973 
2 2 0.5584399118314297 1:-0.536099 2:-0.85088 3:-0.906395 4:-0.459924 5:-0.749137 6:-0.25413 7:-0.937524 8:-0.801268 
2 2 2 1:-0.697448 2:-0.581791 3:-0.948825 4:-0.672981 5:-0.847763 6:-0.760749 7:-0.981968 8:-0.847752 
2 2 0 1:-0.594704 2:-0.690325 3:-0.921994 4:-0.54284 5:-0.781192 6:-0.703824 7:-0.96691 8:-0.782027 
2 2 0 1:-0.459044 2:-0.669996 3:-0.871476 4:-0.386143 5:-0.792867 6:-0.686524 7:-0.969136 8:-0.796251 
2 2 0.1095452991947292 1:-0.595429 2:-0.672007 3:-0.921667 4:-0.545798 5:-0.327025 6:-0.435699 7:-0.749955 8:-0.331687 
2 2 0 1:-0.569065 2:-0.569759 3:-0.909128 4:-0.527235 5:-0.453077 6:-0.449364 7:-0.825471 8:-0.464488 
2 2 0 1:-0.534327 2:-0.640623 3:-0.899565 4:-0.477987 5:-0.610995 6:-0.50934 7:-0.904154 8:-0.624639 
2 2 0 1:-0.587664 2:-0.709805 3:-0.920278 4:-0.532702 5:-0.69058 6:-0.489819 7:-0.932215 8:-0.712249 
2 2 0 1:-0.727062 2:-0.675078 3:-0.958603 4:-0.698919 5:-0.811628 6:-0.701306 7:-0.97367 8:-0.814931 
2 2 2 1:-0.814969 2:-0.651449 3:-0.976508 4:-0.804109 5:-0.836502 6:-0.718667 7:-0.97908 8:-0.83929 
2 2 0 1:-0.50763 2:-0.398767 3:-0.877743 4:-0.472506 5:-0.779901 6:-0.590543 7:-0.96302 8:-0.793745 
2 2 0 1:-0.636258 2:-0.660329 3:-0.933977 4:-0.594729 5:-0.602793 6:-0.550577 7:-0.903541 8:-0.609923 
2 2 0 1:-0.691304 2:-0.665475 3:-0.949484 4:-0.658164 5:-0.666745 6:-0.521168 7:-0.925632 8:-0.68311 
2 2 0 1:-0.763838 2:-0.68557 3:-0.967107 4:-0.740833 5:-0.708557 6:-0.520886 7:-0.939704 8:-0.727398 
2 2 1.756331486367011 1:-0.644146 2:-0.437841 3:-0.928293 4:-0.62949 5:-0.680869 6:-0.43112 7:-0.925364 8:-0.709347 
2 2 0 1:-0.409804 2:-0.605575 3:-0.847401 4:-0.335521 5:-0.627905 6:-0.503856 7:-0.91039 8:-0.643599 
2 2 0 1:-0.290127 2:-0.772382 3:-0.797298 4:-0.177988 5:-0.759141 6:-0.59151 7:-0.957667 8:-0.77144 
1.314718440278884 2 0 1:-0.132233 2:-0.673533 3:-0.702359 4:-0.00300214 5:-0.792863 6:-0.566889 7:-0.965374 8:-0.809891 
2 2 0 1:-0.128506 2:-0.589922 3:-0.694415 4:-0.00901499 5:-0.716028 6:-0.594106 7:-0.945544 8:-0.725474 
2 2 0 1:-0.810215 2:-0.739226 3:-0.977021 4:-0.790623 5:-0.773855 6:-0.63699 7:-0.963098 8:-0.781876 
2 2 0 1:-0.742715 2:-0.673585 3:-0.962221 4:-0.717404 5:-0.739329 6:-0.645737 7:-0.95431 8:-0.743629 
2 2 0 1:-0.650477 2:-0.734197 3:-0.940062 4:-0.603693 5:-0.756735 6:-0.622068 7:-0.958169 8:-0.765374 
2 2 0 1:-0.660107 2:-0.787582 3:-0.943917 4:-0.61025 5:-0.83047 6:-0.685406 7:-0.97716 8:-0.836828 
2 2 0 1:-0.701294 2:-0.791435 3:-0.954735 4:-0.658082 5:-0.820025 6:-0.739007 7:-0.976298 8:-0.820017 
2 2 0 1:-0.768247 2:-0.743101 3:-0.969074 4:-0.740724 5:-0.82701 6:-0.687054 7:-0.976509 8:-0.832989 
2 2 2 1:-0.627772 2:-0.614587 3:-0.930001 4:-0.588629 5:-0.853181 6:-0.771102 7:-0.983104 8:-0.852568 
0.7456031424465386 2 0 1:-0.463686 2:-0.856644 3:-0.879316 4:-0.374658 5:-0.827689 6:-0.793869 7:-0.97891 8:-0.822755 
2 2 0 1:-0.719101 2:-0.838144 3:-0.95978 4:-0.675322 5:-0.819514 6:-0.666542 7:-0.974457 8:-0.826681 
2 2 0 1:-0.758705 2:-0.753678 3:-0.967268 4:-0.728591 5:-0.73288 6:-0.553411 7:-0.948753 8:-0.748596 
2 2 0 1:-0.782028 2:-0.675344 3:-0.970623 4:-0.76362 5:-0.681451 6:-0.495984 7:-0.929459 8:-0.701791 
2 2 0 1:-0.806356 2:-0.722386 3:-0.976138 4:-0.787186 5:-0.705427 6:-0.576059 7:-0.941473 8:-0.715892 
2 2 0 1:-0.828978 2:-0.759589 3:-0.980641 4:-0.810051 5:-0.756824 6:-0.599025 7:-0.957322 8:-0.768261 
2 2 0 1:-0.848619 2:-0.772359 3:-0.983897 4:-0.832176 5:-0.803569 6:-0.55421 7:-0.967436 8:-0.822874 
2 2 0 1:-0.844439 2:-0.761948 3:-0.983119 4:-0.828182 5:-0.775832 6:-0.64097 7:-0.963718 8:-0.783661 
2 2 0 1:-0.838133 2:-0.7202 3:-0.981617 4:-0.824213 5:-0.774238 6:-0.664459 7:-0.964097 8:-0.778845 
2 2 2 1:-0.770948 2:-0.615825 3:-0.967195 4:-0.754855 5:-0.818788 6:-0.666501 7:-0.974275 8:-0.826164 
2 2 0 1:-0.771583 2:-0.757131 3:-0.969998 4:-0.743257 5:-0.865334 6:-0.709992 7:-0.98402 8:-0.871558 
2 2 0 1:-0.825084 2:-0.7096 3:-0.979278 4:-0.810061 5:-0.787557 6:-0.725627 7:-0.969012 8:-0.786358 
2 2 0 1:-0.843987 2:-0.783085 3:-0.98332 4:-0.82574 5:-0.784171 6:-0.722121 7:-0.968133 8:-0.783146 
2 2 0 1:-0.870943 2:-0.788376 3:-0.987326 4:-0.856707 5:-0.773138 6:-0.637792 7:-0.962965 8:-0.780997 
2 2 0 1:-0.79537 2:-0.659836 3:-0.973042 4:-0.779988 5:-0.78867 6:-0.635466 7:-0.966673 8:-0.797644 
2 2 0 1:-0.650849 2:-0.804559 3:-0.941689 4:-0.597954 5:-0.85555 6:-0.767294 7:-0.983438 8:-0.855463 
2 2 0 1:-0.80388 2:-0.821277 3:-0.977066 4:-0.775795 5:-0.922709 6:-0.815598 7:-0.993517 8:-0.923456 
2 2 2 1:-0.871862 2:-0.900787 3:-0.98836 4:-0.850122 5:-0.943898 6:-0.823869 7:-0.995751 8:-0.945434 
0 0 2 1:-0.897304 2:-0.890385 3:-0.991452 4:-0.880488 5:-0.947545 6:-0.857805 7:-0.996344 8:-0.946872 
2 2 2 1:-0.931546 2:-0.846865 3:-0.994813 4:-0.923222 5:-0.929099 6:-0.849532 7:-0.9945 8:-0.927719 
2 2 2 1:-0.941218 2:-0.848699 3:-0.995709 4:-0.934425 5:-0.930996 6:-0.82547 7:-0.994503 8:-0.931476 
2 2 2 1:-0.952403 2:-0.834944 3:-0.996598 4:-0.948256 5:-0.957057 6:-0.824402 7:-0.99693 8:-0.959355 
2 2 2 1:-0.952965 2:-0.84003 3:-0.996651 4:-0.94885 5:-0.962346 6:-0.851148 7:-0.997521 8:-0.963241 
0 0 2 1:-0.926059 2:-0.83248 3:-0.994195 4:-0.917688 5:-0.947095 6:-0.885382 7:-0.996458 8:-0.944773 
0 0 2 1:-0.932549 2:-0.839352 3:-0.994862 4:-0.924823 5:-0.944312 6:-0.882153 7:-0.996209 8:-0.941785 
0 2 2 1:-0.961917 2:-0.915067 3:-0.997665 4:-0.954735 5:-0.951587 6:-0.854503 7:-0.996671 8:-0.951474 
0 2 2 1:-0.969289 2:-0.895202 3:-0.998124 4:-0.964388 5:-0.963361 6:-0.846938 7:-0.997573 8:-0.964633 
0 0 2 1:-0.960811 2:-0.891743 3:-0.997505 4:-0.95466 5:-0.971875 6:-0.875507 7:-0.998325 8:-0.971969 
0 0 2 1:-0.968285 2:-0.883227 3:-0.997992 4:-0.964201 5:-0.9726 6:-0.876767 7:-0.998345 8:-0.973112 
0 0 2 1:-0.968406 2:-0.895402 3:-0.998036 4:-0.963774 5:-0.974189 6:-0.887786 7:-0.998539 8:-0.973591 
0 0 2 1:-0.962837 2:-0.925389 3:-0.99776 4:-0.955389 5:-0.978775 6:-0.911954 7:-0.99893 8:-0.97689 
0 0 2 1:-0.967231 2:-0.892947 3:-0.997969 4:-0.962142 5:-0.98402 6:-0.932177 7:-0.999299 8:-0.981491 
0 0 2 1:-0.97828 2:-0.882636 3:-0.998678 4:-0.975537 5:-0.984093 6:-0.920953 7:-0.999267 8:-0.982161 
0 0 2 1:-0.955523 2:-0.796583 3:-0.996656 4:-0.954197 5:-0.985525 6:-0.902413 7:-0.999283 8:-0.984774 
2 2 0.146056955743086 1:-0.473964 2:-0.439218 3:-0.866229 4:-0.433556 5:-0.144314 6:0.108166 7:-0.503171 8:-0.247456 
2 2 0 1:-0.664089 2:-0.672182 3:-0.942312 4:-0.62589 5:-0.660263 6:-0.475935 7:-0.92077 8:-0.681637 
2 2 0 1:-0.761364 2:-0.717009 3:-0.967186 4:-0.734992 5:-0.795864 6:-0.610173 7:-0.96757 8:-0.808423 
2 2 0 1:-0.818696 2:-0.787768 3:-0.979195 4:-0.79619 5:-0.813816 6:-0.626383 7:-0.972131 8:-0.825314 
2 2 0 1:-0.83562 2:-0.770666 3:-0.981864 4:-0.816948 5:-0.786721 6:-0.649211 7:-0.966619 8:-0.794068 
2 2 0 1:-0.832993 2:-0.731959 3:-0.980917 4:-0.817307 5:-0.811373 6:-0.723844 7:-0.974124 8:-0.812573 
0 2 0.4239266468486856 1:-0.578774 2:-0.450784 3:-0.907319 4:-0.550538 5:-0.814013 6:-0.734787 7:-0.974967 8:-0.814045 
2 2 2 1:-0.447125 2:-0.619443 3:-0.864305 4:-0.378245 5:-0.81105 6:-0.705155 7:-0.973658 8:-0.813937 
2 2 0 1:-0.673605 2:-0.604648 3:-0.943064 4:-0.643964 5:-0.806248 6:-0.67299 7:-0.971762 8:-0.812327 
2 2 0 1:-0.74167 2:-0.757278 3:-0.963625 4:-0.708114 5:-0.857007 6:-0.693544 7:-0.982248 8:-0.86445 
2 2 0 1:-0.715102 2:-0.764097 3:-0.957599 4:-0.676451 5:-0.862543 6:-0.758404 7:-0.984416 8:-0.863963 
2 2 2 1:-0.650482 2:-0.622657 3:-0.937042 4:-0.615271 5:-0.833506 6:-0.754377 7:-0.979254 8:-0.832879 
2 2 0 1:-0.605639 2:-0.667548 3:-0.924797 4:-0.55817 5:-0.613374 6:-0.454124 7:-0.901255 8:-0.63563 
2 2 0 1:-0.607568 2:-0.606709 3:-0.923423 4:-0.567393 5:-0.46223 6:-0.422259 7:-0.827629 8:-0.478797 
2 2 0 1:-0.562254 2:-0.667478 3:-0.910439 4:-0.507514 5:-0.425969 6:-0.441579 7:-0.809874 8:-0.437236 
2 2 0 1:-0.521153 2:-0.606422 3:-0.893353 4:-0.466613 5:-0.453379 6:-0.403299 7:-0.820913 8:-0.473094 
2 2 0 1:-0.497983 2:-0.612578 3:-0.88472 4:-0.438877 5:-0.553613 6:-0.348772 7:-0.866268 8:-0.588997 
2 2 0 1:-0.617661 2:-0.698576 3:-0.929399 4:-0.569181 5:-0.641704 6:-0.460079 7:-0.912799 8:-0.664878 
2 2 0 1:-0.588964 2:-0.701766 3:-0.92038 4:-0.535468 5:-0.61707 6:-0.571587 7:-0.910455 8:-0.622237 
2 2 0 1:-0.515037 2:-0.681048 3:-0.893911 4:-0.450846 5:-0.661888 6:-0.53616 7:-0.924928 8:-0.675014 
2 2 0 1:-0.575731 2:-0.629838 3:-0.9137 4:-0.527736 5:-0.723058 6:-0.618891 7:-0.948665 8:-0.729486 
2 2 0 1:-0.649312 2:-0.699108 3:-0.938856 4:-0.605801 5:-0.715138 6:-0.660765 7:-0.947981 8:-0.71592 
2 2 0 1:-0.624192 2:-0.597848 3:-0.928337 4:-0.587451 5:-0.746146 6:-0.618337 7:-0.955191 8:-0.754381 
2 2 0 1:-0.596251 2:-0.460885 3:-0.91386 4:-0.571632 5:-0.760803 6:-0.588185 7:-0.958008 8:-0.773156 
2 2 2 1:-0.67727 2:-0.490439 3:-0.94034 4:-0.661778 5:-0.815801 6:-0.550046 7:-0.970164 8:-0.835255 
2 2 2 1:-0.71228 2:-0.689412 3:-0.955337 4:-0.680641 5:-0.764258 6:-0.473132 7:-0.954053 8:-0.790867 
2 2 0 1:-0.72244 2:-0.689183 3:-0.95784 4:-0.69222 5:-0.724903 6:-0.559886 7:-0.94668 8:-0.738507 
2 2 0 1:-0.7977 2:-0.797931 3:-0.975654 4:-0.770373 5:-0.915987 6:-0.820896 7:-0.992749 8:-0.916198 
2 2 2 1:-0.866048 2:-0.818141 3:-0.98693 4:-0.848747 5:-0.918069 6:-0.838249 7:-0.993209 8:-0.9167 
0 1.953059543921683 2 1:-0.917154 2:-0.849382 3:-0.993375 4:-0.906364 5:-0.94866 6:-0.867086 7:-0.996502 8:-0.947433 
0 2 2 1:-0.853264 2:-0.359035 3:-0.97742 4:-0.872685 5:-0.955207 6:-0.856619 7:-0.996987 8:-0.955084 
1.066469449585171 2 1.659194001552247 1:-0.41478 2:-0.646955 3:-0.851582 4:-0.337133 5:-0.761687 6:-0.734014 7:-0.963045 8:-0.757626 
2 2 0 1:-0.679524 2:-0.675712 3:-0.946635 4:-0.643588 5:-0.720774 6:-0.738584 7:-0.952381 8:-0.71274 
2 2 0 1:-0.82175 2:-0.66916 3:-0.978091 4:-0.809543 5:-0.755037 6:-0.75008 7:-0.96185 8:-0.748407 
2 2 0 1:-0.849165 2:-0.721595 3:-0.983376 4:-0.836929 5:-0.779201 6:-0.718715 7:-0.966877 8:-0.777896 
2 2 0 1:-0.790916 2:-0.744429 3:-0.97361 4:-0.766952 5:-0.792882 6:-0.647297 7:-0.968033 8:-0.800378 
2 2 0 1:-0.750352 2:-0.772376 3:-0.96579 4:-0.716955 5:-0.818229 6:-0.724335 7:-0.975607 8:-0.81937 
2 2 0 1:-0.675372 2:-0.76606 3:-0.947601 4:-0.629917 5:-0.849456 6:-0.701394 7:-0.981102 8:-0.855267 
2 2 0 1:-0.787153 2:-0.756287 3:-0.973077 4:-0.761533 5:-0.820097 6:-0.686843 7:-0.975097 8:-0.824582 
2 2 0 1:-0.762037 2:-0.769234 3:-0.968225 4:-0.731043 5:-0.861459 6:-0.725361 7:-0.983648 8:-0.86594 
0.9677156318953509 2 2 1:-0.756905 2:-0.743903 3:-0.966721 4:-0.727201 5:-0.901475 6:-0.835719 7:-0.991195 8:-0.898987 
0 2 2 1:-0.599561 2:-0.679631 3:-0.923228 4:-0.548357 5:-0.938189 6:-0.842988 7:-0.99537 8:-0.937702 
0 2 2 1:-0.572669 2:-0.813292 3:-0.918038 4:-0.505576 5:-0.96508 6:-0.903251 7:-0.997996 8:-0.962791 
0 0 2 1:-0.692373 2:-0.906399 3:-0.954243 4:-0.639473 5:-0.962295 6:-0.90353 7:-0.997793 8:-0.959802 
2 2 0 1:-0.776009 2:-0.778871 3:-0.971197 4:-0.746766 5:-0.788323 6:-0.695326 7:-0.968374 8:-0.790443 
2 2 0 1:-0.803821 2:-0.746362 3:-0.976012 4:-0.782273 5:-0.733625 6:-0.541427 7:-0.948435 8:-0.750747 
2 2 0 1:-0.769917 2:-0.609966 3:-0.966844 4:-0.755782 5:-0.660825 6:-0.514638 7:-0.92327 8:-0.677075 
2 2 0 1:-0.751623 2:-0.62834 3:-0.963234 4:-0.732571 5:-0.679494 6:-0.493938 7:-0.92867 8:-0.699799 
2 2 0 1:-0.765039 2:-0.764529 3:-0.968776 4:-0.735016 5:-0.71725 6:-0.547598 7:-0.943616 8:-0.73329 
2 2 0 1:-0.801319 2:-0.78652 3:-0.976169 4:-0.775577 5:-0.733306 6:-0.651136 7:-0.952877 8:-0.736192 
2 2 0 1:-0.788768 2:-0.790873 3:-0.973886 4:-0.760545 5:-0.770719 6:-0.632033 7:-0.962098 8:-0.779083 
2 2 0 1:-0.657432 2:-0.654062 3:-0.939956 4:-0.619808 5:-0.810813 6:-0.695263 7:-0.973338 8:-0.814855 
2 2 2 1:-0.405767 2:-0.724602 3:-0.850847 4:-0.317861 5:-0.865115 6:-0.785921 7:-0.985324 8:-0.863942 
0.4521101060310522 2 0 1:-0.235839 2:-1 3:-0.774962 4:-0.0997802 5:-0.923914 6:-0.828834 7:-0.993777 8:-0.923607 
0 2 2 1:-0.37122 2:-0.803633 3:-0.838053 4:-0.270211 5:-0.956525 6:-0.879542 7:-0.997229 8:-0.955101 
0 2 2 1:-0.675035 2:-0.663372 3:-0.945098 4:-0.638946 5:-0.942307 6:-0.835393 7:-0.995705 8:-0.942829 
2 2 2 1:-0.861775 2:-0.712335 3:-0.985149 4:-0.852199 5:-0.936151 6:-0.833218 7:-0.995092 8:-0.936356 
0 0 2 1:-0.890298 2:-0.847196 3:-0.990332 4:-0.875047 5:-0.961453 6:-0.856101 7:-0.997483 8:-0.961901 
2 2 0 1:-0.778874 2:-0.762312 3:-0.97154 4:-0.751294 5:-0.831042 6:-0.627867 7:-0.975821 8:-0.842659 
2 2 2 1:-0.871168 2:-0.826653 3:-0.987703 4:-0.854144 5:-0.915722 6:-0.755805 7:-0.992048 8:-0.920799 
2 2 2 1:-0.873109 2:-0.87606 3:-0.988356 4:-0.853062 5:-0.93946 6:-0.816883 7:-0.995284 8:-0.941047 
0 0 2 1:-0.744098 2:-0.956261 3:-0.9667 4:-0.697481 5:-0.97582 6:-0.904246 7:-0.998721 8:-0.974238 
0 0 2 1:-0.826845 2:-0.810804 3:-0.980898 4:-0.803166 5:-0.968438 6:-0.862895 7:-0.998024 8:-0.969075 
0 2 2 1:-0.940589 2:-0.834398 3:-0.995581 4:-0.934492 5:-0.972631 6:-0.866479 7:-0.998332 8:-0.973344 
2 2 2 1:-0.682987 2:-0.74331 3:-0.949124 4:-0.640806 5:-0.931391 6:-0.798464 7:-0.994295 8:-0.933885 
2 2 0 1:-0.7445 2:-0.784372 3:-0.964698 4:-0.709257 5:-0.949221 6:-0.773331 7:-0.995849 8:-0.954639 
2 2 2 1:-0.623127 2:-0.666927 3:-0.930218 4:-0.578029 5:-0.96141 6:-0.826017 7:-0.997295 8:-0.963955 
2 2 2 1:-0.861182 2:-0.789629 3:-0.985969 4:-0.845074 5:-0.958681 6:-0.787627 7:-0.996804 8:-0.963626 
0 0 2 1:-0.821971 2:-0.909501 3:-0.981031 4:-0.791167 5:-0.966887 6:-0.849521 7:-0.997855 8:-0.968104 
0 0 2 1:-0.853311 2:-0.892996 3:-0.985739 4:-0.828857 5:-0.950491 6:-0.847754 7:-0.99648 8:-0.951297 
2 2 0 1:-0.675934 2:-0.6098 3:-0.943849 4:-0.646512 5:-0.454844 6:-0.36095 7:-0.81709 8:-0.482587 
2 2 0 1:-0.795888 2:-0.718812 3:-0.974167 4:-0.774874 5:-0.681627 6:-0.423312 7:-0.92514 8:-0.70907 
2 2 2 1:-0.722924 2:-0.596265 3:-0.955713 4:-0.701974 5:-0.724901 6:-0.439197 7:-0.940618 8:-0.754051 
2 2 0 1:-0.54678 2:-0.670741 3:-0.905139 4:-0.48881 5:-0.575716 6:-0.502715 7:-0.889113 8:-0.586783 
2 2 0 1:-0.579684 2:-0.577689 3:-0.913163 4:-0.537871 5:-0.569896 6:-0.579504 7:-0.891949 8:-0.570121 
2 2 0 1:-0.68653 2:-0.530072 3:-0.944286 4:-0.667651 5:-0.64012 6:-0.629861 7:-0.922202 8:-0.638915 
2 2 0 1:-0.625842 2:-0.624499 3:-0.929694 4:-0.586541 5:-0.718073 6:-0.598272 7:-0.94622 8:-0.727304 
2 2 0 1:-0.769743 2:-0.817354 3:-0.970506 4:-0.736161 5:-0.902696 6:-0.620635 7:-0.988271 8:-0.918064 
0 0 2 1:-0.730317 2:-0.82255 3:-0.962132 4:-0.689586 5:-0.959937 6:-0.850764 7:-0.997326 8:-0.9607 
0 0 2 1:-0.673571 2:-0.85329 3:-0.948707 4:-0.620851 5:-0.964161 6:-0.844737 7:-0.997612 8:-0.965779 
0 0 2 1:-0.680761 2:-0.911094 3:-0.95138 4:-0.625555 5:-0.976613 6:-0.902174 7:-0.998761 8:-0.975258 
0 0 2 1:-0.7661 2:-0.867171 3:-0.970391 4:-0.72836 5:-0.968451 6:-0.889686 7:-0.99817 8:-0.967191 
0 0 2 1:-0.782956 2:-0.871683 3:-0.973755 4:-0.747779 5:-0.971358 6:-0.877079 7:-0.998307 8:-0.971112 
0 0 2 1:-0.781546 2:-0.870634 3:-0.973468 4:-0.746243 5:-0.982804 6:-0.870859 7:-0.99901 8:-0.983711 
0 0 2 1:-0.813432 2:-0.873975 3:-0.979248 4:-0.783641 5:-0.979854 6:-0.880108 7:-0.998869 8:-0.980038 
0 0 2 1:-0.740129 2:-0.82475 3:-0.96434 4:-0.700976 5:-0.977404 6:-0.866188 7:-0.998648 8:-0.978263 
0.8788579225290853 2 2 1:-0.518472 2:-0.615657 3:-0.892712 4:-0.461902 5:-0.95347 6:-0.829232 7:-0.99666 8:-0.955324 
2 2 0 1:-0.58582 2:-0.651146 3:-0.917688 4:-0.537421 5:-0.340943 6:-0.315522 7:-0.743001 8:-0.369402 
2 2 0 1:-0.664314 2:-0.657722 3:-0.94192 4:-0.628049 5:-0.554615 6:-0.436606 7:-0.8746 8:-0.575699 
2 2 0 1:-0.745961 2:-0.621661 3:-0.961785 4:-0.726994 5:-0.609401 6:-0.526327 7:-0.904635 8:-0.620604 
2 2 0 1:-0.702076 2:-0.589399 3:-0.950242 4:-0.679308 5:-0.636729 6:-0.479099 7:-0.912163 8:-0.656807 
2 2 0 1:-0.387076 2:-0.533708 3:-0.833102 4:-0.319021 5:-0.636082 6:-0.499545 7:-0.913233 8:-0.652713 
2 2 0 1:-0.169162 2:-0.779205 3:-0.730432 4:-0.0358171 5:-0.658368 6:-0.443279 7:-0.917985 8:-0.683286 
2 2 0 1:-0.715002 2:-0.562553 3:-0.952801 4:-0.696927 5:-0.476588 6:-0.470617 7:-0.839831 8:-0.485527 
2 2 0 1:-0.458732 2:-0.571965 3:-0.866954 4:-0.397016 5:-0.659675 6:-0.376333 7:-0.913841 8:-0.694284 
2 2 0 1:-0.28281 2:-0.811958 3:-0.794933 4:-0.166285 5:-0.688656 6:-0.367276 7:-0.923995 8:-0.72444 
2 2 0 1:-0.552808 2:-0.653813 3:-0.906673 4:-0.497911 5:-0.500868 6:-0.429964 7:-0.84829 8:-0.519188 
2 2 0 1:-0.544082 2:-0.643924 3:-0.903205 4:-0.488812 5:-0.664572 6:-0.545856 7:-0.926328 8:-0.676751 
2 2 0.05365541131919916 1:-0.411636 2:-0.74921 3:-0.854344 4:-0.322729 5:-0.501972 6:-0.314815 7:-0.837192 8:-0.535366 
2 2 0.4495860671770753 1:-0.000435374 2:-0.0182666 3:-0.535872 4:0.0442402 5:-0.00997496 6:-0.102167 7:-0.433433 8:-0.0603527 
2 2 2 1:-0.398098 2:-0.75794 3:-0.848664 4:-0.306075 5:-0.848484 6:-0.73749 7:-0.981667 8:-0.850618 
2 2 0.3594562686593396 1:-0.488876 2:-0.311352 3:-0.864304 4:-0.464721 5:-0.485482 6:-0.034148 7:-0.791533 8:-0.559693 
2 2 0 1:-0.708757 2:-0.778695 3:-0.956325 4:-0.667973 5:-0.842378 6:-0.640439 7:-0.978396 8:-0.854119 
2 2 0 1:-0.722919 2:-0.79937 3:-0.960066 4:-0.682746 5:-0.87111 6:-0.600993 7:-0.982765 8:-0.888153 
2 2 2 1:-0.618362 2:-0.533072 3:-0.924157 4:-0.587955 5:-0.861466 6:-0.6396 7:-0.981922 8:-0.874309 
2 2 0 1:-0.652844 2:-0.447196 3:-0.931504 4:-0.637884 5:-0.627169 6:-0.538233 7:-0.912293 8:-0.637776 
2 2 0.2074679736743137 1:-0.243609 2:-0.355757 3:-0.744749 4:-0.177875 5:-0.400752 6:-0.105339 7:-0.749778 8:-0.461175 
2 2 0 1:-0.351956 2:-0.61277 3:-0.820755 4:-0.267944 5:-0.721573 6:-0.544635 7:-0.944977 8:-0.737357 
2 2 0 1:-0.102095 2:-0.690468 3:-0.684301 4:0.0338779 5:-0.540949 6:-0.524037 7:-0.875399 8:-0.546686 
2 2 0 1:-0.195555 2:-0.612062 3:-0.736834 4:-0.0847535 5:-0.481981 6:-0.565012 7:-0.850675 8:-0.476984 
2 2 0 1:-0.455055 2:-0.651821 3:-0.86908 4:-0.383935 5:-0.467802 6:-0.402649 7:-0.828571 8:-0.48759 
2 2 0 1:-0.447684 2:-0.606587 3:-0.863944 4:-0.38074 5:-0.757156 6:-0.688613 7:-0.960571 8:-0.75783 
2 2 2 1:-0.349911 2:-0.594839 3:-0.818762 4:-0.267547 5:-0.821508 6:-0.715377 7:-0.976067 8:-0.824127 
2 2 0 1:-0.745912 2:-0.776482 3:-0.964889 4:-0.711627 5:-0.783561 6:-0.641823 7:-0.965632 8:-0.791494 
2 2 0 1:-0.713272 2:-0.683104 3:-0.955484 4:-0.682203 5:-0.682908 6:-0.687198 7:-0.939179 8:-0.677792 
2 2 0 1:-0.666081 2:-0.632728 3:-0.94178 4:-0.632587 5:-0.608168 6:-0.487977 7:-0.901562 8:-0.623879 
2 2 0 1:-0.63654 2:-0.555742 3:-0.930668 4:-0.607291 5:-0.527616 6:-0.43004 7:-0.861438 8:-0.54777 
2 2 0 1:-0.670536 2:-0.57019 3:-0.941127 4:-0.64509 5:-0.617852 6:-0.492085 7:-0.90563 8:-0.635111 
2 2 0 1:-0.747903 2:-0.706527 3:-0.963986 4:-0.720795 5:-0.731872 6:-0.638263 7:-0.951969 8:-0.736746 
2 2 0 1:-0.727162 2:-0.777661 3:-0.960687 4:-0.689624 5:-0.568012 6:-0.182877 7:-0.856143 8:-0.630012 
2 2 0 1:-0.564339 2:-0.592086 3:-0.908342 4:-0.518817 5:-0.351927 6:-0.242513 7:-0.739486 8:-0.394132 
2 2 0 1:-0.577114 2:-0.555729 3:-0.911389 4:-0.537974 5:-0.524692 6:-0.303601 7:-0.847635 8:-0.565105 
2 2 0 1:-0.743694 2:-0.745094 3:-0.963858 4:-0.711825 5:-0.786891 6:-0.499001 7:-0.961313 8:-0.811964 
2 2 0 1:-0.647248 2:-0.719199 3:-0.938778 4:-0.601228 5:-0.835661 6:-0.732342 7:-0.979212 8:-0.837618 
2 2 0 1:-0.614299 2:-0.794519 3:-0.930819 4:-0.555955 5:-0.780711 6:-0.671881 7:-0.965899 8:-0.785002 
2 2 0 1:-0.694425 2:-0.793449 3:-0.953048 4:-0.649983 5:-0.799293 6:-0.653808 7:-0.9697 8:-0.806947 
0 0 2 1:-0.935329 2:-0.864452 3:-0.995262 4:-0.926505 5:-0.972776 6:-0.921139 7:-0.998583 8:-0.970141 
0 0 2 1:-0.903538 2:-0.777549 3:-0.991329 4:-0.895348 5:-0.982515 6:-0.930331 7:-0.99921 8:-0.979989 
1.242798048017977 2 2 1:-0.685991 2:-0.393836 3:-0.939157 4:-0.679358 5:-0.951674 6:-0.732332 7:-0.99571 8:-0.959898 
2 2 0 1:-0.62331 2:-0.486362 3:-0.923898 4:-0.599904 5:-0.332023 6:-0.186232 7:-0.717199 8:-0.383157 
2 2 0 1:-0.756313 2:-0.718059 3:-0.966052 4:-0.72946 5:-0.657189 6:-0.581218 7:-0.925562 8:-0.664422 
2 2 0 1:-0.66359 2:-0.687717 3:-0.942564 4:-0.623917 5:-0.651305 6:-0.524942 7:-0.920371 8:-0.666007 
2 2 0 1:-0.590977 2:-0.639447 3:-0.919165 4:-0.544096 5:-0.503697 6:-0.384392 7:-0.84535 8:-0.530333 
2 2 0.2687756812473863 1:-0.552951 2:-0.593731 3:-0.904482 4:-0.505296 5:-0.2122 6:-0.371369 7:-0.661615 8:-0.220334 
2 2 0 1:-0.609737 2:-0.557646 3:-0.922329 4:-0.575981 5:-0.418746 6:-0.232268 7:-0.780156 8:-0.462354 
2 2 0 1:-0.706409 2:-0.649953 3:-0.952981 4:-0.677739 5:-0.690292 6:-0.505052 7:-0.932926 8:-0.709871 
2 2 0 1:-0.752766 2:-0.695616 3:-0.964932 4:-0.726977 5:-0.707104 6:-0.510318 7:-0.938712 8:-0.726312 
2 2 0 1:-0.767591 2:-0.712176 3:-0.96838 4:-0.7429 5:-0.741809 6:-0.557915 7:-0.951445 8:-0.75765 
2 2 0 1:-0.674332 2:-0.634811 3:-0.944113 4:-0.642022 5:-0.594629 6:-0.476471 7:-0.895186 8:-0.61269 
2 2 0 1:-0.701595 2:-0.590753 3:-0.950173 4:-0.678443 5:-0.64179 6:-0.516452 7:-0.916383 8:-0.65684 
2 2 0 1:-0.699961 2:-0.672068 3:-0.951851 4:-0.667933 5:-0.766381 6:-0.717031 7:-0.96375 8:-0.764547 
2 2 0 1:-0.758286 2:-0.756276 3:-0.967224 4:-0.727881 5:-0.717571 6:-0.675184 7:-0.949265 8:-0.716804 
2 2 0 1:-0.791322 2:-0.762547 3:-0.973972 4:-0.765878 5:-0.779696 6:-0.638143 7:-0.964586 8:-0.78776 
2 2 0 1:-0.788722 2:-0.798915 3:-0.973985 4:-0.75981 5:-0.871816 6:-0.687541 7:-0.984687 8:-0.880136 
2 2 0 1:-0.782479 2:-0.765875 3:-0.972302 4:-0.755258 5:-0.877665 6:-0.737934 7:-0.986532 8:-0.881801 
2 2 1.302851018954062 1:-0.823128 2:-0.780582 3:-0.979925 4:-0.801486 5:-0.910835 6:-0.784543 7:-0.991791 8:-0.913182 
2 0 0 1:-0.811816 2:-0.866858 3:-0.978948 4:-0.781902 5:-0.941992 6:-0.815888 7:-0.99552 8:-0.943814 
1.321850269597474 2 2 1:-0.850875 2:-0.858692 3:-0.985113 4:-0.828191 5:-0.944401 6:-0.834627 7:-0.995895 8:-0.944962 
2 2 2 1:-0.892745 2:-0.844316 3:-0.990603 4:-0.878125 5:-0.923753 6:-0.763489 7:-0.993092 8:-0.92843 
2 2 2 1:-0.930137 2:-0.832455 3:-0.994594 4:-0.922517 5:-0.939424 6:-0.770236 7:-0.994858 8:-0.944703 
0 0 2 1:-0.913581 2:-0.798678 3:-0.992667 4:-0.905438 5:-0.958731 6:-0.896592 7:-0.997496 8:-0.956324 
2 2 0 1:-0.720423 2:-0.615347 3:-0.955295 4:-0.698979 5:-0.610949 6:-0.481885 7:-0.902163 8:-0.628768 
2 2 0 1:-0.730965 2:-0.676787 3:-0.959566 4:-0.703659 5:-0.666379 6:-0.571074 7:-0.928353 8:-0.675499 
2 2 0 1:-0.628298 2:-0.563199 3:-0.928404 4:-0.596979 5:-0.637239 6:-0.583173 7:-0.918677 8:-0.642452 
2 2 0 1:-0.668142 2:-0.536515 3:-0.939305 4:-0.646343 5:-0.692941 6:-0.607424 7:-0.938977 8:-0.698856 
2 2 0 1:-0.773571 2:-0.676149 3:-0.96898 4:-0.753246 5:-0.715484 6:-0.612046 7:-0.946091 8:-0.722461 
2 2 0 1:-0.744299 2:-0.675813 3:-0.962643 4:-0.71906 5:-0.692958 6:-0.601447 7:-0.938716 8:-0.699254 
2 2 0 1:-0.632273 2:-0.728711 3:-0.934655 4:-0.583059 5:-0.68915 6:-0.671938 7:-0.940574 8:-0.686155 
2 2 0 1:-0.467566 2:-0.798242 3:-0.879342 4:-0.383712 5:-0.671881 6:-0.686196 7:-0.93562 8:-0.665716 
2 2 0 1:-0.500138 2:-0.741944 3:-0.890316 4:-0.426917 5:-0.689786 6:-0.627857 7:-0.938901 8:-0.692541 
2 2 0 1:-0.620763 2:-0.656343 3:-0.929109 4:-0.577227 5:-0.607427 6:-0.600315 7:-0.908399 8:-0.607695 
2 2 0 1:-0.273766 2:-0.257488 3:-0.752732 4:-0.225513 5:-0.281111 6:-0.287088 7:-0.698216 8:-0.309195 
2 0.7769999118057442 0.4820823896941851 1:0.126757 2:-0.567533 3:-0.509638 4:0.286825 5:-0.457236 6:-0.0562959 7:-0.777731 8:-0.517527 
0.7348327080147836 2 2 1:0.0372464 2:-0.738844 3:-0.591627 4:0.202327 5:-0.881893 6:-0.844485 7:-0.988654 8:-0.877081 
0 2 2 1:-0.239494 2:-0.834736 3:-0.772777 4:-0.113451 5:-0.938082 6:-0.810989 7:-0.995062 8:-0.940492 
0 0.1474601101511542 0 1:-0.443599 2:-0.91172 3:-0.872396 4:-0.347486 5:-0.97715 6:-0.885441 7:-0.998695 8:-0.977251 
0 2 2 1:-0.574943 2:-0.858146 3:-0.919723 4:-0.504929 5:-0.9714 6:-0.890309 7:-0.998369 8:-0.970452 
2 2 0.8519080210105746 1:-0.565515 2:-0.672474 3:-0.911729 4:-0.510087 5:-0.881873 6:-0.675056 7:-0.986082 8:-0.891578 
0 2 0 1:-0.4484 2:-0.855349 3:-0.873115 4:-0.356809 5:-0.93957 6:-0.840143 7:-0.995481 8:-0.939497 
2 2 0 1:-0.789515 2:-0.744552 3:-0.973349 4:-0.765355 5:-0.729202 6:-0.678411 7:-0.952699 8:-0.728831 
2 2 0 1:-0.803429 2:-0.693205 3:-0.975167 4:-0.786248 5:-0.767791 6:-0.725826 7:-0.964341 8:-0.765027 
2 2 2 1:-0.83112 2:-0.544993 3:-0.977477 4:-0.832996 5:-0.836738 6:-0.740563 7:-0.979579 8:-0.837685 
2 2 0 1:-0.712169 2:-0.698409 3:-0.955547 4:-0.679471 5:-0.664311 6:-0.604504 7:-0.929271 8:-0.668177 
2 2 0 1:-0.782672 2:-0.709096 3:-0.971435 4:-0.760639 5:-0.696 6:-0.667315 7:-0.942482 8:-0.694438 
2 2 0 1:-0.810958 2:-0.768214 3:-0.977658 4:-0.78838 5:-0.745993 6:-0.646258 7:-0.956172 8:-0.75075 
2 2 0 1:-0.811315 2:-0.774959 3:-0.977809 4:-0.78822 5:-0.73663 6:-0.646728 7:-0.953622 8:-0.74068 
2 2 0 1:-0.857605 2:-0.746636 3:-0.984957 4:-0.844598 5:-0.752454 6:-0.722841 7:-0.960412 8:-0.74806 
2 2 0 1:-0.861299 2:-0.739131 3:-0.985435 4:-0.849418 5:-0.718468 6:-0.635488 7:-0.947996 8:-0.720325 
2 2 0 1:-0.863726 2:-0.737214 3:-0.985764 4:-0.852364 5:-0.689115 6:-0.603323 7:-0.937564 8:-0.692701 
2 2 0 1:-0.893847 2:-0.823461 3:-0.990583 4:-0.880805 5:-0.72432 6:-0.741527 7:-0.953464 8:-0.71562 
0 2 2 1:-0.718285 2:-0.618449 3:-0.955147 4:-0.693244 5:-0.779425 6:-0.802722 7:-0.969009 8:-0.769571 
2 2 0 1:-0.59364 2:-0.587859 3:-0.918206 4:-0.553185 5:-0.65695 6:-0.629295 7:-0.928086 8:-0.657188 
2 2 0 1:-0.757141 2:-0.708981 3:-0.966116 4:-0.730839 5:-0.695354 6:-0.674232 7:-0.94259 8:-0.692642 
2 2 0 1:-0.652348 2:-0.523287 3:-0.934267 4:-0.629169 5:-0.621538 6:-0.401731 7:-0.900678 8:-0.649618 
2 2 2 1:-0.833958 2:-0.684739 3:-0.980431 4:-0.822435 5:-0.829524 6:-0.750027 7:-0.978396 8:-0.828949 
2 2 0.3467671755455292 1:-0.815931 2:-0.701559 3:-0.977579 4:-0.799672 5:-0.853971 6:-0.734622 7:-0.982571 8:-0.856743 
2 2 0 1:-0.770513 2:-0.742403 3:-0.969533 4:-0.74319 5:-0.84283 6:-0.793948 7:-0.981656 8:-0.839238 
0 2 2 1:-0.613258 2:-0.402411 3:-0.916896 4:-0.59895 5:-0.841543 6:-0.800191 7:-0.981561 8:-0.837031 
2 2 0 1:-0.568709 2:-0.449596 3:-0.903724 4:-0.54128 5:-0.398225 6:-0.327676 7:-0.780492 8:-0.428422 
2 2 0 1:-0.475762 2:-0.244026 3:-0.853651 4:-0.463021 5:-0.236592 6:-0.069194 7:-0.624401 8:-0.303937 
2 2 0.05338252317536455 1:-0.391181 2:-0.217407 3:-0.811799 4:-0.369262 5:-0.209747 6:-0.110667 7:-0.612096 8:-0.268348 
2 2 0 1:-0.563443 2:-0.371235 3:-0.897759 4:-0.547112 5:-0.265373 6:-0.275366 7:-0.684965 8:-0.293727 
2 2 0.2792400615281145 1:-0.491861 2:-0.441027 3:-0.873735 4:-0.454425 5:-0.0530514 6:-0.321972 7:-0.523691 8:-0.0580714 
2 2 0 1:-0.389163 2:-0.438521 3:-0.828094 4:-0.334894 5:-0.29079 6:-0.378961 7:-0.718594 8:-0.303226 
2 2 0 1:-0.560398 2:-0.449316 3:-0.900706 4:-0.532034 5:-0.585837 6:-0.567737 7:-0.897814 8:-0.589228 
2 2 0 1:-0.621157 2:-0.649325 3:-0.92908 4:-0.5781 5:-0.681583 6:-0.60005 7:-0.934967 8:-0.687485 
2 2 0 1:-0.616987 2:-0.615179 3:-0.926668 4:-0.577297 5:-0.636793 6:-0.564218 7:-0.917427 8:-0.644168 
2 2 0 1:-0.612273 2:-0.614887 3:-0.925181 4:-0.571787 5:-0.642087 6:-0.620988 7:-0.922455 8:-0.642183 
2 2 0.3474762824274908 1:-0.353132 2:-0.266808 3:-0.796788 4:-0.321446 5:-0.11434 6:0.166201 7:-0.458537 8:-0.219845 
2 2 0.2445512934839513 1:-0.0791736 2:-0.403616 3:-0.645639 4:0.0203881 5:-0.688248 6:-0.653028 7:-0.939506 8:-0.687675 
2 2 0 1:-0.476639 2:-0.615404 3:-0.87636 4:-0.413268 5:-0.642242 6:-0.651511 7:-0.924023 8:-0.637941 
2 2 0 1:-0.554664 2:-0.626238 3:-0.906331 4:-0.50333 5:-0.594114 6:-0.530671 7:-0.898747 8:-0.60267 
2 2 0 1:-0.428205 2:-0.613172 3:-0.855891 4:-0.357088 5:-0.622551 6:-0.513164 7:-0.908934 8:-0.636166 
2 2 0 1:-0.384098 2:-0.568837 3:-0.833717 4:-0.31112 5:-0.635324 6:-0.574153 7:-0.917435 8:-0.641462 
2 2 0 1:-0.474721 2:-0.443285 3:-0.866796 4:-0.433321 5:-0.572331 6:-0.514112 7:-0.888494 8:-0.581848 
2 2 0 1:-0.698509 2:-0.679835 3:-0.951707 4:-0.665384 5:-0.596166 6:-0.478888 7:-0.89594 8:-0.613543 
2 2 0 1:-0.722749 2:-0.738974 3:-0.958933 4:-0.687955 5:-0.657496 6:-0.600802 7:-0.926824 8:-0.661523 
2 2 0 1:-0.754096 2:-0.70489 3:-0.965402 4:-0.727706 5:-0.658387 6:-0.606113 7:-0.927433 8:-0.661525 
2 2 0 1:-0.83688 2:-0.710079 3:-0.981281 4:-0.823604 5:-0.65463 6:-0.597846 7:-0.925701 8:-0.658308 
2 2 0 1:-0.866708 2:-0.801045 3:-0.986863 4:-0.850761 5:-0.672648 6:-0.680724 7:-0.935662 8:-0.667119 
2 2 0 1:-0.850251 2:-0.769752 3:-0.984141 4:-0.83406 5:-0.686647 6:-0.799946 7:-0.944314 8:-0.668803 
1.192344387976835 2 0.985936728041683 1:-0.294116 2:0.0948084 3:-0.723322 4:-0.289815 5:-0.71232 6:-0.836299 7:-0.952771 8:-0.693307 
0 2 0 1:-0.656829 2:-0.78651 3:-0.942983 4:-0.606553 5:-0.72983 6:-0.723297 7:-0.954387 8:-0.723719 
2 2 0 1:-0.71522 2:-0.72222 3:-0.956806 4:-0.680608 5:-0.723618 6:-0.645939 7:-0.949885 8:-0.726915 
2 2 0 1:-0.721458 2:-0.681867 3:-0.957413 4:-0.692002 5:-0.646692 6:-0.438083 7:-0.913232 8:-0.673121 
2 2 0 1:-0.762309 2:-0.710306 3:-0.967224 4:-0.737039 5:-0.642592 6:-0.42572 7:-0.91082 8:-0.66896 
2 2 0 1:-0.805522 2:-0.758122 3:-0.976547 4:-0.782836 5:-0.70117 6:-0.544059 7:-0.938558 8:-0.714427 
2 2 0 1:-0.732212 2:-0.762042 3:-0.961544 4:-0.697016 5:-0.7481 6:-0.586239 7:-0.954485 8:-0.758088 
2 2 0 1:-0.508162 2:-0.603198 3:-0.888248 4:-0.451043 5:-0.785545 6:-0.658318 7:-0.966637 8:-0.791606 
2 2 0 1:-0.670419 2:-0.700848 3:-0.944748 4:-0.630501 5:-0.635019 6:-0.548592 7:-0.915852 8:-0.644869 
2 2 0 1:-0.697275 2:-0.668219 3:-0.95108 4:-0.664761 5:-0.647751 6:-0.575755 7:-0.922036 8:-0.654515 
2 2 0 1:-0.792025 2:-0.646466 3:-0.972121 4:-0.777293 5:-0.7249 6:-0.663445 7:-0.950939 8:-0.725536 
2 2 0 1:-0.840106 2:-0.730564 3:-0.982071 4:-0.825494 5:-0.72979 6:-0.675288 7:-0.952763 8:-0.729737 
2 2 0 1:-0.804391 2:-0.791557 3:-0.976792 4:-0.77871 5:-0.746554 6:-0.774592 7:-0.960362 8:-0.736674 
0.6884670812912732 0.3575242526380741 0 1:-0.777238 2:-0.826558 3:-0.972101 4:-0.744403 5:-0.783048 6:-0.800502 7:-0.969773 8:-0.773775 
2 2 0 1:-0.810273 2:-0.773573 3:-0.977603 4:-0.787129 5:-0.793095 6:-0.775731 7:-0.971467 8:-0.786936 
2 2 0 1:-0.791853 2:-0.780538 3:-0.974321 4:-0.765001 5:-0.804308 6:-0.815983 7:-0.974686 8:-0.795362 
2 2 0 1:-0.779029 2:-0.845179 3:-0.972704 4:-0.744963 5:-0.847844 6:-0.801232 7:-0.982666 8:-0.843989 
0 0 2 1:-0.859344 2:-0.849379 3:-0.986251 4:-0.838786 5:-0.849627 6:-0.867357 7:-0.983964 8:-0.840137 
2 2 2 1:-0.881688 2:-0.856493 3:-0.989291 4:-0.864685 5:-0.852668 6:-0.849868 7:-0.984232 8:-0.844892 
2 2 2 1:-0.848811 2:-0.810043 3:-0.984319 4:-0.829499 5:-0.857476 6:-0.854387 7:-0.985054 8:-0.849897 
0 0 2 1:-0.851674 2:-0.796234 3:-0.984615 4:-0.833784 5:-0.856436 6:-0.917866 7:-0.985648 8:-0.843795 
0 0 2 1:-0.922256 2:-0.788186 3:-0.993504 4:-0.916489 5:-0.843722 6:-0.922997 7:-0.983626 8:-0.829592 
0 0 2 1:-0.947063 2:-0.862724 3:-0.996242 4:-0.940921 5:-0.839552 6:-0.925454 7:-0.98295 8:-0.824836 
0 0 2 1:-0.956538 2:-0.866697 3:-0.99704 4:-0.951614 5:-0.845369 6:-0.9239 7:-0.983902 8:-0.831379 
2 2 0.4470771559580314 1:-0.626103 2:-0.36514 3:-0.919236 4:-0.619957 5:-0.377015 6:0.119812 7:-0.69203 8:-0.475012 
2 2 0 1:-0.788884 2:-0.740227 3:-0.973008 4:-0.765929 5:-0.775823 6:-0.651125 7:-0.964065 8:-0.782008 
2 2 0 1:-0.799794 2:-0.783441 3:-0.975667 4:-0.775146 5:-0.701324 6:-0.704157 7:-0.945554 8:-0.695614 
2 2 0 1:-0.833116 2:-0.828276 3:-0.98209 4:-0.809594 5:-0.717623 6:-0.716872 7:-0.950773 8:-0.711747 
2 2 0 1:-0.769008 2:-0.646166 3:-0.967412 4:-0.750732 5:-0.660611 6:-0.497918 7:-0.922224 8:-0.679292 
2 2 0 1:-0.685123 2:-0.697249 3:-0.948651 4:-0.647964 5:-0.615838 6:-0.469182 7:-0.903333 8:-0.635696 
2 2 0 1:-0.756696 2:-0.727059 3:-0.966375 4:-0.728665 5:-0.73917 6:-0.571401 7:-0.951348 8:-0.752224 
2 2 0 1:-0.808528 2:-0.755751 3:-0.977045 4:-0.786631 5:-0.762048 6:-0.699415 7:-0.962151 8:-0.761684 
2 2 0 1:-0.741601 2:-0.641325 3:-0.9612 4:-0.719556 5:-0.74233 6:-0.709661 7:-0.957356 8:-0.739331 
2 2 0 1:-0.781154 2:-0.612455 3:-0.969169 4:-0.769112 5:-0.676789 6:-0.675854 7:-0.936738 8:-0.672574 
2 2 0 1:-0.79007 2:-0.618627 3:-0.971205 4:-0.778337 5:-0.611344 6:-0.68864 7:-0.914552 8:-0.599767 
2 2 0 1:-0.767953 2:-0.66131 3:-0.967496 4:-0.748335 5:-0.665001 6:-0.626698 7:-0.930674 8:-0.666359 
2 2 0 1:-0.811302 2:-0.725984 3:-0.977112 4:-0.792516 5:-0.753878 6:-0.704552 7:-0.96022 8:-0.752396 
2 2 0 1:-0.803613 2:-0.763221 3:-0.976265 4:-0.780232 5:-0.774529 6:-0.738076 7:-0.96628 8:-0.77101 
2 2 0 1:-0.79206 2:-0.72781 3:-0.973581 4:-0.769878 5:-0.786607 6:-0.634604 7:-0.966069 8:-0.795495 
2 2 0 1:-0.752698 2:-0.638118 3:-0.963389 4:-0.734343 5:-0.741029 6:-0.619181 7:-0.953718 8:-0.748055 
2 2 0 1:-0.720268 2:-0.644237 3:-0.956032 4:-0.695582 5:-0.666888 6:-0.533388 7:-0.926435 8:-0.680985 
2 2 0 1:-0.781331 2:-0.700562 3:-0.971019 4:-0.759707 5:-0.662802 6:-0.55305 7:-0.925999 8:-0.674061 
2 2 0 1:-0.732763 2:-0.661455 3:-0.95963 4:-0.707153 5:-0.645102 6:-0.599418 7:-0.922412 8:-0.648429 
2 2 0 1:-0.616989 2:-0.612022 3:-0.926506 4:-0.578093 5:-0.496064 6:-0.56069 7:-0.857131 8:-0.493498 
2 2 0 1:-0.655192 2:-0.604545 3:-0.93785 4:-0.622942 5:-0.487086 6:-0.571802 7:-0.85371 8:-0.481988 
2 2 0 1:-0.760592 2:-0.746455 3:-0.967514 4:-0.731606 5:-0.701675 6:-0.52542 7:-0.937796 8:-0.717638 
2 2 0 1:-0.673233 2:-0.74351 3:-0.946492 4:-0.629812 5:-0.731215 6:-0.736818 7:-0.955198 8:-0.724215 
2 2 0 1:-0.722402 2:-0.764367 3:-0.959341 4:-0.685166 5:-0.715703 6:-0.660449 7:-0.94813 8:-0.716323 
2 2 0 1:-0.742074 2:-0.689037 3:-0.962411 4:-0.715217 5:-0.66701 6:-0.593582 7:-0.92967 8:-0.673067 
2 2 0 1:-0.723612 2:-0.703728 3:-0.958376 4:-0.69247 5:-0.667193 6:-0.643145 7:-0.932166 8:-0.666681 
2 2 0 1:-0.769507 2:-0.759559 3:-0.969593 4:-0.740812 5:-0.764016 6:-0.696481 7:-0.962554 8:-0.76413 
2 2 0 1:-0.773662 2:-0.695127 3:-0.969273 4:-0.751947 5:-0.79076 6:-0.710523 7:-0.969316 8:-0.791435 
2 2 0 1:-0.581496 2:-0.648434 3:-0.916121 4:-0.532928 5:-0.594866 6:-0.578143 7:-0.902019 8:-0.597657 
2 2 0 1:-0.556209 2:-0.597285 3:-0.905763 4:-0.508746 5:-0.464772 6:-0.390716 7:-0.825535 8:-0.487868 
2 2 0 1:-0.502818 2:-0.595036 3:-0.885804 4:-0.446613 5:-0.355335 6:-0.24959 7:-0.742782 8:-0.396898 
2 2 0 1:-0.526687 2:-0.566577 3:-0.893614 4:-0.478474 5:-0.359255 6:-0.201649 7:-0.737998 8:-0.409327 
2 2 0 1:-0.568923 2:-0.559708 3:-0.908701 4:-0.52826 5:-0.465697 6:-0.313301 7:-0.817518 8:-0.502283 
2 2 0 1:-0.481509 2:-0.51501 3:-0.873529 4:-0.431448 5:-0.513861 6:-0.560068 7:-0.865613 8:-0.512483 
2 2 0 1:-0.412941 2:-0.539077 3:-0.845215 4:-0.349058 5:-0.460568 6:-0.569631 7:-0.840281 8:-0.453618 
2 2 0 1:-0.446646 2:-0.521172 3:-0.859211 4:-0.390677 5:-0.520324 6:-0.551423 7:-0.867919 8:-0.521255 
2 2 0 1:-0.392692 2:-0.421804 3:-0.828638 4:-0.342468 5:-0.489959 6:-0.457028 7:-0.845396 8:-0.50371 
2 2 0 1:-0.528233 2:-0.400088 3:-0.885971 4:-0.501999 5:-0.48749 6:-0.467421 7:-0.84502 8:-0.499369 
2 2 0 1:-0.742901 2:-0.720266 3:-0.963192 4:-0.713201 5:-0.558786 6:-0.534104 7:-0.884038 8:-0.564818 
2 2 0 1:-0.717312 2:-0.62329 3:-0.95501 4:-0.693124 5:-0.61578 6:-0.480334 7:-0.904085 8:-0.633773 
2 2 0 1:-0.670868 2:-0.663476 3:-0.943964 4:-0.634763 5:-0.631808 6:-0.543132 7:-0.91436 8:-0.641643 
2 2 0.8320331078257723 1:-0.721713 2:-0.735155 3:-0.958626 4:-0.687017 5:-0.607079 6:-0.660313 7:-0.911502 8:-0.599065 
2 2 0 1:-0.780453 2:-0.788685 3:-0.972241 4:-0.751055 5:-0.67011 6:-0.687748 7:-0.935095 8:-0.663723 
2 2 0 1:-0.850802 2:-0.779257 3:-0.984318 4:-0.834012 5:-0.761202 6:-0.772163 7:-0.96397 8:-0.752756 
2 2 2 1:-0.897294 2:-0.796698 3:-0.990788 4:-0.886731 5:-0.777577 6:-0.818128 7:-0.968908 8:-0.766016 
2 2 2 1:-0.835651 2:-0.716523 3:-0.98116 4:-0.821287 5:-0.804569 6:-0.839351 7:-0.975171 8:-0.793365 
0 0 2 1:-0.69009 2:-0.808591 3:-0.952225 4:-0.6434 5:-0.84872 6:-0.890319 7:-0.984101 8:-0.837327 
0 2 2 1:-0.625997 2:-0.686984 3:-0.931666 4:-0.579626 5:-0.880227 6:-0.90764 7:-0.989093 8:-0.870365 
2 2 0 1:-0.450278 2:-0.537056 3:-0.861614 4:-0.3927 5:-0.442347 6:-0.468602 7:-0.821627 8:-0.450263 
2 2 0 1:-0.490058 2:-0.510782 3:-0.876809 4:-0.442612 5:-0.459455 6:-0.492494 7:-0.832983 8:-0.464677 
2 2 0 1:-0.664033 2:-0.60592 3:-0.940422 4:-0.633178 5:-0.56693 6:-0.543105 7:-0.888231 8:-0.571962 
2 2 0 1:-0.759659 2:-0.730601 3:-0.967075 4:-0.731748 5:-0.685186 6:-0.603202 7:-0.936291 8:-0.690563 
2 2 0 1:-0.780124 2:-0.661162 3:-0.970037 4:-0.762255 5:-0.714702 6:-0.715126 7:-0.949867 8:-0.708728 
2 2 0 1:-0.656256 2:-0.627166 3:-0.938846 4:-0.621517 5:-0.736113 6:-0.718598 7:-0.955975 8:-0.730889 
2 2 0 1:-0.433894 2:-0.816771 3:-0.866081 4:-0.342735 5:-0.789879 6:-0.654146 7:-0.967538 8:-0.795864 
2 2 0 1:-0.41078 2:-0.838428 3:-0.856812 4:-0.313935 5:-0.832769 6:-0.728322 7:-0.978576 8:-0.834377 
0 0.3810342849347191 2 1:-0.572563 2:-0.788968 3:-0.917393 4:-0.507736 5:-0.850948 6:-0.881351 7:-0.984355 8:-0.840465 
0 0 2 1:-0.747183 2:-0.760791 3:-0.964856 4:-0.714627 5:-0.845788 6:-0.888356 7:-0.983587 8:-0.83427 
2 2 0 1:-0.830735 2:-0.805708 3:-0.981437 4:-0.808683 5:-0.835499 6:-0.847772 7:-0.981224 8:-0.826411 
2 2 0 1:-0.822383 2:-0.851076 3:-0.980549 4:-0.795579 5:-0.835676 6:-0.81951 7:-0.980808 8:-0.82887 
2 2 0 1:-0.850995 2:-0.858012 3:-0.985128 4:-0.828345 5:-0.840435 6:-0.830313 7:-0.98186 8:-0.83308 
2 2 2 1:-0.914298 2:-0.848215 3:-0.993075 4:-0.903038 5:-0.841686 6:-0.828667 7:-0.982044 8:-0.83483 
2 2 2 1:-0.909057 2:-0.840916 3:-0.992468 4:-0.89735 5:-0.859522 6:-0.843538 7:-0.985265 8:-0.852705 
0 0 2 1:-0.85209 2:-0.871082 3:-0.985377 4:-0.828936 5:-0.859089 6:-0.910188 7:-0.985977 8:-0.847279 
0 0 2 1:-0.845825 2:-0.869962 3:-0.984421 4:-0.82182 5:-0.837988 6:-0.931365 7:-0.982742 8:-0.822746 
0 2 2 1:-0.800768 2:-0.580111 3:-0.972524 4:-0.793636 5:-0.854196 6:-0.918454 7:-0.985301 8:-0.84127 
2 2 0 1:-0.86294 2:-0.806654 3:-0.986353 4:-0.846231 5:-0.847513 6:-0.77092 7:-0.982109 8:-0.846051 
2 2 0 1:-0.8262 2:-0.821289 3:-0.980891 4:-0.802045 5:-0.871441 6:-0.787552 7:-0.986317 8:-0.870779 
2 2 0 1:-0.819651 2:-0.77535 3:-0.979267 4:-0.797926 5:-0.863194 6:-0.776714 7:-0.984835 8:-0.862677 
2 2 2 1:-0.932187 2:-0.877347 3:-0.99502 4:-0.922256 5:-0.8464 6:-0.825845 7:-0.982798 8:-0.840293 
2 2 2 1:-0.943646 2:-0.865869 3:-0.996004 4:-0.936243 5:-0.835664 6:-0.79603 7:-0.980433 8:-0.830935 
2 2 2 1:-0.948272 2:-0.837467 3:-0.996262 4:-0.943392 5:-0.828571 6:-0.791068 7:-0.979022 8:-0.823885 
2 2 2 1:-0.891577 2:-0.790846 3:-0.990014 4:-0.880791 5:-0.853939 6:-0.831659 7:-0.984174 8:-0.847774 
2 2 0 1:-0.789695 2:-0.776957 3:-0.973866 4:-0.762735 5:-0.800528 6:-0.731649 7:-0.972041 8:-0.799272 
2 2 0 1:-0.754388 2:-0.814144 3:-0.967279 4:-0.718547 5:-0.746784 6:-0.758288 7:-0.959954 8:-0.738691 
2 2 0 1:-0.729464 2:-0.706235 3:-0.959686 4:-0.699695 5:-0.599458 6:-0.462332 7:-0.896148 8:-0.618726 
2 2 0 1:-0.697185 2:-0.688901 3:-0.95144 4:-0.663429 5:-0.475313 6:-0.387995 7:-0.831035 8:-0.498471 
2 2 0 1:-0.693916 2:-0.717496 3:-0.951356 4:-0.656407 5:-0.592559 6:-0.391255 7:-0.887689 8:-0.622278 
2 2 0 1:-0.614931 2:-0.571533 3:-0.92447 4:-0.580445 5:-0.54317 6:-0.441783 7:-0.869748 8:-0.562902 
2 2 0 1:-0.657214 2:-0.508915 3:-0.935197 4:-0.636485 5:-0.543324 6:-0.451269 7:-0.870634 8:-0.561251 
2 2 0 1:-0.785423 2:-0.713092 3:-0.972016 4:-0.763571 5:-0.679145 6:-0.716602 7:-0.939176 8:-0.669869 
0 2 0.6163814506740481 1:-0.707022 2:-0.734748 3:-0.954984 4:-0.670232 5:-0.691119 6:-0.789139 7:-0.945312 8:-0.674901 
0 2 0 1:-0.722083 2:-0.794694 3:-0.959795 4:-0.682204 5:-0.797253 6:-0.774643 7:-0.972339 8:-0.791332 
2 2 0 1:-0.765288 2:-0.726731 3:-0.968194 4:-0.73834 5:-0.804083 6:-0.734439 7:-0.972891 8:-0.801631 
2 2 0 1:-0.80534 2:-0.73341 3:-0.976155 4:-0.784408 5:-0.785143 6:-0.711448 7:-0.96808 8:-0.784749 
2 2 0 1:-0.88728 2:-0.793073 3:-0.989504 4:-0.875521 5:-0.77781 6:-0.737113 7:-0.967056 8:-0.773289 
2 2 2 1:-0.892239 2:-0.794893 3:-0.990124 4:-0.881236 5:-0.815969 6:-0.807276 7:-0.976884 8:-0.808158 
2 2 2 1:-0.848075 2:-0.788547 3:-0.98402 4:-0.829943 5:-0.830444 6:-0.837051 7:-0.980153 8:-0.821758 
2 2 0 1:-0.852437 2:-0.8017 3:-0.984794 4:-0.834236 5:-0.839932 6:-0.825122 7:-0.98169 8:-0.833136 
2 2 0 1:-0.885379 2:-0.847433 3:-0.989675 4:-0.869755 5:-0.856273 6:-0.798935 7:-0.984077 8:-0.853099 
2 0 2 1:-0.928336 2:-0.849991 3:-0.994509 4:-0.919434 5:-0.857758 6:-0.870324 7:-0.985323 8:-0.848749 
2 2 2 1:-0.944729 2:-0.875379 3:-0.996143 4:-0.936912 5:-0.856046 6:-0.849034 7:-0.984765 8:-0.848602 
2 2 2 1:-0.957052 2:-0.85513 3:-0.997059 4:-0.952532 5:-0.844515 6:-0.810861 7:-0.982251 8:-0.839119 
2 0.6868314700505479 2 1:-0.964432 2:-0.853374 3:-0.997621 4:-0.961096 5:-0.836569 6:-0.866829 7:-0.98171 8:-0.825869 
1.05014513572543 0 2 1:-0.952372 2:-0.87104 3:-0.996762 4:-0.946039 5:-0.835467 6:-0.892845 7:-0.981864 8:-0.822688 
2 2 2 1:-0.937044 2:-0.790987 3:-0.994998 4:-0.933378 5:-0.845479 6:-0.876752 7:-0.983363 8:-0.834972 
2 2 0 1:-0.754843 2:-0.70861 3:-0.965633 4:-0.728205 5:-0.700538 6:-0.629127 7:-0.942329 8:-0.703198 
2 2 0 1:-0.741101 2:-0.718699 3:-0.962788 4:-0.71117 5:-0.651799 6:-0.66302 7:-0.927892 8:-0.646994 
2 2 0 1:-0.697195 2:-0.711433 3:-0.952085 4:-0.660693 5:-0.690706 6:-0.662374 7:-0.94067 8:-0.689124 
2 2 0 1:-0.685639 2:-0.740512 3:-0.949737 4:-0.64445 5:-0.706684 6:-0.630998 7:-0.944294 8:-0.709918 
2 2 0 1:-0.693238 2:-0.753548 3:-0.951991 4:-0.652018 5:-0.70897 6:-0.675366 7:-0.946759 8:-0.70724 
2 2 0 1:-0.725297 2:-0.726031 3:-0.95929 4:-0.691823 5:-0.728637 6:-0.77836 7:-0.955726 8:-0.716671 
0 2 0 1:-0.541606 2:-0.728349 3:-0.905095 4:-0.476934 5:-0.791215 6:-0.771926 7:-0.970963 8:-0.785349 
0 2 2 1:-0.407457 2:-0.89711 3:-0.85677 4:-0.306157 5:-0.851538 6:-0.904105 7:-0.984722 8:-0.839394 
0 2 2 1:-0.288323 2:-0.789805 3:-0.797046 4:-0.174399 5:-0.891844 6:-0.890588 7:-0.990497 8:-0.884299 
2 2 0 1:-0.491918 2:-0.648113 3:-0.883723 4:-0.427651 5:-0.413883 6:-0.386882 7:-0.796855 8:-0.433784 
2 2 0 1:-0.548364 2:-0.605661 3:-0.903312 4:-0.498045 5:-0.474677 6:-0.340085 7:-0.825539 8:-0.505832 
2 2 0 1:-0.64809 2:-0.598512 3:-0.935586 4:-0.615388 5:-0.539603 6:-0.436495 7:-0.867499 8:-0.560346 
2 2 0 1:-0.696923 2:-0.664348 3:-0.950923 4:-0.66489 5:-0.586704 6:-0.503594 7:-0.893835 8:-0.598745 
2 2 0 1:-0.542265 2:-0.535601 3:-0.898158 4:-0.499812 5:-0.664965 6:-0.526614 7:-0.925469 8:-0.679068 
2 2 0 1:-0.353779 2:-0.676072 3:-0.824773 4:-0.262638 5:-0.564162 6:-0.314717 7:-0.868009 8:-0.603723 
2 2 0.2723936080126019 1:-0.160337 2:-0.53089 3:-0.709769 4:-0.0550161 5:-0.0583097 6:-0.246189 7:-0.512609 8:-0.0768717 
1.304393168263055 2 0.703371056485034 1:0.126542 2:-0.438909 3:-0.495874 4:0.266141 5:0.479033 6:-0.250189 7:0.0819022 8:0.501308 
2 2 0.4006854807387908 1:-0.0454879 2:-0.3285 3:-0.613947 4:0.0471352 5:0.00126804 6:0.082248 7:-0.36951 8:-0.0797536 
2 2 0 1:-0.539798 2:-0.494 3:-0.895268 4:-0.502922 5:-0.322151 6:-0.477262 7:-0.751807 8:-0.318839 
2 2 0 1:-0.649152 2:-0.609613 3:-0.936242 4:-0.6155 5:-0.445622 6:-0.46205 7:-0.82275 8:-0.454267 
2 2 0.02863570660909611 1:-0.541191 2:-0.502813 3:-0.896248 4:-0.50269 5:-0.640894 6:-0.358217 7:-0.905187 8:-0.67712 
2 2 0 1:-0.332731 2:-0.663182 3:-0.813876 4:-0.239332 5:-0.755936 6:-0.596436 7:-0.957022 8:-0.767429 
2 2 0 1:-0.448695 2:-0.591443 3:-0.863694 4:-0.383598 5:-0.519822 6:-0.301534 7:-0.844927 8:-0.553212 
2 2 0 1:-0.163511 2:-0.656312 3:-0.720525 4:-0.0420717 5:-0.567267 6:-0.415843 7:-0.87859 8:-0.591634 
1.526095653191852 2 0 1:-0.163196 2:-0.774795 3:-0.726671 4:-0.029205 5:-0.708052 6:-0.472297 7:-0.937039 8:-0.732107 
2 2 0 1:-0.435168 2:-0.698939 3:-0.862627 4:-0.355264 5:-0.771744 6:-0.663356 7:-0.96345 8:-0.77599 
2 2 0 1:-0.494097 2:-0.606025 3:-0.882893 4:-0.435144 5:-0.545293 6:-0.234922 7:-0.850561 8:-0.591639 
2 2 0.1035461967174799 1:-0.257042 2:-0.397943 3:-0.755862 4:-0.188822 5:0.00523119 6:-0.199038 7:-0.443297 8:-0.0184234 
2 2 0 1:-0.629514 2:-0.636133 3:-0.931174 4:-0.589106 5:-0.77885 6:-0.715282 7:-0.966702 8:-0.777959 
2 2 0 1:-0.530073 2:-0.487049 3:-0.891254 4:-0.492378 5:-0.394316 6:0.0759468 7:-0.71319 8:-0.478155 
2 2 0 1:-0.581212 2:-0.818239 3:-0.920933 4:-0.515335 5:-0.80217 6:-0.685804 7:-0.971236 8:-0.805515 
0 2 0 1:-0.641034 2:-0.702428 3:-0.936541 4:-0.595355 5:-0.77078 6:-0.746206 7:-0.965617 8:-0.765873 
2 2 0 1:-0.668728 2:-0.713492 3:-0.944646 4:-0.627029 5:-0.779057 6:-0.735446 7:-0.967261 8:-0.77611 
2 2 0 1:-0.644495 2:-0.728164 3:-0.938202 4:-0.597458 5:-0.551445 6:-0.48818 7:-0.877367 8:-0.564437 
2 2 0 1:-0.639021 2:-0.7028 3:-0.935965 4:-0.593526 5:-0.596972 6:-0.426001 7:-0.892318 8:-0.621668 
0 0 2 1:-0.970886 2:-0.922265 3:-0.998313 4:-0.964914 5:-0.86977 6:-0.917399 7:-0.98768 8:-0.85834 
2 2 0 1:-0.722356 2:-0.71822 3:-0.958364 4:-0.689746 5:-0.770731 6:-0.751255 7:-0.965737 8:-0.765308 
2 2 0 1:-0.704404 2:-0.658798 3:-0.952666 4:-0.674431 5:-0.714311 6:-0.658764 7:-0.947704 8:-0.715299 
2 2 0 1:-0.768604 2:-0.589948 3:-0.966105 4:-0.756358 5:-0.714413 6:-0.663252 7:-0.947906 8:-0.71475 
2 2 0 1:-0.793617 2:-0.742493 3:-0.974106 4:-0.770298 5:-0.811891 6:-0.768586 7:-0.975291 8:-0.808067 
2 2 0 1:-0.813798 2:-0.695154 3:-0.977095 4:-0.798227 5:-0.726057 6:-0.653143 7:-0.950857 8:-0.728383 
2 2 0 1:-0.684057 2:-0.65169 3:-0.947215 4:-0.651611 5:-0.604412 6:-0.677669 7:-0.911337 8:-0.594067 
2 2 0 1:-0.601074 2:-0.656913 3:-0.922891 4:-0.554572 5:-0.568278 6:-0.553574 7:-0.889537 8:-0.57245 
2 2 0 1:-0.620892 2:-0.645662 3:-0.928827 4:-0.578696 5:-0.517029 6:-0.430167 7:-0.856333 8:-0.536373 
2 2 0 1:-0.713269 2:-0.671833 3:-0.955212 4:-0.683537 5:-0.603921 6:-0.406327 7:-0.893658 8:-0.632521 
2 2 0 1:-0.684894 2:-0.557011 3:-0.944706 4:-0.66334 5:-0.554704 6:-0.202247 7:-0.851671 8:-0.613594 
2 2 0 1:-0.440943 2:-0.304907 3:-0.842649 4:-0.415704 5:-0.24262 6:-0.229053 7:-0.660423 8:-0.281605 
2 2 0.1978364548378785 1:-0.519485 2:-0.225725 3:-0.871138 4:-0.516245 5:-0.37286 6:-0.282138 7:-0.758754 8:-0.407701 
2 2 0 1:-0.786557 2:-0.681883 3:-0.971661 4:-0.768175 5:-0.701436 6:-0.568106 7:-0.939841 8:-0.712899 
2 2 0 1:-0.823133 2:-0.748441 3:-0.979511 4:-0.80423 5:-0.783606 6:-0.68733 7:-0.967046 8:-0.786253 
2 2 0 1:-0.804614 2:-0.706798 3:-0.975596 4:-0.786446 5:-0.782324 6:-0.70692 7:-0.967291 8:-0.782787 
2 2 0 1:-0.799258 2:-0.707361 3:-0.974618 4:-0.780156 5:-0.742906 6:-0.651784 7:-0.955541 8:-0.746664 
2 2 0 1:-0.774984 2:-0.751472 3:-0.970598 4:-0.747789 5:-0.699713 6:-0.588989 7:-0.940246 8:-0.708601 
2 2 0 1:-0.750577 2:-0.724444 3:-0.964984 4:-0.721735 5:-0.679962 6:-0.614937 7:-0.935139 8:-0.682672 
2 2 0 1:-0.800262 2:-0.716207 3:-0.974934 4:-0.780427 5:-0.745769 6:-0.700354 7:-0.957931 8:-0.743839 
0 0 2 1:-0.851598 2:-0.853487 3:-0.985178 4:-0.829343 5:-0.848572 6:-0.872139 7:-0.983848 8:-0.838586 
2 0 2 1:-0.869292 2:-0.860222 3:-0.987723 4:-0.849658 5:-0.860391 6:-0.854582 7:-0.985549 8:-0.852814 
0 0 2 1:-0.88121 2:-0.879611 3:-0.989374 4:-0.862836 5:-0.8674 6:-0.887453 7:-0.987024 8:-0.857883 
0 0 2 1:-0.905253 2:-0.856269 3:-0.992119 4:-0.892186 5:-0.883607 6:-0.912224 7:-0.989511 8:-0.874407 
0 0 2 1:-0.934907 2:-0.86992 3:-0.995251 4:-0.925694 5:-0.876176 6:-0.885046 7:-0.988286 8:-0.867621 
0 0 2 1:-0.953249 2:-0.900087 3:-0.996948 4:-0.945471 5:-0.86615 6:-0.8876 7:-0.986826 8:-0.856537 
0 0 2 1:-0.953986 2:-0.903383 3:-0.996999 4:-0.946432 5:-0.873649 6:-0.908256 7:-0.988161 8:-0.863187 
2 2 0 1:-0.784163 2:-0.736758 3:-0.972156 4:-0.760048 5:-0.716248 6:-0.547832 7:-0.943258 8:-0.732257 
2 2 0 1:-0.728519 2:-0.650955 3:-0.958426 4:-0.703461 5:-0.633715 6:-0.586232 7:-0.91754 8:-0.63761 
2 2 0 1:-0.49542 2:-0.429938 3:-0.874372 4:-0.460738 5:-0.476267 6:-0.447033 7:-0.83742 8:-0.489781 
2 2 0.8330910693310289 1:-0.645372 2:-0.713307 3:-0.93809 4:-0.599912 5:-0.679178 6:-0.488568 7:-0.928245 8:-0.699743 
2 2 0 1:-0.746976 2:-0.663557 3:-0.962983 4:-0.723379 5:-0.679144 6:-0.564826 7:-0.932396 8:-0.68967 
2 2 0 1:-0.835662 2:-0.693079 3:-0.980806 4:-0.824016 5:-0.714545 6:-0.688884 7:-0.94889 8:-0.711636 
2 2 0 1:-0.782105 2:-0.679086 3:-0.970664 4:-0.763494 5:-0.654102 6:-0.574583 7:-0.924241 8:-0.661379 
2 2 0 1:-0.650543 2:-0.601941 3:-0.936321 4:-0.618381 5:-0.499303 6:-0.491071 7:-0.853063 8:-0.50785 
2 2 0 1:-0.659042 2:-0.604627 3:-0.938922 4:-0.627688 5:-0.53847 6:-0.49158 7:-0.871715 8:-0.549869 
2 2 0 1:-0.741569 2:-0.751066 3:-0.963495 4:-0.708777 5:-0.6982 6:-0.667337 7:-0.943195 8:-0.696501 
2 2 0 1:-0.732849 2:-0.708155 3:-0.960688 4:-0.702529 5:-0.756844 6:-0.702846 7:-0.960917 8:-0.754329 
2 2 0 1:-0.765546 2:-0.68677 3:-0.967508 4:-0.742732 5:-0.7332 6:-0.692518 7:-0.954321 8:-0.730896 
2 2 0 1:-0.804898 2:-0.807851 3:-0.977076 4:-0.778102 5:-0.751622 6:-0.731149 7:-0.960396 8:-0.746589 
2 0 0 1:-0.822049 2:-0.862943 3:-0.980626 4:-0.794249 5:-0.798598 6:-0.817247 7:-0.973507 8:-0.788946 
2 2 0 1:-0.837229 2:-0.823387 3:-0.982707 4:-0.814599 5:-0.803242 6:-0.770524 7:-0.973525 8:-0.798579 
2 2 0 1:-0.83742 2:-0.82159 3:-0.982716 4:-0.814961 5:-0.810046 6:-0.779897 7:-0.975152 8:-0.804998 
2 0 2 1:-0.882822 2:-0.83332 3:-0.989291 4:-0.867246 5:-0.8241 6:-0.865058 7:-0.979414 8:-0.81249 
2 0 2 1:-0.938644 2:-0.854956 3:-0.995502 4:-0.931139 5:-0.820007 6:-0.88818 7:-0.978956 8:-0.80627 
2 0 2 1:-0.945527 2:-0.858726 3:-0.996094 4:-0.939337 5:-0.820644 6:-0.884019 7:-0.978966 8:-0.807633 
0 0 2 1:-0.949418 2:-0.904166 3:-0.996663 4:-0.94066 5:-0.832491 6:-0.912373 7:-0.981444 8:-0.818814 
2 2 0 1:-0.607431 2:-0.731939 3:-0.927188 4:-0.553727 5:-0.660488 6:-0.589444 7:-0.927248 8:-0.666417 
2 2 0 1:-0.686288 2:-0.652532 3:-0.947765 4:-0.654421 5:-0.608151 6:-0.54206 7:-0.905161 8:-0.61681 
2 2 0 1:-0.697912 2:-0.666545 3:-0.951109 4:-0.666663 5:-0.598155 6:-0.529235 7:-0.900317 8:-0.607598 
