svm_type c_svc
kernel_type rbf
gamma 8
nr_class 4
total_sv 2182
rho -0.082791 -0.0638605 -0.340717 -0.328382 -0.361983 -0.233019
label 2 3 4 1
probA -0.782289 -1.57143 -3.26922 -1.18502 -2.95252 -2.36662
probB 0.130536 -0.167627 -0.503775 -0.1822 -0.249572 0.0176582
nr_sv 837 881 352 112
SV
8 0 0.06513137468557727 1:-0.286579 2:-0.540691 3:-0.776677 4:-0.201951 5:-0.389325 6:-0.1365 7:-0.734811 8:-0.45681 
8 8 0 1:-0.677258 2:-0.753595 3:-0.943973 4:-0.635185 5:-0.603865 6:-0.601629 7:-0.902755 8:-0.601506 
8 0 0 1:-0.447825 2:-0.561238 3:-0.855345 4:-0.38998 5:0.0998734 6:-0.224148 7:-0.352859 8:0.0892808 
7.432955769347449 0.5192399997375748 0.3807913411234047 1:-0.286282 2:-0.525995 3:-0.77575 4:-0.203842 5:0.677446 6:-0.133859 7:0.389941 8:0.699173 
8 0.3715191452174152 0.259833085902026 1:-0.0637955 2:-0.470945 3:-0.637183 4:0.0514111 5:0.755386 6:-0.0253439 7:0.564584 8:0.749845 
2.041339364448634 0.1869688191260843 0 1:-0.0331624 2:-0.482271 3:-0.617985 4:0.0905781 5:0.17426 6:0.0354374 7:-0.180094 8:0.0945119 
1.585848518882128 0 0 1:-0.257014 2:-0.559396 3:-0.763278 4:-0.162488 5:-0.0261997 6:-0.179338 7:-0.457297 8:-0.0636289 
8 0.6368806554213132 0 1:-0.348447 2:-0.613725 3:-0.814103 4:-0.262707 5:0.0729364 6:-0.176531 7:-0.364447 8:0.0456778 
6.768592869742426 2.899446263238208 0 1:-0.326971 2:-0.610991 3:-0.803312 4:-0.237895 5:0.0982152 6:-0.248686 7:-0.361922 8:0.0940239 
2.79761886287763 0 0 1:-0.355906 2:-0.61767 3:-0.817477 4:-0.272114 5:0.0143494 6:-0.36337 7:-0.470829 8:0.0310381 
8 2.988213553624094 0 1:-0.268481 2:-0.588903 3:-0.771978 4:-0.170971 5:-0.149469 6:-0.371317 7:-0.609168 8:-0.148145 
8 0.1131502375537553 0.004836415980004183 1:-0.237813 2:-0.596868 3:-0.755426 4:-0.134249 5:0.115259 6:-0.00836743 7:-0.265107 8:0.049301 
8 0 0 1:-0.664571 2:-0.720396 3:-0.93918 4:-0.625349 5:-0.282396 6:-0.34586 7:-0.701391 8:-0.299348 
8 0 0 1:-0.671109 2:-0.732991 3:-0.941405 4:-0.631518 5:-0.279574 6:-0.354145 7:-0.700928 8:-0.294348 
8 0 0 1:-0.660098 2:-0.694811 3:-0.937283 4:-0.622439 5:-0.239249 6:-0.339615 7:-0.667026 8:-0.257535 
7.112148969035206 0 0 1:-0.465252 2:-0.681257 3:-0.869561 4:-0.392593 5:0.29769 6:-0.0896735 7:-0.0917722 8:0.268129 
8 0 0 1:-0.589155 2:-0.728683 3:-0.917119 4:-0.532925 5:-0.240423 6:-0.433059 7:-0.687102 8:-0.23403 
0 0.2364563000566103 0.1614035411041654 1:-0.450552 2:-0.507486 3:-0.852605 4:-0.402669 5:0.575524 6:0.232225 7:0.44142 8:0.469412 
8 0 0 1:-0.426482 2:-0.625295 3:-0.85009 4:-0.354972 5:0.453552 6:-0.0648658 7:0.114358 8:0.431707 
8 0 0 1:-0.578761 2:-0.619587 3:-0.908684 4:-0.536592 5:-0.0267331 6:-0.0644775 7:-0.425981 8:-0.0916699 
8 0 0 1:-0.605242 2:-0.681883 3:-0.92029 4:-0.558723 5:-0.215094 6:-0.335249 7:-0.651946 8:-0.228247 
8 0 0 1:-0.388343 2:-0.511999 3:-0.824686 4:-0.329 5:0.153607 6:0.00361543 7:-0.220097 8:0.0852152 
8 3.642386762039487 0 1:-0.217336 2:-0.468304 3:-0.732141 4:-0.128226 5:-0.0944345 6:-0.309345 7:-0.552161 8:-0.102172 
0 0.9722352187638864 0.4122289841940441 1:0.299138 2:-0.696142 3:-0.388173 4:0.529295 5:-0.255401 6:-0.33094 7:-0.680203 8:-0.273031 
0.792024498135164 0.820750181807842 0.42862004225654 1:0.182831 2:-0.603333 3:-0.473394 4:0.373413 5:0.121657 6:0.130664 7:-0.202181 8:0.0134086 
0 0.6347613659391179 0.4480841798539631 1:-0.0822792 2:-0.496944 3:-0.652619 4:0.0345557 5:0.895044 6:0.264496 7:0.983461 8:0.803062 
8 8 8 1:-0.567375 2:-0.58838 3:-0.903169 4:-0.526092 5:-0.758726 6:-0.688065 7:-0.95764 8:-0.758541 
8 8 0 1:-0.628762 2:-0.772956 3:-0.93063 4:-0.575776 5:-0.518405 6:-0.343901 7:-0.840171 8:-0.555549 
8 0 0 1:-0.613543 2:-0.723415 3:-0.924579 4:-0.562882 5:-0.458732 6:-0.184467 7:-0.785901 8:-0.521972 
8 8 0 1:-0.686096 2:-0.74168 3:-0.945899 4:-0.647442 5:-0.617345 6:-0.294836 7:-0.881528 8:-0.668036 
6.444837096057411 8 0 1:-0.664445 2:-0.745153 3:-0.940215 4:-0.62097 5:-0.544171 6:-0.564989 7:-0.875125 8:-0.542253 
0 1.575615378220731 0 1:-0.668186 2:-0.746383 3:-0.94119 4:-0.625668 5:-0.538942 6:-0.557909 7:-0.872282 8:-0.537714 
8 0 0 1:-0.653895 2:-0.696933 3:-0.935596 4:-0.614692 5:-0.337944 6:-0.311554 7:-0.732503 8:-0.366731 
8 0 0.02246310520063386 1:-0.593018 2:-0.600307 3:-0.91254 4:-0.556307 5:-0.0568174 6:0.0872797 7:-0.40776 8:-0.155097 
8 0 0 1:-0.665769 2:-0.729419 3:-0.94009 4:-0.624484 5:-0.343538 6:-0.393168 7:-0.748856 8:-0.355233 
6.890263015900206 0 0 1:-0.665086 2:-0.753559 3:-0.940599 4:-0.620906 5:-0.31756 6:-0.348786 7:-0.725049 8:-0.337356 
8 0 0 1:-0.562391 2:-0.676491 3:-0.905941 4:-0.508265 5:-0.0635673 6:-0.175583 7:-0.481866 8:-0.111607 
8 0 0 1:-0.533437 2:-0.662116 3:-0.895006 4:-0.475914 5:-0.0216643 6:-0.167877 7:-0.449034 8:-0.0615593 
8 0 0 1:-0.645578 2:-0.744124 3:-0.934898 4:-0.598308 5:-0.448223 6:-0.292447 7:-0.7954 8:-0.491546 
8 0 0 1:-0.628386 2:-0.715274 3:-0.928763 4:-0.581875 5:-0.339888 6:-0.326473 7:-0.735436 8:-0.366837 
8 0 0 1:-0.598097 2:-0.722526 3:-0.919474 4:-0.545366 5:-0.360084 6:-0.341552 7:-0.74829 8:-0.388749 
8 0 0 1:-0.552382 2:-0.629445 3:-0.90013 4:-0.503368 5:-0.157317 6:-0.208246 7:-0.580552 8:-0.194356 
1.274850538034179 0.101392801179718 0.06937080721429432 1:-0.375362 2:-0.598308 3:-0.825176 4:-0.298682 5:0.674318 6:0.0483022 7:0.480492 8:0.637134 
0.4603123220866123 0.750885668047115 0.5287856064253689 1:-0.256864 2:-0.563393 3:-0.763476 4:-0.161812 5:1 6:0.0246517 7:1 8:1 
8 0 0 1:-0.341593 2:-0.528141 3:-0.804115 4:-0.269284 5:0.217529 6:0.0269359 7:-0.137079 8:0.149917 
8 0 0 1:-0.520628 2:-0.626837 3:-0.888435 4:-0.466095 5:-0.281136 6:-0.362741 7:-0.7034 8:-0.294361 
8 0 0 1:-0.574332 2:-0.709358 3:-0.91144 4:-0.517881 5:-0.352882 6:-0.375629 7:-0.752101 8:-0.369412 
8 0 0 1:-0.546028 2:-0.614644 3:-0.896986 4:-0.498521 5:-0.381985 6:-0.378009 7:-0.769317 8:-0.401886 
8 0 0 1:-0.525023 2:-0.618224 3:-0.889606 4:-0.47251 5:-0.34395 6:-0.364189 7:-0.744732 8:-0.362197 
8 0 0 1:-0.602899 2:-0.69251 3:-0.919858 4:-0.554994 5:-0.385191 6:-0.504702 7:-0.788721 8:-0.378375 
8 0 0 1:-0.652943 2:-0.703366 3:-0.93531 4:-0.613599 5:-0.376239 6:-0.421644 7:-0.772822 8:-0.385116 
8 8 0 1:-0.528428 2:-0.636309 3:-0.891655 4:-0.474358 5:-0.439507 6:-0.344704 7:-0.798729 8:-0.46978 
8 4.654515743786637 0 1:-0.498087 2:-0.661712 3:-0.881832 4:-0.433383 5:-0.586712 6:-0.453251 7:-0.883744 8:-0.608131 
8 8 0 1:-0.609041 2:-0.693446 3:-0.922002 4:-0.561597 5:-0.525498 6:-0.523401 7:-0.863079 8:-0.529029 
8 0 0 1:-0.678528 2:-0.699681 3:-0.942545 4:-0.643778 5:-0.477099 6:-0.580726 7:-0.84515 8:-0.465879 
8 0 0 1:-0.665054 2:-0.671603 3:-0.937791 4:-0.631652 5:-0.46869 6:-0.487676 7:-0.831693 8:-0.473759 
8 0 0 1:-0.648267 2:-0.712177 3:-0.934423 4:-0.606321 5:-0.323904 6:-0.286174 7:-0.719013 8:-0.356551 
7.225875900916235 0 0 1:-0.625433 2:-0.689327 3:-0.926892 4:-0.581744 5:-0.333221 6:-0.111614 7:-0.69116 8:-0.406675 
8 0 0 1:-0.594274 2:-0.702226 3:-0.917472 4:-0.543448 5:-0.325842 6:-0.232834 7:-0.70636 8:-0.375957 
8 0 0 1:-0.616523 2:-0.71397 3:-0.925071 4:-0.568025 5:-0.437898 6:-0.47231 7:-0.813984 8:-0.44295 
8 8 0 1:-0.613822 2:-0.673212 3:-0.922659 4:-0.570278 5:-0.431741 6:-0.55569 7:-0.819935 8:-0.419958 
8 8 0 1:-0.571029 2:-0.689734 3:-0.909458 4:-0.516819 5:-0.447941 6:-0.461081 7:-0.818047 8:-0.456148 
3.189416356933754 0.238762446027609 0.1794917268163826 1:-0.261334 2:-0.516429 3:-0.761153 4:-0.176289 5:0.632626 6:0.23279 7:0.530447 8:0.529616 
0 0.2738680110031357 0.1882672702393514 1:-0.220168 2:-0.46223 3:-0.732783 4:-0.137461 5:0.765945 6:0.242657 7:0.749071 8:0.669626 
8 0 0 1:-0.650903 2:-0.723679 3:-0.935714 4:-0.607432 5:-0.3323 6:-0.332687 7:-0.732321 8:-0.356258 
8 0 0 1:-0.622359 2:-0.722686 3:-0.927202 4:-0.57367 5:-0.373899 6:-0.326215 7:-0.757491 8:-0.402311 
8 0 0 1:-0.750724 2:-0.762948 3:-0.962255 4:-0.721819 5:-0.616092 6:-0.539751 7:-0.903036 8:-0.625047 
8 0 0 1:-0.626087 2:-0.66787 3:-0.926145 4:-0.585599 5:-0.459685 6:-0.355918 7:-0.811365 8:-0.488715 
8 8 0 1:-0.541394 2:-0.69519 3:-0.899468 4:-0.480542 5:-0.372506 6:-0.310088 7:-0.753759 8:-0.404974 
8 8 0 1:-0.503366 2:-0.739164 3:-0.887672 4:-0.428694 5:-0.528683 6:-0.404063 7:-0.852361 8:-0.555176 
8 8 0 1:-0.473437 2:-0.798577 3:-0.878876 4:-0.384928 5:-0.678709 6:-0.622272 7:-0.930945 8:-0.680559 
0 1.68354204101812 0.4893863698203588 1:-0.506779 2:-0.555723 3:-0.878933 4:-0.461069 5:-0.230791 6:0.526712 7:-0.416399 8:-0.428114 
1.214575293567637 0 0.1131340594816626 1:-0.469381 2:-0.499649 3:-0.859936 4:-0.426494 5:-0.000227875 6:0.422016 7:-0.210547 8:-0.177823 
8 0 0 1:-0.563343 2:-0.644528 3:-0.904688 4:-0.51437 5:-0.474569 6:-0.0588746 7:-0.774027 8:-0.563404 
8 0 0 1:-0.698304 2:-0.789359 3:-0.950507 4:-0.655852 5:-0.653158 6:-0.536991 7:-0.916687 8:-0.666244 
8 8 0 1:-0.697393 2:-0.795839 3:-0.950457 4:-0.653961 5:-0.646485 6:-0.553872 7:-0.915495 8:-0.655948 
8 0 0 1:-0.655238 2:-0.722511 3:-0.936901 4:-0.612824 5:-0.632739 6:-0.558498 7:-0.910576 8:-0.640803 
8 8 0 1:-0.652747 2:-0.702053 3:-0.935436 4:-0.612595 5:-0.59637 6:-0.581451 7:-0.898349 8:-0.596609 
8 0 0 1:-0.520332 2:-0.475699 3:-0.878757 4:-0.489772 5:-0.290725 6:-0.213625 7:-0.682832 8:-0.337042 
8 8 0 1:-0.371413 2:-0.477357 3:-0.814073 4:-0.314148 5:-0.160701 6:-0.275658 7:-0.595282 8:-0.18534 
3.630994231523283 8 0 1:-0.587155 2:-0.704675 3:-0.91531 4:-0.53442 5:-0.564879 6:-0.307439 7:-0.858443 8:-0.611587 
8 8 0 1:-0.656991 2:-0.772142 3:-0.939028 4:-0.608524 5:-0.727126 6:-0.683584 7:-0.948856 8:-0.724632 
8 8 0 1:-0.762621 2:-0.81555 3:-0.966057 4:-0.729842 5:-0.776878 6:-0.71764 7:-0.963305 8:-0.774228 
8 8 0 1:-0.815746 2:-0.840391 3:-0.976869 4:-0.790849 5:-0.798994 6:-0.723755 7:-0.968657 8:-0.798275 
8 0 0 1:-0.689718 2:-0.699588 3:-0.945488 4:-0.657434 5:-0.647988 6:-0.53013 7:-0.914257 8:-0.661945 
8 8 0 1:-0.585314 2:-0.669098 3:-0.913123 4:-0.537427 5:-0.385005 6:-0.200081 7:-0.743104 8:-0.440044 
8 2.520973737975393 0 1:-0.427397 2:-0.531163 3:-0.844166 4:-0.371205 5:-0.254026 6:-0.133816 7:-0.638695 8:-0.31509 
8 0 0 1:-0.421981 2:-0.653504 3:-0.850392 4:-0.343563 5:-0.627092 6:-0.523115 7:-0.905758 8:-0.6406 
8 8 0 1:-0.384916 2:-0.641413 3:-0.833228 4:-0.301115 5:-0.386015 6:-0.448065 7:-0.781997 8:-0.390858 
8 5.65078601167056 0 1:-0.298411 2:-0.692081 3:-0.795328 4:-0.189595 5:-0.432885 6:-0.412651 7:-0.803827 8:-0.449205 
8 0 0.1289847500278402 1:-0.281195 2:-0.668906 3:-0.784959 4:-0.172338 5:-0.249792 6:-0.384136 7:-0.685035 8:-0.255345 
8 8 0 1:-0.441763 2:-0.728712 3:-0.86299 4:-0.356178 5:-0.33288 6:-0.393257 7:-0.742223 8:-0.34389 
8 8 0 1:-0.455717 2:-0.733569 3:-0.868919 4:-0.37226 5:-0.33942 6:-0.329085 7:-0.736217 8:-0.364748 
8 0.6287941418509588 0 1:-0.426437 2:-0.641121 3:-0.85143 4:-0.351378 5:-0.308771 6:-0.334813 7:-0.717099 8:-0.33017 
8 0 0 1:-0.511449 2:-0.630404 3:-0.885186 4:-0.454562 5:-0.0983067 6:-0.20832 7:-0.531695 8:-0.130695 
8 0 0 1:-0.408099 2:-0.599363 3:-0.840251 4:-0.337381 5:0.0884501 6:-0.165376 7:-0.345387 8:0.0604617 
8 0 0 1:-0.439265 2:-0.634755 3:-0.856477 4:-0.367751 5:-0.045563 6:-0.21928 7:-0.487905 8:-0.0720331 
2.962858493750315 0 0 1:-0.472268 2:-0.642664 3:-0.870621 4:-0.405761 5:-0.081514 6:-0.265188 7:-0.520426 8:-0.108837 
8 8 0 1:-0.635959 2:-0.698589 3:-0.930404 4:-0.593147 5:-0.55072 6:-0.550355 7:-0.876789 8:-0.552077 
8 8 0 1:-0.613732 2:-0.744555 3:-0.925455 4:-0.560222 5:-0.522031 6:-0.543322 7:-0.862672 8:-0.523043 
8 0 0 1:-0.700006 2:-0.793209 3:-0.951039 4:-0.657462 5:-0.523471 6:-0.51161 7:-0.860925 8:-0.529247 
8 0 0 1:-0.692588 2:-0.756387 3:-0.948079 4:-0.65322 5:-0.352896 6:-0.404048 7:-0.755908 8:-0.362782 
8 0 0 1:-0.682285 2:-0.760023 3:-0.945512 4:-0.640329 5:-0.354727 6:-0.411744 7:-0.756523 8:-0.365079 
8 8 0 1:-0.681106 2:-0.748437 3:-0.944859 4:-0.640402 5:-0.597929 6:-0.595186 7:-0.899788 8:-0.596448 
8 8 0 1:-0.577255 2:-0.72014 3:-0.91283 4:-0.51994 5:-0.643677 6:-0.612416 7:-0.918333 8:-0.643542 
8 8 4.928365850089805 1:-0.621644 2:-0.677598 3:-0.925266 4:-0.578947 5:-0.653241 6:-0.671168 7:-0.925022 8:-0.64521 
8 8 0 1:-0.451316 2:-0.590091 3:-0.858414 4:-0.389435 5:-0.522886 6:-0.472993 7:-0.856451 8:-0.53665 
0 0.3832570341608911 0.271814722607319 1:-0.21061 2:-0.559528 3:-0.737162 4:-0.107835 5:0.0356136 6:0.278032 7:-0.237093 8:-0.11179 
5.193318446150938 0.6425641977254464 0.04180321243088501 1:-0.421532 2:-0.413306 3:-0.83189 4:-0.383556 5:-0.0586443 6:0.346565 7:-0.312142 8:-0.218727 
8 0 0 1:-0.539854 2:-0.680594 3:-0.898172 4:-0.481056 5:-0.328298 6:-0.442541 7:-0.746581 8:-0.328573 
8 0 0 1:-0.493207 2:-0.645494 3:-0.879058 4:-0.430348 5:-0.263091 6:-0.438615 7:-0.703687 8:-0.257425 
8 0 0 1:-0.461276 2:-0.622501 3:-0.864934 4:-0.395949 5:-0.121494 6:-0.288787 7:-0.569749 8:-0.136918 
8 0 0 1:-0.479566 2:-0.577239 3:-0.869538 4:-0.425206 5:-0.190994 6:-0.291066 7:-0.624206 8:-0.212765 
8 0 0 1:-0.447217 2:-0.572552 3:-0.855776 4:-0.387594 5:-0.308986 6:-0.270141 7:-0.705505 8:-0.345701 
8 0 0 1:-0.476513 2:-0.629767 3:-0.871577 4:-0.412652 5:-0.283424 6:-0.261712 7:-0.686215 8:-0.319675 
8 8 0 1:-0.47806 2:-0.658064 3:-0.873824 4:-0.410199 5:-0.320057 6:-0.440432 7:-0.740988 8:-0.319857 
8 8 0 1:-0.475965 2:-0.654808 3:-0.872807 4:-0.408203 5:-0.40984 6:-0.464989 7:-0.797864 8:-0.413415 
8 0 0 1:-0.615769 2:-0.669784 3:-0.923092 4:-0.573199 5:-0.481745 6:-0.461527 7:-0.835497 8:-0.49316 
8 0 0 1:-0.666238 2:-0.665834 3:-0.937915 4:-0.633821 5:-0.41763 6:-0.482147 7:-0.804252 8:-0.418528 
8 8 0 1:-0.523654 2:-0.589125 3:-0.887421 4:-0.475791 5:-0.364638 6:-0.471141 7:-0.772639 8:-0.3624 
8 8 0 1:-0.556723 2:-0.622374 3:-0.901276 4:-0.50982 5:-0.458126 6:-0.469105 7:-0.823769 8:-0.466712 
8 8 0 1:-0.623315 2:-0.744095 3:-0.92817 4:-0.572464 5:-0.491275 6:-0.503851 7:-0.844878 8:-0.495315 
8 0 0 1:-0.575788 2:-0.674553 3:-0.910227 4:-0.525192 5:-0.37766 6:-0.458037 7:-0.778332 8:-0.379799 
8 0 0 1:-0.59561 2:-0.652591 3:-0.915296 4:-0.553532 5:-0.324922 6:-0.375265 7:-0.733866 8:-0.339913 
8 0 0 1:-0.621425 2:-0.70313 3:-0.926227 4:-0.575038 5:-0.34041 6:-0.369245 7:-0.743247 8:-0.357521 
8 0 0 1:-0.549064 2:-0.632311 3:-0.899067 4:-0.499266 5:-0.264232 6:-0.468126 7:-0.708943 8:-0.252522 
8 0 0 1:-0.542232 2:-0.597423 3:-0.89473 4:-0.496633 5:-0.153595 6:-0.348774 7:-0.608096 8:-0.157687 
8 0 0 1:-0.476954 2:-0.644964 3:-0.87261 4:-0.41113 5:0.119307 6:-0.202816 7:-0.324468 8:0.10256 
8 0 0 1:-0.529376 2:-0.645863 3:-0.892476 4:-0.474248 5:0.200816 6:-0.223702 7:-0.244668 8:0.196641 
8 3.389008078073732 0 1:-0.627137 2:-0.713153 3:-0.927784 4:-0.582552 5:-0.237177 6:-0.344972 7:-0.669553 8:-0.250268 
8 0 0 1:-0.614368 2:-0.67784 3:-0.922924 4:-0.570591 5:-0.393396 6:-0.435171 7:-0.784737 8:-0.401287 
0.2110594025228184 0 0 1:-0.299658 2:-0.502207 3:-0.780526 4:-0.222921 5:0.150065 6:0.0910994 7:-0.189122 8:0.0693763 
8 0 0 1:-0.318749 2:-0.503492 3:-0.790495 4:-0.245573 5:0.268197 6:0.0330176 7:-0.0763106 8:0.206294 
8 0 0 1:-0.486313 2:-0.577153 3:-0.87205 4:-0.433633 5:-0.216105 6:-0.321496 7:-0.650224 8:-0.232328 
8 5.745205037216302 0 1:-0.452879 2:-0.508032 3:-0.853525 4:-0.40551 5:-0.285093 6:-0.335634 7:-0.701416 8:-0.304671 
8 8 0 1:-0.479072 2:-0.561388 3:-0.86829 4:-0.427247 5:-0.377956 6:-0.372037 7:-0.766214 8:-0.398545 
8 8 0 1:-0.521708 2:-0.683294 3:-0.891693 4:-0.459009 5:-0.322598 6:-0.469828 7:-0.746295 8:-0.317332 
8 0 0 1:-0.544176 2:-0.69366 3:-0.90038 4:-0.484143 5:-0.281239 6:-0.454231 7:-0.718147 8:-0.274113 
8 0 0 1:-0.541744 2:-0.676403 3:-0.898724 4:-0.483647 5:-0.31145 6:-0.382329 7:-0.726768 8:-0.322889 
8 8 0 1:-0.335728 2:-0.535012 3:-0.801788 4:-0.260724 5:-0.438209 6:-0.486164 7:-0.815416 8:-0.44105 
8 8 0 1:-0.313521 2:-0.578483 3:-0.794393 4:-0.22622 5:-0.414603 6:-0.48422 7:-0.802829 8:-0.414834 
8 8 0 1:-0.303914 2:-0.659236 3:-0.795778 4:-0.201396 5:-0.341573 6:-0.450539 7:-0.755637 8:-0.341745 
8 0 0 1:-0.328212 2:-0.514372 3:-0.796269 4:-0.255856 5:-0.0113014 6:-0.289159 7:-0.474147 8:-0.0174386 
8 8 0 1:-0.0616906 2:-0.74567 3:-0.664142 4:0.103056 5:-0.587173 6:-0.497991 7:-0.887984 8:-0.601022 
0.5000480519235526 0.4178968670559751 0.3626663561892805 1:0.00762739 2:-0.644512 3:-0.608788 4:0.169987 5:0.0714045 6:0.312393 7:-0.18332 8:-0.060246 
1.096432271507224 0.6706802331479946 0.4817148234125618 1:0.0418562 2:-0.540417 3:-0.572698 4:0.192058 5:0.607022 6:0.0359296 7:0.374075 8:0.572459 
7.283840759173438 0.6927203680785747 0.2900784819243121 1:-0.0935173 2:-0.543087 3:-0.665207 4:0.0321809 5:-0.0664268 6:-0.122084 7:-0.481439 8:-0.112618 
8 8 1.383634882374042 1:-0.404395 2:-0.575256 3:-0.837122 4:-0.333131 5:-0.63621 6:-0.616908 7:-0.915922 8:-0.634651 
8 8 5.905174790237795 1:-0.262874 2:-0.554766 3:-0.766029 4:-0.169099 5:-0.715245 6:-0.670018 7:-0.944832 8:-0.713366 
8 8 4.120880872470931 1:-0.395922 2:-0.664285 3:-0.839617 4:-0.310869 5:-0.714278 6:-0.685492 7:-0.945248 8:-0.710133 
8 0 0 1:-0.452348 2:-0.497354 3:-0.852547 4:-0.405869 5:-0.41354 6:-0.0641003 7:-0.736273 8:-0.497494 
0 0 0.0169526073436876 1:-0.125774 2:-0.482273 3:-0.678706 4:-0.0198152 5:0.229305 6:-0.0762629 7:-0.165435 8:0.194167 
8 0 0 1:-0.570582 2:-0.696764 3:-0.909604 4:-0.515292 5:-0.558188 6:-0.416911 7:-0.866776 8:-0.585629 
8 7.144406435792289 0.2794884937377534 1:-0.339674 2:-0.333132 3:-0.783707 4:-0.3024 5:-0.173389 6:0.041504 7:-0.528837 8:-0.269823 
8 8 0 1:-0.576787 2:-0.706171 3:-0.911948 4:-0.521776 5:-0.537752 6:-0.452089 7:-0.861395 8:-0.556471 
8 2.063699101954366 0 1:-0.562138 2:-0.746874 3:-0.908647 4:-0.498967 5:-0.458987 6:-0.355672 7:-0.809986 8:-0.49026 
8 0 0 1:-0.609937 2:-0.735053 3:-0.923744 4:-0.557559 5:-0.45953 6:-0.396464 7:-0.816064 8:-0.481807 
8 0 0 1:-0.636041 2:-0.706163 3:-0.930664 4:-0.592443 5:-0.558778 6:-0.499388 7:-0.875917 8:-0.569966 
8 8 0 1:-0.590752 2:-0.690749 3:-0.91606 4:-0.540128 5:-0.515458 6:-0.51133 7:-0.857148 8:-0.520637 
8 8 0 1:-0.629515 2:-0.71521 3:-0.929058 4:-0.583364 5:-0.526365 6:-0.53508 7:-0.864272 8:-0.528556 
8 0.3887005954814614 0.4971592027670256 1:0.126669 2:-0.643803 3:-0.522178 4:0.314636 5:-0.570687 6:-0.517078 7:-0.882641 8:-0.579535 
8 8 0 1:-0.644345 2:-0.767694 3:-0.935335 4:-0.593845 5:-0.605478 6:-0.44963 7:-0.891296 8:-0.629603 
8 0 0 1:-0.689858 2:-0.759478 3:-0.947499 4:-0.649433 5:-0.677202 6:-0.538917 7:-0.925384 8:-0.692143 
8 8 0 1:-0.67835 2:-0.786583 3:-0.945278 4:-0.632314 5:-0.666819 6:-0.553038 7:-0.922732 8:-0.6783 
8 8 0 1:-0.637855 2:-0.762346 3:-0.933257 4:-0.586905 5:-0.555031 6:-0.48664 7:-0.872815 8:-0.568453 
8 0 0 1:-0.655205 2:-0.701162 3:-0.935621 4:-0.617601 5:-0.538374 6:-0.522887 7:-0.868717 8:-0.543807 
8 0 0 1:-0.654291 2:-0.641865 3:-0.93335 4:-0.623747 5:-0.552566 6:-0.50228 7:-0.873411 8:-0.562022 
8 0 0 1:-0.657574 2:-0.645964 3:-0.934648 4:-0.62645 5:-0.614238 6:-0.56941 7:-0.904341 8:-0.618581 
8 8 0 1:-0.698036 2:-0.703749 3:-0.947862 4:-0.666487 5:-0.655009 6:-0.600938 7:-0.921594 8:-0.65788 
8 0 0 1:-0.661319 2:-0.702472 3:-0.937524 4:-0.624135 5:-0.666535 6:-0.566725 7:-0.923517 8:-0.675951 
8 8 0 1:-0.598166 2:-0.72271 3:-0.919675 4:-0.544819 5:-0.600442 6:-0.55039 7:-0.897612 8:-0.606578 
8 8 0 1:-0.639504 2:-0.672004 3:-0.930168 4:-0.60199 5:-0.5912 6:-0.580645 7:-0.896237 8:-0.591084 
8 0 0 1:-0.700104 2:-0.655828 3:-0.94671 4:-0.675722 5:-0.652723 6:-0.587189 7:-0.919973 8:-0.657373 
8 3.874328274323154 0 1:-0.586772 2:-0.651396 3:-0.912984 4:-0.541192 5:-0.539689 6:-0.241919 7:-0.83766 8:-0.597675 
8 8 0 1:-0.63259 2:-0.765439 3:-0.931632 4:-0.580888 5:-0.70157 6:-0.647549 7:-0.9396 8:-0.70176 
8 8 0 1:-0.586766 2:-0.673994 3:-0.913995 4:-0.537574 5:-0.675805 6:-0.590317 7:-0.927519 8:-0.683855 
8 1.395284854785175 0 1:-0.381931 2:-0.618257 3:-0.830251 4:-0.301114 5:-0.460006 6:-0.383733 7:-0.815114 8:-0.483627 
8 8 0 1:-0.379896 2:-0.65724 3:-0.831999 4:-0.292766 5:-0.36465 6:-0.346302 7:-0.754815 8:-0.388316 
8 0 0 1:-0.566448 2:-0.708258 3:-0.908763 4:-0.508558 5:-0.399994 6:-0.340747 7:-0.775404 8:-0.42704 
8 8 0 1:-0.662705 2:-0.767969 3:-0.940424 4:-0.616161 5:-0.647251 6:-0.570956 7:-0.916012 8:-0.656458 
8 0 0 1:-0.68685 2:-0.778705 3:-0.947173 4:-0.643938 5:-0.624009 6:-0.541271 7:-0.905837 8:-0.634662 
1.787191287434238 0 0 1:-0.391105 2:-0.593054 3:-0.831401 4:-0.319826 5:0.503182 6:0.134416 7:0.28423 8:0.422397 
8 0 0 1:-0.589663 2:-0.633266 3:-0.913041 4:-0.547507 5:-0.25314 6:-0.301903 7:-0.673047 8:-0.277576 
8 0 0 1:-0.427746 2:-0.570144 3:-0.847351 4:-0.36451 5:0.26789 6:-0.0645895 7:-0.114461 8:0.227132 
4.574492204484611 0 0 1:-0.473878 2:-0.66219 3:-0.872396 4:-0.404618 5:-0.171555 6:-0.262796 7:-0.603523 8:-0.198609 
8 0 0 1:-0.435166 2:-0.583048 3:-0.851379 4:-0.371462 5:-0.191757 6:-0.269327 7:-0.621466 8:-0.21792 
8 0 0 1:-0.459768 2:-0.621258 3:-0.864208 4:-0.394434 5:-0.205846 6:-0.272444 7:-0.629855 8:-0.235943 
8 0 0 1:-0.526818 2:-0.629032 3:-0.890792 4:-0.473319 5:0.031419 6:-0.282992 7:-0.435252 8:0.0295899 
8 0 0 1:-0.426496 2:-0.606611 3:-0.849283 4:-0.356858 5:-0.0218748 6:-0.271507 7:-0.480954 8:-0.0318357 
8 0 0 1:-0.393291 2:-0.550528 3:-0.82995 4:-0.328143 5:-0.0233887 6:-0.137373 7:-0.446023 8:-0.0684813 
8 0 0 1:-0.319403 2:-0.549131 3:-0.794906 4:-0.238982 5:0.400042 6:0.0138845 7:0.0853384 8:0.345624 
8 0 0 1:-0.396108 2:-0.585411 3:-0.834322 4:-0.324385 5:0.352667 6:-0.0489972 7:0.00170838 8:0.310146 
5.269244193972098 0 0 1:-0.511358 2:-0.64934 3:-0.886207 4:-0.451422 5:-0.097113 6:-0.319095 7:-0.55595 8:-0.103267 
8 0 0 1:-0.426349 2:-0.539842 3:-0.844496 4:-0.368103 5:-0.029663 6:-0.135532 7:-0.451773 8:-0.0741707 
5.681846084861326 0.0682622203371591 0.2326800299980817 1:-0.339884 2:-0.251985 3:-0.774673 4:-0.318946 5:0.179509 6:0.218682 7:-0.0995244 8:0.0632544 
0 4.682687123870945 0.1756369509052543 1:-0.319401 2:-0.316471 3:-0.77144 4:-0.284058 5:0.0647161 6:-0.150927 7:-0.364884 8:0.0311349 
8 0.3837720015381141 0 1:-0.582611 2:-0.664809 3:-0.912227 4:-0.534071 5:-0.444474 6:-0.428451 7:-0.812036 8:-0.45903 
8 1.850005371988994 0 1:-0.57536 2:-0.638575 3:-0.908547 4:-0.529441 5:-0.373824 6:-0.0748852 7:-0.712328 8:-0.455818 
8 0 0 1:-0.549236 2:-0.631327 3:-0.899065 4:-0.499537 5:-0.242378 6:-0.100401 7:-0.622542 8:-0.310544 
8 0 0 1:-0.585299 2:-0.695418 3:-0.914472 4:-0.53301 5:-0.312703 6:-0.432129 7:-0.734942 8:-0.313727 
8 0 0 1:-0.655915 2:-0.659732 3:-0.934726 4:-0.622341 5:-0.424561 6:-0.437769 7:-0.802678 8:-0.434306 
8 0 0 1:-0.633731 2:-0.604473 3:-0.92576 4:-0.603763 5:-0.296577 6:-0.204753 7:-0.685044 8:-0.343966 
8 0 0 1:-0.561126 2:-0.62375 3:-0.902725 4:-0.515119 5:-0.137083 6:-0.272036 7:-0.579128 8:-0.156677 
8 0 0 1:-0.559326 2:-0.62264 3:-0.902214 4:-0.512757 5:-0.190662 6:-0.408751 7:-0.647391 8:-0.184566 
8 0 0 1:-0.552602 2:-0.659512 3:-0.901456 4:-0.499951 5:-0.180181 6:-0.395717 7:-0.637291 8:-0.17598 
7.375316137444035 0 0 1:-0.578704 2:-0.699658 3:-0.91181 4:-0.526643 5:-0.270228 6:-0.329453 7:-0.69025 8:-0.289216 
8 0 0 1:-0.515542 2:-0.661963 3:-0.887975 4:-0.455788 5:-0.158538 6:-0.181397 7:-0.574575 8:-0.201424 
1.975369439759974 2.966133013668912 0 1:-0.524411 2:-0.686419 3:-0.892961 4:-0.461407 5:-0.249024 6:-0.196109 7:-0.649127 8:-0.295862 
8 0 0 1:-0.634059 2:-0.672444 3:-0.928816 4:-0.594436 5:-0.186704 6:-0.360709 7:-0.633863 8:-0.192938 
8 0 0 1:-0.495824 2:-0.632639 3:-0.879218 4:-0.435857 5:-0.0300299 6:-0.136362 7:-0.452222 8:-0.0754808 
6.98866598341834 0 0 1:-0.46049 2:-0.624493 3:-0.864769 4:-0.39455 5:0.0634054 6:-0.128159 7:-0.352619 8:0.0170991 
8 8 0 1:-0.514835 2:-0.680518 3:-0.88913 4:-0.450855 5:-0.296226 6:-0.257016 7:-0.69071 8:-0.338999 
8 3.162546385896371 0 1:-0.517563 2:-0.516052 3:-0.880505 4:-0.480766 5:-0.162328 6:0.139237 7:-0.487956 8:-0.28413 
0 0.2450139642339284 0 1:-0.361719 2:-0.31708 3:-0.793554 4:-0.333318 5:0.255293 6:0.0657777 7:-0.0771156 8:0.178696 
2.778177314873065 5.074863270065771 0.0440917790262578 1:-0.291483 2:-0.403453 3:-0.766174 4:-0.233582 5:0.174734 6:-0.194102 7:-0.267027 8:0.163253 
8 0 0 1:-0.435323 2:-0.58193 3:-0.851449 4:-0.371429 5:-0.241928 6:-0.316467 7:-0.667927 8:-0.260441 
8 0 0 1:-0.481495 2:-0.580866 3:-0.869678 4:-0.429008 5:-0.273405 6:-0.308919 7:-0.688349 8:-0.297351 
8 0 0 1:-0.453784 2:-0.54284 3:-0.855305 4:-0.403422 5:-0.079186 6:-0.205821 7:-0.514994 8:-0.110557 
8 0 0 1:-0.578887 2:-0.548704 3:-0.904889 4:-0.547743 5:-0.234396 6:-0.205532 7:-0.638551 8:-0.279351 
8 1.246814866553017 0 1:-0.534302 2:-0.545651 3:-0.888787 4:-0.495186 5:-0.378021 6:-0.105838 7:-0.720636 8:-0.454046 
8 8 0 1:-0.648765 2:-0.742324 3:-0.935747 4:-0.6022 5:-0.756907 6:-0.70049 7:-0.957694 8:-0.755007 
8 8 0 1:-0.663257 2:-0.758597 3:-0.940195 4:-0.618316 5:-0.613444 6:-0.597674 7:-0.905749 8:-0.613748 
8 0 0 1:-0.751285 2:-0.771086 3:-0.962423 4:-0.722274 5:-0.629797 6:-0.581062 7:-0.910911 8:-0.634119 
8 8 0 1:-0.779134 2:-0.811223 3:-0.969377 4:-0.750182 5:-0.691714 6:-0.681352 7:-0.938055 8:-0.686403 
8 8 0 1:-0.724991 2:-0.78147 3:-0.956824 4:-0.688716 5:-0.659809 6:-0.605659 7:-0.923167 8:-0.6635 
8 0 0 1:-0.72605 2:-0.774966 3:-0.956906 4:-0.690816 5:-0.660741 6:-0.526555 7:-0.918805 8:-0.675838 
8 0 0 1:-0.74535 2:-0.80091 3:-0.961966 4:-0.710948 5:-0.691732 6:-0.580759 7:-0.932762 8:-0.701094 
8 8 0 1:-0.668511 2:-0.63218 3:-0.937222 4:-0.640634 5:-0.672022 6:-0.581518 7:-0.926273 8:-0.679732 
8 0 0 1:-0.793565 2:-0.782214 3:-0.971643 4:-0.770662 5:-0.598262 6:-0.561545 7:-0.897639 8:-0.601765 
2.430629523959333 0.2352533405966024 0.396050200855609 1:-0.676704 2:-0.421147 3:-0.929514 4:-0.680348 5:-0.000491433 6:0.346437 7:-0.249589 8:-0.139817 
0 8 0 1:-0.820167 2:-0.770895 3:-0.976399 4:-0.803584 5:-0.656965 6:-0.414124 7:-0.90889 8:-0.688485 
0.3908290288757343 0 0 1:-0.315447 2:-0.496663 3:-0.787515 4:-0.245407 5:0.616842 6:0.193398 7:0.479472 8:0.528278 
0.4322007930985215 0 0 1:-0.534186 2:-0.48303 3:-0.884608 4:-0.506047 5:0.103791 6:0.235463 7:-0.180513 8:-0.0245699 
3.178172028679806 0 0 1:-0.815776 2:-0.717858 3:-0.974478 4:-0.804474 5:-0.478409 6:-0.0312929 7:-0.771881 8:-0.568189 
8 0 0 1:-0.756136 2:-0.609124 3:-0.95896 4:-0.746575 5:-0.602681 6:-0.498311 7:-0.894363 8:-0.617128 
7.742235547040607 0 0 1:-0.782033 2:-0.779326 3:-0.96929 4:-0.757083 5:-0.499025 6:-0.442343 7:-0.842263 8:-0.515011 
7.300344490850372 0 0 1:-0.796533 2:-0.728085 3:-0.970971 4:-0.780203 5:-0.651243 6:-0.506787 7:-0.913946 8:-0.668276 
0 0.1086189331089373 0.08717253942258339 1:-0.545873 2:-0.527779 3:-0.891968 4:-0.511737 5:0.670387 6:0.386349 7:0.692381 8:0.535392 
0.4975792344324886 0.6751444830904174 0.4651810811380002 1:-0.523842 2:-0.530165 3:-0.883859 4:-0.485534 5:0.684348 6:0.415437 7:0.736595 8:0.540375 
5.362265174921843 0 0 1:-0.824901 2:-0.833617 3:-0.97827 4:-0.803019 5:-0.655749 6:-0.617604 7:-0.922904 8:-0.655972 
1.576798238758258 0 0 1:-0.668284 2:-0.67008 3:-0.938602 4:-0.635524 5:-0.469559 6:-0.337736 7:-0.814383 8:-0.502315 
8 0 0 1:-0.69766 2:-0.631665 3:-0.945206 4:-0.675292 5:-0.422028 6:-0.364747 7:-0.791665 8:-0.446186 
0 0 0.2493854079354443 1:-0.783058 2:-0.766523 3:-0.969212 4:-0.759854 5:-0.306703 6:-0.290266 7:-0.708252 8:-0.336036 
8 0 0 1:-0.818214 2:-0.858993 3:-0.977601 4:-0.791962 5:-0.604246 6:-0.518032 7:-0.896667 8:-0.615514 
0 0.394051957767983 0.278515211536691 1:-0.468394 2:-0.630441 3:-0.868315 4:-0.403122 5:0.471775 6:-0.0839092 7:0.127927 8:0.458637 
8 0 0 1:-0.805704 2:-0.859941 3:-0.975375 4:-0.776874 5:-0.446105 6:-0.438324 7:-0.814471 8:-0.457461 
8 0 0.014527601077848 1:-0.621739 2:-0.549045 3:-0.919289 4:-0.597112 5:-0.198152 6:-0.304295 7:-0.633515 8:-0.216149 
8 0 0 1:-0.465642 2:-0.567003 3:-0.863121 4:-0.41033 5:0.149096 6:-0.102062 7:-0.26349 8:0.11077 
2.884263829649578 0.3721950652160143 0.2214954804930576 1:-0.603793 2:-0.599429 3:-0.916006 4:-0.569304 5:0.333647 6:-0.135436 7:-0.0667008 8:0.322546 
1.075452579278754 0.3640736506136913 0.3057636436499377 1:-0.702916 2:-0.773625 3:-0.951191 4:-0.663531 5:0.091337 6:-0.305197 7:-0.384392 8:0.102286 
0 0 0.1741981415817919 1:-0.683808 2:-0.67532 3:-0.943122 4:-0.653452 5:-0.0345583 6:-0.1065 7:-0.447856 8:-0.0851505 
8 0 0 1:-0.741611 2:-0.792662 3:-0.960945 4:-0.707045 5:-0.553927 6:-0.598354 7:-0.88212 8:-0.546583 
8 0.1317165851143982 0 1:-0.669174 2:-0.643167 3:-0.937863 4:-0.640589 5:-0.1865 6:-0.382345 7:-0.639751 8:-0.185044 
8 0 0 1:-0.711211 2:-0.646289 3:-0.949278 4:-0.689694 5:-0.416078 6:-0.368799 7:-0.788824 8:-0.437712 
8 0 0 1:-0.822653 2:-0.848714 3:-0.978214 4:-0.798307 5:-0.58459 6:-0.390005 7:-0.876898 8:-0.616836 
3.296630456657073 0 0 1:-0.867237 2:-0.855357 3:-0.98542 4:-0.851014 5:-0.674245 6:-0.538827 7:-0.924378 8:-0.688353 
8 0 0 1:-0.862748 2:-0.87455 3:-0.985013 4:-0.843774 5:-0.662389 6:-0.553455 7:-0.921205 8:-0.673077 
8 0 0 1:-0.816448 2:-0.794039 3:-0.976164 4:-0.796643 5:-0.681776 6:-0.598039 7:-0.930597 8:-0.68705 
8 8 0 1:-0.712543 2:-0.804823 3:-0.954429 4:-0.671125 5:-0.679776 6:-0.621778 7:-0.931274 8:-0.681525 
8 0 0 1:-0.741889 2:-0.669223 3:-0.957481 4:-0.723626 5:-0.670787 6:-0.556091 7:-0.924301 8:-0.681883 
8 8 0 1:-0.632716 2:-0.763721 3:-0.931827 4:-0.580436 5:-0.688311 6:-0.642183 7:-0.935154 8:-0.687707 
8 8 0 1:-0.635617 2:-0.751941 3:-0.932281 4:-0.585361 5:-0.790326 6:-0.669328 7:-0.96488 8:-0.795651 
4.156518356093502 0 0 1:-0.551606 2:-0.595858 3:-0.89805 4:-0.507622 5:-0.474021 6:0.0234327 7:-0.759121 8:-0.565183 
8 0.1220017319002178 0 1:-0.70789 2:-0.759217 3:-0.952069 4:-0.67107 5:-0.595756 6:-0.58883 7:-0.898644 8:-0.594498 
8 8 0 1:-0.757618 2:-0.815081 3:-0.964981 4:-0.723936 5:-0.693402 6:-0.667398 7:-0.938042 8:-0.689765 
8 8 0 1:-0.760738 2:-0.823181 3:-0.965805 4:-0.726808 5:-0.751319 6:-0.65028 7:-0.954169 8:-0.755399 
4.232207664768606 8 0 1:-0.754245 2:-0.847947 3:-0.964939 4:-0.716348 5:-0.74115 6:-0.682795 7:-0.952777 8:-0.739894 
8 0 0 1:-0.748301 2:-0.784089 3:-0.962211 4:-0.716508 5:-0.611546 6:-0.502403 7:-0.898328 8:-0.626253 
8 0 0 1:-0.732348 2:-0.743015 3:-0.957485 4:-0.702519 5:-0.478485 6:-0.235693 7:-0.80509 8:-0.531308 
3.069116275350376 0 0 1:-0.690187 2:-0.704537 3:-0.94584 4:-0.656965 5:-0.262282 6:-0.14532 7:-0.648026 8:-0.321325 
8 0 0 1:-0.558325 2:-0.511137 3:-0.89546 4:-0.529794 5:-0.194826 6:-0.133022 7:-0.593123 8:-0.251743 
7.210015775468276 0 0 1:-0.54602 2:-0.483442 3:-0.88914 4:-0.519958 5:0.00290069 6:0.00104625 7:-0.378374 8:-0.0737082 
0.8600260162339941 0 0.09924068758137301 1:-0.402322 2:-0.675861 3:-0.843172 4:-0.316766 5:-0.0481489 6:-0.0701532 7:-0.449625 8:-0.108911 
8 0 0 1:-0.70534 2:-0.791533 3:-0.952312 4:-0.664105 5:-0.548983 6:-0.521397 7:-0.873545 8:-0.555019 
8 0 0 1:-0.733009 2:-0.767966 3:-0.958355 4:-0.699964 5:-0.573352 6:-0.500038 7:-0.88231 8:-0.584989 
8 0 0 1:-0.755866 2:-0.772378 3:-0.963605 4:-0.726866 5:-0.654459 6:-0.610245 7:-0.922021 8:-0.655132 
8 0 0 1:-0.510071 2:-0.731891 3:-0.889856 4:-0.437662 5:-0.357341 6:-0.384877 7:-0.756239 8:-0.371816 
8 3.625120537099268 0 1:-0.461098 2:-0.658741 3:-0.867062 4:-0.389809 5:-0.216743 6:-0.222335 7:-0.630559 8:-0.254502 
7.16776838730469 0 0 1:-0.347264 2:-0.499353 3:-0.80443 4:-0.281074 5:0.0606006 6:-0.096379 7:-0.353037 8:0.0134073 
8 6.015796120407308 0 1:-0.361654 2:-0.476448 3:-0.809375 4:-0.301878 5:-0.0703777 6:-0.0918151 7:-0.476428 8:-0.125927 
8 0 0 1:-0.456699 2:-0.613221 3:-0.862435 4:-0.391823 5:-0.166899 6:-0.129545 7:-0.569728 8:-0.222441 
8 0 0 1:-0.418243 2:-0.64992 3:-0.848551 4:-0.339777 5:0.189335 6:-0.144437 7:-0.234819 8:0.167134 
0 0 0.2445976650679396 1:-0.45256 2:-0.653675 3:-0.863251 4:-0.380204 5:0.209313 6:-0.303849 7:-0.264275 8:0.23191 
8 0 0 1:-0.434512 2:-0.601982 3:-0.852444 4:-0.367255 5:-0.000369286 6:-0.0525691 7:-0.398954 8:-0.0635844 
8 0 0 1:-0.549704 2:-0.544112 3:-0.894369 4:-0.513223 5:-0.17599 6:0.0208999 7:-0.537162 8:-0.266914 
8 0 0 1:-0.641881 2:-0.644889 3:-0.93002 4:-0.60751 5:-0.528942 6:-0.430874 7:-0.855567 8:-0.549364 
1.351872604383464 0 0 1:-0.463891 2:-0.669443 3:-0.86877 4:-0.391617 5:0.234863 6:-0.0574835 7:-0.152297 8:0.191493 
2.377691142018694 0 0 1:-0.175804 2:-0.543196 3:-0.715803 4:-0.0679804 5:0.880266 6:0.0329487 7:0.797463 8:0.869099 
5.050001231006479 0 0 1:-0.058917 2:-0.583904 3:-0.647141 4:0.0792318 5:0.66859 6:0.0542415 7:0.475222 8:0.630495 
7.215220466990759 0 0 1:-0.331626 2:-0.659472 3:-0.809439 4:-0.234551 5:-0.0239687 6:-0.277676 7:-0.48456 8:-0.0314119 
8 0 0 1:-0.501931 2:-0.654991 3:-0.882903 4:-0.439342 5:-0.0819697 6:-0.204842 7:-0.5171 8:-0.112576 
8 0 0 1:-0.4497 2:-0.625581 3:-0.86037 4:-0.381532 5:-0.129198 6:-0.250104 7:-0.567788 8:-0.152547 
8 0 0 1:-0.204227 2:-0.623671 3:-0.739773 4:-0.0879512 5:-0.202637 6:-0.244322 7:-0.624491 8:-0.234182 
8 0 0 1:-0.248565 2:-0.608423 3:-0.762991 4:-0.143585 5:-0.129434 6:-0.0822261 7:-0.525874 8:-0.19346 
8 0 0 1:-0.397394 2:-0.537449 3:-0.83134 4:-0.333816 5:0.150693 6:-0.14787 7:-0.277328 8:0.126209 
8 0 0 1:-0.603273 2:-0.623773 3:-0.917039 4:-0.564984 5:-0.236308 6:-0.210931 7:-0.642832 8:-0.275264 
8 0 0 1:-0.62004 2:-0.745147 3:-0.927403 4:-0.567429 5:-0.510987 6:-0.44656 7:-0.848574 8:-0.526934 
8 0 0 1:-0.495805 2:-0.500848 3:-0.870886 4:-0.457338 5:-0.165563 6:-0.0966577 7:-0.560262 8:-0.228737 
5.324356147395129 0 0 1:-0.448027 2:-0.68216 3:-0.863007 4:-0.370672 5:-0.202596 6:-0.366338 7:-0.64876 8:-0.206329 
0 1.271127570130848 0 1:-0.366356 2:-0.657753 3:-0.825807 4:-0.276489 5:-0.0919068 6:-0.126302 7:-0.505108 8:-0.142124 
8 8 8 1:-0.669513 2:-0.731662 3:-0.94118 4:-0.628452 5:-0.822579 6:-0.772111 7:-0.975154 8:-0.818158 
8 8 0 1:-0.724438 2:-0.785779 3:-0.956799 4:-0.687596 5:-0.754779 6:-0.691731 7:-0.956801 8:-0.753723 
8 8 5.729670380031338 1:-0.704204 2:-0.671801 3:-0.94838 4:-0.677167 5:-0.729809 6:-0.653278 7:-0.9483 8:-0.73157 
8 8 0 1:-0.698478 2:-0.85003 3:-0.952077 4:-0.649171 5:-0.72627 6:-0.714563 7:-0.949949 8:-0.719155 
8 0 0 1:-0.721447 2:-0.807075 3:-0.956611 4:-0.681595 5:-0.534308 6:-0.500722 7:-0.865026 8:-0.541276 
8 0 0 1:-0.668771 2:-0.569953 3:-0.934611 4:-0.650468 5:-0.664335 6:-0.544967 7:-0.921319 8:-0.6767 
8 8 0 1:-0.743844 2:-0.736995 3:-0.960001 4:-0.716858 5:-0.749778 6:-0.676897 7:-0.954866 8:-0.750342 
8 8 0 1:-0.579141 2:-0.562848 3:-0.905882 4:-0.545064 5:-0.63438 6:-0.513198 7:-0.908048 8:-0.649506 
8 8 0 1:-0.537556 2:-0.615083 3:-0.894037 4:-0.487796 5:-0.563498 6:-0.513848 7:-0.879216 8:-0.572349 
8 3.917489047605341 0 1:-0.581925 2:-0.74464 3:-0.915392 4:-0.522144 5:-0.496625 6:-0.403958 7:-0.836729 8:-0.519654 
8 0 0 1:-0.444507 2:-0.438723 3:-0.844221 4:-0.408384 5:-0.213865 6:-0.00373018 7:-0.575864 8:-0.302625 
3.229930481216448 0.2511921473771563 0.1601271534712445 1:-0.490178 2:-0.391962 3:-0.859677 4:-0.470659 5:-0.338473 6:0.0549039 7:-0.65881 8:-0.44275 
8 8 0 1:-0.702853 2:-0.712074 3:-0.94929 4:-0.671436 5:-0.673978 6:-0.613933 7:-0.92892 8:-0.676386 
8 0 0 1:-0.725818 2:-0.741625 3:-0.955941 4:-0.694709 5:-0.598501 6:-0.430609 7:-0.886796 8:-0.624832 
8 0 0 1:-0.725263 2:-0.76333 3:-0.956401 4:-0.691359 5:-0.514294 6:-0.441709 7:-0.849685 8:-0.531652 
8 0 0 1:-0.723023 2:-0.766973 3:-0.955968 4:-0.688203 5:-0.633689 6:-0.475756 7:-0.90492 8:-0.654815 
8 0 0 1:-0.718909 2:-0.758415 3:-0.954752 4:-0.684338 5:-0.622908 6:-0.473127 7:-0.900492 8:-0.643658 
8 8 0 1:-0.689892 2:-0.76755 3:-0.947747 4:-0.648475 5:-0.706896 6:-0.600203 7:-0.93877 8:-0.71453 
8 0 0 1:-0.680776 2:-0.674959 3:-0.942286 4:-0.649895 5:-0.664039 6:-0.518613 7:-0.919428 8:-0.680439 
8 0 0 1:-0.710176 2:-0.641132 3:-0.948813 4:-0.689691 5:-0.650612 6:-0.517989 7:-0.91452 8:-0.665923 
8 0 0 1:-0.644587 2:-0.652156 3:-0.931096 4:-0.609983 5:-0.40407 6:-0.380799 7:-0.783529 8:-0.423672 
8 6.428182003174072 0 1:-0.583874 2:-0.626923 3:-0.910766 4:-0.541594 5:-0.341154 6:-0.264072 7:-0.726405 8:-0.379424 
8 0 0 1:-0.52361 2:-0.486665 3:-0.88085 4:-0.492607 5:-0.297421 6:-0.111675 7:-0.666523 8:-0.362173 
8 8 0 1:-0.679602 2:-0.731857 3:-0.943932 4:-0.640738 5:-0.561498 6:-0.412298 7:-0.868723 8:-0.587279 
8 0 0 1:-0.598702 2:-0.636521 3:-0.916198 4:-0.557635 5:-0.473201 6:-0.392008 7:-0.823175 8:-0.495933 
8 8 0 1:-0.501556 2:-0.643681 3:-0.882093 4:-0.440791 5:-0.521083 6:-0.404693 7:-0.848921 8:-0.544871 
8 8 0 1:-0.589719 2:-0.671757 3:-0.914845 4:-0.541532 5:-0.541403 6:-0.47122 7:-0.865424 8:-0.555896 
8 8 0 1:-0.599517 2:-0.541723 3:-0.911616 4:-0.573515 5:-0.479639 6:-0.386685 7:-0.82596 8:-0.504631 
8 0.4778309590486249 0 1:-0.60516 2:-0.505343 3:-0.911442 4:-0.586128 5:-0.560744 6:-0.388644 7:-0.865993 8:-0.591088 
8 8 0 1:-0.681866 2:-0.666046 3:-0.94222 4:-0.65253 5:-0.645139 6:-0.609947 7:-0.918664 8:-0.645592 
8 8 0 1:-0.664879 2:-0.687454 3:-0.938081 4:-0.630208 5:-0.566514 6:-0.585995 7:-0.886495 8:-0.563006 
8 8 0 1:-0.66101 2:-0.724287 3:-0.93845 4:-0.620076 5:-0.574291 6:-0.598208 7:-0.890624 8:-0.569247 
8 8 0 1:-0.640224 2:-0.683455 3:-0.931096 4:-0.600345 5:-0.5894 6:-0.589784 7:-0.896184 8:-0.587465 
8 0 0 1:-0.64674 2:-0.657645 3:-0.931988 4:-0.611828 5:-0.548724 6:-0.461526 7:-0.867858 8:-0.56529 
8 8 0 1:-0.459954 2:-0.484968 3:-0.854644 4:-0.418179 5:-0.454554 6:-0.457926 7:-0.821262 8:-0.462952 
3.921730560767844 0 0 1:-0.215705 2:-0.513584 3:-0.735919 4:-0.121866 5:0.156653 6:0.0703905 7:-0.19015 8:0.0752417 
1.006764708371501 0.1999615780374559 0.157965331368085 1:-0.147439 2:-0.460885 3:-0.689666 4:-0.0506227 5:0.423324 6:0.0418719 7:0.122568 8:0.369155 
8 0.2250172151001932 0.01155399931888171 1:-0.391443 2:-0.364498 3:-0.813071 4:-0.357951 5:-0.185584 6:-0.105553 7:-0.578923 8:-0.246874 
8 0 0 1:-0.654626 2:-0.62918 3:-0.932981 4:-0.625786 5:-0.479899 6:-0.345487 7:-0.820831 8:-0.512366 
0.2062869380300728 0 0 1:-0.680515 2:-0.662752 3:-0.941643 4:-0.651616 5:-0.53906 6:-0.301335 7:-0.845742 8:-0.583048 
8 7.956082572648868 0 1:-0.668182 2:-0.679313 3:-0.938907 4:-0.634495 5:-0.654445 6:-0.585434 7:-0.920413 8:-0.659655 
8 8 0 1:-0.634111 2:-0.686991 3:-0.929364 4:-0.592731 5:-0.669134 6:-0.617827 7:-0.92747 8:-0.670602 
8 0 0 1:-0.650797 2:-0.69348 3:-0.934567 4:-0.61151 5:-0.407629 6:-0.483354 7:-0.798863 8:-0.406453 
8 8 0 1:-0.525621 2:-0.622414 3:-0.890057 4:-0.471844 5:-0.512849 6:-0.471133 7:-0.852025 8:-0.524202 
8 8 0.8684575195859708 1:-0.609057 2:-0.580202 3:-0.916794 4:-0.577709 5:-0.631247 6:-0.656243 7:-0.916528 8:-0.622738 
8 0 0 1:-0.730837 2:-0.791137 3:-0.958329 4:-0.695166 5:-0.669972 6:-0.581349 7:-0.925619 8:-0.676835 
8 0 0 1:-0.730925 2:-0.755786 3:-0.957525 4:-0.699117 5:-0.721565 6:-0.563576 7:-0.941328 8:-0.735708 
8 0 0 1:-0.691747 2:-0.732544 3:-0.947143 4:-0.655249 5:-0.703474 6:-0.529723 7:-0.93362 8:-0.721491 
8 0 0 1:-0.702834 2:-0.756014 3:-0.950709 4:-0.665406 5:-0.677002 6:-0.542016 7:-0.925545 8:-0.690979 
8 0 0 1:-0.646994 2:-0.702744 3:-0.933579 4:-0.606562 5:-0.395521 6:-0.368547 7:-0.776813 8:-0.41661 
8 0 0 1:-0.661372 2:-0.559531 3:-0.93199 4:-0.643585 5:-0.494913 6:-0.388923 7:-0.834108 8:-0.520188 
8 0 0 1:-0.686858 2:-0.559109 3:-0.939275 4:-0.673579 5:-0.50626 6:-0.430144 7:-0.844494 8:-0.524216 
8 8 0 1:-0.762187 2:-0.748943 3:-0.964419 4:-0.737138 5:-0.587459 6:-0.606034 7:-0.896583 8:-0.582547 
8 0 0 1:-0.679961 2:-0.692965 3:-0.942704 4:-0.646313 5:-0.539749 6:-0.581528 7:-0.874598 8:-0.534196 
8 8 0 1:-0.721138 2:-0.689351 3:-0.953216 4:-0.695984 5:-0.62829 6:-0.595805 7:-0.911541 8:-0.629199 
8 8 0 1:-0.796832 2:-0.785714 3:-0.972285 4:-0.774565 5:-0.671314 6:-0.664031 7:-0.930795 8:-0.665881 
8 8 0 1:-0.775631 2:-0.671533 3:-0.965017 4:-0.764076 5:-0.623184 6:-0.578593 7:-0.908559 8:-0.626328 
8 0 0 1:-0.422727 2:-0.630419 3:-0.849258 4:-0.34845 5:0.191954 6:-0.230954 7:-0.260382 8:0.19315 
8 0 0 1:-0.366216 2:-0.610748 3:-0.82242 4:-0.28424 5:0.12073 6:-0.181936 7:-0.319395 8:0.101822 
8 0 0 1:-0.387543 2:-0.599037 3:-0.831472 4:-0.311535 5:0.0193526 6:-0.140168 7:-0.406902 8:-0.0197511 
8 0 0 1:-0.407309 2:-0.617021 3:-0.841615 4:-0.332261 5:-0.220063 6:-0.376737 7:-0.663353 8:-0.22348 
8 0 0 1:-0.452162 2:-0.597275 3:-0.859606 4:-0.389144 5:-0.0615489 6:-0.350034 7:-0.533984 8:-0.0549207 
6.353374192033338 0 0 1:-0.621039 2:-0.636075 3:-0.923181 4:-0.584694 5:-0.194183 6:-0.245358 7:-0.618264 8:-0.223911 
8 0 0 1:-0.563665 2:-0.5538 3:-0.899481 4:-0.53002 5:-0.24224 6:-0.151015 7:-0.634187 8:-0.29964 
8 0 0 1:-0.43017 2:-0.575898 3:-0.848722 4:-0.366649 5:0.0702144 6:-0.22786 7:-0.383577 8:0.0584913 
8 0 0 1:-0.504603 2:-0.628709 3:-0.882466 4:-0.446642 5:-0.0811024 6:-0.291087 7:-0.537207 8:-0.0908824 
8 2.389844511792852 0 1:-0.801753 2:-0.75164 3:-0.972564 4:-0.784004 5:-0.617466 6:-0.241588 7:-0.875896 8:-0.673139 
8 0 0 1:-0.863614 2:-0.851403 3:-0.984839 4:-0.847053 5:-0.703341 6:-0.572781 7:-0.936147 8:-0.714606 
8 0 0 1:-0.691541 2:-0.577828 3:-0.941398 4:-0.675428 5:-0.393641 6:-0.253127 7:-0.757965 8:-0.434387 
8 0 0 1:-0.518498 2:-0.629957 3:-0.887778 4:-0.462714 5:-0.24297 6:-0.326296 7:-0.670594 8:-0.25881 
8 8 0 1:-0.422774 2:-0.696516 3:-0.853276 4:-0.337885 5:-0.528875 6:-0.449961 7:-0.857481 8:-0.545766 
8 8 0 1:-0.50985 2:-0.714025 3:-0.888932 4:-0.439501 5:-0.73724 6:-0.577935 7:-0.946766 8:-0.750703 
8 8 0 1:-0.736024 2:-0.843882 3:-0.960843 4:-0.694806 5:-0.682856 6:-0.489729 7:-0.924046 8:-0.704258 
8 0.1962199301348317 0.1246366378441241 1:-0.638359 2:-0.456903 3:-0.91957 4:-0.630533 5:-0.254585 6:-0.0176465 7:-0.612201 8:-0.331493 
6.251910825523765 8 0 1:-0.571386 2:-0.513031 3:-0.900278 4:-0.544293 5:-0.351505 6:0.055146 7:-0.66833 8:-0.442291 
8 8 8 1:-0.903285 2:-0.881259 3:-0.990562 4:-0.891695 5:-0.927497 6:-0.776328 7:-0.992318 8:-0.93233 
8 8 8 1:-0.857982 2:-0.807718 3:-0.983345 4:-0.844652 5:-0.922797 6:-0.730619 7:-0.99102 8:-0.931768 
8 2.880274376704008 0 1:-0.589604 2:-0.538909 3:-0.908091 4:-0.559632 5:-0.675033 6:-0.426907 7:-0.916695 8:-0.702358 
8 8 0 1:-0.559918 2:-0.57478 3:-0.899824 4:-0.519885 5:-0.453388 6:-0.549947 7:-0.830637 8:-0.444619 
8 0 0 1:-0.613011 2:-0.729134 3:-0.92463 4:-0.561403 5:-0.451956 6:-0.498381 7:-0.824473 8:-0.452301 
0 5.260061254778316 0 1:-0.434114 2:-0.825375 3:-0.864192 4:-0.334827 5:-0.612461 6:-0.440663 7:-0.893519 8:-0.635296 
8 8 0 1:-0.516368 2:-0.694794 3:-0.890408 4:-0.450499 5:-0.61701 6:-0.527144 7:-0.902433 8:-0.625956 
3.26455152864929 0 0 1:-0.805146 2:-0.786031 3:-0.973932 4:-0.784052 5:-0.73941 6:-0.53686 7:-0.945248 8:-0.759096 
8 8 0 1:-0.698793 2:-0.753539 3:-0.949619 4:-0.660756 5:-0.787652 6:-0.666693 7:-0.964141 8:-0.79304 
8 8 0 1:-0.645058 2:-0.779461 3:-0.935898 4:-0.593285 5:-0.794348 6:-0.642141 7:-0.964831 8:-0.803684 
8 8 0 1:-0.634069 2:-0.703876 3:-0.930048 4:-0.58966 5:-0.766633 6:-0.639342 7:-0.957758 8:-0.773828 
8 8 2.878789601671735 1:-0.6081 2:-0.704122 3:-0.922151 4:-0.557708 5:-0.78402 6:-0.710171 7:-0.964785 8:-0.783435 
8 0 0 1:-0.700575 2:-0.743619 3:-0.949776 4:-0.663748 5:-0.767885 6:-0.621025 7:-0.957329 8:-0.777444 
8 0 0 1:-0.773156 2:-0.787118 3:-0.967618 4:-0.745822 5:-0.75976 6:-0.555083 7:-0.952067 8:-0.778112 
8 0 0 1:-0.775635 2:-0.724298 3:-0.966652 4:-0.756202 5:-0.651581 6:-0.553792 7:-0.917347 8:-0.661307 
8 0 0 1:-0.771196 2:-0.713933 3:-0.96546 4:-0.752163 5:-0.567689 6:-0.545719 7:-0.883749 8:-0.571212 
8 0 0 1:-0.8955 2:-0.86731 3:-0.989438 4:-0.883642 5:-0.864862 6:-0.682799 7:-0.980834 8:-0.875318 
8 0 0 1:-0.881766 2:-0.845979 3:-0.987363 4:-0.869241 5:-0.827414 6:-0.704384 7:-0.974292 8:-0.831582 
8 0 0 1:-0.865422 2:-0.860443 3:-0.985227 4:-0.848312 5:-0.796662 6:-0.724945 7:-0.968222 8:-0.795292 
8 0 0 1:-0.877793 2:-0.836474 3:-0.986677 4:-0.865532 5:-0.788852 6:-0.636797 7:-0.963275 8:-0.798278 
8 8 0 1:-0.431645 2:-0.567485 3:-0.848854 4:-0.369249 5:-0.252435 6:-0.41193 7:-0.692159 8:-0.251109 
8 0 0 1:-0.507229 2:-0.538886 3:-0.878016 4:-0.46368 5:-0.19286 6:-0.31828 7:-0.632318 8:-0.206487 
8 0 0 1:-0.705539 2:-0.658817 3:-0.94827 4:-0.680872 5:-0.49245 6:-0.174586 7:-0.803794 8:-0.555171 
8 8 0 1:-0.810274 2:-0.845401 3:-0.975959 4:-0.783863 5:-0.828715 6:-0.726411 7:-0.975164 8:-0.830437 
8 8 0 1:-0.79404 2:-0.818283 3:-0.972451 4:-0.76717 5:-0.847927 6:-0.777275 7:-0.980069 8:-0.84599 
8 8 0 1:-0.710626 2:-0.806859 3:-0.954023 4:-0.66844 5:-0.829619 6:-0.739883 7:-0.975681 8:-0.829993 
8 8 0 1:-0.671104 2:-0.835818 3:-0.9447 4:-0.617818 5:-0.855224 6:-0.737784 7:-0.980578 8:-0.857985 
4.945847851193775 8 8 1:-0.601793 2:-0.357741 3:-0.900886 4:-0.595498 5:-0.884486 6:-0.773883 7:-0.986254 8:-0.886142 
8 8 8 1:-0.680702 2:-0.48789 3:-0.934193 4:-0.671076 5:-0.883786 6:-0.761973 7:-0.985945 8:-0.886493 
8 8 8 1:-0.441614 2:-0.679264 3:-0.860232 4:-0.361648 5:-0.876906 6:-0.78904 7:-0.985359 8:-0.876117 
8 8 8 1:-0.700044 2:-0.88359 3:-0.953198 4:-0.64764 5:-0.860553 6:-0.807495 7:-0.983024 8:-0.855973 
8 0 0 1:-0.859331 2:-0.827443 3:-0.983863 4:-0.844243 5:-0.818384 6:-0.715098 7:-0.972714 8:-0.82039 
8 8 0 1:-0.838487 2:-0.81535 3:-0.980337 4:-0.820741 5:-0.826576 6:-0.731737 7:-0.974894 8:-0.827332 
8 8 0 1:-0.744308 2:-0.786987 3:-0.961391 4:-0.71103 5:-0.846056 6:-0.748284 7:-0.979139 8:-0.846703 
8 8 0 1:-0.676421 2:-0.843893 3:-0.946296 4:-0.623372 5:-0.856375 6:-0.760575 7:-0.981311 8:-0.856681 
4.394813393317101 1.117560615419626 0.7696830292854075 1:-0.281685 2:-0.03356 3:-0.710817 4:-0.280842 5:-0.588733 6:-0.496283 7:-0.888503 8:-0.601836 
2.753982994924267 1.19338835436629 0.6193725189766036 1:0.373454 2:-0.342423 3:-0.2625 4:0.548574 5:-0.594676 6:-0.536503 7:-0.894263 8:-0.602171 
1.566656562459738 1.57613372139204 0.4131420491264089 1:0.356352 2:-0.511934 3:-0.310884 4:0.563741 5:-0.122402 6:-0.0324004 7:-0.505855 8:-0.194706 
2.540712930754657 0.9660877688583361 0.5366688397779339 1:0.094479 2:-0.208569 3:-0.47851 4:0.181499 5:0.288462 6:-0.0323856 7:-0.0797522 8:0.242832 
0.8231984892091664 0.9643477507020625 0.4960263601769777 1:0.517671 2:-0.23373 3:-0.092231 4:0.692507 5:0.164931 6:-0.0908062 7:-0.242456 8:0.125862 
0.3024415325127146 1.998361076585436 0.3419126370409561 1:0.526099 2:-0.407732 3:-0.125599 4:0.745032 5:0.0155446 6:-0.150762 7:-0.413699 8:-0.0185704 
0.961848833335295 0.9339829703861073 0.6578505680218568 1:-0.286227 2:-0.023505 3:-0.711633 4:-0.301545 5:0.308872 6:0.887851 7:0.485537 8:0.0572391 
0.9099336462756485 0.9149992394928254 0.6522837490504654 1:-0.56562 2:-0.0437963 3:-0.859326 4:-0.61847 5:-0.276537 6:1 7:-0.272364 8:-0.520721 
7.869772687685774 0.7400143056121042 0 1:-0.764302 2:-0.823632 3:-0.966542 4:-0.731203 5:-0.811379 6:-0.64735 7:-0.968967 8:-0.82108 
8 8 0 1:-0.817635 2:-0.828962 3:-0.977009 4:-0.794323 5:-0.871945 6:-0.68389 7:-0.982244 8:-0.882398 
8 8 0 1:-0.85134 2:-0.851987 3:-0.982961 4:-0.83246 5:-0.876659 6:-0.756175 7:-0.984672 8:-0.879427 
8 0 0 1:-0.822845 2:-0.809233 3:-0.977548 4:-0.802906 5:-0.745545 6:-0.564613 7:-0.94843 8:-0.761831 
8 0 0 1:-0.88197 2:-0.853733 3:-0.9874 4:-0.869435 5:-0.851169 6:-0.692724 7:-0.978675 8:-0.858856 
8 0 0 1:-0.643659 2:-0.58148 3:-0.927725 4:-0.619528 5:-0.322201 6:-0.28528 7:-0.717659 8:-0.354769 
8 8 0 1:-0.772161 2:-0.79877 3:-0.967644 4:-0.743487 5:-0.583913 6:-0.633281 7:-0.89707 8:-0.574143 
8 0 0 1:-0.812364 2:-0.794184 3:-0.975389 4:-0.792047 5:-0.597571 6:-0.602585 7:-0.900354 8:-0.594174 
8 0 0 1:-0.762507 2:-0.797693 3:-0.965636 4:-0.73177 5:-0.560811 6:-0.436205 7:-0.870852 8:-0.582339 
8 0 0 1:-0.800198 2:-0.828033 3:-0.973811 4:-0.773496 5:-0.708036 6:-0.641545 7:-0.941291 8:-0.709102 
0 8 0 1:-0.855133 2:-0.873927 3:-0.983832 4:-0.834953 5:-0.701875 6:-0.725657 7:-0.943315 8:-0.690728 
8 0 0 1:-0.861658 2:-0.839064 3:-0.984365 4:-0.846035 5:-0.70709 6:-0.680665 7:-0.942893 8:-0.702759 
8 0 0 1:-0.801896 2:-0.771564 3:-0.972949 4:-0.782033 5:-0.572015 6:-0.334185 7:-0.865363 8:-0.61066 
7.519014982848903 0 0 1:-0.798522 2:-0.785003 3:-0.972589 4:-0.77668 5:-0.462376 6:-0.520657 7:-0.832197 8:-0.458973 
8 0 0 1:-0.799095 2:-0.804615 3:-0.973154 4:-0.774767 5:-0.507124 6:-0.53836 7:-0.855925 8:-0.505515 
4.869512313714254 0 0 1:-0.796894 2:-0.81112 3:-0.972863 4:-0.771435 5:-0.469932 6:-0.384018 7:-0.820522 8:-0.493066 
8 0 0 1:-0.806115 2:-0.738635 3:-0.973121 4:-0.7907 5:-0.743498 6:-0.619951 7:-0.950642 8:-0.751229 
8 0 0 1:-0.826126 2:-0.852254 3:-0.978858 4:-0.802126 5:-0.80287 6:-0.68458 7:-0.96834 8:-0.807252 
8 0 8 1:-0.786102 2:-0.708966 3:-0.968425 4:-0.770401 5:-0.758954 6:-0.617767 7:-0.954804 8:-0.768319 
8 8 0 1:-0.570875 2:-0.731482 3:-0.911207 4:-0.50974 5:-0.764824 6:-0.606077 7:-0.955862 8:-0.77633 
8 8 8 1:-0.664425 2:-0.707862 3:-0.938969 4:-0.624735 5:-0.862452 6:-0.82809 7:-0.983734 8:-0.855981 
8 8 8 1:-0.886945 2:-0.85641 3:-0.988174 4:-0.874549 5:-0.888533 6:-0.840691 7:-0.988016 8:-0.883602 
8 8 8 1:-0.915715 2:-0.879362 3:-0.992003 4:-0.906867 5:-0.923719 6:-0.849973 7:-0.992782 8:-0.921685 
8 0 0 1:-0.81623 2:-0.801164 3:-0.976266 4:-0.795578 5:-0.755299 6:-0.644599 7:-0.954987 8:-0.760502 
8 0 0 1:-0.630412 2:-0.651755 3:-0.926859 4:-0.592942 5:-0.582739 6:-0.416508 7:-0.878665 8:-0.608898 
1.604751195350125 0 0 1:-0.64844 2:-0.730525 3:-0.935244 4:-0.603576 5:-0.448174 6:-0.362073 7:-0.805949 8:-0.47338 
8 0 0 1:-0.874514 2:-0.801695 3:-0.985734 4:-0.864999 5:-0.730465 6:-0.556436 7:-0.943639 8:-0.746373 
8 0 0 1:-0.86005 2:-0.842428 3:-0.984172 4:-0.84374 5:-0.810381 6:-0.693601 7:-0.970322 8:-0.814358 
3.972338890421627 8 0 1:-0.851182 2:-0.86643 3:-0.983099 4:-0.831127 5:-0.806824 6:-0.743781 7:-0.971075 8:-0.804281 
8 0 0 1:-0.782417 2:-0.73902 3:-0.968435 4:-0.762085 5:-0.689653 6:-0.524131 7:-0.928699 8:-0.706438 
8 0 0 1:-0.706551 2:-0.780438 3:-0.952331 4:-0.666788 5:-0.505835 6:-0.534868 7:-0.854988 8:-0.505228 
8 0 0 1:-0.738873 2:-0.79095 3:-0.96028 4:-0.704232 5:-0.632719 6:-0.589981 7:-0.912905 8:-0.634906 
8 0 0 1:-0.724737 2:-0.75032 3:-0.955928 4:-0.692073 5:-0.724306 6:-0.620782 7:-0.945149 8:-0.730408 
8 0 0 1:-0.71953 2:-0.73988 3:-0.954377 4:-0.687309 5:-0.708562 6:-0.576833 7:-0.938023 8:-0.71958 
8 3.980532622744542 0 1:-0.747193 2:-0.781847 3:-0.96191 4:-0.71541 5:-0.641293 6:-0.459605 7:-0.906576 8:-0.665613 
8 0 0 1:-0.813628 2:-0.824135 3:-0.976213 4:-0.789952 5:-0.573268 6:-0.292087 7:-0.86121 8:-0.618453 
0 8 0 1:-0.7719 2:-0.887866 3:-0.969335 4:-0.733585 5:-0.686335 6:-0.661421 7:-0.935535 8:-0.682178 
8 8 0 1:-0.717301 2:-0.718658 3:-0.9532 4:-0.687442 5:-0.673761 6:-0.617112 7:-0.929028 8:-0.675544 
8 0 0 1:-0.872221 2:-0.869764 3:-0.986325 4:-0.855569 5:-0.672441 6:-0.542345 7:-0.923989 8:-0.685743 
8 0 0 1:-0.872879 2:-0.878997 3:-0.986528 4:-0.855511 5:-0.746469 6:-0.637468 7:-0.95228 8:-0.75218 
8 4.713671791163556 0 1:-0.789878 2:-0.645911 3:-0.967501 4:-0.781968 5:-0.640243 6:-0.519548 7:-0.910746 8:-0.654203 
8 8 0 1:-0.674312 2:-0.745687 3:-0.942949 4:-0.632252 5:-0.765272 6:-0.672416 7:-0.958767 8:-0.767922 
8 8 0 1:-0.741984 2:-0.8256 3:-0.961781 4:-0.704065 5:-0.752107 6:-0.658222 7:-0.954682 8:-0.755607 
8 8 0 1:-0.726504 2:-0.831655 3:-0.958394 4:-0.684716 5:-0.732359 6:-0.666256 7:-0.949588 8:-0.732757 
8 8 0 1:-0.756186 2:-0.761629 3:-0.963424 4:-0.728456 5:-0.665277 6:-0.630716 7:-0.92691 8:-0.664392 
8 0 0 1:-0.759502 2:-0.766695 3:-0.964262 4:-0.731795 5:-0.659674 6:-0.526952 7:-0.918443 8:-0.674035 
8 0 0 1:-0.769236 2:-0.773333 3:-0.966514 4:-0.742577 5:-0.709285 6:-0.554001 7:-0.936951 8:-0.721712 
8 8 0 1:-0.739335 2:-0.779578 3:-0.960109 4:-0.705797 5:-0.769651 6:-0.728287 7:-0.961941 8:-0.765256 
8 0 0 1:-0.847773 2:-0.893946 3:-0.982978 4:-0.824106 5:-0.808745 6:-0.692271 7:-0.969915 8:-0.812717 
4.387958667033174 1.079571619763633 0 1:-0.735597 2:-0.53926 3:-0.95142 4:-0.732972 5:-0.526266 6:0.0905772 7:-0.77927 8:-0.627664 
3.47749011046723 1.859643671187837 0 1:-0.693294 2:-0.518872 3:-0.939281 4:-0.685369 5:-0.393362 6:-0.0664671 7:-0.723912 8:-0.473661 
2.328502251915549 0 0 1:-0.764998 2:-0.691353 3:-0.963501 4:-0.747733 5:-0.522363 6:-0.545434 7:-0.863689 8:-0.52087 
8 0 0 1:-0.614236 2:-0.79327 3:-0.927298 4:-0.554595 5:-0.427225 6:-0.181404 7:-0.766657 8:-0.487046 
8 8 0 1:-0.715641 2:-0.737239 3:-0.953348 4:-0.682243 5:-0.696334 6:-0.612612 7:-0.936141 8:-0.701084 
8 0 0 1:-0.849903 2:-0.833393 3:-0.982487 4:-0.832432 5:-0.725874 6:-0.680365 7:-0.948391 8:-0.723353 
8 0 0 1:-0.800409 2:-0.797755 3:-0.97327 4:-0.777027 5:-0.768933 6:-0.671137 7:-0.959649 8:-0.771613 
8 0 0 1:-0.774478 2:-0.825052 3:-0.968695 4:-0.743144 5:-0.746518 6:-0.632033 7:-0.952045 8:-0.752724 
8 0 0 1:-0.782158 2:-0.795728 3:-0.969668 4:-0.755471 5:-0.586618 6:-0.502318 7:-0.888134 8:-0.599393 
8 0 0 1:-0.743118 2:-0.784666 3:-0.96109 4:-0.710043 5:-0.507223 6:-0.503398 7:-0.852607 8:-0.512207 
8 0 0 1:-0.723465 2:-0.795533 3:-0.95682 4:-0.685233 5:-0.440885 6:-0.459869 7:-0.814249 8:-0.448154 
8 1.447838661624909 0 1:-0.748077 2:-0.786841 3:-0.962248 4:-0.715748 5:-0.523883 6:-0.42812 7:-0.852848 8:-0.544469 
8 0 0 1:-0.848109 2:-0.839663 3:-0.982299 4:-0.829634 5:-0.699539 6:-0.595587 7:-0.936225 8:-0.706914 
8 0 0 1:-0.811393 2:-0.827965 3:-0.975851 4:-0.787105 5:-0.567722 6:-0.440929 7:-0.874414 8:-0.589692 
8 0 0 1:-0.641651 2:-0.657721 3:-0.93049 4:-0.60559 5:-0.149812 6:-0.188734 7:-0.570225 8:-0.191092 
8 0 0 1:-0.573243 2:-0.601234 3:-0.905622 4:-0.533715 5:-0.0232988 6:-0.155928 7:-0.45171 8:-0.0625048 
1.226539218038022 1.664460553975898 0 1:-0.68084 2:-0.576041 3:-0.938349 4:-0.66417 5:-0.332543 6:-0.0207458 7:-0.671958 8:-0.422066 
8 2.80785589649005 0 1:-0.572604 2:-0.45387 3:-0.896962 4:-0.553033 5:-0.471578 6:-0.278757 7:-0.80743 8:-0.517104 
8 0 0 1:-0.253176 2:-0.591061 3:-0.764031 4:-0.151248 5:-0.356595 6:-0.300415 7:-0.742563 8:-0.386325 
8 0 0 1:-0.431102 2:-0.528532 3:-0.84577 4:-0.369949 5:-0.514638 6:-0.329801 7:-0.836975 8:-0.545398 
8 0 0 1:-0.658399 2:-0.705831 3:-0.937199 4:-0.618589 5:-0.302953 6:-0.464569 7:-0.733762 8:-0.294746 
4.857202203122789 0 0 1:-0.630774 2:-0.643972 3:-0.926625 4:-0.594325 5:-0.145071 6:-0.357869 7:-0.603554 8:-0.145499 
6.378416300484981 0 0 1:-0.556258 2:-0.631849 3:-0.90162 4:-0.507395 5:0.0441328 6:-0.251774 7:-0.415191 8:0.0373731 
0.357529682187268 0 0 1:-0.558448 2:-0.63729 3:-0.902644 4:-0.509393 5:-0.00226799 6:-0.29911 7:-0.470383 8:-0.00250742 
8 0 0 1:-0.579636 2:-0.679099 3:-0.911853 4:-0.528602 5:-0.141921 6:-0.408873 7:-0.610943 8:-0.130233 
8 0 0 1:-0.593307 2:-0.703081 3:-0.917408 4:-0.541424 5:-0.179312 6:-0.400715 7:-0.63782 8:-0.173038 
8 2.62900702920743 0 1:-0.615631 2:-0.678004 3:-0.923422 4:-0.571587 5:-0.259233 6:-0.373963 7:-0.690488 8:-0.266256 
6.770375133872813 0 0 1:-0.641264 2:-0.764604 3:-0.934326 4:-0.590655 5:-0.476468 6:-0.38329 7:-0.823816 8:-0.501737 
8 8 0 1:-0.581205 2:-0.64968 3:-0.911039 4:-0.534731 5:-0.456903 6:-0.403281 7:-0.815825 8:-0.47684 
8 7.256510348965334 0 1:-0.553112 2:-0.627611 3:-0.900277 4:-0.504673 5:-0.401813 6:-0.366368 7:-0.779834 8:-0.424898 
8 8 0 1:-0.587726 2:-0.710001 3:-0.915855 4:-0.533905 5:-0.435485 6:-0.494626 7:-0.815337 8:-0.435355 
8 0 0 1:-0.488641 2:-0.625492 3:-0.876086 4:-0.427967 5:-0.207242 6:-0.334737 7:-0.646235 8:-0.217487 
1.891042979555709 0 0.3378297409451022 1:-0.222883 2:-0.559526 3:-0.744473 4:-0.121522 5:0.0108863 6:-0.377206 7:-0.477127 8:0.0315717 
8 1.407071993100973 0 1:-0.1389 2:-0.590462 3:-0.698488 4:-0.0143689 5:-0.341343 6:-0.334207 7:-0.73836 8:-0.36326 
8 1.779539762196966 0 1:-0.258758 2:-0.698797 3:-0.775445 4:-0.140826 5:-0.653514 6:-0.573925 7:-0.919302 8:-0.660616 
8 0 0 1:-0.364942 2:-0.774495 3:-0.832083 4:-0.257591 5:-0.702024 6:-0.629746 7:-0.938838 8:-0.704781 
8 8 0 1:-0.537881 2:-0.666054 3:-0.896816 4:-0.47977 5:-0.526856 6:-0.424172 7:-0.853854 8:-0.547512 
8 0 0 1:-0.571237 2:-0.644511 3:-0.907437 4:-0.52312 5:-0.24095 6:-0.272602 7:-0.658883 8:-0.269755 
8 8 0 1:-0.408298 2:-0.540513 3:-0.836557 4:-0.34611 5:-0.175433 6:-0.145999 7:-0.580739 8:-0.2245 
2.854104008284722 0 0 1:-0.155351 2:-0.554458 3:-0.704824 4:-0.0415339 5:0.0983365 6:-0.027712 7:-0.291084 8:0.0361654 
3.233785067623204 1.89236641310847 0.1442196922058354 1:-0.267311 2:-0.655296 3:-0.776748 4:-0.15803 5:-0.220762 6:-0.054609 7:-0.594608 8:-0.298406 
8 8 0 1:-0.396618 2:-0.682801 3:-0.841113 4:-0.308753 5:-0.431264 6:-0.503003 7:-0.813968 8:-0.429458 
8 8 0 1:-0.505984 2:-0.645329 3:-0.883949 4:-0.44561 5:-0.443147 6:-0.473861 7:-0.817063 8:-0.44791 
8 0 0 1:-0.756983 2:-0.831666 3:-0.965189 4:-0.721414 5:-0.627078 6:-0.559159 7:-0.908586 8:-0.633909 
8 8 0 1:-0.718668 2:-0.809063 3:-0.956017 4:-0.677965 5:-0.636682 6:-0.594971 7:-0.914695 8:-0.638305 
8 8 0 1:-0.822039 2:-0.852789 3:-0.978177 4:-0.796965 5:-0.887223 6:-0.776356 7:-0.986751 8:-0.888595 
8 8 8 1:-0.76525 2:-0.817065 3:-0.966643 4:-0.732374 5:-0.875815 6:-0.776756 7:-0.984959 8:-0.876048 
8 8 8 1:-0.760761 2:-0.820065 3:-0.965755 4:-0.726566 5:-0.895477 6:-0.804831 7:-0.988471 8:-0.894713 
8 0 0 1:-0.609074 2:-0.692113 3:-0.921958 4:-0.56183 5:-0.325967 6:-0.39943 7:-0.738786 8:-0.334646 
8 0 0 1:-0.697172 2:-0.755756 3:-0.949272 4:-0.658609 5:-0.273738 6:-0.256501 7:-0.679127 8:-0.308136 
8 0 0 1:-0.553777 2:-0.72719 3:-0.90524 4:-0.490769 5:-0.384171 6:-0.40233 7:-0.774875 8:-0.397271 
8 0 0 1:-0.532369 2:-0.674364 3:-0.895244 4:-0.472691 5:-0.122087 6:-0.39279 7:-0.592392 8:-0.112101 
8 0 0 1:-0.573781 2:-0.650903 3:-0.90858 4:-0.525486 5:-0.209887 6:-0.11302 7:-0.600223 8:-0.272363 
8 0 0 1:-0.574965 2:-0.585397 3:-0.90567 4:-0.537413 5:-0.0223948 6:-0.13483 7:-0.444858 8:-0.0661195 
8 0 0 1:-0.4164 2:-0.606178 3:-0.844899 4:-0.344701 5:-0.141311 6:-0.107503 7:-0.542782 8:-0.20037 
3.053358905543252 0.9738369615277758 0.0462577252808922 1:-0.258293 2:-0.735927 3:-0.777728 4:-0.134783 5:-0.33547 6:-0.453354 7:-0.752581 8:-0.333068 
8 8 0 1:-0.43506 2:-0.622312 3:-0.854021 4:-0.363234 5:-0.333816 6:-0.374054 7:-0.739912 8:-0.347695 
0.7293850914405196 0 0 1:-0.683248 2:-0.779845 3:-0.946353 4:-0.638982 5:-0.431369 6:-0.400728 7:-0.801678 8:-0.449041 
8 8 0 1:-0.312314 2:-0.435588 3:-0.780579 4:-0.248257 5:-0.486912 6:-0.467826 7:-0.838942 8:-0.496825 
6.806436416207148 0 0 1:0.103041 2:-0.658049 3:-0.54165 4:0.287567 5:-0.51745 6:-0.453257 7:-0.852425 8:-0.532298 
8 8 0 1:-0.214847 2:-0.457803 3:-0.729553 4:-0.129016 5:-0.383409 6:-0.362591 7:-0.768776 8:-0.405146 
8 0 0 1:-0.701978 2:-0.769741 3:-0.950889 4:-0.662683 5:-0.541309 6:-0.495026 7:-0.867561 8:-0.551617 
8 8 0 1:-0.660966 2:-0.782938 3:-0.940413 4:-0.612196 5:-0.547534 6:-0.450738 7:-0.866267 8:-0.566049 
8 0 0 1:-0.803731 2:-0.820654 3:-0.974328 4:-0.77862 5:-0.809053 6:-0.658303 7:-0.96884 8:-0.817473 
8 0 0 1:-0.783944 2:-0.780538 3:-0.96968 4:-0.759441 5:-0.698232 6:-0.567691 7:-0.934209 8:-0.709649 
8 0 7.462942464266161 1:-0.836718 2:-0.742909 3:-0.978721 4:-0.826231 5:-0.752103 6:-0.534526 7:-0.948822 8:-0.770986 
8 8 8 1:-0.890288 2:-0.848656 3:-0.988549 4:-0.879139 5:-0.870637 6:-0.757038 7:-0.983695 8:-0.872683 
8 8 0 1:-0.836295 2:-0.821317 3:-0.980096 4:-0.81738 5:-0.860032 6:-0.735031 7:-0.98137 8:-0.863662 
8 0 0 1:-0.782243 2:-0.810546 3:-0.96999 4:-0.753927 5:-0.622598 6:-0.478512 7:-0.90081 8:-0.642491 
8 0 0 1:-0.785511 2:-0.822969 3:-0.970868 4:-0.756594 5:-0.653383 6:-0.483973 7:-0.913052 8:-0.674674 
8 8 0 1:-0.801193 2:-0.78495 3:-0.973163 4:-0.779537 5:-0.66265 6:-0.641697 7:-0.926686 8:-0.659712 
8 8 0 1:-0.755879 2:-0.736381 3:-0.962706 4:-0.730953 5:-0.644416 6:-0.611044 7:-0.918498 8:-0.644548 
8 0 0 1:-0.734832 2:-0.761941 3:-0.958619 4:-0.702755 5:-0.613933 6:-0.537389 7:-0.901972 8:-0.623051 
8 0 0 1:-0.680984 2:-0.722115 3:-0.943984 4:-0.643469 5:-0.409052 6:-0.325237 7:-0.778512 8:-0.439924 
8 0 0 1:-0.650972 2:-0.735924 3:-0.936133 4:-0.605971 5:-0.416702 6:-0.328827 7:-0.783369 8:-0.448243 
6.937721650645934 0 0 1:-0.688122 2:-0.605477 3:-0.941579 4:-0.668355 5:-0.350725 6:-0.0273248 7:-0.68637 8:-0.43667 
8 0 0 1:-0.762757 2:-0.783714 3:-0.965367 4:-0.733744 5:-0.576015 6:-0.56018 7:-0.888356 8:-0.578129 
8 0 0 1:-0.792408 2:-0.787 3:-0.971517 4:-0.768693 5:-0.544194 6:-0.556856 7:-0.874523 8:-0.543504 
8 0 0 1:-0.693758 2:-0.697414 3:-0.946502 4:-0.662397 5:-0.356433 6:-0.338094 7:-0.748542 8:-0.380554 
2.68985478801631 0 0 1:-0.773119 2:-0.707674 3:-0.965692 4:-0.755392 5:-0.55664 6:-0.298918 7:-0.854055 8:-0.602964 
8 0 0 1:-0.8138 2:-0.799535 3:-0.975798 4:-0.792878 5:-0.701785 6:-0.61664 7:-0.938026 8:-0.706627 
8 0 0 1:-0.793766 2:-0.795528 3:-0.971952 4:-0.769441 5:-0.623949 6:-0.573013 7:-0.908403 8:-0.628188 
8 0 0 1:-0.78942 2:-0.799723 3:-0.971157 4:-0.763953 5:-0.566999 6:-0.569059 7:-0.885352 8:-0.56638 
8 0 0 1:-0.797578 2:-0.820799 3:-0.97318 4:-0.771179 5:-0.618475 6:-0.602774 7:-0.908428 8:-0.617316 
8 0 0 1:-0.781061 2:-0.81181 3:-0.96978 4:-0.752394 5:-0.631445 6:-0.600776 7:-0.913152 8:-0.631937 
8 0 0 1:-0.763117 2:-0.83345 3:-0.966482 4:-0.728798 5:-0.530183 6:-0.538813 7:-0.866609 8:-0.531322 
8 0 0 1:-0.740543 2:-0.773466 3:-0.960195 4:-0.708535 5:-0.511057 6:-0.570845 7:-0.860636 8:-0.504575 
8 0 0 1:-0.580278 2:-0.587353 3:-0.907579 4:-0.543129 5:-0.32558 6:-0.165276 7:-0.697589 8:-0.382575 
8 0 0 1:-0.406412 2:-0.567771 3:-0.837665 4:-0.339547 5:0.24441 6:-0.0389108 7:-0.134034 8:0.196563 
8 5.403677404324897 0 1:-0.721065 2:-0.715763 3:-0.954001 4:-0.692505 5:-0.50651 6:-0.366586 7:-0.837337 8:-0.536201 
8 0 0 1:-0.688587 2:-0.693881 3:-0.945051 4:-0.656456 5:-0.525499 6:-0.337064 7:-0.843332 8:-0.560538 
8 0 0 1:-0.696598 2:-0.727923 3:-0.948275 4:-0.661501 5:-0.623378 6:-0.505258 7:-0.903247 8:-0.638802 
8 8 0 1:-0.731456 2:-0.781233 3:-0.958335 4:-0.696526 5:-0.591171 6:-0.623415 7:-0.899195 8:-0.584166 
8 0 0 1:-0.729705 2:-0.770887 3:-0.957626 4:-0.695867 5:-0.473241 6:-0.574322 7:-0.842899 8:-0.462011 
8 0 0 1:-0.627318 2:-0.713203 3:-0.92841 4:-0.580524 5:-0.566859 6:-0.505197 7:-0.87994 8:-0.576911 
8 8 0 1:-0.669101 2:-0.673575 3:-0.939008 4:-0.635559 5:-0.694284 6:-0.641802 7:-0.937041 8:-0.694426 
8 0 0 1:-0.805461 2:-0.817215 3:-0.974593 4:-0.780995 5:-0.681978 6:-0.592902 7:-0.93035 8:-0.68843 
8 0 0 1:-0.809489 2:-0.797619 3:-0.974965 4:-0.787995 5:-0.691753 6:-0.582425 7:-0.932966 8:-0.700731 
6.176863957810536 0 0 1:-0.785571 2:-0.750163 3:-0.969344 4:-0.764804 5:-0.53844 6:-0.351988 7:-0.85144 8:-0.572757 
8 0 0 1:-0.783743 2:-0.758585 3:-0.969165 4:-0.761665 5:-0.547056 6:-0.551135 7:-0.875224 8:-0.547121 
8 0 0 1:-0.784608 2:-0.764164 3:-0.969472 4:-0.762092 5:-0.558769 6:-0.550284 7:-0.880331 8:-0.56053 
8 0 0 1:-0.830773 2:-0.824056 3:-0.979213 4:-0.810547 5:-0.65652 6:-0.610435 7:-0.92273 8:-0.657885 
8 0 0 1:-0.76415 2:-0.761474 3:-0.965106 4:-0.738213 5:-0.669644 6:-0.584354 7:-0.925602 8:-0.676537 
0.5635297865049086 0 0 1:-0.736839 2:-0.772573 3:-0.959278 4:-0.704418 5:-0.544322 6:-0.568619 7:-0.875569 8:-0.541005 
8 0 0 1:-0.795857 2:-0.778182 3:-0.972001 4:-0.773868 5:-0.512774 6:-0.553003 7:-0.859929 8:-0.509607 
8 8 0 1:-0.740939 2:-0.781053 3:-0.960478 4:-0.708064 5:-0.525503 6:-0.340886 7:-0.843729 8:-0.561784 
8 0 0 1:-0.694008 2:-0.744604 3:-0.948115 4:-0.656303 5:-0.433316 6:-0.303944 7:-0.789492 8:-0.468255 
8 0 0 1:-0.583662 2:-0.667264 3:-0.91269 4:-0.535076 5:-0.17294 6:-0.113859 7:-0.570756 8:-0.233665 
0 0.2307738722509085 0.3099474796902347 1:-0.149782 2:-0.523027 3:-0.698124 4:-0.0409474 5:0.358199 6:-0.166072 7:-0.0491264 8:0.358171 
8 0 0 1:-0.215019 2:-0.498071 3:-0.733984 4:-0.123831 5:0.287269 6:-0.121308 7:-0.116266 8:0.266742 
8 0 0 1:-0.461115 2:-0.613525 3:-0.864352 4:-0.397008 5:-0.115914 6:-0.288237 7:-0.565455 8:-0.130213 
8 0 0 1:-0.411758 2:-0.607123 3:-0.842832 4:-0.339228 5:-0.107874 6:-0.233497 7:-0.546218 8:-0.134599 
8 0 0 1:-0.487759 2:-0.669605 3:-0.878251 4:-0.420111 5:-0.221761 6:-0.345893 7:-0.658956 8:-0.231691 
7.006696775309277 0 0 1:-0.491887 2:-0.630272 3:-0.877657 4:-0.431029 5:0.018461 6:-0.181907 7:-0.420087 8:-0.00921965 
4.731275237957853 0 0 1:-0.515314 2:-0.654392 3:-0.88795 4:-0.455409 5:-0.105615 6:-0.249243 7:-0.547905 8:-0.128383 
8 0 0 1:-0.564445 2:-0.684152 3:-0.906789 4:-0.51034 5:-0.256073 6:-0.358306 7:-0.685393 8:-0.267177 
8 0 0 1:-0.575556 2:-0.660371 3:-0.909608 4:-0.526621 5:-0.181095 6:-0.347167 7:-0.629084 8:-0.187275 
8 0 0 1:-0.533251 2:-0.620281 3:-0.892737 4:-0.482077 5:-0.224469 6:-0.222217 7:-0.636356 8:-0.263563 
8 0 0 1:-0.415496 2:-0.63103 3:-0.846142 4:-0.33964 5:-0.216384 6:-0.340496 7:-0.653997 8:-0.22754 
8 8 0 1:-0.746642 2:-0.780287 3:-0.96177 4:-0.714622 5:-0.682923 6:-0.667608 7:-0.934733 8:-0.678045 
8 8 0 1:-0.783873 2:-0.803105 3:-0.970156 4:-0.756722 5:-0.725773 6:-0.690031 7:-0.948783 8:-0.721945 
8 8 0 1:-0.779472 2:-0.822708 3:-0.969679 4:-0.749271 5:-0.789774 6:-0.735482 7:-0.966997 8:-0.786435 
8 0 0 1:-0.617835 2:-0.666542 3:-0.923624 4:-0.574661 5:-0.604306 6:-0.484666 7:-0.893956 8:-0.620856 
8 8 0 1:-0.596976 2:-0.725138 3:-0.919465 4:-0.542521 5:-0.441091 6:-0.517928 7:-0.820908 8:-0.436735 
8 8 0 1:-0.578701 2:-0.813008 3:-0.916744 4:-0.509805 5:-0.653288 6:-0.56891 7:-0.918989 8:-0.66033 
8 8 0 1:-0.627299 2:-0.776301 3:-0.930655 4:-0.572306 5:-0.614939 6:-0.490827 7:-0.898759 8:-0.630409 
8 0 0 1:-0.853222 2:-0.845423 3:-0.983178 4:-0.835229 5:-0.71129 6:-0.562862 7:-0.938098 8:-0.723965 
8 0 0 1:-0.831381 2:-0.816834 3:-0.979188 4:-0.811973 5:-0.72708 6:-0.612803 7:-0.94557 8:-0.734365 
8 0 0 1:-0.655623 2:-0.689317 3:-0.93574 4:-0.616829 5:-0.686759 6:-0.513482 7:-0.927026 8:-0.704729 
8 0 0 1:-0.487336 2:-0.681473 3:-0.878676 4:-0.417309 5:-0.73626 6:-0.452222 7:-0.939319 8:-0.765435 
8 0 1.466316929417621 1:-0.469441 2:-0.638424 3:-0.869254 4:-0.400863 5:-0.760459 6:-0.432477 7:-0.945559 8:-0.796561 
8 0 7.606652553892878 1:-0.643137 2:-0.611589 3:-0.928938 4:-0.612164 5:-0.711119 6:-0.435254 7:-0.929986 8:-0.743319 
0 8 0 1:-0.731611 2:-0.857981 3:-0.960135 4:-0.688165 5:-0.755112 6:-0.592545 7:-0.952567 8:-0.767975 
8 2.735935210674947 0 1:-0.755708 2:-0.762233 3:-0.963322 4:-0.727882 5:-0.509071 6:-0.351574 7:-0.836824 8:-0.541996 
8 0 0 1:-0.890792 2:-0.82981 3:-0.988387 4:-0.881594 5:-0.789249 6:-0.637975 7:-0.963442 8:-0.798284 
8 0 6.124734536141188 1:-0.887937 2:-0.822934 3:-0.987916 4:-0.878876 5:-0.80476 6:-0.688127 7:-0.968888 8:-0.808769 
8 8 0 1:-0.811559 2:-0.834235 3:-0.975998 4:-0.786516 5:-0.798361 6:-0.710318 7:-0.96816 8:-0.799142 
8 6.863240674712408 0 1:-0.481655 2:-0.475779 3:-0.863274 4:-0.440262 5:-0.468205 6:-0.300927 7:-0.808667 8:-0.508281 
8 0 0 1:-0.346494 2:-0.632534 3:-0.814687 4:-0.256659 5:-0.187546 6:-0.347155 7:-0.633955 8:-0.193816 
8 0 0 1:-0.629821 2:-0.629549 3:-0.925618 4:-0.595611 5:-0.228629 6:-0.184178 7:-0.631284 8:-0.276181 
4.230940027982383 0 0 1:-0.709816 2:-0.754654 3:-0.952413 4:-0.673908 5:-0.630185 6:0.00829663 7:-0.851066 8:-0.714829 
8 8 8 1:-0.60965 2:-0.805887 3:-0.9263 4:-0.54757 5:-0.879447 6:-0.730174 7:-0.984587 8:-0.885258 
8 8 8 1:-0.585048 2:-0.854718 3:-0.92017 4:-0.51243 5:-0.882501 6:-0.780681 7:-0.986084 8:-0.883176 
0 8 0 1:-0.683407 2:-0.893871 3:-0.949251 4:-0.626685 5:-0.831619 6:-0.72338 7:-0.975689 8:-0.833765 
0 8 0 1:-0.723343 2:-0.866274 3:-0.958407 4:-0.677369 5:-0.667346 6:-0.564541 7:-0.923633 8:-0.676898 
1.719031587581186 0 0 1:-0.752814 2:-0.827241 3:-0.964205 4:-0.716804 5:-0.631673 6:-0.5541 7:-0.910055 8:-0.639194 
8 0 0 1:-0.803915 2:-0.815881 3:-0.97428 4:-0.779279 5:-0.736432 6:-0.634194 7:-0.949305 8:-0.741658 
8 0 0 1:-0.835184 2:-0.818692 3:-0.979865 4:-0.816407 5:-0.751479 6:-0.584113 7:-0.951178 8:-0.764939 
8 0 0 1:-0.695031 2:-0.745031 3:-0.94835 4:-0.656869 5:-0.730683 6:-0.46875 7:-0.938567 8:-0.75934 
8 0 8 1:-0.699265 2:-0.692966 3:-0.947824 4:-0.668684 5:-0.795017 6:-0.633673 7:-0.964636 8:-0.805663 
8 8 0 1:-0.608345 2:-0.808537 3:-0.926003 4:-0.545549 5:-0.845324 6:-0.702061 7:-0.977802 8:-0.85143 
8 8 0 1:-0.734397 2:-0.765417 3:-0.958611 4:-0.701792 5:-0.828511 6:-0.705836 7:-0.974557 8:-0.832692 
8 0 0 1:-0.845284 2:-0.848472 3:-0.981978 4:-0.825383 5:-0.795864 6:-0.697432 7:-0.967166 8:-0.797913 
8 8 0 1:-0.699665 2:-0.755891 3:-0.949903 4:-0.661551 5:-0.715779 6:-0.688881 7:-0.945832 8:-0.711092 
8 8 0 1:-0.773784 2:-0.786979 3:-0.967771 4:-0.746378 5:-0.74293 6:-0.675386 7:-0.952955 8:-0.742886 
8 0 0 1:-0.73456 2:-0.789814 3:-0.959267 4:-0.699131 5:-0.755991 6:-0.615847 7:-0.953915 8:-0.764993 
8 0 0 1:-0.661557 2:-0.640832 3:-0.93558 4:-0.630992 5:-0.550346 6:-0.536515 7:-0.875483 8:-0.553736 
8 8 0 1:-0.518156 2:-0.743787 3:-0.893339 4:-0.445513 5:-0.583338 6:-0.46803 7:-0.88375 8:-0.601479 
8 0 0 1:-0.401856 2:-0.698681 3:-0.844353 4:-0.312291 5:-0.614215 6:-0.487801 7:-0.898229 8:-0.631593 
8 3.799064571802134 0 1:-0.373759 2:-0.682359 3:-0.830809 4:-0.280633 5:-0.599404 6:-0.571828 7:-0.898865 8:-0.601414 
8 0 0 1:-0.512729 2:-0.720869 3:-0.89031 4:-0.442129 5:-0.635876 6:-0.456705 7:-0.904252 8:-0.660048 
0.8991744168162134 3.895747040753189 0 1:-0.589618 2:-0.773862 3:-0.918968 4:-0.527433 5:-0.712528 6:-0.449111 7:-0.931418 8:-0.742807 
8 5.636168831453507 0 1:-0.470381 2:-0.755063 3:-0.87579 4:-0.386765 5:-0.750703 6:-0.595763 7:-0.951495 8:-0.762592 
8 0 0 1:-0.65412 2:-0.780293 3:-0.938497 4:-0.604051 5:-0.266651 6:-0.470306 7:-0.710903 8:-0.2544 
5.070481228708753 0 0 1:-0.513857 2:-0.66396 3:-0.887913 4:-0.451894 5:0.163577 6:-0.294334 7:-0.30925 8:0.179216 
8 0 0 1:-0.561371 2:-0.655004 3:-0.904556 4:-0.510223 5:0.0816218 6:-0.334791 7:-0.401497 8:0.099104 
6.82475718652783 0 0 1:-0.605865 2:-0.640317 3:-0.918651 4:-0.565746 5:-0.221266 6:-0.24155 7:-0.63804 8:-0.255221 
8 0 0 1:-0.609467 2:-0.656942 3:-0.920572 4:-0.567459 5:-0.0789035 6:-0.22069 7:-0.518444 8:-0.105095 
1.410310729644745 0 0.1384712631304978 1:-0.662513 2:-0.761019 3:-0.940213 4:-0.616481 5:-0.0763313 6:-0.417795 7:-0.560394 8:-0.0556753 
0.4943842430027817 0 0 1:-0.657725 2:-0.793803 3:-0.9399 4:-0.606751 5:-0.0701291 6:-0.315182 7:-0.533464 8:-0.0729713 
8 0 0 1:-0.463491 2:-0.581959 3:-0.863268 4:-0.405163 5:0.132837 6:-0.163737 7:-0.301172 8:0.110471 
8 0 0 1:-0.531299 2:-0.566982 3:-0.888948 4:-0.488398 5:0.11653 6:-0.18756 7:-0.325474 8:0.0993667 
0 1.945486092235724 0 1:-0.595997 2:-0.722562 3:-0.919056 4:-0.541954 5:-0.221268 6:-0.375197 7:-0.663942 8:-0.224367 
8 0 0 1:-0.607162 2:-0.6952 3:-0.921454 4:-0.55914 5:-0.389875 6:-0.537085 7:-0.795209 8:-0.37701 
8 1.694000466394399 0 1:-0.79759 2:-0.80134 3:-0.972806 4:-0.773313 5:-0.594955 6:-0.40083 7:-0.88248 8:-0.625922 
8 0 0 1:-0.781422 2:-0.786042 3:-0.969285 4:-0.755873 5:-0.608762 6:-0.583577 7:-0.903384 8:-0.609805 
8 0 0 1:-0.607308 2:-0.680933 3:-0.920906 4:-0.561513 5:-0.140625 6:-0.197719 7:-0.564842 8:-0.178955 
6.79875599863639 0.2186948894017699 0.1562084053772865 1:-0.653048 2:-0.723997 3:-0.936321 4:-0.610058 5:0.234541 6:-0.208674 7:-0.207147 8:0.234497 
4.497636510122887 0 0 1:-0.534726 2:-0.664964 3:-0.895566 4:-0.477079 5:0.264764 6:-0.17898 7:-0.163186 8:0.259523 
8 8 0 1:-0.355016 2:-0.619574 3:-0.817834 4:-0.268931 5:-0.337962 6:-0.411722 7:-0.748208 8:-0.345106 
2.756473067072239 0.2899283004147727 0.2303041387506492 1:-0.173604 2:-0.322936 3:-0.688195 4:-0.10939 5:0.192096 6:0.253262 7:-0.0681824 8:0.0801888 
8 0 0 1:-0.774209 2:-0.80487 3:-0.968223 4:-0.745083 5:-0.668059 6:-0.581238 7:-0.924939 8:-0.675173 
8 0 0 1:-0.663699 2:-0.506313 3:-0.930015 4:-0.653815 5:-0.539545 6:-0.423465 7:-0.859791 8:-0.561937 
8 0 0 1:-0.646843 2:-0.519798 3:-0.925633 4:-0.632154 5:-0.560614 6:-0.386951 7:-0.865744 8:-0.590432 
8 0 0 1:-0.80469 2:-0.795416 3:-0.974037 4:-0.782479 5:-0.727394 6:-0.575528 7:-0.943738 8:-0.740402 
8 0 0 1:-0.787386 2:-0.779066 3:-0.970358 4:-0.763583 5:-0.679992 6:-0.581791 7:-0.929037 8:-0.68807 
8 0 0 1:-0.757904 2:-0.80242 3:-0.964728 4:-0.725844 5:-0.632157 6:-0.571975 7:-0.911476 8:-0.637229 
8 0 0 1:-0.702825 2:-0.753898 3:-0.950628 4:-0.665693 5:-0.591834 6:-0.449167 7:-0.885656 8:-0.614327 
8 0.3364031022849172 0 1:-0.600682 2:-0.65715 3:-0.917788 4:-0.556719 5:-0.283007 6:-0.27527 7:-0.689292 8:-0.313285 
8 0 0 1:-0.652864 2:-0.735979 3:-0.936702 4:-0.608139 5:-0.38785 6:-0.346713 7:-0.769095 8:-0.411881 
8 8 0 1:-0.68217 2:-0.784094 3:-0.946213 4:-0.637112 5:-0.567441 6:-0.534893 7:-0.88275 8:-0.572402 
8 0 0 1:-0.754919 2:-0.755256 3:-0.96299 4:-0.727386 5:-0.587238 6:-0.571794 7:-0.89391 8:-0.588135 
0 0.2016954420803495 0 1:-0.810062 2:-0.858234 3:-0.976119 4:-0.782382 5:-0.667394 6:-0.684586 7:-0.930575 8:-0.658431 
8 0 0 1:-0.794199 2:-0.818914 3:-0.972492 4:-0.767336 5:-0.637235 6:-0.615415 7:-0.916184 8:-0.635745 
3.806244272279055 0 0 1:-0.851279 2:-0.88543 3:-0.983419 4:-0.829048 5:-0.615381 6:-0.588897 7:-0.906319 8:-0.615979 
8 0 0 1:-0.850438 2:-0.872304 3:-0.983117 4:-0.829281 5:-0.754452 6:-0.664646 7:-0.955617 8:-0.757104 
8 0 0 1:-0.830418 2:-0.830667 3:-0.979231 4:-0.809549 5:-0.756165 6:-0.704798 7:-0.95762 8:-0.7537 
8 0 0 1:-0.799712 2:-0.792324 3:-0.973005 4:-0.776937 5:-0.747794 6:-0.552241 7:-0.94851 8:-0.765749 
8 0 0 1:-0.795183 2:-0.728842 3:-0.970746 4:-0.778888 5:-0.687281 6:-0.577911 7:-0.931235 8:-0.695899 
8 0 0 1:-0.610828 2:-0.644305 3:-0.920425 4:-0.570889 5:-0.332227 6:-0.280859 7:-0.723573 8:-0.366701 
8 8 0 1:-0.58254 2:-0.651905 3:-0.911603 4:-0.535996 5:-0.390612 6:-0.241278 7:-0.75414 8:-0.436822 
0 2.479529851405214 0 1:-0.64815 2:-0.746416 3:-0.935715 4:-0.601108 5:-0.475753 6:-0.374156 7:-0.822368 8:-0.501187 
8 0 0 1:-0.634335 2:-0.67008 3:-0.928785 4:-0.595174 5:-0.457733 6:-0.390047 7:-0.814767 8:-0.479998 
8 0 0 1:-0.647697 2:-0.679772 3:-0.93315 4:-0.609697 5:-0.36718 6:-0.427556 7:-0.768269 8:-0.373738 
8 0.3558395351691781 0 1:-0.72821 2:-0.765774 3:-0.957063 4:-0.695005 5:-0.376571 6:-0.478387 7:-0.780566 8:-0.373233 
4.157852808828087 0 0 1:-0.716084 2:-0.753769 3:-0.953823 4:-0.682011 5:-0.276087 6:-0.263672 7:-0.682268 8:-0.309521 
8 0 0 1:-0.629893 2:-0.645557 3:-0.926348 4:-0.593529 5:-0.231869 6:-0.293398 7:-0.656261 8:-0.254165 
8 8 0 1:-0.734012 2:-0.803043 3:-0.959458 4:-0.697008 5:-0.722279 6:-0.667029 7:-0.946742 8:-0.721452 
8 8 0 1:-0.730057 2:-0.783945 3:-0.958073 4:-0.694509 5:-0.681843 6:-0.624681 7:-0.932131 8:-0.683257 
8 8 0 1:-0.660224 2:-0.75364 3:-0.939355 4:-0.614619 5:-0.687499 6:-0.636062 7:-0.934484 8:-0.688139 
8 8 0 1:-0.674422 2:-0.788759 3:-0.944262 4:-0.627449 5:-0.686309 6:-0.615139 7:-0.933057 8:-0.689807 
8 8 3.130894698891409 1:-0.587348 2:-0.574297 3:-0.909285 4:-0.552884 5:-0.694373 6:-0.562671 7:-0.932651 8:-0.70621 
8 8 0 1:-0.65667 2:-0.662209 3:-0.935055 4:-0.622422 5:-0.653974 6:-0.639596 7:-0.923576 8:-0.650271 
8 8 0 1:-0.448419 2:-0.58435 3:-0.857168 4:-0.386454 5:-0.548157 6:-0.541009 7:-0.874917 8:-0.550302 
8 0 0 1:-0.340299 2:-0.662174 3:-0.813804 4:-0.244481 5:-0.490996 6:-0.400032 7:-0.833422 8:-0.513334 
8 0.4166655563147047 0.16163845843791 1:-0.129929 2:-0.539406 3:-0.687731 4:-0.0132606 5:-0.397901 6:-0.228781 7:-0.756557 8:-0.444129 
6.178619084333062 7.940898071246109 0.2442531137282806 1:0.146839 2:-0.55372 3:-0.495365 4:0.320898 5:-0.325179 6:-0.303625 7:-0.722857 8:-0.354096 
8 8 0.1891540295457312 1:-0.0833515 2:-0.47529 3:-0.650657 4:0.0294364 5:-0.343026 6:-0.425098 7:-0.753287 8:-0.34762 
8 0 0.2670061685703667 1:-0.705196 2:-0.64707 3:-0.947756 4:-0.682652 5:-0.31007 6:0.0424938 7:-0.640224 8:-0.413108 
8 0 0 1:-0.53439 2:-0.561315 3:-0.889773 4:-0.492611 5:-0.0335336 6:0.0474954 7:-0.398418 8:-0.115243 
8 0 0 1:-0.576399 2:-0.564063 3:-0.905 4:-0.54228 5:-0.186805 6:-0.217995 7:-0.606564 8:-0.222485 
8 0 0 1:-0.749048 2:-0.79389 3:-0.962627 4:-0.716143 5:-0.594985 6:-0.475363 7:-0.889314 8:-0.612752 
8 0 0 1:-0.76229 2:-0.832464 3:-0.966313 4:-0.727778 5:-0.608439 6:-0.525496 7:-0.898931 8:-0.618671 
8 0 0 1:-0.657615 2:-0.6777 3:-0.935927 4:-0.621073 5:-0.645278 6:-0.521915 7:-0.912828 8:-0.659869 
6.727633967395909 0.9550325641243858 0 1:-0.719444 2:-0.702866 3:-0.953241 4:-0.691956 5:-0.73546 6:-0.38571 7:-0.934683 8:-0.774457 
8 8 8 1:-0.848079 2:-0.836702 3:-0.982251 4:-0.829795 5:-0.875747 6:-0.78606 7:-0.985118 8:-0.87496 
8 8 8 1:-0.833378 2:-0.854936 3:-0.980125 4:-0.810502 5:-0.923036 6:-0.824561 7:-0.992424 8:-0.922935 
0 0 4.889554944344267 1:-0.668729 2:-0.519977 3:-0.93227 4:-0.657538 5:-0.776865 6:-0.259615 7:-0.939468 8:-0.83031 
0.3988690070679319 3.772015983012996 0 1:-0.431135 2:-0.501329 3:-0.843696 4:-0.379727 5:-0.372878 6:0.107875 7:-0.67176 8:-0.478292 
0.4969626960495235 0.3566948950001151 0.5108053743996811 1:-0.384683 2:-0.668115 3:-0.834857 4:-0.296525 5:-0.520495 6:0.238535 7:-0.747066 8:-0.625828 
8 5.067106587342701 0 1:-0.539981 2:-0.744099 3:-0.901184 4:-0.471705 5:-0.815279 6:-0.557432 7:-0.966494 8:-0.836414 
8 8 0 1:-0.795047 2:-0.823306 3:-0.972736 4:-0.767861 5:-0.842181 6:-0.695339 7:-0.976971 8:-0.848974 
8 0 0 1:-0.837326 2:-0.869811 3:-0.980999 4:-0.81374 5:-0.838946 6:-0.698343 7:-0.976447 8:-0.844898 
0 7.272472478432146 0 1:-0.819562 2:-0.82303 3:-0.977245 4:-0.797222 5:-0.783919 6:-0.509239 7:-0.956358 8:-0.810152 
0 8 4.787010304772503 1:-0.679884 2:-0.77577 3:-0.945371 4:-0.634911 5:-0.792412 6:-0.507642 7:-0.958523 8:-0.818916 
8 8 0 1:-0.689911 2:-0.72213 3:-0.946338 4:-0.654016 5:-0.734418 6:-0.717756 7:-0.952348 8:-0.727544 
8 0.1892027847053661 0 1:-0.829119 2:-0.784863 3:-0.97823 4:-0.812879 5:-0.741257 6:-0.668637 7:-0.952209 8:-0.741912 
8 0 0 1:-0.795039 2:-0.815301 3:-0.972593 4:-0.768702 5:-0.807687 6:-0.676714 7:-0.969147 8:-0.813675 
8 0 0 1:-0.813654 2:-0.814372 3:-0.975996 4:-0.791392 5:-0.600541 6:-0.568245 7:-0.899049 8:-0.603244 
8 0 0 1:-0.689144 2:-0.643042 3:-0.943356 4:-0.664047 5:-0.420074 6:-0.425 7:-0.79854 8:-0.432041 
8 0 0 1:-0.705453 2:-0.631478 3:-0.947256 4:-0.684759 5:-0.441607 6:-0.424301 7:-0.81033 8:-0.455375 
8 0.285085622807268 0 1:-0.704141 2:-0.712877 3:-0.949697 4:-0.672575 5:-0.395641 6:-0.407607 7:-0.782341 8:-0.40869 
0 0.3611560244636482 0.277325762521072 1:-0.557178 2:-0.602699 3:-0.900368 4:-0.512848 5:0.381143 6:0.233713 7:0.164923 8:0.270052 
2.0089363210627 0.5027834767662315 0.3149678412004884 1:-0.590212 2:-0.568616 3:-0.909838 4:-0.557488 5:0.178151 6:0.365973 7:-0.0294054 8:0.0297436 
8 0 0 1:-0.731079 2:-0.780711 3:-0.958085 4:-0.696874 5:-0.382703 6:-0.339644 7:-0.764922 8:-0.40783 
8 0 0 1:-0.70803 2:-0.748173 3:-0.951685 4:-0.673068 5:-0.409134 6:-0.318712 7:-0.777565 8:-0.441778 
8 0 0 1:-0.754966 2:-0.775419 3:-0.96348 4:-0.725406 5:-0.536483 6:-0.53418 7:-0.869111 8:-0.538597 
8 0 0 1:-0.583074 2:-0.54739 3:-0.906277 4:-0.55302 5:-0.380838 6:-0.155102 7:-0.732739 8:-0.44625 
8 0 0 1:-0.567957 2:-0.582587 3:-0.903015 4:-0.529528 5:-0.282443 6:-0.157372 7:-0.665437 8:-0.340444 
8 0 0 1:-0.531779 2:-0.442448 3:-0.880852 4:-0.508691 5:-0.0678052 6:-0.00779017 7:-0.449033 8:-0.132191 
8 2.653663018767938 0 1:-0.738413 2:-0.78056 3:-0.959868 4:-0.705236 5:-0.648659 6:-0.609826 7:-0.919925 8:-0.64936 
8 0 0 1:-0.74166 2:-0.790574 3:-0.960893 4:-0.707683 5:-0.527239 6:-0.570075 7:-0.868065 8:-0.522229 
0.9904293281697754 4.019640765498218 0 1:-0.727619 2:-0.754707 3:-0.956734 4:-0.695173 5:-0.480459 6:-0.600071 7:-0.848799 8:-0.465521 
8 4.783478522486184 0 1:-0.776105 2:-0.762362 3:-0.967691 4:-0.752162 5:-0.508654 6:-0.600265 7:-0.862151 8:-0.496547 
8 0 0 1:-0.814761 2:-0.774172 3:-0.975484 4:-0.796878 5:-0.580156 6:-0.58601 7:-0.892148 8:-0.577673 
8 0 0 1:-0.838996 2:-0.869022 3:-0.981226 4:-0.816096 5:-0.598619 6:-0.497727 7:-0.892711 8:-0.61326 
8 0 0 1:-0.752852 2:-0.77368 3:-0.962991 4:-0.722989 5:-0.540741 6:-0.428372 7:-0.860832 8:-0.562904 
8 0 0 1:-0.808875 2:-0.814555 3:-0.97515 4:-0.785529 5:-0.644616 6:-0.650949 7:-0.920982 8:-0.638269 
8 0 0 1:-0.721434 2:-0.78719 3:-0.956107 4:-0.68393 5:-0.567617 6:-0.55252 7:-0.88429 8:-0.56945 
8 8 0 1:-0.793759 2:-0.776111 3:-0.971538 4:-0.771653 5:-0.697519 6:-0.65147 7:-0.938554 8:-0.696332 
8 8 0 1:-0.76383 2:-0.748125 3:-0.964745 4:-0.7393 5:-0.681668 6:-0.653385 7:-0.933621 8:-0.678656 
8 8 0 1:-0.649362 2:-0.7403 3:-0.935848 4:-0.603439 5:-0.575987 6:-0.55981 7:-0.888411 8:-0.576991 
7.492283514505266 0 0 1:-0.676363 2:-0.718115 3:-0.942602 4:-0.638655 5:-0.583835 6:-0.535916 7:-0.889748 8:-0.590212 
8 0 0 1:-0.767074 2:-0.801948 3:-0.966703 4:-0.736732 5:-0.612075 6:-0.618681 7:-0.907075 8:-0.607434 
8 8 0 1:-0.760505 2:-0.739382 3:-0.963813 4:-0.736325 5:-0.639913 6:-0.604339 7:-0.916473 8:-0.64024 
8 8 0 1:-0.598426 2:-0.697279 3:-0.918809 4:-0.547564 5:-0.730059 6:-0.592504 7:-0.945426 8:-0.740433 
8 0 0 1:-0.567353 2:-0.579183 3:-0.902657 4:-0.528929 5:-0.0562033 6:-0.189604 7:-0.49066 8:-0.0884716 
6.011755335255982 0.1110938440458283 0.1281874765607109 1:-0.484754 2:-0.411403 3:-0.859532 4:-0.460475 5:0.0965327 6:-0.158561 7:-0.336722 8:0.0690506 
2.126296141475892 0 0 1:-0.440318 2:-0.455927 3:-0.84408 4:-0.399877 5:0.170183 6:-0.0726193 7:-0.23029 8:0.125994 
4.343179183367986 0 0 1:-0.374071 2:-0.42007 3:-0.810211 4:-0.32868 5:0.23685 6:0.0219533 7:-0.118051 8:0.17173 
8 0 0.01420616645800927 1:-0.513563 2:-0.402345 3:-0.870681 4:-0.495155 5:-0.0629053 6:0.0262636 7:-0.433393 8:-0.149512 
8 0 0 1:-0.68242 2:-0.678099 3:-0.942799 4:-0.6516 5:-0.427487 6:-0.407643 7:-0.800474 8:-0.443388 
8 0 0 1:-0.557912 2:-0.658427 3:-0.903529 4:-0.50561 5:-0.184657 6:-0.406664 7:-0.64283 8:-0.17774 
8 0 0 1:-0.595005 2:-0.676336 3:-0.916801 4:-0.547277 5:-0.191962 6:-0.177863 7:-0.60147 8:-0.238191 
8 0 0 1:-0.438284 2:-0.701329 3:-0.860054 4:-0.356048 5:0.1728 6:-0.2047 7:-0.272494 8:0.165115 
6.788216149411267 0 0 1:-0.396152 2:-0.5569 3:-0.832276 4:-0.328453 5:0.450096 6:0.0873097 7:0.180846 8:0.385073 
8 0 0 1:-0.25495 2:-0.458169 3:-0.752199 4:-0.178509 5:0.573567 6:0.073978 7:0.346209 8:0.524039 
8 0 0.08825041898379347 1:-0.260782 2:-0.5279 3:-0.7624 4:-0.172649 5:0.379307 6:-0.177183 7:-0.0278592 8:0.385002 
8 0 0 1:-0.406781 2:-0.632166 3:-0.842384 4:-0.329071 5:-0.0145281 6:-0.351507 7:-0.49339 8:-0.0036926 
8 0 0 1:-0.551219 2:-0.606137 3:-0.898473 4:-0.505378 5:-0.273278 6:-0.452817 7:-0.712611 8:-0.265487 
8 0 0 1:-0.463876 2:-0.67281 3:-0.86899 4:-0.390965 5:-0.13578 6:-0.200425 7:-0.561365 8:-0.17197 
0 8 0.05904994648286146 1:-0.500603 2:-0.766711 3:-0.887847 4:-0.421715 5:-0.293316 6:-0.266741 7:-0.694848 8:-0.326529 
0 1.212847202007614 0 1:-0.379757 2:-0.656471 3:-0.831877 4:-0.292737 5:0.0201449 6:-0.200725 7:-0.423837 8:-0.00299753 
8 0 0 1:-0.506459 2:-0.597524 3:-0.881356 4:-0.453573 5:-0.220803 6:-0.148168 7:-0.617172 8:-0.27577 
8 0 0 1:-0.515897 2:-0.487669 3:-0.877932 4:-0.483697 5:0.0282118 6:-0.0890817 7:-0.382806 8:-0.0234693 
7.705624989171099 0 0 1:-0.335297 2:-0.496966 3:-0.798231 4:-0.267243 5:-0.0529822 6:-0.0273732 7:-0.441173 8:-0.125405 
8 8 0 1:-0.249868 2:-0.616849 3:-0.764424 4:-0.143637 5:-0.272906 6:-0.3265 7:-0.691564 8:-0.290146 
8 8 0 1:-0.397656 2:-0.605296 3:-0.836516 4:-0.322135 5:-0.23389 6:-0.339338 7:-0.666477 8:-0.245903 
8 8 0 1:-0.475239 2:-0.672271 3:-0.873502 4:-0.404627 5:-0.345302 6:-0.358685 7:-0.744716 8:-0.363595 
8 8 0 1:-0.087635 2:-0.508089 3:-0.657423 4:0.0320606 5:-0.424988 6:-0.460649 7:-0.80552 8:-0.430655 
8 0 0 1:-0.223409 2:-0.616808 3:-0.749984 4:-0.111409 5:-0.382373 6:-0.371548 7:-0.76945 8:-0.402194 
2.864149925292986 0.306128845484618 0.2141144213690107 1:-0.391397 2:-0.364664 3:-0.813225 4:-0.358712 5:0.356558 6:0.223941 7:0.12664 8:0.240112 
8 0 0 1:-0.610364 2:-0.71306 3:-0.923178 4:-0.560609 5:-0.467667 6:-0.415195 7:-0.823146 8:-0.485837 
8 8 0 1:-0.795489 2:-0.803992 3:-0.972456 4:-0.770544 5:-0.651596 6:-0.660957 7:-0.923957 8:-0.644618 
8 0 0 1:-0.820313 2:-0.835097 3:-0.97759 4:-0.796858 5:-0.680184 6:-0.655728 7:-0.933253 8:-0.676772 
8 8 0 1:-0.791775 2:-0.83941 3:-0.972265 4:-0.763097 5:-0.684095 6:-0.687503 7:-0.936117 8:-0.676479 
6.598430777611584 0 0 1:-0.840149 2:-0.846987 3:-0.981131 4:-0.819393 5:-0.727837 6:-0.677917 7:-0.948842 8:-0.725844 
5.667607361765042 8 4.744715621979847 1:-0.834465 2:-0.83769 3:-0.98004 4:-0.813627 5:-0.703333 6:-0.743734 7:-0.944519 8:-0.68987 
8 0 0 1:-0.623628 2:-0.692581 3:-0.926487 4:-0.579148 5:-0.343405 6:-0.33886 7:-0.740456 8:-0.366131 
8 0 0 1:-0.603867 2:-0.669664 3:-0.91935 4:-0.558882 5:-0.440602 6:-0.352377 7:-0.80045 8:-0.469235 
8 0 0 1:-0.538885 2:-0.668966 3:-0.897334 4:-0.481325 5:-0.262348 6:-0.38358 7:-0.694249 8:-0.267491 
8 0 0 1:-0.669113 2:-0.660839 3:-0.938536 4:-0.637892 5:-0.424804 6:-0.437824 7:-0.802805 8:-0.434666 
8 0 0 1:-0.784995 2:-0.778558 3:-0.96987 4:-0.760716 5:-0.591151 6:-0.523241 7:-0.891732 8:-0.600594 
0 8 0 1:-0.71668 2:-0.763171 3:-0.954343 4:-0.681071 5:-0.55959 6:-0.614717 7:-0.885377 8:-0.551268 
8 0 0 1:-0.668429 2:-0.678263 3:-0.938971 4:-0.634782 5:-0.421493 6:-0.406011 7:-0.796906 8:-0.436683 
8 8 0 1:-0.627325 2:-0.608498 3:-0.92394 4:-0.59559 5:-0.514478 6:-0.567755 7:-0.862034 8:-0.508331 
8 8 0 1:-0.638867 2:-0.677696 3:-0.930456 4:-0.599312 5:-0.51788 6:-0.602556 7:-0.866557 8:-0.50625 
8 8 0 1:-0.730534 2:-0.795439 3:-0.95843 4:-0.693976 5:-0.613475 6:-0.604725 7:-0.906663 8:-0.611343 
8 0 0 1:-0.731445 2:-0.771483 3:-0.957793 4:-0.699031 5:-0.645168 6:-0.566799 7:-0.915922 8:-0.652194 
8 0 0 1:-0.679011 2:-0.640198 3:-0.940429 4:-0.652122 5:-0.441037 6:-0.327217 7:-0.797143 8:-0.472803 
8 0 0 1:-0.65635 2:-0.672335 3:-0.935267 4:-0.621304 5:-0.397055 6:-0.389379 7:-0.780664 8:-0.41424 
8 0 0 1:-0.732239 2:-0.743871 3:-0.957518 4:-0.702021 5:-0.461426 6:-0.557005 7:-0.835353 8:-0.452425 
8 0 0 1:-0.687708 2:-0.655894 3:-0.943434 4:-0.660195 5:-0.465493 6:-0.452283 7:-0.826348 8:-0.476547 
8 0 0 1:-0.734729 2:-0.824982 3:-0.960135 4:-0.695301 5:-0.449267 6:-0.574971 7:-0.831014 8:-0.435511 
8 1.695593380832442 0 1:-0.700877 2:-0.828206 3:-0.952153 4:-0.654502 5:-0.535899 6:-0.524199 7:-0.867922 8:-0.540169 
8 8 0 1:-0.523055 2:-0.697401 3:-0.893001 4:-0.458141 5:-0.56486 6:-0.545574 7:-0.882537 8:-0.568087 
8 8 0 1:-0.622205 2:-0.710989 3:-0.926743 4:-0.574864 5:-0.588013 6:-0.536019 7:-0.891455 8:-0.595147 
8 8 0 1:-0.618092 2:-0.697533 3:-0.924984 4:-0.571882 5:-0.5985 6:-0.571387 7:-0.898394 8:-0.600554 
8 8 0 1:-0.598457 2:-0.734142 3:-0.920307 4:-0.543275 5:-0.600797 6:-0.49809 7:-0.893484 8:-0.615896 
2.345949840843384 0 0 1:-0.381871 2:-0.472193 3:-0.818711 4:-0.32671 5:0.0580304 6:0.198642 7:-0.247486 8:-0.044698 
8 0.1466710830354956 0.01166193070775459 1:-0.190417 2:-0.552693 3:-0.72528 4:-0.084105 5:0.495802 6:-0.0425001 7:0.178797 8:0.472045 
4.33764489240018 0 0 1:-0.230131 2:-0.448396 3:-0.737193 4:-0.151844 5:0.309399 6:-0.139118 7:-0.0970271 8:0.296648 
8 0 0 1:-0.286079 2:-0.440878 3:-0.767271 4:-0.220027 5:0.164456 6:-0.134901 7:-0.257983 8:0.136614 
8 0 0 1:-0.333961 2:-0.558479 3:-0.802938 4:-0.254379 5:-0.0120187 6:-0.28427 7:-0.475392 8:-0.0167606 
6.381559007152661 2.325628034694849 0 1:-0.292643 2:-0.555853 3:-0.781816 4:-0.205485 5:0.119049 6:-0.234364 7:-0.337088 8:0.114245 
8 0 0 1:-0.374848 2:-0.588941 3:-0.824847 4:-0.298188 5:0.17485 6:-0.257339 7:-0.286564 8:0.181446 
8 0 0 1:-0.42719 2:-0.56557 3:-0.84667 4:-0.364977 5:-0.0101412 6:-0.215496 7:-0.455564 8:-0.0326534 
8 3.459535813014269 0 1:-0.409257 2:-0.555513 3:-0.838045 4:-0.345289 5:0.00782282 6:-0.262932 7:-0.452101 8:-0.000537402 
8 4.304567582730303 0 1:-0.722881 2:-0.705502 3:-0.954145 4:-0.695902 5:-0.609539 6:-0.380487 7:-0.886752 8:-0.643312 
8 0 0 1:-0.872844 2:-0.859235 3:-0.986279 4:-0.857362 5:-0.7542 6:-0.710625 7:-0.957364 8:-0.750387 
8 0 0 1:-0.820033 2:-0.810502 3:-0.977108 4:-0.799159 5:-0.686635 6:-0.590917 7:-0.931782 8:-0.693458 
8 0 0 1:-0.778671 2:-0.804784 3:-0.969131 4:-0.750437 5:-0.638461 6:-0.611284 7:-0.916393 8:-0.63761 
8 8 0 1:-0.827534 2:-0.832578 3:-0.978794 4:-0.805823 5:-0.800764 6:-0.780459 7:-0.970781 8:-0.793011 
8 0 0 1:-0.819493 2:-0.823489 3:-0.977249 4:-0.797104 5:-0.761592 6:-0.667157 7:-0.957586 8:-0.76464 
8 0 0 1:-0.837819 2:-0.829846 3:-0.980484 4:-0.818337 5:-0.758871 6:-0.654289 7:-0.956367 8:-0.763447 
8 0.565538833766374 0 1:-0.889392 2:-0.870951 3:-0.988676 4:-0.876085 5:-0.787861 6:-0.748124 7:-0.966918 8:-0.78264 
8 8 8 1:-0.9078 2:-0.899841 3:-0.991287 4:-0.895471 5:-0.832871 6:-0.827109 7:-0.978426 8:-0.823227 
0 8 8 1:-0.891213 2:-0.884746 3:-0.989061 4:-0.877012 5:-0.818849 6:-0.860171 7:-0.976408 8:-0.804255 
8 8 8 1:-0.899262 2:-0.905778 3:-0.990284 4:-0.884947 5:-0.846793 6:-0.855959 7:-0.981541 8:-0.835701 
8 8 8 1:-0.895197 2:-0.924468 3:-0.989971 4:-0.878337 5:-0.838007 6:-0.847619 7:-0.979776 8:-0.826647 
8 8 0 1:-0.868079 2:-0.902286 3:-0.986111 4:-0.847678 5:-0.860287 6:-0.827389 7:-0.983317 8:-0.853804 
8 8 0 1:-0.886209 2:-0.887427 3:-0.988441 4:-0.870739 5:-0.850678 6:-0.793608 7:-0.980984 8:-0.846695 
8 8 8 1:-0.852662 2:-0.770708 3:-0.981896 4:-0.842074 5:-0.831247 6:-0.802704 7:-0.977601 8:-0.824077 
8 8 8 1:-0.834443 2:-0.780889 3:-0.979089 4:-0.819273 5:-0.825069 6:-0.828278 7:-0.976962 8:-0.814582 
6.654725449167262 8 8 1:-0.873131 2:-0.841568 3:-0.986089 4:-0.859421 5:-0.834357 6:-0.821367 7:-0.978603 8:-0.825615 
8 0 0 1:-0.730511 2:-0.689402 3:-0.955511 4:-0.705988 5:-0.671361 6:-0.450024 7:-0.917115 8:-0.696628 
8 8 0 1:-0.617363 2:-0.7454 3:-0.926597 4:-0.564237 5:-0.489806 6:-0.562762 7:-0.849938 8:-0.482504 
3.710683778540107 0 0 1:-0.661964 2:-0.764451 3:-0.940176 4:-0.615431 5:-0.370014 6:-0.549992 7:-0.785407 8:-0.352483 
8 8 0 1:-0.517394 2:-0.720166 3:-0.891994 4:-0.447323 5:-0.463658 6:-0.470635 7:-0.827483 8:-0.469701 
8 8 0 1:-0.492766 2:-0.737741 3:-0.883607 4:-0.415537 5:-0.66068 6:-0.612372 7:-0.924283 8:-0.662075 
8 8 0 1:-0.574856 2:-0.71317 3:-0.911785 4:-0.517615 5:-0.68919 6:-0.579207 7:-0.931933 8:-0.69824 
8 8 0 1:-0.526076 2:-0.751199 3:-0.896548 4:-0.454014 5:-0.686913 6:-0.670349 7:-0.936165 8:-0.681992 
8 8 0 1:-0.587028 2:-0.744277 3:-0.917041 4:-0.528145 5:-0.652644 6:-0.657929 7:-0.924177 8:-0.646122 
8 8 0 1:-0.68633 2:-0.778308 3:-0.947134 4:-0.642833 5:-0.651037 6:-0.580657 7:-0.918946 8:-0.656484 
0 8 0 1:-0.678273 2:-0.836586 3:-0.946562 4:-0.6266 5:-0.711385 6:-0.547204 7:-0.937161 8:-0.72734 
8 0 0 1:-0.667112 2:-0.754841 3:-0.941295 4:-0.622792 5:-0.613012 6:-0.505598 7:-0.899123 8:-0.627251 
8 0 0 1:-0.797805 2:-0.819233 3:-0.973081 4:-0.772244 5:-0.651434 6:-0.617662 7:-0.921395 8:-0.651016 
0 8 0 1:-0.872977 2:-0.882685 3:-0.986583 4:-0.855293 5:-0.772013 6:-0.754944 7:-0.963356 8:-0.764383 
8 0 0 1:-0.859013 2:-0.818763 3:-0.98368 4:-0.844868 5:-0.775337 6:-0.678825 7:-0.961558 8:-0.777766 
8 8 0 1:-0.811242 2:-0.807991 3:-0.97549 4:-0.788899 5:-0.739309 6:-0.688797 7:-0.952502 8:-0.736849 
0 8 0 1:-0.830132 2:-0.8471 3:-0.979429 4:-0.807653 5:-0.781569 6:-0.73624 7:-0.965078 8:-0.777372 
0.6407786431717581 0.4104188204924365 0.3649531430067693 1:-0.529574 2:-0.740757 3:-0.897299 4:-0.459987 5:-0.187169 6:-0.526095 7:-0.664349 8:-0.154731 
8 0 0 1:-0.816025 2:-0.836953 3:-0.97685 4:-0.791554 5:-0.776088 6:-0.69785 7:-0.962413 8:-0.77627 
8 0 0 1:-0.810666 2:-0.796658 3:-0.975171 4:-0.789426 5:-0.729535 6:-0.60735 7:-0.946017 8:-0.73775 
8 0 0 1:-0.824063 2:-0.783168 3:-0.977326 4:-0.806796 5:-0.699538 6:-0.642052 7:-0.938699 8:-0.700113 
0 8 0 1:-0.866 2:-0.897754 3:-0.985764 4:-0.845569 5:-0.746919 6:-0.762302 7:-0.957332 8:-0.735626 
8 8 0 1:-0.658712 2:-0.747122 3:-0.938723 4:-0.613664 5:-0.616215 6:-0.613508 7:-0.908287 8:-0.612823 
8 0 0 1:-0.543236 2:-0.688642 3:-0.899837 4:-0.483551 5:-0.260859 6:-0.352155 7:-0.687835 8:-0.273029 
8 0 0 1:-0.641268 2:-0.685796 3:-0.931491 4:-0.601025 5:-0.382405 6:-0.323541 7:-0.762281 8:-0.411125 
8 8 0.4488615152196566 1:-0.775074 2:-0.787193 3:-0.968008 4:-0.7482 5:-0.604892 6:-0.655664 7:-0.906717 8:-0.593711 
-8 8 0 1:-0.735886 2:-0.790301 3:-0.95928 4:-0.702157 5:-0.629471 6:-0.636213 7:-0.91466 8:-0.62411 
-8 8 0 1:-0.676056 2:-0.764207 3:-0.943752 4:-0.633348 5:-0.530587 6:-0.581541 7:-0.870423 8:-0.524564 
-8 0 0 1:-0.676943 2:-0.715782 3:-0.942589 4:-0.640094 5:-0.570291 6:-0.494967 7:-0.880543 8:-0.583187 
-8 0 0 1:-0.723076 2:-0.757069 3:-0.955688 4:-0.689592 5:-0.661638 6:-0.544675 7:-0.920352 8:-0.674108 
-8 0 0 1:-0.707239 2:-0.799985 3:-0.953019 4:-0.665309 5:-0.594728 6:-0.568353 7:-0.896694 8:-0.597075 
-8 8 0 1:-0.689324 2:-0.806441 3:-0.94867 4:-0.643136 5:-0.625618 6:-0.551947 7:-0.907595 8:-0.633515 
-8 8 0 1:-0.683695 2:-0.767128 3:-0.945837 4:-0.642255 5:-0.674588 6:-0.555339 7:-0.925574 8:-0.686452 
-8 0 0 1:-0.691141 2:-0.746535 3:-0.947192 4:-0.653572 5:-0.652088 6:-0.547737 7:-0.917131 8:-0.663186 
-8 8 0 1:-0.711433 2:-0.788638 3:-0.953663 4:-0.67206 5:-0.674294 6:-0.622222 7:-0.929489 8:-0.675593 
-8 8 0 1:-0.706573 2:-0.774405 3:-0.952137 4:-0.667634 5:-0.658274 6:-0.620869 7:-0.923631 8:-0.65922 
-8 8 0 1:-0.721426 2:-0.803823 3:-0.956488 4:-0.682112 5:-0.73757 6:-0.643898 7:-0.949957 8:-0.742036 
-8 8 0 1:-0.730594 2:-0.830877 3:-0.959227 4:-0.690223 5:-0.782678 6:-0.716716 7:-0.964714 8:-0.781197 
-8 8 0 1:-0.683431 2:-0.741895 3:-0.945157 4:-0.644331 5:-0.676003 6:-0.577241 7:-0.927424 8:-0.684362 
-8 8 0 1:-0.600174 2:-0.701475 3:-0.919151 4:-0.551211 5:-0.566624 6:-0.553819 7:-0.883948 8:-0.568867 
-8 8 0 1:-0.56701 2:-0.721434 3:-0.909275 4:-0.508136 5:-0.606947 6:-0.543113 7:-0.89957 8:-0.614612 
-8 8 0 1:-0.626329 2:-0.750059 3:-0.92914 4:-0.575779 5:-0.68017 6:-0.585312 7:-0.929098 8:-0.688404 
-8 8 0 1:-0.693325 2:-0.823271 3:-0.950093 4:-0.646183 5:-0.634105 6:-0.576977 7:-0.912403 8:-0.639043 
-8 0 0 1:-0.718247 2:-0.809399 3:-0.955843 4:-0.677807 5:-0.586306 6:-0.568453 7:-0.893304 8:-0.587427 
-8 0 0 1:-0.740931 2:-0.783308 3:-0.960339 4:-0.70869 5:-0.632303 6:-0.566847 7:-0.911186 8:-0.638254 
-8 8 0 1:-0.71028 2:-0.810741 3:-0.953998 4:-0.667872 5:-0.687316 6:-0.557585 7:-0.929896 8:-0.700257 
-8 8 0 1:-0.662939 2:-0.777171 3:-0.940493 4:-0.616315 5:-0.636072 6:-0.568642 7:-0.912665 8:-0.642429 
-8 8 0 1:-0.660908 2:-0.735117 3:-0.938539 4:-0.619355 5:-0.622557 6:-0.617697 7:-0.910766 8:-0.620015 
-8 0 0 1:-0.58035 2:-0.657099 3:-0.911101 4:-0.532623 5:-0.379046 6:-0.0375874 7:-0.707856 8:-0.463384 
-8 0 0 1:-0.580249 2:-0.637926 3:-0.910057 4:-0.535649 5:-0.247836 6:-0.0972746 7:-0.626207 8:-0.315277 
-8 0 0 1:-0.649694 2:-0.699862 3:-0.934492 4:-0.609192 5:-0.36918 6:-0.391042 7:-0.764157 8:-0.383827 
-8 0 0 1:-0.61146 2:-0.663936 3:-0.921428 4:-0.569064 5:-0.308782 6:-0.454164 7:-0.735962 8:-0.304019 
-8 0 0 1:-0.703894 2:-0.642314 3:-0.947218 4:-0.682044 5:-0.491544 6:-0.436427 7:-0.837728 8:-0.507578 
-8 0 0 1:-0.568918 2:-0.64959 3:-0.906851 4:-0.520067 5:-0.580738 6:-0.509197 7:-0.885936 8:-0.592101 
-8 0 0 1:-0.562163 2:-0.633271 3:-0.903731 4:-0.514712 5:-0.270216 6:-0.371193 7:-0.697554 8:-0.279936 
-0 0.02469405693765143 0.09361821990311445 1:-0.389155 2:-0.370576 3:-0.812254 4:-0.354614 5:-0.231331 6:-0.321409 7:-0.659911 8:-0.25038 
-7.558097749155378 2.480439663443016 0 1:-0.505011 2:-0.38752 3:-0.866022 4:-0.487777 5:-0.158979 6:0.120655 7:-0.492092 8:-0.27244 
-8 0 0 1:-0.433171 2:-0.520416 3:-0.846062 4:-0.379621 5:0.156088 6:-0.241651 7:-0.300851 8:0.155447 
-8 0 0 1:-0.618396 2:-0.618675 3:-0.921654 4:-0.583856 5:-0.11212 6:-0.277417 7:-0.559792 8:-0.129129 
-8 0 0 1:-0.593821 2:-0.678226 3:-0.916511 4:-0.545566 5:-0.354525 6:-0.425783 7:-0.760361 8:-0.36076 
-8 8 0 1:-0.677865 2:-0.788541 3:-0.945127 4:-0.631719 5:-0.612376 6:-0.622832 7:-0.907261 8:-0.607819 
-6.296569952561481 8 0 1:-0.522909 2:-0.490647 3:-0.880852 4:-0.48773 5:-0.536206 6:-0.42168 7:-0.85714 8:-0.560695 
-8 0 0 1:-0.730764 2:-0.782085 3:-0.958141 4:-0.69584 5:-0.52189 6:-0.447293 7:-0.852139 8:-0.542055 
-8 4.135640568282206 0 1:-0.707283 2:-0.777109 3:-0.952366 4:-0.668343 5:-0.519201 6:-0.438911 7:-0.848968 8:-0.542168 
-8 0 0 1:-0.719258 2:-0.785051 3:-0.955124 4:-0.683385 5:-0.507859 6:-0.540173 7:-0.856011 8:-0.507324 
-8 0 0 1:-0.718718 2:-0.763306 3:-0.954768 4:-0.683813 5:-0.468238 6:-0.548837 7:-0.837338 8:-0.462677 
-8 0 0 1:-0.66805 2:-0.62203 3:-0.936504 4:-0.642728 5:-0.198484 6:-0.131718 7:-0.595441 8:-0.254945 
-8 0 0 1:-0.538344 2:-0.659738 3:-0.896593 4:-0.482345 5:0.116582 6:-0.197735 7:-0.328556 8:0.101876 
-8 0 0 1:-0.490229 2:-0.620713 3:-0.876464 4:-0.43056 5:0.0433293 6:-0.278341 7:-0.422785 8:0.0411102 
-8 0 0 1:-0.402951 2:-0.574743 3:-0.836574 4:-0.334306 5:0.130909 6:-0.158709 7:-0.300846 8:0.104765 
-8 0 0 1:-0.516229 2:-0.589318 3:-0.884611 4:-0.466723 5:-0.079499 6:-0.097163 7:-0.486123 8:-0.137479 
-8 0 0 1:-0.701317 2:-0.791414 3:-0.951305 4:-0.659333 5:-0.351421 6:-0.434157 7:-0.75948 8:-0.355728 
-8 0 0 1:-0.757332 2:-0.817408 3:-0.9648 4:-0.724199 5:-0.367082 6:-0.490015 7:-0.776339 8:-0.361453 
-8 0 0 1:-0.747717 2:-0.805446 3:-0.962447 4:-0.714006 5:-0.453292 6:-0.467469 7:-0.821659 8:-0.460551 
-8 0 0 1:-0.684853 2:-0.783971 3:-0.946858 4:-0.640647 5:-0.518211 6:-0.470842 7:-0.854595 8:-0.530929 
-8 8 0 1:-0.591956 2:-0.729501 3:-0.918048 4:-0.536203 5:-0.499896 6:-0.412613 7:-0.838388 8:-0.523503 
-8 0.0884900730689923 0 1:-0.598097 2:-0.696231 3:-0.918623 4:-0.548326 5:-0.474168 6:-0.430631 7:-0.828156 8:-0.490557 
-8 0 0 1:-0.667163 2:-0.714507 3:-0.939964 4:-0.628133 5:-0.446369 6:-0.409004 7:-0.810839 8:-0.464695 
-8 0 0 1:-0.669172 2:-0.748176 3:-0.941608 4:-0.626235 5:-0.418773 6:-0.39195 7:-0.793037 8:-0.438843 
-8 0 0 1:-0.698867 2:-0.764702 3:-0.949956 4:-0.6596 5:-0.517242 6:-0.469798 7:-0.853207 8:-0.531469 
-8 0 0 1:-0.63392 2:-0.669298 3:-0.928656 4:-0.594797 5:-0.411508 6:-0.320812 7:-0.779281 8:-0.444402 
-8 8 0 1:-0.54929 2:-0.685513 3:-0.901824 4:-0.491316 5:-0.364984 6:-0.315354 7:-0.750005 8:-0.395999 
-8 0 0 1:-0.571636 2:-0.686294 3:-0.909524 4:-0.51799 5:-0.412433 6:-0.437466 7:-0.795763 8:-0.421658 
-8 0 0 1:-0.586439 2:-0.564638 3:-0.908235 4:-0.555002 5:-0.0935206 6:-0.00771444 7:-0.472695 8:-0.168558 
-0.3498589612609093 0 0.2575229414409019 1:-0.668852 2:-0.552437 3:-0.933673 4:-0.654142 5:-0.162066 6:0.0374068 7:-0.520396 8:-0.249558 
-8 0 0 1:-0.738709 2:-0.767172 3:-0.959628 4:-0.707009 5:-0.481196 6:-0.539001 7:-0.843462 8:-0.477585 
-8 0 0 1:-0.71702 2:-0.781566 3:-0.954918 4:-0.679243 5:-0.524189 6:-0.511217 7:-0.861356 8:-0.529891 
-8 0 0 1:-0.721793 2:-0.767413 3:-0.955685 4:-0.68665 5:-0.56197 6:-0.554279 7:-0.881899 8:-0.563722 
-5.39358477190255 0 0 1:-0.225416 2:-0.376804 3:-0.726246 4:-0.15899 5:-0.492308 6:-0.310497 7:-0.822829 8:-0.532846 
-8 0 0 1:-0.536973 2:-0.716406 3:-0.898891 4:-0.472172 5:-0.152265 6:-0.211388 7:-0.57754 8:-0.188655 
-8 0 0 1:-0.414436 2:-0.661291 3:-0.847537 4:-0.333741 5:0.122214 6:-0.103874 7:-0.282663 8:0.0736547 
-8 0 0 1:-0.328837 2:-0.648957 3:-0.807377 4:-0.232964 5:0.0864507 6:-0.214284 7:-0.362526 8:0.0709305 
-8 0 0 1:-0.35935 2:-0.592048 3:-0.817865 4:-0.279078 5:0.0722447 6:-0.274785 7:-0.393055 8:0.0709785 
-8 0 0 1:-0.380691 2:-0.608164 3:-0.828739 4:-0.302477 5:0.323374 6:-0.0560066 7:-0.0458109 8:0.285153 
-8 0.1214696629142783 0.04713145900452701 1:-0.372904 2:-0.651682 3:-0.828388 4:-0.285451 5:0.461778 6:-0.0268948 7:0.142371 8:0.427483 
-8 0 0 1:-0.487001 2:-0.637316 3:-0.876032 4:-0.424543 5:0.236739 6:-0.164781 7:-0.188645 8:0.22272 
-8 0 0.05080326355581326 1:-0.551522 2:-0.665496 3:-0.901385 4:-0.497797 5:0.129221 6:-0.31578 7:-0.349863 8:0.146012 
-8 0 0 1:-0.497438 2:-0.65376 3:-0.881078 4:-0.434282 5:0.134264 6:-0.214147 7:-0.315466 8:0.124391 
-8 0 0 1:-0.424842 2:-0.624524 3:-0.849789 4:-0.351881 5:0.189733 6:-0.169782 7:-0.242106 8:0.17227 
-7.076201484193888 0 0 1:-0.344624 2:-0.609707 3:-0.812157 4:-0.258411 5:0.384333 6:-0.00559245 7:0.050032 8:0.337907 
-8 0 0 1:-0.356401 2:-0.596642 3:-0.816731 4:-0.274942 5:0.252629 6:0.0144703 7:-0.0976251 8:0.185698 
-8 0 0 1:-0.441148 2:-0.615048 3:-0.856127 4:-0.372974 5:0.0621255 6:-0.151593 7:-0.365095 8:0.0255263 
-8 0 0 1:-0.45299 2:-0.583346 3:-0.858805 4:-0.392859 5:0.186354 6:-0.155236 7:-0.24151 8:0.165802 
-8 0 0 1:-0.441536 2:-0.552204 3:-0.852008 4:-0.38414 5:0.066251 6:-0.209722 7:-0.381546 8:0.0482883 
-8 2.368804551078146 0 1:-0.352341 2:-0.497446 3:-0.806752 4:-0.287692 5:0.158996 6:-0.111984 7:-0.253689 8:0.121389 
-8 0 0 1:-0.299033 2:-0.51988 3:-0.781745 4:-0.220424 5:0.260388 6:-0.144578 7:-0.155803 8:0.243719 
-5.246391223030415 0 0.1438399909442859 1:-0.260655 2:-0.568943 3:-0.765852 4:-0.165565 5:0.38799 6:-0.107371 7:0.0124488 8:0.370895 
-8 0 0 1:-0.22043 2:-0.537029 3:-0.740579 4:-0.123593 5:0.660007 6:0.022856 7:0.449424 8:0.627582 
