svm_type c_svc
kernel_type rbf
gamma 8
nr_class 4
total_sv 1033
rho 0.0574346 -0.333142 -0.373082 -0.38957 -0.535113 -0.25179
label 2 3 4 1
probA -3.36368 -4.68857 -4.4988 -1.9416 -3.72314 -4.6924
probB -0.231898 0.64973 -0.163822 -0.686812 0.0693463 0.190069
nr_sv 224 456 262 91
SV
8 0.3634877687326999 0.2701147657787287 1:-0.286579 2:-0.540691 3:-0.776677 4:-0.201951 5:-0.389325 6:-0.1365 7:-0.734811 8:-0.45681 9:-1 10:-1 11:-1 12:1 
8 0 0 1:-0.422196 2:-0.687846 3:-0.852489 4:-0.338911 5:-0.11839 6:-0.263518 7:-0.559812 8:-0.141406 9:-1 10:-1 11:-1 12:1 
0.5882267981499837 0.3714522573132165 0.3485336393948896 1:-0.286282 2:-0.525995 3:-0.77575 4:-0.203842 5:0.677446 6:-0.133859 7:0.389941 8:0.699173 9:-1 10:-1 11:1 12:-1 
0.1403019303443272 0.08869706030667583 0.08260884210666006 1:-0.0637955 2:-0.470945 3:-0.637183 4:0.0514111 5:0.755386 6:-0.0253439 7:0.564584 8:0.749845 9:-1 10:-1 11:1 12:-1 
0.08106634423479318 0 0.04968593496797915 1:-0.0331624 2:-0.482271 3:-0.617985 4:0.0905781 5:0.17426 6:0.0354374 7:-0.180094 8:0.0945119 9:-1 10:-1 11:1 12:-1 
0 0 0.0008515372080316176 1:-0.237813 2:-0.596868 3:-0.755426 4:-0.134249 5:0.115259 6:-0.00836743 7:-0.265107 8:0.049301 9:-1 10:-1 11:1 12:-1 
0 0.007470246256090243 0 1:-0.464666 2:-0.609652 3:-0.865254 4:-0.402585 5:0.173029 6:0.0414682 7:-0.183407 8:0.0996744 9:-1 10:-1 11:1 12:-1 
0.2912965850504823 0.1839024798533025 0.1703991542407968 1:-0.450552 2:-0.507486 3:-0.852605 4:-0.402669 5:0.575524 6:0.232225 7:0.44142 8:0.469412 9:-1 10:-1 11:1 12:-1 
3.938233630040394 0.2638199948453152 0.2507207015980681 1:-0.217336 2:-0.468304 3:-0.732141 4:-0.128226 5:-0.0944345 6:-0.309345 7:-0.552161 8:-0.102172 9:-1 10:-1 11:-1 12:1 
1.115016084496254 0.4728305768865959 0.4443993564007523 1:0.299138 2:-0.696142 3:-0.388173 4:0.529295 5:-0.255401 6:-0.33094 7:-0.680203 8:-0.273031 9:-1 10:-1 11:-1 12:1 
1.369815665440119 0.662626616328615 0.623172360817644 1:0.182831 2:-0.603333 3:-0.473394 4:0.373413 5:0.121657 6:0.130664 7:-0.202181 8:0.0134086 9:-1 10:-1 11:-1 12:1 
1.057937399866454 0.6667374631116645 0.6264410903317217 1:-0.0822792 2:-0.496944 3:-0.652619 4:0.0345557 5:0.895044 6:0.264496 7:0.983461 8:0.803062 9:-1 10:-1 11:-1 12:1 
8 0.08638199482569098 8 1:-0.567375 2:-0.58838 3:-0.903169 4:-0.526092 5:-0.758726 6:-0.688065 7:-0.95764 8:-0.758541 9:-1 10:-1 11:-1 12:1 
0.0681579748607941 0.06998916517813394 0.04465042727154747 1:-0.593018 2:-0.600307 3:-0.91254 4:-0.556307 5:-0.0568174 6:0.0872797 7:-0.40776 8:-0.155097 9:-1 10:-1 11:1 12:-1 
0.1073132314198469 0.06625193043608398 0.06343680545453943 1:-0.375362 2:-0.598308 3:-0.825176 4:-0.298682 5:0.674318 6:0.0483022 7:0.480492 8:0.637134 9:-1 10:-1 11:1 12:-1 
0.9030545247653158 0.569553031762892 0.5349834231437864 1:-0.256864 2:-0.563393 3:-0.763476 4:-0.161812 5:1 6:0.0246517 7:1 8:1 9:-1 10:-1 11:1 12:-1 
0.2070140630073994 0.1314949261905665 0.1245705283036215 1:-0.261334 2:-0.516429 3:-0.761153 4:-0.176289 5:0.632626 6:0.23279 7:0.530447 8:0.529616 9:-1 10:-1 11:1 12:-1 
0.4943563164542245 0.3116333587800643 0.2925933794164707 1:-0.220168 2:-0.46223 3:-0.732783 4:-0.137461 5:0.765945 6:0.242657 7:0.749071 8:0.669626 9:-1 10:-1 11:1 12:-1 
0 0.6931637594721552 0 1:-0.503366 2:-0.739164 3:-0.887672 4:-0.428694 5:-0.528683 6:-0.404063 7:-0.852361 8:-0.555176 9:-1 10:-1 11:1 12:-1 
0.7850857446947266 0.493721612129202 0.4665942552077874 1:-0.506779 2:-0.555723 3:-0.878933 4:-0.461069 5:-0.230791 6:0.526712 7:-0.416399 8:-0.428114 9:-1 10:-1 11:1 12:-1 
0.2200527710292044 0.1020081715586273 0.1298482493058741 1:-0.469381 2:-0.499649 3:-0.859936 4:-0.426494 5:-0.000227875 6:0.422016 7:-0.210547 8:-0.177823 9:-1 10:-1 11:1 12:-1 
0.02561466926062278 0 0 1:-0.371413 2:-0.477357 3:-0.814073 4:-0.314148 5:-0.160701 6:-0.275658 7:-0.595282 8:-0.18534 9:-1 10:-1 11:1 12:-1 
8 0.1237476406984645 0.1339380765920452 1:-0.281195 2:-0.668906 3:-0.784959 4:-0.172338 5:-0.249792 6:-0.384136 7:-0.685035 8:-0.255345 9:-1 10:-1 11:-1 12:1 
5.27390184756977 0.07914265667658596 0 1:-0.441763 2:-0.728712 3:-0.86299 4:-0.356178 5:-0.33288 6:-0.393257 7:-0.742223 8:-0.34389 9:-1 10:-1 11:-1 12:1 
8 0 0 1:-0.426437 2:-0.641121 3:-0.85143 4:-0.351378 5:-0.308771 6:-0.334813 7:-0.717099 8:-0.33017 9:-1 10:-1 11:-1 12:1 
0 0 0.8996784778952469 1:-0.621644 2:-0.677598 3:-0.925266 4:-0.578947 5:-0.653241 6:-0.671168 7:-0.925022 8:-0.64521 9:-1 10:-1 11:1 12:-1 
0.3935186924836788 0.1867739990136463 0.2328169629535714 1:-0.21061 2:-0.559528 3:-0.737162 4:-0.107835 5:0.0356136 6:0.278032 7:-0.237093 8:-0.11179 9:-1 10:-1 11:1 12:-1 
0.06415839080148383 0.1092263268764639 0.0385561726194137 1:-0.421532 2:-0.413306 3:-0.83189 4:-0.383556 5:-0.0586443 6:0.346565 7:-0.312142 8:-0.218727 9:-1 10:-1 11:1 12:-1 
0.003857712827462372 0 0.05300267613262372 1:-0.452879 2:-0.508032 3:-0.853525 4:-0.40551 5:-0.285093 6:-0.335634 7:-0.701416 8:-0.304671 9:-1 10:-1 11:1 12:-1 
0.5571042545893468 1.098796844912947 0.3898874512955577 1:-0.0616906 2:-0.74567 3:-0.664142 4:0.103056 5:-0.587173 6:-0.497991 7:-0.887984 8:-0.601022 9:-1 10:-1 11:1 12:-1 
0.8017996339522087 0.4985159665920689 0.4744743630985796 1:0.00762739 2:-0.644512 3:-0.608788 4:0.169987 5:0.0714045 6:0.312393 7:-0.18332 8:-0.060246 9:-1 10:-1 11:1 12:-1 
0.8416744242876646 0.5303245311428373 0.4989260275761432 1:0.0418562 2:-0.540417 3:-0.572698 4:0.192058 5:0.607022 6:0.0359296 7:0.374075 8:0.572459 9:-1 10:-1 11:1 12:-1 
0.455774218861707 1.063170085174968 0.2730045915287713 1:-0.0935173 2:-0.543087 3:-0.665207 4:0.0321809 5:-0.0664268 6:-0.122084 7:-0.481439 8:-0.112618 9:-1 10:-1 11:1 12:-1 
0.5607832250943553 1.525184712079374 0 1:-0.262874 2:-0.554766 3:-0.766029 4:-0.169099 5:-0.715245 6:-0.670018 7:-0.944832 8:-0.713366 9:-1 10:-1 11:1 12:-1 
0.06615312354211884 0 0.06187714641299497 1:-0.452348 2:-0.497354 3:-0.852547 4:-0.405869 5:-0.41354 6:-0.0641003 7:-0.736273 8:-0.497494 9:-1 10:-1 11:1 12:-1 
0.09271160947430683 0.01020011573332082 0.05193505619041312 1:-0.125774 2:-0.482273 3:-0.678706 4:-0.0198152 5:0.229305 6:-0.0762629 7:-0.165435 8:0.194167 9:-1 10:-1 11:1 12:-1 
0.2425397677738445 0.06219474599896656 0.1468238352022483 1:-0.339674 2:-0.333132 3:-0.783707 4:-0.3024 5:-0.173389 6:0.041504 7:-0.528837 8:-0.269823 9:-1 10:-1 11:1 12:-1 
0.5072255868973483 0 0.2812637274988028 1:0.126669 2:-0.643803 3:-0.522178 4:0.314636 5:-0.570687 6:-0.517078 7:-0.882641 8:-0.579535 9:-1 10:-1 11:1 12:-1 
0.6375647836729672 0 0.3782333535710745 1:0.227121 2:-0.690535 3:-0.448072 4:0.441691 5:-0.326394 6:-0.334268 7:-0.728733 8:-0.348942 9:-1 10:-1 11:1 12:-1 
0 0.001947339578406752 0 1:-0.448807 2:-0.618534 3:-0.859552 4:-0.3816 5:0.0913776 6:-0.0121439 7:-0.292798 8:0.0238495 9:-1 10:-1 11:1 12:-1 
0.114956941961534 0.06347583546944471 0.06828672422250766 1:-0.339884 2:-0.251985 3:-0.774673 4:-0.318946 5:0.179509 6:0.218682 7:-0.0995244 8:0.0632544 9:-1 10:-1 11:1 12:-1 
0 0.05516443613003107 0 1:-0.339814 2:-0.599068 3:-0.808361 4:-0.255941 5:0.0667925 6:-0.332265 7:-0.414448 8:0.0807089 9:-1 10:-1 11:1 12:-1 
0.1269959923850209 0.08850609952189142 0.07638374818438352 1:-0.291483 2:-0.403453 3:-0.766174 4:-0.233582 5:0.174734 6:-0.194102 7:-0.267027 8:0.163253 9:-1 10:-1 11:1 12:-1 
0 5.766671241008682 0 1:-0.663257 2:-0.758597 3:-0.940195 4:-0.618316 5:-0.613444 6:-0.597674 7:-0.905749 8:-0.613748 9:-1 10:-1 11:1 12:-1 
0.603823162250961 0.3691608782968504 0.3572422021549632 1:-0.676704 2:-0.421147 3:-0.929514 4:-0.680348 5:-0.000491433 6:0.346437 7:-0.249589 8:-0.139817 9:-1 10:-1 11:1 12:-1 
0.3630618501627441 0.1511668073465665 0.1877018733381697 1:-0.815776 2:-0.717858 3:-0.974478 4:-0.804474 5:-0.478409 6:-0.0312929 7:-0.771881 8:-0.568189 9:-1 10:-1 11:1 12:-1 
0.1323154188273946 0.08442621934665748 0.0930443296617398 1:-0.545873 2:-0.527779 3:-0.891968 4:-0.511737 5:0.670387 6:0.386349 7:0.692381 8:0.535392 9:-1 10:-1 11:1 12:-1 
0.7384308295134925 0.464868619941967 0.4240158447097555 1:-0.523842 2:-0.530165 3:-0.883859 4:-0.485534 5:0.684348 6:0.415437 7:0.736595 8:0.540375 9:-1 10:-1 11:1 12:-1 
0.3779005908905674 0 0.1934570615797066 1:-0.783058 2:-0.766523 3:-0.969212 4:-0.759854 5:-0.306703 6:-0.290266 7:-0.708252 8:-0.336036 9:-1 10:-1 11:1 12:-1 
0.3486286604982284 0.2267006599188928 0.207650915890999 1:-0.468394 2:-0.630441 3:-0.868315 4:-0.403122 5:0.471775 6:-0.0839092 7:0.127927 8:0.458637 9:-1 10:-1 11:1 12:-1 
0.06850085395594864 0 0.1852536477829409 1:-0.805704 2:-0.859941 3:-0.975375 4:-0.776874 5:-0.446105 6:-0.438324 7:-0.814471 8:-0.457461 9:-1 10:-1 11:1 12:-1 
0.0003027984717287651 0 0 1:-0.621739 2:-0.549045 3:-0.919289 4:-0.597112 5:-0.198152 6:-0.304295 7:-0.633515 8:-0.216149 9:-1 10:-1 11:1 12:-1 
0.4030462744941913 0.2366185390758307 0.2383856111454782 1:-0.603793 2:-0.599429 3:-0.916006 4:-0.569304 5:0.333647 6:-0.135436 7:-0.0667008 8:0.322546 9:-1 10:-1 11:1 12:-1 
0.4521832033714868 0.2095847278991797 0.2732873550581198 1:-0.702916 2:-0.773625 3:-0.951191 4:-0.663531 5:0.091337 6:-0.305197 7:-0.384392 8:0.102286 9:-1 10:-1 11:1 12:-1 
0.2862161428051961 0.1717932245021607 0.168005689718309 1:-0.683808 2:-0.67532 3:-0.943122 4:-0.653452 5:-0.0345583 6:-0.1065 7:-0.447856 8:-0.0851505 9:-1 10:-1 11:1 12:-1 
8 0 0 1:-0.632716 2:-0.763721 3:-0.931827 4:-0.580436 5:-0.688311 6:-0.642183 7:-0.935154 8:-0.687707 9:-1 10:-1 11:-1 12:1 
8 0.1278069207320858 8 1:-0.635617 2:-0.751941 3:-0.932281 4:-0.585361 5:-0.790326 6:-0.669328 7:-0.96488 8:-0.795651 9:-1 10:-1 11:-1 12:1 
0.7717954795035246 0.1481241494252355 0.05632382844135767 1:-0.551606 2:-0.595858 3:-0.89805 4:-0.507622 5:-0.474021 6:0.0234327 7:-0.759121 8:-0.565183 9:-1 10:-1 11:-1 12:1 
0.1825081259255248 0.06304572009456225 0.1073216748408416 1:-0.402322 2:-0.675861 3:-0.843172 4:-0.316766 5:-0.0481489 6:-0.0701532 7:-0.449625 8:-0.108911 9:-1 10:-1 11:1 12:-1 
8 0 0 1:-0.733009 2:-0.767966 3:-0.958355 4:-0.699964 5:-0.573352 6:-0.500038 7:-0.88231 8:-0.584989 9:-1 10:-1 11:-1 12:1 
8 0 0 1:-0.755866 2:-0.772378 3:-0.963605 4:-0.726866 5:-0.654459 6:-0.610245 7:-0.922021 8:-0.655132 9:-1 10:-1 11:-1 12:1 
8 0 0 1:-0.636656 2:-0.683706 3:-0.930049 4:-0.595816 5:-0.515661 6:-0.4061 7:-0.846454 8:-0.539832 9:-1 10:-1 11:-1 12:1 
8 0 0 1:-0.510071 2:-0.731891 3:-0.889856 4:-0.437662 5:-0.357341 6:-0.384877 7:-0.756239 8:-0.371816 9:-1 10:-1 11:-1 12:1 
8 0 0 1:-0.461098 2:-0.658741 3:-0.867062 4:-0.389809 5:-0.216743 6:-0.222335 7:-0.630559 8:-0.254502 9:-1 10:-1 11:-1 12:1 
0.5283481075156631 0 0 1:-0.347264 2:-0.499353 3:-0.80443 4:-0.281074 5:0.0606006 6:-0.096379 7:-0.353037 8:0.0134073 9:-1 10:-1 11:-1 12:1 
3.765549906660495 0.02845651829010627 0.02451480590531493 1:-0.361654 2:-0.476448 3:-0.809375 4:-0.301878 5:-0.0703777 6:-0.0918151 7:-0.476428 8:-0.125927 9:-1 10:-1 11:-1 12:1 
8 0 0 1:-0.456699 2:-0.613221 3:-0.862435 4:-0.391823 5:-0.166899 6:-0.129545 7:-0.569728 8:-0.222441 9:-1 10:-1 11:-1 12:1 
0 0.218683391843824 0.2016252585531579 1:-0.45256 2:-0.653675 3:-0.863251 4:-0.380204 5:0.209313 6:-0.303849 7:-0.264275 8:0.23191 9:-1 10:-1 11:-1 12:1 
1.738605429726552 0 0 1:-0.517455 2:-0.674481 3:-0.889776 4:-0.454912 5:-0.0982543 6:-0.336983 7:-0.561772 8:-0.0987666 9:-1 10:-1 11:-1 12:1 
8 0.3692284776375727 0.3647245763053792 1:-0.549704 2:-0.544112 3:-0.894369 4:-0.513223 5:-0.17599 6:0.0208999 7:-0.537162 8:-0.266914 9:-1 10:-1 11:-1 12:1 
8 0 0 1:-0.641881 2:-0.644889 3:-0.93002 4:-0.60751 5:-0.528942 6:-0.430874 7:-0.855567 8:-0.549364 9:-1 10:-1 11:-1 12:1 
0 0 5.177325975064717 1:-0.669513 2:-0.731662 3:-0.94118 4:-0.628452 5:-0.822579 6:-0.772111 7:-0.975154 8:-0.818158 9:-1 10:-1 11:1 12:-1 
0.2383010684591083 0.06610029014666804 0.12225791486389 1:-0.490178 2:-0.391962 3:-0.859677 4:-0.470659 5:-0.338473 6:0.0549039 7:-0.65881 8:-0.44275 9:-1 10:-1 11:1 12:-1 
0 0 0.02529498961297635 1:-0.599909 2:-0.50415 3:-0.909573 4:-0.580302 5:-0.488368 6:-0.108866 7:-0.791014 8:-0.566763 9:-1 10:-1 11:1 12:-1 
0.3381133965657844 0.2056590885733115 0.1999489516893567 1:-0.147439 2:-0.460885 3:-0.689666 4:-0.0506227 5:0.423324 6:0.0418719 7:0.122568 8:0.369155 9:-1 10:-1 11:1 12:-1 
0 0 0.57533763623346 1:-0.609057 2:-0.580202 3:-0.916794 4:-0.577709 5:-0.631247 6:-0.656243 7:-0.916528 8:-0.622738 9:-1 10:-1 11:1 12:-1 
0.2087193579186664 0.1428051435314121 0.1328675160007315 1:-0.44438 2:-0.695268 3:-0.862277 4:-0.364249 5:0.137195 6:-0.286133 7:-0.333717 8:0.147248 9:-1 10:-1 11:1 12:-1 
0.197274596146423 0.1320204319982652 0.1052704929724828 1:-0.638359 2:-0.456903 3:-0.91957 4:-0.630533 5:-0.254585 6:-0.0176465 7:-0.612201 8:-0.331493 9:-1 10:-1 11:1 12:-1 
0 5.52122518560268 0 1:-0.857982 2:-0.807718 3:-0.983345 4:-0.844652 5:-0.922797 6:-0.730619 7:-0.99102 8:-0.931768 9:-1 10:-1 11:1 12:-1 
0.4804111359823092 0.2943456211500544 0 1:-0.434114 2:-0.825375 3:-0.864192 4:-0.334827 5:-0.612461 6:-0.440663 7:-0.893519 8:-0.635296 9:-1 10:-1 11:1 12:-1 
0 0 1.451476048733398 1:-0.6081 2:-0.704122 3:-0.922151 4:-0.557708 5:-0.78402 6:-0.710171 7:-0.964785 8:-0.783435 9:-1 10:-1 11:1 12:-1 
0 3.876500677795369 0 1:-0.671104 2:-0.835818 3:-0.9447 4:-0.617818 5:-0.855224 6:-0.737784 7:-0.980578 8:-0.857985 9:-1 10:-1 11:1 12:-1 
0 0.548164643288812 6.776578196843044 1:-0.601793 2:-0.357741 3:-0.900886 4:-0.595498 5:-0.884486 6:-0.773883 7:-0.986254 8:-0.886142 9:-1 10:-1 11:-1 12:1 
6.213408155693866 0 8 1:-0.680702 2:-0.48789 3:-0.934193 4:-0.671076 5:-0.883786 6:-0.761973 7:-0.985945 8:-0.886493 9:-1 10:-1 11:-1 12:1 
0.4941754933622334 0 2.270061381357069 1:-0.441614 2:-0.679264 3:-0.860232 4:-0.361648 5:-0.876906 6:-0.78904 7:-0.985359 8:-0.876117 9:-1 10:-1 11:1 12:-1 
0 1.942716234177621 0 1:-0.700044 2:-0.88359 3:-0.953198 4:-0.64764 5:-0.860553 6:-0.807495 7:-0.983024 8:-0.855973 9:-1 10:-1 11:1 12:-1 
0.9232382182215864 0.8115208400783882 0.5498707982160833 1:-0.281685 2:-0.03356 3:-0.710817 4:-0.280842 5:-0.588733 6:-0.496283 7:-0.888503 8:-0.601836 9:-1 10:-1 11:1 12:-1 
0.9623973260183757 0.5536601909030315 0.5725839611065949 1:0.373454 2:-0.342423 3:-0.2625 4:0.548574 5:-0.594676 6:-0.536503 7:-0.894263 8:-0.602171 9:-1 10:-1 11:1 12:-1 
0.8155285144109223 0.4293875182910381 0.4833975227714641 1:0.356352 2:-0.511934 3:-0.310884 4:0.563741 5:-0.122402 6:-0.0324004 7:-0.505855 8:-0.194706 9:-1 10:-1 11:1 12:-1 
0.8963328380253411 0.5765996430591606 0.5305947971314859 1:0.094479 2:-0.208569 3:-0.47851 4:0.181499 5:0.288462 6:-0.0323856 7:-0.0797522 8:0.242832 9:-1 10:-1 11:1 12:-1 
0.8077237688636316 0.5035524204746393 0.4793679803298472 1:0.517671 2:-0.23373 3:-0.092231 4:0.692507 5:0.164931 6:-0.0908062 7:-0.242456 8:0.125862 9:-1 10:-1 11:1 12:-1 
0.5257991059084871 0.3521989116268802 0.3117361141370724 1:0.526099 2:-0.407732 3:-0.125599 4:0.745032 5:0.0155446 6:-0.150762 7:-0.413699 8:-0.0185704 9:-1 10:-1 11:1 12:-1 
1.054826060178729 0.6653317019381131 0.6260412821903717 1:-0.286227 2:-0.023505 3:-0.711633 4:-0.301545 5:0.308872 6:0.887851 7:0.485537 8:0.0572391 9:-1 10:-1 11:1 12:-1 
1.045905583048474 0.6593471576676158 0.6197744306470307 1:-0.56562 2:-0.0437963 3:-0.859326 4:-0.61847 5:-0.276537 6:1 7:-0.272364 8:-0.520721 9:-1 10:-1 11:1 12:-1 
0.07205381958993033 0 0.04686556151864688 1:-0.772275 2:-0.537268 3:-0.96006 4:-0.776746 5:-0.611428 6:-0.219357 7:-0.870626 8:-0.668975 9:-1 10:-1 11:1 12:-1 
0.06544721015723486 0 0 1:-0.859087 2:-0.839224 3:-0.983996 4:-0.84282 5:-0.56915 6:-0.510718 7:-0.881436 8:-0.576784 9:-1 10:-1 11:1 12:-1 
0.1231364730059354 2.587058216764027 8 1:-0.664425 2:-0.707862 3:-0.938969 4:-0.624735 5:-0.862452 6:-0.82809 7:-0.983734 8:-0.855981 9:-1 10:-1 11:1 12:-1 
0.737294246371247 0 0 1:-0.915715 2:-0.879362 3:-0.992003 4:-0.906867 5:-0.923719 6:-0.849973 7:-0.992782 8:-0.921685 9:-1 10:-1 11:1 12:-1 
0.178328215399389 0 0 1:-0.872221 2:-0.869764 3:-0.986325 4:-0.855569 5:-0.672441 6:-0.542345 7:-0.923989 8:-0.685743 9:-1 10:-1 11:1 12:-1 
8 0 7.033474670459518 1:-0.674312 2:-0.745687 3:-0.942949 4:-0.632252 5:-0.765272 6:-0.672416 7:-0.958767 8:-0.767922 9:-1 10:-1 11:-1 12:1 
8 0 0 1:-0.741984 2:-0.8256 3:-0.961781 4:-0.704065 5:-0.752107 6:-0.658222 7:-0.954682 8:-0.755607 9:-1 10:-1 11:-1 12:1 
8 0 0 1:-0.739335 2:-0.779578 3:-0.960109 4:-0.705797 5:-0.769651 6:-0.728287 7:-0.961941 8:-0.765256 9:-1 10:-1 11:-1 12:1 
6.200145370548554 0 0 1:-0.8488 2:-0.881081 3:-0.982982 4:-0.826459 5:-0.751698 6:-0.704184 7:-0.956474 8:-0.748345 9:-1 10:-1 11:-1 12:1 
8 0 0 1:-0.847773 2:-0.893946 3:-0.982978 4:-0.824106 5:-0.808745 6:-0.692271 7:-0.969915 8:-0.812717 9:-1 10:-1 11:-1 12:1 
0.08112148223432007 0.5003495277711056 0.5881924735811457 1:-0.735597 2:-0.53926 3:-0.95142 4:-0.732972 5:-0.526266 6:0.0905772 7:-0.77927 8:-0.627664 9:-1 10:-1 11:-1 12:1 
0.02171672294204092 0 0 1:-0.693294 2:-0.518872 3:-0.939281 4:-0.685369 5:-0.393362 6:-0.0664671 7:-0.723912 8:-0.473661 9:-1 10:-1 11:-1 12:1 
8 0.0817801824019386 0.8831892370702847 1:-0.764998 2:-0.691353 3:-0.963501 4:-0.747733 5:-0.522363 6:-0.545434 7:-0.863689 8:-0.52087 9:-1 10:-1 11:-1 12:1 
0 0.3017363289326888 0.2822257440022136 1:-0.601518 2:-0.490695 3:-0.909388 4:-0.582207 5:0.144297 6:0.194222 7:-0.152126 8:0.049623 9:-1 10:-1 11:-1 12:1 
1.049804877516093 0.3809046265604674 0.3587266753122031 1:-0.528848 2:-0.57458 3:-0.888511 4:-0.483724 5:0.286244 6:0.153508 7:0.000224685 8:0.200245 9:-1 10:-1 11:-1 12:1 
0 0.0401267732427002 0 1:-0.614236 2:-0.79327 3:-0.927298 4:-0.554595 5:-0.427225 6:-0.181404 7:-0.766657 8:-0.487046 9:-1 10:-1 11:-1 12:1 
8 0 8 1:-0.715641 2:-0.737239 3:-0.953348 4:-0.682243 5:-0.696334 6:-0.612612 7:-0.936141 8:-0.701084 9:-1 10:-1 11:-1 12:1 
8 0 3.647392508107274 1:-0.849903 2:-0.833393 3:-0.982487 4:-0.832432 5:-0.725874 6:-0.680365 7:-0.948391 8:-0.723353 9:-1 10:-1 11:-1 12:1 
8 0 8 1:-0.800409 2:-0.797755 3:-0.97327 4:-0.777027 5:-0.768933 6:-0.671137 7:-0.959649 8:-0.771613 9:-1 10:-1 11:-1 12:1 
8 0 0 1:-0.774478 2:-0.825052 3:-0.968695 4:-0.743144 5:-0.746518 6:-0.632033 7:-0.952045 8:-0.752724 9:-1 10:-1 11:-1 12:1 
8 0 0 1:-0.782158 2:-0.795728 3:-0.969668 4:-0.755471 5:-0.586618 6:-0.502318 7:-0.888134 8:-0.599393 9:-1 10:-1 11:-1 12:1 
8 0 0 1:-0.743118 2:-0.784666 3:-0.96109 4:-0.710043 5:-0.507223 6:-0.503398 7:-0.852607 8:-0.512207 9:-1 10:-1 11:-1 12:1 
3.261699414573404 0 0 1:-0.723465 2:-0.795533 3:-0.95682 4:-0.685233 5:-0.440885 6:-0.459869 7:-0.814249 8:-0.448154 9:-1 10:-1 11:-1 12:1 
8 0 0 1:-0.80831 2:-0.808009 3:-0.974949 4:-0.785389 5:-0.70099 6:-0.57077 7:-0.935274 8:-0.712217 9:-1 10:-1 11:-1 12:1 
8 0.03497496848949124 0 1:-0.848109 2:-0.839663 3:-0.982299 4:-0.829634 5:-0.699539 6:-0.595587 7:-0.936225 8:-0.706914 9:-1 10:-1 11:-1 12:1 
8 0 0 1:-0.85061 2:-0.85864 3:-0.982963 4:-0.830752 5:-0.727134 6:-0.6792 7:-0.948698 8:-0.725045 9:-1 10:-1 11:-1 12:1 
8 0 0 1:-0.828611 2:-0.865391 3:-0.979485 4:-0.803811 5:-0.677261 6:-0.636773 7:-0.931291 8:-0.676215 9:-1 10:-1 11:-1 12:1 
8 0.3601248990254529 0 1:-0.811393 2:-0.827965 3:-0.975851 4:-0.787105 5:-0.567722 6:-0.440929 7:-0.874414 8:-0.589692 9:-1 10:-1 11:-1 12:1 
6.221124808209153 0.1040880898533902 0 1:-0.724114 2:-0.684827 3:-0.953773 4:-0.700128 5:-0.345444 6:-0.152827 7:-0.708723 8:-0.405973 9:-1 10:-1 11:-1 12:1 
2.290451210231228 0 0.02452929695396521 1:-0.641651 2:-0.657721 3:-0.93049 4:-0.60559 5:-0.149812 6:-0.188734 7:-0.570225 8:-0.191092 9:-1 10:-1 11:-1 12:1 
1.792033128243389 0 0 1:-0.573243 2:-0.601234 3:-0.905622 4:-0.533715 5:-0.0232988 6:-0.155928 7:-0.45171 8:-0.0625048 9:-1 10:-1 11:-1 12:1 
0.7479387792548069 0 0 1:-0.484732 2:-0.641916 3:-0.875489 4:-0.420914 5:0.203348 6:-0.0862399 7:-0.198724 8:0.165398 9:-1 10:-1 11:-1 12:1 
8 0 0 1:-0.790368 2:-0.814342 3:-0.971661 4:-0.763296 5:-0.657249 6:-0.581743 7:-0.921225 8:-0.663029 9:-1 10:-1 11:-1 12:1 
8 0.1015806569067089 0.09218343991761879 1:-0.572604 2:-0.45387 3:-0.896962 4:-0.553033 5:-0.471578 6:-0.278757 7:-0.80743 8:-0.517104 9:-1 10:-1 11:-1 12:1 
8 0 0 1:-0.253176 2:-0.591061 3:-0.764031 4:-0.151248 5:-0.356595 6:-0.300415 7:-0.742563 8:-0.386325 9:-1 10:-1 11:-1 12:1 
8 0.1395102267561097 0.3599311399489681 1:-0.431102 2:-0.528532 3:-0.84577 4:-0.369949 5:-0.514638 6:-0.329801 7:-0.836975 8:-0.545398 9:-1 10:-1 11:-1 12:1 
8 0 0 1:-0.690126 2:-0.70064 3:-0.94569 4:-0.657249 5:-0.528863 6:-0.418247 7:-0.854186 8:-0.550434 9:-1 10:-1 11:-1 12:1 
8 0.2298096412700392 0 1:-0.658399 2:-0.705831 3:-0.937199 4:-0.618589 5:-0.302953 6:-0.464569 7:-0.733762 8:-0.294746 9:-1 10:-1 11:-1 12:1 
3.273795447989657 0.2243184614343138 0.2755099265067667 1:-0.630774 2:-0.643972 3:-0.926625 4:-0.594325 5:-0.145071 6:-0.357869 7:-0.603554 8:-0.145499 9:-1 10:-1 11:-1 12:1 
0 0 0.05256149070931482 1:-0.579636 2:-0.679099 3:-0.911853 4:-0.528602 5:-0.141921 6:-0.408873 7:-0.610943 8:-0.130233 9:-1 10:-1 11:-1 12:1 
8 0 0 1:-0.593307 2:-0.703081 3:-0.917408 4:-0.541424 5:-0.179312 6:-0.400715 7:-0.63782 8:-0.173038 9:-1 10:-1 11:-1 12:1 
0.5738185316274538 0.1326792226178165 0.34001946298685 1:-0.222883 2:-0.559526 3:-0.744473 4:-0.121522 5:0.0108863 6:-0.377206 7:-0.477127 8:0.0315717 9:-1 10:-1 11:1 12:-1 
0 4.26897144789814 0 1:-0.1389 2:-0.590462 3:-0.698488 4:-0.0143689 5:-0.341343 6:-0.334207 7:-0.73836 8:-0.36326 9:-1 10:-1 11:1 12:-1 
0 0.2352355987243891 0 1:-0.258758 2:-0.698797 3:-0.775445 4:-0.140826 5:-0.653514 6:-0.573925 7:-0.919302 8:-0.660616 9:-1 10:-1 11:1 12:-1 
0.3223824867057249 0 0.1873246214766928 1:-0.267311 2:-0.655296 3:-0.776748 4:-0.15803 5:-0.220762 6:-0.054609 7:-0.594608 8:-0.298406 9:-1 10:-1 11:1 12:-1 
0 3.474981916710945 0 1:-0.396618 2:-0.682801 3:-0.841113 4:-0.308753 5:-0.431264 6:-0.503003 7:-0.813968 8:-0.429458 9:-1 10:-1 11:1 12:-1 
8 0 8 1:-0.822039 2:-0.852789 3:-0.978177 4:-0.796965 5:-0.887223 6:-0.776356 7:-0.986751 8:-0.888595 9:-1 10:-1 11:-1 12:1 
8 0 8 1:-0.76525 2:-0.817065 3:-0.966643 4:-0.732374 5:-0.875815 6:-0.776756 7:-0.984959 8:-0.876048 9:-1 10:-1 11:-1 12:1 
8 0.1965760423616963 8 1:-0.760761 2:-0.820065 3:-0.965755 4:-0.726566 5:-0.895477 6:-0.804831 7:-0.988471 8:-0.894713 9:-1 10:-1 11:-1 12:1 
0.5076680939202087 2.135332868633903 0.3086783562705523 1:-0.258293 2:-0.735927 3:-0.777728 4:-0.134783 5:-0.33547 6:-0.453354 7:-0.752581 8:-0.333068 9:-1 10:-1 11:1 12:-1 
0.05030077068102222 3.332269970451591 0.1231157426937423 1:-0.312314 2:-0.435588 3:-0.780579 4:-0.248257 5:-0.486912 6:-0.467826 7:-0.838942 8:-0.496825 9:-1 10:-1 11:1 12:-1 
0.1660876716956896 0.1515301625952019 0.1007670791706832 1:-0.149782 2:-0.523027 3:-0.698124 4:-0.0409474 5:0.358199 6:-0.166072 7:-0.0491264 8:0.358171 9:-1 10:-1 11:1 12:-1 
8 0 0 1:-0.746642 2:-0.780287 3:-0.96177 4:-0.714622 5:-0.682923 6:-0.667608 7:-0.934733 8:-0.678045 9:-1 10:-1 11:-1 12:1 
8 0 0 1:-0.783873 2:-0.803105 3:-0.970156 4:-0.756722 5:-0.725773 6:-0.690031 7:-0.948783 8:-0.721945 9:-1 10:-1 11:-1 12:1 
8 0 0 1:-0.779472 2:-0.822708 3:-0.969679 4:-0.749271 5:-0.789774 6:-0.735482 7:-0.966997 8:-0.786435 9:-1 10:-1 11:-1 12:1 
0 4.789983074279412 0 1:-0.578701 2:-0.813008 3:-0.916744 4:-0.509805 5:-0.653288 6:-0.56891 7:-0.918989 8:-0.66033 9:-1 10:-1 11:1 12:-1 
0.07687600467814584 0 0 1:-0.469441 2:-0.638424 3:-0.869254 4:-0.400863 5:-0.760459 6:-0.432477 7:-0.945559 8:-0.796561 9:-1 10:-1 11:1 12:-1 
0.05135330245899845 0 0 1:-0.481655 2:-0.475779 3:-0.863274 4:-0.440262 5:-0.468205 6:-0.300927 7:-0.808667 8:-0.508281 9:-1 10:-1 11:1 12:-1 
0.4716907702110495 0.1848388805786454 0.3545892263490212 1:-0.709816 2:-0.754654 3:-0.952413 4:-0.673908 5:-0.630185 6:0.00829663 7:-0.851066 8:-0.714829 9:-1 10:-1 11:1 12:-1 
0 8 0 1:-0.60965 2:-0.805887 3:-0.9263 4:-0.54757 5:-0.879447 6:-0.730174 7:-0.984587 8:-0.885258 9:-1 10:-1 11:1 12:-1 
0.4315876588108629 3.623787120075757 2.944324664121847 1:-0.585048 2:-0.854718 3:-0.92017 4:-0.51243 5:-0.882501 6:-0.780681 7:-0.986084 8:-0.883176 9:-1 10:-1 11:1 12:-1 
0 5.267700189195421 0 1:-0.699265 2:-0.692966 3:-0.947824 4:-0.668684 5:-0.795017 6:-0.633673 7:-0.964636 8:-0.805663 9:-1 10:-1 11:1 12:-1 
0 1.012373600235103 0 1:-0.518156 2:-0.743787 3:-0.893339 4:-0.445513 5:-0.583338 6:-0.46803 7:-0.88375 8:-0.601479 9:-1 10:-1 11:1 12:-1 
0 3.193856304856167 0 1:-0.373759 2:-0.682359 3:-0.830809 4:-0.280633 5:-0.599404 6:-0.571828 7:-0.898865 8:-0.601414 9:-1 10:-1 11:1 12:-1 
0.2296685031489278 0.3145344646883248 0.1267769354547677 1:-0.662513 2:-0.761019 3:-0.940213 4:-0.616481 5:-0.0763313 6:-0.417795 7:-0.560394 8:-0.0556753 9:-1 10:-1 11:1 12:-1 
0.2954644562067218 0.2214623582009733 0.1739891273744495 1:-0.653048 2:-0.723997 3:-0.936321 4:-0.610058 5:0.234541 6:-0.208674 7:-0.207147 8:0.234497 9:-1 10:-1 11:1 12:-1 
0.3868045359020704 0.2769354344099973 0.2295053291145975 1:-0.173604 2:-0.322936 3:-0.688195 4:-0.10939 5:0.192096 6:0.253262 7:-0.0681824 8:0.0801888 9:-1 10:-1 11:1 12:-1 
0.2551538388392933 0 0 1:-0.851279 2:-0.88543 3:-0.983419 4:-0.829048 5:-0.615381 6:-0.588897 7:-0.906319 8:-0.615979 9:-1 10:-1 11:1 12:-1 
8 0 0 1:-0.734012 2:-0.803043 3:-0.959458 4:-0.697008 5:-0.722279 6:-0.667029 7:-0.946742 8:-0.721452 9:-1 10:-1 11:-1 12:1 
8 0 0 1:-0.730057 2:-0.783945 3:-0.958073 4:-0.694509 5:-0.681843 6:-0.624681 7:-0.932131 8:-0.683257 9:-1 10:-1 11:-1 12:1 
0.2674045045546009 0 0.1403074276301652 1:-0.129929 2:-0.539406 3:-0.687731 4:-0.0132606 5:-0.397901 6:-0.228781 7:-0.756557 8:-0.444129 9:-1 10:-1 11:1 12:-1 
0.2162120927840639 3.317899460772581 0.1310058698296063 1:0.146839 2:-0.55372 3:-0.495365 4:0.320898 5:-0.325179 6:-0.303625 7:-0.722857 8:-0.354096 9:-1 10:-1 11:1 12:-1 
0.2865019317714478 0.2778981082570263 0.1686891299660017 1:-0.705196 2:-0.64707 3:-0.947756 4:-0.682652 5:-0.31007 6:0.0424938 7:-0.640224 8:-0.413108 9:-1 10:-1 11:1 12:-1 
0 8 0 1:-0.833378 2:-0.854936 3:-0.980125 4:-0.810502 5:-0.923036 6:-0.824561 7:-0.992424 8:-0.922935 9:-1 10:-1 11:1 12:-1 
0.6435821951212564 0.4877204418803728 0 1:-0.668729 2:-0.519977 3:-0.93227 4:-0.657538 5:-0.776865 6:-0.259615 7:-0.939468 8:-0.83031 9:-1 10:-1 11:1 12:-1 
0.8502181586330572 0.5304652582163476 0.5018654088134515 1:-0.384683 2:-0.668115 3:-0.834857 4:-0.296525 5:-0.520495 6:0.238535 7:-0.747066 8:-0.625828 9:-1 10:-1 11:1 12:-1 
0 0.6722703194869778 0 1:-0.539981 2:-0.744099 3:-0.901184 4:-0.471705 5:-0.815279 6:-0.557432 7:-0.966494 8:-0.836414 9:-1 10:-1 11:1 12:-1 
0.1038450949107283 0 0 1:-0.819562 2:-0.82303 3:-0.977245 4:-0.797222 5:-0.783919 6:-0.509239 7:-0.956358 8:-0.810152 9:-1 10:-1 11:1 12:-1 
0 0.7491769589398751 0 1:-0.679884 2:-0.77577 3:-0.945371 4:-0.634911 5:-0.792412 6:-0.507642 7:-0.958523 8:-0.818916 9:-1 10:-1 11:1 12:-1 
0.4317157143799086 0.2709930512982201 0.2564593239771576 1:-0.557178 2:-0.602699 3:-0.900368 4:-0.512848 5:0.381143 6:0.233713 7:0.164923 8:0.270052 9:-1 10:-1 11:1 12:-1 
0.5192722321061164 0.3346748206805761 0.3079777371594908 1:-0.590212 2:-0.568616 3:-0.909838 4:-0.557488 5:0.178151 6:0.365973 7:-0.0294054 8:0.0297436 9:-1 10:-1 11:1 12:-1 
0.1660918987417402 0.1013441497036953 0.1000228320046619 1:-0.484754 2:-0.411403 3:-0.859532 4:-0.460475 5:0.0965327 6:-0.158561 7:-0.336722 8:0.0690506 9:-1 10:-1 11:1 12:-1 
0.08925379667810455 0.03765477286765563 0.04614530533518829 1:-0.438284 2:-0.701329 3:-0.860054 4:-0.356048 5:0.1728 6:-0.2047 7:-0.272494 8:0.165115 9:-1 10:-1 11:1 12:-1 
0.08129421173733933 0 0.04911900590118214 1:-0.500603 2:-0.766711 3:-0.887847 4:-0.421715 5:-0.293316 6:-0.266741 7:-0.694848 8:-0.326529 9:-1 10:-1 11:1 12:-1 
0 7.66319184823941 0 1:-0.087635 2:-0.508089 3:-0.657423 4:0.0320606 5:-0.424988 6:-0.460649 7:-0.80552 8:-0.430655 9:-1 10:-1 11:1 12:-1 
0.4140648315566783 0.2599256138937995 0.245313096033385 1:-0.391397 2:-0.364664 3:-0.813225 4:-0.358712 5:0.356558 6:0.223941 7:0.12664 8:0.240112 9:-1 10:-1 11:1 12:-1 
0.3051840522175102 0 0 1:-0.734729 2:-0.824982 3:-0.960135 4:-0.695301 5:-0.449267 6:-0.574971 7:-0.831014 8:-0.435511 9:-1 10:-1 11:1 12:-1 
0 4.260200667505219 0 1:-0.700877 2:-0.828206 3:-0.952153 4:-0.654502 5:-0.535899 6:-0.524199 7:-0.867922 8:-0.540169 9:-1 10:-1 11:1 12:-1 
8 0.2701330262017301 0 1:-0.523055 2:-0.697401 3:-0.893001 4:-0.458141 5:-0.56486 6:-0.545574 7:-0.882537 8:-0.568087 9:-1 10:-1 11:-1 12:1 
8 0 0 1:-0.622205 2:-0.710989 3:-0.926743 4:-0.574864 5:-0.588013 6:-0.536019 7:-0.891455 8:-0.595147 9:-1 10:-1 11:-1 12:1 
8 0 0 1:-0.692737 2:-0.760374 3:-0.948163 4:-0.653216 5:-0.587661 6:-0.528835 7:-0.890769 8:-0.595814 9:-1 10:-1 11:-1 12:1 
8 0 0 1:-0.675686 2:-0.733211 3:-0.942865 4:-0.636121 5:-0.552844 6:-0.533257 7:-0.876309 8:-0.557112 9:-1 10:-1 11:-1 12:1 
8 0 0 1:-0.618092 2:-0.697533 3:-0.924984 4:-0.571882 5:-0.5985 6:-0.571387 7:-0.898394 8:-0.600554 9:-1 10:-1 11:-1 12:1 
1.438530539857532 0 4.081641273214155 1:-0.598457 2:-0.734142 3:-0.920307 4:-0.543275 5:-0.600797 6:-0.49809 7:-0.893484 8:-0.615896 9:-1 10:-1 11:-1 12:1 
5.526924148648655 0.3863204844346475 0.3619201109073648 1:-0.381871 2:-0.472193 3:-0.818711 4:-0.32671 5:0.0580304 6:0.198642 7:-0.247486 8:-0.044698 9:-1 10:-1 11:-1 12:1 
0.7457667026803561 0.5579740649547018 0.5248485991343108 1:-0.190417 2:-0.552693 3:-0.72528 4:-0.084105 5:0.495802 6:-0.0425001 7:0.178797 8:0.472045 9:-1 10:-1 11:-1 12:1 
3.132476438433161 0.3663820683366763 0.3438679304352338 1:-0.230131 2:-0.448396 3:-0.737193 4:-0.151844 5:0.309399 6:-0.139118 7:-0.0970271 8:0.296648 9:-1 10:-1 11:-1 12:1 
8 0.08164189428334162 0.07780935131792731 1:-0.286079 2:-0.440878 3:-0.767271 4:-0.220027 5:0.164456 6:-0.134901 7:-0.257983 8:0.136614 9:-1 10:-1 11:-1 12:1 
0 0 8 1:-0.889392 2:-0.870951 3:-0.988676 4:-0.876085 5:-0.787861 6:-0.748124 7:-0.966918 8:-0.78264 9:-1 10:-1 11:-1 12:1 
0 0.4634705505242177 8 1:-0.9078 2:-0.899841 3:-0.991287 4:-0.895471 5:-0.832871 6:-0.827109 7:-0.978426 8:-0.823227 9:-1 10:-1 11:-1 12:1 
0 0 8 1:-0.891213 2:-0.884746 3:-0.989061 4:-0.877012 5:-0.818849 6:-0.860171 7:-0.976408 8:-0.804255 9:-1 10:-1 11:-1 12:1 
0 0 0.5467538865052167 1:-0.526076 2:-0.751199 3:-0.896548 4:-0.454014 5:-0.686913 6:-0.670349 7:-0.936165 8:-0.681992 9:-1 10:-1 11:1 12:-1 
0.5240641063248557 0 0.3268435168244483 1:-0.529574 2:-0.740757 3:-0.897299 4:-0.459987 5:-0.187169 6:-0.526095 7:-0.664349 8:-0.154731 9:-1 10:-1 11:1 12:-1 
7.892299547108133 0.4110914257535343 0.4057347989910091 1:-0.11505 2:-0.49257 3:-0.673154 4:-0.00415255 5:-0.360309 6:-0.552408 7:-0.780076 8:-0.341034 9:-1 10:-1 11:-1 12:1 
3.682606399171928 0.3950921629027737 0.3880628203290324 1:0.076014 2:-0.336031 3:-0.516757 4:0.18982 5:-0.323593 6:-0.310238 7:-0.722933 8:-0.350689 9:-1 10:-1 11:-1 12:1 
1.401455925586048 0.4250018591287007 0.3977662969683858 1:0.3381 2:-0.399035 3:-0.307119 4:0.516968 5:-0.325858 6:-0.224716 7:-0.709219 8:-0.371301 9:-1 10:-1 11:-1 12:1 
0.3130579070826372 0.07401363711643177 0.05903638742846078 1:-0.0347681 2:-0.33518 3:-0.598004 4:0.0572741 5:-0.267475 6:-0.360616 7:-0.693875 8:-0.278879 9:-1 10:-1 11:-1 12:1 
3.693815952141092 0.1396162663208654 0.1277554600278479 1:-0.433387 2:-0.634277 3:-0.853985 4:-0.360777 5:-0.0509689 6:-0.431676 7:-0.54225 8:-0.0242077 9:-1 10:-1 11:-1 12:1 
8 0 0 1:-0.51037 2:-0.674571 3:-0.887107 4:-0.446572 5:-0.124585 6:-0.353521 7:-0.586501 8:-0.123276 9:-1 10:-1 11:-1 12:1 
8 0 0 1:-0.374163 2:-0.586634 3:-0.824398 4:-0.297593 5:-0.170105 6:-0.332116 7:-0.61769 8:-0.17827 9:-1 10:-1 11:-1 12:1 
0 0.190236783435697 0.1778389964727219 1:-0.279795 2:-0.511432 3:-0.771022 4:-0.198388 5:0.024922 6:-0.347371 7:-0.457483 8:0.0392731 9:-1 10:-1 11:-1 12:1 
3.248248992509545 0 0 1:-0.463433 2:-0.50304 3:-0.857732 4:-0.418469 5:-0.0636068 6:-0.330057 7:-0.531325 8:-0.0624792 9:-1 10:-1 11:-1 12:1 
1.594477739485971 0 0 1:-0.612674 2:-0.756637 3:-0.92557 4:-0.557339 5:-0.18617 6:-0.317535 7:-0.627047 8:-0.199356 9:-1 10:-1 11:-1 12:1 
0 0.05848495993407498 0 1:-0.580741 2:-0.694352 3:-0.912895 4:-0.527831 5:-0.0459938 6:-0.322954 7:-0.514631 8:-0.0447762 9:-1 10:-1 11:-1 12:1 
0 0.1536598779274219 0.1501084027116935 1:-0.537085 2:-0.68526 3:-0.897446 4:-0.476916 5:0.159136 6:-0.284915 7:-0.310972 8:0.171396 9:-1 10:-1 11:-1 12:1 
0 0.169857920027171 0.1666582052358679 1:-0.500223 2:-0.790456 3:-0.888697 4:-0.418218 5:0.0852612 6:-0.222117 7:-0.367129 8:0.0734815 9:-1 10:-1 11:-1 12:1 
8 0 0 1:-0.60118 2:-0.661333 3:-0.918132 4:-0.556866 5:-0.210003 6:-0.38497 7:-0.657553 8:-0.210351 9:-1 10:-1 11:-1 12:1 
0.2338435814578558 0.1380660685317415 0 1:-0.863592 2:-0.717278 3:-0.98269 4:-0.860441 5:-0.808174 6:-0.827804 7:-0.973543 8:-0.795879 9:-1 10:-1 11:1 12:-1 
8 0 8 1:-0.889251 2:-0.854856 3:-0.988472 4:-0.87745 5:-0.805851 6:-0.749912 7:-0.971035 8:-0.80223 9:-1 10:-1 11:-1 12:1 
0.5742046768285723 0.3441106661244439 0.3393745642706706 1:-0.270106 2:-0.602572 3:-0.774005 4:-0.170355 5:0.39563 6:-0.261878 7:-0.0392239 8:0.430281 9:-1 10:-1 11:1 12:-1 
0.4278279629826308 0.2697277361834739 0.2547179294603262 1:-0.127497 2:-0.490256 3:-0.680721 4:-0.0205074 5:0.841743 6:-0.0431498 7:0.68896 8:0.855549 9:-1 10:-1 11:1 12:-1 
0.05756192729845797 0.07147151219539084 0.02773888323816831 1:-0.505153 2:-0.627964 3:-0.882646 4:-0.447451 5:0.0305183 6:-0.386696 7:-0.461637 8:0.0548486 9:-1 10:-1 11:1 12:-1 
0 0 0.06250265411706715 1:-0.668499 2:-0.555685 3:-0.933882 4:-0.652856 5:-0.309456 6:-0.366419 7:-0.722995 8:-0.322495 9:-1 10:-1 11:1 12:-1 
0 5.069766462056936 0 1:-0.591221 2:-0.712431 3:-0.917107 4:-0.537608 5:-0.530396 6:-0.615573 7:-0.873188 8:-0.517748 9:-1 10:-1 11:1 12:-1 
0.0377105201203994 2.005868868491421 0 1:-0.750255 2:-0.738982 3:-0.961521 4:-0.724187 5:-0.598746 6:-0.686608 7:-0.906275 8:-0.58207 9:-1 10:-1 11:1 12:-1 
0.8035787675524984 0 0.4731591687565929 1:-0.0574812 2:-0.190217 3:-0.589522 4:-0.00267593 5:-0.316511 6:-0.360303 7:-0.726584 8:-0.332425 9:-1 10:-1 11:1 12:-1 
0.8395114639874693 0.5519738831128084 0.4997164379694811 1:-0.484446 2:0.0129639 3:-0.815246 4:-0.537998 5:-0.163978 6:0.0183541 7:-0.527513 8:-0.251851 9:-1 10:-1 11:1 12:-1 
0.6512250662593264 0.4103993433798322 0.3852076939317597 1:-0.333642 2:-0.097317 3:-0.75086 4:-0.345648 5:0.098647 6:-0.00301183 7:-0.28191 8:0.0346005 9:-1 10:-1 11:1 12:-1 
0.1614044087671346 0 0 1:-0.604338 2:-0.487672 3:-0.910156 4:-0.587707 5:-0.575427 6:-0.566915 7:-0.888691 8:-0.575907 9:-1 10:-1 11:1 12:-1 
0.4266578184233294 0 0 1:-0.550126 2:-0.4821 3:-0.890608 4:-0.524867 5:-0.444229 6:-0.552394 7:-0.826053 8:-0.434085 9:-1 10:-1 11:1 12:-1 
-0 8 0 1:-0.735886 2:-0.790301 3:-0.95928 4:-0.702157 5:-0.629471 6:-0.636213 7:-0.91466 8:-0.62411 9:-1 10:1 11:-1 12:-1 
-0 8 0 1:-0.676056 2:-0.764207 3:-0.943752 4:-0.633348 5:-0.530587 6:-0.581541 7:-0.870423 8:-0.524564 9:-1 10:1 11:-1 12:-1 
-0 8 0 1:-0.676943 2:-0.715782 3:-0.942589 4:-0.640094 5:-0.570291 6:-0.494967 7:-0.880543 8:-0.583187 9:-1 10:1 11:-1 12:-1 
-0 8 0 1:-0.723076 2:-0.757069 3:-0.955688 4:-0.689592 5:-0.661638 6:-0.544675 7:-0.920352 8:-0.674108 9:-1 10:1 11:-1 12:-1 
-0 8 0 1:-0.707239 2:-0.799985 3:-0.953019 4:-0.665309 5:-0.594728 6:-0.568353 7:-0.896694 8:-0.597075 9:-1 10:1 11:-1 12:-1 
-0 8 0 1:-0.689324 2:-0.806441 3:-0.94867 4:-0.643136 5:-0.625618 6:-0.551947 7:-0.907595 8:-0.633515 9:-1 10:1 11:-1 12:-1 
-0 8 0 1:-0.683695 2:-0.767128 3:-0.945837 4:-0.642255 5:-0.674588 6:-0.555339 7:-0.925574 8:-0.686452 9:-1 10:1 11:-1 12:-1 
-0 8 0 1:-0.691141 2:-0.746535 3:-0.947192 4:-0.653572 5:-0.652088 6:-0.547737 7:-0.917131 8:-0.663186 9:-1 10:1 11:-1 12:-1 
-0 8 0 1:-0.711433 2:-0.788638 3:-0.953663 4:-0.67206 5:-0.674294 6:-0.622222 7:-0.929489 8:-0.675593 9:-1 10:1 11:-1 12:-1 
-0 8 0 1:-0.706573 2:-0.774405 3:-0.952137 4:-0.667634 5:-0.658274 6:-0.620869 7:-0.923631 8:-0.65922 9:-1 10:1 11:-1 12:-1 
-0 8 0 1:-0.721426 2:-0.803823 3:-0.956488 4:-0.682112 5:-0.73757 6:-0.643898 7:-0.949957 8:-0.742036 9:-1 10:1 11:-1 12:-1 
-0 8 0 1:-0.730594 2:-0.830877 3:-0.959227 4:-0.690223 5:-0.782678 6:-0.716716 7:-0.964714 8:-0.781197 9:-1 10:1 11:-1 12:-1 
-0 8 0 1:-0.683431 2:-0.741895 3:-0.945157 4:-0.644331 5:-0.676003 6:-0.577241 7:-0.927424 8:-0.684362 9:-1 10:1 11:-1 12:-1 
-0 8 0 1:-0.600174 2:-0.701475 3:-0.919151 4:-0.551211 5:-0.566624 6:-0.553819 7:-0.883948 8:-0.568867 9:-1 10:1 11:-1 12:-1 
-0 8 0 1:-0.56701 2:-0.721434 3:-0.909275 4:-0.508136 5:-0.606947 6:-0.543113 7:-0.89957 8:-0.614612 9:-1 10:1 11:-1 12:-1 
-0 8 0 1:-0.626329 2:-0.750059 3:-0.92914 4:-0.575779 5:-0.68017 6:-0.585312 7:-0.929098 8:-0.688404 9:-1 10:1 11:-1 12:-1 
-0 8 0 1:-0.693325 2:-0.823271 3:-0.950093 4:-0.646183 5:-0.634105 6:-0.576977 7:-0.912403 8:-0.639043 9:-1 10:1 11:-1 12:-1 
-0 8 0 1:-0.718247 2:-0.809399 3:-0.955843 4:-0.677807 5:-0.586306 6:-0.568453 7:-0.893304 8:-0.587427 9:-1 10:1 11:-1 12:-1 
-0 8 0 1:-0.740931 2:-0.783308 3:-0.960339 4:-0.70869 5:-0.632303 6:-0.566847 7:-0.911186 8:-0.638254 9:-1 10:1 11:-1 12:-1 
-0 8 0 1:-0.71028 2:-0.810741 3:-0.953998 4:-0.667872 5:-0.687316 6:-0.557585 7:-0.929896 8:-0.700257 9:-1 10:1 11:-1 12:-1 
-0 8 0 1:-0.662939 2:-0.777171 3:-0.940493 4:-0.616315 5:-0.636072 6:-0.568642 7:-0.912665 8:-0.642429 9:-1 10:1 11:-1 12:-1 
-0 8 0 1:-0.660908 2:-0.735117 3:-0.938539 4:-0.619355 5:-0.622557 6:-0.617697 7:-0.910766 8:-0.620015 9:-1 10:1 11:-1 12:-1 
-0.1776311563063842 0 0.04176046790065227 1:-0.619728 2:-0.601228 3:-0.921017 4:-0.588712 5:-0.301629 6:-0.480424 7:-0.735112 8:-0.290923 9:-1 10:1 11:-1 12:-1 
-0 3.803110200208798 0 1:-0.703894 2:-0.642314 3:-0.947218 4:-0.682044 5:-0.491544 6:-0.436427 7:-0.837728 8:-0.507578 9:-1 10:1 11:-1 12:-1 
-0 8 0 1:-0.568918 2:-0.64959 3:-0.906851 4:-0.520067 5:-0.580738 6:-0.509197 7:-0.885936 8:-0.592101 9:-1 10:1 11:-1 12:-1 
-0 4.435880747546034 0 1:-0.356714 2:-0.44723 3:-0.804012 4:-0.302307 5:-0.0788896 6:-0.311091 7:-0.539944 8:-0.0843928 9:-1 10:1 11:-1 12:-1 
-0.1455241928132309 3.26228548197745 0.07595201313898325 1:-0.389155 2:-0.370576 3:-0.812254 4:-0.354614 5:-0.231331 6:-0.321409 7:-0.659911 8:-0.25038 9:-1 10:1 11:-1 12:-1 
-0.1284423901772909 4.792813840047102 0.06179103644975814 1:-0.505011 2:-0.38752 3:-0.866022 4:-0.487777 5:-0.158979 6:0.120655 7:-0.492092 8:-0.27244 9:-1 10:1 11:-1 12:-1 
-0.4553888168605408 1.178510991452745 0.2261225418414542 1:-0.433171 2:-0.520416 3:-0.846062 4:-0.379621 5:0.156088 6:-0.241651 7:-0.300851 8:0.155447 9:-1 10:1 11:-1 12:-1 
-0.2755809998745793 0 0.144157160632902 1:-0.618396 2:-0.618675 3:-0.921654 4:-0.583856 5:-0.11212 6:-0.277417 7:-0.559792 8:-0.129129 9:-1 10:1 11:-1 12:-1 
-0 8 0 1:-0.593821 2:-0.678226 3:-0.916511 4:-0.545566 5:-0.354525 6:-0.425783 7:-0.760361 8:-0.36076 9:-1 10:1 11:-1 12:-1 
-0 8 0 1:-0.677865 2:-0.788541 3:-0.945127 4:-0.631719 5:-0.612376 6:-0.622832 7:-0.907261 8:-0.607819 9:-1 10:1 11:-1 12:-1 
-0 8 0 1:-0.482763 2:-0.541245 3:-0.868448 4:-0.433043 5:-0.552112 6:-0.442781 7:-0.867383 8:-0.573032 9:-1 10:1 11:-1 12:-1 
-0 8 0 1:-0.522909 2:-0.490647 3:-0.880852 4:-0.48773 5:-0.536206 6:-0.42168 7:-0.85714 8:-0.560695 9:-1 10:1 11:-1 12:-1 
-0 8 0 1:-0.707283 2:-0.777109 3:-0.952366 4:-0.668343 5:-0.519201 6:-0.438911 7:-0.848968 8:-0.542168 9:-1 10:1 11:-1 12:-1 
-0 4.502997044834464 0 1:-0.719258 2:-0.785051 3:-0.955124 4:-0.683385 5:-0.507859 6:-0.540173 7:-0.856011 8:-0.507324 9:-1 10:1 11:-1 12:-1 
-0 3.219981757954607 0.1225307619474464 1:-0.718718 2:-0.763306 3:-0.954768 4:-0.683813 5:-0.468238 6:-0.548837 7:-0.837338 8:-0.462677 9:-1 10:1 11:-1 12:-1 
-0.3806361825299436 0.2453907623312506 0.2182889868386504 1:-0.757332 2:-0.817408 3:-0.9648 4:-0.724199 5:-0.367082 6:-0.490015 7:-0.776339 8:-0.361453 9:1 10:-1 11:-1 12:-1 
-0.4308863051357023 0.2790017266830944 0.2128782182099631 1:-0.668852 2:-0.552437 3:-0.933673 4:-0.654142 5:-0.162066 6:0.0374068 7:-0.520396 8:-0.249558 9:1 10:-1 11:-1 12:-1 
-0.02723367401907687 0.01791118720604715 0 1:-0.225416 2:-0.376804 3:-0.726246 4:-0.15899 5:-0.492308 6:-0.310497 7:-0.822829 8:-0.532846 9:1 10:-1 11:-1 12:-1 
-0.1168811444223778 0.07610552556450408 0.05442915784601046 1:-0.551522 2:-0.665496 3:-0.901385 4:-0.497797 5:0.129221 6:-0.31578 7:-0.349863 8:0.146012 9:1 10:-1 11:-1 12:-1 
-0.05851368751796206 0.03804119934065375 0.02826560690377458 1:-0.356401 2:-0.596642 3:-0.816731 4:-0.274942 5:0.252629 6:0.0144703 7:-0.0976251 8:0.185698 9:1 10:-1 11:-1 12:-1 
-0.3669885394672139 0.2367514546805775 0.1800644951707814 1:-0.260655 2:-0.568943 3:-0.765852 4:-0.165565 5:0.38799 6:-0.107371 7:0.0124488 8:0.370895 9:1 10:-1 11:-1 12:-1 
-0.08243991036632681 0.0498209255042743 0.03942731189216209 1:-0.22043 2:-0.537029 3:-0.740579 4:-0.123593 5:0.660007 6:0.022856 7:0.449424 8:0.627582 9:1 10:-1 11:-1 12:-1 
-0.4297999422504111 0.2784783289242713 0.2114821728394095 1:-0.290985 2:-0.549267 3:-0.780379 4:-0.204794 5:0.573421 6:0.115931 7:0.369704 8:0.504644 9:1 10:-1 11:-1 12:-1 
-0.1144268835119874 0.07761197607950415 0 1:-0.754544 2:-0.822454 3:-0.964443 4:-0.719652 5:-0.611032 6:-0.673323 7:-0.909773 8:-0.598857 9:1 10:-1 11:-1 12:-1 
-0.4655852726165978 0.3014565842629316 0 1:-0.380491 2:-0.320864 3:-0.803267 4:-0.343861 5:-0.561303 6:-0.767401 7:-0.896197 8:-0.528904 9:1 10:-1 11:-1 12:-1 
-0 0 0.00439634002245426 1:-0.478522 2:-0.589778 3:-0.869927 4:-0.421307 5:-0.334363 6:-0.0518992 7:-0.680163 8:-0.409914 9:1 10:-1 11:-1 12:-1 
-0.03645635159970353 0.02268309061127986 0 1:-0.496062 2:-0.573079 3:-0.875742 4:-0.44563 5:-0.449653 6:-0.588942 7:-0.832324 8:-0.433987 9:1 10:-1 11:-1 12:-1 
-0 0 4.922131688162422 1:-0.279229 2:-0.561181 3:-0.775278 4:-0.185369 5:-0.765433 6:-0.729731 7:-0.960742 8:-0.761202 9:1 10:-1 11:-1 12:-1 
-0.1001198536064303 0.06503862948058679 0.08194317398770887 1:-0.085288 2:-0.545724 3:-0.660174 4:0.0405549 5:-0.322207 6:-0.128449 7:-0.687108 8:-0.388171 9:1 10:-1 11:-1 12:-1 
-0.2684314772551484 0.1734516518352957 0.110043802608315 1:-0.0811472 2:-0.607079 3:-0.664028 4:0.0568818 5:-0.249396 6:-0.0979287 7:-0.627297 8:-0.31561 9:1 10:-1 11:-1 12:-1 
-0 0.002323459327966028 0.03674426348041242 1:-0.0519019 2:-0.627708 3:-0.647029 4:0.0957793 5:-0.521261 6:-0.460188 7:-0.854644 8:-0.535874 9:-1 10:-1 11:-1 12:1 
-0.1797260009842715 0 0 1:-0.463432 2:-0.653527 3:-0.867363 4:-0.39409 5:-0.42111 6:-0.478906 7:-0.80563 8:-0.423048 9:-1 10:-1 11:-1 12:1 
-8 0 0 1:-0.505942 2:-0.539202 3:-0.877528 4:-0.462847 5:-0.13586 6:-0.0404499 7:-0.519903 8:-0.211587 9:-1 10:-1 11:-1 12:1 
-8 0.4132707218711418 0.3258598303248106 1:-0.525984 2:-0.524017 3:-0.884118 4:-0.489606 5:-0.136545 6:-0.00132168 7:-0.509095 8:-0.221905 9:-1 10:-1 11:-1 12:1 
-0 0 0.3313039308015753 1:-0.237183 2:-0.213156 3:-0.711516 4:-0.191943 5:-0.616935 6:-0.68708 7:-0.913043 8:-0.602364 9:1 10:-1 11:-1 12:-1 
-0.1295512267807942 0.08328099246381092 0.1096329254035149 1:-0.191055 2:-0.220096 3:-0.684221 4:-0.136824 5:-0.511758 6:-0.463975 7:-0.850739 8:-0.524971 9:1 10:-1 11:-1 12:-1 
-0.1933760094386069 0.1251913637340783 0 1:-0.640292 2:-0.472962 3:-0.921101 4:-0.632006 5:-0.504682 6:-0.467196 7:-0.847635 8:-0.51681 9:1 10:-1 11:-1 12:-1 
-0.0584096784468276 0.03812880139301253 0.02248735767501621 1:-0.363618 2:-0.636107 3:-0.822935 4:-0.277066 5:-0.130984 6:-0.336929 7:-0.586817 8:-0.136929 9:1 10:-1 11:-1 12:-1 
-0 8 0 1:-0.755187 2:-0.797224 3:-0.963959 4:-0.723554 5:-0.672483 6:-0.623787 7:-0.928919 8:-0.67356 9:-1 10:1 11:-1 12:-1 
-0 8 0 1:-0.596158 2:-0.733214 3:-0.919448 4:-0.540837 5:-0.664648 6:-0.621261 7:-0.926195 8:-0.665104 9:-1 10:1 11:-1 12:-1 
-0.1704444212503629 0.1107744602358282 0 1:-0.124457 2:-0.407563 3:-0.668606 4:-0.0284732 5:-0.588629 6:-0.75157 7:-0.906017 8:-0.561558 9:1 10:-1 11:-1 12:-1 
-0 3.366998997342975 0 1:-0.422722 2:-0.653938 3:-0.850291 4:-0.345712 5:-0.222975 6:-0.279833 7:-0.647137 8:-0.248984 9:-1 10:1 11:-1 12:-1 
-0 8 0 1:-0.466973 2:-0.6939 3:-0.87071 4:-0.393371 5:-0.249477 6:-0.354367 7:-0.680125 8:-0.261017 9:-1 10:1 11:-1 12:-1 
-0 8 0 1:-0.272356 2:-0.626581 3:-0.777086 4:-0.168928 5:-0.316891 6:-0.357879 7:-0.726206 8:-0.334625 9:-1 10:1 11:-1 12:-1 
-0 0.3057371442059831 0.2339361845798432 1:-0.39114 2:-0.422805 3:-0.818664 4:-0.34624 5:0.196778 6:0.0663425 7:-0.146324 8:0.124588 9:-1 10:-1 11:-1 12:1 
-3.844530831166795 0 0 1:-0.415204 2:-0.615279 3:-0.844957 4:-0.341911 5:-0.248607 6:-0.330866 7:-0.675263 8:-0.265814 9:-1 10:-1 11:-1 12:1 
-0 6.407053371445114 0 1:-0.438874 2:-0.553135 3:-0.85092 4:-0.380746 5:-0.156696 6:-0.0429488 7:-0.536272 8:-0.236638 9:-1 10:1 11:-1 12:-1 
-0.0454563908694345 8 0.02111344248997889 1:-0.240173 2:-0.524849 3:-0.750824 4:-0.148862 5:-0.143088 6:-0.0979936 7:-0.541381 8:-0.207156 9:-1 10:1 11:-1 12:-1 
-0 7.129240818812677 0 1:-0.36968 2:-0.488814 3:-0.814313 4:-0.30975 5:-0.273691 6:-0.383663 7:-0.702004 8:-0.281214 9:-1 10:1 11:-1 12:-1 
-8 0 0 1:-0.620714 2:-0.690513 3:-0.925474 4:-0.576104 5:-0.632129 6:-0.522412 7:-0.907896 8:-0.645575 9:-1 10:-1 11:-1 12:1 
-0 8 0 1:-0.543169 2:-0.672977 3:-0.899004 4:-0.485714 5:-0.555259 6:-0.512952 7:-0.875324 8:-0.564222 9:-1 10:1 11:-1 12:-1 
-0 8 0 1:-0.333443 2:-0.553707 3:-0.801933 4:-0.254522 5:-0.564852 6:-0.584054 7:-0.885645 8:-0.561453 9:-1 10:1 11:-1 12:-1 
-0 8 0 1:-0.637539 2:-0.725717 3:-0.931388 4:-0.593067 5:-0.557981 6:-0.494313 7:-0.87479 8:-0.570535 9:-1 10:1 11:-1 12:-1 
-0 8 0 1:-0.481182 2:-0.58885 3:-0.870097 4:-0.426765 5:-0.600826 6:-0.470357 7:-0.890423 8:-0.622654 9:-1 10:1 11:-1 12:-1 
-0.3271508054873859 0 0.1605617533674422 1:-0.261606 2:-0.299942 3:-0.737548 4:-0.21669 5:-0.444636 6:-0.0837324 7:-0.759114 8:-0.530067 9:-1 10:1 11:-1 12:-1 
-0 1.113294809082706 0 1:-0.395309 2:-0.226373 3:-0.800249 4:-0.388463 5:-0.364996 6:-0.144588 7:-0.720189 8:-0.433087 9:-1 10:1 11:-1 12:-1 
-0 4.90944096473187 0 1:-0.621388 2:-0.665973 3:-0.924681 4:-0.580364 5:-0.389613 6:-0.365164 7:-0.77277 8:-0.411744 9:-1 10:1 11:-1 12:-1 
-0.1319083739735264 2.18665306584079 0.06620581576752999 1:-0.452494 2:-0.350883 3:-0.840271 4:-0.434786 5:-0.0460676 6:0.0411597 7:-0.408988 8:-0.140329 9:-1 10:1 11:-1 12:-1 
-0.7900070725067474 0.4888984160087184 0.3896384253912404 1:-0.399934 2:-0.292977 3:-0.809912 4:-0.38226 5:0.245089 6:0.338345 7:0.041163 8:0.101824 9:-1 10:1 11:-1 12:-1 
-0.6561016459375013 0 0.3241736675406911 1:-0.547392 2:-0.479867 3:-0.889406 4:-0.521859 5:0.00691267 6:0.305609 7:-0.258706 8:-0.13262 9:-1 10:1 11:-1 12:-1 
-0.330900531341048 0.3151932878212038 0.1625735251192781 1:-0.364939 2:-0.567556 3:-0.818396 4:-0.290081 5:0.289147 6:-0.0590557 7:-0.0873981 8:0.251509 9:-1 10:1 11:-1 12:-1 
-0 8 0 1:-0.575353 2:-0.586856 3:-0.905827 4:-0.537645 5:-0.322746 6:-0.136411 7:-0.689635 8:-0.388906 9:-1 10:1 11:-1 12:-1 
-0 8 0 1:-0.640821 2:-0.722021 3:-0.932695 4:-0.595839 5:-0.506109 6:-0.41434 7:-0.842631 8:-0.528599 9:-1 10:1 11:-1 12:-1 
-0 6.02483253654821 0 1:-0.589089 2:-0.716725 3:-0.916587 4:-0.534529 5:-0.360667 6:-0.333829 7:-0.75051 8:-0.386361 9:-1 10:1 11:-1 12:-1 
-0 8 0 1:-0.53242 2:-0.704306 3:-0.896704 4:-0.46843 5:-0.337261 6:-0.392687 7:-0.744778 8:-0.348591 9:-1 10:1 11:-1 12:-1 
-0 8 0 1:-0.646352 2:-0.762713 3:-0.935717 4:-0.596844 5:-0.724135 6:-0.638129 7:-0.945947 8:-0.727925 9:-1 10:1 11:-1 12:-1 
-0 8 0 1:-0.777523 2:-0.780265 3:-0.968349 4:-0.751922 5:-0.74728 6:-0.647015 7:-0.95286 8:-0.752082 9:-1 10:1 11:-1 12:-1 
-0.2716961322323017 0 0.1334472502386037 1:0.0953162 2:-0.800664 3:-0.560834 4:0.299155 5:-0.708052 6:-0.63135 7:-0.940686 8:-0.711468 9:-1 10:1 11:-1 12:-1 
-0 8 0 1:-0.184297 2:-0.592617 3:-0.72566 4:-0.068117 5:-0.683553 6:-0.623669 7:-0.932613 8:-0.685497 9:-1 10:1 11:-1 12:-1 
-0 8 0 1:-0.524168 2:-0.708712 3:-0.89395 4:-0.457873 5:-0.539827 6:-0.468985 7:-0.864513 8:-0.554495 9:-1 10:1 11:-1 12:-1 
-0.2487194247780817 8 0.08493673237269446 1:-0.598352 2:-0.859554 3:-0.924466 4:-0.527937 5:-0.559256 6:-0.458265 7:-0.872058 8:-0.578057 9:-1 10:1 11:-1 12:-1 
-0 8 0 1:-0.673563 2:-0.848635 3:-0.945663 4:-0.619475 5:-0.689084 6:-0.652676 7:-0.935842 8:-0.687476 9:-1 10:1 11:-1 12:-1 
-0 8 0 1:-0.754141 2:-0.796799 3:-0.963724 4:-0.722371 5:-0.620164 6:-0.613352 7:-0.909696 8:-0.617618 9:-1 10:1 11:-1 12:-1 
-0 8 0 1:-0.607581 2:-0.666621 3:-0.920411 4:-0.563456 5:-0.575009 6:-0.467646 7:-0.880067 8:-0.593277 9:-1 10:1 11:-1 12:-1 
-0 8 0 1:-0.518509 2:-0.718935 3:-0.892322 4:-0.449636 5:-0.636295 6:-0.571924 7:-0.91293 8:-0.642162 9:-1 10:1 11:-1 12:-1 
-0 8 0 1:-0.52181 2:-0.788891 3:-0.896566 4:-0.444192 5:-0.682571 6:-0.589155 7:-0.92948 8:-0.692073 9:-1 10:1 11:-1 12:-1 
-0 8 0 1:-0.626565 2:-0.694075 3:-0.927427 4:-0.582434 5:-0.636674 6:-0.590799 7:-0.914249 8:-0.63981 9:-1 10:1 11:-1 12:-1 
-0 8 0 1:-0.686994 2:-0.681916 3:-0.9442 4:-0.65636 5:-0.590361 6:-0.614789 7:-0.898256 8:-0.584795 9:-1 10:1 11:-1 12:-1 
-0.02839401219169195 8 0.01727072301431615 1:-0.547703 2:-0.575572 3:-0.895453 4:-0.506814 5:-0.407439 6:-0.00275297 7:-0.720407 8:-0.504325 9:-1 10:1 11:-1 12:-1 
-0 8 0 1:-0.635488 2:-0.636031 3:-0.927697 4:-0.601495 5:-0.422675 6:-0.451638 7:-0.802981 8:-0.430645 9:-1 10:1 11:-1 12:-1 
-0 8 0 1:-0.550156 2:-0.580595 3:-0.89667 4:-0.508401 5:-0.244582 6:-0.188678 7:-0.643074 8:-0.293488 9:-1 10:1 11:-1 12:-1 
-0.04664795272412944 0 0.01761183927002725 1:-0.555051 2:-0.542222 3:-0.896166 4:-0.520559 5:-0.0117267 6:-0.112638 7:-0.428082 8:-0.0566611 9:-1 10:1 11:-1 12:-1 
-0.1193793601060053 0.07703684428738275 0.06204933315870084 1:-0.351649 2:-0.514053 3:-0.807827 4:-0.284026 5:0.112826 6:-0.2866 7:-0.357942 8:0.120117 9:1 10:-1 11:-1 12:-1 
-0.2576874188101012 0.1669201209777893 0.1309497369748951 1:-0.421855 2:-0.439998 3:-0.834487 4:-0.380985 5:-0.00281437 6:-0.355558 7:-0.483261 8:0.00980654 9:1 10:-1 11:-1 12:-1 
-0.5298579231192381 0.3434878371188957 0.2614445482859946 1:-0.479208 2:-0.427121 3:-0.858314 4:-0.450997 5:0.0297664 6:0.136608 7:-0.302416 8:-0.0790944 9:1 10:-1 11:-1 12:-1 
-0.06456778878951137 0.04237407017609482 0.03247433562247067 1:-0.339417 2:-0.613956 3:-0.809584 4:-0.25233 5:0.362091 6:-0.158525 7:-0.0416485 8:0.359148 9:1 10:-1 11:-1 12:-1 
-0.09623332391110825 0.06463603169133492 0.0490624851830346 1:-0.227114 2:-0.595495 3:-0.750191 4:-0.120121 5:0.641787 6:0.0106003 7:0.412627 8:0.613231 9:1 10:-1 11:-1 12:-1 
-0 0 4.761300209972245 1:-0.457529 2:-0.733544 3:-0.869556 4:-0.373949 5:-0.853751 6:-0.824181 7:-0.982119 8:-0.847029 9:1 10:-1 11:-1 12:-1 
-0.2222979946402389 0.1410663689140292 0.1229010597042202 1:-0.367957 2:-0.709899 3:-0.82984 4:-0.270399 5:-0.399147 6:-0.353758 7:-0.776789 8:-0.424699 9:1 10:-1 11:-1 12:-1 
-1.944002818093168 0.3955242581802242 0.297689431232482 1:-0.0655678 2:-0.633676 3:-0.656719 4:0.0804463 5:-0.196961 6:-0.32551 7:-0.636519 8:-0.210285 9:-1 10:-1 11:-1 12:1 
-0.1560221239580305 0.2656510791663533 0.1822630891915821 1:0.0371879 2:-0.711891 3:-0.594696 4:0.216325 5:-0.426997 6:-0.371386 7:-0.794783 8:-0.452012 9:-1 10:-1 11:-1 12:1 
-1.205113024386933 0 0 1:-0.0984789 2:-0.629956 3:-0.67696 4:0.0395432 5:-0.439115 6:-0.455349 7:-0.812672 8:-0.447377 9:-1 10:-1 11:-1 12:1 
-0 0 3.734205169059399 1:-0.387483 2:-0.549928 3:-0.827765 4:-0.316636 5:-0.763233 6:-0.824585 7:-0.963345 8:-0.746337 9:1 10:-1 11:-1 12:-1 
-0.3338238578707775 0.2166616254168554 0.1661375075667839 1:-0.169198 2:-0.477331 3:-0.704773 4:-0.0733093 5:-0.0805335 6:0.0576101 7:-0.439966 8:-0.174472 9:1 10:-1 11:-1 12:-1 
-0.3008115838358993 0.1943161342514056 0.1491304189655886 1:-0.360954 2:-0.333358 3:-0.79473 4:-0.328297 5:-0.124424 6:0.0920627 7:-0.469574 8:-0.226189 9:1 10:-1 11:-1 12:-1 
-0.08229230252529868 0.05134290735295573 0 1:-0.558572 2:-0.804501 3:-0.909888 4:-0.486492 5:-0.67678 6:-0.643994 7:-0.931356 8:-0.675425 9:1 10:-1 11:-1 12:-1 
-0.01743098787610283 0.0128383823387558 0.01672629293270517 1:-0.667344 2:-0.474491 3:-0.929546 4:-0.663072 5:-0.462389 6:-0.165973 7:-0.78513 8:-0.526393 9:1 10:-1 11:-1 12:-1 
-0 8 0 1:-0.651231 2:-0.743814 3:-0.936489 4:-0.605244 5:-0.47751 6:-0.269732 7:-0.809426 8:-0.524804 9:-1 10:1 11:-1 12:-1 
-0.0599160490993545 0.03805970595114862 0.06774009264065961 1:-0.528266 2:-0.425098 3:-0.878244 4:-0.505777 5:-0.421399 6:-0.247345 7:-0.773863 8:-0.467732 9:1 10:-1 11:-1 12:-1 
-0.1190439263844878 0.07665237010519396 0.06152539051124298 1:-0.294695 2:-0.420467 3:-0.76984 4:-0.229717 5:-0.257069 6:-0.0398672 7:-0.619551 8:-0.328109 9:1 10:-1 11:-1 12:-1 
-0 0 0.1246274555716739 1:-0.718149 2:-0.682314 3:-0.952265 4:-0.692461 5:-0.776961 6:-0.505911 7:-0.954328 8:-0.802168 9:1 10:-1 11:-1 12:-1 
-0 8 0 1:-0.758168 2:-0.761995 3:-0.963777 4:-0.731218 5:-0.602297 6:-0.515258 7:-0.89565 8:-0.613875 9:-1 10:1 11:-1 12:-1 
-0 8 0 1:-0.622085 2:-0.68887 3:-0.92584 4:-0.577867 5:-0.524501 6:-0.382254 7:-0.848102 8:-0.552446 9:-1 10:1 11:-1 12:-1 
-0 8 0 1:-0.732514 2:-0.752902 3:-0.957831 4:-0.701266 5:-0.713282 6:-0.60901 7:-0.941195 8:-0.720306 9:-1 10:1 11:-1 12:-1 
-0 8 0 1:-0.803543 2:-0.813646 3:-0.974166 4:-0.779121 5:-0.683543 6:-0.646689 7:-0.933847 8:-0.681866 9:-1 10:1 11:-1 12:-1 
-0 8 0 1:-0.802209 2:-0.819161 3:-0.974023 4:-0.776884 5:-0.70817 6:-0.709377 7:-0.944501 8:-0.69988 9:-1 10:1 11:-1 12:-1 
-0 8 0 1:-0.750181 2:-0.744492 3:-0.961662 4:-0.723189 5:-0.722708 6:-0.622419 7:-0.944747 8:-0.728234 9:-1 10:1 11:-1 12:-1 
-0 8 0 1:-0.693657 2:-0.6864 3:-0.946129 4:-0.663486 5:-0.529473 6:-0.441258 7:-0.856905 8:-0.547382 9:-1 10:1 11:-1 12:-1 
-8 0 0 1:-0.549132 2:-0.666532 3:-0.900846 4:-0.493242 5:-0.473807 6:-0.518566 7:-0.83772 8:-0.473099 9:-1 10:-1 11:-1 12:1 
-8 0 0 1:-0.602307 2:-0.721156 3:-0.921014 4:-0.549673 5:-0.455877 6:-0.532509 7:-0.830132 8:-0.450508 9:-1 10:-1 11:-1 12:1 
-8 0 0 1:-0.530412 2:-0.633001 3:-0.892342 4:-0.476854 5:-0.481324 6:-0.453203 7:-0.834585 8:-0.493631 9:-1 10:-1 11:-1 12:1 
-8 0.1600835645201924 0.1184685710959369 1:-0.324827 2:-0.444175 3:-0.78792 4:-0.264581 5:0.09172 6:0.00734812 7:-0.285456 8:0.0238051 9:-1 10:-1 11:-1 12:1 
-4.134941611798329 0 0 1:-0.3101 2:-0.444286 3:-0.780378 4:-0.247232 5:0.215414 6:-0.0468123 7:-0.170382 8:0.168738 9:-1 10:-1 11:-1 12:1 
-0.6583086035816426 0.4259595729756649 0.3247079285634559 1:-0.596559 2:-0.683463 3:-0.917623 4:-0.548037 5:0.302769 6:-0.181027 7:-0.120375 8:0.303753 9:1 10:-1 11:-1 12:-1 
-0.3410932756988481 0.2201903950048228 0.01302352030474209 1:0.00137134 2:-0.373949 3:-0.578476 4:0.112699 5:-0.749028 6:-0.582535 7:-0.9504 8:-0.762732 9:1 10:-1 11:-1 12:-1 
-0.1486465609329522 0.09502373052325744 0.06603018568344667 1:-0.0623271 2:-0.614782 3:-0.652733 4:0.0809688 5:-0.426305 6:-0.447628 7:-0.804861 8:-0.433966 9:1 10:-1 11:-1 12:-1 
-0 8 0 1:-0.803817 2:-0.799113 3:-0.973892 4:-0.781325 5:-0.642592 6:-0.625195 7:-0.918727 8:-0.640205 9:-1 10:1 11:-1 12:-1 
-0 8 0 1:-0.786015 2:-0.79644 3:-0.970387 4:-0.760406 5:-0.663687 6:-0.637649 7:-0.92676 8:-0.661557 9:-1 10:1 11:-1 12:-1 
-0 8 0 1:-0.700198 2:-0.746185 3:-0.949757 4:-0.663181 5:-0.648464 6:-0.614347 7:-0.920159 8:-0.648346 9:-1 10:1 11:-1 12:-1 
-0.2364447378530631 0.1528926674733578 0 1:-0.170621 2:-0.32271 3:-0.686306 4:-0.0978652 5:-0.847432 6:-0.762554 7:-0.979735 8:-0.846652 9:1 10:-1 11:-1 12:-1 
-0.1394277620811657 0.09211940663794986 0 1:-0.851691 2:-0.859299 3:-0.983141 4:-0.831993 5:-0.59167 6:-0.5286 7:-0.892402 8:-0.599941 9:1 10:-1 11:-1 12:-1 
-0.1457387861939596 0.09385928518065198 0.06122336710427975 1:-0.421955 2:-0.387611 3:-0.829843 4:-0.388465 5:-0.30519 6:-0.141673 7:-0.678482 8:-0.356439 9:1 10:-1 11:-1 12:-1 
-0 0 2.928449622615922 1:-0.573196 2:-0.421904 3:-0.895036 4:-0.558255 5:-0.818035 6:-0.711489 7:-0.972516 8:-0.820618 9:1 10:-1 11:-1 12:-1 
-0.411937890721516 0.2659599416528293 3.228031885493591 1:-0.373501 2:-0.171395 3:-0.782439 4:-0.354231 5:-0.789218 6:-0.749328 7:-0.967298 8:-0.783844 9:1 10:-1 11:-1 12:-1 
-0 0 2.511561104812933 1:-0.707194 2:-0.585334 3:-0.945925 4:-0.693599 5:-0.766654 6:-0.584751 7:-0.955319 8:-0.780676 9:1 10:-1 11:-1 12:-1 
-0.9374686658913018 0.6069035988526231 0.4624937179752605 1:-0.146644 2:-0.457152 3:-0.688699 4:-0.0505423 5:0.845871 6:-0.122494 7:0.651515 8:0.882235 9:-1 10:1 11:-1 12:-1 
-0.8113842931308659 0.5733406162596192 0.399847359149433 1:-0.243319 2:-0.458435 3:-0.745804 4:-0.16535 5:0.465587 6:-0.0755644 7:0.12351 8:0.448966 9:-1 10:1 11:-1 12:-1 
-0.1985642194000843 0.748249401080442 0.09571225306139276 1:-0.36013 2:-0.598234 3:-0.818695 4:-0.278927 5:0.00685938 6:-0.346772 7:-0.473687 8:0.0191701 9:-1 10:1 11:-1 12:-1 
-8 0 0 1:-0.449532 2:-0.613425 3:-0.859551 4:-0.383145 5:-0.298875 6:-0.227219 7:-0.691203 8:-0.340867 9:-1 10:-1 11:-1 12:1 
-8 0 0 1:-0.360895 2:-0.606724 3:-0.819684 4:-0.278284 5:-0.199567 6:-0.331803 7:-0.63994 8:-0.211164 9:-1 10:-1 11:-1 12:1 
-8 0 0 1:-0.529465 2:-0.676229 3:-0.894244 4:-0.46908 5:-0.221239 6:-0.373991 7:-0.663673 8:-0.224343 9:-1 10:-1 11:-1 12:1 
-8 0.2863071411239003 0.2767322464023806 1:-0.649672 2:-0.723039 3:-0.9353 4:-0.606273 5:-0.177751 6:-0.380154 7:-0.632773 8:-0.175656 9:-1 10:-1 11:-1 12:1 
-8 0.2502358023184118 0 1:-0.69681 2:-0.7734 3:-0.949661 4:-0.656115 5:-0.362139 6:-0.336224 7:-0.751808 8:-0.386929 9:-1 10:-1 11:-1 12:1 
-0.8373173115653364 0.3019611045601742 3.507124261510104 1:-0.682377 2:-0.733282 3:-0.944676 4:-0.643887 5:-0.671869 6:-0.305986 7:-0.905369 8:-0.721842 9:-1 10:-1 11:-1 12:1 
-0 0 8 1:-0.748357 2:-0.716194 3:-0.960429 4:-0.724169 5:-0.858964 6:-0.663625 7:-0.979359 8:-0.870546 9:-1 10:-1 11:-1 12:1 
-8 0 8 1:-0.874909 2:-0.872555 3:-0.986734 4:-0.858554 5:-0.830254 6:-0.72281 7:-0.975394 8:-0.832408 9:-1 10:-1 11:-1 12:1 
-8 0.4411907261937584 8 1:-0.908933 2:-0.901829 3:-0.991441 4:-0.896656 5:-0.831205 6:-0.758249 7:-0.976528 8:-0.829318 9:-1 10:-1 11:-1 12:1 
-0 0 3.863748717597026 1:-0.862811 2:-0.811389 3:-0.984126 4:-0.850287 5:-0.754407 6:-0.54078 7:-0.949806 8:-0.77409 9:-1 10:-1 11:-1 12:1 
-0 0 0.1364809277675581 1:-0.458445 2:-0.410357 3:-0.84822 4:-0.424994 5:-0.81865 6:-0.755056 7:-0.973902 8:-0.815914 9:1 10:-1 11:-1 12:-1 
-0 0 8 1:-0.812791 2:-0.701806 3:-0.973548 4:-0.802202 5:-0.891788 6:-0.814476 7:-0.988094 8:-0.889708 9:1 10:-1 11:-1 12:-1 
-0 0 0.6904806150877602 1:-0.323928 2:-0.471783 3:-0.790212 4:-0.255214 5:-0.911341 6:-0.747419 7:-0.989755 8:-0.917737 9:1 10:-1 11:-1 12:-1 
-0 0 7.901721205140982 1:-0.678759 2:-0.582868 3:-0.938058 4:-0.657864 5:-0.860712 6:-0.67584 7:-0.980015 8:-0.870833 9:1 10:-1 11:-1 12:-1 
-5.126193607248013 0 8 1:-0.626346 2:-0.663021 3:-0.926096 4:-0.585943 5:-0.823703 6:-0.709178 7:-0.973663 8:-0.826965 9:-1 10:-1 11:-1 12:1 
-6.581142322202441 0.2388975838901523 8 1:-0.733953 2:-0.640584 3:-0.954756 4:-0.71723 5:-0.848816 6:-0.723292 7:-0.979035 8:-0.852605 9:-1 10:-1 11:-1 12:1 
-0 0 1.94579310537975 1:-0.326541 2:-0.559903 3:-0.799378 4:-0.244006 5:-0.817572 6:-0.688803 7:-0.97173 8:-0.822975 9:1 10:-1 11:-1 12:-1 
-0 0.3628060404133826 0 1:-0.530999 2:-0.578756 3:-0.889528 4:-0.485815 5:-0.24539 6:-0.361227 7:-0.678567 8:-0.254341 9:-1 10:1 11:-1 12:-1 
-0 8 0 1:-0.545862 2:-0.667195 3:-0.899623 4:-0.490081 5:-0.291622 6:-0.244501 7:-0.689306 8:-0.331231 9:-1 10:1 11:-1 12:-1 
-0 5.28990089143674 0 1:-0.398455 2:-0.644544 3:-0.839465 4:-0.317152 5:0.0734411 6:-0.170951 7:-0.363633 8:0.0470322 9:-1 10:1 11:-1 12:-1 
-0.3574739729862037 0 0.1906413350700395 1:-0.551654 2:-0.704364 3:-0.90349 4:-0.491504 5:-0.212172 6:-0.479002 7:-0.674884 8:-0.192172 9:-1 10:1 11:-1 12:-1 
-0 0 8 1:-0.33177 2:-0.474981 3:-0.794485 4:-0.264283 5:-0.913096 6:-0.758615 7:-0.990172 8:-0.918611 9:1 10:-1 11:-1 12:-1 
-0.2364134935119091 0.1535378139126268 0.8753054044247658 1:-0.164084 2:-0.603842 3:-0.714873 4:-0.0407589 5:-0.929214 6:-0.76099 7:-0.992306 8:-0.935755 9:1 10:-1 11:-1 12:-1 
-0 0 8 1:-0.897194 2:-0.867959 3:-0.989657 4:-0.885238 5:-0.972053 6:-0.928366 7:-0.998214 8:-0.968318 9:1 10:-1 11:-1 12:-1 
-0.5699194018314926 0.3682566862091184 0 1:-0.61594 2:-0.624166 3:-0.92114 4:-0.579173 5:-0.95135 6:-0.8808 7:-0.996096 8:-0.949111 9:1 10:-1 11:-1 12:-1 
-0.1135020371572911 0 0.05397205341040891 1:-0.693854 2:-0.769399 3:-0.94879 4:-0.653045 5:-0.366199 6:-0.333392 7:-0.753885 8:-0.392514 9:-1 10:1 11:-1 12:-1 
-0.3392326997902543 0.7449992807864364 0.1695957925801012 1:-0.655864 2:-0.463701 3:-0.925466 4:-0.648389 5:-0.20457 6:-0.0390302 7:-0.577498 8:-0.267533 9:-1 10:1 11:-1 12:-1 
-0 8 0 1:-0.845927 2:-0.814894 3:-0.981564 4:-0.829654 5:-0.729623 6:-0.635586 7:-0.947424 8:-0.733776 9:-1 10:1 11:-1 12:-1 
-0 8 0 1:-0.847815 2:-0.835857 3:-0.982172 4:-0.829847 5:-0.692295 6:-0.567186 7:-0.932246 8:-0.703273 9:-1 10:1 11:-1 12:-1 
-0.5683760083334515 0 0 1:-0.839257 2:-0.842182 3:-0.980889 4:-0.818972 5:-0.556937 6:-0.654532 7:-0.887514 8:-0.540897 9:-1 10:1 11:-1 12:-1 
-0.6860269553937443 2.749077125232909 0.3491524311205087 1:-0.755461 2:-0.649292 3:-0.960096 4:-0.741591 5:-0.462619 6:0.0364898 7:-0.749227 8:-0.558048 9:-1 10:1 11:-1 12:-1 
-0.5920755377691534 8 2.252143279412387 1:-0.865916 2:-0.876364 3:-0.985492 4:-0.847445 5:-0.833989 6:-0.760664 7:-0.977136 8:-0.832027 9:-1 10:1 11:-1 12:-1 
-0 8 0 1:-0.585855 2:-0.677229 3:-0.913846 4:-0.536152 5:-0.426083 6:-0.422738 7:-0.801619 8:-0.438387 9:-1 10:1 11:-1 12:-1 
-0 8 0 1:-0.573684 2:-0.695527 3:-0.910634 4:-0.518924 5:-0.389242 6:-0.419225 7:-0.780203 8:-0.399293 9:-1 10:1 11:-1 12:-1 
-0 8 0 1:-0.379704 2:-0.526237 3:-0.822292 4:-0.314044 5:-0.238865 6:-0.100046 7:-0.619928 8:-0.302922 9:-1 10:1 11:-1 12:-1 
-0.123954571562999 6.663082112956046 0.06344828912278125 1:-0.188031 2:-0.623738 3:-0.730597 4:-0.0681542 5:-0.473663 6:-0.385595 7:-0.822672 8:-0.497974 9:-1 10:1 11:-1 12:-1 
-0 8 0 1:-0.328913 2:-0.527915 3:-0.797827 4:-0.25067 5:-0.407752 6:-0.401535 7:-0.788341 8:-0.423458 9:-1 10:1 11:-1 12:-1 
-0 6.544192035550696 0 1:-0.599661 2:-0.719106 3:-0.920059 4:-0.546595 5:-0.431414 6:-0.217859 7:-0.775165 8:-0.483068 9:-1 10:1 11:-1 12:-1 
-0.06028282548687906 0.03262076002343393 0 1:-0.586219 2:-0.647221 3:-0.912595 4:-0.541076 5:-0.549004 6:-0.193148 7:-0.836904 8:-0.61075 9:1 10:-1 11:-1 12:-1 
-0.07746001552382187 0.05490523541964449 0 1:-0.470165 2:-0.598858 3:-0.867119 4:-0.410249 5:-0.49318 6:-0.227895 7:-0.812056 8:-0.547674 9:1 10:-1 11:-1 12:-1 
-0.2956942878427207 0.1916289066776651 0.1414113820238365 1:-0.713393 2:-0.803694 3:-0.954613 4:-0.67228 5:-0.282457 6:-0.212318 7:-0.676712 8:-0.326491 9:1 10:-1 11:-1 12:-1 
-0.3460812676318522 0.2243147049268477 0.1593786005839258 1:-0.576561 2:-0.720466 3:-0.912663 4:-0.518894 5:-0.120789 6:-0.394318 7:-0.591588 8:-0.109382 9:1 10:-1 11:-1 12:-1 
-0.3480347441340673 0.2252014049512726 0.1778068036532071 1:-0.631002 2:-0.676601 3:-0.928065 4:-0.590124 5:0.0484022 6:-0.270038 7:-0.41612 8:0.0463506 9:1 10:-1 11:-1 12:-1 
-0.5254448146669537 0.3408445963261283 0.2599424929278111 1:-0.447728 2:-0.488712 3:-0.849954 4:-0.401387 5:0.417632 6:0.0674161 7:0.127486 8:0.353797 9:1 10:-1 11:-1 12:-1 
-0 0 8 1:-0.361577 2:-0.369997 3:-0.799116 4:-0.317677 5:-0.847852 6:-0.772842 7:-0.980037 8:-0.845882 9:1 10:-1 11:-1 12:-1 
-0.1787156037138305 0.1157185033322636 0.08569617006251536 1:-0.231706 2:-0.61826 3:-0.754694 4:-0.121526 5:0.108072 6:-0.198688 7:-0.33742 8:0.0926031 9:1 10:-1 11:-1 12:-1 
-8 0 8 1:-0.765146 2:-0.802284 3:-0.966286 4:-0.7342 5:-0.844114 6:-0.765803 7:-0.979192 8:-0.842648 9:-1 10:-1 11:-1 12:1 
-8 0 8 1:-0.845574 2:-0.861272 3:-0.982174 4:-0.824702 5:-0.83009 6:-0.767477 7:-0.976536 8:-0.827004 9:-1 10:-1 11:-1 12:1 
-2.575658163317451 0 0 1:-0.82019 2:-0.83006 3:-0.977473 4:-0.797267 5:-0.798651 6:-0.625564 7:-0.965233 8:-0.810457 9:-1 10:-1 11:-1 12:1 
-8 0 0 1:-0.745085 2:-0.822737 3:-0.962414 4:-0.708041 5:-0.685621 6:-0.567405 7:-0.930055 8:-0.696209 9:-1 10:-1 11:-1 12:1 
-0 0 8 1:-0.573579 2:-0.64948 3:-0.908468 4:-0.524529 5:-0.748633 6:-0.544815 7:-0.948377 8:-0.767631 9:-1 10:-1 11:-1 12:1 
-1.636490677425981 0 0 1:-0.534762 2:-0.691547 3:-0.896959 4:-0.472472 5:-0.693304 6:-0.472543 7:-0.926498 8:-0.719114 9:-1 10:-1 11:-1 12:1 
-8 0 0 1:-0.704383 2:-0.785387 3:-0.95192 4:-0.663635 5:-0.648821 6:-0.485631 7:-0.911469 8:-0.669132 9:-1 10:-1 11:-1 12:1 
-8 0 0 1:-0.711118 2:-0.782209 3:-0.953497 4:-0.672063 5:-0.643711 6:-0.57214 7:-0.915748 8:-0.649905 9:-1 10:-1 11:-1 12:1 
-0.3751695951875855 0.2429363355898741 0.1741851733765877 1:-0.277502 2:-0.384596 3:-0.756613 4:-0.216856 5:-0.296804 6:-0.469174 7:-0.730416 8:-0.287988 9:1 10:-1 11:-1 12:-1 
-0.05979323819587549 0.01094553443671429 0 1:-0.905077 2:-0.894812 3:-0.990914 4:-0.892635 5:-0.842302 6:-0.683439 7:-0.976689 8:-0.850261 9:1 10:-1 11:-1 12:-1 
-0.158071798253253 0.1364704306651987 0 1:-0.906688 2:-0.888863 3:-0.991052 4:-0.895083 5:-0.807089 6:-0.6913 7:-0.969516 8:-0.811006 9:1 10:-1 11:-1 12:-1 
-0.4566817540740429 0.2942513256516888 0 1:-0.826203 2:-0.744601 3:-0.976951 4:-0.813756 5:-0.623597 6:-0.307943 7:-0.885646 8:-0.669871 9:1 10:-1 11:-1 12:-1 
-0.3167169464148725 0.2053006106469555 1.177313056668101 1:-0.47266 2:-0.777095 3:-0.877679 4:-0.386597 5:-0.79162 6:-0.55338 7:-0.960496 8:-0.812143 9:1 10:-1 11:-1 12:-1 
-0.07781099729896772 0.05303095178867184 0.4243703813652008 1:-0.672668 2:-0.742239 3:-0.942316 4:-0.630818 5:-0.644022 6:-0.286096 7:-0.892132 8:-0.690196 9:1 10:-1 11:-1 12:-1 
-0.6619265930761251 0.4282907446590147 0.3185945973809842 1:-0.625551 2:-0.473343 3:-0.916373 4:-0.614502 5:-0.413794 6:0.122281 7:-0.698144 8:-0.524012 9:1 10:-1 11:-1 12:-1 
-0.701553386189677 0.4541767499349278 0.6614959080711641 1:-0.573141 2:-0.25252 3:-0.882105 4:-0.577314 5:-0.786803 6:-0.399111 7:-0.951355 8:-0.8259 9:1 10:-1 11:-1 12:-1 
-0 0 6.971210081584329 1:-0.916265 2:-0.922455 3:-0.992462 4:-0.903756 5:-0.883475 6:-0.81741 7:-0.986896 8:-0.880321 9:1 10:-1 11:-1 12:-1 
-0 0 8 1:-0.917411 2:-0.886941 3:-0.992286 4:-0.908077 5:-0.870074 6:-0.800955 7:-0.984485 8:-0.867274 9:1 10:-1 11:-1 12:-1 
-0 0 8 1:-0.922352 2:-0.895818 3:-0.99292 4:-0.913209 5:-0.89342 6:-0.784351 7:-0.987822 8:-0.894718 9:1 10:-1 11:-1 12:-1 
-0 0 8 1:-0.866084 2:-0.747713 3:-0.983629 4:-0.860367 5:-0.922538 6:-0.803861 7:-0.992089 8:-0.924447 9:1 10:-1 11:-1 12:-1 
-0 0 8 1:-0.923888 2:-0.92429 3:-0.993321 4:-0.912708 5:-0.907448 6:-0.812324 7:-0.99025 8:-0.907207 9:1 10:-1 11:-1 12:-1 
-0.07186164863469188 0.04666154134845501 3.35747238950242 1:-0.310806 2:-0.30256 3:-0.765205 4:-0.260661 5:-0.874517 6:-0.756137 7:-0.984333 8:-0.876885 9:1 10:-1 11:-1 12:-1 
-0 0 8 1:-0.362648 2:-0.57477 3:-0.818109 4:-0.282703 5:-0.907921 6:-0.787901 7:-0.989947 8:-0.910166 9:1 10:-1 11:-1 12:-1 
-0 0 2.338214442827289 1:-0.50762 2:-0.656619 3:-0.885184 4:-0.444028 5:-0.927398 6:-0.829016 7:-0.992999 8:-0.927378 9:1 10:-1 11:-1 12:-1 
-0.3299329203708428 0.214232001858211 1.557933324460774 1:-0.366607 2:-0.764227 3:-0.832288 4:-0.260676 5:-0.904662 6:-0.86019 7:-0.990552 8:-0.899481 9:1 10:-1 11:-1 12:-1 
-0 8 0 1:-0.65203 2:-0.715579 3:-0.93574 4:-0.60892 5:-0.90762 6:-0.779382 7:-0.989773 8:-0.910582 9:-1 10:1 11:-1 12:-1 
-0 8 0 1:-0.613385 2:-0.793237 3:-0.927037 4:-0.553206 5:-0.910916 6:-0.802247 7:-0.990573 8:-0.911943 9:-1 10:1 11:-1 12:-1 
-0.5516227221204527 8 0.1588499418669893 1:-0.583658 2:-0.866918 3:-0.920083 4:-0.509419 5:-0.886057 6:-0.84016 7:-0.987653 8:-0.880852 9:-1 10:1 11:-1 12:-1 
-0 8 0 1:-0.574751 2:-0.78011 3:-0.914392 4:-0.508805 5:-0.742864 6:-0.626916 7:-0.950792 8:-0.749571 9:-1 10:1 11:-1 12:-1 
-0.224523330504799 8 0.1392615681641708 1:-0.503883 2:-0.556539 3:-0.877857 4:-0.456952 5:-0.680474 6:-0.435522 7:-0.919327 8:-0.711488 9:-1 10:1 11:-1 12:-1 
-0.4239257568106355 5.995542206732607 0.2063592729921771 1:-0.183958 2:-0.531817 3:-0.719491 4:-0.0795445 5:-0.624538 6:-0.380771 7:-0.893096 8:-0.660419 9:-1 10:1 11:-1 12:-1 
-0.4407839118059979 5.459885842615145 0.2184616410016705 1:-0.00915281 2:-0.807905 3:-0.634474 4:0.17448 5:-0.694372 6:-0.47684 7:-0.927132 8:-0.719667 9:-1 10:1 11:-1 12:-1 
-0 8 0 1:-0.302951 2:-0.696253 3:-0.797878 4:-0.193352 5:-0.750293 6:-0.755182 7:-0.957957 8:-0.740447 9:-1 10:1 11:-1 12:-1 
-0 8 0 1:-0.692151 2:-0.614905 3:-0.942994 4:-0.669411 5:-0.761932 6:-0.768121 7:-0.961352 8:-0.751662 9:-1 10:1 11:-1 12:-1 
-0 8 0 1:-0.839164 2:-0.856263 3:-0.981049 4:-0.817694 5:-0.74359 6:-0.650826 7:-0.952077 8:-0.747136 9:-1 10:1 11:-1 12:-1 
-0 8 0 1:-0.748599 2:-0.786333 3:-0.962343 4:-0.716474 5:-0.577626 6:-0.581501 7:-0.890767 8:-0.575693 9:-1 10:1 11:-1 12:-1 
-0 8 0 1:-0.594797 2:-0.773701 3:-0.920615 4:-0.533457 5:-0.502258 6:-0.529548 7:-0.852768 8:-0.502211 9:-1 10:1 11:-1 12:-1 
-0.004246304127320639 0 0.03578465903965374 1:-0.77852 2:-0.69627 3:-0.966535 4:-0.763193 5:-0.505338 6:-0.416318 7:-0.842512 8:-0.5266 9:-1 10:1 11:-1 12:-1 
-0 8 0 1:-0.354117 2:-0.663332 3:-0.820443 4:-0.26016 5:-0.535077 6:-0.581187 7:-0.87252 8:-0.528601 9:-1 10:1 11:-1 12:-1 
-0.5102178598557994 0 0.2518083195853862 1:0.109807 2:-0.624928 3:-0.532826 4:0.289711 5:-0.55793 6:-0.608323 7:-0.884548 8:-0.549251 9:-1 10:1 11:-1 12:-1 
-0.8454845489109797 0.502599668151992 0.4170138073846961 1:0.380303 2:-0.762645 3:-0.323922 4:0.636839 5:-0.629667 6:-0.664171 7:-0.916416 8:-0.619722 9:-1 10:1 11:-1 12:-1 
-0 2.963971579666076 0 1:0.0394624 2:-0.612556 3:-0.582897 4:0.20375 5:-0.634241 6:-0.540063 7:-0.910011 8:-0.644579 9:-1 10:1 11:-1 12:-1 
-0 8 0 1:-0.494319 2:-0.647752 3:-0.87952 4:-0.431127 5:-0.597749 6:-0.52665 7:-0.894663 8:-0.607322 9:-1 10:1 11:-1 12:-1 
-0 8 0 1:-0.647152 2:-0.658459 3:-0.932142 4:-0.612106 5:-0.499153 6:-0.518011 7:-0.850148 8:-0.50099 9:-1 10:1 11:-1 12:-1 
-0.5759186630699552 0.3211384970038612 0.34794453908447 1:0.110031 2:-0.274842 3:-0.479055 4:0.217069 5:-0.537004 6:-0.503631 7:-0.866493 8:-0.545189 9:-1 10:-1 11:-1 12:1 
-3.885071400235291 0.3286990088069463 0.2119848618597572 1:0.174179 2:-0.389859 3:-0.448046 4:0.319626 5:-0.370584 6:-0.439885 7:-0.771891 8:-0.374971 9:-1 10:-1 11:-1 12:1 
-7.657848565732382 0 0 1:-0.180165 2:-0.514145 3:-0.715408 4:-0.0787821 5:-0.359981 6:-0.435017 7:-0.765006 8:-0.364121 9:-1 10:-1 11:-1 12:1 
-0.8711110829474841 0.1425340791239343 0 1:-0.362032 2:-0.667492 3:-0.824442 4:-0.269707 5:-0.446531 6:-0.496525 7:-0.821438 8:-0.447235 9:-1 10:-1 11:-1 12:1 
-8 0 0 1:-0.437314 2:-0.622231 3:-0.854939 4:-0.367115 5:-0.257095 6:-0.220899 7:-0.660229 8:-0.299122 9:-1 10:-1 11:-1 12:1 
-2.550361191431811 0 0 1:-0.56493 2:-0.602783 3:-0.90313 4:-0.522437 5:-0.24748 6:-0.401038 7:-0.68686 8:-0.248058 9:-1 10:-1 11:-1 12:1 
-3.622814485390477 0.2790738790397713 0.2133586310677735 1:-0.246376 2:-0.425193 3:-0.743882 4:-0.173916 5:0.233429 6:-0.0406871 7:-0.147471 8:0.187838 9:-1 10:-1 11:-1 12:1 
-8 0 0 1:-0.545843 2:-0.725482 3:-0.902428 4:-0.481412 5:-0.147455 6:-0.306581 7:-0.594895 8:-0.159802 9:-1 10:-1 11:-1 12:1 
-0.5776244939859055 0.141396866016583 0.1132402068114155 1:-0.29024 2:-0.535287 3:-0.778747 4:-0.205094 5:-0.217928 6:-0.411234 7:-0.667855 8:-0.213164 9:-1 10:-1 11:-1 12:1 
-0 8 0 1:-0.548293 2:-0.55445 3:-0.894407 4:-0.510198 5:-0.399981 6:-0.295013 7:-0.768537 8:-0.43549 9:-1 10:1 11:-1 12:-1 
-0 8 0 1:-0.414671 2:-0.678994 3:-0.848785 4:-0.330995 5:-0.381093 6:-0.403509 7:-0.773254 8:-0.394011 9:-1 10:1 11:-1 12:-1 
-0.02652876710541826 8 0.01556636152423621 1:-0.402329 2:-0.737824 3:-0.846774 4:-0.307564 5:-0.302917 6:-0.361328 7:-0.717866 8:-0.317884 9:-1 10:1 11:-1 12:-1 
-0 7.640561905562859 0 1:-0.529695 2:-0.725375 3:-0.896714 4:-0.461924 5:-0.243454 6:-0.408092 7:-0.685278 8:-0.242357 9:-1 10:1 11:-1 12:-1 
-0.4391843080170275 4.572896037590632 0.214396889485863 1:-0.250232 2:-0.629149 3:-0.765647 4:-0.141283 5:-0.215164 6:-0.397058 7:-0.663353 8:-0.21292 9:-1 10:1 11:-1 12:-1 
-0 8 0 1:-0.383938 2:-0.579153 3:-0.828385 4:-0.31001 5:-0.297353 6:-0.389053 7:-0.718696 8:-0.305213 9:-1 10:1 11:-1 12:-1 
-0 8 0 1:-0.52339 2:-0.620677 3:-0.889121 4:-0.470065 5:-0.374725 6:-0.362027 7:-0.763464 8:-0.395701 9:-1 10:1 11:-1 12:-1 
-0 8 0 1:-0.438608 2:-0.509982 3:-0.847634 4:-0.387739 5:-0.38174 6:-0.372046 7:-0.769155 8:-0.401008 9:-1 10:1 11:-1 12:-1 
-0 8 0 1:-0.45077 2:-0.527584 3:-0.854182 4:-0.399265 5:-0.272248 6:-0.410336 7:-0.705384 8:-0.273196 9:-1 10:1 11:-1 12:-1 
-0.4732624408250036 0.3060616195316073 0.2310016753218875 1:-0.0577747 2:-0.154913 3:-0.58383 4:-0.0026833 5:0.0341979 6:0.53737 7:-0.120132 8:-0.144746 9:-1 10:-1 11:-1 12:1 
-8 0.06726979935824717 0 1:-0.306865 2:-0.676766 3:-0.79851 4:-0.201755 5:-0.368283 6:-0.277665 7:-0.746197 8:-0.404999 9:-1 10:-1 11:-1 12:1 
-5.152858973358619 0 0.03430164860333074 1:-0.172614 2:-0.511256 3:-0.710626 4:-0.0700188 5:-0.29041 6:-0.297192 7:-0.698431 8:-0.317815 9:-1 10:-1 11:-1 12:1 
-1.061161466878747 0.4959163832963364 0.3789913431997936 1:0.157526 2:-0.313395 3:-0.447838 4:0.284273 5:0.19673 6:-0.155318 7:-0.230491 8:0.184564 9:-1 10:-1 11:-1 12:1 
-4.475010549494471 0.3316845334232981 0.1134115302825519 1:-0.324519 2:-0.421242 3:-0.78555 4:-0.267553 5:-0.487627 6:-0.230728 7:-0.809376 8:-0.5419 9:-1 10:-1 11:-1 12:1 
-0.5570044843339637 0.2981683069623433 0.226037042130963 1:-0.14401 2:-0.0851868 3:-0.631274 4:-0.11827 5:0.0642153 6:0.420807 7:-0.141216 8:-0.0863076 9:-1 10:-1 11:-1 12:1 
-8 0 0 1:-0.590088 2:-0.689953 3:-0.915803 4:-0.539169 5:-0.700839 6:-0.59421 7:-0.936562 8:-0.708441 9:-1 10:-1 11:-1 12:1 
-0 0 1.727625651622625 1:-0.309392 2:-0.668446 3:-0.799189 4:-0.20607 5:-0.720986 6:-0.639542 7:-0.945083 8:-0.723823 9:-1 10:-1 11:-1 12:1 
-0 0.2328168883555554 0.1781022798704983 1:-0.0858024 2:-0.328413 3:-0.632157 4:-0.00257734 5:0.263516 6:0.26185 7:0.0250996 8:0.151895 9:-1 10:-1 11:-1 12:1 
-0.4747400035471169 0.2353801133932691 0.1802082767078669 1:0.0576925 2:-0.151338 3:-0.496168 4:0.132045 5:0.328009 6:0.304158 7:0.131783 8:0.210622 9:-1 10:-1 11:-1 12:1 
-3.690235020615189 0 0 1:-0.488296 2:-0.643857 3:-0.877012 4:-0.423028 5:-0.633761 6:-0.575806 7:-0.912339 8:-0.638246 9:-1 10:-1 11:-1 12:1 
-3.882557916664274 0 0 1:-0.597739 2:-0.591935 3:-0.913694 4:-0.562279 5:-0.66594 6:-0.601376 7:-0.92546 8:-0.669519 9:-1 10:-1 11:-1 12:1 
-1.141850451157682 0 0 1:-0.612002 2:-0.604741 3:-0.91897 4:-0.577775 5:-0.638549 6:-0.57079 7:-0.913772 8:-0.644376 9:-1 10:-1 11:-1 12:1 
-0 0 5.689301499704217 1:-0.645007 2:-0.603607 3:-0.929152 4:-0.616993 5:-0.702957 6:-0.580647 7:-0.936474 8:-0.712595 9:-1 10:-1 11:-1 12:1 
-4.798781135419417 0 0 1:-0.669213 2:-0.607281 3:-0.936397 4:-0.645421 5:-0.387273 6:-0.277497 7:-0.757863 8:-0.424003 9:-1 10:-1 11:-1 12:1 
-8 0.09637919216450176 0.05364821157100366 1:-0.54804 2:-0.666362 3:-0.900445 4:-0.492696 5:-0.092076 6:-0.328297 7:-0.554805 8:-0.0931499 9:-1 10:-1 11:-1 12:1 
-0 0.02036084186305402 0.00964351974451777 1:-0.470552 2:-0.43715 3:-0.855642 4:-0.438002 5:-0.228374 6:-0.309039 7:-0.656638 8:-0.247867 9:-1 10:-1 11:-1 12:1 
-0 0.3807146993608461 0 1:-0.60811 2:-0.283056 3:-0.897678 4:-0.622442 5:-0.486541 6:-0.389508 7:-0.829871 8:-0.507604 9:-1 10:-1 11:-1 12:1 
-8 0 4.636369598366434 1:-0.822034 2:-0.80566 3:-0.977384 4:-0.80205 5:-0.703997 6:-0.665532 7:-0.94122 8:-0.701705 9:-1 10:-1 11:-1 12:1 
-6.278468143125062 0 0 1:-0.704369 2:-0.596459 3:-0.945624 4:-0.688055 5:-0.543337 6:-0.405721 7:-0.859708 8:-0.568894 9:-1 10:-1 11:-1 12:1 
-8 0 0 1:-0.673335 2:-0.596704 3:-0.937118 4:-0.651913 5:-0.489587 6:-0.374669 7:-0.829604 8:-0.517548 9:-1 10:-1 11:-1 12:1 
-2.395471709769934 0 0 1:-0.828799 2:-0.813048 3:-0.978558 4:-0.81017 5:-0.631054 6:-0.515647 7:-0.906937 8:-0.645486 9:-1 10:-1 11:-1 12:1 
-8 0.1112814193890418 0 1:-0.845129 2:-0.833212 3:-0.981713 4:-0.826868 5:-0.63633 6:-0.528907 7:-0.909999 8:-0.648683 9:-1 10:-1 11:-1 12:1 
-0 8 0 1:-0.709509 2:-0.694499 3:-0.950498 4:-0.6811 5:-0.586845 6:-0.569559 7:-0.893642 8:-0.588029 9:-1 10:1 11:-1 12:-1 
-0 8 0 1:-0.776072 2:-0.767844 3:-0.967794 4:-0.751565 5:-0.625022 6:-0.580124 7:-0.909371 8:-0.628192 9:-1 10:1 11:-1 12:-1 
-0 8 0 1:-0.73227 2:-0.73674 3:-0.957333 4:-0.702925 5:-0.658357 6:-0.580963 7:-0.921528 8:-0.664626 9:-1 10:1 11:-1 12:-1 
-0 8 0 1:-0.57223 2:-0.680636 3:-0.909464 4:-0.51906 5:-0.684564 6:-0.565891 7:-0.929536 8:-0.695655 9:-1 10:1 11:-1 12:-1 
-0.1085197064990608 0.08828984754582464 0.004505692314081958 1:0.00187692 2:-0.523174 3:-0.598917 4:0.141524 5:-0.604326 6:-0.424984 7:-0.888732 8:-0.631577 9:-1 10:-1 11:-1 12:1 
-0.8030367156789852 0.538561621638297 0.9897777139188001 1:0.142985 2:-0.665549 3:-0.512184 4:0.336483 5:-0.797195 6:-0.59578 7:-0.96368 8:-0.812892 9:-1 10:-1 11:-1 12:1 
-0.7091505872274918 0.4671595134433364 2.76205072303569 1:-0.259193 2:-0.542619 3:-0.762903 4:-0.16464 5:-0.850831 6:-0.748179 7:-0.980021 8:-0.851999 9:-1 10:-1 11:-1 12:1 
-8 0 0 1:-0.803297 2:-0.844296 3:-0.974675 4:-0.775453 5:-0.796013 6:-0.67855 7:-0.966553 8:-0.800588 9:-1 10:-1 11:-1 12:1 
-8 0 0 1:-0.839104 2:-0.8636 3:-0.981203 4:-0.816504 5:-0.747407 6:-0.606187 7:-0.951053 8:-0.757568 9:-1 10:-1 11:-1 12:1 
-8 0 0 1:-0.830333 2:-0.809826 3:-0.978893 4:-0.811517 5:-0.711858 6:-0.632664 7:-0.941982 8:-0.715051 9:-1 10:-1 11:-1 12:1 
-8 0 0 1:-0.758522 2:-0.80459 3:-0.964934 4:-0.726196 5:-0.741597 6:-0.711327 7:-0.954055 8:-0.736498 9:-1 10:-1 11:-1 12:1 
-7.523700320423973 0 0 1:-0.612818 2:-0.825941 3:-0.927897 4:-0.548906 5:-0.77403 6:-0.725341 7:-0.96289 8:-0.770387 9:-1 10:-1 11:-1 12:1 
-0 0.3101883086632867 1.787456420730528 1:-0.520116 2:-0.861065 3:-0.898551 4:-0.433726 5:-0.774385 6:-0.721381 7:-0.962855 8:-0.771404 9:-1 10:-1 11:-1 12:1 
-7.456232362045274 0 0 1:-0.639235 2:-0.753415 3:-0.933379 4:-0.589226 5:-0.769133 6:-0.703975 7:-0.960952 8:-0.767755 9:-1 10:-1 11:-1 12:1 
-8 0 0.3196523009908711 1:-0.801634 2:-0.804734 3:-0.97361 4:-0.777801 5:-0.735261 6:-0.70136 7:-0.951921 8:-0.730813 9:-1 10:-1 11:-1 12:1 
-0.1746183437652049 0 8 1:-0.401507 2:-0.555266 3:-0.834605 4:-0.332294 5:-0.777061 6:-0.709666 7:-0.963043 8:-0.776138 9:-1 10:-1 11:-1 12:1 
-0 8 0 1:-0.744634 2:-0.72095 3:-0.959766 4:-0.719626 5:-0.723623 6:-0.661752 7:-0.9469 8:-0.72373 9:-1 10:1 11:-1 12:-1 
-0.04151420972346066 0 0.01349139628849773 1:-0.737845 2:-0.656872 3:-0.95623 4:-0.719665 5:-0.324895 6:-0.16902 7:-0.69781 8:-0.375075 9:-1 10:1 11:-1 12:-1 
-0.7064271368260565 0.4582852988666792 8 1:-0.922047 2:-0.941836 3:-0.993217 4:-0.909501 5:-0.970298 6:-0.90357 7:-0.997923 8:-0.968219 9:1 10:-1 11:-1 12:-1 
-0.02402382999127584 0.0170543584584296 0 1:-0.665516 2:-0.744831 3:-0.940531 4:-0.622154 5:-0.475565 6:-0.145389 7:-0.789558 8:-0.544443 9:1 10:-1 11:-1 12:-1 
-0 0 0.06147939997233492 1:-0.544229 2:-0.593624 3:-0.89526 4:-0.498969 5:-0.308099 6:-0.454237 7:-0.735555 8:-0.302893 9:1 10:-1 11:-1 12:-1 
-0.01617076480063692 0.01028227115086319 0 1:-0.54161 2:-0.60501 3:-0.894895 4:-0.494421 5:-0.193855 6:-0.422023 7:-0.652312 8:-0.182004 9:1 10:-1 11:-1 12:-1 
-0 8 0 1:-0.680408 2:-0.772385 3:-0.945409 4:-0.636414 5:-0.642689 6:-0.438134 7:-0.905386 8:-0.668581 9:-1 10:1 11:-1 12:-1 
-0 8 0 1:-0.664715 2:-0.787134 3:-0.941633 4:-0.615849 5:-0.739456 6:-0.521566 7:-0.944388 8:-0.760988 9:-1 10:1 11:-1 12:-1 
-0 8 0 1:-0.618124 2:-0.710279 3:-0.9255 4:-0.569927 5:-0.653494 6:-0.516168 7:-0.915448 8:-0.66885 9:-1 10:1 11:-1 12:-1 
-0 8 0 1:-0.64529 2:-0.694186 3:-0.932994 4:-0.604777 5:-0.573214 6:-0.557687 7:-0.887078 8:-0.575205 9:-1 10:1 11:-1 12:-1 
-0 3.855738151373935 0 1:0.00777407 2:-0.691202 3:-0.613357 4:0.178342 5:-0.612827 6:-0.615723 7:-0.907147 8:-0.60886 9:-1 10:1 11:-1 12:-1 
-0 8 0 1:-0.384157 2:-0.682575 3:-0.835525 4:-0.293765 5:-0.587468 6:-0.55933 7:-0.89306 8:-0.590513 9:-1 10:1 11:-1 12:-1 
-0.9003118180222389 0.5832050648469713 0.444108863387317 1:0.275331 2:-0.330502 3:-0.350293 4:0.426694 5:-0.203342 6:0.0501987 7:-0.552359 8:-0.303372 9:1 10:-1 11:-1 12:-1 
-0.9409904168397822 0.6098244894421754 0.4644087062394136 1:0.324946 2:-0.290808 3:-0.296813 4:0.475284 5:0.427764 6:0.386171 7:0.318773 8:0.278916 9:1 10:-1 11:-1 12:-1 
-0.7417192088203522 1.982891399601137 0.3661363549767268 1:-0.260045 2:-0.264035 3:-0.731996 4:-0.224065 5:-0.321586 6:0.337426 7:-0.569393 8:-0.483464 9:-1 10:1 11:-1 12:-1 
-0.9412593053624896 0.6477724423067588 0.4645662921207759 1:0.178178 2:0.0944024 3:-0.334338 4:0.202368 5:-0.0614436 6:0.331066 7:-0.32198 8:-0.220718 9:-1 10:1 11:-1 12:-1 
-0 0.06921571712240729 0.1586987035736087 1:-0.451646 2:-0.728262 3:-0.867006 4:-0.367168 5:-0.852334 6:-0.740993 7:-0.9801 8:-0.854499 9:-1 10:-1 11:-1 12:1 
-8 0 8 1:-0.739172 2:-0.786082 3:-0.960227 4:-0.705139 5:-0.838116 6:-0.706974 7:-0.97653 8:-0.842979 9:-1 10:-1 11:-1 12:1 
-1.414757238266387 0 0 1:-0.753237 2:-0.812234 3:-0.963971 4:-0.718965 5:-0.814491 6:-0.657536 7:-0.970043 8:-0.823518 9:-1 10:-1 11:-1 12:1 
-0 0 1.384855985304735 1:-0.728914 2:-0.73127 3:-0.956385 4:-0.699574 5:-0.780879 6:-0.679182 7:-0.962954 8:-0.783999 9:-1 10:-1 11:-1 12:1 
-8 0 8 1:-0.742282 2:-0.730017 3:-0.959466 4:-0.715754 5:-0.823314 6:-0.752936 7:-0.974803 8:-0.821236 9:-1 10:-1 11:-1 12:1 
-0.03059978305303585 8 0.004054530972059395 1:-0.286704 2:-0.63742 3:-0.785447 4:-0.183832 5:-0.80818 6:-0.68499 7:-0.969553 8:-0.812739 9:-1 10:1 11:-1 12:-1 
-0.1185691209930672 8 0.08117618878516658 1:-0.476536 2:-0.808452 3:-0.88048 4:-0.387339 5:-0.788325 6:-0.656537 7:-0.9639 8:-0.795191 9:-1 10:1 11:-1 12:-1 
-0 8 0 1:-0.467325 2:-0.608314 3:-0.866553 4:-0.403703 5:-0.764659 6:-0.662397 7:-0.958215 8:-0.76823 9:-1 10:1 11:-1 12:-1 
-0.7092583177106144 0.4591291020318807 0.3593678601708341 1:-0.0178346 2:-0.102247 3:-0.544334 4:0.0268265 5:-0.558975 6:-0.272495 7:-0.852023 8:-0.609042 9:1 10:-1 11:-1 12:-1 
-0.04307807602077705 0.02900625957157199 0 1:-0.225586 2:-0.191444 3:-0.701321 4:-0.190681 5:-0.733194 6:-0.64574 7:-0.948926 8:-0.736219 9:1 10:-1 11:-1 12:-1 
-0.0550596192362025 0.03591739994520728 0.01325971473485131 1:-0.677909 2:-0.719899 3:-0.943083 4:-0.640234 5:-0.379082 6:-0.559091 7:-0.791606 8:-0.360436 9:1 10:-1 11:-1 12:-1 
-0 8 0 1:-0.567013 2:-0.644305 3:-0.905957 4:-0.516534 5:-0.763175 6:-0.702132 7:-0.959374 8:-0.761175 9:-1 10:1 11:-1 12:-1 
-0 5.071460488760844 0 1:-0.400115 2:-0.512671 3:-0.830635 4:-0.339047 5:-0.773327 6:-0.706317 7:-0.962081 8:-0.771977 9:-1 10:1 11:-1 12:-1 
-0 8 0 1:-0.673667 2:-0.623931 3:-0.938345 4:-0.647774 5:-0.74687 6:-0.690648 7:-0.954655 8:-0.745007 9:-1 10:1 11:-1 12:-1 
-0 8 0 1:-0.784008 2:-0.820795 3:-0.970542 4:-0.754905 5:-0.744244 6:-0.680189 7:-0.953503 8:-0.743703 9:-1 10:1 11:-1 12:-1 
-0 8 0 1:-0.688164 2:-0.721025 3:-0.945839 4:-0.652451 5:-0.656599 6:-0.537223 7:-0.918023 8:-0.669192 9:-1 10:1 11:-1 12:-1 
-0 8 0 1:-0.645773 2:-0.684194 3:-0.932765 4:-0.606825 5:-0.582692 6:-0.471542 7:-0.883788 8:-0.599985 9:-1 10:1 11:-1 12:-1 
-0 8 0 1:-0.73578 2:-0.680862 3:-0.956488 4:-0.714572 5:-0.643795 6:-0.594888 7:-0.917207 8:-0.646302 9:-1 10:1 11:-1 12:-1 
-0 8 0 1:-0.788258 2:-0.768736 3:-0.97026 4:-0.766195 5:-0.650143 6:-0.666954 7:-0.923806 8:-0.641745 9:-1 10:1 11:-1 12:-1 
-0 8 0 1:-0.780659 2:-0.787048 3:-0.969147 4:-0.754796 5:-0.632889 6:-0.583169 7:-0.912511 8:-0.636435 9:-1 10:1 11:-1 12:-1 
-0 8 0 1:-0.778532 2:-0.800481 3:-0.969033 4:-0.750488 5:-0.649701 6:-0.555151 7:-0.916755 8:-0.65902 9:-1 10:1 11:-1 12:-1 
-0 8 0 1:-0.825417 2:-0.82322 3:-0.97827 4:-0.804283 5:-0.637836 6:-0.628218 7:-0.917221 8:-0.634293 9:-1 10:1 11:-1 12:-1 
-0 8 0 1:-0.350818 2:-0.552954 3:-0.810706 4:-0.274226 5:-0.418661 6:-0.487614 7:-0.805453 8:-0.417913 9:-1 10:1 11:-1 12:-1 
-0 8 0 1:-0.286255 2:-0.448579 3:-0.768258 4:-0.21667 5:-0.280087 6:-0.288844 7:-0.689785 8:-0.30708 9:-1 10:1 11:-1 12:-1 
-0.4402447147352859 8 0.2183315850756339 1:-0.212239 2:-0.484692 3:-0.7309 4:-0.122721 5:-0.0729118 6:-0.161543 7:-0.49799 8:-0.11355 9:-1 10:1 11:-1 12:-1 
-0 8 0 1:-0.538853 2:-0.671759 3:-0.897465 4:-0.48068 5:-0.45572 6:-0.499473 7:-0.826535 8:-0.45651 9:-1 10:1 11:-1 12:-1 
-0 8 0 1:-0.571243 2:-0.741971 3:-0.911773 4:-0.509674 5:-0.389364 6:-0.468212 7:-0.786673 8:-0.389622 9:-1 10:1 11:-1 12:-1 
-0 8 0 1:-0.533261 2:-0.640931 3:-0.893871 4:-0.477457 5:-0.699382 6:-0.674177 7:-0.940245 8:-0.695211 9:-1 10:1 11:-1 12:-1 
-0 8 0 1:-0.678187 2:-0.735457 3:-0.94367 4:-0.638469 5:-0.577169 6:-0.573155 7:-0.889946 8:-0.576684 9:-1 10:1 11:-1 12:-1 
-0 8 0 1:-0.520357 2:-0.648789 3:-0.889543 4:-0.462066 5:-0.451919 6:-0.4319 7:-0.816816 8:-0.4655 9:-1 10:1 11:-1 12:-1 
-0 8 0 1:-0.350076 2:-0.581322 3:-0.812611 4:-0.269732 5:-0.302283 6:-0.334788 7:-0.71301 8:-0.322291 9:-1 10:1 11:-1 12:-1 
-0 8 0 1:-0.356048 2:-0.618833 3:-0.81828 4:-0.270352 5:-0.337181 6:-0.362191 7:-0.740202 8:-0.354804 9:-1 10:1 11:-1 12:-1 
-0 8 0 1:-0.518158 2:-0.695863 3:-0.891133 4:-0.452524 5:-0.484388 6:-0.520674 7:-0.843182 8:-0.484075 9:-1 10:1 11:-1 12:-1 
-0.1816430017074195 0.118333907220976 0.08964356053924807 1:0.0305477 2:-0.359333 3:-0.554925 4:0.142165 5:-0.417381 6:-0.455326 7:-0.800866 8:-0.422994 9:1 10:-1 11:-1 12:-1 
-0.3394982082320932 0.2211108733689263 0.1678272991600426 1:-0.171245 2:-0.443086 3:-0.70209 4:-0.082359 5:0.604617 6:-0.0782617 7:0.311986 8:0.603369 9:1 10:-1 11:-1 12:-1 
-0.7953320118758199 0.5154190244101577 0.3919236513855742 1:0.0122672 2:-0.506987 3:-0.589568 4:0.149965 5:0.726293 6:-0.0169651 7:0.522844 8:0.716881 9:1 10:-1 11:-1 12:-1 
-0.5999114111202821 0.3883467531403264 0.297445980643559 1:-0.140715 2:-0.58141 3:-0.698663 4:-0.0190917 5:0.175075 6:-0.020967 7:-0.205688 8:0.116377 9:1 10:-1 11:-1 12:-1 
-0.1465595364370273 0.09411302751551825 0.08259690595390767 1:-0.242989 2:-0.572493 3:-0.756797 4:-0.143331 5:-0.151588 6:-0.342163 7:-0.605451 8:-0.156272 9:1 10:-1 11:-1 12:-1 
-0.3632731469331132 0.234901593164654 0.1761643196484339 1:-0.0139861 2:-0.462863 3:-0.602008 4:0.109544 5:-0.182384 6:-0.19176 7:-0.596983 8:-0.224954 9:1 10:-1 11:-1 12:-1 
-0 8 0 1:-0.542828 2:-0.589565 3:-0.894524 4:-0.495328 5:-0.714012 6:-0.6577 7:-0.943887 8:-0.713645 9:-1 10:1 11:-1 12:-1 
-0 8 0 1:-0.726337 2:-0.788973 3:-0.957318 4:-0.689548 5:-0.736383 6:-0.676306 7:-0.951184 8:-0.735688 9:-1 10:1 11:-1 12:-1 
-0 8 0 1:-0.461019 2:-0.601727 3:-0.863562 4:-0.397151 5:-0.757937 6:-0.701363 7:-0.957994 8:-0.755831 9:-1 10:1 11:-1 12:-1 
-0 8 0 1:-0.496885 2:-0.546958 3:-0.874481 4:-0.446933 5:-0.689738 6:-0.611443 7:-0.933947 8:-0.694093 9:-1 10:1 11:-1 12:-1 
-0 8 0 1:-0.761005 2:-0.782669 3:-0.964958 4:-0.731851 5:-0.661551 6:-0.644911 7:-0.926485 8:-0.657887 9:-1 10:1 11:-1 12:-1 
-0 8 0 1:-0.745332 2:-0.762693 3:-0.961012 4:-0.715499 5:-0.61069 6:-0.597496 7:-0.905094 8:-0.60943 9:-1 10:1 11:-1 12:-1 
-0 8 0 1:-0.744015 2:-0.754056 3:-0.960486 4:-0.715054 5:-0.517644 6:-0.591061 7:-0.865484 8:-0.508064 9:-1 10:1 11:-1 12:-1 
-0 0.4845349174100674 0 1:-0.787146 2:-0.796952 3:-0.970681 4:-0.76135 5:-0.590701 6:-0.624467 7:-0.899164 8:-0.583145 9:-1 10:1 11:-1 12:-1 
-0 8 0 1:-0.605616 2:-0.684198 3:-0.920363 4:-0.559452 5:-0.507126 6:-0.507298 7:-0.852862 8:-0.511874 9:-1 10:1 11:-1 12:-1 
-0 8 0 1:-0.715271 2:-0.736572 3:-0.95324 4:-0.682722 5:-0.643452 6:-0.52466 7:-0.912353 8:-0.657198 9:-1 10:1 11:-1 12:-1 
-0 8 0 1:-0.739641 2:-0.785205 3:-0.960267 4:-0.706098 5:-0.695137 6:-0.534998 7:-0.931215 8:-0.711649 9:-1 10:1 11:-1 12:-1 
-0.245993592312361 8 0.05814476375205761 1:-0.705113 2:-0.75797 3:-0.951338 4:-0.667841 5:-0.604752 6:-0.295449 7:-0.876064 8:-0.653934 9:-1 10:1 11:-1 12:-1 
-0 8 0 1:-0.725342 2:-0.743215 3:-0.955871 4:-0.693819 5:-0.570731 6:-0.332087 7:-0.864534 8:-0.612369 9:-1 10:1 11:-1 12:-1 
-0 8 0 1:-0.7485 2:-0.764836 3:-0.961808 4:-0.718836 5:-0.60053 6:-0.63715 7:-0.903861 8:-0.591716 9:-1 10:1 11:-1 12:-1 
-0 8 0 1:-0.685541 2:-0.692743 3:-0.944118 4:-0.652851 5:-0.537024 6:-0.616287 7:-0.876186 8:-0.525105 9:-1 10:1 11:-1 12:-1 
-0 8 0 1:-0.697349 2:-0.684449 3:-0.947037 4:-0.668084 5:-0.523567 6:-0.586877 7:-0.867827 8:-0.515327 9:-1 10:1 11:-1 12:-1 
-0 8 0 1:-0.729172 2:-0.786549 3:-0.957903 4:-0.693342 5:-0.59135 6:-0.627852 7:-0.899587 8:-0.583452 9:-1 10:1 11:-1 12:-1 
-0.5575786229426832 0.6102642953739003 0.2868321687396815 1:-0.579567 2:-0.131171 3:-0.873857 4:-0.621089 5:-0.556207 6:-0.490124 7:-0.873684 8:-0.568917 9:-1 10:1 11:-1 12:-1 
-0.3144721441447805 3.046792864062361 0.142335062814793 1:-0.460136 2:-0.143022 3:-0.822323 4:-0.48233 5:-0.498891 6:-0.480202 7:-0.846192 8:-0.507781 9:-1 10:1 11:-1 12:-1 
-0.003122223340266405 8 0.02974396621201758 1:-0.614223 2:-0.496744 3:-0.913987 4:-0.597704 5:-0.552767 6:-0.582925 7:-0.880408 8:-0.548361 9:-1 10:1 11:-1 12:-1 
-0 8 0 1:-0.672542 2:-0.699159 3:-0.940738 4:-0.637319 5:-0.523051 6:-0.540942 7:-0.863554 8:-0.523134 9:-1 10:1 11:-1 12:-1 
-0 8 0 1:-0.688831 2:-0.692547 3:-0.945036 4:-0.657029 5:-0.549749 6:-0.484809 7:-0.870495 8:-0.561988 9:-1 10:1 11:-1 12:-1 
-0 8 0 1:-0.600436 2:-0.608915 3:-0.915301 4:-0.564249 5:-0.499148 6:-0.500413 7:-0.848433 8:-0.503847 9:-1 10:1 11:-1 12:-1 
-0.2357093100371117 4.658759042826765 0.1154197752649844 1:-0.457332 2:-0.580787 3:-0.86034 4:-0.398465 5:-0.375639 6:-0.0624348 7:-0.711008 8:-0.458489 9:-1 10:1 11:-1 12:-1 
-0.3050494271005905 0.7450567911179555 0.151360614908025 1:-0.33968 2:-0.625368 3:-0.810775 4:-0.250117 5:0.0929063 6:0.0200719 7:-0.279376 8:0.0187543 9:-1 10:1 11:-1 12:-1 
-0.02349462348960481 0.01573333172564269 0 1:-0.551125 2:-0.359308 3:-0.882148 4:-0.545212 5:-0.763679 6:-0.724762 7:-0.960328 8:-0.758936 9:1 10:-1 11:-1 12:-1 
-0.1808390743965217 0.119069129403447 3.466750930165798 1:-0.808658 2:-0.662715 3:-0.971777 4:-0.8028 5:-0.777617 6:-0.744431 7:-0.964386 8:-0.772038 9:1 10:-1 11:-1 12:-1 
-0.4191127233152144 0.2707478792143098 1.238432645436574 1:-0.179488 2:-0.749889 3:-0.735684 4:-0.0380278 5:-0.838143 6:-0.885381 7:-0.98051 8:-0.82327 9:1 10:-1 11:-1 12:-1 
-0.7192405441702616 7.603943062471031 0.3695295214444594 1:-0.301913 2:-0.542909 3:-0.785464 4:-0.21615 5:-0.832838 6:-0.848649 7:-0.978871 8:-0.821022 9:-1 10:1 11:-1 12:-1 
-0.459185007208172 8 0.005681497252783703 1:-0.683446 2:-0.506376 3:-0.935893 4:-0.675156 5:-0.783488 6:-0.724054 7:-0.965148 8:-0.780878 9:-1 10:1 11:-1 12:-1 
-0 8 0 1:-0.80306 2:-0.806599 3:-0.973922 4:-0.779397 5:-0.771117 6:-0.72278 7:-0.962088 8:-0.767678 9:-1 10:1 11:-1 12:-1 
-0.5920858140505519 0.7739717458901013 0.2925673271494972 1:-0.453122 2:-0.0556355 3:-0.808542 4:-0.482242 5:-0.417107 6:0.00549708 7:-0.724997 8:-0.509822 9:-1 10:1 11:-1 12:-1 
-0.1097446504967051 0 0.05435576203119904 1:-0.258585 2:-0.154917 3:-0.715719 4:-0.238328 5:-0.410863 6:0.0375934 7:-0.714587 8:-0.504301 9:-1 10:1 11:-1 12:-1 
-0 8 0 1:-0.801909 2:-0.711017 3:-0.971653 4:-0.78911 5:-0.664709 6:-0.628748 7:-0.926639 8:-0.663967 9:-1 10:1 11:-1 12:-1 
-0 0 2.282870605709077 1:-0.53633 2:-0.668679 3:-0.896398 4:-0.476629 5:-0.839487 6:-0.868585 7:-0.980467 8:-0.826369 9:1 10:-1 11:-1 12:-1 
-0.09276073340347606 0.06142657008157584 0 1:-0.697052 2:-0.877483 3:-0.952333 4:-0.644612 5:-0.843672 6:-0.79923 7:-0.979864 8:-0.838054 9:1 10:-1 11:-1 12:-1 
-0 0 0.1017801670989214 1:-0.426095 2:-0.601973 3:-0.848837 4:-0.352246 5:-0.814579 6:-0.718402 7:-0.971971 8:-0.81571 9:1 10:-1 11:-1 12:-1 
-0.5520009788567085 0.3574535410370369 0.004530936192347543 1:-0.194542 2:-0.725375 3:-0.742454 4:-0.0593194 5:-0.681142 6:-0.345268 7:-0.912342 8:-0.724475 9:1 10:-1 11:-1 12:-1 
-0.6982783386884142 0.4524315305033326 0.3443759408314666 1:0.4948 2:-0.45113 3:-0.166593 4:0.717932 5:-0.570022 6:-0.503661 7:-0.881196 8:-0.580184 9:1 10:-1 11:-1 12:-1 
-0.7229338220515925 0.4680756647631219 0.3566855520775088 1:0.543697 2:-0.756646 3:-0.167034 4:0.832571 5:-0.693394 6:-0.473112 7:-0.92656 8:-0.718814 9:1 10:-1 11:-1 12:-1 
-0.2104185463417219 0.1379860026409649 0 1:-0.517297 2:-0.792573 3:-0.895053 4:-0.438318 5:-0.479045 6:-0.520982 7:-0.840642 8:-0.478133 9:1 10:-1 11:-1 12:-1 
-0.201359892764412 0.1306245495844827 0 1:-0.247052 2:-0.753531 3:-0.772952 4:-0.118827 5:-0.587083 6:-0.630169 7:-0.898082 8:-0.577569 9:1 10:-1 11:-1 12:-1 
-0.6549778043127843 0.4247912732888467 0.3398353115150471 1:0.128672 2:-0.570388 3:-0.511632 4:0.302127 5:-0.549579 6:-0.612853 7:-0.881359 8:-0.539699 9:1 10:-1 11:-1 12:-1 
-8 0.2359033286668511 0.1921971749831755 1:-0.350587 2:-0.658442 3:-0.818474 4:-0.257362 5:-0.105352 6:-0.291159 7:-0.557538 8:-0.116657 9:-1 10:-1 11:-1 12:1 
-8 0 0 1:-0.367808 2:-0.615246 3:-0.823544 4:-0.284819 5:-0.119909 6:-0.334203 7:-0.57868 8:-0.122308 9:-1 10:-1 11:-1 12:1 
-0 8 0 1:-0.583439 2:-0.717295 3:-0.914794 4:-0.52756 5:-0.38295 6:-0.358286 7:-0.767783 8:-0.404486 9:-1 10:1 11:-1 12:-1 
-0 8 0 1:-0.483757 2:-0.653981 3:-0.875798 4:-0.417692 5:-0.272011 6:-0.236936 7:-0.674111 8:-0.309706 9:-1 10:1 11:-1 12:-1 
-0 8 0 1:-0.516461 2:-0.614241 3:-0.886179 4:-0.462943 5:-0.332228 6:-0.400501 7:-0.742884 8:-0.341105 9:-1 10:1 11:-1 12:-1 
-0 8 0 1:-0.401636 2:-0.620541 3:-0.839349 4:-0.324776 5:-0.261199 6:-0.355027 7:-0.688576 8:-0.272985 9:-1 10:1 11:-1 12:-1 
-0 7.841052811713767 0 1:-0.381761 2:-0.506921 3:-0.821435 4:-0.321479 5:-0.0803942 6:-0.271682 7:-0.532162 8:-0.0946438 9:-1 10:1 11:-1 12:-1 
-0 0.005260896541546712 0.002098419435655363 1:0.0543682 2:-0.210667 3:-0.510608 4:0.138664 5:0.450031 6:0.29424 7:0.29488 8:0.328911 9:-1 10:-1 11:-1 12:1 
-0 0.08227722929608836 0 1:-0.468054 2:-0.518283 3:-0.860794 4:-0.420174 5:-0.438912 6:-0.569267 7:-0.825118 8:-0.42504 9:-1 10:-1 11:-1 12:1 
-0 0 0.06354187981621698 1:-0.37312 2:-0.483015 3:-0.815529 4:-0.311437 5:-0.600587 6:-0.530493 7:-0.896178 8:-0.608542 9:-1 10:-1 11:-1 12:1 
-0.4606775688124491 0.1646943563268129 1.120593098243981 1:-0.545921 2:-0.414903 3:-0.884349 4:-0.526966 5:-0.667155 6:-0.574991 7:-0.924223 8:-0.675057 9:-1 10:-1 11:-1 12:1 
-0.812839929455399 0.4724476455819382 0.361429355285979 1:0.0505908 2:-0.336528 3:-0.536223 4:0.15946 5:0.478351 6:0.268658 7:0.320332 8:0.367421 9:-1 10:-1 11:-1 12:1 
-8 0 0 1:-0.499179 2:-0.505901 3:-0.872603 4:-0.458171 5:-0.493675 6:-0.253194 7:-0.81583 8:-0.545306 9:-1 10:-1 11:-1 12:1 
-0.5757201583041349 0.3128621682989536 0.2334324570622794 1:0.202586 2:-0.117016 3:-0.367527 4:0.290598 5:0.129739 6:0.148408 7:-0.188542 8:0.0415257 9:-1 10:-1 11:-1 12:1 
-0 0 3.915793877598698 1:-0.474152 2:-0.505846 3:-0.862402 4:-0.425647 5:-0.625082 6:-0.62146 7:-0.912139 8:-0.621507 9:-1 10:-1 11:-1 12:1 
-0 0.06816352222870796 0 1:-0.32861 2:-0.702203 3:-0.810868 4:-0.223781 5:-0.71397 6:-0.640302 7:-0.943031 8:-0.716016 9:-1 10:-1 11:-1 12:1 
-0 0 6.164507841214295 1:-0.711843 2:-0.706943 3:-0.951479 4:-0.682289 5:-0.660276 6:-0.581215 7:-0.922255 8:-0.666289 9:-1 10:-1 11:-1 12:1 
-8 0 0 1:-0.698074 2:-0.714125 3:-0.948172 4:-0.665254 5:-0.36455 6:-0.405213 7:-0.763592 8:-0.374407 9:-1 10:-1 11:-1 12:1 
-8 0 0 1:-0.496469 2:-0.607298 3:-0.878098 4:-0.43999 5:-0.152343 6:-0.385612 7:-0.614589 8:-0.146514 9:-1 10:-1 11:-1 12:1 
-8 0 0 1:-0.739197 2:-0.786691 3:-0.960247 4:-0.705215 5:-0.603009 6:-0.621275 7:-0.90374 8:-0.597226 9:-1 10:-1 11:-1 12:1 
-8 0 0 1:-0.712739 2:-0.748868 3:-0.952957 4:-0.678264 5:-0.606186 6:-0.543095 7:-0.8994 8:-0.613608 9:-1 10:-1 11:-1 12:1 
-3.660386894169245 0 0 1:-0.726239 2:-0.720023 3:-0.955371 4:-0.698176 5:-0.605139 6:-0.599997 7:-0.903138 8:-0.603079 9:-1 10:-1 11:-1 12:1 
-8 0 0 1:-0.776864 2:-0.753287 3:-0.967602 4:-0.754317 5:-0.548487 6:-0.550329 7:-0.875861 8:-0.549239 9:-1 10:-1 11:-1 12:1 
-8 0 0 1:-0.742182 2:-0.727061 3:-0.959366 4:-0.715955 5:-0.553005 6:-0.53128 7:-0.876202 8:-0.55738 9:-1 10:-1 11:-1 12:1 
-7.428813699545272 0.0466459223382178 0 1:-0.691292 2:-0.729398 3:-0.946914 4:-0.655042 5:-0.522544 6:-0.631539 7:-0.870965 8:-0.50667 9:-1 10:-1 11:-1 12:1 
-0 0.1503000757952364 0.3053549845624069 1:-0.780474 2:-0.724632 3:-0.967686 4:-0.761846 5:-0.55053 6:-0.610074 7:-0.881544 8:-0.54113 9:-1 10:-1 11:-1 12:1 
-5.904855449542715 0 0 1:-0.793403 2:-0.77904 3:-0.971544 4:-0.770772 5:-0.617448 6:-0.506697 7:-0.901019 8:-0.632333 9:-1 10:-1 11:-1 12:1 
-8 0 0 1:-0.745206 2:-0.790702 3:-0.961707 4:-0.711894 5:-0.606702 6:-0.507153 7:-0.896777 8:-0.620492 9:-1 10:-1 11:-1 12:1 
-1.160418883881692 0 0 1:-0.779799 2:-0.805334 3:-0.969372 4:-0.751727 5:-0.679711 6:-0.594402 7:-0.929697 8:-0.685793 9:-1 10:-1 11:-1 12:1 
-8 0 0 1:-0.753449 2:-0.791257 3:-0.963539 4:-0.721667 5:-0.662506 6:-0.591209 7:-0.923642 8:-0.667335 9:-1 10:-1 11:-1 12:1 
-8 0 0 1:-0.730642 2:-0.801386 3:-0.95864 4:-0.693242 5:-0.67875 6:-0.641821 7:-0.932055 8:-0.677391 9:-1 10:-1 11:-1 12:1 
-8 0 0 1:-0.764299 2:-0.815836 3:-0.966404 4:-0.731966 5:-0.734356 6:-0.701011 7:-0.951637 8:-0.729964 9:-1 10:-1 11:-1 12:1 
-8 0 0 1:-0.801689 2:-0.821306 3:-0.973967 4:-0.776061 5:-0.688165 6:-0.64706 7:-0.935328 8:-0.687006 9:-1 10:-1 11:-1 12:1 
-8 0 0 1:-0.821746 2:-0.836507 3:-0.977852 4:-0.798481 5:-0.669733 6:-0.585221 7:-0.925697 8:-0.676151 9:-1 10:-1 11:-1 12:1 
-0.0262989719239052 0.01945076129658018 0.008090226461774597 1:-0.240547 2:-0.641028 3:-0.761362 4:-0.128178 5:-0.337965 6:-0.417498 7:-0.748891 8:-0.343424 9:1 10:-1 11:-1 12:-1 
-0.07347855282990971 0.03452522644377823 0 1:-0.856477 2:-0.845346 3:-0.983684 4:-0.839072 5:-0.702064 6:-0.694762 7:-0.942025 8:-0.694959 9:1 10:-1 11:-1 12:-1 
-0 8 0 1:-0.574434 2:-0.576984 3:-0.905037 4:-0.536473 5:-0.777154 6:-0.756418 7:-0.96469 8:-0.770001 9:-1 10:1 11:-1 12:-1 
-0 8 0 1:-0.66972 2:-0.585679 3:-0.935587 4:-0.648249 5:-0.77465 6:-0.725032 7:-0.963052 8:-0.771189 9:-1 10:1 11:-1 12:-1 
-0 8 0.01956605305377045 1:-0.553659 2:-0.551701 3:-0.896256 4:-0.515662 5:-0.762688 6:-0.721803 7:-0.959967 8:-0.758441 9:-1 10:1 11:-1 12:-1 
-0 8 0 1:-0.615832 2:-0.600443 3:-0.91997 4:-0.582047 5:-0.770928 6:-0.708939 7:-0.961571 8:-0.76919 9:-1 10:1 11:-1 12:-1 
-0 8 0 1:-0.801015 2:-0.796928 3:-0.97337 4:-0.777935 5:-0.773808 6:-0.709671 7:-0.962318 8:-0.772081 9:-1 10:1 11:-1 12:-1 
-0 8 0 1:-0.766124 2:-0.808204 3:-0.966601 4:-0.735081 5:-0.763438 6:-0.725966 7:-0.9603 8:-0.758294 9:-1 10:1 11:-1 12:-1 
-0 8 0 1:-0.785621 2:-0.821338 3:-0.970877 4:-0.756574 5:-0.777876 6:-0.763842 7:-0.965092 8:-0.769452 9:-1 10:1 11:-1 12:-1 
-0 8 0 1:-0.741337 2:-0.764235 3:-0.960148 4:-0.710417 5:-0.74049 6:-0.679339 7:-0.952437 8:-0.739647 9:-1 10:1 11:-1 12:-1 
-0 8 0 1:-0.643158 2:-0.798699 3:-0.935966 4:-0.588638 5:-0.644841 6:-0.669617 7:-0.922083 8:-0.63572 9:-1 10:1 11:-1 12:-1 
-0 8 0 1:-0.612879 2:-0.757122 3:-0.925653 4:-0.557514 5:-0.61718 6:-0.576126 7:-0.905977 8:-0.620233 9:-1 10:1 11:-1 12:-1 
-0 8 0 1:-0.590015 2:-0.696926 3:-0.916061 4:-0.538467 5:-0.509784 6:-0.275593 7:-0.827565 8:-0.557903 9:-1 10:1 11:-1 12:-1 
-0.1009879703435239 0.06554371178861931 0.04667430893683191 1:-0.336896 2:-0.389236 3:-0.788601 4:-0.290942 5:0.0661568 6:-0.225393 7:-0.386363 8:0.0548544 9:1 10:-1 11:-1 12:-1 
-0.03189494527765961 0.02148234734920818 0.01240825328614534 1:-0.444711 2:-0.34753 3:-0.836479 4:-0.42567 5:-0.138653 6:-0.200492 7:-0.563789 8:-0.172087 9:1 10:-1 11:-1 12:-1 
-0 0.04469103001820744 0.4294323543099233 1:-0.314042 2:-0.62225 3:-0.798102 4:-0.218899 5:-0.58232 6:-0.47291 7:-0.883733 8:-0.599234 9:-1 10:-1 11:-1 12:1 
-3.01760003381575 0 0 1:-0.296367 2:-0.647285 3:-0.791107 4:-0.193919 5:-0.413581 6:-0.397021 7:-0.791174 8:-0.429462 9:-1 10:-1 11:-1 12:1 
-0 8 0 1:-0.114995 2:-0.581867 3:-0.682819 4:0.0118447 5:-0.580255 6:-0.555038 7:-0.889795 8:-0.58141 9:-1 10:1 11:-1 12:-1 
-0 8 0 1:-0.115037 2:-0.63614 3:-0.688217 4:0.0214299 5:-0.603128 6:-0.58075 7:-0.90099 8:-0.603296 9:-1 10:1 11:-1 12:-1 
-0.4401156323575148 8 0.2130403458248783 1:-0.317721 2:-0.733509 3:-0.80744 4:-0.206835 5:-0.512536 6:-0.58064 7:-0.862258 8:-0.504345 9:-1 10:1 11:-1 12:-1 
-0 8 0 1:-0.571583 2:-0.6807 3:-0.909254 4:-0.518328 5:-0.602667 6:-0.598602 7:-0.902076 8:-0.600605 9:-1 10:1 11:-1 12:-1 
-0.5802547466585389 0 0 1:-0.487317 2:-0.607595 3:-0.874485 4:-0.42914 5:-0.509461 6:-0.446647 7:-0.847802 8:-0.525566 9:-1 10:-1 11:-1 12:1 
-0 0.111039000432803 0.05495232827093978 1:-0.12701 2:-0.54935 3:-0.686979 4:-0.00848473 5:-0.490243 6:-0.438487 7:-0.837453 8:-0.505699 9:-1 10:-1 11:-1 12:1 
-0.8242599301101176 0.5155093346782194 0.4183551804020318 1:0.213889 2:-0.108004 3:-0.355092 4:0.29518 5:-0.0927781 6:0.348947 7:-0.347564 8:-0.258319 9:-1 10:-1 11:-1 12:1 
