svm_type c_svc
kernel_type rbf
gamma 2
nr_class 8
total_sv 4677
rho -17.6435 -0.23608 -44.9673 -7.14611 2.20251 -14.718 16.0775 28.9578 6.1269 34.9249 32.508 23.0743 -0.405858 -20.3571 0.86879 -14.0747 21.7548 -7.34623 22.0089 20.2527 12.2665 0.347446 35.4676 34.3408 12.8683 46.5261 38.8006 -21.603
label 11 13 12 14 23 22 24 21
probA -1.33237 -0.954561 -1.51059 -1.28872 -1.6424 -1.12755 -0.486208 -1.18436 -1.34882 -1.24996 -1.45467 -1.6563 -4.65598 -0.956356 -1.58549 -1.30007 -0.931156 -0.773752 -1.93406 -1.8298 -0.856383 -1.99599 -0.78474 -1.04373 -2.00306 -1.41722 -1.80953 -1.65065
probB 0.577126 0.572348 -0.0315561 0.242309 0.232599 -0.560163 -1.93049 -0.303171 -0.363524 -1.69137 -1.44694 -1.45176 -0.185719 -0.584556 0.0252933 -0.0140122 -1.13055 -2.05707 0.147497 0.191157 -0.355423 -0.471615 -0.153431 -0.181696 -0.102344 -0.0735106 -0.511362 0.38833
nr_sv 241 565 861 318 1049 1081 426 136
SV
0 0 0 32768 32768 32768 0 1:-0.604148 2:-0.291815 3:-0.89628 4:-0.6237 
0 0 0 32768 0 32768 0 1:-0.720905 2:-0.799268 3:-0.953819 4:-0.703117 
0 0 0 0 0 32768 0 1:-0.712961 2:-0.804229 3:-0.951675 4:-0.694183 
0 0 0 32768 0 32768 0 1:-0.742097 2:-0.832809 3:-0.959973 4:-0.724226 
0 0 0 3165.642674156758 0 13773.56363969917 0 1:-0.774965 2:-0.923376 3:-0.968913 4:-0.755793 
0 0 0 0 0 0 324.2847331369327 1:-0.781009 2:-0.946871 3:-0.970449 4:-0.76154 
0 0 0 32768 32768 26677.74514270862 0 1:-0.64551 2:-0.0145093 3:-0.896047 4:-0.700034 
0 32768 0 0 32768 0 7698.017900452602 1:-0.373698 2:0.0745928 3:-0.741075 4:-0.425599 
0 32768 0 32768 32768 0 895.1852190374831 1:-0.47734 2:-0.0636 3:-0.818413 4:-0.517304 
0 0 0 32768 0 32768 0 1:-0.706025 2:-0.783267 3:-0.949344 4:-0.687921 
0 0 0 32768 32768 32768 0 1:-0.693367 2:-0.756981 3:-0.945122 4:-0.675892 
32768 32768 32768 32768 32768 0 0 1:-0.34286 2:-0.535394 3:-0.779026 4:-0.314632 
0 32768 0 32768 32768 0 0 1:-0.501507 2:-0.404277 3:-0.856776 4:-0.500068 
0 14657.31651854428 0 32768 32768 32768 0 1:-0.517491 2:-0.259675 3:-0.85513 4:-0.533699 
0 0 0 32768 32768 32768 0 1:-0.54013 2:-0.212254 3:-0.862704 4:-0.562558 
0 0 0 0 0 32768 0 1:-0.767878 2:-0.908916 3:-0.967151 4:-0.74865 
0 1738.716532352619 0 0 0 0 0 1:-0.776988 2:-0.993183 3:-0.969814 4:-0.755847 
0 0 0 32768 1976.785671950531 32768 0 1:-0.664511 2:-0.729647 3:-0.935495 4:-0.646347 
0 0 0 25964.65205520695 0 0 0 1:-0.593955 2:-0.713612 3:-0.910074 4:-0.570991 
0 32768 0 32768 32768 32768 0 1:-0.687752 2:-0.691124 3:-0.941997 4:-0.674521 
389.1204014152462 32768 6178.405328669725 0 0 0 0 1:0.0795571 2:0.0873839 3:-0.358385 4:0.0525881 
0 0 0 13096.61357042505 32768 7602.94649671687 24034.29611789681 1:-0.465789 2:0.183606 3:-0.785847 4:-0.53502 
604.1242327915545 0 0 0 0 0 0 1:-0.710867 2:-0.845399 3:-0.951688 4:-0.689605 
0 0 0 0 0 32768 0 1:-0.733293 2:-0.84273 3:-0.957795 4:-0.714142 
0 0 0 32768 19956.56133577674 32768 0 1:-0.743264 2:-0.810695 3:-0.959972 4:-0.726745 
0 32768 0 32768 32768 32768 0 1:-0.620293 2:-0.549084 3:-0.914678 4:-0.613629 
0 0 0 32768 32768 32768 0 1:-0.71777 2:-0.757758 3:-0.952242 4:-0.702368 
0 32768 0 32768 32768 32768 0 1:-0.660584 2:-0.604376 3:-0.930881 4:-0.652411 
0 0 0 32768 0 32768 0 1:-0.657429 2:-0.724223 3:-0.933055 4:-0.639107 
0 0 0 32768 32768 32768 0 1:-0.563908 2:-0.177638 3:-0.871421 4:-0.594268 
0 32768 0 32768 32768 8924.939273324708 0 1:-0.489245 2:-0.114175 3:-0.829377 4:-0.521791 
0 0 0 32768 32768 32768 5571.614972077869 1:-0.662134 2:-0.375081 3:-0.922847 4:-0.677133 
0 32768 0 32768 32768 32768 0 1:-0.678491 2:-0.707656 3:-0.939487 4:-0.663289 
0 32768 0 32768 32768 32768 32768 1:-0.687423 2:-0.586309 3:-0.939124 4:-0.683036 
0 32768 0 32768 32768 32768 11976.68316436096 1:-0.68913 2:-0.607213 3:-0.940261 4:-0.683102 
0 32768 0 32768 32768 32768 0 1:-0.681932 2:-0.623408 3:-0.93843 4:-0.673877 
0 32768 0 32768 32768 32768 32768 1:-0.736909 2:-0.681984 3:-0.956047 4:-0.728637 
0 32768 0 32768 32768 32768 32768 1:-0.690188 2:-0.507702 3:-0.937528 4:-0.692945 
0 32768 0 32768 32768 32768 0 1:-0.616328 2:-0.560263 3:-0.913605 4:-0.608373 
0 32768 19681.53400286731 32768 32768 32768 0 1:-0.626107 2:-0.515957 3:-0.915586 4:-0.623644 
0 32768 0 32768 32768 32768 10081.2685987364 1:-0.678473 2:-0.499418 3:-0.933415 4:-0.681773 
0 32768 0 32768 32768 32768 0 1:-0.646093 2:-0.68417 3:-0.928229 4:-0.629903 
0 32768 0 32768 32768 32768 0 1:-0.658343 2:-0.705622 3:-0.932912 4:-0.641537 
0 32768 0 32768 32768 32768 0 1:-0.518765 2:-0.458785 3:-0.868044 4:-0.513397 
0 32768 0 32768 32768 32768 0 1:-0.581281 2:-0.430021 3:-0.894105 4:-0.58416 
0 0 0 0 0 32768 0 1:-0.72501 2:-0.828262 3:-0.95538 4:-0.705896 
0 32768 0 32768 32768 32768 0 1:-0.65622 2:-0.68062 3:-0.931573 4:-0.641161 
0 32768 0 32768 32768 32768 0 1:-0.666233 2:-0.698898 3:-0.935346 4:-0.65058 
0 2783.266748607005 0 427.1370584011547 0 1248.222574599139 0 1:-0.222044 2:0.548621 3:-0.546122 4:-0.335039 
0 0 0 0 198.4170111057979 0 0 1:-0.257998 2:0.588051 3:-0.569178 4:-0.377758 
0 32768 0 32768 32768 32768 0 1:-0.607189 2:-0.636626 3:-0.912803 4:-0.591631 
0 32768 0 32768 32768 32768 0 1:-0.626891 2:-0.529304 3:-0.916373 4:-0.622844 
0 32768 0 32768 32768 32768 0 1:-0.622641 2:-0.499179 3:-0.913621 4:-0.621338 
0 32768 0 32768 32768 0 0 1:-0.429573 2:-0.071348 3:-0.792014 4:-0.463866 
0 0 0 32768 32768 32768 2905.317730076045 1:-0.524588 2:-0.00122025 3:-0.83795 4:-0.57335 
0 32768 0 32768 32768 32768 0 1:-0.553137 2:-0.313213 3:-0.875402 4:-0.566886 
0 32768 0 32768 32768 32768 0 1:-0.536982 2:-0.323249 3:-0.868637 4:-0.548346 
0 0 0 32768 32768 32768 2959.246311506443 1:-0.728692 2:-0.739734 3:-0.95494 4:-0.715468 
0 0 0 32768 32768 32768 0 1:-0.730976 2:-0.777827 3:-0.956227 4:-0.715392 
0 0 0 32768 32768 32768 0 1:-0.710381 2:-0.765943 3:-0.950293 4:-0.693766 
0 0 0 0 0 32768 0 1:-0.470345 2:-0.690655 3:-0.855704 4:-0.438455 
0 32768 0 32768 0 0 0 1:-0.528552 2:-0.622243 3:-0.880031 4:-0.507643 
0 32768 0 32768 0 0 0 1:-0.618678 2:-0.691465 3:-0.918719 4:-0.599521 
0 32768 0 32768 32768 32768 0 1:-0.564643 2:-0.608734 3:-0.894978 4:-0.547881 
0 0 0 32768 0 32768 0 1:-0.663414 2:-0.737082 3:-0.935317 4:-0.644731 
0 0 0 0 0 14105.02427839678 0 1:-0.746977 2:-0.880794 3:-0.961788 4:-0.72713 
0 32768 0 32768 32768 32768 32768 1:-0.719194 2:-0.70589 3:-0.95164 4:-0.707589 
0 0 0 32768 32768 32768 32768 1:-0.73337 2:-0.730419 3:-0.956043 4:-0.721195 
0 0 0 0 0 32768 0 1:-0.721979 2:-0.827479 3:-0.954518 4:-0.702727 
0 32768 0 32768 32768 32768 0 1:-0.571533 2:-0.456208 3:-0.891272 4:-0.571039 
0 32768 0 32768 32768 32768 0 1:-0.566603 2:-0.44182 3:-0.888498 4:-0.567257 
0 32768 0 32768 32768 32768 0 1:-0.699667 2:-0.717699 3:-0.946208 4:-0.685545 
0 0 0 32768 32768 32768 0 1:-0.715895 2:-0.776688 3:-0.952044 4:-0.699106 
0 32768 0 32768 32768 32768 0 1:-0.495563 2:-0.309043 3:-0.847733 4:-0.504385 
32768 32768 32768 32768 32768 32768 0 1:-0.372164 2:-0.420036 3:-0.788607 4:-0.359522 
0 32768 32768 32768 32768 0 0 1:-0.470486 2:-0.568854 3:-0.850556 4:-0.449674 
0 32768 32768 32768 32768 32768 0 1:-0.567119 2:-0.591824 3:-0.895353 4:-0.552242 
0 0 0 32768 0 0 0 1:-0.569356 2:-0.690613 3:-0.899713 4:-0.546054 
0 32768 0 32768 32768 32768 0 1:-0.655077 2:-0.68347 3:-0.931257 4:-0.639607 
0 0 17431.49451926576 0 0 32768 0 1:-0.458498 2:-0.659051 3:-0.848634 4:-0.428241 
32768 32768 32768 32768 32768 32768 0 1:-0.254667 2:-0.364935 3:-0.70932 4:-0.238831 
0 32768 25912.28908473538 32768 32768 32768 0 1:-0.369835 2:-0.226958 3:-0.771301 4:-0.378879 
0 0 0 32768 0 0 0 1:-0.628309 2:-0.705898 3:-0.922579 4:-0.608923 
0 32768 0 32768 32768 0 0 1:-0.529653 2:-0.582149 3:-0.878893 4:-0.51237 
0 32768 0 32768 32768 32768 0 1:-0.549338 2:-0.562481 3:-0.886672 4:-0.535652 
0 32768 0 32768 32768 32768 0 1:-0.675653 2:-0.72319 3:-0.938939 4:-0.659044 
0 32768 0 32768 32768 32768 0 1:-0.632918 2:-0.691193 3:-0.923825 4:-0.615054 
995.7626208735493 0 0 0 0 0 0 1:-0.680648 2:-0.844872 3:-0.94277 4:-0.656755 
672.8918381500869 0 0 0 0 0 0 1:-0.687044 2:-0.867996 3:-0.94505 4:-0.662515 
0 32768 0 32768 0 0 0 1:-0.516213 2:-0.617764 3:-0.874338 4:-0.494655 
32768 32768 32768 32768 32768 27271.66457742889 0 1:-0.421473 2:-0.477509 3:-0.82013 4:-0.406429 
0 32768 32768 32768 32768 2108.272593938246 0 1:-0.480636 2:-0.480486 3:-0.850948 4:-0.469958 
0 32768 0 32768 32768 32768 0 1:-0.544065 2:-0.566083 3:-0.884539 4:-0.529542 
0 32768 0 32768 32768 32768 6406.900290301514 1:-0.61002 2:-0.630391 3:-0.913667 4:-0.595237 
0 32768 0 32768 0 0 0 1:-0.543645 2:-0.637826 3:-0.887209 4:-0.522537 
32768 32768 32768 0 0 0 0 1:-0.445129 2:-0.636258 3:-0.840972 4:-0.415665 
0 32768 0 32768 32768 32768 0 1:-0.60021 2:-0.615433 3:-0.909434 4:-0.585962 
0 0 0 32768 0 0 0 1:-0.62184 2:-0.717227 3:-0.920559 4:-0.601014 
0 0 0 32768 0 0 0 1:-0.576364 2:-0.693711 3:-0.902626 4:-0.553411 
0 32768 0 32768 32768 0 0 1:-0.522889 2:-0.589737 3:-0.876188 4:-0.504492 
0 32768 32768 32768 32768 32768 0 1:-0.426603 2:-0.456482 3:-0.821686 4:-0.414165 
0 32768 32768 32768 32768 32768 0 1:-0.476745 2:-0.400898 3:-0.844339 4:-0.474643 
32768 32768 32768 32768 32768 0 0 1:-0.381725 2:-0.518632 3:-0.80069 4:-0.358481 
0 32768 0 32768 32768 0 0 1:-0.51805 2:-0.579802 3:-0.87358 4:-0.499915 
0 32768 23341.50746148835 32768 32768 32768 0 1:-0.508057 2:-0.502235 3:-0.865313 4:-0.497274 
0 32768 32768 31691.32170239137 0 0 0 1:-0.475695 2:-0.601932 3:-0.854648 4:-0.452061 
32768 32768 32768 32768 32768 32768 0 1:-0.327726 2:-0.484088 3:-0.766451 4:-0.30352 
32768 32768 32768 0 0 0 0 1:-0.431757 2:-0.608728 3:-0.832833 4:-0.403671 
0 32768 0 32768 0 0 0 1:-0.522039 2:-0.64382 3:-0.877974 4:-0.498582 
0 32768 0 32768 0 0 0 1:-0.537997 2:-0.628319 3:-0.884416 4:-0.517115 
0 32768 0 32768 32768 23016.14726835828 538.2448843629991 1:-0.608099 2:-0.663075 3:-0.913976 4:-0.590318 
0 0 0 32768 0 0 0 1:-0.629359 2:-0.70752 3:-0.922998 4:-0.609929 
0 32768 32768 32768 32768 32768 0 1:-0.572389 2:-0.61548 3:-0.898408 4:-0.555811 
0 32768 0 32768 32768 32768 0 1:-0.512703 2:-0.520474 3:-0.86839 4:-0.500422 
0 32768 0 32768 32768 32768 0 1:-0.585762 2:-0.545285 3:-0.901119 4:-0.576702 
0 32768 0 32768 0 0 0 1:-0.590862 2:-0.678459 3:-0.907866 4:-0.570398 
7936.760877713726 32768 32768 0 0 0 0 1:-0.447625 2:-0.636661 3:-0.842263 4:-0.418358 
0 32768 32768 32768 32768 0 0 1:-0.483376 2:-0.492743 3:-0.852984 4:-0.471479 
0 32768 32768 32768 32768 0 0 1:-0.457021 2:-0.505853 3:-0.840541 4:-0.441126 
32768 32768 32768 32768 32768 0 0 1:-0.375835 2:-0.485271 3:-0.795219 4:-0.355671 
32768 32768 32768 32768 32768 0 0 1:-0.408856 2:-0.534127 3:-0.816721 4:-0.386253 
0 32768 0 32768 32768 32768 0 1:-0.549437 2:-0.590225 3:-0.887841 4:-0.533201 
0 32768 0 32768 0 0 0 1:-0.56221 2:-0.659762 3:-0.89579 4:-0.540855 
0 32768 32768 32768 0 0 0 1:-0.484143 2:-0.598183 3:-0.858563 4:-0.46165 
0 32768 0 32768 0 0 0 1:-0.52951 2:-0.656083 3:-0.881739 4:-0.50567 
0 32768 32768 32768 0 0 0 1:-0.534618 2:-0.627577 3:-0.88286 4:-0.513826 
32768 32768 32768 32768 32768 0 0 1:-0.43466 2:-0.542561 3:-0.830978 4:-0.413538 
32768 32768 32768 0 0 0 0 1:-0.440658 2:-0.615628 3:-0.837759 4:-0.412803 
0 32768 0 32768 32768 32768 0 1:-0.524045 2:-0.546156 3:-0.874781 4:-0.51003 
0 0 0 32768 0 0 0 1:-0.59384 2:-0.711148 3:-0.90997 4:-0.571053 
0 12043.31316489821 5827.893806194002 32768 0 0 0 1:-0.560247 2:-0.667835 3:-0.895252 4:-0.538049 
0 0 0 32768 0 0 0 1:-0.533935 2:-0.662901 3:-0.883922 4:-0.509828 
0 32768 0 32768 32768 0 0 1:-0.552567 2:-0.613407 3:-0.890097 4:-0.534438 
0 32768 0 32768 32768 0 0 1:-0.50823 2:-0.556682 3:-0.86804 4:-0.491863 
0 0 0 0 0 32768 0 1:-0.485027 2:-0.689089 3:-0.862674 4:-0.454516 
0 0 0 0 0 32768 0 1:-0.455843 2:-0.710242 3:-0.849326 4:-0.421102 
0 32768 0 32768 32768 0 0 1:-0.519049 2:-0.600509 3:-0.874912 4:-0.499314 
0 32768 32768 32768 32768 32768 0 1:-0.580033 2:-0.610283 3:-0.901302 4:-0.56456 
0 32768 0 32768 32768 0 0 1:-0.517767 2:-0.584341 3:-0.873648 4:-0.499397 
0 32768 0 32768 0 0 0 1:-0.504914 2:-0.60308 3:-0.868564 4:-0.48367 
0 0 0 32768 0 0 0 1:-0.647845 2:-0.7374 3:-0.930149 4:-0.627792 
0 32768 0 32768 32768 32768 0 1:-0.602328 2:-0.586892 3:-0.90924 4:-0.590805 
0 32768 32768 32768 32768 0 0 1:-0.442757 2:-0.565806 3:-0.836414 4:-0.419821 
0 32768 0 32768 32768 0 0 1:-0.527996 2:-0.608505 3:-0.879249 4:-0.50824 
0 32768 0 32768 32768 0 0 1:-0.482216 2:-0.55014 3:-0.855384 4:-0.464077 
0 32768 0 32768 32768 0 0 1:-0.523717 2:-0.609317 3:-0.877377 4:-0.503536 
30758.26126748472 32768 32768 32768 32768 0 0 1:-0.433782 2:-0.542238 3:-0.83051 4:-0.412419 
0 32768 0 32768 32768 0 0 1:-0.520103 2:-0.570521 3:-0.874104 4:-0.503135 
32768 32768 32768 0 0 15669.57273436206 0 1:-0.379378 2:-0.664465 3:-0.807155 4:-0.341728 
32768 32768 32768 0 0 0 0 1:-0.364963 2:-0.599706 3:-0.79575 4:-0.331984 
0 32768 32768 32768 0 0 0 1:-0.468648 2:-0.583197 3:-0.850334 4:-0.446045 
0 32768 0 0 0 0 0 1:-0.499058 2:-0.645807 3:-0.867591 4:-0.473391 
0 32768 0 32768 32768 32768 0 1:-0.603529 2:-0.640252 3:-0.911531 4:-0.587374 
0 32768 0 32768 32768 32768 0 1:-0.59933 2:-0.608453 3:-0.908844 4:-0.585652 
0 0 0 32768 0 0 0 1:-0.581881 2:-0.704286 3:-0.905127 4:-0.55858 
0 0 0 32768 0 0 0 1:-0.577438 2:-0.694685 3:-0.903082 4:-0.554445 
0 32768 0 32768 0 0 0 1:-0.505265 2:-0.606036 3:-0.868853 4:-0.483767 
0 0 0 32768 0 0 0 1:-0.592664 2:-0.709927 3:-0.909485 4:-0.569853 
0 32768 0 32768 0 0 0 1:-0.509585 2:-0.635648 3:-0.872034 4:-0.485812 
0 32768 0 32768 32768 0 0 1:-0.31911 2:-0.0218151 3:-0.71638 4:-0.357871 
1014.923343497039 32768 27463.81876758753 32768 32768 19098.27837010431 0 1:-0.314957 2:-0.0240109 3:-0.713725 4:-0.352886 
32768 32768 32768 466.0708601375235 32768 0 0 1:-0.429506 2:-0.56099 3:-0.829263 4:-0.405966 
0 32768 0 32768 32768 0 0 1:-0.494196 2:-0.572192 3:-0.862166 4:-0.475025 
0 32768 0 32768 0 0 0 1:-0.504513 2:-0.625362 3:-0.869302 4:-0.481217 
0 32768 0 0 0 0 0 1:-0.492625 2:-0.638094 3:-0.864288 4:-0.467142 
0 32768 0 32768 0 0 0 1:-0.529336 2:-0.629442 3:-0.880666 4:-0.507737 
0 32768 0 0 0 0 0 1:-0.489926 2:-0.640235 3:-0.863101 4:-0.464012 
0 32768 0 32768 0 0 0 1:-0.53045 2:-0.654243 3:-0.882087 4:-0.506801 
0 32768 0 32768 32768 0 0 1:-0.499139 2:-0.578103 3:-0.864769 4:-0.479776 
0 32768 0 32768 32768 0 -0 1:-0.495419 2:-0.594143 3:-0.863724 4:-0.474232 
0 0 0 0 0 32768 0 1:-0.483886 2:-0.727422 3:-0.863474 4:-0.450254 
0 32768 0 32768 32768 0 0 1:-0.585296 2:-0.657157 3:-0.905012 4:-0.566134 
0 32768 5033.789699448276 32768 32768 32768 0 1:-0.519964 2:-0.418971 3:-0.866391 4:-0.519402 
0 32768 32768 32768 32768 32768 0 1:-0.472817 2:-0.40879 3:-0.842844 4:-0.469681 
0 32768 32768 32768 32768 0 0 1:-0.482362 2:-0.493046 3:-0.852513 4:-0.470448 
0 32768 32768 32768 32768 0 0 1:-0.473925 2:-0.447339 3:-0.845733 4:-0.466337 
0 32768 32768 32768 32768 0 0 1:-0.478403 2:-0.486757 3:-0.850214 4:-0.46671 
0 32768 0 32768 32768 32768 0 1:-0.557465 2:-0.590987 3:-0.891296 4:-0.541488 
0 32768 32768 32768 32768 0 0 1:-0.435522 2:-0.526411 3:-0.830552 4:-0.415987 
0 32768 0 32768 20448.01290691664 0 0 1:-0.546256 2:-0.628476 3:-0.887979 4:-0.526237 
0 0 0 32768 0 0 0 1:-0.57336 2:-0.673855 3:-0.900803 4:-0.551743 
0 32768 0 32768 32768 0 0 1:-0.598814 2:-0.658943 3:-0.910316 4:-0.580686 
0 32768 0 32768 0 0 0 1:-0.57281 2:-0.670691 3:-0.900471 4:-0.551456 
0 32768 32768 0 0 0 0 1:-0.459022 2:-0.640069 3:-0.848125 4:-0.430424 
0 32768 32768 32768 32768 0 0 1:-0.481867 2:-0.580788 3:-0.856668 4:-0.460858 
0 32768 32768 32768 32768 0 0 1:-0.437983 2:-0.467344 3:-0.828434 4:-0.425194 
0 32768 2221.184126128089 32768 32768 0 0 1:-0.571468 2:-0.626674 3:-0.898439 4:-0.553711 
0 32768 0 32768 32768 32768 0 1:-0.562475 2:-0.545825 3:-0.891557 4:-0.551583 
0 32768 32768 32768 32768 32768 0 1:-0.408689 2:-0.336864 3:-0.803468 4:-0.408954 
32768 32768 32768 32768 32768 32768 0 1:-0.377547 2:-0.291435 3:-0.781692 4:-0.380101 
0 32768 32768 32768 32768 0 0 1:-0.467275 2:-0.510408 3:-0.845966 4:-0.452159 
0 32768 0 32768 32768 32768 0 1:-0.522878 2:-0.483276 3:-0.871221 4:-0.515143 
0 32768 0 0 0 0 0 1:-0.484321 2:-0.629418 3:-0.859999 4:-0.458893 
0 32768 0 32768 0 0 0 1:-0.557499 2:-0.643152 3:-0.893265 4:-0.537129 
0 0 0 0 0 32768 0 1:-0.479209 2:-0.677305 3:-0.859459 4:-0.449121 
0 0 0 32768 0 0 0 1:-0.587722 2:-0.709105 3:-0.907551 4:-0.564571 
0 32768 0 7292.124434866342 934.8445120359139 0 164.3674475149292 1:-0.33464 2:0.304007 3:-0.68182 4:-0.423402 
0 0 0 32768 0 0 0 1:-0.58191 2:-0.692536 3:-0.904772 4:-0.559561 
0 32768 32768 0 0 0 0 1:-0.454924 2:-0.582374 3:-0.843448 4:-0.431353 
0 32768 0 32768 32768 32768 0 1:-0.557438 2:-0.591878 3:-0.89132 4:-0.541703 
0 32768 0 32768 32768 0 0 1:-0.631296 2:-0.693994 3:-0.923326 4:-0.613077 
32768 32768 32768 0 0 0 0 1:-0.444622 2:-0.621831 3:-0.840073 4:-0.416385 
0 32768 0 32768 32768 0 0 1:-0.500052 2:-0.53086 3:-0.86298 4:-0.485547 
0 32768 32768 32768 32768 0 0 1:-0.480254 2:-0.554219 3:-0.85463 4:-0.461625 
0 32768 0 32768 32768 32768 0 1:-0.525064 2:-0.501343 3:-0.873124 4:-0.515678 
32768 32768 32768 32768 32768 32768 0 1:-0.40182 2:-0.389815 3:-0.803517 4:-0.394843 
0 32768 23416.20226336612 32768 32768 32768 0 1:-0.586057 2:-0.633636 3:-0.904529 4:-0.568951 
0 32768 0 32768 32768 32768 0 1:-0.599048 2:-0.618268 3:-0.909077 4:-0.584384 
0 0 0 0 0 14184.89530396336 0 1:-0.485078 2:-0.673601 3:-0.862121 4:-0.455845 
0 32768 0 32768 0 0 0 1:-0.529324 2:-0.626716 3:-0.880556 4:-0.507941 
0 0 0 32768 0 0 0 1:-0.605578 2:-0.714708 3:-0.914513 4:-0.583543 
32768 32768 32768 32768 32768 32768 0 1:-0.316955 2:-0.418122 3:-0.754873 4:-0.299759 
32768 32768 32768 32768 32768 0 0 1:-0.399462 2:-0.476244 3:-0.808032 4:-0.382312 
0 32768 0 0 0 0 0 1:-0.502402 2:-0.64308 3:-0.869032 4:-0.477352 
0 32768 32768 32768 32768 32768 0 1:-0.501013 2:-0.475432 3:-0.860579 4:-0.492679 
0 32768 32768 32768 32768 32768 0 1:-0.523367 2:-0.449912 3:-0.869674 4:-0.519636 
0 32768 32768 32768 32768 32768 0 1:-0.588881 2:-0.617734 3:-0.905081 4:-0.573493 
32768 32768 32768 0 32768 0 0 1:-0.417251 2:-0.554174 3:-0.82238 4:-0.39326 
32768 32768 32768 0 20814.26743504543 0 0 1:-0.424682 2:-0.57111 3:-0.827238 4:-0.399655 
0 32768 0 32768 32768 32768 0 1:-0.601975 2:-0.63081 3:-0.910626 4:-0.586434 
32768 32768 32768 32768 32768 18106.77247642514 0 1:-0.31361 2:-0.569275 3:-0.763319 4:-0.279209 
32768 32768 32768 32768 32768 0 0 1:-0.378051 2:-0.511569 3:-0.798157 4:-0.355264 
0 32768 32768 0 0 0 0 1:-0.460027 2:-0.599861 3:-0.846837 4:-0.435268 
0 32768 0 32768 0 0 0 1:-0.532465 2:-0.637522 3:-0.882352 4:-0.510393 
0 32768 0 32768 32768 0 0 1:-0.615177 2:-0.680095 3:-0.917113 4:-0.596637 
0 0 0 32768 0 0 0 1:-0.653407 2:-0.736387 3:-0.931996 4:-0.633899 
0 32768 32768 32768 32768 0 0 1:-0.49141 2:-0.544322 3:-0.859528 4:-0.474777 
0 32768 0 32768 32768 32768 0 1:-0.60304 2:-0.646699 3:-0.911554 4:-0.586253 
32768 32768 32768 0 26219.29065772952 0 0 1:-0.393481 2:-0.557724 3:-0.809579 4:-0.366798 
0 0 0 32768 0 0 0 1:-0.569101 2:-0.679923 3:-0.89927 4:-0.546566 
0 32768 0 32768 32768 0 0 1:-0.522215 2:-0.547039 3:-0.874008 4:-0.507564 
0 0 0 32768 0 0 0 1:-0.577395 2:-0.690011 3:-0.902924 4:-0.554823 
0 32768 0 32768 0 0 0 1:-0.527139 2:-0.653021 3:-0.880589 4:-0.503256 
32768 32768 32768 32768 32768 0 0 1:-0.391982 2:-0.475852 3:-0.803826 4:-0.373636 
0 0 0 0 0 11928.88788963299 0 1:-0.587645 2:-0.964489 3:-0.912462 4:-0.550537 
0 32768 0 32768 0 0 0 1:-0.519795 2:-0.613246 3:-0.875773 4:-0.498877 
0 32768 0 32768 32768 32768 0 1:-0.568427 2:-0.59097 3:-0.895866 4:-0.553681 
0 0 0 32768 8420.844582108291 8894.587442872333 0 1:-0.436488 2:-0.780728 3:-0.842021 4:-0.394922 
0 0 0 11266.73696173567 10498.22381032226 0 0 1:-0.495547 2:-0.892001 3:-0.873106 4:-0.453008 
0 16445.321099503 7613.034593042832 425.9171885689826 213.6861703529753 352.0781014882542 0 1:0.0411897 2:0.181103 3:-0.377474 4:0.00338585 
0 0 0 10722.92921357709 0 0 0 1:-0.445721 2:-0.789624 3:-0.846928 4:-0.404392 
-32768 32768 32768 32768 32768 0 0 1:-0.415284 2:-0.528394 3:-0.819887 4:-0.39376 
-0 32768 32768 32768 32768 24599.78114876426 0 1:-0.327171 2:-0.264974 3:-0.748156 4:-0.330931 
-0 32768 32768 0 0 0 0 1:-0.26148 2:-0.301717 3:-0.708022 4:-0.255113 
-0 9072.999090924683 0 0 0 0 0 1:0.0668965 2:-0.225451 3:-0.427363 4:0.0887074 
-0 12654.95695594539 0 0 0 0 0 1:0.299909 2:-0.19833 3:-0.176092 4:0.336855 
-0 0 32768 0 0 0 0 1:-0.131941 2:-0.352205 3:-0.617638 4:-0.108252 
-0 32768 0 0 0 0 0 1:0.0980969 2:-0.370891 3:-0.417623 4:0.143638 
-0 0 0 32768 0 0 0 1:-0.202247 2:-0.376761 3:-0.673334 4:-0.181049 
-0 32768 32768 0 32768 0 0 1:-0.31581 2:-0.365421 3:-0.749869 4:-0.305071 
-0 32768 5639.526308141467 0 0 0 0 1:0.0793916 2:-0.392736 3:-0.438512 4:0.126431 
-0 32768 32768 0 26919.36738008979 0 0 1:-0.0238379 2:-0.243474 3:-0.513655 4:-0.00694157 
-0 32768 0 0 0 0 0 1:0.249193 2:-0.187874 3:-0.231375 4:0.279876 
-0 26101.57384734887 0 0 0 0 0 1:0.13646 2:-0.164988 3:-0.348281 4:0.154425 
-0 32768 0 0 0 0 0 1:0.0937011 2:-0.300325 3:-0.41237 4:0.128928 
-0 32768 0 0 0 0 0 1:-0.292781 2:-0.413399 3:-0.739008 4:-0.274583 
-0 0 32768 0 17038.53503906089 0 0 1:-0.210119 2:-0.340921 3:-0.675459 4:-0.194382 
-0 32768 0 0 0 0 0 1:-0.096816 2:-0.362924 3:-0.590549 4:-0.0688112 
-0 32768 0 0 0 0 0 1:0.140448 2:-0.410127 3:-0.381143 4:0.195263 
-32768 32768 32768 0 0 0 0 1:-0.390195 2:-0.575446 3:-0.808715 4:-0.361864 
-0 0 32768 0 0 0 0 1:-0.188917 2:-0.421749 3:-0.667832 4:-0.160871 
-0 32768 0 0 0 0 0 1:0.283709 2:-0.201858 3:-0.19526 4:0.319826 
-0 32768 32768 0 0 0 0 1:0.0104861 2:-0.131313 3:-0.466015 4:0.0128088 
-0 32768 0 0 0 0 0 1:0.402764 2:-0.214612 3:-0.0563754 4:0.450823 
-0 32768 0 0 0 0 0 1:-0.152135 2:-0.401929 3:-0.63827 4:-0.123396 
-0 32768 0 0 0 0 0 1:0.115202 2:-0.234797 3:-0.381229 4:0.14225 
-0 32768 0 0 0 0 0 1:0.382099 2:-0.246833 3:-0.0879811 4:0.433647 
-0 3769.485289144726 0 0 0 0 0 1:0.161015 2:-0.144662 3:-0.319241 4:0.177524 
-0 32768 0 0 0 0 0 1:0.0920077 2:-0.278084 3:-0.410812 4:0.124052 
-0 32768 0 0 0 0 0 1:0.321983 2:-0.198215 3:-0.150394 4:0.360632 
-0 32768 0 0 0 0 0 1:-0.303015 2:-0.467168 3:-0.749767 4:-0.279082 
-0 32768 0 0 0 0 0 1:0.372491 2:-0.241294 3:-0.0985533 4:0.422261 
-0 4513.448035739246 0 0 0 0 0 1:0.58425 2:-0.0677367 3:0.216661 4:0.622069 
-0 32768 20341.80571962021 0 0 0 0 1:-0.100773 2:-0.282308 3:-0.584531 4:-0.0842626 
-0 32768 0 0 0 0 0 1:-0.105884 2:-0.271972 3:-0.587414 4:-0.0912901 
-32768 32768 32768 32768 32768 0 0 1:-0.414097 2:-0.52376 3:-0.818969 4:-0.393046 
-0 32768 0 0 0 0 0 1:-0.323763 2:-0.4475 3:-0.761361 4:-0.303526 
-0 0 32768 0 0 0 0 1:-0.216067 2:-0.426468 3:-0.687869 4:-0.189689 
-0 32768 32768 0 0 0 0 1:-0.361409 2:-0.513109 3:-0.788608 4:-0.33725 
-0 32768 0 0 0 0 0 1:-0.329578 2:-0.414639 3:-0.762505 4:-0.313951 
-0 32768 32768 0 0 0 0 1:-0.0188845 2:-0.2919 3:-0.51597 4:0.00569624 
-0 32768 0 0 0 0 0 1:0.0754122 2:-0.151237 3:-0.406969 4:0.0856471 
-0 10597.78327691218 0 0 0 0 0 1:0.729819 2:0.113583 3:0.485566 4:0.743637 
-0 32768 32768 0 0 0 0 1:-0.367382 2:-0.565636 3:-0.795252 4:-0.338101 
-0 0 32768 0 0 0 0 1:-0.182778 2:-0.40441 3:-0.661707 4:-0.156328 
-0 32768 32768 0 0 0 0 1:-0.363371 2:-0.508339 3:-0.789462 4:-0.339776 
-0 32768 0 0 0 0 0 1:0.117361 2:-0.101567 3:-0.35667 4:0.123592 
-0 32768 0 0 0 0 0 1:0.0638594 2:-0.290626 3:-0.439714 4:0.0951709 
-0 32768 0 0 0 0 0 1:-0.120479 2:-0.357039 3:-0.609053 4:-0.0950727 
-0 0 32768 0 0 0 0 1:-0.211327 2:-0.357013 3:-0.678019 4:-0.193578 
-0 15275.2352943452 0 0 0 0 0 1:0.239563 2:-0.160521 3:-0.237279 4:0.26522 
-0 0 32768 0 0 0 0 1:0.160723 2:-0.208313 3:-0.330591 4:0.187495 
-0 32768 0 0 0 0 0 1:-0.266034 2:-0.36851 3:-0.717413 4:-0.25124 
-0 32768 0 0 0 0 0 1:-0.111341 2:-0.310464 3:-0.596437 4:-0.0918127 
-0 32768 0 0 0 0 0 1:0.103675 2:-0.260719 3:-0.39672 4:0.133933 
-0 32768 32768 0 32768 0 0 1:-0.334841 2:-0.370132 3:-0.762243 4:-0.324879 
-0 32768 32768 0 459.0766376016477 0 0 1:-0.0372538 2:-0.108669 3:-0.506102 4:-0.0422976 
-0 32768 0 0 0 0 0 1:0.382353 2:-0.269201 3:-0.0918351 4:0.437429 
-0 0 0 0 0 0 0.1673061152922988 1:0.517834 2:-0.287124 3:0.0759891 4:0.587295 
-0 32768 32768 0 32768 0 0 1:-0.307116 2:-0.336404 3:-0.741774 4:-0.299947 
-0 32768 32768 0 32768 0 0 1:-0.351837 2:-0.446354 3:-0.778447 4:-0.33453 
-0 32768 0 0 0 0 0 1:0.107667 2:-0.110292 3:-0.368096 4:0.114182 
-0 32768 0 0 0 0 0 1:0.211116 2:-0.152537 3:-0.267012 4:0.233074 
-0 32768 32768 32768 32768 0 0 1:-0.339414 2:-0.308496 3:-0.759871 4:-0.337975 
-0 32768 32768 32768 32768 32768 0 1:-0.36511 2:-0.358305 3:-0.77976 4:-0.359292 
-0 32768 0 0 0 0 0 1:-0.280224 2:-0.406249 3:-0.730177 4:-0.261596 
-0 32768 0 0 0 0 0 1:0.0529356 2:-0.0816274 3:-0.417358 4:0.0511762 
-0 32768 0 0 0 0 0 1:0.329273 2:-0.0700625 3:-0.115294 4:0.346309 
-0 32085.13123764233 0 0 0 0 0 1:-0.268291 2:-0.413741 3:-0.722848 4:-0.247925 
-0 32768 0 0 0 0 0 1:0.0788195 2:-0.37607 3:-0.436864 4:0.123527 
-0 32768 0 0 0 0 0 1:-0.307074 2:-0.481715 3:-0.753369 4:-0.281878 
-0 0 32768 0 0 0 0 1:-0.200342 2:-0.302458 3:-0.664471 4:-0.189109 
-0 0 25026.95932778231 0 0 0 0 1:0.188311 2:-0.232353 3:-0.305679 4:0.221482 
-0 7456.563625175223 0 0 0 0 0 1:0.347657 2:-0.271532 3:-0.133824 4:0.400199 
-0 0 0 0 0 0 0.1536253159573071 1:0.408317 2:-0.316654 3:-0.0688299 4:0.472864 
-0 0 32768 0 0 0 0 1:-0.184935 2:-0.386005 3:-0.661531 4:-0.160925 
-0 16276.20735795893 0 0 0 0 0 1:0.445562 2:0.13723 3:0.0839178 4:0.434286 
-15.78951160552767 0 0 31.600920050093 28.74704747760521 18.63374638337285 0.4673950340497494 1:0.920236 2:0.0721919 3:0.780412 4:0.958913 
-0 32768 0 0 16.02130521722139 18.48810050456341 0.3507329418936745 1:0.443194 2:0.329106 3:0.140023 4:0.396245 
-32768 32768 32768 32768 32768 0 0 1:-0.395349 2:-0.462487 3:-0.804843 4:-0.379618 
-0 32768 0 0 0 0 0 1:-0.29151 2:-0.410661 3:-0.737957 4:-0.273421 
-0 14328.35647287937 0 0 0 0 0 1:0.102336 2:-0.0386989 3:-0.3603 4:0.100348 
-0 32768 0 0 0 0 0 1:0.328775 2:0.153722 3:-0.061163 4:0.305245 
-0 32768 0 0 0 0 0 1:0.488203 2:0.126677 3:0.138103 4:0.483094 
-0 32768 0 0 0 0 0 1:0.602832 2:-0.0525394 3:0.246912 4:0.639581 
-0 32768 0 0 0 0 0 1:0.379543 2:-0.194911 3:-0.080948 4:0.422696 
-0 32768 0 0 0 0 0 1:-0.275185 2:-0.403242 3:-0.72657 4:-0.256665 
-0 0 32768 0 0 0 0 1:-0.131947 2:-0.372721 3:-0.619807 4:-0.10537 
-0 32768 0 0 0 0 0 1:-0.0708702 2:-0.322062 3:-0.564349 4:-0.0461886 
-0 32768 0 0 0 0 0 1:-0.321971 2:-0.44835 3:-0.76032 4:-0.301669 
-0 32768 0 0 0 0 0 1:0.0963626 2:-0.0555565 3:-0.369567 4:0.0945732 
-0 32768 19306.49053452562 0 0 0 0 1:0.14102 2:0.00433204 3:-0.31166 4:0.131157 
-0 32768 0 0 0 0 0 1:0.338827 2:0.00578679 3:-0.0863095 4:0.344284 
-0 32768 0 0 0 0 0 1:-0.335614 2:-0.470019 3:-0.77031 4:-0.314019 
-0 32768 32768 29707.43727569118 32768 0 0 1:-0.02277 2:-0.0409415 3:-0.481945 4:-0.0368384 
-129.9166828256195 32768 0 0 0 0 0.02225787175322168 1:0.277304 2:0.15114 3:-0.124396 4:0.249683 
-0 32768 0 0 0 0 0 1:0.236205 2:-0.0370963 3:-0.216311 4:0.240439 
-0 0 0 0 0 7.646709676403087 0 1:0.655837 2:-0.221732 3:0.280141 4:0.726555 
-0 0 0 2.003702411421111 0 0 0 1:0.83447 2:0.204131 3:0.685677 4:0.838231 
-23355.11158539778 32768 32768 32768 32768 32768 0.741283150367572 1:-0.345138 2:-0.245264 3:-0.7577 4:-0.35284 
-0 32768 0 0 0 0 0 1:-0.321284 2:-0.408069 3:-0.756807 4:-0.306054 
-0 32768 0 0 0 0 0 1:-0.127715 2:-0.355446 3:-0.614567 4:-0.10335 
-0 0 32768 0 0 0 0 1:0.00969886 2:-0.34418 3:-0.497079 4:0.0443955 
-0 32768 0 0 0 0 0 1:0.188595 2:-0.415009 3:-0.332723 4:0.24811 
-32768 32768 32768 32768 32768 32768 0 1:-0.476154 2:-0.602208 3:-0.854885 4:-0.452591 
-0 32768 32768 0 0 0 0 1:-0.366147 2:-0.510636 3:-0.791229 4:-0.342557 
-0 32768 0 0 0 0 0 1:-0.149579 2:-0.396828 3:-0.63594 4:-0.121365 
-0 32768 32768 0 0 0 0 1:-0.0813422 2:-0.292324 3:-0.569617 4:-0.0618078 
-0 32768 0 0 0 0 0 1:0.053953 2:-0.225656 3:-0.439634 4:0.0745739 
-32768 32768 32768 32768 32768 0 0 1:-0.397233 2:-0.460739 3:-0.805783 4:-0.381926 
-0 32768 32768 0 0 0 0 1:-0.375834 2:-0.510161 3:-0.796801 4:-0.353099 
-0 32768 0 0 0 0 0 1:-0.276545 2:-0.421131 3:-0.728899 4:-0.255848 
-0 32768 32768 0 0 0 0 1:-0.0735475 2:-0.357323 3:-0.570625 4:-0.0443991 
-0 32768 0 0 0 0 0 1:0.117373 2:-0.332397 3:-0.393565 4:0.159278 
-0 32338.33333724343 0 0 0 0 0 1:0.393161 2:-0.321533 3:-0.088156 4:0.45698 
-0 0 0 0.3208386315306822 1.893848458028097 0 0.05472574613855653 1:0.834974 2:-0.163023 3:0.56616 4:0.911013 
-0 17377.02970709271 0 0 0 0 0 1:0.681562 2:-0.0504098 3:0.361837 4:0.723925 
-0 32768 32768 0 0 0 0 1:-0.114554 2:-0.389745 3:-0.60752 4:-0.084736 
-0 32768 32768 32768 32768 0 0 1:-0.305779 2:-0.277652 3:-0.735492 4:-0.305441 
-0 32768 0 0 0 0 0 1:-0.297952 2:-0.462674 3:-0.74618 4:-0.274032 
-0 32768 0 0 0 0 0 1:-0.331256 2:-0.488849 3:-0.768949 4:-0.306899 
-0 0 32768 0 32768 0 0 1:-0.172384 2:-0.377767 3:-0.651329 4:-0.148752 
-20725.74043327434 32768 32768 32768 32768 0 0 1:-0.372334 2:-0.383237 3:-0.785977 4:-0.364284 
-0 32768 6948.650573548925 0 0 0 0 1:-0.165014 2:-0.121529 3:-0.615758 4:-0.177092 
-0 32768 32768 0 32768 0 0 1:-0.206228 2:-0.124468 3:-0.648061 4:-0.220741 
-0 32768 0 0 0 0 0 1:-0.32779 2:-0.488727 3:-0.766802 4:-0.303269 
-0 32768 0 0 32767.34059302388 0 0 1:-0.131231 2:-0.301625 3:-0.61138 4:-0.114538 
-0 32768 0 0 0 0 0 1:0.0550403 2:-0.286403 3:-0.44757 4:0.085214 
-0 32768 0 0 0 0 0 1:0.196857 2:-0.128611 3:-0.278079 4:0.213796 
-0 32768 0 0 0 0 0 1:0.258327 2:-0.05264 3:-0.194506 4:0.26713 
-32768 0 0 0 0 0 0 1:-0.242528 2:-0.41681 3:-0.705571 4:-0.219335 
-0 32768 0 0 0 0 0 1:-0.100643 2:-0.337051 3:-0.590888 4:-0.0764523 
-0 32768 32768 0 0 0 0 1:-0.364917 2:-0.585406 3:-0.79493 4:-0.333428 
-0 32768 0 0 0 0 0 1:0.0976519 2:-0.37706 3:-0.418971 4:0.144169 
-0 0 32768 0 0 0 0 1:-0.215421 2:-0.463688 3:-0.690591 4:-0.184379 
-0 32768 0 0 0 0 0 1:0.0314762 2:-0.28298 3:-0.469159 4:0.0591329 
-0 32768 32768 0 26878.43045505877 0 0 1:-0.0338055 2:-0.218355 3:-0.519213 4:-0.0214027 
-0 32768 32768 0 0 0 0 1:-0.071186 2:-0.141696 3:-0.540949 4:-0.0732841 
-0 0 32768 0 0 0 0 1:-0.172246 2:-0.438392 3:-0.657029 4:-0.140682 
-0 0 32768 6527.365422785767 0 0 0 1:-0.213717 2:-0.395564 3:-0.683419 4:-0.191088 
-0 32768 20139.7428123969 0 0 0 0 1:0.163311 2:-0.191175 3:-0.324915 4:0.187394 
-0 32768 32768 0 0 0 0 1:0.0381188 2:-0.11752 3:-0.437722 4:0.0404527 
-0 0 32768 0 0 0 0 1:-0.19933 2:-0.315183 3:-0.665083 4:-0.186271 
-0 32768 0 0 0 0 0 1:0.201 2:-0.112423 3:-0.270478 4:0.215443 
-0 32768 0 0 0 0 0 1:-0.282871 2:-0.434337 3:-0.734213 4:-0.261165 
-0 0 32768 0 0 0 0 1:-0.179131 2:-0.344215 3:-0.653051 4:-0.160344 
-0 0 32768 0 0 0 0 1:-0.184262 2:-0.391129 3:-0.661543 4:-0.159753 
-0 1216.286102215052 0 0 0 0 0 1:0.189785 2:-0.371049 3:-0.325451 4:0.243288 
-0 32768 0 0 0 0 0 1:0.151332 2:-0.379133 3:-0.366076 4:0.20272 
-0 32768 32768 0 0 0 0 1:-0.047546 2:-0.517281 3:-0.565525 4:0.00408839 
-0 0 32768 0 0 0 0 1:-0.153849 2:-0.454522 3:-0.644631 4:-0.118769 
-0 0 32768 0 0 0 0 1:-0.152831 2:-0.337458 3:-0.632327 4:-0.132567 
-0 32768 0 0 0 0 0 1:0.227118 2:-0.0233123 3:-0.223579 4:0.229093 
-0 32768 32768 0 0 0 0 1:0.0440996 2:-0.390594 3:-0.471308 4:0.0877575 
-0 32768 0 0 0 0 0 1:0.347549 2:-0.0939134 3:-0.0985051 4:0.370639 
-0 32768 32768 0 0 0 0 1:0.0798175 2:-0.0568687 3:-0.386428 4:0.0751952 
-0 0 32768 0 0 0 0 1:-0.219227 2:-0.403559 3:-0.688081 4:-0.195737 
-0 32768 32768 0 0 0 0 1:0.00893506 2:-0.121482 3:-0.465938 4:0.00963142 
-0 32768 0 0 0 0 0 1:-0.270116 2:-0.342872 3:-0.717831 4:-0.258898 
-0 0 32768 0 0 0 0 1:-0.179675 2:-0.383808 3:-0.657427 4:-0.155684 
-0 0 32768 0 0 0 0 1:-0.197357 2:-0.329222 3:-0.66507 4:-0.182189 
-0 0 8488.368315319742 0 0 0 0 1:-0.0770587 2:-0.505567 3:-0.588831 4:-0.0292914 
-0 0 32768 0 32768 0 0 1:-0.172594 2:-0.324074 3:-0.646011 4:-0.156159 
-0 0 32768 0 0 0 0 1:-0.200939 2:-0.435076 3:-0.677724 4:-0.172228 
-0 0 32768 0 0 0 0 1:0.0299737 2:-0.351416 3:-0.479454 4:0.067188 
-0 32768 0 0 0 0 0 1:-0.032032 2:-0.326956 3:-0.531887 4:-0.00346717 
-0 32768 0 0 0 0 0 1:-0.142182 2:-0.37783 3:-0.628324 4:-0.115842 
-0 0 32768 32768 0 0 0 1:-0.226352 2:-0.407511 3:-0.69347 4:-0.20333 
-0 32768 0 0 0 0 0 1:-0.318805 2:-0.443762 3:-0.758003 4:-0.298799 
-0 32768 0 0 0 0 0 1:-0.0856985 2:-0.323576 3:-0.577096 4:-0.0621308 
-0 32768 0 0 0 0 0 1:-0.115801 2:-0.302606 3:-0.599246 4:-0.0975963 
-0 32768 0 0 0 0 0 1:-0.0760634 2:-0.327346 3:-0.5694 4:-0.0512725 
-0 2193.697480933345 32768 0 32768 0 0 1:-0.17363 2:-0.357723 3:-0.650312 4:-0.152719 
-0 32768 0 0 0 0 0 1:-0.133155 2:-0.397465 3:-0.623289 4:-0.10357 
-0 32768 32768 0 0 0 0 1:-0.0193272 2:-0.287167 3:-0.515686 4:0.004634 
-0 0 32768 0 0 0 0 1:-0.152514 2:-0.387883 3:-0.637309 4:-0.125693 
-0 32768 32768 0 0 0 0 1:-0.197379 2:-0.509756 3:-0.681425 4:-0.159575 
-0 32768 0 0 0 0 0 1:-0.286578 2:-0.403272 3:-0.73412 4:-0.268971 
-0 0 32768 32768 0 0 0 1:-0.218908 2:-0.419848 3:-0.689305 4:-0.19368 
-0 0 32768 0 0 0 0 1:-0.182794 2:-0.355574 3:-0.656951 4:-0.162728 
-0 0 32768 0 0 0 0 1:-0.034936 2:-0.467071 3:-0.550063 4:0.0118896 
-0 32768 0 0 0 0 0 1:0.132285 2:-0.12276 3:-0.34517 4:0.142551 
-0 32768 32768 0 0 0 0 1:-0.187808 2:-0.447759 3:-0.669334 4:-0.156504 
-0 32768 32768 0 0 0 0 1:-0.117571 2:-0.339936 3:-0.604841 4:-0.0943383 
-0 0 32768 0 0 0 0 1:-0.0497474 2:-0.34563 3:-0.549464 4:-0.0196595 
-0 32768 0 0 0 0 0 1:-0.286997 2:-0.420896 3:-0.735839 4:-0.267332 
-0 32768 0 0 0 0 0 1:-0.327274 2:-0.508919 3:-0.76785 4:-0.300666 
-0 0 8534.851883867525 0 0 0 0 1:-0.213159 2:-0.436354 3:-0.686638 4:-0.185462 
-0 7578.120556373611 0 0 0 0 0 1:-0.189327 2:-0.481145 3:-0.673321 4:-0.154128 
-0 32768 0 0 0 0 0 1:-0.189232 2:-0.510262 3:-0.675615 4:-0.150639 
-0 32768 0 0 0 0 0 1:0.094331 2:-0.129953 3:-0.384915 4:0.102908 
-0 32768 0 0 0 0 0 1:0.128514 2:-0.125771 3:-0.349583 4:0.139124 
-0 32768 0 0 0 0 0 1:0.358684 2:0.050779 3:-0.0509158 4:0.357447 
-0 0 6387.825491947431 0 0 0 0 1:0.0235664 2:-0.244577 3:-0.471075 4:0.0446375 
-0 32768 0 0 0 0 0 1:0.0753627 2:-0.384533 3:-0.441309 4:0.12092 
-0 0 9576.065671706285 0 0 0 0 1:0.141571 2:-0.258213 3:-0.35841 4:0.174525 
-0 0 32768 0 0 0 0 1:-0.188021 2:-0.47679 3:-0.671995 4:-0.153223 
-0 32768 0 0 0 0 0 1:-0.113633 2:-0.343997 3:-0.602189 4:-0.089506 
-0 32768 0 0 0 0 0 1:-0.190462 2:-0.547328 3:-0.679351 4:-0.147854 
-0 10168.89602966548 32768 0 0 0 0 1:0.14241 2:-0.230035 3:-0.35307 4:0.170946 
-0 0 32768 0 0 0 0 1:-0.222122 2:-0.460985 3:-0.695055 4:-0.192077 
-0 32768 0 0 0 0 0 1:0.094346 2:-0.396662 3:-0.424698 4:0.143222 
-0 32768 0 0 0 0 0 1:-0.15913 2:-0.492478 3:-0.651964 4:-0.120026 
-0 32768 0 0 0 0 0 1:-0.166944 2:-0.477934 3:-0.65655 4:-0.130222 
-0 32768 0 0 0 0 0 1:0.097533 2:-0.199456 3:-0.393312 4:0.117676 
-0 32768 0 0 0 0 0 1:0.362983 2:0.0318057 3:-0.0502518 4:0.364153 
-0 32768 0 0 0 0 0 1:0.396295 2:0.105646 3:0.0109684 4:0.385882 
-0 32768 0 0 0 0 0 1:0.340934 2:-0.12553 3:-0.113301 4:0.369306 
-0 32768 0 0 0 0 0 1:-0.0385797 2:-0.253196 3:-0.528108 4:-0.0211561 
-0 32768 32768 0 0 0 0 1:-0.185035 2:-0.436778 3:-0.666334 4:-0.154875 
-0 32768 0 0 0 0 0 1:0.371332 2:-0.166327 3:-0.0851125 4:0.408858 
-0 0 32768 0 0 0 0 1:0.00356632 2:-0.376357 3:-0.506524 4:0.0421171 
-0 32768 0 0 0 0 0 1:-0.1958 2:-0.528243 3:-0.681755 4:-0.155758 
-0 32768 32768 32768 32768 0 0 1:-0.190511 2:-0.339949 3:-0.661057 4:-0.173387 
-0 0 32768 0 0 0 0 1:-0.206187 2:-0.363666 3:-0.674972 4:-0.187034 
-0 32768 0 0 0 0 0 1:-0.116128 2:-0.34921 3:-0.604767 4:-0.0914292 
-0 0 32768 0 0 0 0 1:-0.00966752 2:-0.307653 3:-0.509824 4:0.0181733 
-0 32768 0 0 0 0 0 1:0.20711 2:-0.0210821 3:-0.245393 4:0.206288 
-0 32768 0 0 0 0 0 1:-0.339252 2:-0.497553 3:-0.77438 4:-0.314939 
-0 32768 0 0 0 0 0 1:-0.321372 2:-0.512021 3:-0.76442 4:-0.29394 
-0 0 32768 0 0 0 0 1:-0.242722 2:-0.32319 3:-0.69706 4:-0.232083 
-32768 32768 32768 12182.58033563365 32768 0 0 1:-0.38405 2:-0.496447 3:-0.800623 4:-0.363665 
-0 32768 32768 0 32768 0 0 1:-0.380423 2:-0.507012 3:-0.79923 4:-0.358517 
-0 32768 32768 0 32768 0 0 1:-0.364413 2:-0.443909 3:-0.785755 4:-0.348338 
-0 32768 0 0 0 0 0 1:-0.315854 2:-0.445144 3:-0.756254 4:-0.295452 
-0 0 32768 0 0 0 0 1:-0.186427 2:-0.409517 3:-0.664881 4:-0.159676 
-0 0 0 32768 8539.678583148936 0 0 1:-0.221246 2:-0.434042 3:-0.692107 4:-0.194536 
-0 0 0 32768 0 0 0 1:-0.212197 2:-0.385724 3:-0.68141 4:-0.190793 
-0 0 32768 0 32768 0 0 1:-0.185302 2:-0.409274 3:-0.663982 4:-0.158629 
-0 0 32768 0 0 0 0 1:-0.00689728 2:-0.269809 3:-0.502343 4:0.0154476 
-0 32768 0 0 0 0 0 1:0.354361 2:0.0570219 3:-0.0546897 4:0.351867 
-0 32768 32768 622.5396359631607 0 0 0 1:0.083739 2:-0.476118 3:-0.444086 4:0.141739 
-0 32768 5131.965263470063 0 0 0 0 1:0.199528 2:-0.500054 3:-0.331966 4:0.270627 
-0 32768 0 0 0 0 0 1:0.268309 2:-0.446846 3:-0.251808 4:0.338863 
-0 6364.396764831811 0 0 0 0 0 1:0.415621 2:-0.137622 3:-0.0242701 4:0.451774 
-0 0 32768 32768 0 0 0 1:-0.216732 2:-0.407128 3:-0.686621 4:-0.192798 
-0 32768 32768 0 0 0 0 1:-0.192339 2:-0.464262 3:-0.674077 4:-0.159381 
-0 32768 0 0 0 0 0 1:-0.3354 2:-0.453959 3:-0.769006 4:-0.315855 
-0 32768 0 0 0 0 0 1:-0.287546 2:-0.387134 3:-0.733266 4:-0.272429 
-0 32768 0 0 0 0 0 1:-0.254063 2:-0.396821 3:-0.711775 4:-0.234733 
-0 32768 0 0 0 0 0 1:-0.327492 2:-0.457225 3:-0.764404 4:-0.306805 
-0 32768 32768 0 0 0 0 1:-0.268476 2:-0.331924 3:-0.715716 4:-0.258671 
-0 4138.92387872464 0 0 0 0 0 1:-0.186481 2:-0.522626 3:-0.674593 4:-0.146251 
-0 32768 20927.08797260152 0 0 0 0 1:0.026653 2:-0.298031 3:-0.475611 4:0.0561268 
-0 0 32768 0 0 0 0 1:-0.153508 2:-0.29191 3:-0.627856 4:-0.140003 
-0 18479.40069898114 32768 0 0 0 0 1:-0.00498728 2:-0.183975 3:-0.488459 4:0.00437735 
-0 32768 0 0 0 0 0 1:0.0816932 2:-0.357993 3:-0.431907 4:0.124308 
-0 0 32768 0 0 0 0 1:-0.218687 2:-0.516009 3:-0.697049 4:-0.181938 
-0 0 32768 0 0 0 0 1:-0.146082 2:-0.405319 3:-0.634082 4:-0.116492 
-0 32768 0 0 0 0 0 1:0.0651695 2:-0.372462 3:-0.449379 4:0.108141 
-0 32768 0 0 0 0 0 1:-0.10164 2:-0.299668 3:-0.587385 4:-0.0825623 
-0 32768 0 0 0 0 0 1:-0.0843007 2:-0.245305 3:-0.566313 4:-0.0718987 
-0 32768 0 0 0 0 0 1:-0.258055 2:-0.327208 3:-0.708049 4:-0.247733 
-0 32768 32768 0 0 0 0 1:-0.172017 2:-0.430063 3:-0.656064 4:-0.141618 
-0 32768 0 0 0 0 0 1:-0.0956405 2:-0.321541 3:-0.58504 4:-0.0731394 
-0 32768 32768 0 0 0 0 1:-0.0114835 2:-0.304123 3:-0.51099 4:0.0155137 
-0 0 32768 0 0 0 0 1:-0.0345284 2:-0.467723 3:-0.549786 4:0.0123914 
-0 32768 0 0 0 0 0 1:-0.121255 2:-0.340494 3:-0.607834 4:-0.0982574 
-0 32768 0 0 0 0 0 1:0.0409132 2:-0.206702 3:-0.449284 4:0.0577404 
-0 32768 0 0 0 0 0 1:-0.153999 2:-0.500672 3:-0.648795 4:-0.113483 
-0 0 32768 0 0 0 0 1:-0.214429 2:-0.476129 3:-0.690914 4:-0.18196 
-0 0 11880.27719180786 0 0 0 0 1:-0.246546 2:-0.601399 3:-0.722057 4:-0.203212 
-0 0 32768 0 0 0 0 1:-0.190984 2:-0.479524 3:-0.67439 4:-0.156026 
-0 0 32768 0 0 0 0 1:-0.018936 2:-0.403207 3:-0.529488 4:0.0211473 
-0 32768 32768 0 0 0 0 1:-0.194204 2:-0.509356 3:-0.67914 4:-0.156013 
-0 32768 0 0 0 0 0 1:-0.0566583 2:-0.266922 3:-0.545641 4:-0.0387478 
-0 32768 32768 0 0 0 0 1:-0.355251 2:-0.512861 3:-0.784981 4:-0.330426 
-0 32768 0 0 0 0 0 1:-0.0897122 2:-0.326461 3:-0.580754 4:-0.0660608 
-0 879.0237431241679 32768 0 0 0 0 1:-0.164827 2:-0.342141 3:-0.642033 4:-0.145249 
-0 32768 0 0 0 0 0 1:-0.30133 2:-0.482788 3:-0.749827 4:-0.275504 
-0 0 32768 0 0 0 0 1:-0.16091 2:-0.397128 3:-0.644609 4:-0.133612 
-0 0 32768 0 0 0 0 1:-0.201273 2:-0.401732 3:-0.674976 4:-0.176615 
-0 32768 32768 0 0 0 0 1:-0.109343 2:-0.357132 3:-0.600187 4:-0.0829052 
-0 0 32768 0 0 0 0 1:-0.0338547 2:-0.332613 3:-0.53421 4:-0.00448881 
-0 24081.17141412217 0 0 0 0 0 1:-0.145129 2:-0.448691 3:-0.637464 4:-0.110025 
-0 32768 32768 0 0 0 0 1:-0.156016 2:-0.330508 3:-0.634021 4:-0.137262 
-0 32768 32768 0 0 0 0 1:-0.0782605 2:-0.537706 3:-0.592652 4:-0.0270104 
-0 32768 0 0 0 0 0 1:-0.154282 2:-0.404539 3:-0.640277 4:-0.125464 
-0 32768 0 0 0 0 0 1:0.30538 2:0.11226 3:-0.100503 4:0.28714 
-0 32768 0 0 0 0 0 1:-0.157954 2:-0.443029 3:-0.646719 4:-0.124566 
-0 7705.979850516477 0 0 0 0 0 1:0.0621775 2:-0.108882 3:-0.413034 4:0.0655104 
-0 32768 32768 32768 32768 0 0 1:-0.253146 2:-0.162411 3:-0.687228 4:-0.266078 
-0 32768 32768 32768 32768 0 0 1:-0.364411 2:-0.439917 3:-0.785472 4:-0.348803 
-0 32768 0 0 0 0 0 1:-0.155204 2:-0.39864 3:-0.640429 4:-0.12725 
-0 0 32768 0 0 0 0 1:-0.211544 2:-0.284219 3:-0.670771 4:-0.203636 
-0 0 32768 0 0 0 0 1:0.0489983 2:-0.308544 3:-0.456315 4:0.0817262 
-0 0 32768 0 0 0 0 1:-0.175692 2:-0.373009 3:-0.653384 4:-0.152669 
-0 32768 0 0 0 0 0 1:-0.261291 2:-0.358918 3:-0.713297 4:-0.247259 
-0 0 32768 0 0 0 0 1:-0.168519 2:-0.397711 3:-0.650425 4:-0.141744 
-0 32768 0 0 0 0 0 1:-0.132628 2:-0.151273 3:-0.593751 4:-0.137992 
-0 32768 32768 0 0 0 0 1:-0.189913 2:-0.496748 3:-0.675009 4:-0.15293 
-0 32768 0 0 0 0 0 1:-0.143107 2:-0.412086 3:-0.63246 4:-0.112425 
-0 0 32768 0 0 0 0 1:-0.139319 2:-0.302325 3:-0.61794 4:-0.123044 
-0 0 32768 0 0 0 0 1:-0.199446 2:-0.51482 3:-0.68333 4:-0.161157 
-0 32768 32768 0 0 0 0 1:-0.104697 2:-0.556854 3:-0.615394 4:-0.0536056 
-0 0 32768 0 0 0 0 1:0.0522816 2:-0.295011 3:-0.451374 4:0.083381 
-0 32768 32768 25685.77237838252 32768 0 0 1:-0.1393 2:-0.0625395 3:-0.586689 4:-0.157715 
-0 0 32768 0 0 0 0 1:-0.183916 2:-0.341673 3:-0.65634 4:-0.165936 
-0 32768 32768 0 32768 0 0 1:-0.189388 2:-0.472907 3:-0.672521 4:-0.15537 
-0 32768 32768 0 0 0 0 1:-0.21547 2:-0.569987 3:-0.6987 4:-0.172646 
-0 0 32768 0 0 0 0 1:-0.0759055 2:-0.505537 3:-0.587921 4:-0.027999 
-0 32768 0 0 0 0 0 1:-0.175242 2:-0.488148 3:-0.663568 4:-0.13791 
-0 32768 32768 0 2123.094663034897 0 0 1:-0.120379 2:-0.100951 3:-0.576692 4:-0.132398 
-0 32768 32768 0 0 0 0 1:-0.359023 2:-0.559143 3:-0.790022 4:-0.329622 
-15635.97313990733 32768 32768 0 0 0 0 1:-0.375402 2:-0.565844 3:-0.79986 4:-0.346759 
-0 32768 0 0 0 0 0 1:-0.141638 2:-0.105256 3:-0.594769 4:-0.153399 
-0 0 32768 0 0 0 0 1:-0.219585 2:-0.430292 3:-0.690703 4:-0.19313 
-32768 32768 32768 0 32768 0 0 1:-0.392474 2:-0.525247 3:-0.807154 4:-0.369584 
-32768 32768 32768 32768 32768 0 0 1:-0.40884 2:-0.523106 3:-0.816081 4:-0.387541 
-0 32768 0 0 0 0 0 1:-0.349543 2:-0.535384 3:-0.783019 4:-0.321916 
-12497.28157435435 0 0 32768 7282.191936649849 9847.58596005855 0 1:-0.320976 2:-0.630599 3:-0.771367 4:-0.281303 
-0 0 0 22514.90660488411 0 0 0 1:-0.29307 2:-0.603892 3:-0.752535 4:-0.253555 
-0 32768 32768 0 0 0 0 1:-0.354641 2:-0.497075 3:-0.783585 4:-0.331616 
-0 32768 0 0 0 0 0 1:-0.329218 2:-0.500239 3:-0.768469 4:-0.303687 
-0 0 32768 0 0 0 0 1:-0.174855 2:-0.412949 3:-0.656626 4:-0.146748 
-0 0 32768 0 0 0 0 1:-0.213193 2:-0.483894 3:-0.690666 4:-0.179691 
-0 4281.90188842421 0 0 0 0 0 1:0.481979 2:-0.00325073 3:0.0937746 4:0.499574 
-0 32768 0 0 0 0 0 1:-0.271315 2:-0.354417 3:-0.719703 4:-0.258827 
-0 0 32768 0 0 0 0 1:-0.224601 2:-0.524747 3:-0.701832 4:-0.187356 
-0 0 32768 0 0 0 0 1:-0.209683 2:-0.495917 3:-0.689139 4:-0.174448 
-0 32768 0 0 0 0 0 1:-0.305061 2:-0.36682 3:-0.743089 4:-0.293512 
-0 32768 0 0 0 0 0 1:-0.350856 2:-0.50084 3:-0.781581 4:-0.327093 
-0 32768 0 0 0 0 0 1:-0.307846 2:-0.462089 3:-0.752464 4:-0.284886 
-0 32768 32768 0 0 0 0 1:-0.370242 2:-0.514187 3:-0.793809 4:-0.346684 
-0 0 32768 0 0 0 0 1:-0.224664 2:-0.48164 3:-0.69855 4:-0.192383 
-0 32768 32768 0 32768 0 0 1:-0.346988 2:-0.386646 3:-0.771045 4:-0.335641 
-0 0 0 10639.50537113973 0 0 0 1:-0.192665 2:-0.392788 3:-0.66788 4:-0.168656 
-0 0 32768 0 0 0 0 1:-0.0775029 2:-0.288428 3:-0.566059 4:-0.0581901 
-0 32768 0 0 0 0 0 1:-0.0756541 2:-0.316439 3:-0.567904 4:-0.0520299 
-0 32768 0 0 0 0 0 1:-0.325886 2:-0.481603 3:-0.765142 4:-0.302159 
-0 32768 32768 0 7428.355871719007 0 0 1:-0.348483 2:-0.444069 3:-0.776268 4:-0.330958 
-0 32768 0 0 0 0 0 1:-0.173598 2:-0.511949 3:-0.664322 4:-0.133473 
-0 32768 32768 32768 32768 0 0 1:-0.377401 2:-0.471065 3:-0.795189 4:-0.359214 
-0 32768 32768 32768 32768 0 0 1:-0.360607 2:-0.406476 3:-0.780772 4:-0.348574 
-0 32768 32768 0 0 0 0 1:-0.158862 2:-0.57111 3:-0.657983 4:-0.110974 
-0 32768 0 0 0 0 0 1:-0.122856 2:-0.531634 3:-0.627545 4:-0.0761028 
-0 0 32768 0 0 0 0 1:-0.169305 2:-0.381486 3:-0.649421 4:-0.144774 
-0 0 32768 0 0 0 0 1:-0.228955 2:-0.374909 3:-0.69229 4:-0.210384 
-0 0 32768 0 0 0 0 1:0.0255595 2:-0.41458 3:-0.491189 4:0.0708639 
-0 0 32768 0 0 0 0 1:-0.000947053 2:-0.380022 3:-0.51098 4:0.0376223 
-0 32768 32768 0 0 0 0 1:-0.209525 2:-0.152966 3:-0.654137 4:-0.219904 
-0 8182.290428875011 0 0 0 0 0 1:-0.215626 2:-0.582448 3:-0.699679 4:-0.17151 
-0 23417.876332133 32768 0 0 0 0 1:-0.114653 2:-0.555273 3:-0.62308 4:-0.0645855 
-0 0 32768 0 0 0 0 1:0.0297339 2:-0.413356 3:-0.487264 4:0.0754909 
-0 32768 32768 0 0 0 0 1:-0.251737 2:-0.288757 3:-0.699959 4:-0.246291 
-0 32768 32768 0 0 0 0 1:-0.327308 2:-0.410351 3:-0.760757 4:-0.312206 
-0 32768 0 0 0 0 0 1:-0.294488 2:-0.428151 3:-0.741293 4:-0.2744 
-32768 32768 32768 0 0 0 0 1:-0.374818 2:-0.58958 3:-0.800841 4:-0.343756 
-32768 32768 32768 0 0 0 0 1:-0.392805 2:-0.565327 3:-0.809624 4:-0.365703 
-0 32768 0 0 0 0 0 1:-0.131258 2:-0.377439 3:-0.619757 4:-0.10396 
-0 32768 0 0 0 0 0 1:0.0793938 2:-0.391624 3:-0.438397 4:0.126312 
-0 0 23872.17377672858 0 0 0 0 1:-0.193313 2:-0.365393 3:-0.665724 4:-0.172911 
-0 0 32768 0 0 0 0 1:-0.206589 2:-0.294738 3:-0.668273 4:-0.196778 
-0 32768 32768 0 32768 0 0 1:-0.0260105 2:-0.0777675 3:-0.491023 4:-0.0352623 
-0 32768 32768 0 0 0 0 1:-0.360434 2:-0.49521 3:-0.786895 4:-0.338092 
-0 32768 0 0 0 0 0 1:-0.28158 2:-0.36781 3:-0.727778 4:-0.268049 
-0 0 16075.84653685931 0 0 0 0 1:-0.351545 2:-0.585964 3:-0.787171 4:-0.318889 
-0 32768 32768 19706.91207636329 32768 0 0 1:-0.324238 2:-0.34587 3:-0.753564 4:-0.317072 
-0 32768 0 0 0 0 0 1:-0.276938 2:-0.415381 3:-0.728748 4:-0.256948 
-32768 32768 32768 32768 32768 32768 0 1:-0.398318 2:-0.661538 3:-0.817438 4:-0.362666 
-0 32768 32768 0 0 0 0 1:-0.373641 2:-0.545095 3:-0.797658 4:-0.347025 
-0 0 32768 0 0 0 0 1:-0.357389 2:-0.600468 3:-0.791398 4:-0.323746 
-0 32768 0 0 0 0 0 1:-0.332428 2:-0.487538 3:-0.769581 4:-0.308631 
-0 0 32768 0 0 0 0 1:-0.222045 2:-0.35349 3:-0.685399 4:-0.205667 
-0 0 32768 0 0 0 0 1:-0.225047 2:-0.482331 3:-0.698858 4:-0.192751 
-0 32768 0 0 0 0 0 1:-0.115602 2:-0.513562 3:-0.620361 4:-0.0701959 
-0 0 0 0 1073.309890246781 0 0 1:-0.234063 2:-0.601675 3:-0.713642 4:-0.189626 
-0 0 32768 0 0 0 0 1:-0.224766 2:-0.281608 3:-0.680106 4:-0.218362 
-0 32768 0 0 0 0 0 1:0.0800973 2:-0.232743 3:-0.415636 4:0.104002 
-0 32768 0 0 0 0 0 1:-0.143371 2:-0.507852 3:-0.641344 4:-0.101069 
-32768 32768 32768 32768 32768 0 0 1:-0.38445 2:-0.483928 3:-0.800072 4:-0.36543 
-32768 32768 32768 32768 0 14635.70914298706 0 1:-0.404797 2:-0.581177 3:-0.817082 4:-0.377088 
-0 32768 0 0 0 0 0 1:-0.32458 2:-0.46539 3:-0.763087 4:-0.302763 
-32768 32768 32768 32768 0 32768 0 1:-0.404851 2:-0.601143 3:-0.818131 4:-0.37525 
-32768 32768 32768 0 0 0 0 1:-0.383255 2:-0.557325 3:-0.803831 4:-0.356198 
-0 32768 0 0 0 0 0 1:-0.0923554 2:-0.301601 3:-0.579936 4:-0.072118 
-0 32768 0 10591.32445829512 0 0 0 1:-0.0777189 2:-0.277988 3:-0.564768 4:-0.0599727 
-0 32768 32768 0 0 0 0 1:-0.174289 2:-0.440508 3:-0.65871 4:-0.14276 
-0 32768 32768 0 0 0 0 1:-0.117886 2:-0.381102 3:-0.609579 4:-0.0891484 
-0 32768 0 0 0 0 0 1:-0.307816 2:-0.477229 3:-0.753538 4:-0.282992 
-0 32768 32768 0 0 0 0 1:-0.349996 2:-0.454613 3:-0.777918 4:-0.331507 
-0 32768 0 0 0 0 0 1:-0.319661 2:-0.489464 3:-0.761786 4:-0.294596 
-0 32768 0 0 0 0 0 1:-0.346445 2:-0.557378 3:-0.782517 4:-0.316246 
-0 32768 32768 0 0 0 0 1:-0.366304 2:-0.500221 3:-0.790656 4:-0.343932 
-0 32768 32768 0 0 0 0 1:-0.349562 2:-0.458729 3:-0.777954 4:-0.33055 
-0 32768 0 0 0 0 0 1:-0.15007 2:-0.302871 3:-0.626366 4:-0.134665 
-0 32768 0 0 0 0 0 1:0.0920372 2:-0.0754298 3:-0.377561 4:0.0926246 
-0 0 32768 0 0 0 0 1:0.0149233 2:-0.315821 3:-0.488755 4:0.0459292 
-0 0 32768 0 0 0 0 1:-0.00530464 2:-0.264867 3:-0.500272 4:0.0166106 
-0 32768 0 0 0 0 0 1:-0.0201425 2:-0.239584 3:-0.510092 4:-0.00316401 
-0 32768 0 0 0 0 0 1:-0.166239 2:-0.438777 3:-0.652553 4:-0.134174 
-6729.176653838297 0 0 0 0 0 0 1:-0.247435 2:-0.384785 3:-0.706153 4:-0.228498 
-0 0 32768 0 0 0 0 1:0.00676093 2:-0.352826 3:-0.500806 4:0.0422581 
-0 0 32768 0 0 0 0 1:0.0153409 2:-0.298214 3:-0.486042 4:0.0437512 
-0 32768 0 0 0 0 0 1:0.279277 2:-0.182538 3:-0.196753 4:0.311755 
-0 32768 32768 0 0 0 0 1:-0.120396 2:-0.166506 3:-0.585821 4:-0.12273 
-0 32768 0 0 0 0 0 1:-0.123329 2:-0.394081 3:-0.615214 4:-0.0932311 
-0 0 32768 0 0 0 0 1:-0.0801393 2:-0.376115 3:-0.578445 4:-0.0488747 
-0 32768 0 0 0 0 0 1:-0.336132 2:-0.515102 3:-0.773684 4:-0.309591 
-0 32768 0 0 0 0 0 1:-0.325138 2:-0.441814 3:-0.761806 4:-0.306061 
-0 0 32768 0 0 0 0 1:-0.205349 2:-0.399977 3:-0.677803 4:-0.181162 
-0 32768 0 0 0 0 0 1:-0.325559 2:-0.443817 3:-0.762221 4:-0.306201 
-0 32768 0 0 0 0 0 1:-0.324933 2:-0.480265 3:-0.764433 4:-0.301361 
-0 0 32768 0 0 0 0 1:-0.199341 2:-0.422038 3:-0.675465 4:-0.172001 
-0 32768 0 0 0 0 0 1:-0.11551 2:-0.345814 3:-0.603863 4:-0.091222 
-0 32768 0 0 0 0 0 1:0.131627 2:-0.0860679 3:-0.339118 4:0.135835 
-0 32768 0 0 0 0 0 1:0.120767 2:-0.144287 3:-0.360698 4:0.133844 
-0 32768 32768 0 0 0 0 1:0.0702645 2:-0.385551 3:-0.446308 4:0.115627 
-0 0 23095.02578048179 0 0 0 0 1:-0.176637 2:-0.468737 3:-0.662961 4:-0.141768 
-0 0 32768 0 0 0 0 1:-0.200673 2:-0.521638 3:-0.684739 4:-0.161708 
-0 32768 0 0 0 0 0 1:-0.317498 2:-0.404398 3:-0.754091 4:-0.302019 
-0 32768 0 0 0 0 0 1:-0.190648 2:-0.487285 3:-0.674785 4:-0.154821 
-0 32768 0 0 0 0 0 1:-0.213683 2:-0.577236 3:-0.69797 4:-0.169937 
-0 32768 32768 0 0 0 0 1:-0.0665051 2:-0.309494 3:-0.559374 4:-0.0432348 
-0 2644.678715040146 32768 0 0 0 0 1:-0.00505807 2:-0.302742 3:-0.505045 4:0.0222493 
-0 0 32768 0 0 0 0 1:-0.133044 2:-0.356782 3:-0.61898 4:-0.108779 
-0 32768 0 0 0 0 0 1:-0.0545108 2:-0.287082 3:-0.546404 4:-0.0334773 
-0 0 32768 0 0 0 0 1:-0.183704 2:-0.410861 3:-0.662997 4:-0.156614 
-0 32768 32768 0 0 0 0 1:-0.166819 2:-0.346785 3:-0.643993 4:-0.146692 
-0 32768 32768 32768 32768 0 0 1:-0.223815 2:-0.101753 3:-0.658375 4:-0.243618 
-0 32768 32768 0 19052.55286777689 0 0 1:-0.1595 2:-0.19029 3:-0.620359 4:-0.161492 
-0 32768 32768 0 15918.35098891459 0 0 1:-0.0714152 2:-0.215672 3:-0.551531 4:-0.0625286 
-0 32768 32768 0 0 0 0 1:-0.357743 2:-0.533318 3:-0.787728 4:-0.330993 
-0 32768 32768 0 0 0 0 1:-0.360538 2:-0.56045 3:-0.79099 4:-0.331134 
-0 0 32768 0 0 0 0 1:-0.224225 2:-0.275821 3:-0.679105 4:-0.218573 
-0 32768 0 0 0 0 0 1:-0.126581 2:-0.385931 3:-0.61696 4:-0.0979701 
-0 32768 32768 0 0 0 0 1:-0.263348 2:-0.290114 3:-0.70816 4:-0.258571 
-0 32768 32768 0 0 0 0 1:-0.261774 2:-0.308481 3:-0.708896 4:-0.254739 
-0 0 32768 0 0 0 0 1:-0.0505905 2:-0.383353 3:-0.554508 4:-0.0156685 
-0 32768 32768 0 0 0 0 1:0.00448057 2:-0.0806383 3:-0.463388 4:-0.00203361 
-0 32768 15937.23309287381 0 0 0 0 1:-0.209502 2:-0.585827 3:-0.695613 4:-0.164516 
-32768 32768 32768 32768 32768 32768 7.959182847707861 1:-0.524707 2:-0.681007 3:-0.880506 4:-0.498261 
-0 0 0 0 0 32768 0 1:-0.202918 2:-0.385336 3:-0.674676 4:-0.180211 
-0 32768 0 0 0 0 0 1:-0.290505 2:-0.370806 3:-0.733946 4:-0.277241 
-0 0 32768 0 0 0 0 1:-0.221568 2:-0.355359 3:-0.685231 4:-0.20472 
-0 32768 0 0 0 0 0 1:-0.305753 2:-0.495697 3:-0.753545 4:-0.278741 
-0 32768 32768 0 32768 0 0 1:-0.347648 2:-0.434623 3:-0.775066 4:-0.33136 
-0 32768 3628.738135522796 0 0 0 0 1:-0.315341 2:-0.392366 3:-0.751798 4:-0.301431 
-0 32768 0 0 0 0 0 1:-0.276724 2:-0.418271 3:-0.728858 4:-0.256377 
-0 0 32768 0 0 0 0 1:-0.240861 2:-0.389314 3:-0.702003 4:-0.221204 
-0 32768 0 0 0 0 0 1:-0.162357 2:-0.501459 3:-0.65511 4:-0.122418 
-0 32768 0 0 0 0 0 1:-0.283866 2:-0.423651 3:-0.734002 4:-0.263438 
-0 32768 0 0 0 0 0 1:-0.345096 2:-0.554959 3:-0.781569 4:-0.315006 
-0 0 0 32768 0 0 0 1:-0.212471 2:-0.397209 3:-0.682677 4:-0.189521 
-0 0 0 0 30652.37070327184 0 0 1:-0.185051 2:-0.379295 3:-0.660985 4:-0.162186 
-0 32768 0 0 0 0 0 1:-0.151434 2:-0.143219 3:-0.607877 4:-0.159253 
-0 32768 0 0 0 0 0 1:-0.296894 2:-0.375779 3:-0.738554 4:-0.283273 
-0 32768 0 0 0 0 0 1:0.145449 2:-0.158222 3:-0.337879 4:0.162811 
-567.9671925018208 0 22126.88354223529 0 0 0 0 1:-0.349568 2:-0.613693 3:-0.78755 4:-0.31399 
-0 32768 32768 0 0 0 0 1:-0.354646 2:-0.547448 3:-0.786768 4:-0.326169 
-0 31063.15337027783 0 0 0 0 0 1:-0.136441 2:-0.453377 3:-0.631232 4:-0.0999577 
-0 32768 0 0 0 0 0 1:-0.325457 2:-0.52839 3:-0.768027 4:-0.296557 
-0 32768 32768 0 0 0 0 1:0.0910633 2:-0.422928 3:-0.431086 4:0.143171 
-0 0 32768 0 0 0 0 1:-0.191178 2:-0.432161 3:-0.670435 4:-0.16202 
-0 0 32768 0 0 0 0 1:-0.164898 2:-0.402067 3:-0.648115 4:-0.137273 
-0 0 32768 0 0 0 0 1:-0.210472 2:-0.368121 3:-0.678505 4:-0.191094 
-0 32768 0 0 0 0 0 1:-0.304251 2:-0.410853 3:-0.746215 4:-0.287043 
-0 32768 0 0 0 0 0 1:-0.281706 2:-0.370127 3:-0.728071 4:-0.268051 
-0 32768 0 0 0 0 0 1:-0.263163 2:-0.357881 3:-0.71447 4:-0.249549 
-0 0 32768 0 0 0 0 1:-0.070964 2:-0.222387 3:-0.55204 4:-0.0609882 
-0 32768 0 0 0 0 0 1:0.235241 2:-0.149231 3:-0.239953 4:0.258521 
-0 32768 32768 0 32768 0 0 1:-0.1797 2:-0.094509 3:-0.623656 4:-0.197224 
-0 0 0 0 0 32768 0 1:-0.201334 2:-0.361805 3:-0.67126 4:-0.181179 
-0 0 32768 19848.70059534233 0 0 0 1:-0.0362729 2:-0.280957 3:-0.529825 4:-0.0147093 
-0 0 0 32768 0 0 0 1:-0.211698 2:-0.399564 3:-0.682324 4:-0.188461 
-5113.466768277307 0 0 0 0 25774.38310480214 0 1:-0.223711 2:-0.344284 3:-0.685708 4:-0.207984 
-0 0 32768 0 0 0 0 1:-0.184592 2:-0.382442 3:-0.660935 4:-0.161256 
-0 32768 32768 0 0 0 0 1:-0.253955 2:-0.186527 3:-0.690514 4:-0.262122 
-32768 32768 32768 32768 32768 0 0 1:-0.383613 2:-0.429271 3:-0.795677 4:-0.371247 
-32768 32768 32768 32768 32768 32768 0 1:-0.397795 2:-0.404131 3:-0.802247 4:-0.389044 
-0 32768 0 0 0 0 0 1:-0.300412 2:-0.328764 3:-0.736725 4:-0.292429 
-0 32768 32768 0 0 0 0 1:-0.0826487 2:-0.087656 3:-0.542766 4:-0.0936804 
-0 32768 32768 0 0 0 0 1:-0.0495642 2:-0.0925718 3:-0.51456 4:-0.0570215 
-0 32768 0 0 0 0 0 1:-0.323394 2:-0.451675 3:-0.761451 4:-0.303029 
-0 32768 0 0 0 0 0 1:-0.313755 2:-0.489539 3:-0.758155 4:-0.288171 
-0 0 32768 0 0 0 0 1:-0.250356 2:-0.246482 3:-0.694628 4:-0.250458 
-0 32768 0 0 0 0 0 1:-0.0998104 2:-0.330845 3:-0.589448 4:-0.0764136 
-0 0 32768 0 0 0 0 1:-0.165256 2:-0.353604 3:-0.643557 4:-0.144058 
-0 32768 0 0 0 0 0 1:-0.284917 2:-0.397548 3:-0.732549 4:-0.267651 
-0 32768 32768 0 0 0 0 1:-0.272339 2:-0.235211 3:-0.70874 4:-0.275151 
-0 32768 0 0 0 0 0 1:-0.155996 2:-0.404749 3:-0.641625 4:-0.127364 
-0 0 32768 0 0 0 0 1:-0.0165018 2:-0.25866 3:-0.509456 4:0.00358837 
-0 32768 0 0 0 0 0 1:-0.334151 2:-0.539376 3:-0.77404 4:-0.304769 
-0 32768 0 0 0 0 0 1:-0.351874 2:-0.537072 3:-0.784504 4:-0.324128 
-0 32768 0 0 0 0 0 1:-0.279909 2:-0.409179 3:-0.730206 4:-0.260959 
-0 0 5389.609387499184 0 0 0 0 1:-0.18877 2:-0.428155 3:-0.668308 4:-0.159731 
-0 0 32768 0 0 0 0 1:-0.162028 2:-0.40865 3:-0.646584 4:-0.133391 
-0 32768 32768 0 32768 0 0 1:-0.272081 2:-0.233692 3:-0.708415 4:-0.276059 
-0 18563.87508075119 0 0 0 0 0 1:-0.344352 2:-0.5634 3:-0.78163 4:-0.31329 
-32768 32768 32768 0 0 32768 0 1:-0.384036 2:-0.609472 3:-0.807082 4:-0.351702 
-0 32768 32768 32768 32768 0 0 1:-0.290401 2:-0.229134 3:-0.720435 4:-0.296553 
-0 0 0 0 0 13107.55704925536 0 1:-0.207634 2:-0.412881 3:-0.680627 4:-0.181926 
-0 0 32768 0 0 0 0 1:-0.191631 2:-0.304689 3:-0.658272 4:-0.179304 
-0 0 32768 0 0 0 0 1:-0.18703 2:-0.324865 3:-0.656972 4:-0.171618 
-0 32768 0 0 0 0 0 1:-0.275273 2:-0.411978 3:-0.727372 4:-0.255723 
-0 32768 0 0 0 0 0 1:0.183954 2:-0.0708273 3:-0.280885 4:0.190823 
-0 0 32768 0 0 0 0 1:-0.209769 2:-0.56713 3:-0.69452 4:-0.166746 
-0 32768 32768 0 0 0 0 1:-0.0191541 2:-0.0826719 3:-0.485561 4:-0.0255442 
-0 32768 0 0 0 0 0 1:0.0347606 2:-0.0343288 3:-0.42659 4:0.0269328 
-32768 32768 32768 0 0 0 0 1:-0.381445 2:-0.566146 3:-0.803306 4:-0.353339 
-0 32768 0 0 0 0 0 1:-0.18854 2:-0.53602 3:-0.677113 4:-0.147022 
-0 0 32768 0 0 0 0 1:-0.237832 2:-0.547014 3:-0.712547 4:-0.199332 
-0 0 32768 0 0 0 0 1:-0.221243 2:-0.419917 3:-0.69097 4:-0.196132 
-0 0 32768 0 0 0 0 1:-0.161643 2:-0.389976 3:-0.644458 4:-0.135264 
-0 32768 0 0 0 0 0 1:-0.291221 2:-0.43463 3:-0.739694 4:-0.270126 
-0 32768 32768 0 0 0 0 1:-0.265918 2:-0.30193 3:-0.711102 4:-0.259747 
-0 32768 32768 0 0 0 0 1:0.0937347 2:-0.381903 3:-0.423416 4:0.140843 
-0 32768 32768 0 0 0 0 1:0.0397186 2:-0.421566 3:-0.47909 4:0.0872897 
-0 32768 0 0 0 0 0 1:-0.326106 2:-0.487045 3:-0.765669 4:-0.301524 
-3386.053397583685 0 0 0 0 0 0 1:-0.2601 2:-0.433994 3:-0.719016 4:-0.236126 
-0 32768 0 0 0 0 0 1:-0.17052 2:-0.428603 3:-0.654841 4:-0.14008 
-0 0 32768 0 0 0 0 1:-0.189061 2:-0.405979 3:-0.666489 4:-0.163 
-32768 32768 32768 0 0 0 0 1:-0.382606 2:-0.526808 3:-0.801675 4:-0.358723 
-0 0 0 32768 32768 0 0 1:-0.303469 2:-0.628559 3:-0.760476 4:-0.262459 
-0 32768 0 0 0 0 0 1:-0.214848 2:-0.580516 3:-0.698975 4:-0.170874 
-0 0 32768 1753.422301609345 0 0 0 1:0.00611339 2:-0.42302 3:-0.509631 4:0.0508892 
-0 0 32768 0 0 0 0 1:-0.227723 2:-0.458389 3:-0.698801 4:-0.198398 
-0 0 32768 0 0 0 0 1:-0.111887 2:-0.542749 3:-0.6199 4:-0.0628961 
-0 32768 0 0 0 0 0 1:-0.322512 2:-0.468609 3:-0.762137 4:-0.300024 
-0 32768 0 0 0 0 0 1:-0.341423 2:-0.517228 3:-0.77702 4:-0.315059 
-0 32768 0 0 0 0 0 1:-0.297501 2:-0.428801 3:-0.743285 4:-0.277813 
-0 32768 32768 0 15570.43954735925 0 0 1:-0.270963 2:-0.298306 3:-0.714183 4:-0.266051 
-0 0 32768 32768 0 0 0 1:-0.198425 2:-0.375624 3:-0.670459 4:-0.177119 
-0 32768 0 0 0 0 0 1:-0.32727 2:-0.497236 3:-0.767082 4:-0.301918 
-0 32768 0 0 0 0 0 1:-0.327995 2:-0.453552 3:-0.764426 4:-0.307649 
-0 32768 0 0 0 0 0 1:-0.276964 2:-0.32892 3:-0.721175 4:-0.267643 
-0 32768 0 0 0 0 0 1:0.243839 2:-0.0798097 3:-0.216618 4:0.256653 
-873.0913224389087 5502.303398972593 0 32768 828.5655039373394 4462.31195148319 0.7453486856997421 1:-0.207928 2:-0.0855106 3:-0.644255 4:-0.22558 
-0 32768 0 0 0 0 0 1:-0.111023 2:-0.338376 3:-0.599471 4:-0.0873619 
-0 32768 0 0 0 0 0 1:-0.273127 2:-0.404186 3:-0.725277 4:-0.254379 
-0 32768 0 0 0 0 0 1:-0.342173 2:-0.516139 3:-0.7774 4:-0.315918 
-0 0 32768 0 0 0 0 1:-0.208988 2:-0.512501 3:-0.689947 4:-0.17173 
-0 0 32768 0 0 0 0 1:-0.192038 2:-0.412046 3:-0.669232 4:-0.16541 
-0 0 32768 0 0 0 0 1:0.0108462 2:-0.284932 3:-0.488373 4:0.0368615 
-0 0 0 19102.53207593869 32768 0 0 1:-0.1867 2:-0.336055 3:-0.657809 4:-0.169717 
-0 32768 0 0 0 0 0 1:-0.160237 2:-0.539634 3:-0.656621 4:-0.115836 
-0 0 11172.79206456852 0 0 0 0 1:-0.0766718 2:-0.479898 3:-0.586177 4:-0.0317851 
-0 32768 0 0 0 0 0 1:0.193896 2:-0.0161822 3:-0.258951 4:0.193384 
-0 32768 0 0 0 0 0 1:-0.350764 2:-0.566114 3:-0.785565 4:-0.320049 
-0 32768 0 0 0 0 0 1:-0.352082 2:-0.566065 3:-0.786352 4:-0.321412 
-0 32768 0 0 0 0 0 1:-0.344163 2:-0.526242 3:-0.779229 4:-0.317 
-0 32768 0 0 0 0 0 1:-0.350257 2:-0.571518 3:-0.785597 4:-0.318908 
-0 32768 0 0 0 0 0 1:-0.355335 2:-0.53868 3:-0.786643 4:-0.327795 
-0 32768 0 0 0 0 0 1:-0.206431 2:-0.551189 3:-0.691033 4:-0.164764 
-0 32768 32768 0 0 0 0 1:-0.152243 2:-0.363192 3:-0.634594 4:-0.128751 
-0 0 0 32768 0 0 0 1:-0.052147 2:-0.288036 3:-0.544482 4:-0.0308694 
-0 32768 14682.71675526501 0 0 0 0 1:-0.0632913 2:-0.203812 3:-0.542914 4:-0.0554042 
-0 32768 0 0 0 0 0 1:0.250038 2:-0.106159 3:-0.214991 4:0.267616 
-0 32768 0 0 0 0 0 1:0.159828 2:-0.135501 3:-0.318807 4:0.174538 
-0 32768 32768 0 32768 0 0 1:-0.10623 2:-0.0857486 3:-0.562605 4:-0.119544 
-0 32768 32768 0 0 0 0 1:-0.345788 2:-0.437645 3:-0.774174 4:-0.328662 
-0 0 32768 0 0 0 0 1:-0.0455537 2:-0.32347 3:-0.54321 4:-0.0185126 
-0 0 32768 0 0 0 0 1:-0.203885 2:-0.313944 3:-0.668304 4:-0.191342 
-0 32768 0 0 0 0 0 1:-0.280634 2:-0.36163 3:-0.726594 4:-0.267765 
-0 0 32768 0 0 0 0 1:-0.199333 2:-0.451471 3:-0.678057 4:-0.168474 
-0 32768 0 0 0 0 0 1:-0.34365 2:-0.492317 3:-0.776714 4:-0.320291 
-18878.27631992036 32768 32768 0 32768 0 0 1:-0.381569 2:-0.499657 3:-0.799424 4:-0.360468 
-0 32768 32768 32768 32768 0 0 1:-0.368434 2:-0.404204 3:-0.785257 4:-0.3572 
-32768 32768 32768 32768 32768 32768 0 1:-0.398367 2:-0.431122 3:-0.80446 4:-0.386397 
-0 32768 0 0 0 0 0 1:-0.333545 2:-0.532742 3:-0.773258 4:-0.304711 
-0 0 32768 0 0 0 0 1:-0.169574 2:-0.326919 3:-0.644009 4:-0.152433 
-0 32768 0 0 0 0 0 1:0.145336 2:-0.110393 3:-0.329406 4:0.154841 
-0 32768 0 0 0 0 0 1:0.133094 2:-0.0955349 3:-0.339391 4:0.139081 
-0 32768 32768 3604.015937195954 0 0 0 1:-0.0131234 2:-0.483007 3:-0.532879 4:0.0375092 
-0 32768 32768 0 15900.1867703419 0 0 1:-0.0489666 2:-0.531834 3:-0.568015 4:0.00422593 
-0 0 32768 0 0 0 0 1:-0.231303 2:-0.486863 3:-0.703574 4:-0.199042 
-0 -0 0 32768 32768 0 0 1:-0.560367 2:-0.505156 3:-0.888868 4:-0.553551 
-0 -0 0 0 11185.05624885792 0 0 1:-0.163301 2:0.395263 3:-0.526142 4:-0.245221 
-0 -0 23259.82735336973 0 0 0 0 1:0.00986627 2:0.0011266 3:-0.444012 4:-0.0100569 
-0 -32768 32768 0 0 0 0 1:-0.16419 2:-0.278185 3:-0.634555 4:-0.153381 
-31261.5954950521 -32768 32768 32768 0 0 0 1:-0.351943 2:-0.593227 3:-0.787829 4:-0.318494 
-0 -32768 0 0 0 0 0 1:-0.363673 2:-0.432461 3:-0.784384 4:-0.349059 
-0 -32768 32768 32768 32768 0 0 1:-0.292885 2:-0.288828 3:-0.727999 4:-0.290818 
-0 -32768 32768 0 0 0 0 1:0.0682133 2:-0.351219 3:-0.443738 4:0.109288 
-0 -32768 11970.27690365019 0 0 0 0 1:0.122592 2:-0.348968 3:-0.390793 4:0.16755 
-0 -32768 0 0 0 0 0 1:0.0250455 2:-0.150087 3:-0.455439 4:0.0315147 
-0 -32768 0 0 0 0 0 1:0.123868 2:-0.265601 3:-0.377466 4:0.156626 
-0 -32768 32768 0 0 0 0 1:0.0836154 2:-0.377968 3:-0.432648 4:0.129208 
-0 -32768 0 0 0 0 0 1:0.0385657 2:-0.218114 3:-0.453213 4:0.057306 
-0 -0 0 32768 0 0 0 1:-0.373603 2:-0.35654 3:-0.784609 4:-0.369089 
-0 -0 0 0 32768 0 0 1:-0.26052 2:0.0744477 3:-0.661574 4:-0.309075 
-15481.62372947701 -0 0 0 32768 0 0 1:-0.431227 2:0.0591751 3:-0.779151 4:-0.486857 
-0 -0 0 32768 32768 0 0 1:-0.611777 2:-0.600134 3:-0.913267 4:-0.600008 
-32768 -0 0 32768 0 0 0 1:-0.566345 2:-0.5788 3:-0.894526 4:-0.552676 
-32768 -0 0 32768 32768 0 0 1:-0.557771 2:-0.531156 3:-0.888925 4:-0.547896 
-32768 -0 0 32768 32768 32768 0 1:-0.696603 2:-0.722398 3:-0.945352 4:-0.682005 
-0 -0 0 0 0 210.7154396045463 0 1:0.0128202 2:0.857715 3:-0.224901 4:-0.14131 
-0 -0 32768 32768 32768 0 0 1:-0.270099 2:-0.0857232 3:-0.690094 4:-0.295434 
-0 -0 0 32768 32768 0 0 1:-0.493629 2:-0.375497 3:-0.851135 4:-0.496378 
-0 -0 0 32768 32768 0 0 1:-0.518272 2:-0.414861 3:-0.865371 4:-0.5182 
-0 -32768 0 0 0 0 0 1:-0.388686 2:-0.495054 3:-0.803179 4:-0.368603 
-0 -0 32768 0 18652.29958551808 0 0 1:-0.049669 2:0.0153456 3:-0.49671 4:-0.0758784 
-0 -0 12775.31118006008 0 0 0 0 1:-0.155954 2:0.131818 3:-0.569447 4:-0.205732 
-32768 -0 32768 32768 0 32768 0 1:-0.515704 2:-0.553649 3:-0.87134 4:-0.500105 
-32768 -0 0 32768 0 32768 0 1:-0.509972 2:-0.587512 3:-0.870225 4:-0.490613 
-32768 -0 32768 32768 0 0 0 1:-0.531899 2:-0.558417 3:-0.878868 4:-0.517245 
-0 -0 0 32768 32768 32768 0 1:-0.512462 2:-0.462112 3:-0.865268 4:-0.506444 
-0 -0 32768 0 0 0 0 1:-0.11117 2:0.064316 3:-0.542882 4:-0.148828 
-0 -32768 0 0 0 0 0 1:0.0520913 2:-0.0338784 3:-0.409654 4:0.0433367 
-0 -0 0 25155.96305716195 32768 4010.416461367751 0 1:-0.242432 2:0.105484 3:-0.643403 4:-0.293978 
-32768 -0 0 32768 32768 32768 0 1:-0.486022 2:-0.358234 3:-0.846262 4:-0.489966 
-32768 -0 0 32768 32768 32768 0 1:-0.504137 2:-0.349445 3:-0.854655 4:-0.510346 
-0 -0 0 0 32768 0 0 1:-0.428097 2:-0.19464 3:-0.802764 4:-0.448739 
-32768 -0 0 32768 32768 32768 0 1:-0.602702 2:-0.455177 3:-0.904019 4:-0.604619 
-0 -0 0 32768 32768 0 0 1:-0.638075 2:-0.597117 3:-0.922822 4:-0.62881 
-0 -0 0 32768 32768 0 0 1:-0.622326 2:-0.540491 3:-0.915096 4:-0.6171 
-0 -0 0 32768 32768 0 0 1:-0.614436 2:-0.521154 3:-0.911387 4:-0.61044 
-0 -0 0 32768 32768 32768 0 1:-0.64735 2:-0.577734 3:-0.925454 4:-0.640454 
-23830.6538193266 -0 0 32768 32768 32768 27010.80256743246 1:-0.690531 2:-0.5967 3:-0.940375 4:-0.685658 
-2413.555670349847 -0 0 32768 32768 32768 0 1:-0.680196 2:-0.556916 3:-0.935889 4:-0.678019 
-0 -0 0 32768 32768 32768 0 1:-0.653854 2:-0.546809 3:-0.926657 4:-0.650607 
-0 -0 0 32768 32768 32768 0 1:-0.650826 2:-0.564659 3:-0.926205 4:-0.645673 
-32768 -31573.69563162469 32768 32768 32768 32768 -0 1:-0.501722 2:-0.716686 3:-0.871381 4:-0.470522 
-32768 -0 0 32768 32768 32768 0 1:-0.593029 2:-0.730686 3:-0.910196 4:-0.568697 
-0 -0 0 32768 32768 0 0 1:-0.640173 2:-0.564756 3:-0.92251 4:-0.634027 
-0 -0 0 32768 32768 0 0 1:-0.621055 2:-0.615602 3:-0.917279 4:-0.608602 
-32768 -0 0 32768 0 0 0 1:-0.573739 2:-0.616501 3:-0.898955 4:-0.557263 
-32768 -0 0 32768 0 0 0 1:-0.576399 2:-0.591216 3:-0.899139 4:-0.56242 
-0 -0 0 0 32768 0 0 1:-0.353225 2:-0.202765 3:-0.758711 4:-0.367578 
-0 -0 0 32768 32768 0 0 1:-0.603855 2:-0.515746 3:-0.907056 4:-0.599647 
-0 -0 0 32768 32768 0 0 1:-0.593585 2:-0.601178 3:-0.906322 4:-0.580243 
-0 -0 0 0 32768 0 0 1:-0.342554 2:-0.0913846 3:-0.7402 4:-0.371414 
-0 -0 0 32768 32768 0 0 1:-0.603576 2:-0.5029 3:-0.906437 4:-0.600658 
-0 -0 0 32768 32768 0 0 1:-0.637773 2:-0.546487 3:-0.920956 4:-0.633276 
-0 -0 0 32768 32768 0 0 1:-0.443275 2:-0.349677 3:-0.823456 4:-0.445159 
-0 -0 32768 32768 32768 0 0 1:-0.451827 2:-0.371347 3:-0.829547 4:-0.451597 
-0 -0 0 32768 32768 0 0 1:-0.577497 2:-0.578451 3:-0.899075 4:-0.564883 
-0 -0 0 32768 32768 0 0 1:-0.586925 2:-0.491269 3:-0.899298 4:-0.583846 
-0 -0 0 32768 32768 0 0 1:-0.596373 2:-0.523649 3:-0.904449 4:-0.590686 
-32768 -0 0 32768 32768 32768 0 1:-0.656327 2:-0.635903 3:-0.930379 4:-0.645037 
-0 -0 19315.2313094774 0 0 0 0 1:-0.218881 2:0.141291 3:-0.619314 4:-0.276763 
-0 -0 0 32768 32768 0 0 1:-0.59626 2:-0.516133 3:-0.904117 4:-0.591367 
-32768 -0 0 32768 32768 0 0 1:-0.630031 2:-0.644775 3:-0.921439 4:-0.615886 
-0 -0 0 32768 32768 0 0 1:-0.601835 2:-0.614242 3:-0.909946 4:-0.588091 
-0 -0 0 0 32768 0 0 1:-0.431578 2:-0.380995 3:-0.819298 4:-0.42869 
-32768 -0 0 32768 32768 32768 0 1:-0.539758 2:-0.444922 3:-0.876893 4:-0.537798 
-32768 -0 0 32768 0 0 0 1:-0.587921 2:-0.602256 3:-0.904167 4:-0.573869 
-0 -0 0 32768 32768 0 0 1:-0.601874 2:-0.602249 3:-0.909581 4:-0.589091 
-32768 -0 0 32768 0 0 0 1:-0.550361 2:-0.577983 3:-0.887732 4:-0.535525 
-32768 -0 0 32768 0 0 0 1:-0.569278 2:-0.637336 3:-0.897848 4:-0.550672 
-32768 -0 0 32768 32768 32768 0 1:-0.556213 2:-0.707802 3:-0.894837 4:-0.530469 
-32768 -0 0 32768 32768 32768 0 1:-0.581493 2:-0.69049 3:-0.904506 4:-0.559372 
-32768 -0 0 32768 15343.30940368025 0 0 1:-0.603774 2:-0.650961 3:-0.911962 4:-0.586679 
-32768 -0 0 32768 32768 32768 0 1:-0.640258 2:-0.627611 3:-0.924578 4:-0.62836 
-0 -0 0 32768 32768 32768 0 1:-0.65515 2:-0.598953 3:-0.928843 4:-0.647048 
-32768 -0 0 32768 32768 32768 3955.144734778709 1:-0.680005 2:-0.620833 3:-0.937749 4:-0.671957 
-32768 -0 5451.439387376484 32768 32768 32768 0 1:-0.677541 2:-0.651184 3:-0.937788 4:-0.666684 
-1474.001207018862 -0 0 598.5190363594697 5113.713186714645 4418.403893295777 0 1:-0.399005 2:0.648544 3:-0.672204 4:-0.530028 
-0 -32768 32768 0 0 0 0 1:-0.165426 2:-0.382285 3:-0.646565 4:-0.140326 
-32768 -32768 32768 32768 0 0 0 1:-0.345215 2:-0.37536 3:-0.769067 4:-0.335819 
-32768 -32768 0 32768 32768 32768 0 1:-0.347034 2:-0.386657 3:-0.771059 4:-0.335977 
-0 -0 1028.918934603425 0 865.383823818971 0 0 1:-0.11699 2:0.530664 3:-0.453196 4:-0.22625 
-32768 -0 0 32768 32768 0 0 1:-0.605677 2:-0.625207 3:-0.911855 4:-0.591021 
-32768 -0 0 32768 32768 0 0 1:-0.608015 2:-0.617504 3:-0.912481 4:-0.59426 
-0 -0 0 32768 32768 0 0 1:-0.580013 2:-0.561008 3:-0.899425 4:-0.569246 
-0 -0 0 32768 32768 0 0 1:-0.510208 2:-0.38627 3:-0.859848 4:-0.51295 
-0 -0 0 32768 32768 0 0 1:-0.606573 2:-0.491709 3:-0.907147 4:-0.605016 
-0 -0 0 32768 32768 0 0 1:-0.582738 2:-0.483583 3:-0.897229 4:-0.580145 
-32768 -0 0 32768 32768 32768 0 1:-0.511255 2:-0.306728 3:-0.855288 4:-0.523562 
-32768 -0 0 32768 0 0 0 1:-0.604447 2:-0.649359 3:-0.912167 4:-0.587611 
-0 -0 0 32768 32768 0 0 1:-0.62301 2:-0.585648 3:-0.916954 4:-0.613619 
-0 -11391.5220235048 0 32768 32768 0 0 1:-0.298389 2:-0.136745 3:-0.715863 4:-0.317828 
-7557.80992384561 -0 0 32768 32768 0 0 1:-0.316653 2:-0.118174 3:-0.72609 4:-0.339639 
-0 -0 0 32768 32768 0 0 1:-0.562761 2:-0.53891 3:-0.891292 4:-0.552996 
-32768 -0 0 32768 0 0 0 1:-0.592653 2:-0.611753 3:-0.906353 4:-0.578183 
-32768 -0 0 32768 0 0 0 1:-0.571376 2:-0.631513 3:-0.898571 4:-0.553256 
-0 -32768 32768 21528.16057036421 6765.941275330637 0 0 1:-0.169814 2:-0.265658 3:-0.637469 4:-0.159633 
-32768 -32330.51489821951 0 32768 32768 32768 0 1:-0.341556 2:-0.26885 3:-0.757649 4:-0.344483 
-11910.4702844869 -0 0 32768 32768 0 0 1:-0.494072 2:-0.270349 3:-0.844243 4:-0.509537 
-0 -0 0 32768 32768 32768 0 1:-0.648569 2:-0.566291 3:-0.925502 4:-0.643019 
-32768 -0 0 32768 32768 32768 0 1:-0.651059 2:-0.624896 3:-0.928256 4:-0.640262 
-32768 -0 16791.61704599642 32768 32768 32768 32768 1:-0.681903 2:-0.626062 3:-0.938488 4:-0.673658 
-0 -0 0 32768 32768 0 0 1:-0.556214 2:-0.470805 3:-0.88541 4:-0.553012 
-0 -0 0 32768 32768 32768 0 1:-0.643732 2:-0.584817 3:-0.92445 4:-0.635897 
-0 -0 0 32768 32768 0 0 1:-0.63494 2:-0.599273 3:-0.921695 4:-0.625438 
-0 -0 0 32768 0 0 0 1:-0.582216 2:-0.597593 3:-0.901656 4:-0.568313 
-0 -0 0 32768 32768 0 0 1:-0.607449 2:-0.578898 3:-0.910905 4:-0.597229 
-0 -0 0 32768 32768 32768 0 1:-0.668831 2:-0.560872 3:-0.932231 4:-0.665474 
-32768 -0 0 32768 32768 32768 2539.816860152819 1:-0.624543 2:-0.427947 3:-0.911278 4:-0.631161 
-0 -32768 0 0 0 0 0 1:0.463473 2:0.25246 3:0.142851 4:0.43301 
-0 -32768 32768 0 0 0 0 1:-0.145837 2:-0.496385 3:-0.642247 4:-0.105078 
-0 -32768 32768 32768 0 0 0 1:-0.227395 2:-0.466067 3:-0.699186 4:-0.196503 
-0 -32768 32768 0 32768 10599.46114266291 0 1:-0.203803 2:-0.353485 3:-0.672116 4:-0.185212 
-0 -32768 32768 0 0 0 0 1:-0.21037 2:-0.434153 3:-0.684481 4:-0.182331 
-32768 -0 32768 32768 32768 32768 0 1:-0.457774 2:-0.618453 3:-0.846555 4:-0.431122 
-32768 -0 0 0 0 0 0 1:-0.507014 2:-0.565408 3:-0.867864 4:-0.489724 
-0 -0 0 32768 32768 0 0 1:-0.57571 2:-0.577536 3:-0.898328 4:-0.562987 
-0 -0 0 32768 32768 0 0 1:-0.568658 2:-0.483803 3:-0.891396 4:-0.564857 
-32768 -0 0 32768 32768 32768 0 1:-0.617077 2:-0.461341 3:-0.9099 4:-0.619537 
-0 -0 0 32768 32768 32768 0 1:-0.616954 2:-0.464926 3:-0.910005 4:-0.619108 
-0 -0 0 0 32768 0 0 1:-0.318202 2:-0.207306 3:-0.736678 4:-0.329615 
-0 -0 0 32768 32768 32768 0 1:-0.493499 2:-0.455645 3:-0.855879 4:-0.486701 
-32768 -0 0 32768 0 32768 0 1:-0.527291 2:-0.551973 3:-0.876522 4:-0.512824 
-32768 -0 0 32768 32768 32768 0 1:-0.572662 2:-0.373294 3:-0.887513 4:-0.581188 
-0 -0 0 32768 32768 32768 0 1:-0.655997 2:-0.587045 3:-0.92878 4:-0.648827 
-0 -0 0 32768 32768 32768 0 1:-0.674847 2:-0.58024 3:-0.934882 4:-0.670061 
-32768 -0 0 32768 32768 32768 0 1:-0.67418 2:-0.624087 3:-0.935943 4:-0.665437 
-0 -0 0 32768 32768 0 0 1:-0.634589 2:-0.58835 3:-0.921304 4:-0.625699 
-0 -0 0 32768 32768 32768 0 1:-0.673691 2:-0.572441 3:-0.934264 4:-0.669371 
-32768 -0 0 32768 32768 32768 0 1:-0.669676 2:-0.482884 3:-0.929855 4:-0.67364 
-13876.58084570758 -0 0 32768 32768 0 0 1:-0.436179 2:-0.17943 3:-0.806007 4:-0.458305 
-32768 -0 0 32768 32768 32768 15239.12441856803 1:-0.712603 2:-0.54947 3:-0.945791 4:-0.713776 
-32768 -0 0 19506.04788587535 32768 0 0 1:-0.35579 2:0.145408 3:-0.719921 4:-0.416515 
-8944.338526505435 -32768 32768 32768 32768 0 0 1:-0.258142 2:-0.101602 3:-0.6835 4:-0.280024 
-32768 -25686.99159817106 32768 0 0 0 0 1:-0.428641 2:-0.571312 3:-0.829336 4:-0.404017 
-0 -0 0 32768 32768 0 0 1:-0.475444 2:-0.336417 3:-0.839429 4:-0.481461 
-0 -0 0 32768 32768 0 0 1:-0.473371 2:-0.374821 3:-0.840931 4:-0.474598 
-32768 -0 0 32768 0 0 0 1:-0.552986 2:-0.616851 3:-0.89035 4:-0.5348 
-0 -32768 32768 32768 0 0 0 1:-0.318056 2:-0.31469 3:-0.746886 4:-0.314579 
-0 -0 9580.226890603666 32768 32768 0 0 1:-0.438234 2:-0.212448 3:-0.810007 4:-0.456514 
-0 -0 0 32768 32768 0 0 1:-0.59154 2:-0.58667 3:-0.90501 4:-0.579307 
-0 -0 0 32768 32768 32768 0 1:-0.496645 2:-0.464819 3:-0.857911 4:-0.489103 
-0 -0 0 32768 0 0 0 1:-0.53845 2:-0.550809 3:-0.881389 4:-0.525307 
-32768 -0 0 32768 32768 32768 0 1:-0.671234 2:-0.725238 3:-0.937578 4:-0.654091 
-32768 -802.5298031803405 0 32768 32768 32768 0 1:-0.691226 2:-0.796627 3:-0.945207 4:-0.670997 
-32768 -0 0 32768 32768 32768 11844.63208265041 1:-0.710113 2:-0.749072 3:-0.949904 4:-0.694623 
-32768 -0 0 32768 32768 32343.00488951656 0 1:-0.455339 2:-0.0554009 3:-0.805347 4:-0.493191 
-32768 -0 0 32768 32768 0 0 1:-0.438751 2:-0.086221 3:-0.798821 4:-0.472434 
-32768 -0 0 295.2413733310197 28199.18621880827 0 0 1:-0.311878 2:0.276527 3:-0.669344 4:-0.389443 
-0 -0 0 32768 32768 0 0 1:-0.643701 2:-0.591306 3:-0.92465 4:-0.635357 
-0 -0 0 32768 32768 0 0 1:-0.598674 2:-0.555377 3:-0.906644 4:-0.589975 
-0 -32768 32768 6056.617110975139 28874.65942974684 11137.75342817603 0 1:-0.153813 2:-0.389627 3:-0.638477 4:-0.125941 
-16884.0070697161 -32768 32768 32768 0 0 0 1:-0.292847 2:-0.478475 3:-0.744076 4:-0.266252 
-0 -32768 0 0 0 0 0 1:0.150433 2:-0.210001 3:-0.341465 4:0.177115 
-0 -32768 0 0 0 0 0 1:0.380945 2:-0.294005 3:-0.0979002 4:0.439449 
-0 -0 0 0 32768 0 0 1:-0.431213 2:-0.363384 3:-0.817839 4:-0.430666 
-0 -0 0 32768 32768 0 0 1:-0.483887 2:-0.333694 3:-0.843553 4:-0.490966 
-0 -0 0 0 32768 0 0 1:-0.457627 2:-0.388092 3:-0.833715 4:-0.455954 
-0 -0 0 0 32768 0 0 1:-0.442661 2:-0.284596 3:-0.81828 4:-0.452771 
-0 -0 0 32768 32768 0 0 1:-0.572566 2:-0.578639 3:-0.897077 4:-0.559493 
-0 -0 0 32768 32768 0 0 1:-0.426267 2:-0.355018 3:-0.814618 4:-0.426074 
-32768 -0 32768 32768 32768 32768 0 1:-0.473961 2:-0.412517 3:-0.843601 4:-0.470221 
-32768 -0 0 32768 32768 0 0 1:-0.467715 2:-0.237378 3:-0.828104 4:-0.484874 
-32768 -0 0 32768 32768 0 0 1:-0.603556 2:-0.610613 3:-0.910535 4:-0.590105 
-32768 -0 0 32768 0 0 0 1:-0.581143 2:-0.614059 3:-0.901894 4:-0.565464 
-0 -0 0 32768 32768 0 0 1:-0.601916 2:-0.572075 3:-0.90854 4:-0.591875 
-0 -0 0 32768 32768 32768 0 1:-0.650788 2:-0.576834 3:-0.926652 4:-0.644183 
-32768 -0 0 32768 32768 0 0 1:-0.582993 2:-0.583409 3:-0.901498 4:-0.570271 
-13708.19661980153 -32768 32768 32768 0 32768 0 1:-0.213287 2:-0.430508 3:-0.686245 4:-0.184693 
-0 -32768 0 0 0 0 0 1:0.165262 2:-0.0721337 3:-0.301147 4:0.170443 
-0 -32768 32768 0 0 0 0 1:-0.247195 2:-0.449238 3:-0.711474 4:-0.220398 
-0 -32768 32768 0 0 0 0 1:-0.168553 2:-0.514677 3:-0.660823 4:-0.127381 
-0 -32768 32768 0 0 0 0 1:-0.0877902 2:-0.421681 3:-0.589543 4:-0.0503984 
-0 -0 0 32768 32768 0 0 1:-0.518675 2:-0.371697 3:-0.86293 4:-0.52391 
-22506.00815779151 -0 0 32768 32768 32768 0 1:-0.516048 2:-0.406263 3:-0.863839 4:-0.516783 
-0 -0 0 32768 32768 0 0 1:-0.545775 2:-0.542593 3:-0.884217 4:-0.534149 
-0 -0 0 32768 32768 0 0 1:-0.579786 2:-0.52023 3:-0.897615 4:-0.573196 
-0 -0 0 32768 32768 0 0 1:-0.615542 2:-0.558141 3:-0.913223 4:-0.608011 
-32768 -0 32768 0 0 0 0 1:-0.479994 2:-0.528695 3:-0.853201 4:-0.46407 
-0 -0 0 32768 32768 0 0 1:-0.587947 2:-0.561812 3:-0.902635 4:-0.577648 
-32768 -0 0 32768 32768 32768 0 1:-0.643967 2:-0.659879 3:-0.926756 4:-0.629788 
-0 -0 0 32768 32768 32768 0 1:-0.652131 2:-0.639666 3:-0.928929 4:-0.640575 
-32768 -0 0 32768 0 0 0 1:-0.575626 2:-0.624466 3:-0.900044 4:-0.558532 
-0 -0 0 32768 32768 0 0 1:-0.627741 2:-0.578536 3:-0.918467 4:-0.619305 
-0 -0 0 32768 32768 0 0 1:-0.625705 2:-0.550699 3:-0.916714 4:-0.619663 
-0 -0 0 32768 32768 0 0 1:-0.604861 2:-0.547903 3:-0.908761 4:-0.597413 
-32768 -0 0 32768 0 0 0 1:-0.585995 2:-0.60172 3:-0.903384 4:-0.571814 
-32768 -0 0 32768 32768 17495.22915159739 0 1:-0.620721 2:-0.658221 3:-0.9185 4:-0.60452 
-0 -0 0 32768 32768 32768 0 1:-0.677303 2:-0.603515 3:-0.936378 4:-0.670549 
-32768 -0 0 32768 32768 32768 32768 1:-0.707564 2:-0.65498 3:-0.947131 4:-0.698961 
-32768 -0 0 32768 32768 32768 0 1:-0.637232 2:-0.685292 3:-0.925184 4:-0.620112 
-0 -0 0 593.5064644966697 0 10568.42980377028 0 1:-0.19485 2:0.259884 3:-0.57961 4:-0.263026 
-0 -32768 32768 0 0 0 0 1:-0.208504 2:-0.421273 3:-0.682011 4:-0.181959 
-32768 -32768 32768 32768 32768 0 0 1:-0.394439 2:-0.581265 3:-0.811387 4:-0.365658 
-32768 -32768 0 28097.57249225677 32768 0 0 1:-0.397548 2:-0.565933 3:-0.812287 4:-0.370633 
-0 -0 0 32768 32768 0 0 1:-0.522784 2:-0.523357 3:-0.873155 4:-0.510985 
-0 -0 0 32768 32768 0 0 1:-0.605571 2:-0.551137 3:-0.909151 4:-0.597895 
-0 -0 0 32768 32768 0 0 1:-0.584199 2:-0.583343 3:-0.901981 4:-0.571635 
-0 -0 0 32768 32768 0 0 1:-0.607306 2:-0.553006 3:-0.909886 4:-0.599627 
-0 -0 0 32768 32768 0 0 1:-0.573745 2:-0.547067 3:-0.896285 4:-0.563881 
-0 -0 0 32768 32768 0 0 1:-0.610068 2:-0.608743 3:-0.91291 4:-0.597448 
-0 -0 0 32768 32768 32768 0 1:-0.650182 2:-0.584112 3:-0.926658 4:-0.642987 
-0 -0 0 32768 32768 32768 0 1:-0.674073 2:-0.616439 3:-0.935665 4:-0.666057 
-0 -0 0 32768 32768 32768 0 1:-0.658624 2:-0.608634 3:-0.930339 4:-0.649908 
-0 -0 0 32768 32768 0 0 1:-0.619251 2:-0.568549 3:-0.91499 4:-0.610985 
-0 -0 0 32768 32768 32768 0 1:-0.635004 2:-0.51855 3:-0.918965 4:-0.632665 
-0 -0 0 32768 32768 32768 0 1:-0.656957 2:-0.567169 3:-0.92845 4:-0.651976 
-32768 -0 0 32768 32768 32768 0 1:-0.647574 2:-0.630175 3:-0.927214 4:-0.63605 
-0 -0 0 32768 32768 0 0 1:-0.639871 2:-0.609874 3:-0.923864 4:-0.629597 
-32768 -0 0 32768 32768 32768 0 1:-0.658298 2:-0.66893 3:-0.931944 4:-0.644396 
-32768 -0 0 32768 32768 32768 0 1:-0.590398 2:-0.741421 3:-0.909465 4:-0.565044 
-0 -0 0 32768 32768 0 0 1:-0.377084 2:-0.305753 3:-0.782588 4:-0.379128 
-22864.86586697071 -0 19024.83706600924 0 0 0 0 1:0.0623979 2:0.0953529 3:-0.374236 4:0.0316821 
-0 -32768 32768 0 0 0 0 1:-0.323871 2:-0.434089 3:-0.760436 4:-0.305642 
-0 -32768 32768 0 0 0 0 1:-0.25953 2:-0.51696 3:-0.725044 4:-0.225941 
-0 -32768 32768 0 0 0 0 1:-0.19421 2:-0.528341 3:-0.68062 4:-0.153777 
-29611.93015612344 -0 0 32768 32768 0 0 1:-0.397494 2:-0.202559 3:-0.785669 4:-0.414056 
-0 -0 0 0 32768 0 0 1:-0.41242 2:-0.158434 3:-0.790299 4:-0.436242 
-0 -0 0 32768 0 0 0 1:-0.570671 2:-0.580906 3:-0.896363 4:-0.557309 
-0 -0 0 32768 32768 0 0 1:-0.590165 2:-0.526815 3:-0.902129 4:-0.583611 
-0 -0 0 32768 32768 0 0 1:-0.627112 2:-0.568186 3:-0.917862 4:-0.619566 
-32768 -0 0 32768 32768 32768 426.4338590799487 1:-0.5009 2:-0.189767 3:-0.841671 4:-0.526513 
-0 -0 0 32768 32768 32768 0 1:-0.642693 2:-0.618196 3:-0.925152 4:-0.631832 
-0 -0 0 32768 32768 32768 0 1:-0.661994 2:-0.617554 3:-0.931732 4:-0.652883 
-32768 -0 32768 32768 0 0 0 1:-0.525252 2:-0.540864 3:-0.875091 4:-0.511872 
-0 -0 0 32768 32768 0 0 1:-0.552913 2:-0.500833 3:-0.885463 4:-0.54602 
-0 -0 0 32768 32768 10569.88661680425 0 1:-0.615329 2:-0.47415 3:-0.909775 4:-0.616333 
-0 -0 0 32768 32768 0 0 1:-0.594759 2:-0.48066 3:-0.901988 4:-0.593506 
-0 -0 0 32768 32768 0 0 1:-0.582184 2:-0.579435 3:-0.90101 4:-0.569836 
-0 -0 0 32768 32768 0 0 1:-0.612493 2:-0.590122 3:-0.913235 4:-0.601626 
-0 -0 0 32768 32768 0 0 1:-0.595926 2:-0.579873 3:-0.906463 4:-0.584766 
-32768 -32768 0 32768 32768 32768 0 1:-0.34633 2:-0.463407 3:-0.776333 4:-0.324821 
-0 -91.07136139532327 0 0 0 0 0 1:0.391462 2:0.836458 3:0.261465 4:0.243173 
-0 -32768 32768 0 0 0 0 1:-0.228687 2:-0.443968 3:-0.698265 4:-0.20122 
-0 -32768 32768 0 0 0 0 1:-0.191134 2:-0.574892 3:-0.681836 4:-0.145663 
-0 -32768 0 0 0 0 0 1:-0.269578 2:-0.575771 3:-0.735691 4:-0.230725 
-0 -32768 32768 0 0 0 0 1:-0.220058 2:-0.410407 3:-0.68925 4:-0.19613 
-32768 -0 0 32768 0 0 0 1:-0.555758 2:-0.642431 3:-0.892408 4:-0.53562 
-32768 -0 0 32768 0 0 0 1:-0.566164 2:-0.624465 3:-0.896144 4:-0.548372 
-0 -0 0 32768 32768 0 0 1:-0.554678 2:-0.465744 3:-0.884508 4:-0.551726 
-0 -0 0 32768 32768 0 0 1:-0.624446 2:-0.561754 3:-0.916677 4:-0.617286 
-0 -0 0 32768 32768 0 0 1:-0.634101 2:-0.611786 3:-0.921893 4:-0.623096 
-32768 -0 0 32768 0 0 0 1:-0.595052 2:-0.613864 3:-0.90738 4:-0.580519 
-32768 -0 0 32768 32768 0 0 1:-0.62065 2:-0.651484 3:-0.918272 4:-0.604982 
-0 -0 0 32768 32768 0 0 1:-0.640706 2:-0.580852 3:-0.923194 4:-0.633206 
-0 -0 0 32768 32768 32768 0 1:-0.653102 2:-0.620316 3:-0.928778 4:-0.643028 
-0 -0 0 32768 32768 32768 0 1:-0.663198 2:-0.636717 3:-0.932597 4:-0.652739 
-0 -0 0 32768 32768 32768 0 1:-0.658111 2:-0.620307 3:-0.930442 4:-0.648541 
-32768 -0 0 32768 32768 32768 0 1:-0.658015 2:-0.648537 3:-0.931305 4:-0.645822 
-32768 -0 0 32768 32768 32768 10693.63128753308 1:-0.688795 2:-0.695877 3:-0.942422 4:-0.675395 
-4721.489271236538 -0 0 32768 32768 32768 0 1:-0.651812 2:-0.633128 3:-0.92874 4:-0.640466 
-32768 -0 0 0 0 0 0 1:-0.422125 2:-0.510572 3:-0.822535 4:-0.403034 
-32768 -0 0 32768 32768 0 0 1:-0.597314 2:-0.492464 3:-0.90353 4:-0.594637 
-0 -0 10493.98801623176 32768 23524.5286997666 3107.594343506298 0 1:-0.16559 2:0.0530036 3:-0.590499 4:-0.202642 
-0 -32768 0 31891.22841376307 4174.888242380575 0 0 1:-0.0961517 2:-0.00501294 3:-0.541327 4:-0.119483 
-32768 -0 0 32768 0 22311.48555531506 0 1:-0.378075 2:-0.391346 3:-0.789973 4:-0.36909 
-0 -0 0 32768 32768 0 0 1:-0.58327 2:-0.537922 3:-0.899798 4:-0.57502 
-0 -0 0 32768 32768 0 0 1:-0.574125 2:-0.56381 3:-0.897114 4:-0.562669 
-0 -0 0 32768 32768 0 0 1:-0.568454 2:-0.551088 3:-0.89427 4:-0.557735 
-32768 -0 0 32768 0 0 0 1:-0.577539 2:-0.596388 3:-0.899774 4:-0.563218 
-0 -0 0 32768 32768 0 0 1:-0.58973 2:-0.487649 3:-0.900276 4:-0.587254 
-0 -0 0 32768 32768 0 0 1:-0.591524 2:-0.541521 3:-0.903275 4:-0.583645 
-0 -0 0 32768 32768 0 0 1:-0.59979 2:-0.558258 3:-0.907181 4:-0.590973 
-0 -32768 0 0 0 0 0 1:-0.385335 2:-0.501645 3:-0.801657 4:-0.364544 
-0 -0 0 32768 32768 0 0 1:-0.552198 2:-0.533937 3:-0.886663 4:-0.541806 
-0 -0 0 0 32768 0 0 1:-0.477818 2:-0.452959 3:-0.848013 4:-0.470127 
-0 -0 0 0 32768 0 0 1:-0.471758 2:-0.435082 3:-0.843927 4:-0.465654 
-0 -0 0 32768 32768 32768 0 1:-0.502771 2:-0.44902 3:-0.859974 4:-0.497501 
-0 -0 0 32768 32768 0 0 1:-0.512051 2:-0.417866 3:-0.862618 4:-0.511198 
-0 -0 0 32768 32768 0 0 1:-0.498033 2:-0.408679 3:-0.855349 4:-0.497057 
-0 -32768 32768 32768 382.8264440156295 0 0 1:-0.263568 2:-0.425944 3:-0.720689 4:-0.240886 
-0 -32768 32768 0 0 0 0 1:-0.027762 2:-0.369315 3:-0.5333 4:0.00708998 
-0 -32768 28147.23256388875 0 0 0 0 1:0.120929 2:-0.045638 3:-0.342442 4:0.117471 
-0 -0 32768 0 0 0 0 1:0.0677031 2:0.0340778 3:-0.381227 4:0.0464379 
-0 -32768 32768 0 0 0 0 1:-0.213462 2:-0.253464 3:-0.668847 4:-0.21011 
-0 -32768 32768 0 0 0 0 1:-0.298991 2:-0.47573 3:-0.747815 4:-0.27373 
-0 -0 0 0 0 1194.010017026961 0 1:0.0905424 2:0.517789 3:-0.239781 4:-0.0220823 
-6532.072467773844 -0 0 638.3093724400327 0 0 0 1:0.0278477 2:0.178388 3:-0.391471 4:-0.0179801 
-9737.535838605994 -0 0 32768 32768 0 0 1:-0.26735 2:0.113946 3:-0.661032 4:-0.320709 
-0 -0 0 32768 32768 0 0 1:-0.556691 2:-0.500031 3:-0.887032 4:-0.550305 
-0 -0 0 32768 32768 0 0 1:-0.519539 2:-0.498663 3:-0.870464 4:-0.510128 
-32768 -0 0 32768 0 32768 0 1:-0.515753 2:-0.612649 3:-0.873928 4:-0.494551 
-0 -32768 0 0 0 0 0 1:-0.401953 2:-0.528491 3:-0.812587 4:-0.37953 
-0 -0 0 0 32768 0 0 1:-0.509662 2:-0.50319 3:-0.866106 4:-0.499027 
-0 -0 0 32768 32768 0 0 1:-0.532167 2:-0.494713 3:-0.876005 4:-0.524333 
-0 -0 0 32768 0 0 0 1:-0.534426 2:-0.545638 3:-0.879411 4:-0.52134 
-32768 -0 0 32768 0 0 0 1:-0.540446 2:-0.627648 3:-0.885434 4:-0.520085 
-32768 -0 0 32768 0 32768 0 1:-0.516105 2:-0.632738 3:-0.874891 4:-0.493076 
-0 -32768 0 0 32768 0 0 1:-0.37631 2:-0.561133 3:-0.800066 4:-0.348323 
-0 -0 0 32768 32768 0 0 1:-0.522335 2:-0.460688 3:-0.869737 4:-0.517547 
-32768 -0 0 0 0 0 0 1:-0.51345 2:-0.572526 3:-0.871137 4:-0.49603 
-0 -32768 32768 0 0 0 0 1:-0.32777 2:-0.491766 3:-0.767019 4:-0.303142 
-0 -32768 0 0 0 0 0 1:-0.340618 2:-0.520457 3:-0.776698 4:-0.313923 
-0 -32768 32768 0 32768 0 0 1:-0.105607 2:-0.354507 3:-0.596888 4:-0.0780112 
-0 -32768 32768 0 0 0 0 1:0.0751126 2:-0.521364 3:-0.457124 4:0.137939 
-0 -32768 0 0 0 0 0 1:0.167105 2:-0.0907509 3:-0.302562 4:0.175105 
-0 -32768 0 0 0 0 0 1:0.173453 2:0.0138141 3:-0.274608 4:0.16416 
-0 -32768 32768 0 0 0 0 1:-0.0404907 2:-0.268623 3:-0.531866 4:-0.0209641 
-0 -32768 32768 0 0 0 0 1:-0.158737 2:-0.433487 3:-0.646377 4:-0.12672 
-0 -32768 32768 0 0 0 0 1:-0.195514 2:-0.516136 3:-0.680609 4:-0.156674 
-32768 -0 7977.181492116617 0 0 0 0 1:-0.468322 2:-0.586177 3:-0.850248 4:-0.445792 
-32768 -0 0 0 0 0 0 1:-0.452786 2:-0.529362 3:-0.839662 4:-0.43452 
-32768 -0 0 0 0 0 0 1:-0.495486 2:-0.554687 3:-0.861969 4:-0.47827 
-32768 -0 32768 32768 0 0 0 1:-0.516428 2:-0.585714 3:-0.873102 4:-0.497904 
-32768 -0 0 32768 0 32768 0 1:-0.522958 2:-0.61258 3:-0.877145 4:-0.502465 
-32768 -0 0 0 0 0 0 1:-0.461044 2:-0.547619 3:-0.844798 4:-0.441661 
-0 -0 32768 0 0 0 0 1:-0.489128 2:-0.520789 3:-0.85726 4:-0.474878 
-32768 -0 0 0 0 0 0 1:-0.512899 2:-0.56593 3:-0.870607 4:-0.496048 
-32768 -0 0 32768 0 0 0 1:-0.536624 2:-0.555873 3:-0.880845 4:-0.522709 
-0 -0 0 26767.06265571432 32768 0 0 1:-0.509375 2:-0.48307 3:-0.86494 4:-0.500861 
-32768 -0 0 32768 32768 32768 0 1:-0.531475 2:-0.461551 3:-0.874013 4:-0.52699 
-0 -0 32768 32768 32768 0 0 1:-0.521219 2:-0.495716 3:-0.871089 4:-0.512283 
-0 -32768 32768 0 0 0 0 1:-0.233635 2:-0.495126 3:-0.705843 4:-0.200365 
-0 -32768 32768 0 0 0 0 1:-0.221916 2:-0.520607 3:-0.699646 4:-0.184639 
-1386.127657804331 -32768 32768 32768 32768 16314.76206018471 0 1:-0.303411 2:-0.309226 3:-0.736895 4:-0.299195 
-0 -32768 32768 0 0 0 0 1:-0.19529 2:-0.251787 3:-0.65517 4:-0.189745 
-0 -32768 32768 0 0 0 0 1:-0.0681636 2:-0.3665 3:-0.567424 4:-0.0366891 
-0 -32768 32768 32768 0 0 0 1:-0.136194 2:-0.432186 3:-0.629054 4:-0.101901 
-0 -32768 32768 0 0 0 0 1:-0.33552 2:-0.491775 3:-0.771754 4:-0.311397 
-0 -32768 32768 0 0 0 0 1:-0.266502 2:-0.488275 3:-0.72758 4:-0.23703 
-32768 -0 0 0 0 0 0 1:-0.451227 2:-0.551564 3:-0.840033 4:-0.430574 
-32768 -0 32.06107374491439 32768 32768 32768 0 1:-0.500551 2:-0.650116 3:-0.868459 4:-0.474721 
-32768 -0 0 32768 0 0 0 1:-0.53371 2:-0.610201 3:-0.88184 4:-0.514287 
-32768 -0 32768 0 0 0 0 1:-0.433096 2:-0.57287 3:-0.831762 4:-0.408713 
-32768 -0 0 0 0 0 0 1:-0.452369 2:-0.545179 3:-0.840271 4:-0.432432 
-0 -0 32768 27942.68961257116 0 0 0 1:-0.518628 2:-0.526784 3:-0.871415 4:-0.506175 
-0 -0 0 0 32768 0 0 1:-0.487578 2:-0.439342 3:-0.852011 4:-0.482367 
-0 -32768 29398.30043755428 0 0 0 0 1:-0.330042 2:-0.469035 3:-0.766803 4:-0.308225 
-0 -32768 32768 0 0 0 0 1:-0.301412 2:-0.535203 3:-0.753521 4:-0.269641 
-0 -32768 0 0 0 0 0 1:-0.376027 2:-0.495118 3:-0.795948 4:-0.355068 
-0 -32768 32768 0 0 0 0 1:-0.153678 2:-0.274738 3:-0.626027 4:-0.141849 
-0 -32768 32768 0 25280.89346504585 0 0 1:-0.0942382 2:-0.303954 3:-0.581802 4:-0.0737069 
-0 -32768 32768 0 32768 0 0 1:-0.247877 2:-0.355911 3:-0.703812 4:-0.233283 
-0 -0 0 0 32768 0 0 1:-0.368381 2:-0.267446 3:-0.774054 4:-0.375225 
-0 -0 32768 0 32768 32768 0 1:-0.48874 2:-0.468898 3:-0.854303 4:-0.480016 
-0 -32768 0 0 32768 0 0 1:-0.398507 2:-0.552144 3:-0.812054 4:-0.373283 
-0 -32768 32768 0 0 0 0 1:-0.146575 2:-0.0689811 3:-0.593591 4:-0.16601 
-0 -0 0 0 32768 0 0 1:-0.49611 2:-0.4807 3:-0.85851 4:-0.486841 
-0 -0 0 0 32768 0 0 1:-0.489445 2:-0.463392 3:-0.854316 4:-0.481508 
-0 -0 0 32768 0 0 0 1:-0.528117 2:-0.549974 3:-0.8768 4:-0.51413 
-0 -32768 32768 0 0 0 0 1:-0.279858 2:-0.495505 3:-0.736905 4:-0.250684 
-0 -32768 32768 0 0 0 0 1:-0.307644 2:-0.466818 3:-0.752667 4:-0.284077 
-535.6997254822544 -0 1183.893683004207 0 0 0 0 1:-0.0570222 2:0.77732 3:-0.327476 4:-0.206957 
-0 -32768 0 0 0 0 0 1:0.299088 2:-0.0866269 3:-0.153938 4:0.315984 
-0 -32768 28192.65037481994 0 0 0 0 1:0.0399648 2:-0.21287 3:-0.451117 4:0.0575595 
-0 -32768 32768 0 0 0 0 1:0.000678177 2:-0.187831 3:-0.483863 4:0.0114323 
-0 -32768 0 0 0 0 0 1:0.335863 2:0.133061 3:-0.0579188 4:0.316843 
-0 -0 0 0 32768 0 0 1:-0.468749 2:-0.440518 3:-0.842724 4:-0.461762 
-0 -0 0 0 32768 0 0 1:-0.4582 2:-0.399553 3:-0.834762 4:-0.455161 
-0 -32768 0 0 0 0 0 1:-0.3572 2:-0.545234 3:-0.788137 4:-0.329162 
-0 -32768 0 0 0 0 0 1:-0.34564 2:-0.427948 3:-0.773372 4:-0.330005 
-32768 -0 32768 32768 32768 32768 12.64545003206195 1:-0.489223 2:-0.636366 3:-0.862613 4:-0.463611 
-32768 -0 32768 32768 0 32768 0 1:-0.51989 2:-0.575766 3:-0.874239 4:-0.50247 
-0 -0 0 0 32768 0 0 1:-0.392934 2:-0.300629 3:-0.791529 4:-0.39738 
-0 -32768 32768 0 0 0 0 1:-0.219922 2:-0.316849 3:-0.680255 4:-0.208354 
-0 -32768 32768 0 0 0 0 1:-0.141197 2:-0.447197 3:-0.634314 4:-0.105996 
-0 -32768 32768 0 0 0 0 1:-0.0391698 2:-0.250926 3:-0.528395 4:-0.0223795 
-0 -32768 0 0 0 0 0 1:0.0733504 2:-0.268788 3:-0.42758 4:0.102771 
-0 -32768 32768 0 0 0 0 1:-0.148694 2:-0.326469 3:-0.627959 4:-0.129503 
-0 -32768 32768 0 0 0 0 1:-0.292607 2:-0.487285 3:-0.744577 4:-0.265274 
-0 -0 0 0 32768 0 0 1:-0.448235 2:-0.345229 3:-0.825664 4:-0.451251 
-0 -32768 0 0 0 0 0 1:-0.363918 2:-0.499737 3:-0.789189 4:-0.341469 
-32768 -0 32768 32768 32768 0 0 1:-0.457152 2:-0.614957 3:-0.846084 4:-0.430779 
-32768 -0 32768 0 0 0 0 1:-0.481483 2:-0.590048 3:-0.85691 4:-0.459582 
-0 -0 0 32768 32768 0 0 1:-0.511646 2:-0.422538 3:-0.862701 4:-0.510194 
-0 -0 0 32768 32768 0 0 1:-0.537312 2:-0.493602 3:-0.878266 4:-0.529953 
-0 -0 0 32768 32768 0 0 1:-0.495957 2:-0.429358 3:-0.855559 4:-0.492511 
-0 -0 0 32768 32768 0 0 1:-0.526599 2:-0.425342 3:-0.869828 4:-0.526052 
-0 -0 0 32768 32768 0 0 1:-0.502542 2:-0.341889 3:-0.853385 4:-0.510031 
-0 -0 32768 32768 32768 0 0 1:-0.344288 2:-0.320744 3:-0.763965 4:-0.342017 
-0 -32768 32768 0 0 0 0 1:-0.19696 2:-0.477507 3:-0.678547 4:-0.16281 
-0 -32768 32768 0 0 0 0 1:-0.04151 2:-0.329831 3:-0.540419 4:-0.0135214 
-0 -32768 32768 0 0 0 0 1:-0.0202486 2:-0.271963 3:-0.514539 4:0.00150626 
-0 -32768 32768 0 0 0 0 1:-0.239894 2:-0.361427 3:-0.698774 4:-0.223666 
-0 -0 0 0 32768 0 0 1:-0.330987 2:0.046306 3:-0.715896 4:-0.381274 
-0 -32768 32768 0 0 0 0 1:-0.0260478 2:-0.143906 3:-0.501471 4:-0.0237298 
-0 -32768 0 0 0 0 0 1:-0.364967 2:-0.484541 3:-0.788829 4:-0.344312 
-0 -0 0 32768 32768 0 0 1:-0.495306 2:-0.372601 3:-0.85176 4:-0.498478 
-0 -0 0 0 32768 0 0 1:-0.433969 2:-0.331535 3:-0.817085 4:-0.437626 
-0 -0 0 0 32768 0 0 1:-0.437139 2:-0.326101 3:-0.818453 4:-0.441567 
-32768 -0 5332.512876245724 32768 32768 32768 0 1:-0.495509 2:-0.485668 3:-0.858496 4:-0.485345 
-0 -32768 0 0 0 0 0 1:-0.337853 2:-0.521081 3:-0.775061 4:-0.310896 
-0 -0 0 32768 32768 0 0 1:-0.526075 2:-0.479584 3:-0.87249 4:-0.519324 
-0 -0 0 32768 32768 0 0 1:-0.541438 2:-0.446201 3:-0.877713 4:-0.539646 
-0 -0 0 32768 32768 0 0 1:-0.519024 2:-0.479105 3:-0.869213 4:-0.511725 
-0 -32768 0 0 0 0 0 1:-0.383147 2:-0.517904 3:-0.801444 4:-0.36031 
-0 -32768 0 0 0 0 0 1:-0.390788 2:-0.551772 3:-0.807742 4:-0.364984 
-0 -32768 32768 0 0 0 0 1:-0.184158 2:-0.190054 3:-0.639479 4:-0.187632 
-0 -32768 32768 0 32768 0 0 1:-0.0342607 2:-0.145521 3:-0.50909 4:-0.033305 
-0 -32768 32768 0 0 0 0 1:-0.13237 2:-0.338859 3:-0.616526 4:-0.110478 
-0 -32768 32768 0 0 0 0 1:-0.269569 2:-0.547093 3:-0.73378 4:-0.233821 
-0 -0 0 0 32768 0 0 1:-0.362977 2:-0.207212 3:-0.764872 4:-0.377938 
-16567.22198023808 -0 0 0 0 0 0 1:0.0950637 2:0.103495 3:-0.338927 4:0.0650029 
-32768 -0 0 32768 0 5485.479519669089 0 1:-0.547801 2:-0.631499 3:-0.888751 4:-0.527689 
-0 -32768 32768 0 32768 0 0 1:-0.311634 2:-0.241168 3:-0.735761 4:-0.318028 
-0 -0 7672.500741222145 0 0 0 0 1:-0.343848 2:-0.315838 3:-0.763274 4:-0.342405 
-0 -32768 0 0 0 0 0 1:-0.407886 2:-0.536118 3:-0.81627 4:-0.385199 
-0 -0 0 0 32768 0 0 1:-0.492363 2:-0.438951 3:-0.854311 4:-0.487583 
-0 -0 0 0 32768 0 0 1:-0.437452 2:-0.284818 3:-0.815481 4:-0.447338 
-0 -32768 0 0 0 0 0 1:-0.300154 2:-0.5588 3:-0.754253 4:-0.26584 
-0 -32768 32768 0 0 0 0 1:-0.175673 2:-0.441278 3:-0.659819 4:-0.144141 
-0 -32768 32768 0 0 0 0 1:0.011693 2:-0.272981 3:-0.485891 4:0.0361862 
-0 -32768 32768 0 0 0 0 1:0.0710219 2:-0.304164 3:-0.434858 4:0.105181 
-0 -32768 32768 0 0 0 0 1:-0.0769447 2:-0.46075 3:-0.584566 4:-0.0344102 
-0 -32768 32768 0 0 4687.578837603597 0 1:-0.21168 2:-0.561046 3:-0.695439 4:-0.169454 
-0 -0 0 0 32768 0 0 1:-0.466793 2:-0.433956 3:-0.841338 4:-0.460446 
-0 -0 0 32768 32768 0 0 1:-0.474797 2:-0.388124 3:-0.842502 4:-0.474517 
-0 -0 0 32768 32768 0 0 1:-0.510207 2:-0.395476 3:-0.860389 4:-0.511926 
-0 -0 32768 0 32768 0 0 1:-0.42675 2:-0.245037 3:-0.806252 4:-0.441256 
-0 -32768 32768 0 0 0 0 1:-0.245972 2:-0.261185 3:-0.693078 4:-0.244265 
-0 -32768 32768 0 0 0 0 1:-0.182885 2:-0.325829 3:-0.65393 4:-0.167116 
-0 -32768 32768 0 0 0 0 1:-0.0604321 2:-0.216785 3:-0.542033 4:-0.0501892 
-0 -32768 32768 0 0 0 0 1:-0.0314917 2:-0.30774 3:-0.529087 4:-0.00563235 
-0 -32768 32768 0 0 0 0 1:-0.291779 2:-0.469112 3:-0.742703 4:-0.266648 
-0 -32768 0 0 32768 0 0 1:-0.36846 2:-0.555369 3:-0.795282 4:-0.340273 
-2801.265893654824 -0 0 0 0 0 0 1:0.0546842 2:0.214842 3:-0.356165 4:0.00364104 
-0 -0 0 0 32768 0 0 1:-0.441867 2:-0.365746 3:-0.823681 4:-0.441784 
-0 -0 0 0 32768 0 0 1:-0.470819 2:-0.446783 3:-0.844041 4:-0.463512 
-0 -32768 32768 0 0 0 0 1:-0.278574 2:-0.429205 3:-0.730974 4:-0.257088 
-0 -32768 32768 32768 1373.89715464572 0 0 1:-0.280411 2:-0.331865 3:-0.723764 4:-0.271506 
-0 -0 32768 0 0 0 0 1:-0.125833 2:0.157933 3:-0.539155 4:-0.179123 
-0 -32768 32768 0 0 0 0 1:0.0963338 2:-0.349205 3:-0.416183 4:0.138296 
-0 -32768 32768 0 0 0 0 1:-0.142192 2:-0.370765 3:-0.627598 4:-0.116315 
-0 -0 32768 0 0 0 0 1:-0.0702178 2:0.19231 3:-0.482819 4:-0.129229 
-0 -32768 32768 0 0 0 0 1:-0.32878 2:-0.36564 3:-0.758081 4:-0.319614 
-0 -0 0 32768 0 0 0 1:-0.401392 2:-0.351765 3:-0.800441 4:-0.399645 
-0 -0 0 0 32768 0 0 1:-0.442402 2:-0.401474 3:-0.826574 4:-0.437778 
-32768 -0 0 32768 32768 0 0 1:-0.441213 2:-0.337738 3:-0.821519 4:-0.444128 
-0 -0 0 32768 32768 0 0 1:-0.423473 2:-0.349632 3:-0.812662 4:-0.423707 
-0 -0 0 517.3723218943655 0 0 0 1:0.0507647 2:0.276458 3:-0.346024 4:-0.00849792 
-0 -32768 0 0 0 0 0 1:-0.360227 2:-0.510386 3:-0.787753 4:-0.336239 
-32768 -0 0 0 0 0 0 1:-0.503537 2:-0.536053 3:-0.864869 4:-0.488879 
-0 -0 0 0 32768 0 0 1:-0.490782 2:-0.43403 3:-0.853318 4:-0.486384 
-0 -32768 0 0 0 0 0 1:-0.371749 2:-0.532813 3:-0.79584 4:-0.346312 
-0 -32768 32768 0 0 0 0 1:-0.273058 2:-0.53813 3:-0.735477 4:-0.238563 
-0 -32768 0 0 0 0 0 1:0.0207809 2:-0.198387 3:-0.466702 4:0.0350738 
-0 -32768 0 0 0 0 0 1:0.0504289 2:-0.219492 3:-0.442134 4:0.0705313 
-0 -32768 32768 0 0 0 0 1:-0.226771 2:-0.446104 3:-0.697113 4:-0.198955 
-0 -32768 32768 0 0 0 0 1:-0.267737 2:-0.407347 3:-0.7219 4:-0.248192 
-0 -0 0 32768 32768 0 0 1:-0.452906 2:-0.395767 3:-0.831744 4:-0.449812 
-0 -32768 32768 0 0 0 0 1:-0.331002 2:-0.435491 3:-0.764901 4:-0.313336 
-32768 -32768 32768 32768 0 0 0 1:-0.36109 2:-0.599141 3:-0.793485 4:-0.327913 
-32768 -32768 0 0 32768 0 0 1:-0.375758 2:-0.486163 3:-0.795231 4:-0.355471 
-0 -32768 32768 32768 0 1086.195907328769 0 1:-0.226016 2:-0.411582 3:-0.693591 4:-0.201734 
-0 -32768 32768 0 0 0 0 1:-0.163433 2:-0.325404 3:-0.639163 4:-0.145958 
-0 -0 0 0 32768 0 0 1:-0.445268 2:-0.361573 3:-0.825275 4:-0.446178 
-0 -0 0 0 32768 0 0 1:-0.463497 2:-0.316928 3:-0.831725 4:-0.471444 
-0 -32768 32768 0 0 0 0 1:-0.257542 2:-0.301462 3:-0.705247 4:-0.251293 
-0 -32768 32768 0 0 0 0 1:-0.193581 2:-0.304907 3:-0.659746 4:-0.181502 
-0 -0 32768 0 0 0 0 1:-0.019661 2:0.129073 3:-0.447913 4:-0.0650074 
-0 -0 0 0 32768 0 0 1:-0.520052 2:-0.479588 3:-0.869608 4:-0.513021 
-0 -32768 32768 0 0 0 0 1:-0.334917 2:-0.432967 3:-0.767196 4:-0.317814 
-0 -32768 32768 0 0 0 0 1:-0.150742 2:-0.175643 3:-0.611589 4:-0.15427 
-0 -32768 0 0 0 0 0 1:0.0702853 2:-0.105778 3:-0.404577 4:0.0727935 
-0 -32768 32768 0 0 0 0 1:-0.058957 2:-0.161439 3:-0.53322 4:-0.0576614 
-0 -32768 32768 0 0 0 0 1:-0.284589 2:-0.427423 3:-0.734702 4:-0.264122 
-0 -0 28955.92673682138 32768 32768 0 0 1:-0.46074 2:-0.37325 3:-0.834348 4:-0.461038 
-0 -0 32768 0 32768 0 0 1:-0.436374 2:-0.317615 3:-0.817406 4:-0.441923 
-0 -32768 0 0 0 0 0 1:-0.368252 2:-0.493893 3:-0.791368 4:-0.346863 
-0 -32768 32768 0 32768 0 0 1:-0.222357 2:-0.110463 3:-0.658403 4:-0.241034 
-0 -32768 0 0 0 0 0 1:0.279454 2:0.0239885 3:-0.152822 4:0.276125 
-0 -32768 32768 0 0 0 0 1:-0.0944942 2:-0.155294 3:-0.562777 4:-0.0968073 
-0 -32768 32768 0 0 0 0 1:-0.190048 2:-0.358078 3:-0.662597 4:-0.170394 
-0 -32768 32768 0 32768 0 0 1:-0.301126 2:-0.223846 3:-0.727087 4:-0.309153 
-0 -0 0 0 32768 0 0 1:-0.435451 2:-0.368422 3:-0.820564 4:-0.434486 
-0 -0 0 32768 32768 0 0 1:-0.541153 2:-0.457822 3:-0.878172 4:-0.53795 
-0 -0 32768 32768 32768 0 0 1:-0.530223 2:-0.529844 3:-0.876816 4:-0.518347 
-0 -0 0 0 32768 0 0 1:-0.31168 2:-0.211881 3:-0.73257 4:-0.322577 
-0 -0 0 0 32768 0 0 1:-0.323038 2:-0.22503 3:-0.741614 4:-0.332561 
-0 -32768 32768 0 0 0 0 1:-0.235198 2:-0.374425 3:-0.696688 4:-0.217127 
-0 -32768 32768 32768 12799.03963104853 0 0 1:-0.131278 2:-0.0611129 3:-0.579884 4:-0.148155 
-0 -0 32768 0 0 0 0 1:-0.491238 2:-0.518297 3:-0.858149 4:-0.47749 
-32768 -0 32768 32768 0 0 0 1:-0.478987 2:-0.603289 3:-0.856307 4:-0.455596 
-0 -32768 32768 0 32768 0 0 1:-0.291007 2:-0.436417 3:-0.739668 4:-0.269759 
-0 -32768 32768 0 0 0 0 1:-0.294614 2:-0.5046 3:-0.747092 4:-0.265709 
-0 -32768 0 0 0 0 0 1:-0.350274 2:-0.471161 3:-0.77925 4:-0.329843 
-32768 -0 0 32768 0 10346.93691934902 0 1:-0.511469 2:-0.587863 3:-0.87093 4:-0.49227 
-0 -0 0 0 32768 17160.76897939833 0 1:-0.475326 2:-0.443451 3:-0.84622 4:-0.468457 
-0 -0 0 32768 32768 0 0 1:-0.496925 2:-0.452936 3:-0.857372 4:-0.490767 
-0 -32768 32768 32768 32768 0 0 1:-0.342066 2:-0.348266 3:-0.764882 4:-0.335923 
-32768 -0 0 32768 0 0 0 1:-0.359237 2:-0.384163 3:-0.778258 4:-0.349766 
-0 -32768 32768 17059.40477093781 32768 0 0 1:-0.237481 2:-0.286021 3:-0.689644 4:-0.231147 
-0 -32768 0 0 0 0 0 1:0.308391 2:0.0119172 3:-0.121285 4:0.31004 
-0 -32768 0 0 0 0 0 1:0.293174 2:-0.0119877 3:-0.14499 4:0.298287 
-0 -32768 32768 0 0 0 0 1:-0.111601 2:-0.475056 3:-0.613816 4:-0.0704154 
-0 -32768 32768 0 0 0 0 1:-0.103436 2:-0.49278 3:-0.608917 4:-0.0593577 
-0 -32768 0 0 0 0 0 1:0.147955 2:-0.319483 3:-0.361173 4:0.190821 
-0 -0 32768 21283.36044561325 32768 0 0 1:-0.267776 2:-0.061018 3:-0.68505 4:-0.296794 
-0 -32768 32768 0 0 0 0 1:-0.300241 2:-0.449991 3:-0.746707 4:-0.278144 
-0 -0 0 32768 32768 23441.29728145351 0 1:-0.466597 2:-0.390787 3:-0.838505 4:-0.465183 
-0 -0 32768 0 0 0 0 1:-0.484225 2:-0.539808 3:-0.855832 4:-0.467651 
-0 -32768 0 0 0 0 0 1:-0.378342 2:-0.463592 3:-0.795237 4:-0.361113 
-32768 -0 0 0 0 0 0 1:-0.487749 2:-0.594658 3:-0.860115 4:-0.465939 
-0 -0 0 32768 0 0 0 1:-0.399802 2:-0.355054 3:-0.79978 4:-0.39752 
-0 -32768 32768 0 0 0 0 1:-0.324653 2:-0.388175 3:-0.757341 4:-0.312221 
-0 -32768 32768 15708.92827451306 4881.424615790205 0 0 1:-0.0526452 2:-0.224208 3:-0.536308 4:-0.0410128 
-0 -32768 0 0 0 0 0 1:0.0761892 2:-0.0205296 3:-0.383016 4:0.0658568 
-0 -32768 0 0 0 0 0 1:0.0521404 2:-0.0532095 3:-0.4131 4:0.0455022 
-0 -32768 32768 32768 32768 32768 0 1:-0.225066 2:-0.216659 3:-0.67321 4:-0.227174 
-0 -32768 32768 0 32768 0 0 1:-0.335521 2:-0.45266 3:-0.769002 4:-0.315825 
-0 -32768 32768 0 0 0 0 1:-0.317097 2:-0.352779 3:-0.749605 4:-0.308621 
-0 -0 0 0 32768 0 0 1:-0.481171 2:-0.417113 3:-0.847538 4:-0.477955 
-0 -0 0 0 32768 0 0 1:-0.460131 2:-0.422269 3:-0.837203 4:-0.454564 
-0 -0 0 0 32768 0 0 1:-0.487167 2:-0.445274 3:-0.852146 4:-0.481204 
-0 -0 0 32768 32768 0 0 1:-0.522582 2:-0.497438 3:-0.87178 4:-0.513674 
-0 -0 0 32768 0 0 0 1:-0.539274 2:-0.552598 3:-0.88185 4:-0.526023 
-0 -0 0 32768 32768 0 0 1:-0.500554 2:-0.407533 3:-0.856498 4:-0.499962 
-0 -0 0 32768 32768 0 0 1:-0.489799 2:-0.405519 3:-0.851134 4:-0.488601 
-0 -0 0 0 32768 0 0 1:-0.504987 2:-0.478646 3:-0.862599 4:-0.496636 
-0 -32768 32768 0 0 0 0 1:-0.243865 2:-0.320635 3:-0.69765 4:-0.233631 
-0 -32768 32768 0 0 0 0 1:-0.121809 2:-0.231244 3:-0.59543 4:-0.114442 
