svm_type c_svc
kernel_type rbf
gamma 0.5
nr_class 8
total_sv 1279
rho -0.166283 -0.108218 -0.672077 -0.00853146 0.145662 -0.0770131 0.0447478 -0.0638908 1.11101 -0.387216 -0.251271 -0.443937 -0.339783 -0.427451 -0.0936839 0.0586806 -0.160408 -0.0417779 0.348322 0.476358 0.287687 0.393336 -1.73697 -0.162833 0.70376 -1.64135 2.21736 -0.456534
label 11 13 12 14 22 23 24 21
probA -2.30731 -4.77835 -4.02798 -6.08913 -6.47789 -5.79222 -6.32261 -4.35322 -2.35186 -6.34229 -6.43493 -6.12893 -6.67421 -5.64894 -6.16688 -6.23825 -5.90896 -6.3867 -5.63516 -5.65946 -5.26337 -5.70957 -3.33048 -4.57447 -3.3886 -1.85813 -2.16372 -3.40575
probB 0.33396 0.955919 -1.7667 0.061072 -0.917035 -0.302924 0.319522 -0.161111 -0.554431 -0.539844 -0.365516 -0.797515 -0.156408 -0.903229 -0.100986 0.0857456 -0.435824 0.187439 0.872363 0.966551 0.41468 1.04324 -0.878219 0.865552 -0.347291 -0.558153 0.132727 1.25156
nr_sv 37 189 69 128 125 375 268 88
SV
22.05769522438274 0 0 0 0 0 0 1:-0.621724 2:-0.62298 3:-0.909639 4:-0.629591 5:-0.637386 6:-0.509991 7:-0.920316 8:-0.651474 9:1 10:-1 11:-1 12:-1 13:-1 14:-1 15:-1 16:-1 
23.70761058761244 0 0 0 0 0 0 1:-0.56558 2:-0.587183 3:-0.884691 4:-0.574617 5:-0.663194 6:-0.630391 7:-0.93491 8:-0.665104 9:1 10:-1 11:-1 12:-1 13:-1 14:-1 15:-1 16:-1 
0 0 0.1960915876144805 0.6573690760845927 0.7472015862605371 0.5922683735327496 0.6743614838199347 1:-0.988342 2:-0.965821 3:-0.999249 4:-0.988342 5:-0.817459 6:-0.973796 7:-0.980914 8:-0.800799 9:-1 10:-1 11:-1 12:1 13:-1 14:-1 15:-1 16:-1 
0 0 0 0.1110922572544258 0.1407079985827578 0.1288286018103786 0.1720660829210552 1:-0.957192 2:-0.938993 3:-0.996661 4:-0.956977 5:-0.964076 6:-0.879023 7:-0.998014 8:-0.964339 9:-1 10:-1 11:-1 12:1 13:-1 14:-1 15:-1 16:-1 
32 0 0 0 0 0 0 1:-0.345781 2:-0.340541 3:-0.746964 4:-0.375444 5:-0.710946 6:-0.566544 7:-0.946886 8:-0.723556 9:1 10:-1 11:-1 12:-1 13:-1 14:-1 15:-1 16:-1 
0 0.3481535529940178 0.1879651023798295 0.3346263315516179 0.379439382671326 0.3013755845102868 0.3493586949710997 1:-0.886154 2:0.24995 3:-0.958819 4:-0.956202 5:-0.743147 6:0.0672012 7:-0.919369 8:-0.830166 9:1 10:-1 11:-1 12:-1 13:-1 14:-1 15:-1 16:-1 
0 0.1764377573655788 0.05438038678702135 0.3003342132528906 0.3525290676802945 0.2878736446040297 0.3295149353334514 1:-0.48685 2:0.476369 3:-0.734031 4:-0.602472 5:-0.625389 6:0.184013 7:-0.854779 8:-0.724689 9:1 10:-1 11:-1 12:-1 13:-1 14:-1 15:-1 16:-1 
27.10009609317936 0 0 0 0 0 0 1:-0.419835 2:-0.133854 3:-0.772264 4:-0.478807 5:-0.588327 6:-0.268253 7:-0.884011 8:-0.632748 9:1 10:-1 11:-1 12:-1 13:-1 14:-1 15:-1 16:-1 
32 0 0 0 0 0 0 1:-0.358472 2:-0.11527 3:-0.730264 4:-0.415459 5:-0.613108 6:-0.274025 7:-0.895 8:-0.654584 9:1 10:-1 11:-1 12:-1 13:-1 14:-1 15:-1 16:-1 
32 32 0.0772229252153472 0.02455499733986199 0.0358733593857201 0.02028060156100385 0.007180113551241835 1:-0.28324 2:-0.662191 3:-0.732761 4:-0.271701 5:-0.700721 6:-0.443364 7:-0.938067 8:-0.727307 9:-1 10:-1 11:-1 12:1 13:-1 14:-1 15:-1 16:-1 
0 32 0 0 0 0 0 1:-0.507785 2:-0.471292 3:-0.850886 4:-0.525146 5:-0.705772 6:-0.445164 7:-0.93975 8:-0.732249 9:-1 10:-1 11:-1 12:1 13:-1 14:-1 15:-1 16:-1 
0 0.6115568926622983 0.1944800590012057 0.7366425296278785 0.8552360896201899 0.6926365583604001 0.8091609942262881 1:-0.974476 2:-0.947938 3:-0.99818 4:-0.974674 5:-0.816758 6:-0.951806 7:-0.980607 8:-0.801142 9:1 10:-1 11:-1 12:-1 13:-1 14:-1 15:-1 16:-1 
0 0.3628488132148867 0 0 0 0 0 1:-0.778302 2:-0.655075 3:-0.961568 4:-0.789462 5:-0.718824 6:-0.788507 7:-0.956363 8:-0.707858 9:-1 10:-1 11:-1 12:1 13:-1 14:-1 15:-1 16:-1 
0 10.29025044643641 0 0 0 0 0 1:-0.524039 2:-0.116707 3:-0.831001 4:-0.58461 5:-0.682942 6:-0.653594 7:-0.941995 8:-0.683538 9:-1 10:-1 11:-1 12:1 13:-1 14:-1 15:-1 16:-1 
32 32 0 0 0 0 0 1:-0.41451 2:-0.437299 3:-0.797963 4:-0.434101 5:-0.710453 6:-0.521996 7:-0.944834 8:-0.728014 9:-1 10:-1 11:-1 12:1 13:-1 14:-1 15:-1 16:-1 
32 32 0 0 0 0 0 1:-0.330982 2:-0.448399 3:-0.747472 4:-0.346176 5:-0.691521 6:-0.524037 7:-0.939144 8:-0.708225 9:-1 10:-1 11:-1 12:1 13:-1 14:-1 15:-1 16:-1 
0 0 0.2442309364402516 0.4720992937581016 0.5477434748918145 0.4365743380100719 0.498930572560738 1:-0.363093 2:0.261812 3:-0.679 4:-0.470848 5:-0.675282 6:-0.232623 7:-0.916316 8:-0.726764 9:-1 10:-1 11:-1 12:1 13:-1 14:-1 15:-1 16:-1 
22.1598966332221 3.273813627941341 0 0 0 0 0 1:-0.294667 2:0.158071 3:-0.643901 4:-0.39466 5:-0.640753 6:-0.289123 7:-0.907223 8:-0.686613 9:-1 10:-1 11:-1 12:1 13:-1 14:-1 15:-1 16:-1 
32 0 0 0 0 0 0 1:-0.197394 2:-0.025334 3:-0.596483 4:-0.262108 5:-0.681311 6:-0.495908 7:-0.934489 8:-0.70076 9:-1 10:-1 11:-1 12:1 13:-1 14:-1 15:-1 16:-1 
25.19518398799951 0 0 0 0 0 0 1:-0.359289 2:-0.45421 3:-0.76601 4:-0.374544 5:-0.747017 6:-0.662606 7:-0.960137 8:-0.75112 9:1 10:-1 11:-1 12:-1 13:-1 14:-1 15:-1 16:-1 
32 0 0 0 0 0 0 1:-0.433705 2:-0.47023 3:-0.811467 4:-0.450544 5:-0.731327 6:-0.546778 7:-0.951885 8:-0.747181 9:-1 10:-1 11:-1 12:1 13:-1 14:-1 15:-1 16:-1 
0 32 0 0 0 0 0 1:-0.567335 2:-0.442758 3:-0.877578 4:-0.592014 5:-0.718302 6:-0.480449 7:-0.945273 8:-0.741614 9:-1 10:-1 11:-1 12:1 13:-1 14:-1 15:-1 16:-1 
32 0 0 0 0 0 0 1:-0.291637 2:-0.233128 3:-0.698294 4:-0.333059 5:-0.625921 6:-0.472889 7:-0.914001 8:-0.645121 9:1 10:-1 11:-1 12:-1 13:-1 14:-1 15:-1 16:-1 
6.076413595555399 0 0.04929459708113469 0.4014003864934317 0.4616381251363036 0.3795046670839178 0.4303006285911103 1:-0.0926104 2:-0.0526312 3:-0.510473 4:-0.156593 5:-0.73237 6:-0.597599 7:-0.954113 8:-0.742893 9:-1 10:-1 11:-1 12:1 13:-1 14:-1 15:-1 16:-1 
18.50112222773904 0 0 0 0 0 0 1:-0.28522 2:-0.364522 3:-0.708552 4:-0.309417 5:-0.758847 6:-0.540506 7:-0.959039 8:-0.777527 9:1 10:-1 11:-1 12:-1 13:-1 14:-1 15:-1 16:-1 
32 32 0 0 0 0 0 1:-0.199919 2:0.0432562 3:-0.586989 4:-0.282134 5:-0.608404 6:-0.356008 7:-0.899245 8:-0.644331 9:-1 10:-1 11:-1 12:1 13:-1 14:-1 15:-1 16:-1 
32 0 0 0 0 0 0 1:-0.284374 2:-0.372417 3:-0.708802 4:-0.307431 5:-0.70572 6:-0.567327 7:-0.945384 8:-0.717944 9:1 10:-1 11:-1 12:-1 13:-1 14:-1 15:-1 16:-1 
7.007625138341031 0.3747000117974815 30.12772146758759 0.532261739078924 0.6242093023362399 0.4987224488561544 0.5602702883002162 1:-0.539866 2:-0.652352 3:-0.876249 4:-0.540703 5:-0.860722 6:-0.853466 7:-0.986728 8:-0.855137 9:-1 10:1 11:-1 12:-1 13:-1 14:-1 15:-1 16:-1 
0 0.5319429236587601 7.29778215054251 0.5275230824653898 0.6058673042670378 0.4933232275790305 0.5844532250878054 1:-0.858088 2:-0.883286 3:-0.982838 4:-0.856168 5:-0.822632 6:-0.843339 7:-0.980367 8:-0.814891 9:-1 10:1 11:-1 12:-1 13:-1 14:-1 15:-1 16:-1 
32 32 0 0 0 0 0 1:-0.297893 2:-0.388162 3:-0.719738 4:-0.318902 5:-0.658077 6:-0.362665 7:-0.918891 8:-0.692603 9:-1 10:-1 11:-1 12:1 13:-1 14:-1 15:-1 16:-1 
0 18.48917518660792 0 0 0 0 0 1:-0.681351 2:-0.529861 3:-0.927896 4:-0.701068 5:-0.765654 6:-0.524023 7:-0.960174 8:-0.785892 9:-1 10:-1 11:-1 12:1 13:-1 14:-1 15:-1 16:-1 
32 0 0 0 0 0 0 1:-0.349341 2:-0.402946 3:-0.755202 4:-0.37026 5:-0.741625 6:-0.554274 7:-0.955013 8:-0.757199 9:-1 10:-1 11:-1 12:1 13:-1 14:-1 15:-1 16:-1 
32 0 0 0 0 0 0 1:-0.381503 2:-0.397326 3:-0.774843 4:-0.405134 5:-0.737023 6:-0.563549 7:-0.954109 8:-0.751173 9:-1 10:-1 11:-1 12:1 13:-1 14:-1 15:-1 16:-1 
0 32 0 0 0 0 0 1:-0.547873 2:-0.58235 3:-0.876509 4:-0.556706 5:-0.72529 6:-0.617735 7:-0.952914 8:-0.732812 9:-1 10:-1 11:-1 12:1 13:-1 14:-1 15:-1 16:-1 
32 32 0 0 0 0 0 1:-0.409322 2:-0.494614 3:-0.799345 4:-0.422103 5:-0.69594 6:-0.575993 7:-0.942817 8:-0.706662 9:-1 10:-1 11:-1 12:1 13:-1 14:-1 15:-1 16:-1 
32 0 0 0 0 0 0 1:-0.272669 2:-0.0573524 3:-0.660999 4:-0.33728 5:-0.670927 6:-0.520739 7:-0.932372 8:-0.68684 9:1 10:-1 11:-1 12:-1 13:-1 14:-1 15:-1 16:-1 
32 0.5689047618193233 0.2372998414842702 0.5403757902788392 0.6286243544119251 0.5003074397220514 0.5457851573496255 1:-0.096685 2:-0.2109 3:-0.540522 4:-0.136012 5:-0.493744 6:-0.138376 7:-0.824977 8:-0.547018 9:1 10:-1 11:-1 12:-1 13:-1 14:-1 15:-1 16:-1 
-0 0.5902211010979611 1.415194137390718 0.4419679971671248 0.5518165179406344 0.414571232154816 0.4991060726587007 1:-0.393822 2:-0.620893 3:-0.798975 4:-0.391764 5:-0.654337 6:-0.528351 7:-0.927199 8:-0.668556 9:1 10:-1 11:-1 12:-1 13:-1 14:-1 15:-1 16:-1 
-32 0 0 0 0 0 0 1:-0.404823 2:-0.541697 3:-0.800135 4:-0.411977 5:-0.644357 6:-0.422277 7:-0.917681 8:-0.671465 9:1 10:-1 11:-1 12:-1 13:-1 14:-1 15:-1 16:-1 
-0 0 32 0 0 0 0 1:-0.244463 2:-0.281882 3:-0.669889 4:-0.279097 5:-0.494173 6:-0.386915 7:-0.85107 8:-0.519817 9:-1 10:1 11:-1 12:-1 13:-1 14:-1 15:-1 16:-1 
-32 0 0 0 0 0 0 1:-0.420105 2:-0.402671 3:-0.798409 4:-0.444775 5:-0.605576 6:-0.482469 7:-0.906894 8:-0.623136 9:1 10:-1 11:-1 12:-1 13:-1 14:-1 15:-1 16:-1 
-0 0 32 0 0 0 0 1:-0.0277834 2:-0.365146 3:-0.50168 4:-0.0413778 5:-0.443246 6:-0.295001 7:-0.815803 8:-0.480991 9:-1 10:1 11:-1 12:-1 13:-1 14:-1 15:-1 16:-1 
-0 0 32 0 0 0 0 1:-0.0719769 2:-0.210029 3:-0.518483 4:-0.110866 5:-0.527797 6:-0.39902 7:-0.867739 8:-0.554028 9:-1 10:1 11:-1 12:-1 13:-1 14:-1 15:-1 16:-1 
-0 0 32 0 0 0 0 1:-0.226527 2:-0.367269 3:-0.666398 4:-0.248449 5:-0.455738 6:-0.392994 7:-0.832362 8:-0.478045 9:-1 10:1 11:-1 12:-1 13:-1 14:-1 15:-1 16:-1 
-32 0 0 0 0 0 0 1:-0.238657 2:-0.338901 3:-0.672288 4:-0.264856 5:-0.684562 6:-0.541989 7:-0.937754 8:-0.6992 9:-1 10:-1 11:-1 12:1 13:-1 14:-1 15:-1 16:-1 
-32 0 0 0 0 0 0 1:-0.276856 2:-0.415987 3:-0.707964 4:-0.293806 5:-0.67809 6:-0.533439 7:-0.93518 8:-0.693772 9:-1 10:-1 11:-1 12:1 13:-1 14:-1 15:-1 16:-1 
-0 32 0 0 0 0 0 1:-0.469181 2:-0.460143 3:-0.830165 4:-0.488633 5:-0.594291 6:-0.516106 7:-0.90458 8:-0.606746 9:-1 10:-1 11:-1 12:1 13:-1 14:-1 15:-1 16:-1 
-5.444170867891064 0 0 0 0 0 0 1:0.05146 2:-0.137105 3:-0.388008 4:0.00588882 5:-0.48714 6:0.149598 7:-0.781733 8:-0.594626 9:1 10:-1 11:-1 12:-1 13:-1 14:-1 15:-1 16:-1 
-0 0 32 0 0 0 0 1:-0.106647 2:-0.109379 3:-0.532895 4:-0.163209 5:-0.558827 6:-0.4187 7:-0.883422 8:-0.583184 9:-1 10:1 11:-1 12:-1 13:-1 14:-1 15:-1 16:-1 
-0 0 32 0 0 0 0 1:-0.202845 2:-0.0344859 3:-0.602461 4:-0.27416 5:-0.499026 6:-0.356772 7:-0.850696 8:-0.529707 9:-1 10:1 11:-1 12:-1 13:-1 14:-1 15:-1 16:-1 
-0 0 32 0 0 0 0 1:-0.106682 2:-0.304407 3:-0.562817 4:-0.132303 5:-0.359681 6:-0.186298 7:-0.7529 8:-0.413047 9:-1 10:1 11:-1 12:-1 13:-1 14:-1 15:-1 16:-1 
-0 0 32 0 0 0 0 1:-0.0212641 2:-0.297423 3:-0.485882 4:-0.0447159 5:-0.267711 6:-0.182334 7:-0.690073 8:-0.318137 9:-1 10:1 11:-1 12:-1 13:-1 14:-1 15:-1 16:-1 
-0 0 32 0 0 0 0 1:-0.086114 2:-0.254639 3:-0.537888 4:-0.118814 5:-0.454529 6:-0.296891 7:-0.822003 8:-0.492418 9:-1 10:1 11:-1 12:-1 13:-1 14:-1 15:-1 16:-1 
-0 0 32 0 0 0 0 1:-0.161165 2:-0.251795 3:-0.600988 4:-0.197422 5:-0.446182 6:-0.365003 7:-0.824728 8:-0.472366 9:-1 10:1 11:-1 12:-1 13:-1 14:-1 15:-1 16:-1 
-0 0 32 0 0 0 0 1:-0.110242 2:-0.369918 3:-0.574547 4:-0.126695 5:-0.305337 6:-0.265066 7:-0.729332 8:-0.340919 9:-1 10:1 11:-1 12:-1 13:-1 14:-1 15:-1 16:-1 
-0 18.26585211445193 0 0 0 0 0 1:-0.426081 2:-0.550613 3:-0.81283 4:-0.433152 5:-0.516136 6:-0.434943 7:-0.865642 8:-0.535523 9:-1 10:-1 11:-1 12:1 13:-1 14:-1 15:-1 16:-1 
-0 0 32 0 0 0 0 1:-0.19612 2:-0.330593 3:-0.639086 4:-0.221861 5:-0.572065 6:-0.405069 7:-0.888043 8:-0.599072 9:-1 10:1 11:-1 12:-1 13:-1 14:-1 15:-1 16:-1 
-0 0 32 0 0 0 0 1:-0.227583 2:-0.342235 3:-0.664436 4:-0.252915 5:-0.517346 6:-0.403366 7:-0.863605 8:-0.541519 9:-1 10:1 11:-1 12:-1 13:-1 14:-1 15:-1 16:-1 
-0 0 32 0 0 0 0 1:-0.0864972 2:-0.341304 3:-0.550537 4:-0.10632 5:-0.416324 6:-0.312294 7:-0.802887 8:-0.449271 9:-1 10:1 11:-1 12:-1 13:-1 14:-1 15:-1 16:-1 
-0 0 6.795500784656151 0 0 0 0 1:0.0143899 2:-0.365268 3:-0.46253 4:0.00252748 5:-0.344445 6:-0.348641 7:-0.765079 8:-0.367073 9:-1 10:1 11:-1 12:-1 13:-1 14:-1 15:-1 16:-1 
-0 0 32 0 0 0 0 1:-0.0903836 2:-0.243518 3:-0.539973 4:-0.124955 5:-0.412461 6:-0.277683 7:-0.796706 8:-0.45178 9:-1 10:1 11:-1 12:-1 13:-1 14:-1 15:-1 16:-1 
-0 0 32 0 0 0 0 1:-0.0351395 2:-0.202303 3:-0.483631 4:-0.0740907 5:-0.352332 6:-0.165332 7:-0.745374 8:-0.409136 9:-1 10:1 11:-1 12:-1 13:-1 14:-1 15:-1 16:-1 
-0 0 0.2857279069162439 0.157762149308274 0.2014103304372014 0.1465113756519574 0.1507887546734585 1:-0.103667 2:0.206505 3:-0.469098 4:-0.212654 5:-0.421597 6:0.329039 7:-0.70671 8:-0.550766 9:-1 10:-1 11:-1 12:1 13:-1 14:-1 15:-1 16:-1 
-24.81278558747075 32 0 0 0 0 0 1:-0.314833 2:-0.551293 3:-0.745545 4:-0.316821 5:-0.67953 6:-0.430227 7:-0.93039 8:-0.708469 9:-1 10:-1 11:-1 12:1 13:-1 14:-1 15:-1 16:-1 
-0 0 32 0 0 0 0 1:-0.180722 2:-0.352421 3:-0.62967 4:-0.202353 5:-0.408054 6:-0.355241 7:-0.802851 8:-0.433777 9:-1 10:1 11:-1 12:-1 13:-1 14:-1 15:-1 16:-1 
-0 0.1544679295629952 32 0.1020938515786501 0.1296587554535801 0.1014871231177504 0.1010559723232371 1:-0.0342835 2:0.373869 3:-0.359633 4:-0.173834 5:-0.277006 6:-0.157659 7:-0.693984 8:-0.331294 9:-1 10:1 11:-1 12:-1 13:-1 14:-1 15:-1 16:-1 
-0 0 32 0 0 0 0 1:-0.13492 2:-0.193344 3:-0.570788 4:-0.179004 5:-0.455906 6:-0.342457 7:-0.827464 8:-0.486388 9:-1 10:1 11:-1 12:-1 13:-1 14:-1 15:-1 16:-1 
-0 0 32 0 0 0 0 1:-0.0946799 2:-0.212861 3:-0.53908 4:-0.133757 5:-0.287303 6:-0.141734 7:-0.698605 8:-0.344204 9:-1 10:1 11:-1 12:-1 13:-1 14:-1 15:-1 16:-1 
-0 0 32 0 0 0 0 1:-0.0443375 2:-0.386526 3:-0.519508 4:-0.0557037 5:-0.257405 6:-0.195755 7:-0.686453 8:-0.303094 9:-1 10:1 11:-1 12:-1 13:-1 14:-1 15:-1 16:-1 
-0 15.68658146204913 0 0 0 0 0 1:-0.381445 2:-0.342655 3:-0.769834 4:-0.41227 5:-0.514897 6:-0.428518 7:-0.864466 8:-0.535291 9:-1 10:-1 11:-1 12:1 13:-1 14:-1 15:-1 16:-1 
-0 0 32 0 0 0 0 1:-0.0882232 2:-0.299228 3:-0.546204 4:-0.114169 5:-0.513393 6:-0.392008 7:-0.860725 8:-0.53926 9:-1 10:1 11:-1 12:-1 13:-1 14:-1 15:-1 16:-1 
-0 0 32 0 0 0 0 1:-0.16847 2:-0.292468 3:-0.612409 4:-0.19849 5:-0.419237 6:-0.385981 7:-0.812227 8:-0.440531 9:-1 10:1 11:-1 12:-1 13:-1 14:-1 15:-1 16:-1 
-0 0 32 0 0 0 0 1:-0.0903702 2:-0.353851 3:-0.555547 4:-0.108161 5:-0.337753 6:-0.318673 7:-0.757281 8:-0.365304 9:-1 10:1 11:-1 12:-1 13:-1 14:-1 15:-1 16:-1 
-0 0 32 0 0 0 0 1:-0.141446 2:-0.25187 3:-0.584602 4:-0.177025 5:-0.350276 6:-0.294533 7:-0.76198 8:-0.382875 9:-1 10:1 11:-1 12:-1 13:-1 14:-1 15:-1 16:-1 
-32 0.0628529651868963 0 0 0 0 0.01692082085653196 1:-0.406739 2:-0.281781 3:-0.77959 4:-0.447266 5:-0.640342 6:-0.543567 7:-0.923163 8:-0.651808 9:1 10:-1 11:-1 12:-1 13:-1 14:-1 15:-1 16:-1 
-32 0 0 0 0 0 0 1:-0.37346 2:-0.466852 3:-0.775655 4:-0.388481 5:-0.646499 6:-0.555875 7:-0.925789 8:-0.657217 9:1 10:-1 11:-1 12:-1 13:-1 14:-1 15:-1 16:-1 
-0 0 32 0 0 0 0 1:-0.115188 2:-0.209248 3:-0.556226 4:-0.15609 5:-0.408336 6:-0.30589 7:-0.796659 8:-0.443773 9:-1 10:1 11:-1 12:-1 13:-1 14:-1 15:-1 16:-1 
-0 0 32 0 0 0 0 1:-0.114376 2:-0.290795 3:-0.567444 4:-0.142698 5:-0.342235 6:-0.239059 7:-0.749301 8:-0.384937 9:-1 10:1 11:-1 12:-1 13:-1 14:-1 15:-1 16:-1 
-0 0 32 0 0 0 0 1:-0.0581231 2:-0.250597 3:-0.512388 4:-0.0905547 5:-0.175482 6:-0.117983 7:-0.611633 8:-0.232244 9:-1 10:1 11:-1 12:-1 13:-1 14:-1 15:-1 16:-1 
-4.121421089208535 32 0 0 0 0 0 1:-0.229121 2:-0.244357 3:-0.65366 4:-0.268299 5:-0.657246 6:-0.0946101 7:-0.898221 8:-0.727432 9:-1 10:-1 11:-1 12:1 13:-1 14:-1 15:-1 16:-1 
-32 32 0 0 0 0 0 1:-0.302672 2:-0.390542 3:-0.723236 4:-0.324352 5:-0.697142 6:-0.491233 7:-0.939338 8:-0.71864 9:-1 10:-1 11:-1 12:1 13:-1 14:-1 15:-1 16:-1 
-31.44289744563268 0 0 0 0 0 0 1:-0.251063 2:-0.369253 3:-0.684758 4:-0.273611 5:-0.669005 6:-0.49211 7:-0.930278 8:-0.6891 9:-1 10:-1 11:-1 12:1 13:-1 14:-1 15:-1 16:-1 
-0 0 32 0 0 0 0 1:-0.0967342 2:-0.374805 3:-0.563737 4:-0.111982 5:-0.571963 6:-0.420785 7:-0.889061 8:-0.596793 9:-1 10:1 11:-1 12:-1 13:-1 14:-1 15:-1 16:-1 
-0 0 32 0 0 0 0 1:-0.0364102 2:-0.277283 3:-0.496715 4:-0.0637772 5:-0.440009 6:-0.238729 7:-0.807439 8:-0.487629 9:-1 10:1 11:-1 12:-1 13:-1 14:-1 15:-1 16:-1 
-0 7.356671906402225 0 0 0 0 0 1:0.255381 2:-0.294581 3:-0.197652 4:0.243053 5:-0.315093 6:-0.18218 7:-0.723842 8:-0.365603 9:-1 10:-1 11:-1 12:1 13:-1 14:-1 15:-1 16:-1 
-0 1.620339641774417 0 0 0 0 0 1:0.286446 2:0.0221339 3:-0.0883522 4:0.219678 5:-0.474266 6:-0.377364 7:-0.840406 8:-0.500132 9:-1 10:-1 11:-1 12:1 13:-1 14:-1 15:-1 16:-1 
-32 32 0 0 0 0 0 1:-0.404285 2:-0.453688 3:-0.793282 4:-0.421901 5:-0.70917 6:-0.554423 7:-0.945799 8:-0.723727 9:-1 10:-1 11:-1 12:1 13:-1 14:-1 15:-1 16:-1 
-0 0.03589194640625979 0.1492556855377294 0.03185721234394816 0.03458115500442024 0.03327928747720409 0.04170377083793253 1:0.537492 2:0.0473611 3:0.255379 4:0.475481 5:0.181697 6:-0.0967612 7:-0.275239 8:0.145416 9:1 10:-1 11:-1 12:-1 13:-1 14:-1 15:-1 16:-1 
-0 0 22.55470970794043 0 0 0 0 1:0.0539408 2:0.10915 3:-0.332858 4:-0.0359706 5:-0.472983 6:-0.367361 7:-0.83844 8:-0.500871 9:-1 10:1 11:-1 12:-1 13:-1 14:-1 15:-1 16:-1 
-0 32 0 0 0 0 0 1:0.098553 2:-0.156602 3:-0.343489 4:0.0573363 5:-0.4465 6:-0.242099 7:-0.811552 8:-0.492247 9:-1 10:-1 11:1 12:-1 13:-1 14:-1 15:-1 16:-1 
-0 32 0 0 0 0 0 1:-0.0448658 2:-0.333578 3:-0.512648 4:-0.0638826 5:-0.488464 6:-0.289496 7:-0.838946 8:-0.528327 9:-1 10:-1 11:1 12:-1 13:-1 14:-1 15:-1 16:-1 
-0 32 0 0 0 0 0 1:-0.151995 2:-0.288749 3:-0.598542 4:-0.182051 5:-0.390325 6:-0.229012 7:-0.777803 8:-0.435897 9:-1 10:-1 11:1 12:-1 13:-1 14:-1 15:-1 16:-1 
-0 32 0 0 0 0 0 1:-0.0872116 2:-0.400838 3:-0.558875 4:-0.0982816 5:-0.193174 6:-0.234907 7:-0.646205 8:-0.225955 9:-1 10:-1 11:1 12:-1 13:-1 14:-1 15:-1 16:-1 
-0 32 0 0 0 0 0 1:-0.0221477 2:-0.42331 3:-0.504364 4:-0.0273635 5:-0.0610293 6:-0.269572 7:-0.54713 8:-0.0789697 9:-1 10:-1 11:1 12:-1 13:-1 14:-1 15:-1 16:-1 
-0 32 0 0 0 0 0 1:0.132536 2:-0.226402 3:-0.321064 4:0.104207 5:0.0231539 6:-0.0867111 7:-0.432565 8:-0.0263851 9:-1 10:-1 11:1 12:-1 13:-1 14:-1 15:-1 16:-1 
-0.7117848094255556 32 1.42618586308019 0.4313221364563238 0.5263543308865337 0.3910368873421648 0.4425595496983147 1:0.332207 2:-0.119589 3:-0.0678173 4:0.293884 5:0.0969525 6:-0.0951788 7:-0.362705 8:0.0543667 9:-1 10:-1 11:1 12:-1 13:-1 14:-1 15:-1 16:-1 
-0 32 0 0 0 0 0 1:0.138838 2:-0.0860091 3:-0.285922 4:0.0866489 5:-0.263423 6:-0.140654 7:-0.681257 8:-0.318096 9:-1 10:-1 11:1 12:-1 13:-1 14:-1 15:-1 16:-1 
-0 0 32 0 0 0 0 1:0.0476059 2:-0.277309 3:-0.416953 4:0.0239077 5:-0.404183 6:-0.253932 7:-0.788912 8:-0.44686 9:-1 10:1 11:-1 12:-1 13:-1 14:-1 15:-1 16:-1 
-0 0 32 0 0 0 0 1:-0.0106622 2:-0.340644 3:-0.48249 4:-0.0272377 5:-0.344171 6:-0.237977 7:-0.750718 8:-0.386653 9:-1 10:1 11:-1 12:-1 13:-1 14:-1 15:-1 16:-1 
-0 0.528292043580585 1.171689542663416 0.3359876281091399 0.4131386133362941 0.3142907281327987 0.3506025812754218 1:0.378413 2:0.284719 3:0.11142 4:0.261374 5:-0.403961 6:-0.318744 7:-0.796628 8:-0.435161 9:1 10:-1 11:-1 12:-1 13:-1 14:-1 15:-1 16:-1 
-0.8907496101979434 0.57310120578975 1.339664532014132 0.3846350485808937 0.4724680613655341 0.3522535874389011 0.420082966376209 1:0.310594 2:-0.227893 3:-0.118937 4:0.289741 5:1 6:-0.00623836 7:0.903744 8:1 9:-1 10:-1 11:-1 12:1 13:-1 14:-1 15:-1 16:-1 
-0 0 32 0 0 0 0 1:-0.161347 2:-0.307126 3:-0.6086 4:-0.189107 5:-0.540648 6:-0.326851 7:-0.867778 8:-0.577939 9:-1 10:1 11:-1 12:-1 13:-1 14:-1 15:-1 16:-1 
-0 0 32 0 0 0 0 1:-0.225268 2:-0.352453 3:-0.663885 4:-0.249103 5:-0.404927 6:-0.37591 7:-0.80347 8:-0.426876 9:-1 10:1 11:-1 12:-1 13:-1 14:-1 15:-1 16:-1 
-0 0 32 0 0 0 0 1:-0.157326 2:-0.265727 3:-0.59982 4:-0.191249 5:-0.449733 6:-0.367952 7:-0.826872 8:-0.475453 9:-1 10:1 11:-1 12:-1 13:-1 14:-1 15:-1 16:-1 
-0.443356799874927 0 0 0 0 0 0 1:0.276665 2:-0.0303104 3:-0.113941 4:0.220836 5:0.0577534 6:0.449303 7:-0.229874 8:-0.106019 9:1 10:-1 11:-1 12:-1 13:-1 14:-1 15:-1 16:-1 
-0 0.2609655482915201 0.4596272963498625 0.166720570151922 0.2097938342106538 0.1539776641122621 0.1744851694993569 1:0.407781 2:-0.127528 3:0.0265732 4:0.373851 5:0.165025 6:0.432279 7:-0.111631 8:0.00338795 9:1 10:-1 11:-1 12:-1 13:-1 14:-1 15:-1 16:-1 
-32 0 0 0 0 0 0 1:-0.27084 2:-0.387397 3:-0.700855 4:-0.2916 5:-0.691966 6:-0.569102 7:-0.941312 8:-0.703367 9:-1 10:-1 11:-1 12:1 13:-1 14:-1 15:-1 16:-1 
-32 0 0 0 0 0 0 1:-0.196553 2:-0.117677 3:-0.610378 4:-0.253423 5:-0.641899 6:-0.511148 7:-0.921979 8:-0.657288 9:1 10:-1 11:-1 12:-1 13:-1 14:-1 15:-1 16:-1 
-0 0 32 0 0 0 0 1:-0.115595 2:-0.27132 3:-0.565795 4:-0.146679 5:-0.57066 6:-0.440706 7:-0.889967 8:-0.592625 9:-1 10:1 11:-1 12:-1 13:-1 14:-1 15:-1 16:-1 
-0 0 3.582432937362074 0 0 0 0 1:0.447985 2:0.0730616 3:0.137136 4:0.376932 5:-0.192109 6:-0.197237 7:-0.638399 8:-0.234157 9:-1 10:1 11:-1 12:-1 13:-1 14:-1 15:-1 16:-1 
-0 0 32 0 0 0 0 1:0.00725651 2:-0.325433 3:-0.463465 4:-0.0107037 5:-0.35495 6:-0.285292 7:-0.763551 8:-0.389581 9:-1 10:1 11:-1 12:-1 13:-1 14:-1 15:-1 16:-1 
-0 0 0.3186797957724878 0.110063679558174 0.1309445674213497 0.08128684970299005 0.04927919619241817 1:-0.342588 2:-0.407594 3:-0.751294 4:-0.363654 5:0.100444 6:-0.295783 7:-0.406205 8:0.100288 9:-1 10:-1 11:-1 12:1 13:-1 14:-1 15:-1 16:-1 
-0 0 32 0 0 0 0 1:-0.13307 2:-0.2082 3:-0.571448 4:-0.174616 5:-0.541548 6:-0.346818 7:-0.869907 8:-0.575785 9:-1 10:1 11:-1 12:-1 13:-1 14:-1 15:-1 16:-1 
-0 0 32 0 0 0 0 1:-0.129151 2:-0.25544 3:-0.575017 4:-0.163442 5:-0.570039 6:-0.442777 7:-0.889773 8:-0.591685 9:-1 10:1 11:-1 12:-1 13:-1 14:-1 15:-1 16:-1 
-0 0 32 0 0 0 0 1:-0.0882089 2:-0.428328 3:-0.563146 4:-0.0956482 5:-0.372251 6:-0.392641 7:-0.786673 8:-0.389157 9:-1 10:1 11:-1 12:-1 13:-1 14:-1 15:-1 16:-1 
-32 31.4589333727398 0 0 0 0 0 1:-0.313298 2:-0.465861 3:-0.737313 4:-0.325787 5:-0.679539 6:-0.494116 7:-0.933859 8:-0.700027 9:-1 10:-1 11:-1 12:1 13:-1 14:-1 15:-1 16:-1 
-0 32 0 0 0 0 0 1:-0.343953 2:-0.545974 3:-0.763759 4:-0.347855 5:-0.647085 6:-0.470726 7:-0.92154 8:-0.668844 9:-1 10:-1 11:-1 12:1 13:-1 14:-1 15:-1 16:-1 
-0 0 32 0 0 0 0 1:-0.0203217 2:-0.234525 3:-0.475074 4:-0.0535948 5:-0.374949 6:-0.211654 7:-0.766224 8:-0.422989 9:-1 10:1 11:-1 12:-1 13:-1 14:-1 15:-1 16:-1 
-11.86378403234098 0 0 0 0 0 0 1:-0.287429 2:-0.322743 3:-0.705633 4:-0.317917 5:-0.644574 6:-0.534923 7:-0.92419 8:-0.657286 9:1 10:-1 11:-1 12:-1 13:-1 14:-1 15:-1 16:-1 
-0 16.77132578974846 0 0 0 0 0 1:-0.316667 2:-0.34092 3:-0.727678 4:-0.344418 5:-0.535399 6:-0.247567 7:-0.857926 8:-0.582608 9:-1 10:-1 11:-1 12:1 13:-1 14:-1 15:-1 16:-1 
-0 0 32 0 0 0 0 1:-0.211715 2:-0.330922 3:-0.651105 4:-0.238003 5:-0.201592 6:-0.315816 7:-0.665262 8:-0.218115 9:-1 10:1 11:-1 12:-1 13:-1 14:-1 15:-1 16:-1 
-32 0 0 0 0 0 0 1:-0.240935 2:-0.20327 3:-0.657239 4:-0.286141 5:-0.629128 6:-0.472769 7:-0.915166 8:-0.649727 9:1 10:-1 11:-1 12:-1 13:-1 14:-1 15:-1 16:-1 
-21.24625709098456 0 0 0 0 0 0 1:-0.392697 2:-0.475713 3:-0.788134 4:-0.407339 5:-0.626043 6:-0.489062 7:-0.915 8:-0.643798 9:1 10:-1 11:-1 12:-1 13:-1 14:-1 15:-1 16:-1 
-0 0 32 0 0 0 0 1:0.201087 2:0.0256582 3:-0.189734 4:0.130449 5:-0.495891 6:-0.352019 7:-0.848584 8:-0.527178 9:-1 10:1 11:-1 12:-1 13:-1 14:-1 15:-1 16:-1 
-0 0 32 0 0 0 0 1:-0.0938839 2:-0.32735 3:-0.555009 4:-0.115883 5:-0.370087 6:-0.331088 7:-0.778418 8:-0.397654 9:-1 10:1 11:-1 12:-1 13:-1 14:-1 15:-1 16:-1 
-0 0 32 0 0 0 0 1:-0.0231921 2:-0.32911 3:-0.492375 4:-0.0419437 5:-0.207715 6:0.102321 7:-0.591393 8:-0.30902 9:-1 10:1 11:-1 12:-1 13:-1 14:-1 15:-1 16:-1 
-0 0 0.7817941845409301 0.2344743346375007 0.2808613713390347 0.2077934534953069 0.2302401643009521 1:-0.0943089 2:-0.44043 3:-0.569703 4:-0.10049 5:0.733315 6:-0.0697526 7:0.443648 8:0.727636 9:-1 10:-1 11:-1 12:1 13:-1 14:-1 15:-1 16:-1 
-0 0.09094694352290468 0 0 0 0 0 1:-0.0287688 2:-0.230361 3:-0.482216 4:-0.0631358 5:0.860023 6:-0.0951189 7:0.629388 8:0.870118 9:-1 10:-1 11:-1 12:1 13:-1 14:-1 15:-1 16:-1 
-0 0 32 0 0 0 0 1:-0.0290753 2:-0.426273 3:-0.511039 4:-0.0340678 5:-0.481526 6:-0.418563 7:-0.847736 8:-0.50139 9:-1 10:1 11:-1 12:-1 13:-1 14:-1 15:-1 16:-1 
-0 0 32 0 0 0 0 1:-0.065492 2:-0.39956 3:-0.539947 4:-0.0758887 5:-0.435805 6:-0.336423 7:-0.816094 8:-0.466624 9:-1 10:1 11:-1 12:-1 13:-1 14:-1 15:-1 16:-1 
-0 0 32 0 0 0 0 1:-0.0579916 2:-0.28468 3:-0.51734 4:-0.0848805 5:-0.396178 6:-0.300231 7:-0.790035 8:-0.430516 9:-1 10:1 11:-1 12:-1 13:-1 14:-1 15:-1 16:-1 
-0 0 32 0 0 0 0 1:-0.0641234 2:-0.440333 3:-0.543857 4:-0.06876 5:-0.491544 6:-0.401713 7:-0.851172 8:-0.514568 9:-1 10:1 11:-1 12:-1 13:-1 14:-1 15:-1 16:-1 
-0 0 32 0 0 0 0 1:-0.147648 2:-0.458954 3:-0.615737 4:-0.153676 5:-0.410595 6:-0.294116 7:-0.797504 8:-0.44685 9:-1 10:1 11:-1 12:-1 13:-1 14:-1 15:-1 16:-1 
-0 0 32 0 0 0 0 1:-0.112917 2:-0.412971 3:-0.582113 4:-0.123465 5:-0.440613 6:-0.378276 7:-0.823063 8:-0.464305 9:-1 10:1 11:-1 12:-1 13:-1 14:-1 15:-1 16:-1 
-0 0 32 0 0 0 0 1:0.215605 2:-0.190444 3:-0.222602 4:0.184728 5:-0.479982 6:-0.367408 7:-0.842314 8:-0.507886 9:-1 10:1 11:-1 12:-1 13:-1 14:-1 15:-1 16:-1 
-0 0 25.33267810244591 0 0 0 0 1:0.201885 2:-0.201509 3:-0.240372 4:0.172159 5:-0.471126 6:-0.371682 7:-0.837807 8:-0.498474 9:-1 10:1 11:-1 12:-1 13:-1 14:-1 15:-1 16:-1 
-0 0 32 0 0 0 0 1:0.14018 2:-0.315039 3:-0.328853 4:0.126274 5:-0.477133 6:-0.384951 7:-0.840099 8:-0.505878 9:-1 10:1 11:-1 12:-1 13:-1 14:-1 15:-1 16:-1 
-0 0 32 0 0 0 0 1:0.144425 2:-0.232082 3:-0.309428 4:0.117578 5:-0.334388 6:-0.05793 7:-0.715111 8:-0.411912 9:-1 10:1 11:-1 12:-1 13:-1 14:-1 15:-1 16:-1 
-0 0 32 0 0 0 0 1:0.0274257 2:-0.244787 3:-0.431268 4:-0.00203745 5:-0.485966 6:-0.318309 7:-0.840528 8:-0.522093 9:-1 10:1 11:-1 12:-1 13:-1 14:-1 15:-1 16:-1 
-0 0 32 0 0 0 0 1:0.27948 2:-0.162581 3:-0.142159 4:0.246787 5:-0.217466 6:-0.00819314 7:-0.622787 8:-0.296465 9:-1 10:1 11:-1 12:-1 13:-1 14:-1 15:-1 16:-1 
-0.5400291749216548 0.3357032061637769 0.7064904036866353 0.2044607212937663 0.2516127216049985 0.1853286119827104 0.2215770048930491 1:0.404015 2:0.274313 3:0.143068 4:0.291295 5:0.813797 6:0.0619844 7:0.627932 8:0.781418 9:1 10:-1 11:-1 12:-1 13:-1 14:-1 15:-1 16:-1 
-0 0 32 0 0 0 0 1:-0.0798796 2:-0.36762 3:-0.548319 4:-0.0955007 5:-0.574799 6:-0.379648 7:-0.887259 8:-0.605922 9:-1 10:1 11:-1 12:-1 13:-1 14:-1 15:-1 16:-1 
-0 0 32 0 0 0 0 1:-0.17704 2:-0.317938 3:-0.622505 4:-0.203734 5:-0.560991 6:-0.428251 7:-0.88506 8:-0.583895 9:-1 10:1 11:-1 12:-1 13:-1 14:-1 15:-1 16:-1 
-0 0 32 0 0 0 0 1:-0.0679205 2:-0.211183 3:-0.514945 4:-0.106809 5:-0.443508 6:-0.0473288 7:-0.784771 8:-0.523175 9:-1 10:1 11:-1 12:-1 13:-1 14:-1 15:-1 16:-1 
-0 0 19.27556319366603 0 0 0 0 1:0.165166 2:-0.132711 3:-0.266979 4:0.12275 5:-0.337347 6:-0.113372 7:-0.727975 8:-0.402212 9:-1 10:1 11:-1 12:-1 13:-1 14:-1 15:-1 16:-1 
-0 1.63915090181851 0 0 0 0 0 1:0.0836314 2:0.196774 3:-0.279066 4:-0.0184407 5:-0.372187 6:-0.354487 7:-0.78235 8:-0.39526 9:-1 10:-1 11:-1 12:1 13:-1 14:-1 15:-1 16:-1 
-0 0 32 0 0 0 0 1:-0.0376554 2:-0.246772 3:-0.493162 4:-0.0695236 5:-0.497231 6:-0.347584 7:-0.849007 8:-0.528842 9:-1 10:1 11:-1 12:-1 13:-1 14:-1 15:-1 16:-1 
-0 0 32 0 0 0 0 1:-0.272559 2:-0.269791 3:-0.689014 4:-0.309814 5:-0.538916 6:-0.43058 7:-0.875623 8:-0.560452 9:-1 10:1 11:-1 12:-1 13:-1 14:-1 15:-1 16:-1 
-0 0 32 0 0 0 0 1:-0.240029 2:-0.422342 3:-0.682354 4:-0.254979 5:-0.486616 6:-0.417615 7:-0.850177 8:-0.506867 9:-1 10:1 11:-1 12:-1 13:-1 14:-1 15:-1 16:-1 
-0 6.45800909540942 0 0 0 0 0 1:0.105942 2:-0.176054 3:-0.339478 4:0.0679749 5:-0.17711 6:-0.00250043 7:-0.589492 8:-0.25588 9:-1 10:-1 11:-1 12:1 13:-1 14:-1 15:-1 16:-1 
-0 0 32 0 0 0 0 1:-0.244721 2:-0.224679 3:-0.66287 4:-0.287934 5:-0.568187 6:-0.529226 7:-0.895007 8:-0.57695 9:-1 10:1 11:-1 12:-1 13:-1 14:-1 15:-1 16:-1 
-0 0 32 0 0 0 0 1:-0.324343 2:-0.428243 3:-0.741317 4:-0.342058 5:-0.44858 6:-0.332479 7:-0.822527 8:-0.480391 9:-1 10:1 11:-1 12:-1 13:-1 14:-1 15:-1 16:-1 
-0 0 32 0 0 0 0 1:-0.279485 2:-0.494833 3:-0.717183 4:-0.286712 5:-0.316493 6:-0.261535 7:-0.736142 8:-0.353351 9:-1 10:1 11:-1 12:-1 13:-1 14:-1 15:-1 16:-1 
-0 0 15.3252525635451 0 0 0 0 1:-0.168248 2:-0.0954202 3:-0.583611 4:-0.229034 5:-0.331898 6:-0.272437 7:-0.747416 8:-0.367785 9:-1 10:1 11:-1 12:-1 13:-1 14:-1 15:-1 16:-1 
-0 0 32 0 0 0 0 1:-0.33184 2:-0.47015 3:-0.749867 4:-0.344224 5:-0.645823 6:-0.526246 7:-0.924153 8:-0.659733 9:-1 10:1 11:-1 12:-1 13:-1 14:-1 15:-1 16:-1 
-7.178678803390651 0.6385133358833727 32 0.4542501114242752 0.5611369177759802 0.4156387520594445 0.5162752371308856 1:-0.389526 2:-0.548322 3:-0.791654 4:-0.395194 5:-0.629393 6:-0.531759 7:-0.918649 8:-0.640892 9:-1 10:1 11:-1 12:-1 13:-1 14:-1 15:-1 16:-1 
-0 0 32 0 0 0 0 1:-0.40174 2:-0.57659 3:-0.800694 4:-0.40483 5:-0.538226 6:-0.528304 7:-0.882386 8:-0.544974 9:-1 10:1 11:-1 12:-1 13:-1 14:-1 15:-1 16:-1 
-0 0 32 0 0 0 0 1:-0.26225 2:-0.410936 3:-0.697131 4:-0.279396 5:-0.519796 6:-0.481225 7:-0.870877 8:-0.532412 9:-1 10:1 11:-1 12:-1 13:-1 14:-1 15:-1 16:-1 
-0 0 32 0 0 0 0 1:-0.147862 2:-0.314434 3:-0.598587 4:-0.174131 5:-0.462422 6:-0.414262 7:-0.837836 8:-0.481709 9:-1 10:1 11:-1 12:-1 13:-1 14:-1 15:-1 16:-1 
-0 0 32 0 0 0 0 1:-0.0737602 2:-0.356331 3:-0.54148 4:-0.0906634 5:-0.433439 6:-0.269706 7:-0.807547 8:-0.474859 9:-1 10:1 11:-1 12:-1 13:-1 14:-1 15:-1 16:-1 
-0 0 32 0 0 0 0 1:0.0538671 2:-0.32742 3:-0.41887 4:0.0382252 5:-0.543353 6:-0.416921 7:-0.876465 8:-0.566851 9:-1 10:1 11:-1 12:-1 13:-1 14:-1 15:-1 16:-1 
-0 0 32 0 0 0 0 1:-0.111689 2:-0.414113 3:-0.581231 4:-0.122104 5:-0.356572 6:-0.375827 7:-0.775579 8:-0.375552 9:-1 10:1 11:-1 12:-1 13:-1 14:-1 15:-1 16:-1 
-0 0 32 0 0 0 0 1:-0.0139407 2:-0.407381 3:-0.494787 4:-0.0210072 5:-0.11564 6:-0.262084 7:-0.590639 8:-0.139225 9:-1 10:1 11:-1 12:-1 13:-1 14:-1 15:-1 16:-1 
-0 0.5181181787536513 0 0.3454964571033159 0.4164397493234887 0.2985335195844749 0.3500653342665027 1:0.163586 2:-0.213636 3:-0.285205 4:0.134313 5:0.415686 6:-0.112863 7:-0.00915517 8:0.397035 9:-1 10:1 11:-1 12:-1 13:-1 14:-1 15:-1 16:-1 
-0.2512190696258088 0 0 0 0 0 0 1:0.222492 2:-0.126472 3:-0.200734 4:0.18041 5:0.449084 6:-0.11254 7:0.0329915 8:0.433225 9:-1 10:1 11:-1 12:-1 13:-1 14:-1 15:-1 16:-1 
-0 0 0 0.009420918003060458 0.008392359501532222 0.004376802216177905 0.04605346744828173 1:-0.188635 2:-0.335859 3:-0.633898 4:-0.213065 5:0.392496 6:-0.101685 7:-0.0343226 8:0.370243 9:-1 10:-1 11:-1 12:1 13:-1 14:-1 15:-1 16:-1 
-0 0.2265449848137227 29.09767423027253 0.1436559928990143 0.177263799907444 0.127188404618622 0.138799308670854 1:0.16825 2:-0.200717 3:-0.277547 4:0.137443 5:-0.612565 6:-0.495704 7:-0.910377 8:-0.628874 9:-1 10:1 11:-1 12:-1 13:-1 14:-1 15:-1 16:-1 
-0 0 32 0 0 0 0 1:0.0139739 2:-0.306624 3:-0.454222 4:-0.00663544 5:-0.579037 6:-0.432326 7:-0.892962 8:-0.60246 9:-1 10:1 11:-1 12:-1 13:-1 14:-1 15:-1 16:-1 
-0 0 32 0 0 0 0 1:0.0946769 2:-0.362181 3:-0.383599 4:0.0860268 5:-0.463867 6:-0.33033 7:-0.830256 8:-0.497323 9:-1 10:1 11:-1 12:-1 13:-1 14:-1 15:-1 16:-1 
-0 0 32 0 0 0 0 1:0.236358 2:-0.399233 3:-0.23842 4:0.239615 5:-0.336232 6:-0.298951 7:-0.753823 8:-0.36728 9:-1 10:1 11:-1 12:-1 13:-1 14:-1 15:-1 16:-1 
-7.408169098663874 0 0 0 0 0 0 1:-0.104083 2:-0.0821464 3:-0.525792 4:-0.163004 5:-0.627923 6:-0.401259 7:-0.910216 8:-0.657561 9:1 10:-1 11:-1 12:-1 13:-1 14:-1 15:-1 16:-1 
-32 0 0 0 0 0 0 1:-0.218444 2:-0.157446 3:-0.63354 4:-0.267519 5:-0.615906 6:-0.332575 7:-0.900671 8:-0.65419 9:1 10:-1 11:-1 12:-1 13:-1 14:-1 15:-1 16:-1 
-0 0 22.08402416238074 0 0 0 0 1:0.0755845 2:-0.159196 3:-0.367794 4:0.033782 5:-0.561715 6:-0.38015 7:-0.881684 8:-0.592011 9:-1 10:1 11:-1 12:-1 13:-1 14:-1 15:-1 16:-1 
-0 0 32 0 0 0 0 1:-0.0204252 2:-0.278139 3:-0.482135 4:-0.0466938 5:-0.516211 6:-0.181746 7:-0.84134 8:-0.575608 9:-1 10:1 11:-1 12:-1 13:-1 14:-1 15:-1 16:-1 
-0 0 32 0 0 0 0 1:0.00954202 2:-0.345535 3:-0.464306 4:-0.00537707 5:-0.493839 6:-0.257209 7:-0.837715 8:-0.541287 9:-1 10:1 11:-1 12:-1 13:-1 14:-1 15:-1 16:-1 
-0 0 0.5865779436297517 0.1647278357570861 0.2047009226404752 0.1493122290882766 0.1662121654633419 1:0.335724 2:-0.356502 3:-0.114834 4:0.337233 5:-0.403864 6:-0.274861 7:-0.791409 8:-0.442632 9:-1 10:-1 11:-1 12:1 13:-1 14:-1 15:-1 16:-1 
-0 0 32 0 0 0 0 1:0.210949 2:-0.237293 3:-0.237397 4:0.187839 5:-0.500931 6:-0.400274 7:-0.855584 8:-0.524768 9:-1 10:1 11:-1 12:-1 13:-1 14:-1 15:-1 16:-1 
-0 0 32 0 0 0 0 1:-0.0882731 2:-0.271723 3:-0.542228 4:-0.118465 5:-0.509879 6:-0.351138 7:-0.855246 8:-0.542443 9:-1 10:1 11:-1 12:-1 13:-1 14:-1 15:-1 16:-1 
-0 0 32 0 0 0 0 1:-0.0216501 2:-0.278802 3:-0.48309 4:-0.0482149 5:-0.103872 6:0.0374735 7:-0.518433 8:-0.186054 9:-1 10:1 11:-1 12:-1 13:-1 14:-1 15:-1 16:-1 
-0 0 32 0 0 0 0 1:-0.0328053 2:-0.463276 3:-0.519029 4:-0.0330211 5:-0.387312 6:-0.310162 7:-0.786053 8:-0.419225 9:-1 10:1 11:-1 12:-1 13:-1 14:-1 15:-1 16:-1 
-32 32 0 0 0 0 0 1:-0.331473 2:-0.210554 3:-0.723384 4:-0.377709 5:-0.66276 6:-0.494721 7:-0.92831 8:-0.681522 9:-1 10:-1 11:-1 12:1 13:-1 14:-1 15:-1 16:-1 
-32 32 1.218242493622514 0.4241229956783576 0.5247825749921852 0.3969102314972906 0.5062764257264747 1:-0.545463 2:-0.453864 3:-0.868115 4:-0.568533 5:-0.620327 6:-0.564992 7:-0.917156 8:-0.627438 9:-1 10:-1 11:-1 12:1 13:-1 14:-1 15:-1 16:-1 
-0 0 32 0 0 0 0 1:-0.113361 2:-0.373248 3:-0.577508 4:-0.129678 5:-0.440977 6:-0.371419 7:-0.822566 8:-0.465824 9:-1 10:1 11:-1 12:-1 13:-1 14:-1 15:-1 16:-1 
-0 0 32 0 0 0 0 1:0.027145 2:-0.326032 3:-0.444424 4:0.0098143 5:-0.156052 6:-0.166249 7:-0.605409 8:-0.201611 9:-1 10:1 11:-1 12:-1 13:-1 14:-1 15:-1 16:-1 
-0.4933942706421701 32 0.4040084365925484 0.1301793821359672 0.1616388307807552 0.1277522143144603 0.1438268633788148 1:0.0299011 2:-0.189694 3:-0.41933 4:-0.00823322 5:-0.671097 6:-0.53433 7:-0.933108 8:-0.68573 9:-1 10:-1 11:1 12:-1 13:-1 14:-1 15:-1 16:-1 
-0 32 0 0 0 0 0 1:-0.0911803 2:-0.260426 3:-0.543163 4:-0.123179 5:-0.651596 6:-0.454652 7:-0.922218 8:-0.67561 9:-1 10:-1 11:1 12:-1 13:-1 14:-1 15:-1 16:-1 
-0 32 0 0 0 0 0 1:-0.0853905 2:-0.301111 3:-0.543995 4:-0.111014 5:-0.58681 6:-0.382884 7:-0.892557 8:-0.617734 9:-1 10:-1 11:1 12:-1 13:-1 14:-1 15:-1 16:-1 
-0.3681949409738461 32 1.244661744817724 0.3895282873789733 0.4829110818338213 0.3464855669663678 0.4210502531151186 1:-0.237905 2:-0.471205 3:-0.685713 4:-0.246273 5:-0.56232 6:-0.397846 7:-0.883296 8:-0.5899 9:-1 10:-1 11:1 12:-1 13:-1 14:-1 15:-1 16:-1 
-0 0 32 0 0 0 0 1:-0.118777 2:-0.305027 3:-0.573164 4:-0.145068 5:-0.529012 6:-0.409178 7:-0.869462 8:-0.55314 9:-1 10:1 11:-1 12:-1 13:-1 14:-1 15:-1 16:-1 
-0 0 32 0 0 0 0 1:-0.0613931 2:-0.391089 3:-0.535227 4:-0.0727155 5:-0.603433 6:-0.347016 7:-0.896708 8:-0.64026 9:-1 10:1 11:-1 12:-1 13:-1 14:-1 15:-1 16:-1 
-0 0 32 0 0 0 0 1:0.0362034 2:-0.236895 3:-0.421328 4:0.00565042 5:-0.549714 6:-0.363526 7:-0.875012 8:-0.581662 9:-1 10:1 11:-1 12:-1 13:-1 14:-1 15:-1 16:-1 
-0 0 32 0 0 0 0 1:0.295563 2:0.0547202 3:-0.0682047 4:0.223077 5:-0.347233 6:-0.143282 7:-0.739073 8:-0.406637 9:-1 10:1 11:-1 12:-1 13:-1 14:-1 15:-1 16:-1 
-0 0 32 0 0 0 0 1:0.451275 2:0.302545 3:0.219662 4:0.333679 5:-0.241022 6:-0.166297 7:-0.669892 8:-0.290549 9:-1 10:1 11:-1 12:-1 13:-1 14:-1 15:-1 16:-1 
-32 0 0 0 0 0 0 1:-0.426289 2:-0.274908 3:-0.790662 4:-0.467831 5:-0.572949 6:-0.451422 7:-0.891675 8:-0.592375 9:1 10:-1 11:-1 12:-1 13:-1 14:-1 15:-1 16:-1 
-0 0.1538990420660968 0.2416644077431957 0.08804799154104 0.102031985306123 0.07044143570608422 0.09623170974407173 1:-0.0809131 2:-0.305194 3:-0.540684 4:-0.105502 5:0.809894 6:0.06239 7:0.621585 8:0.778629 9:1 10:-1 11:-1 12:-1 13:-1 14:-1 15:-1 16:-1 
-0.5908440314361265 0.4527911441164774 1.105746760544291 0.3080854010510075 0.3773869042831079 0.2858098949962552 0.3294963321568394 1:0.0927405 2:-0.115407 3:-0.341255 4:0.0439837 5:0.997447 6:0.00853471 7:0.906615 8:0.990239 9:1 10:-1 11:-1 12:-1 13:-1 14:-1 15:-1 16:-1 
-0 0 32 0 0 0 0 1:0.0506463 2:-0.357412 3:-0.426576 4:0.0391885 5:-0.477157 6:-0.266961 7:-0.830784 8:-0.521369 9:-1 10:1 11:-1 12:-1 13:-1 14:-1 15:-1 16:-1 
-0 0 32 0 0 0 0 1:-0.0106361 2:-0.308609 3:-0.477707 4:-0.0320319 5:-0.468595 6:-0.253734 7:-0.824731 8:-0.514945 9:-1 10:1 11:-1 12:-1 13:-1 14:-1 15:-1 16:-1 
-0 0 32 0 0 0 0 1:0.0515708 2:-0.330483 3:-0.421596 4:0.036175 5:-0.410731 6:-0.31382 7:-0.799896 8:-0.443666 9:-1 10:1 11:-1 12:-1 13:-1 14:-1 15:-1 16:-1 
-0 0 32 0 0 0 0 1:0.184262 2:-0.36411 3:-0.290046 4:0.17985 5:-0.297159 6:-0.333434 7:-0.733437 8:-0.319521 9:-1 10:1 11:-1 12:-1 13:-1 14:-1 15:-1 16:-1 
-0 0.2456433954239627 0.6248851650617977 0.2017058279941209 0.2389656459471407 0.1571050139800611 0.1662203465692959 1:-0.350775 2:-0.442604 3:-0.759605 4:-0.367817 5:0.0838033 6:-0.183061 7:-0.397343 8:0.0585472 9:1 10:-1 11:-1 12:-1 13:-1 14:-1 15:-1 16:-1 
-0 0 32 0 0 0 0 1:-0.0846027 2:-0.329803 3:-0.547254 4:-0.106001 5:-0.51407 6:-0.427211 7:-0.86395 8:-0.534656 9:-1 10:1 11:-1 12:-1 13:-1 14:-1 15:-1 16:-1 
-0 0 32 0 0 0 0 1:0.192488 2:-0.292083 3:-0.268399 4:0.177423 5:-0.395703 6:-0.395488 7:-0.800369 8:-0.413823 9:-1 10:1 11:-1 12:-1 13:-1 14:-1 15:-1 16:-1 
-0 0 32 0 0 0 0 1:0.202482 2:-0.19026 3:-0.237426 4:0.170947 5:-0.501198 6:-0.345955 7:-0.850735 8:-0.533567 9:-1 10:1 11:-1 12:-1 13:-1 14:-1 15:-1 16:-1 
-0 0 2.530763013617439 0 0 0 0 1:0.18043 2:-0.310369 3:-0.284915 4:0.167612 5:0.01809 6:-0.256339 7:-0.475238 8:0.0025964 9:-1 10:1 11:-1 12:-1 13:-1 14:-1 15:-1 16:-1 
-0 0 32 0 0 0 0 1:0.330044 2:-0.215008 3:-0.0926186 4:0.308404 5:-0.130464 6:0.051169 7:-0.538113 8:-0.217828 9:-1 10:1 11:-1 12:-1 13:-1 14:-1 15:-1 16:-1 
-0 0 32 0 0 0 0 1:0.316021 2:-0.0748434 3:-0.0767535 4:0.268646 5:-0.308838 6:-0.244745 7:-0.728835 8:-0.348528 9:-1 10:1 11:-1 12:-1 13:-1 14:-1 15:-1 16:-1 
-0.9361955907197053 0.6870949855402414 0 0.4436523794416831 0.543621062056877 0.4161388075680558 0.4842296526144794 1:0.743463 2:0.466281 3:0.749236 4:0.594794 5:0.172453 6:0.223412 7:-0.183505 8:0.0588865 9:-1 10:1 11:-1 12:-1 13:-1 14:-1 15:-1 16:-1 
-0 5.950244949965951 0 0 0 0 0 1:0.225616 2:-0.208647 3:-0.214941 4:0.198733 5:-0.37586 6:-0.0103815 7:-0.736793 8:-0.460591 9:-1 10:-1 11:-1 12:1 13:-1 14:-1 15:-1 16:-1 
-0 3.651296365772846 0 0 0 0 0 1:0.232107 2:-0.198943 3:-0.205468 4:0.203229 5:-0.260117 6:-0.244105 7:-0.695924 8:-0.295192 9:-1 10:-1 11:-1 12:1 13:-1 14:-1 15:-1 16:-1 
-0 0 32 0 0 0 0 1:0.417146 2:-0.120374 3:0.0406806 4:0.381984 5:-0.139476 6:-0.11374 7:-0.581688 8:-0.19433 9:-1 10:1 11:-1 12:-1 13:-1 14:-1 15:-1 16:-1 
-0 0 32 0 0 0 0 1:-0.103525 2:-0.270979 3:-0.555422 4:-0.134231 5:-0.510937 6:-0.358628 7:-0.856686 8:-0.541946 9:-1 10:1 11:-1 12:-1 13:-1 14:-1 15:-1 16:-1 
-0 0 32 0 0 0 0 1:-0.175785 2:-0.376357 3:-0.628668 4:-0.194225 5:-0.46058 6:-0.39035 7:-0.834686 8:-0.48367 9:-1 10:1 11:-1 12:-1 13:-1 14:-1 15:-1 16:-1 
-0 0 32 0 0 0 0 1:-0.103243 2:-0.18167 3:-0.541711 4:-0.148106 5:-0.487582 6:-0.301948 7:-0.839776 8:-0.526333 9:-1 10:1 11:-1 12:-1 13:-1 14:-1 15:-1 16:-1 
-0 0 32 0 0 0 0 1:-0.158687 2:-0.170521 3:-0.587298 4:-0.207038 5:-0.459038 6:-0.278303 7:-0.82245 8:-0.5003 9:-1 10:1 11:-1 12:-1 13:-1 14:-1 15:-1 16:-1 
-0 0 32 0 0 0 0 1:-0.0757257 2:-0.230714 3:-0.525081 4:-0.111641 5:-0.185562 6:0.191842 7:-0.551647 8:-0.305142 9:-1 10:1 11:-1 12:-1 13:-1 14:-1 15:-1 16:-1 
-0.4526835468777499 0 1.004164605407026 0.2997952418761209 0.3662003099286693 0.269014007478291 0.3205621914828312 1:0.776503 2:0.519245 3:0.8327 4:0.618161 5:0.25608 6:-0.120592 7:-0.200324 8:0.226586 9:-1 10:-1 11:-1 12:1 13:-1 14:-1 15:-1 16:-1 
-0.6090276277530655 0 0.8364987113163873 0.2476621905053122 0.3016725590585278 0.2444465298249716 0.2726392871649179 1:0.593999 2:0.776642 3:0.653607 4:0.377719 5:-0.155063 6:0.130864 7:-0.540213 8:-0.259738 9:-1 10:-1 11:-1 12:1 13:-1 14:-1 15:-1 16:-1 
-32 7.797648087651221 0.5382016482753917 0.04782906919553508 0.05487623227545532 0.04096980962841271 0.06164289565628406 1:-0.259632 2:0.312102 3:-0.587276 4:-0.382877 5:-0.56615 6:-0.0780296 7:-0.855166 8:-0.641589 9:-1 10:-1 11:-1 12:1 13:-1 14:-1 15:-1 16:-1 
-0 0 32 0 0 0 0 1:-0.34502 2:-0.365158 3:-0.748882 4:-0.37127 5:-0.599805 6:-0.47256 7:-0.904012 8:-0.618592 9:-1 10:1 11:-1 12:-1 13:-1 14:-1 15:-1 16:-1 
-0 0 32 0 0 0 0 1:-0.390881 2:-0.447102 3:-0.78478 4:-0.408592 5:-0.628252 6:-0.485993 7:-0.915578 8:-0.646989 9:-1 10:1 11:-1 12:-1 13:-1 14:-1 15:-1 16:-1 
-0 0 32 0 0 0 0 1:-0.387109 2:-0.43934 3:-0.781881 4:-0.405891 5:-0.602956 6:-0.516659 7:-0.907946 8:-0.615962 9:-1 10:1 11:-1 12:-1 13:-1 14:-1 15:-1 16:-1 
-0 0 32 0 0 0 0 1:0.159418 2:0.0323028 3:-0.235861 4:0.0868207 5:-0.55568 6:-0.38711 7:-0.879601 8:-0.584445 9:-1 10:1 11:-1 12:-1 13:-1 14:-1 15:-1 16:-1 
-0 0 32 0 0 0 0 1:-0.184613 2:-0.316383 3:-0.628343 4:-0.211962 5:-0.619194 6:-0.452556 7:-0.910229 8:-0.641941 9:-1 10:1 11:-1 12:-1 13:-1 14:-1 15:-1 16:-1 
-0 0 32 0 0 0 0 1:-0.261392 2:-0.438618 3:-0.699332 4:-0.275034 5:-0.545314 6:-0.39108 7:-0.875327 8:-0.572966 9:-1 10:1 11:-1 12:-1 13:-1 14:-1 15:-1 16:-1 
-0 0 32 0 0 0 0 1:-0.210956 2:-0.328843 3:-0.650178 4:-0.237606 5:-0.390869 6:-0.371343 7:-0.795053 8:-0.412475 9:-1 10:1 11:-1 12:-1 13:-1 14:-1 15:-1 16:-1 
-0 -0.149238407089539 0 0 0 0 0 1:-0.285729 2:-0.53414 3:-0.724845 4:-0.288398 5:-0.451315 6:0.31091 7:-0.731003 8:-0.585785 9:-1 10:-1 11:1 12:-1 13:-1 14:-1 15:-1 16:-1 
-0.4383704827390986 -0.1093511255643293 0.2154050552674469 0.3399789780695877 0.396353742937131 0.3167376275177184 0.3629665248709927 1:-0.176912 2:0.168721 3:-0.54404 4:-0.275625 5:0.383661 6:0.824758 7:0.385619 8:0.150962 9:-1 10:-1 11:1 12:-1 13:-1 14:-1 15:-1 16:-1 
-0 -15.0973251045441 0 0 0 0 0 1:0.150882 2:-0.230769 3:-0.302253 4:0.124341 5:-0.113134 6:-0.130251 7:-0.563588 8:-0.163885 9:-1 10:-1 11:1 12:-1 13:-1 14:-1 15:-1 16:-1 
-0 -6.167375589195649 0 0 0 0 0 1:0.290893 2:-0.220127 3:-0.141129 4:0.268166 5:0.284929 6:-0.058532 7:-0.148987 8:0.243021 9:-1 10:-1 11:1 12:-1 13:-1 14:-1 15:-1 16:-1 
-0 -32 0 0 0 0 0 1:-0.117584 2:-0.257883 3:-0.565483 4:-0.150172 5:-0.648087 6:-0.520571 7:-0.924614 8:-0.663184 9:-1 10:-1 11:1 12:-1 13:-1 14:-1 15:-1 16:-1 
-0 -1.003356752170805 0 0 0 0 0 1:-0.148127 2:-0.134921 3:-0.572969 4:-0.199742 5:-0.505639 6:-0.259847 7:-0.844437 8:-0.551225 9:-1 10:-1 11:1 12:-1 13:-1 14:-1 15:-1 16:-1 
-0.2530197806825396 -0 0.14929458597168 0.2422836667193207 0.2791975655747977 0.2128325727245534 0.2386558151346426 1:-0.324467 2:-0.42587 3:-0.740925 4:-0.34274 5:-0.264175 6:0.600638 7:-0.510848 8:-0.460148 9:-1 10:-1 11:1 12:-1 13:-1 14:-1 15:-1 16:-1 
-0 -0.9613739846120865 0 0 0 0 0 1:-0.0610978 2:-0.219045 3:-0.51014 4:-0.0984114 5:-0.447462 6:-0.318414 7:-0.82039 8:-0.481631 9:-1 10:-1 11:1 12:-1 13:-1 14:-1 15:-1 16:-1 
-0 -7.794240176562902 0 0 0 0 0 1:-0.0215881 2:-0.426833 3:-0.504294 4:-0.0261988 5:-0.080351 6:-0.11031 7:-0.531664 8:-0.13281 9:-1 10:-1 11:1 12:-1 13:-1 14:-1 15:-1 16:-1 
-0 -5.028741697277477 0 0 0 0 0 1:-0.0715651 2:-0.400434 3:-0.545352 4:-0.0803663 5:-0.68577 6:-0.585345 7:-0.940034 8:-0.695119 9:-1 10:-1 11:1 12:-1 13:-1 14:-1 15:-1 16:-1 
-0 -15.3682971837649 0 0 0 0 0 1:-0.00936296 2:-0.283824 3:-0.472655 4:-0.0316842 5:-0.529111 6:-0.333431 7:-0.862917 8:-0.564962 9:-1 10:-1 11:1 12:-1 13:-1 14:-1 15:-1 16:-1 
-0 -0.8431878463396503 0 0 0 0 0 1:-0.671857 2:-0.732201 3:-0.93178 4:-0.671889 5:-0.575024 6:-0.326576 7:-0.883096 8:-0.61401 9:-1 10:-1 11:1 12:-1 13:-1 14:-1 15:-1 16:-1 
-0 -0.7850605082865312 0 0 0 0 0 1:-0.676958 2:-0.768654 3:-0.93451 4:-0.674399 5:-0.525609 6:-0.377697 7:-0.865268 8:-0.554052 9:-1 10:-1 11:1 12:-1 13:-1 14:-1 15:-1 16:-1 
-0.3124331520922051 -0 0.1442202341099558 0.201224294432085 0.2367692412951726 0.2068462698501911 0.2175503701480973 1:0.209377 2:0.51874 3:-0.0305341 4:0.0479918 5:-0.274687 6:0.045735 7:-0.655708 8:-0.365589 9:-1 10:-1 11:1 12:-1 13:-1 14:-1 15:-1 16:-1 
-0.2137016227539955 -0.6266426123295397 0.1178780164141581 0.1872725714658948 0.2193309924930498 0.177246140583436 0.1970643787140076 1:0.501722 2:0.537673 3:0.389402 4:0.349655 5:-0.0096047 6:0.815198 7:-0.159127 8:-0.248499 9:-1 10:-1 11:1 12:-1 13:-1 14:-1 15:-1 16:-1 
-0.6756168750002783 -0.5551430402735507 0.3495283381381004 0.5554127950109874 0.6476902413905395 0.5124037665882641 0.5838290872292202 1:0.835738 2:0.345236 3:0.850716 4:0.721119 5:0.804728 6:0.554902 7:0.899637 8:0.624457 9:-1 10:-1 11:1 12:-1 13:-1 14:-1 15:-1 16:-1 
-0 -0 0 0 0 0 0.001688721069001223 1:0.940311 2:0.0182286 3:0.892775 4:0.900939 5:0.633335 6:0.181752 7:0.406696 8:0.552484 9:-1 10:-1 11:1 12:-1 13:-1 14:-1 15:-1 16:-1 
-0 -30.92776747556203 0 0 0 0 0 1:-0.0466029 2:-0.495046 3:-0.535037 4:-0.0431368 5:-0.155769 6:-0.32115 7:-0.632012 8:-0.171013 9:-1 10:-1 11:1 12:-1 13:-1 14:-1 15:-1 16:-1 
-0 -32 0 0 0 0 0 1:-0.070209 2:-0.243931 3:-0.522188 4:-0.102457 5:-0.547603 6:-0.370836 7:-0.874708 8:-0.578614 9:-1 10:-1 11:1 12:-1 13:-1 14:-1 15:-1 16:-1 
-0 -0.06408938074309158 0 0 0 0 0 1:0.233393 2:-0.233479 3:-0.211139 4:0.21067 5:-0.183005 6:0.481692 7:-0.469707 8:-0.355595 9:-1 10:-1 11:1 12:-1 13:-1 14:-1 15:-1 16:-1 
-0 -11.72365385209945 0 0 0 0 0 1:0.229641 2:0.0973635 3:-0.137275 4:0.154578 5:-0.479981 6:-0.241937 7:-0.829526 8:-0.528278 9:-1 10:-1 11:1 12:-1 13:-1 14:-1 15:-1 16:-1 
-0 -0 0.00835885002855288 0.02232391563946612 0.03237722545335827 0.01599971340854563 0.02040884176171375 1:-0.192342 2:0.410541 3:-0.5066 4:-0.333609 5:0.0170117 6:0.0862189 7:-0.393021 8:-0.0725493 9:-1 10:-1 11:1 12:-1 13:-1 14:-1 15:-1 16:-1 
-0 -32 0 0 0 0 0 1:0.0104019 2:-0.221852 3:-0.443872 4:-0.0234002 5:-0.598505 6:-0.399399 7:-0.898559 8:-0.62718 9:-1 10:-1 11:1 12:-1 13:-1 14:-1 15:-1 16:-1 
-0 -1.987008447665295 0 0 0 0 0 1:-0.12526 2:-0.298461 3:-0.577735 4:-0.146519 5:-0.524384 6:-0.315299 7:-0.859053 8:-0.563003 9:-1 10:-1 11:1 12:-1 13:-1 14:-1 15:-1 16:-1 
-0 -2.809716422535252 0 0 0 0 0 1:-0.288324 2:-0.444646 3:-0.718566 4:-0.302338 5:-0.605816 6:-0.285321 7:-0.892861 8:-0.651761 9:-1 10:-1 11:1 12:-1 13:-1 14:-1 15:-1 16:-1 
-0.08635120319657751 -0 0.08322941841195851 0.118925213353527 0.1361770646262897 0.1049100214473421 0.1237754709542255 1:0.470926 2:-0.462795 3:0.0356821 4:0.494981 5:-0.382673 6:-0.279389 7:-0.779582 8:-0.419916 9:-1 10:-1 11:1 12:-1 13:-1 14:-1 15:-1 16:-1 
-4.884110532632095 -32 0 0 0 0 0 1:-0.0494428 2:-0.291033 3:-0.510671 4:-0.0747468 5:-0.534019 6:-0.0711592 7:-0.838178 8:-0.604848 9:-1 10:-1 11:-1 12:1 13:-1 14:-1 15:-1 16:-1 
-32 -32 0 0 0 0 0 1:-0.354331 2:-0.571886 3:-0.772088 4:-0.355834 5:-0.768191 6:-0.61188 7:-0.963798 8:-0.779276 9:-1 10:-1 11:-1 12:1 13:-1 14:-1 15:-1 16:-1 
-32 -32 0 0 0 0 0 1:-0.371091 2:-0.337788 3:-0.762889 4:-0.402274 5:-0.725599 6:-0.551308 7:-0.950454 8:-0.74112 9:-1 10:-1 11:-1 12:1 13:-1 14:-1 15:-1 16:-1 
-32 -32 0 0 0 0 0 1:-0.479601 2:-0.275721 3:-0.821269 4:-0.522846 5:-0.705616 6:-0.516175 7:-0.943118 8:-0.724023 9:-1 10:-1 11:-1 12:1 13:-1 14:-1 15:-1 16:-1 
-32 -0 0.3825661513230787 0.6182612155047094 0.7255028503367487 0.5768137447218291 0.6884352216218739 1:-0.591386 2:-0.554998 3:-0.894244 4:-0.604993 5:-0.71609 6:-0.504125 7:-0.945709 8:-0.736179 9:-1 10:-1 11:-1 12:1 13:-1 14:-1 15:-1 16:-1 
-26.36952415842696 -20.09339626123687 0 0 0 0 0 1:-0.557108 2:-0.565543 3:-0.87982 4:-0.568238 5:-0.648958 6:-0.362148 7:-0.915482 8:-0.684991 9:-1 10:-1 11:-1 12:1 13:-1 14:-1 15:-1 16:-1 
-0 -32 0 0 0 0 0 1:-0.444572 2:-0.402471 3:-0.812374 4:-0.470193 5:-0.593736 6:-0.35466 7:-0.893308 8:-0.62898 9:-1 10:-1 11:-1 12:1 13:-1 14:-1 15:-1 16:-1 
-0 -0.2469096345568003 0 0 0 0 0 1:-0.708397 2:-0.735183 3:-0.943748 4:-0.709993 5:-0.691398 6:-0.539108 7:-0.939768 8:-0.706833 9:-1 10:-1 11:1 12:-1 13:-1 14:-1 15:-1 16:-1 
-0 -9.5629895932385 0 0 0 0 0 1:-0.272305 2:-0.531366 3:-0.715344 4:-0.274903 5:-0.250197 6:-0.328665 7:-0.701453 8:-0.270327 9:-1 10:-1 11:1 12:-1 13:-1 14:-1 15:-1 16:-1 
-0.03463493888623762 -0 0.1572184763377566 0.2560882396138979 0.2951461949966936 0.2288769467721936 0.2403677658285202 1:-0.780079 2:-0.708505 3:-0.963278 4:-0.78702 5:-0.396151 6:-0.328001 7:-0.793207 8:-0.42562 9:-1 10:-1 11:1 12:-1 13:-1 14:-1 15:-1 16:-1 
-0 -2.098153711372849 0 0 0 0 0 1:0.482538 2:-0.12057 3:0.128345 4:0.451095 5:0.182973 6:-0.166436 7:-0.292652 8:0.15875 9:-1 10:-1 11:1 12:-1 13:-1 14:-1 15:-1 16:-1 
-0 -8.466808316436865 0 0 0 0 0 1:-0.0672492 2:-0.21583 3:-0.515171 4:-0.104646 5:-0.415669 6:-0.00750324 7:-0.761904 8:-0.499499 9:-1 10:-1 11:1 12:-1 13:-1 14:-1 15:-1 16:-1 
-0 -4.793734294635178 0 0 0 0 0 1:-0.0813046 2:-0.374406 3:-0.550434 4:-0.0943547 5:-0.391189 6:-0.0669084 7:-0.755468 8:-0.465689 9:-1 10:-1 11:1 12:-1 13:-1 14:-1 15:-1 16:-1 
-0 -12.34399017504863 0 0 0 0 0 1:0.0963761 2:-0.105728 3:-0.335594 4:0.0464793 5:0.0395167 6:-0.0973717 7:-0.417 8:-0.0120222 9:-1 10:-1 11:1 12:-1 13:-1 14:-1 15:-1 16:-1 
-0 -0.4547567941301131 0 0 0 0 0 1:-0.320499 2:-0.342525 3:-0.730309 4:-0.349428 5:0.135009 6:-0.0504816 7:-0.311756 8:0.0814251 9:-1 10:-1 11:1 12:-1 13:-1 14:-1 15:-1 16:-1 
-0.1547826827837424 -0 0.09443635416078024 0.1616529268019807 0.1809861533763173 0.1349849253817058 0.1538092337436559 1:-0.031006 2:-0.193625 3:-0.47834 4:-0.0712798 5:0.522323 6:0.207073 7:0.257365 8:0.42624 9:-1 10:-1 11:1 12:-1 13:-1 14:-1 15:-1 16:-1 
-0 -4.884280767537748 0 0 0 0 0 1:0.0879914 2:-0.181616 3:-0.359285 4:0.0535036 5:-0.134965 6:-0.147975 7:-0.58507 8:-0.183508 9:-1 10:-1 11:1 12:-1 13:-1 14:-1 15:-1 16:-1 
-0 -1.738584147055144 0 0 0 0 0 1:-0.130604 2:-0.456188 3:-0.601692 4:-0.136038 5:-0.417739 6:-0.156262 7:-0.784519 8:-0.478662 9:-1 10:-1 11:1 12:-1 13:-1 14:-1 15:-1 16:-1 
-0.3523385622385804 -0 0.02187172317636462 0.05591451718287725 0.09999382537066956 0.08452225869248051 0.07347559034444727 1:0.04289 2:-0.689971 3:-0.474118 4:0.0729848 5:-0.724576 6:-0.522609 7:-0.948991 8:-0.743632 9:-1 10:-1 11:1 12:-1 13:-1 14:-1 15:-1 16:-1 
-0 -4.01422008170032 0 0 0 0 0 1:-0.221646 2:-0.476403 3:-0.674265 4:-0.227798 5:-0.772223 6:-0.616529 7:-0.964887 8:-0.783177 9:-1 10:-1 11:1 12:-1 13:-1 14:-1 15:-1 16:-1 
-0 -0.1893154764962615 0 0 0 0 0 1:0.868306 2:0.524399 3:1 4:0.712135 5:0.229217 6:0.391923 7:-0.0478886 8:0.0782508 9:-1 10:-1 11:1 12:-1 13:-1 14:-1 15:-1 16:-1 
-0 -14.84913519916065 0 0 0 0 0 1:0.0666056 2:-0.334488 3:-0.407406 4:0.0535623 5:-0.618819 6:-0.425357 7:-0.908334 8:-0.645201 9:-1 10:-1 11:1 12:-1 13:-1 14:-1 15:-1 16:-1 
-0 -4.731883637391342 0 0 0 0 0 1:0.0704746 2:-0.426696 3:-0.417344 4:0.0699329 5:0.101151 6:-0.0173546 7:-0.337533 8:0.0380142 9:-1 10:-1 11:1 12:-1 13:-1 14:-1 15:-1 16:-1 
-0 -0.4303039552379129 0 0 0 0 0 1:-0.442226 2:-0.619732 3:-0.825958 4:-0.442518 5:-0.587838 6:-0.301362 7:-0.886569 8:-0.630809 9:-1 10:-1 11:1 12:-1 13:-1 14:-1 15:-1 16:-1 
-0 -0.1247922369768204 0 0 0 0 0 1:-0.11878 2:-0.323779 3:-0.575713 4:-0.141703 5:0.304623 6:0.0425869 7:-0.0919339 8:0.239916 9:-1 10:-1 11:1 12:-1 13:-1 14:-1 15:-1 16:-1 
-0 -18.54290137608242 0 0 0 0 0 1:-0.186652 2:-0.353762 3:-0.634512 4:-0.208521 5:-0.588372 6:-0.347904 7:-0.890505 8:-0.624352 9:-1 10:-1 11:1 12:-1 13:-1 14:-1 15:-1 16:-1 
-0 -21.38762619118042 0 0 0 0 0 1:0.328711 2:-0.183476 3:-0.0871358 4:0.304556 5:0.0624484 6:-0.0953419 7:-0.396853 8:0.0141463 9:-1 10:-1 11:1 12:-1 13:-1 14:-1 15:-1 16:-1 
-0 -32 0 0 0 0 0 1:0.151715 2:-0.103239 3:-0.275434 4:0.107738 5:-0.105749 6:-0.165573 7:-0.564561 8:-0.148586 9:-1 10:-1 11:1 12:-1 13:-1 14:-1 15:-1 16:-1 
-0 -32 0 0 0 0 0 1:-0.0810036 2:-0.319784 3:-0.542808 4:-0.101641 5:-0.432819 6:-0.232915 7:-0.802868 8:-0.480938 9:-1 10:-1 11:1 12:-1 13:-1 14:-1 15:-1 16:-1 
-0.7443208329543534 -0.5509690151042029 0.3817483905483071 0.6004393149471173 0.7017816771807668 0.5575652618376556 0.6346944331254044 1:1 2:-0.163291 3:0.931787 4:1 5:-0.000921416 6:-0.0731222 7:-0.451917 8:-0.0571999 9:-1 10:-1 11:1 12:-1 13:-1 14:-1 15:-1 16:-1 
-0.2740103661779554 -0.2663535967828187 0.141799970051183 0.2224388485427905 0.2621573348245784 0.2063802411272134 0.237096224665006 1:0.331887 2:0.104834 3:-0.00783814 4:0.252425 5:0.705316 6:0.933101 7:1 8:0.421796 9:-1 10:-1 11:1 12:-1 13:-1 14:-1 15:-1 16:-1 
-0.1263656100538915 -0.1038857373786212 0.06136465325932464 0.093023019563404 0.1103075135877751 0.09333428339276424 0.1032953582436023 1:0.296532 2:0.393169 3:0.0393543 4:0.159084 5:0.777391 6:0.207618 7:0.644532 8:0.696995 9:-1 10:-1 11:1 12:-1 13:-1 14:-1 15:-1 16:-1 
-0 -18.0696923252893 0 0 0 0 0 1:-0.10178 2:-0.279911 3:-0.555197 4:-0.130948 5:-0.186853 6:-0.240037 7:-0.640687 8:-0.222049 9:-1 10:-1 11:1 12:-1 13:-1 14:-1 15:-1 16:-1 
-31.25653960775048 -32 0 0 0 0 0 1:-0.156392 2:-0.264151 3:-0.598851 4:-0.190226 5:-0.54626 6:-0.455666 7:-0.880725 8:-0.564059 9:-1 10:-1 11:-1 12:1 13:-1 14:-1 15:-1 16:-1 
-32 -32 0 0 0 0 0 1:-0.383467 2:-0.253414 3:-0.762288 4:-0.426927 5:-0.619923 6:-0.439969 7:-0.9097 8:-0.644179 9:-1 10:-1 11:-1 12:1 13:-1 14:-1 15:-1 16:-1 
-32 -32 0 0 0 0 0 1:-0.505435 2:-0.574925 3:-0.856002 4:-0.513309 5:-0.716263 6:-0.479599 7:-0.944623 8:-0.739787 9:-1 10:-1 11:-1 12:1 13:-1 14:-1 15:-1 16:-1 
-32 -32 0 0 0 0 0 1:-0.499895 2:-0.676182 3:-0.858524 4:-0.497172 5:-0.667855 6:-0.482283 7:-0.929352 8:-0.68888 9:-1 10:-1 11:-1 12:1 13:-1 14:-1 15:-1 16:-1 
-32 -32 0 0 0 0 0 1:-0.348652 2:-0.284262 3:-0.743037 4:-0.386079 5:-0.598414 6:-0.415258 7:-0.899648 8:-0.625022 9:-1 10:-1 11:-1 12:1 13:-1 14:-1 15:-1 16:-1 
-0 -32 0.3876799189987973 0.597890201331336 0.7021402538350316 0.5512304197291245 0.5986898081440385 1:0.00972398 2:-0.312133 3:-0.459101 4:-0.0095215 5:-0.388843 6:-0.243872 7:-0.778838 8:-0.432143 9:-1 10:-1 11:-1 12:1 13:-1 14:-1 15:-1 16:-1 
-0 -0.1957571867998214 0 0 0 0 0 1:0.273768 2:0.0670424 3:-0.0913683 4:0.197605 5:-0.438539 6:0.0594579 7:-0.76579 8:-0.534859 9:-1 10:-1 11:1 12:-1 13:-1 14:-1 15:-1 16:-1 
-0 -0.06909232653831394 0 0 0 0 0 1:0.503095 2:-0.253796 3:0.122576 4:0.495641 5:-0.216612 6:0.325839 7:-0.544317 8:-0.344501 9:-1 10:-1 11:1 12:-1 13:-1 14:-1 15:-1 16:-1 
-0.07020758699252511 -0 0.1699293573120347 0.2513654268093629 0.2689543725886372 0.2017101880318199 0.2378741758542417 1:0.0464312 2:-0.574406 3:-0.459154 4:0.0647348 5:-0.712869 6:-0.633239 7:-0.94987 8:-0.718492 9:-1 10:-1 11:1 12:-1 13:-1 14:-1 15:-1 16:-1 
-0.7814559791365021 -0 0.2824007327346759 0.4454212131602804 0.5234752411596807 0.4259848862139431 0.531568952427567 1:-0.680963 2:-0.658408 3:-0.932548 4:-0.68804 5:-0.775567 6:-0.648419 7:-0.966647 8:-0.783062 9:-1 10:-1 11:1 12:-1 13:-1 14:-1 15:-1 16:-1 
-0 -32 -0 0 0 0 0 1:-0.26567 2:-0.40288 3:-0.69879 4:-0.28379 5:-0.414575 6:-0.336463 7:-0.804308 8:-0.443618 9:-1 10:1 11:-1 12:-1 13:-1 14:-1 15:-1 16:-1 
-0 -32 -0 0 0 0 0 1:-0.175653 2:-0.33687 3:-0.623793 4:-0.199636 5:-0.483827 6:-0.258999 7:-0.833392 8:-0.528483 9:-1 10:1 11:-1 12:-1 13:-1 14:-1 15:-1 16:-1 
-0 -32 -0 0 0 0 0 1:-0.202535 2:-0.221913 3:-0.630116 4:-0.241397 5:-0.442672 6:-0.27393 7:-0.813088 8:-0.483977 9:-1 10:1 11:-1 12:-1 13:-1 14:-1 15:-1 16:-1 
-0 -32 -0 0 0 0 0 1:0.119717 2:-0.194771 3:-0.328644 4:0.0861261 5:-0.391646 6:-0.254735 7:-0.781756 8:-0.433841 9:-1 10:1 11:-1 12:-1 13:-1 14:-1 15:-1 16:-1 
-0 -32 -0 0 0 0 0 1:-0.142603 2:-0.111587 3:-0.564545 4:-0.199599 5:-0.454565 6:-0.338202 7:-0.826411 8:-0.485821 9:-1 10:1 11:-1 12:-1 13:-1 14:-1 15:-1 16:-1 
-0 -32 -0 0 0 0 0 1:-0.158342 2:-0.434257 3:-0.621534 4:-0.167857 5:-0.589593 6:-0.423855 7:-0.896626 8:-0.614507 9:-1 10:1 11:-1 12:-1 13:-1 14:-1 15:-1 16:-1 
-0 -32 -0 0 0 0 0 1:-0.182713 2:-0.373374 3:-0.633749 4:-0.20115 5:-0.455637 6:-0.350272 7:-0.828161 8:-0.485104 9:-1 10:1 11:-1 12:-1 13:-1 14:-1 15:-1 16:-1 
-0 -32 -0 0 0 0 0 1:-0.134738 2:-0.446374 3:-0.60395 4:-0.141643 5:-0.420438 6:-0.27063 7:-0.800414 8:-0.460982 9:-1 10:1 11:-1 12:-1 13:-1 14:-1 15:-1 16:-1 
-0 -32 -0 0 0 0 0 1:-0.203909 2:-0.207509 3:-0.629199 4:-0.247894 5:-0.605089 6:-0.421031 7:-0.902646 8:-0.631718 9:-1 10:1 11:-1 12:-1 13:-1 14:-1 15:-1 16:-1 
-0 -32 -0 0 0 0 0 1:-0.337536 2:-0.448296 3:-0.751708 4:-0.353004 5:-0.593528 6:-0.57613 7:-0.907774 8:-0.597596 9:-1 10:1 11:-1 12:-1 13:-1 14:-1 15:-1 16:-1 
-0 -32 -0 0 0 0 0 1:-0.0246442 2:-0.214475 3:-0.475863 4:-0.0588693 5:-0.347471 6:-0.281387 7:-0.75849 8:-0.381832 9:-1 10:1 11:-1 12:-1 13:-1 14:-1 15:-1 16:-1 
-0 -32 -0 0 0 0 0 1:-0.0928444 2:-0.493709 3:-0.574589 4:-0.0915173 5:-0.419079 6:-0.345337 7:-0.807831 8:-0.447486 9:-1 10:1 11:-1 12:-1 13:-1 14:-1 15:-1 16:-1 
-0 -32 -0 0 0 0 0 1:-0.0657257 2:-0.218317 3:-0.514084 4:-0.103659 5:-0.450138 6:-0.376383 7:-0.827904 8:-0.474731 9:-1 10:1 11:-1 12:-1 13:-1 14:-1 15:-1 16:-1 
-0 -32 -0 0 0 0 0 1:-0.0706287 2:-0.305397 3:-0.531674 4:-0.0939969 5:-0.511841 6:-0.375714 7:-0.858607 8:-0.540009 9:-1 10:1 11:-1 12:-1 13:-1 14:-1 15:-1 16:-1 
-0 -32 -0 0 0 0 0 1:0.344364 2:0.0139371 3:-0.0178161 4:0.281699 5:-0.458201 6:-0.240706 7:-0.817557 8:-0.505562 9:-1 10:1 11:-1 12:-1 13:-1 14:-1 15:-1 16:-1 
-0 -32 -0 0 0 0 0 1:-0.114839 2:-0.363738 3:-0.577606 4:-0.132342 5:-0.386348 6:-0.200284 7:-0.771638 8:-0.437255 9:-1 10:1 11:-1 12:-1 13:-1 14:-1 15:-1 16:-1 
-0 -0 -0.002289536763245115 0 0.001903512835763241 0.0004137236855380066 0.0002674921354003961 1:0.278274 2:-0.547415 3:-0.213787 4:0.303679 5:-0.358518 6:-0.279928 7:-0.765162 8:-0.393677 9:-1 10:1 11:-1 12:-1 13:-1 14:-1 15:-1 16:-1 
-0 -32 -0 0 0 0 0 1:0.12732 2:-0.0447524 3:-0.289429 4:0.0673475 5:-0.274947 6:-0.390542 7:-0.726257 8:-0.285781 9:-1 10:1 11:-1 12:-1 13:-1 14:-1 15:-1 16:-1 
-0 -32 -0 0 0 0 0 1:-0.260656 2:-0.400149 3:-0.694943 4:-0.278851 5:-0.593669 6:-0.44268 7:-0.899627 8:-0.616282 9:-1 10:1 11:-1 12:-1 13:-1 14:-1 15:-1 16:-1 
-0 -32 -0 0 0 0 0 1:-0.161995 2:-0.380947 3:-0.618285 4:-0.178647 5:-0.427468 6:-0.313785 7:-0.809247 8:-0.460556 9:-1 10:1 11:-1 12:-1 13:-1 14:-1 15:-1 16:-1 
-0 -32 -0 0 0 0 0 1:-0.0769152 2:-0.155764 3:-0.514141 4:-0.124063 5:-0.390311 6:-0.190218 7:-0.772548 8:-0.44335 9:-1 10:1 11:-1 12:-1 13:-1 14:-1 15:-1 16:-1 
-0 -32 -0 0 0 0 0 1:0.0479101 2:-0.126083 3:-0.3896 4:0.000305971 5:-0.58818 6:-0.37401 7:-0.892471 8:-0.620518 9:-1 10:1 11:-1 12:-1 13:-1 14:-1 15:-1 16:-1 
-0 -19.10495337492959 -0 0 0 0 0 1:-0.191973 2:-0.336129 3:-0.636497 4:-0.216643 5:-0.34602 6:-0.168949 7:-0.742102 8:-0.400725 9:-1 10:1 11:-1 12:-1 13:-1 14:-1 15:-1 16:-1 
-0 -0 -0.2545995788265878 0.2409920613154136 0.2665698945515925 0.2378450315190828 0.2518472092055553 1:0.0972659 2:0.6585 3:-0.122749 4:-0.0944615 5:-0.502687 6:-0.263738 7:-0.843285 8:-0.548483 9:-1 10:1 11:-1 12:-1 13:-1 14:-1 15:-1 16:-1 
-0 -32 -0 0 0 0 0 1:0.16069 2:-0.382639 3:-0.31841 4:0.158768 5:-0.310025 6:-0.26011 7:-0.731884 8:-0.346749 9:-1 10:1 11:-1 12:-1 13:-1 14:-1 15:-1 16:-1 
-0 -32 -0 0 0 0 0 1:-0.201863 2:-0.343372 3:-0.645047 4:-0.225566 5:-0.566568 6:-0.51323 7:-0.893306 8:-0.5775 9:-1 10:1 11:-1 12:-1 13:-1 14:-1 15:-1 16:-1 
-0 -32 -0 0 0 0 0 1:-0.124525 2:0.0680877 3:-0.516853 4:-0.209138 5:-0.497645 6:-0.47333 7:-0.860043 8:-0.509881 9:-1 10:1 11:-1 12:-1 13:-1 14:-1 15:-1 16:-1 
-0 -32 -0 0 0 0 0 1:0.0452989 2:-0.300654 3:-0.423024 4:0.0253045 5:-0.301658 6:-0.160809 7:-0.711555 8:-0.356068 9:-1 10:1 11:-1 12:-1 13:-1 14:-1 15:-1 16:-1 
-0 -32 -0 0 0 0 0 1:-0.0215394 2:-0.488547 3:-0.511988 4:-0.0174175 5:-0.350516 6:-0.379875 7:-0.772175 8:-0.368504 9:-1 10:1 11:-1 12:-1 13:-1 14:-1 15:-1 16:-1 
-0 -32 -0 0 0 0 0 1:-0.0710442 2:-0.411686 3:-0.546326 4:-0.0796784 5:-0.365221 6:-0.3774 7:-0.780739 8:-0.384508 9:-1 10:1 11:-1 12:-1 13:-1 14:-1 15:-1 16:-1 
-0 -32 -0 0 0 0 0 1:-0.203879 2:-0.340549 3:-0.64624 4:-0.2284 5:-0.560309 6:-0.405913 7:-0.883093 8:-0.586518 9:-1 10:1 11:-1 12:-1 13:-1 14:-1 15:-1 16:-1 
-0 -32 -0 0 0 0 0 1:-0.193938 2:-0.369629 3:-0.642012 4:-0.213445 5:-0.433118 6:-0.297964 7:-0.810581 8:-0.469433 9:-1 10:1 11:-1 12:-1 13:-1 14:-1 15:-1 16:-1 
-0 -14.93200159298564 -0 0 0 0 0 1:-0.26639 2:-0.233866 3:-0.680164 4:-0.304963 5:-0.693442 6:-0.561657 7:-0.941389 8:-0.705952 9:-1 10:1 11:-1 12:-1 13:-1 14:-1 15:-1 16:-1 
-0 -32 -0 0 0 0 0 1:0.038217 2:-0.368039 3:-0.44028 4:0.0280122 5:-0.274334 6:-0.173618 7:-0.694795 8:-0.324609 9:-1 10:1 11:-1 12:-1 13:-1 14:-1 15:-1 16:-1 
-0 -32 -0 0 0 0 0 1:0.404145 2:0.135962 3:0.0970638 4:0.319231 5:-0.253877 6:-0.247597 7:-0.692141 8:-0.28906 9:-1 10:1 11:-1 12:-1 13:-1 14:-1 15:-1 16:-1 
-0 -32 -0 0 0 0 0 1:0.000620968 2:-0.302209 3:-0.466184 4:-0.0210412 5:-0.249696 6:-0.212697 7:-0.68374 8:-0.291738 9:-1 10:1 11:-1 12:-1 13:-1 14:-1 15:-1 16:-1 
-0 -0 -0.3088896851316487 0.2965371060275288 0.3216489901129426 0.2766522493463981 0.3008578904737664 1:-0.54781 2:-0.0222496 3:-0.834688 4:-0.622983 5:-0.498426 6:0.0435464 7:-0.804022 8:-0.593405 9:-1 10:1 11:-1 12:-1 13:-1 14:-1 15:-1 16:-1 
-0 -32 -0 0 0 0 0 1:-0.0893866 2:-0.159143 3:-0.525841 4:-0.132682 5:-0.40723 6:-0.0878985 7:-0.768692 8:-0.47852 9:-1 10:1 11:-1 12:-1 13:-1 14:-1 15:-1 16:-1 
-0 -32 -0 0 0 0 0 1:-0.328711 2:-0.464674 3:-0.747421 4:-0.34149 5:-0.532133 6:-0.458973 7:-0.874769 8:-0.548821 9:-1 10:1 11:-1 12:-1 13:-1 14:-1 15:-1 16:-1 
-0 -5.0407571725795 -0 0 0 0 0 1:-0.120316 2:-0.250171 3:-0.566733 4:-0.153288 5:-0.282966 6:0.0331545 7:-0.664323 8:-0.373125 9:-1 10:1 11:-1 12:-1 13:-1 14:-1 15:-1 16:-1 
-0 -32 -0 0 0 0 0 1:0.00232777 2:-0.3269 3:-0.468329 4:-0.015413 5:-0.270885 6:-0.234807 7:-0.701961 8:-0.310041 9:-1 10:1 11:-1 12:-1 13:-1 14:-1 15:-1 16:-1 
-0 -32 -0 0 0 0 0 1:0.156964 2:-0.421742 3:-0.328493 4:0.159921 5:-0.365745 6:-0.25005 7:-0.765707 8:-0.407138 9:-1 10:1 11:-1 12:-1 13:-1 14:-1 15:-1 16:-1 
-0 -32 -0 0 0 0 0 1:0.113745 2:-0.407983 3:-0.371266 4:0.112886 5:-0.584591 6:-0.452292 7:-0.896614 8:-0.605436 9:-1 10:1 11:-1 12:-1 13:-1 14:-1 15:-1 16:-1 
-0 -32 -0 0 0 0 0 1:-0.172274 2:-0.539265 3:-0.643217 4:-0.168981 5:-0.402671 6:-0.381418 7:-0.802595 8:-0.423745 9:-1 10:1 11:-1 12:-1 13:-1 14:-1 15:-1 16:-1 
-0 -32 -0 0 0 0 0 1:0.0411337 2:0.0785569 3:-0.353473 4:-0.0425741 5:-0.553259 6:-0.433121 7:-0.882107 8:-0.575024 9:-1 10:1 11:-1 12:-1 13:-1 14:-1 15:-1 16:-1 
-0 -32 -0 0 0 0 0 1:-0.220266 2:-0.203415 3:-0.641438 4:-0.264604 5:-0.678079 6:-0.55505 7:-0.93634 8:-0.690292 9:-1 10:1 11:-1 12:-1 13:-1 14:-1 15:-1 16:-1 
-0 -32 -0 0 0 0 0 1:-0.285349 2:-0.327993 3:-0.704721 4:-0.314567 5:-0.379361 6:-0.331825 7:-0.783916 8:-0.407215 9:-1 10:1 11:-1 12:-1 13:-1 14:-1 15:-1 16:-1 
-0 -32 -0 0 0 0 0 1:-0.184112 2:-0.00488576 3:-0.582013 4:-0.255768 5:-0.536675 6:-0.44325 7:-0.875564 8:-0.55579 9:-1 10:1 11:-1 12:-1 13:-1 14:-1 15:-1 16:-1 
-0 -32 -0 0 0 0 0 1:-0.150837 2:-0.448248 3:-0.617114 4:-0.158106 5:-0.626336 6:-0.524921 7:-0.917165 8:-0.639241 9:-1 10:1 11:-1 12:-1 13:-1 14:-1 15:-1 16:-1 
-1.320939270051126 -32 -0 0 0 0 0 1:0.104859 2:-0.348975 3:-0.371168 4:0.0949595 5:-0.660165 6:-0.586103 7:-0.931938 8:-0.667512 9:-1 10:1 11:-1 12:-1 13:-1 14:-1 15:-1 16:-1 
-0 -32 -0 0 0 0 0 1:-0.179277 2:-0.0956438 3:-0.592808 4:-0.239222 5:-0.496589 6:-0.262755 7:-0.840322 8:-0.542207 9:-1 10:1 11:-1 12:-1 13:-1 14:-1 15:-1 16:-1 
-0 -32 -0 0 0 0 0 1:-0.374175 2:-0.441394 3:-0.774168 4:-0.392014 5:-0.701793 6:-0.658749 7:-0.947759 8:-0.703176 9:-1 10:1 11:-1 12:-1 13:-1 14:-1 15:-1 16:-1 
-0 -32 -0 0 0 0 0 1:0.0401707 2:-0.264616 3:-0.422149 4:0.0144218 5:-0.402888 6:-0.382517 7:-0.802983 8:-0.423696 9:-1 10:1 11:-1 12:-1 13:-1 14:-1 15:-1 16:-1 
-0 -32 -0 0 0 0 0 1:0.283848 2:-0.205985 3:-0.146522 4:0.259151 5:-0.342201 6:-0.356266 7:-0.764638 8:-0.363189 9:-1 10:1 11:-1 12:-1 13:-1 14:-1 15:-1 16:-1 
-0.9676690286040962 -0 -0.9566514151328589 0.8975763203381738 0.9804769660863569 0.858070082014012 0.9257749669013424 1:0.564433 2:0.233498 3:0.360263 4:0.466554 5:-0.478188 6:-0.306476 7:-0.835447 8:-0.515039 9:-1 10:1 11:-1 12:-1 13:-1 14:-1 15:-1 16:-1 
-0 -32 -0 0 0 0 0 1:-0.277159 2:-0.140012 3:-0.675936 4:-0.329472 5:-0.538373 6:-0.442006 7:-0.876198 8:-0.557722 9:-1 10:1 11:-1 12:-1 13:-1 14:-1 15:-1 16:-1 
-0 -32 -0 0 0 0 0 1:-0.120699 2:-0.478449 3:-0.596061 4:-0.122704 5:-0.548781 6:-0.405828 7:-0.878048 8:-0.573539 9:-1 10:1 11:-1 12:-1 13:-1 14:-1 15:-1 16:-1 
-0 -32 -0 0 0 0 0 1:-0.0546333 2:-0.131201 3:-0.489622 4:-0.105631 5:-0.669499 6:-0.449243 7:-0.928095 8:-0.694245 9:-1 10:1 11:-1 12:-1 13:-1 14:-1 15:-1 16:-1 
-0 -32 -0 0 0 0 0 1:-0.152572 2:-0.412215 3:-0.614387 4:-0.164845 5:-0.574116 6:-0.420372 7:-0.890042 8:-0.598718 9:-1 10:1 11:-1 12:-1 13:-1 14:-1 15:-1 16:-1 
-0 -32 -0 0 0 0 0 1:-0.119037 2:-0.432346 3:-0.589485 4:-0.127169 5:-0.353557 6:-0.312269 7:-0.766132 8:-0.38349 9:-1 10:1 11:-1 12:-1 13:-1 14:-1 15:-1 16:-1 
-0 -32 -0 0 0 0 0 1:-0.196091 2:-0.427187 3:-0.650137 4:-0.208302 5:-0.467992 6:-0.351665 7:-0.834722 8:-0.497194 9:-1 10:1 11:-1 12:-1 13:-1 14:-1 15:-1 16:-1 
-0 -32 -0 0 0 0 0 1:-0.176268 2:-0.342739 3:-0.625014 4:-0.199105 5:-0.292195 6:-0.196245 7:-0.710324 8:-0.340148 9:-1 10:1 11:-1 12:-1 13:-1 14:-1 15:-1 16:-1 
-0 -0 -0.3504013810546673 0.3404004808133332 0.3686058968228403 0.3130416364963377 0.3272910174369461 1:-0.111443 2:-0.497993 3:-0.590548 4:-0.110582 5:-0.0986886 6:-0.101014 7:-0.545337 8:-0.154261 9:-1 10:1 11:-1 12:-1 13:-1 14:-1 15:-1 16:-1 
-0 -32 -0 0 0 0 0 1:0.141342 2:-0.020537 3:-0.268592 4:0.0784907 5:-0.187945 6:-0.0183589 7:-0.601448 8:-0.264963 9:-1 10:1 11:-1 12:-1 13:-1 14:-1 15:-1 16:-1 
-0 -32 -0 0 0 0 0 1:-0.169381 2:-0.446574 3:-0.631581 4:-0.177468 5:-0.266431 6:-0.229811 7:-0.69814 8:-0.305535 9:-1 10:1 11:-1 12:-1 13:-1 14:-1 15:-1 16:-1 
-0 -32 -0 0 0 0 0 1:0.0315658 2:-0.384086 3:-0.449007 4:0.0234972 5:-0.329327 6:-0.195605 7:-0.735174 8:-0.378579 9:-1 10:1 11:-1 12:-1 13:-1 14:-1 15:-1 16:-1 
-0 -32 -0 0 0 0 0 1:-0.117827 2:-0.138287 3:-0.547435 4:-0.169775 5:-0.447143 6:-0.108376 7:-0.794957 8:-0.517185 9:-1 10:1 11:-1 12:-1 13:-1 14:-1 15:-1 16:-1 
-0 -32 -0 0 0 0 0 1:0.214071 2:-0.125495 3:-0.21032 4:0.172046 5:-0.0506223 6:-0.138502 7:-0.511794 8:-0.096 9:-1 10:1 11:-1 12:-1 13:-1 14:-1 15:-1 16:-1 
-0 -32 -0 0 0 0 0 1:-0.227418 2:-0.438909 3:-0.674846 4:-0.239511 5:-0.392871 6:-0.351799 7:-0.794043 8:-0.418076 9:-1 10:1 11:-1 12:-1 13:-1 14:-1 15:-1 16:-1 
-0 -32 -0 0 0 0 0 1:-0.0748729 2:-0.418644 3:-0.550507 4:-0.0828791 5:-0.528379 6:-0.2847 7:-0.858132 8:-0.571803 9:-1 10:1 11:-1 12:-1 13:-1 14:-1 15:-1 16:-1 
-0 -32 -0 0 0 0 0 1:-0.0123912 2:-0.450393 3:-0.49899 4:-0.013149 5:-0.41218 6:-0.265641 7:-0.795131 8:-0.452876 9:-1 10:1 11:-1 12:-1 13:-1 14:-1 15:-1 16:-1 
-0 -32 -0 0 0 0 0 1:-0.0578249 2:-0.389977 3:-0.531977 4:-0.0692327 5:-0.31785 6:-0.181252 7:-0.725343 8:-0.369784 9:-1 10:1 11:-1 12:-1 13:-1 14:-1 15:-1 16:-1 
-0 -32 -0 0 0 0 0 1:0.0215817 2:-0.368636 3:-0.456289 4:0.0106637 5:-0.303234 6:-0.199092 7:-0.718395 8:-0.350817 9:-1 10:1 11:-1 12:-1 13:-1 14:-1 15:-1 16:-1 
-0 -32 -0 0 0 0 0 1:-0.179969 2:-0.416741 3:-0.636571 4:-0.19196 5:-0.667795 6:-0.489637 7:-0.929685 8:-0.688191 9:-1 10:1 11:-1 12:-1 13:-1 14:-1 15:-1 16:-1 
-0 -32 -0 0 0 0 0 1:-0.257872 2:-0.187169 3:-0.6679 4:-0.303252 5:-0.589462 6:-0.484106 7:-0.900702 8:-0.605825 9:-1 10:1 11:-1 12:-1 13:-1 14:-1 15:-1 16:-1 
-0 -26.02991344544579 -0 0 0 0 0 1:-0.251472 2:-0.52521 3:-0.700333 4:-0.253793 5:-0.480788 6:-0.421751 7:-0.847653 8:-0.499955 9:-1 10:1 11:-1 12:-1 13:-1 14:-1 15:-1 16:-1 
-0 -32 -0 0 0 0 0 1:-0.0663993 2:-0.193903 3:-0.510852 4:-0.107615 5:-0.430739 6:-0.370022 7:-0.817008 8:-0.454718 9:-1 10:1 11:-1 12:-1 13:-1 14:-1 15:-1 16:-1 
-0 -32 -0.2923165507653384 0.2700701669413294 0.2998695213335909 0.2626931711645573 0.2832659369497703 1:0.0421854 2:-0.000926451 3:-0.369964 4:-0.0267475 5:-0.146457 6:0.295321 7:-0.489757 8:-0.281846 9:-1 10:1 11:-1 12:-1 13:-1 14:-1 15:-1 16:-1 
-0 -32 -0 0 0 0 0 1:-0.150098 2:-0.513473 3:-0.623404 4:-0.148931 5:-0.390577 6:-0.422685 7:-0.800297 8:-0.403626 9:-1 10:1 11:-1 12:-1 13:-1 14:-1 15:-1 16:-1 
-0 -32 -0 0 0 0 0 1:-0.0308096 2:-0.559443 3:-0.528208 4:-0.0186666 5:-0.520102 6:-0.478532 7:-0.870743 8:-0.533031 9:-1 10:1 11:-1 12:-1 13:-1 14:-1 15:-1 16:-1 
-0 -32 -0 0 0 0 0 1:0.0514054 2:-0.387923 3:-0.430429 4:0.0446661 5:-0.169845 6:-0.245327 7:-0.629549 8:-0.201687 9:-1 10:1 11:-1 12:-1 13:-1 14:-1 15:-1 16:-1 
-0 -32 -0 0 0 0 0 1:0.234482 2:-0.296514 3:-0.222061 4:0.222071 5:-0.335363 6:-0.250621 7:-0.746879 8:-0.374543 9:-1 10:1 11:-1 12:-1 13:-1 14:-1 15:-1 16:-1 
-0 -32 -0 0 0 0 0 1:-0.0492691 2:0.00798972 3:-0.45872 4:-0.123605 5:-0.402776 6:-0.279962 7:-0.791369 8:-0.44103 9:-1 10:1 11:-1 12:-1 13:-1 14:-1 15:-1 16:-1 
-0 -32 -0 0 0 0 0 1:0.0408131 2:-0.512106 3:-0.457214 4:0.0506893 5:-0.536943 6:-0.368853 7:-0.869719 8:-0.567152 9:-1 10:1 11:-1 12:-1 13:-1 14:-1 15:-1 16:-1 
-0 -32 -0 0 0 0 0 1:-0.2411 2:-0.218086 3:-0.659345 4:-0.282492 5:-0.620838 6:-0.471992 7:-0.912053 8:-0.641017 9:-1 10:1 11:-1 12:-1 13:-1 14:-1 15:-1 16:-1 
-0 -32 -0 0 0 0 0 1:0.0491139 2:-0.104974 3:-0.384219 4:-0.00159603 5:-0.394929 6:-0.293983 7:-0.788461 8:-0.43036 9:-1 10:1 11:-1 12:-1 13:-1 14:-1 15:-1 16:-1 
-0 -32 -0 0 0 0 0 1:0.227254 2:-0.174576 3:-0.205933 4:0.196207 5:-0.404701 6:-0.260157 7:-0.790127 8:-0.446163 9:-1 10:1 11:-1 12:-1 13:-1 14:-1 15:-1 16:-1 
-0 -32 -0 0 0 0 0 1:0.141903 2:-0.250039 3:-0.315495 4:0.119202 5:-0.613241 6:-0.362491 7:-0.901616 8:-0.64859 9:-1 10:1 11:-1 12:-1 13:-1 14:-1 15:-1 16:-1 
-0 -32 -0 0 0 0 0 1:0.16466 2:-0.434297 3:-0.322245 4:0.169701 5:-0.388731 6:-0.330138 7:-0.789205 8:-0.417502 9:-1 10:1 11:-1 12:-1 13:-1 14:-1 15:-1 16:-1 
-0 -32 -0 0 0 0 0 1:0.335632 2:0.0122286 3:-0.0294203 4:0.273776 5:-0.460256 6:-0.460766 7:-0.840879 8:-0.471849 9:-1 10:1 11:-1 12:-1 13:-1 14:-1 15:-1 16:-1 
-0 -32 -0 0 0 0 0 1:0.379455 2:-0.157371 3:-0.0174085 4:0.350436 5:-0.245599 6:-0.0955672 7:-0.660839 8:-0.309322 9:-1 10:1 11:-1 12:-1 13:-1 14:-1 15:-1 16:-1 
-0 -32 -0 0 0 0 0 1:-0.0156426 2:-0.356723 3:-0.489407 4:-0.0297486 5:-0.460905 6:-0.290682 7:-0.8245 8:-0.500873 9:-1 10:1 11:-1 12:-1 13:-1 14:-1 15:-1 16:-1 
-0 -32 -0 0 0 0 0 1:-0.0734682 2:-0.360607 3:-0.541811 4:-0.0893284 5:-0.534561 6:-0.24741 7:-0.85751 8:-0.583818 9:-1 10:1 11:-1 12:-1 13:-1 14:-1 15:-1 16:-1 
-0 -32 -0 0 0 0 0 1:-0.0903667 2:-0.200004 3:-0.533282 4:-0.131358 5:-0.55369 6:-0.248258 7:-0.866579 8:-0.603618 9:-1 10:1 11:-1 12:-1 13:-1 14:-1 15:-1 16:-1 
-0 -32 -0 0 0 0 0 1:-0.103266 2:-0.447722 3:-0.578155 4:-0.108218 5:-0.330163 6:-0.236303 7:-0.741376 8:-0.372457 9:-1 10:1 11:-1 12:-1 13:-1 14:-1 15:-1 16:-1 
-0 -32 -0 0 0 0 0 1:-0.218011 2:-0.290722 3:-0.651043 4:-0.249618 5:-0.371073 6:-0.226925 7:-0.765925 8:-0.416587 9:-1 10:1 11:-1 12:-1 13:-1 14:-1 15:-1 16:-1 
-0 -32 -0 0 0 0 0 1:-0.0529457 2:-0.0753945 3:-0.478087 4:-0.108185 5:-0.479826 6:-0.203185 7:-0.824964 8:-0.534028 9:-1 10:1 11:-1 12:-1 13:-1 14:-1 15:-1 16:-1 
-0 -32 -0 0 0 0 0 1:-0.071328 2:-0.22648 3:-0.520468 4:-0.106923 5:-0.54802 6:-0.273922 7:-0.866325 8:-0.593672 9:-1 10:1 11:-1 12:-1 13:-1 14:-1 15:-1 16:-1 
-0 -32 -0 0 0 0 0 1:-0.297501 2:-0.357232 3:-0.716312 4:-0.322994 5:-0.417511 6:-0.324558 7:-0.804922 8:-0.448836 9:-1 10:1 11:-1 12:-1 13:-1 14:-1 15:-1 16:-1 
-0 -27.4933217669954 -0 0 0 0 0 1:0.160725 2:-0.354953 3:-0.313832 4:0.15461 5:-0.433602 6:-0.123698 7:-0.789475 8:-0.498333 9:-1 10:1 11:-1 12:-1 13:-1 14:-1 15:-1 16:-1 
-0 -32 -0 0 0 0 0 1:0.151538 2:-0.234443 3:-0.302249 4:0.125957 5:-0.295678 6:-0.096015 7:-0.696817 8:-0.361022 9:-1 10:1 11:-1 12:-1 13:-1 14:-1 15:-1 16:-1 
-0 -32 -0 0 0 0 0 1:-0.260361 2:-0.266856 3:-0.679406 4:-0.298222 5:-0.174626 6:-0.161024 7:-0.619054 8:-0.222188 9:-1 10:1 11:-1 12:-1 13:-1 14:-1 15:-1 16:-1 
-0 -32 -0 0 0 0 0 1:0.144365 2:-0.35375 3:-0.330984 4:0.137144 5:-0.475629 6:-0.217074 7:-0.824431 8:-0.527288 9:-1 10:1 11:-1 12:-1 13:-1 14:-1 15:-1 16:-1 
-0 -32 -0 0 0 0 0 1:-0.265923 2:-0.391068 3:-0.697744 4:-0.284995 5:-0.538654 6:-0.392453 7:-0.872403 8:-0.565486 9:-1 10:1 11:-1 12:-1 13:-1 14:-1 15:-1 16:-1 
-0 -32 -0 0 0 0 0 1:0.0483308 2:-0.448104 3:-0.441827 4:0.049897 5:-0.300515 6:-0.198852 7:-0.716643 8:-0.34789 9:-1 10:1 11:-1 12:-1 13:-1 14:-1 15:-1 16:-1 
-0 -32 -0 0 0 0 0 1:0.234265 2:0.0385444 3:-0.14735 4:0.162875 5:-0.35264 6:-0.147365 7:-0.743073 8:-0.411844 9:-1 10:1 11:-1 12:-1 13:-1 14:-1 15:-1 16:-1 
-0 -32 -0 0 0 0 0 1:-0.194212 2:-0.18311 3:-0.618054 4:-0.241068 5:-0.502618 6:-0.364393 7:-0.853187 8:-0.532101 9:-1 10:1 11:-1 12:-1 13:-1 14:-1 15:-1 16:-1 
-0 -5.460409526711191 -0 0 0 0 0 1:-0.365828 2:-0.400856 3:-0.765452 4:-0.387248 5:-0.583056 6:-0.506752 7:-0.899252 8:-0.596864 9:-1 10:1 11:-1 12:-1 13:-1 14:-1 15:-1 16:-1 
-0 -32 -0 0 0 0 0 1:0.0827738 2:-0.418124 3:-0.403968 4:0.0819358 5:-0.225792 6:-0.22803 7:-0.668853 8:-0.263882 9:-1 10:1 11:-1 12:-1 13:-1 14:-1 15:-1 16:-1 
-0 -32 -0 0 0 0 0 1:-0.216924 2:-0.522841 3:-0.675265 4:-0.217842 5:-0.274139 6:-0.356171 7:-0.720789 8:-0.291822 9:-1 10:1 11:-1 12:-1 13:-1 14:-1 15:-1 16:-1 
-0 -32 -0 0 0 0 0 1:-0.0134659 2:-0.0583877 3:-0.437247 4:-0.0761698 5:-0.358144 6:-0.351028 7:-0.773551 8:-0.381586 9:-1 10:1 11:-1 12:-1 13:-1 14:-1 15:-1 16:-1 
-0 -32 -0 0 0 0 0 1:-0.210225 2:-0.317625 3:-0.64834 4:-0.237267 5:-0.3801 6:-0.200853 7:-0.767276 8:-0.43208 9:-1 10:1 11:-1 12:-1 13:-1 14:-1 15:-1 16:-1 
-0 -32 -0 0 0 0 0 1:-0.0175094 2:0.0268936 3:-0.424127 4:-0.0849114 5:-0.50473 6:-0.397071 7:-0.857087 8:-0.529086 9:-1 10:1 11:-1 12:-1 13:-1 14:-1 15:-1 16:-1 
-0 -32 -0 0 0 0 0 1:-0.103448 2:-0.367828 3:-0.568544 4:-0.117681 5:-0.32537 6:-0.269495 7:-0.743087 8:-0.360848 9:-1 10:1 11:-1 12:-1 13:-1 14:-1 15:-1 16:-1 
-0 -0.3762030812023064 -0 0 0 0 0 1:0.371107 2:0.389233 3:0.138767 4:0.23527 5:-0.451107 6:-0.325231 7:-0.823232 8:-0.483676 9:-1 10:1 11:-1 12:-1 13:-1 14:-1 15:-1 16:-1 
-0 -32 -0 0 0 0 0 1:-0.165674 2:-0.0929727 3:-0.581056 4:-0.220162 5:-0.53568 6:-0.340048 7:-0.866441 8:-0.571014 9:-1 10:1 11:-1 12:-1 13:-1 14:-1 15:-1 16:-1 
-0 -32 -0 0 0 0 0 1:-0.151695 2:-0.263736 3:-0.594937 4:-0.185132 5:-0.444253 6:-0.381357 7:-0.825269 8:-0.467437 9:-1 10:1 11:-1 12:-1 13:-1 14:-1 15:-1 16:-1 
-0 -32 -0 0 0 0 0 1:0.19258 2:0.0249458 3:-0.199782 4:0.12348 5:-0.501604 6:-0.364888 7:-0.852752 8:-0.530431 9:-1 10:1 11:-1 12:-1 13:-1 14:-1 15:-1 16:-1 
-0 -32 -0 0 0 0 0 1:-0.0485891 2:-0.360481 3:-0.519814 4:-0.0634039 5:-0.452402 6:-0.333924 7:-0.824823 8:-0.483897 9:-1 10:1 11:-1 12:-1 13:-1 14:-1 15:-1 16:-1 
-0 -32 -0 0 0 0 0 1:-0.232561 2:-0.397103 3:-0.674241 4:-0.249233 5:-0.454171 6:-0.340844 7:-0.826415 8:-0.484432 9:-1 10:1 11:-1 12:-1 13:-1 14:-1 15:-1 16:-1 
-0 -32 -0 0 0 0 0 1:-0.215023 2:-0.349313 3:-0.655806 4:-0.237093 5:-0.500922 6:-0.316482 7:-0.847778 8:-0.538379 9:-1 10:1 11:-1 12:-1 13:-1 14:-1 15:-1 16:-1 
-0 -32 -0 0 0 0 0 1:0.262377 2:-0.170714 3:-0.16426 4:0.23042 5:-0.512442 6:-0.241858 7:-0.846126 8:-0.559612 9:-1 10:1 11:-1 12:-1 13:-1 14:-1 15:-1 16:-1 
-0 -32 -0 0 0 0 0 1:-0.218097 2:-0.404598 3:-0.664317 4:-0.233889 5:-0.492961 6:-0.357596 7:-0.847855 8:-0.522738 9:-1 10:1 11:-1 12:-1 13:-1 14:-1 15:-1 16:-1 
-0 -32 -0 0 0 0 0 1:-0.118408 2:-0.399916 3:-0.585076 4:-0.130751 5:-0.513485 6:-0.372996 7:-0.858958 8:-0.542833 9:-1 10:1 11:-1 12:-1 13:-1 14:-1 15:-1 16:-1 
-0 -32 -0 0 0 0 0 1:-0.0610322 2:-0.315208 3:-0.524568 4:-0.0821555 5:-0.407612 6:-0.345655 7:-0.801658 8:-0.434832 9:-1 10:1 11:-1 12:-1 13:-1 14:-1 15:-1 16:-1 
-0 -32 -0 0 0 0 0 1:-0.138719 2:-0.376303 3:-0.598953 4:-0.15497 5:-0.510954 6:-0.359639 7:-0.856749 8:-0.541553 9:-1 10:1 11:-1 12:-1 13:-1 14:-1 15:-1 16:-1 
-32 -0 -0.9837820785698093 0.9337001260223803 1.027035080824944 0.9006852604880399 0.9895689552889967 1:-0.61605 2:-0.660393 3:-0.908906 4:-0.619975 5:-0.78787 6:-0.706333 7:-0.970881 8:-0.790256 9:-1 10:1 11:-1 12:-1 13:-1 14:-1 15:-1 16:-1 
-4.377860755478423 -0 -0 0 0 0 0 1:-0.650993 2:-0.51514 3:-0.916225 4:-0.670871 5:-0.752168 6:-0.655613 7:-0.961214 8:-0.757352 9:-1 10:1 11:-1 12:-1 13:-1 14:-1 15:-1 16:-1 
-0 -0 -0 -0 32 0 0 1:-0.505091 2:-0.540691 3:-0.853454 4:-0.517196 5:-0.621374 6:-0.230688 7:-0.894885 8:-0.674106 9:-1 10:-1 11:-1 12:-1 13:-1 14:-1 15:-1 16:1 
-0 -0 -0 -0 32 0 0 1:-0.59917 2:-0.687846 3:-0.903202 4:-0.600054 5:-0.453392 6:-0.343852 7:-0.825519 8:-0.484875 9:-1 10:-1 11:-1 12:-1 13:-1 14:-1 15:-1 16:1 
-0 -0 -0 -0 32 0 0 1:-0.457056 2:-0.468304 3:-0.824229 4:-0.472593 5:-0.438539 6:-0.38468 7:-0.822486 8:-0.461336 9:-1 10:-1 11:-1 12:-1 13:-1 14:-1 15:-1 16:1 
-0 -0 -0 -0 28.43924766310056 0 0 1:-0.0987716 2:-0.696142 3:-0.598515 4:-0.0748057 5:-0.53834 6:-0.403919 7:-0.87324 8:-0.563845 9:-1 10:-1 11:-1 12:-1 13:-1 14:-1 15:-1 16:1 
-0.7203276011891943 -1.009841686409775 -0.7912588785029413 -0.4704900136485053 3.668613590214622 0.5955253852447812 0 1:-0.363365 2:-0.496944 3:-0.772046 4:-0.374114 5:0.174949 6:0.126568 7:-0.213799 8:0.0817713 9:-1 10:-1 11:-1 12:-1 13:-1 14:-1 15:-1 16:1 
-0 -0 -0 -0 32 0 32 1:-0.699883 2:-0.58838 3:-0.936459 4:-0.713295 5:-0.850407 6:-0.72209 7:-0.983209 8:-0.855133 9:-1 10:-1 11:-1 12:-1 13:-1 14:-1 15:-1 16:1 
-0.6088828567707205 -0.8478940705706515 -0.666239212947785 -0.3939827386274216 0 0 0.6787702146554088 1:-0.484477 2:-0.563393 3:-0.844791 4:-0.492912 5:0.240024 6:-0.0871144 7:-0.207244 8:0.199927 9:-1 10:-1 11:-1 12:-1 13:-1 14:-1 15:1 16:-1 
-0 -0 -0 -0 32 0 0 1:-0.501356 2:-0.668906 3:-0.858889 4:-0.49928 5:-0.534863 6:-0.451312 7:-0.875155 8:-0.553234 9:-1 10:-1 11:-1 12:-1 13:-1 14:-1 15:-1 16:1 
-0 -0 -0 -0 32 0 0 1:-0.612744 2:-0.728712 3:-0.910093 4:-0.6105 5:-0.586378 6:-0.459439 7:-0.897823 8:-0.606358 9:-1 10:-1 11:-1 12:-1 13:-1 14:-1 15:-1 16:1 
-0 -0 -0 -0 32 0 0 1:-0.622424 2:-0.733569 3:-0.913984 4:-0.620229 5:-0.590433 6:-0.402266 7:-0.895442 8:-0.618872 9:-1 10:-1 11:-1 12:-1 13:-1 14:-1 15:-1 16:1 
-0 -0 -0 -0 32 0 0 1:-0.602112 2:-0.641121 3:-0.902507 4:-0.607596 5:-0.57143 6:-0.40737 7:-0.887864 8:-0.598126 9:-1 10:-1 11:-1 12:-1 13:-1 14:-1 15:-1 16:1 
-0 -0 -0 -0 0 16.86307973425784 0.4337908246909026 1:-0.488646 2:-0.554766 3:-0.846467 4:-0.497321 5:-0.823448 6:-0.706012 7:-0.978133 8:-0.82803 9:-1 10:-1 11:-1 12:-1 13:-1 14:-1 15:1 16:-1 
-0 -0 -0 -0 0 18.44273253008323 0 1:-0.148731 2:-0.690535 3:-0.637821 4:-0.127805 5:-0.582357 6:-0.406884 7:-0.892476 8:-0.609389 9:-1 10:-1 11:-1 12:-1 13:-1 14:-1 15:1 16:-1 
-0 -0 -0 -0 32 0 0 1:-0.74521 2:-0.763721 3:-0.955264 4:-0.746172 5:-0.806749 6:-0.681213 7:-0.974296 8:-0.812636 9:-1 10:-1 11:-1 12:-1 13:-1 14:-1 15:-1 16:1 
-0 -0 -0 -0 32 0 32 1:-0.747223 2:-0.751941 3:-0.955562 4:-0.749151 5:-0.87 6:-0.705396 7:-0.986079 8:-0.877398 9:-1 10:-1 11:-1 12:-1 13:-1 14:-1 15:-1 16:1 
-0 -0 -0 -0 32 0 0 1:-0.688943 2:-0.595858 3:-0.9331 4:-0.702121 5:-0.673887 6:-0.0882005 7:-0.904521 8:-0.739125 9:-1 10:-1 11:-1 12:-1 13:-1 14:-1 15:-1 16:1 
-0 -0 -0 -0 32 0 0 1:-0.795591 2:-0.791533 3:-0.968707 4:-0.79679 5:-0.720364 6:-0.573601 7:-0.949876 8:-0.733027 9:-1 10:-1 11:-1 12:-1 13:-1 14:-1 15:-1 16:1 
-0 -0 -0 -0 32 0 0 1:-0.814785 2:-0.767966 3:-0.972672 4:-0.818484 5:-0.735473 6:-0.554573 7:-0.95335 8:-0.751009 9:-1 10:-1 11:-1 12:-1 13:-1 14:-1 15:-1 16:1 
-0 -0 -0 -0 32 0 0 1:-0.830641 2:-0.772378 3:-0.976118 4:-0.834759 5:-0.78576 6:-0.652759 7:-0.969091 8:-0.793092 9:-1 10:-1 11:-1 12:-1 13:-1 14:-1 15:-1 16:1 
-0 -0 -0 -0 32 0 0 1:-0.747944 2:-0.683706 3:-0.954098 4:-0.755476 5:-0.699704 6:-0.470881 7:-0.939138 8:-0.723916 9:-1 10:-1 11:-1 12:-1 13:-1 14:-1 15:-1 16:1 
-0 -0 -0 -0 32 0 0 1:-0.66013 2:-0.731891 3:-0.927722 4:-0.659797 5:-0.601544 6:-0.451973 7:-0.903379 8:-0.623112 9:-1 10:-1 11:-1 12:-1 13:-1 14:-1 15:-1 16:1 
-0 -0 -0 -0 32 0 0 1:-0.626157 2:-0.658741 3:-0.912765 4:-0.630846 5:-0.514371 6:-0.30716 7:-0.853562 8:-0.552729 9:-1 10:-1 11:-1 12:-1 13:-1 14:-1 15:-1 16:1 
-0 -0 -0 -0 32 0 0 1:-0.547189 2:-0.499353 3:-0.871665 4:-0.565063 5:-0.342415 6:-0.194943 7:-0.743558 8:-0.391993 9:-1 10:-1 11:-1 12:-1 13:-1 14:-1 15:-1 16:1 
-0 -0 -0 -0 32 0 0 1:-0.557171 2:-0.476448 3:-0.87491 4:-0.57765 5:-0.423623 6:-0.190877 7:-0.792468 8:-0.475588 9:-1 10:-1 11:-1 12:-1 13:-1 14:-1 15:-1 16:1 
-0 -0 -0 -0 32 0 0 1:-0.623105 2:-0.613221 3:-0.909729 4:-0.632065 5:-0.483467 6:-0.224492 7:-0.82945 8:-0.533493 9:-1 10:-1 11:-1 12:-1 13:-1 14:-1 15:-1 16:1 
-0 -0 -0 -0 32 0 0 1:-0.665252 2:-0.674481 3:-0.92767 4:-0.670232 5:-0.440907 6:-0.409303 7:-0.826296 8:-0.459293 9:-1 10:-1 11:-1 12:-1 13:-1 14:-1 15:-1 16:1 
-0 -0 -0 -0 22.08865188056327 0 0 1:-0.687624 2:-0.544112 3:-0.930684 4:-0.705509 5:-0.489104 6:-0.090457 7:-0.816541 8:-0.560175 9:-1 10:-1 11:-1 12:-1 13:-1 14:-1 15:-1 16:1 
-0 -0 -0 -0 32 0 0 1:-0.751568 2:-0.644889 3:-0.954079 4:-0.762551 5:-0.707939 6:-0.492953 7:-0.94275 8:-0.729635 9:-1 10:-1 11:-1 12:-1 13:-1 14:-1 15:-1 16:1 
-0 -0 -0 -0 0 3.265168842369954 0 1:-0.432135 2:-0.665056 3:-0.823055 4:-0.427365 5:-0.390309 6:-0.302002 7:-0.786805 8:-0.423732 9:-1 10:-1 11:-1 12:-1 13:-1 14:-1 15:1 16:-1 
-0 -0 -0 -0 0 18.97018975492828 0 1:-0.447962 2:-0.623671 3:-0.829237 4:-0.448228 5:-0.505625 6:-0.326749 7:-0.851157 8:-0.540537 9:-1 10:-1 11:-1 12:-1 13:-1 14:-1 15:1 16:-1 
-0 -0 -0 -0 0 32 0 1:-0.770737 2:-0.731662 3:-0.961402 4:-0.77522 5:-0.889997 6:-0.796969 7:-0.990152 8:-0.890901 9:-1 10:-1 11:-1 12:-1 13:-1 14:-1 15:1 16:-1 
-0 -0 -0 -0 0 32 0 1:-0.90148 2:-0.807718 3:-0.989071 4:-0.906017 5:-0.952134 6:-0.760002 7:-0.996441 8:-0.959063 9:-1 10:-1 11:-1 12:-1 13:-1 14:-1 15:1 16:-1 
-0 -0 -0 -0 0 2.054662615760511 0 1:-0.607438 2:-0.825375 3:-0.910882 4:-0.597583 5:-0.759721 6:-0.501674 7:-0.957793 8:-0.781191 9:-1 10:-1 11:-1 12:-1 13:-1 14:-1 15:1 16:-1 
-0 -0 -0 -0 0 32 0 1:-0.728134 2:-0.704122 3:-0.948915 4:-0.732422 5:-0.86609 6:-0.741784 7:-0.986042 8:-0.870069 9:-1 10:-1 11:-1 12:-1 13:-1 14:-1 15:1 16:-1 
-0 -0 -0 -0 0 11.98970399757224 0 1:-0.77184 2:-0.835818 3:-0.963712 4:-0.768787 5:-0.910237 6:-0.766386 7:-0.992302 8:-0.914796 9:-1 10:-1 11:-1 12:-1 13:-1 14:-1 15:1 16:-1 
-0.0964600931912078 -0.1174709105133686 -0.0893573282244261 -0.0562868673157472 32 0.1110548690220743 32 1:-0.723759 2:-0.357741 3:-0.934961 4:-0.755284 5:-0.92838 6:-0.798547 7:-0.994551 8:-0.931689 9:-1 10:-1 11:-1 12:-1 13:-1 14:-1 15:-1 16:1 
-0 -0 -0 -0 32 0 32 1:-0.778499 2:-0.48789 3:-0.956817 4:-0.801007 5:-0.927946 6:-0.787937 7:-0.994429 8:-0.9319 9:-1 10:-1 11:-1 12:-1 13:-1 14:-1 15:-1 16:1 
-0 -0 -0 -0 0 32 32 1:-0.61264 2:-0.679264 3:-0.908283 4:-0.613809 5:-0.92368 6:-0.812051 7:-0.994197 8:-0.925674 9:-1 10:-1 11:-1 12:-1 13:-1 14:-1 15:1 16:-1 
-0 -0 -0 -0 0 0 7.964726015627789 1:-0.791917 2:-0.88359 3:-0.969288 4:-0.786829 5:-0.913541 6:-0.828493 7:-0.993271 8:-0.913589 9:-1 10:-1 11:-1 12:-1 13:-1 14:-1 15:1 16:-1 
-0 -0 -0 -0 0 31.90735525422037 0 1:-0.775529 2:-0.843893 3:-0.964759 4:-0.772147 5:-0.910951 6:-0.786691 7:-0.992592 8:-0.914014 9:-1 10:-1 11:-1 12:-1 13:-1 14:-1 15:1 16:-1 
-0 -0 -0 -0 0 26.96182550872529 0.08684577608413119 1:-0.501696 2:-0.03356 3:-0.810236 4:-0.564923 5:-0.74501 6:-0.551227 7:-0.955805 8:-0.761116 9:-1 10:-1 11:-1 12:-1 13:-1 14:-1 15:1 16:-1 
-0.3950886429942356 -0.5266262265778276 -0.4173139337111882 -0.2489402276216076 0 0 0 1:-0.0472174 2:-0.342423 3:-0.516047 4:-0.0631425 5:-0.748694 6:-0.58706 7:-0.958088 8:-0.761317 9:-1 10:-1 11:-1 12:-1 13:-1 14:-1 15:1 16:-1 
-0.2133483197825526 -0.3211753664221685 -0.2444487683064134 -0.1539897985820312 0 0 0.2321974435334384 1:0.0528277 2:-0.23373 3:-0.404315 4:0.0239346 5:-0.277729 6:-0.189978 7:-0.699726 8:-0.324524 9:-1 10:-1 11:-1 12:-1 13:-1 14:-1 15:1 16:-1 
-0 -0 -0 -0 0 0 0.3435098046494068 1:-0.504847 2:-0.023505 3:-0.810771 4:-0.577448 5:-0.188484 6:0.681929 7:-0.411165 8:-0.365695 9:-1 10:-1 11:-1 12:-1 13:-1 14:-1 15:1 16:-1 
-0.6303866575352713 -0.8521858332180015 -0.6774849661047355 -0.4042718251918933 0 0 0 1:-0.698665 2:-0.0437963 3:-0.907689 4:-0.769182 5:-0.551444 6:0.781846 7:-0.711581 8:-0.71245 9:-1 10:-1 11:-1 12:-1 13:-1 14:-1 15:1 16:-1 
-0 -0 -0 -0 0 32 32 1:-0.767208 2:-0.707862 3:-0.959951 4:-0.772972 5:-0.914719 6:-0.846842 7:-0.993552 8:-0.913594 9:-1 10:-1 11:-1 12:-1 13:-1 14:-1 15:1 16:-1 
-0.7309054486134066 -0.9556645014703486 -0.7589356014137596 -0.4559394088599457 0 24.00118579156597 0 1:-0.941531 2:-0.879362 3:-0.994752 4:-0.943656 5:-0.952705 6:-0.866337 7:-0.997139 8:-0.953014 9:-1 10:-1 11:-1 12:-1 13:-1 14:-1 15:1 16:-1 
-0 -0 -0 -0 32 0 32 1:-0.774066 2:-0.745687 3:-0.962563 4:-0.77752 5:-0.854466 6:-0.708148 7:-0.983656 8:-0.860761 9:-1 10:-1 11:-1 12:-1 13:-1 14:-1 15:-1 16:1 
-0 -0 -0 -0 32 0 32 1:-0.821011 2:-0.8256 3:-0.97492 4:-0.820965 5:-0.846303 6:-0.695503 7:-0.982037 8:-0.853373 9:-1 10:-1 11:-1 12:-1 13:-1 14:-1 15:-1 16:1 
-0 -0 -0 -0 32 0 32 1:-0.819174 2:-0.779578 3:-0.973823 4:-0.822013 5:-0.857181 6:-0.757924 7:-0.984914 8:-0.859162 9:-1 10:-1 11:-1 12:-1 13:-1 14:-1 15:-1 16:1 
-0 -0 -0 -0 32 0 32 1:-0.895111 2:-0.881081 3:-0.988833 4:-0.895011 5:-0.84605 6:-0.736451 7:-0.982747 8:-0.849016 9:-1 10:-1 11:-1 12:-1 13:-1 14:-1 15:-1 16:1 
-0 -0 -0 -0 32 0 32 1:-0.894398 2:-0.893946 3:-0.98883 4:-0.893588 5:-0.88142 6:-0.725837 7:-0.988075 8:-0.887637 9:-1 10:-1 11:-1 12:-1 13:-1 14:-1 15:-1 16:1 
-0.09035765832388444 -0.1130175147194764 -0.09725172002150137 -0.05732500553755682 0 0.06629817965178615 0 1:-0.81658 2:-0.53926 3:-0.968122 4:-0.838453 5:-0.70628 6:-0.0283799 7:-0.912507 8:-0.776612 9:-1 10:-1 11:-1 12:-1 13:-1 14:-1 15:-1 16:1 
-0 -0 -0 -0 32 0 0 1:-0.787234 2:-0.518872 3:-0.960156 4:-0.809654 5:-0.623877 6:-0.168294 7:-0.890565 8:-0.684216 9:-1 10:-1 11:-1 12:-1 13:-1 14:-1 15:-1 16:1 
-0 -0 -0 -0 32 0 0 1:-0.836976 2:-0.691353 3:-0.976049 4:-0.847384 5:-0.703859 6:-0.595017 7:-0.945969 8:-0.71254 9:-1 10:-1 11:-1 12:-1 13:-1 14:-1 15:-1 16:1 
-0 -0 -0 -0 32 0 0 1:-0.73239 2:-0.79327 3:-0.952292 4:-0.730539 5:-0.644873 6:-0.270694 7:-0.907508 8:-0.692246 9:-1 10:-1 11:-1 12:-1 13:-1 14:-1 15:-1 16:1 
-0 -0 -0 -0 32 0 32 1:-0.802737 2:-0.737239 3:-0.969387 4:-0.807763 5:-0.811723 6:-0.654868 7:-0.974688 8:-0.820661 9:-1 10:-1 11:-1 12:-1 13:-1 14:-1 15:-1 16:1 
-0 -0 -0 -0 32 0 32 1:-0.895876 2:-0.833393 3:-0.988508 4:-0.898624 5:-0.830038 6:-0.71523 7:-0.979543 8:-0.834022 9:-1 10:-1 11:-1 12:-1 13:-1 14:-1 15:-1 16:1 
-0 -0 -0 -0 32 0 32 1:-0.861541 2:-0.797755 3:-0.98246 4:-0.865106 5:-0.856736 6:-0.707009 7:-0.984006 8:-0.862976 9:-1 10:-1 11:-1 12:-1 13:-1 14:-1 15:-1 16:1 
-0 -0 -0 -0 32 0 32 1:-0.843553 2:-0.825052 3:-0.979457 4:-0.844607 5:-0.842838 6:-0.67217 7:-0.980992 8:-0.851643 9:-1 10:-1 11:-1 12:-1 13:-1 14:-1 15:-1 16:1 
-0 -0 -0 -0 32 0 0 1:-0.84888 2:-0.795728 3:-0.980096 4:-0.852064 5:-0.743698 6:-0.556603 7:-0.955659 8:-0.75965 9:-1 10:-1 11:-1 12:-1 13:-1 14:-1 15:-1 16:1 
-0 -0 -0 -0 32 0 0 1:-0.821798 2:-0.784666 3:-0.974467 4:-0.824582 5:-0.694473 6:-0.557566 7:-0.941577 8:-0.707342 9:-1 10:-1 11:-1 12:-1 13:-1 14:-1 15:-1 16:1 
-0 -0 -0 -0 32 0 0 1:-0.808164 2:-0.795533 3:-0.971665 4:-0.809572 5:-0.653342 6:-0.518785 7:-0.926372 8:-0.668913 9:-1 10:-1 11:-1 12:-1 13:-1 14:-1 15:-1 16:1 
-0 -0 -0 -0 32 0 0 1:-0.825238 2:-0.786841 3:-0.975227 4:-0.828033 5:-0.704802 6:-0.490499 7:-0.941672 8:-0.726698 9:-1 10:-1 11:-1 12:-1 13:-1 14:-1 15:-1 16:1 
-0 -0 -0 -0 32 0 0 1:-0.867022 2:-0.808009 3:-0.983561 4:-0.870165 5:-0.81461 6:-0.61759 7:-0.974344 8:-0.827341 9:-1 10:-1 11:-1 12:-1 13:-1 14:-1 15:-1 16:1 
-0 -0 -0 -0 32 0 0 1:-0.894632 2:-0.839663 3:-0.988384 4:-0.896932 5:-0.813711 6:-0.639699 7:-0.974721 8:-0.824159 9:-1 10:-1 11:-1 12:-1 13:-1 14:-1 15:-1 16:1 
-0 -0 -0 -0 32 0 32 1:-0.896366 2:-0.85864 3:-0.98882 4:-0.897608 5:-0.83082 6:-0.714192 7:-0.979665 8:-0.835037 9:-1 10:-1 11:-1 12:-1 13:-1 14:-1 15:-1 16:1 
-0 -0 -0 -0 32 0 0 1:-0.881105 2:-0.865391 3:-0.986538 4:-0.881309 5:-0.799898 6:-0.676393 7:-0.972765 8:-0.805741 9:-1 10:-1 11:-1 12:-1 13:-1 14:-1 15:-1 16:1 
-0 -0 -0 -0 32 0 0 1:-0.869161 2:-0.827965 3:-0.984153 4:-0.871203 5:-0.731982 6:-0.501911 7:-0.950221 8:-0.75383 9:-1 10:-1 11:-1 12:-1 13:-1 14:-1 15:-1 16:1 
-0 -0 -0 -0 32 0 0 1:-0.808615 2:-0.684827 3:-0.969665 4:-0.818583 5:-0.594168 6:-0.245235 7:-0.884544 8:-0.643605 9:-1 10:-1 11:-1 12:-1 13:-1 14:-1 15:-1 16:1 
-0 -0 -0 -0 32 0 0 1:-0.778595 2:-0.576041 3:-0.959544 4:-0.796829 5:-0.586169 6:-0.12756 7:-0.869971 8:-0.653261 9:-1 10:-1 11:-1 12:-1 13:-1 14:-1 15:-1 16:1 
-0 -0 -0 -0 32 0 0 1:-0.854576 2:-0.814342 3:-0.981404 4:-0.856799 5:-0.78749 6:-0.627365 7:-0.968775 8:-0.79783 9:-1 10:-1 11:-1 12:-1 13:-1 14:-1 15:-1 16:1 
-0 -0 -0 -0 32 0 0 1:-0.70351 2:-0.45387 3:-0.932386 4:-0.729594 5:-0.672372 6:-0.357428 7:-0.923669 8:-0.71028 9:-1 10:-1 11:-1 12:-1 13:-1 14:-1 15:-1 16:1 
-0 -0 -0 -0 32 0 0 1:-0.481918 2:-0.591061 3:-0.845156 4:-0.486522 5:-0.601082 6:-0.376724 7:-0.897958 8:-0.631817 9:-1 10:-1 11:-1 12:-1 13:-1 14:-1 15:-1 16:1 
-0 -0 -0 -0 32 0 0 1:-0.605349 2:-0.528532 3:-0.898793 4:-0.618831 5:-0.69907 6:-0.402904 7:-0.93538 8:-0.727255 9:-1 10:-1 11:-1 12:-1 13:-1 14:-1 15:-1 16:1 
-0 -0 -0 -0 32 0 0 1:-0.785037 2:-0.70064 3:-0.964361 4:-0.792642 5:-0.707889 6:-0.481703 7:-0.942202 8:-0.730277 9:-1 10:-1 11:-1 12:-1 13:-1 14:-1 15:-1 16:1 
-0 -0 -0 -0 32 0 0 1:-0.763027 2:-0.705831 3:-0.958789 4:-0.769254 5:-0.567822 6:-0.522972 7:-0.894469 8:-0.576874 9:-1 10:-1 11:-1 12:-1 13:-1 14:-1 15:-1 16:1 
-0 -0 -0 -0 32 0 0 1:-0.743863 2:-0.643972 3:-0.951851 4:-0.754575 5:-0.469934 6:-0.42791 7:-0.842858 8:-0.487331 9:-1 10:-1 11:-1 12:-1 13:-1 14:-1 15:-1 16:1 
-0 -0 -0 -0 32 0 0 1:-0.708388 2:-0.679099 3:-0.942157 4:-0.714813 5:-0.467981 6:-0.473352 7:-0.845786 8:-0.478171 9:-1 10:-1 11:-1 12:-1 13:-1 14:-1 15:-1 16:1 
-0 -0 -0 -0 32 0 0 1:-0.717872 2:-0.703081 3:-0.945803 4:-0.722571 5:-0.491164 6:-0.466083 7:-0.85644 8:-0.503853 9:-1 10:-1 11:-1 12:-1 13:-1 14:-1 15:-1 16:1 
-0 -0 -0 -0 32 0 32 1:-0.876547 2:-0.852789 3:-0.985679 4:-0.877168 5:-0.930077 6:-0.800751 7:-0.994748 8:-0.933161 9:-1 10:-1 11:-1 12:-1 13:-1 14:-1 15:-1 16:1 
-0 -0 -0 -0 32 0 32 1:-0.837151 2:-0.817065 3:-0.978111 4:-0.838091 5:-0.923004 6:-0.801107 7:-0.994038 8:-0.925633 9:-1 10:-1 11:-1 12:-1 13:-1 14:-1 15:-1 16:1 
-0 -0 -0 -0 32 0 32 1:-0.834037 2:-0.820065 3:-0.977528 4:-0.834578 5:-0.935194 6:-0.82612 7:-0.99543 8:-0.936832 9:-1 10:-1 11:-1 12:-1 13:-1 14:-1 15:-1 16:1 
-0 -0 -0 -0 0 32 0 1:-0.485469 2:-0.735927 3:-0.854143 4:-0.47656 5:-0.587983 6:-0.512981 7:-0.901929 8:-0.599865 9:-1 10:-1 11:-1 12:-1 13:-1 14:-1 15:1 16:-1 
-0 -0 -0 -0 32 0 0.6842039580009673 1:-0.824242 2:-0.780287 3:-0.974913 4:-0.827352 5:-0.803409 6:-0.703865 7:-0.974129 8:-0.806839 9:-1 10:-1 11:-1 12:-1 13:-1 14:-1 15:-1 16:1 
-0 -0 -0 -0 32 0 32 1:-0.85007 2:-0.803105 3:-0.980416 4:-0.852821 5:-0.829976 6:-0.723841 7:-0.979699 8:-0.833177 9:-1 10:-1 11:-1 12:-1 13:-1 14:-1 15:-1 16:1 
-0 -0 -0 -0 32 0 32 1:-0.847017 2:-0.822708 3:-0.980103 4:-0.848314 5:-0.869657 6:-0.764335 7:-0.986918 8:-0.871869 9:-1 10:-1 11:-1 12:-1 13:-1 14:-1 15:-1 16:1 
-0 -0 -0 -0 0 32 0 1:-0.729209 2:-0.805887 3:-0.951637 4:-0.726288 5:-0.925255 6:-0.759606 7:-0.99389 8:-0.931159 9:-1 10:-1 11:-1 12:-1 13:-1 14:-1 15:1 16:-1 
-0 -0 -0 -0 0 32 0 1:-0.712142 2:-0.854718 3:-0.947615 4:-0.70503 5:-0.927149 6:-0.804603 7:-0.994484 8:-0.92991 9:-1 10:-1 11:-1 12:-1 13:-1 14:-1 15:1 16:-1 
-0 -0 -0 -0 0 32 0 1:-0.728304 2:-0.808537 3:-0.951442 4:-0.725066 5:-0.904099 6:-0.734559 7:-0.991201 8:-0.910863 9:-1 10:-1 11:-1 12:-1 13:-1 14:-1 15:1 16:-1 
-0 -0 -0 -0 32 0 32 1:-0.815481 2:-0.803043 3:-0.973396 4:-0.816696 5:-0.82781 6:-0.703349 7:-0.97889 8:-0.832881 9:-1 10:-1 11:-1 12:-1 13:-1 14:-1 15:-1 16:1 
-0 -0 -0 -0 32 0 0 1:-0.812737 2:-0.783945 3:-0.972487 4:-0.815184 5:-0.802739 6:-0.665619 7:-0.973098 8:-0.809966 9:-1 10:-1 11:-1 12:-1 13:-1 14:-1 15:-1 16:1 
-0 -0 -0 -0 0 27.62118270051868 0 1:-0.713738 2:-0.574297 3:-0.940472 4:-0.729504 5:-0.810507 6:-0.610374 7:-0.973304 8:-0.823737 9:-1 10:-1 11:-1 12:-1 13:-1 14:-1 15:1 16:-1 
-0 -0 -0 -0 0 7.154313477448305 0 1:-0.204423 2:-0.55372 3:-0.668855 4:-0.200882 5:-0.581603 6:-0.379583 7:-0.890147 8:-0.612481 9:-1 10:-1 11:-1 12:-1 13:-1 14:-1 15:1 16:-1 
-0 -0 -0 -0 0 32 0 1:-0.884413 2:-0.854936 3:-0.986958 4:-0.885357 5:-0.952281 6:-0.843698 7:-0.996997 8:-0.953764 9:-1 10:-1 11:-1 12:-1 13:-1 14:-1 15:1 16:-1 
-0 -0 -0 -0 0 2.406307651140607 0 1:-0.573147 2:-0.668115 3:-0.891632 4:-0.574411 5:-0.702701 6:0.103439 7:-0.899743 8:-0.77551 9:-1 10:-1 11:-1 12:-1 13:-1 14:-1 15:1 16:-1 
-0 -0 -0 -0 0 1.8658273939959 0 1:-0.653562 2:-0.766711 3:-0.926404 4:-0.650149 5:-0.561847 6:-0.346723 7:-0.879044 8:-0.595942 9:-1 10:-1 11:-1 12:-1 13:-1 14:-1 15:1 16:-1 
-0 -0 -0 -0 32 0 0 1:-0.669137 2:-0.697401 3:-0.929786 4:-0.672186 5:-0.730208 6:-0.595142 7:-0.95344 8:-0.740868 9:-1 10:-1 11:-1 12:-1 13:-1 14:-1 15:-1 16:1 
-0 -0 -0 -0 32 0 0 1:-0.737918 2:-0.710989 3:-0.951928 4:-0.742801 5:-0.744563 6:-0.586629 7:-0.956975 8:-0.757103 9:-1 10:-1 11:-1 12:-1 13:-1 14:-1 15:-1 16:1 
-0 -0 -0 -0 32 0 0 1:-0.786848 2:-0.760374 3:-0.965984 4:-0.790202 5:-0.744345 6:-0.580228 7:-0.956703 8:-0.757503 9:-1 10:-1 11:-1 12:-1 13:-1 14:-1 15:-1 16:1 
-0 -0 -0 -0 32 0 0 1:-0.77502 2:-0.733211 3:-0.962508 4:-0.77986 5:-0.722758 6:-0.584168 7:-0.950971 8:-0.734284 9:-1 10:-1 11:-1 12:-1 13:-1 14:-1 15:-1 16:1 
-0 -0 -0 -0 32 0 0 1:-0.735066 2:-0.697533 3:-0.950774 4:-0.740997 5:-0.751065 6:-0.618139 7:-0.959726 8:-0.760347 9:-1 10:-1 11:-1 12:-1 13:-1 14:-1 15:-1 16:1 
-0 -0 -0 -0 32 0 0 1:-0.721445 2:-0.734142 3:-0.947705 4:-0.72369 5:-0.75249 6:-0.552837 7:-0.957779 8:-0.769552 9:-1 10:-1 11:-1 12:-1 13:-1 14:-1 15:-1 16:1 
-0 -0 -0 -0 12.048334483756 0 0 1:-0.571196 2:-0.472193 3:-0.881037 4:-0.592672 5:-0.344009 6:0.0678979 7:-0.70172 8:-0.426854 9:-1 10:-1 11:-1 12:-1 13:-1 14:-1 15:-1 16:1 
-0 -0 -0 -0 32 0 0 1:-0.465932 2:-0.448396 3:-0.827544 4:-0.486882 5:-0.188157 6:-0.23302 7:-0.642081 8:-0.222059 9:-1 10:-1 11:-1 12:-1 13:-1 14:-1 15:-1 16:1 
-0 -0 -0 -0 32 0 0 1:-0.504744 2:-0.440878 3:-0.847281 4:-0.528131 5:-0.278024 6:-0.229263 7:-0.705881 8:-0.318073 9:-1 10:-1 11:-1 12:-1 13:-1 14:-1 15:-1 16:1 
-0 -0 -0 -0 32 0 0 1:-0.53796 2:-0.558479 3:-0.870686 4:-0.548914 5:-0.38744 6:-0.36234 7:-0.792057 8:-0.410092 9:-1 10:-1 11:-1 12:-1 13:-1 14:-1 15:-1 16:1 
-0 -0 -0 -0 32 0 0 1:-0.509297 2:-0.555853 3:-0.856826 4:-0.519333 5:-0.306176 6:-0.317877 7:-0.737236 8:-0.331494 9:-1 10:-1 11:-1 12:-1 13:-1 14:-1 15:-1 16:1 
-0 -0 -0 -0 32 0 32 1:-0.92327 2:-0.870951 3:-0.992569 4:-0.925034 5:-0.868471 6:-0.775598 7:-0.986887 8:-0.869592 9:-1 10:-1 11:-1 12:-1 13:-1 14:-1 15:-1 16:1 
-0.6923358285503053 -0.9150482962110711 -0.7265256862614754 -0.4330833972684607 32 0.5327187011550123 32 1:-0.93604 2:-0.899841 3:-0.994282 4:-0.936762 5:-0.896378 6:-0.845967 7:-0.991449 8:-0.893943 9:-1 10:-1 11:-1 12:-1 13:-1 14:-1 15:-1 16:1 
-0 -0 -0 -0 32 0 32 1:-0.924533 2:-0.884746 3:-0.992822 4:-0.925595 5:-0.887684 6:-0.875423 7:-0.990649 8:-0.88256 9:-1 10:-1 11:-1 12:-1 13:-1 14:-1 15:-1 16:1 
-0 -0 -0 -0 0 0 4.588819967974034 1:-0.67366 2:-0.740757 3:-0.932607 4:-0.673302 5:-0.496035 6:-0.577787 7:-0.866955 8:-0.492869 9:-1 10:-1 11:-1 12:-1 13:-1 14:-1 15:1 16:-1 
-0 -0 -0 -0 32 0 0 1:-0.386099 2:-0.49257 3:-0.785521 4:-0.397531 5:-0.603384 6:-0.60123 7:-0.912827 8:-0.604644 9:-1 10:-1 11:-1 12:-1 13:-1 14:-1 15:-1 16:1 
-0 -0 -0 -0 32 0 10.15005614342018 1:-0.253555 2:-0.336031 3:-0.682892 4:-0.280181 5:-0.58062 6:-0.385475 7:-0.890176 8:-0.610437 9:-1 10:-1 11:-1 12:-1 13:-1 14:-1 15:-1 16:1 
-0.4601865902351752 -0.6405810050578983 -0.501100262654399 -0.3049669788049895 32 0.3737009708851753 0.2780799342208699 1:-0.0717428 2:-0.399035 3:-0.545326 4:-0.0822633 5:-0.582024 6:-0.309282 7:-0.884741 8:-0.622804 9:-1 10:-1 11:-1 12:-1 13:-1 14:-1 15:-1 16:1 
-0 -0 -0 -0 32 0 0 1:-0.330406 2:-0.33518 3:-0.736207 4:-0.360369 5:-0.545826 6:-0.430358 7:-0.878659 8:-0.567354 9:-1 10:-1 11:-1 12:-1 13:-1 14:-1 15:-1 16:1 
-0 -0 -0 -0 32 0 0 1:-0.606934 2:-0.634277 3:-0.904184 4:-0.613282 5:-0.41159 6:-0.493667 7:-0.818558 8:-0.41456 9:-1 10:-1 11:-1 12:-1 13:-1 14:-1 15:-1 16:1 
-0 -0 -0 -0 32 0 0 1:-0.660337 2:-0.674571 3:-0.925919 4:-0.665187 5:-0.457233 6:-0.424037 7:-0.836098 8:-0.473997 9:-1 10:-1 11:-1 12:-1 13:-1 14:-1 15:-1 16:1 
-0 -0 -0 -0 32 0 0 1:-0.565849 2:-0.586634 3:-0.884769 4:-0.575057 5:-0.485455 6:-0.404967 7:-0.848461 8:-0.506992 9:-1 10:-1 11:-1 12:-1 13:-1 14:-1 15:-1 16:1 
-0 -0 -0 -0 32 0 0 1:-0.500385 2:-0.511432 3:-0.849743 4:-0.51504 5:-0.364536 6:-0.418558 7:-0.784958 8:-0.376474 9:-1 10:-1 11:-1 12:-1 13:-1 14:-1 15:-1 16:1 
-0 -0 -0 -0 32 0 0 1:-0.627776 2:-0.50304 3:-0.906643 4:-0.648185 5:-0.419425 6:-0.403132 7:-0.814228 8:-0.437522 9:-1 10:-1 11:-1 12:-1 13:-1 14:-1 15:-1 16:1 
-0 -0 -0 -0 32 0 0 1:-0.723333 2:-0.661333 3:-0.946277 4:-0.731912 5:-0.510193 6:-0.452056 7:-0.864261 8:-0.526239 9:-1 10:-1 11:-1 12:-1 13:-1 14:-1 15:-1 16:1 
-0 -0 -0 -0 0 9.692103676935625 0 1:-0.541601 2:-0.664899 3:-0.877615 4:-0.54192 5:-0.479471 6:-0.426739 7:-0.84739 8:-0.497683 9:-1 10:-1 11:-1 12:-1 13:-1 14:-1 15:1 16:-1 
-0 -0 -0 -0 0 22.19487520156358 22.45019913953598 1:-0.905372 2:-0.717278 3:-0.988641 4:-0.91557 5:-0.881066 6:-0.846587 7:-0.989513 8:-0.877535 9:-1 10:-1 11:-1 12:-1 13:-1 14:-1 15:1 16:-1 
-0 -0 -0 -0 32 0 32 1:-0.923172 2:-0.854856 3:-0.992436 4:-0.925859 5:-0.879625 6:-0.777191 7:-0.988519 8:-0.881345 9:-1 10:-1 11:-1 12:-1 13:-1 14:-1 15:-1 16:1 
-0 -0 -0 -0 -0 32 0 1:-0.816781 2:-0.790301 3:-0.973279 4:-0.819811 5:-0.770268 6:-0.675894 7:-0.966173 8:-0.77448 9:-1 10:-1 11:-1 12:-1 13:-1 14:1 15:-1 16:-1 
-0 -0 -0 -0 -0 32 0 1:-0.775276 2:-0.764207 3:-0.96309 4:-0.778183 5:-0.708959 6:-0.627185 7:-0.948638 8:-0.714756 9:-1 10:-1 11:-1 12:-1 13:-1 14:1 15:-1 16:-1 
-0 -0 -0 -0 -0 32 0 1:-0.775892 2:-0.715782 3:-0.962327 4:-0.782264 5:-0.733575 6:-0.550055 7:-0.95265 8:-0.749927 9:-1 10:-1 11:-1 12:-1 13:-1 14:1 15:-1 16:-1 
-0 -0 -0 -0 -0 32 0 1:-0.807895 2:-0.757069 3:-0.970922 4:-0.812209 5:-0.790211 6:-0.59434 7:-0.968429 8:-0.804477 9:-1 10:-1 11:-1 12:-1 13:-1 14:1 15:-1 16:-1 
-0 -0 -0 -0 -0 32 0 1:-0.796908 2:-0.799985 3:-0.969171 4:-0.797518 5:-0.748727 6:-0.615436 7:-0.959052 8:-0.75826 9:-1 10:-1 11:-1 12:-1 13:-1 14:1 15:-1 16:-1 
-0 -0 -0 -0 -0 32 0 1:-0.78448 2:-0.806441 3:-0.966317 4:-0.784104 5:-0.767879 6:-0.600819 7:-0.963373 8:-0.780123 9:-1 10:-1 11:-1 12:-1 13:-1 14:1 15:-1 16:-1 
-0 -0 -0 -0 -0 32 0 1:-0.780575 2:-0.767128 3:-0.964458 4:-0.783571 5:-0.798241 6:-0.603841 7:-0.970499 8:-0.811883 9:-1 10:-1 11:-1 12:-1 13:-1 14:1 15:-1 16:-1 
-0 -0 -0 -0 -0 32 0 1:-0.785741 2:-0.746535 3:-0.965347 4:-0.790418 5:-0.78429 6:-0.597068 7:-0.967153 8:-0.797924 9:-1 10:-1 11:-1 12:-1 13:-1 14:1 15:-1 16:-1 
-0 -0 -0 -0 -0 32 0 1:-0.799817 2:-0.788638 3:-0.969593 4:-0.801603 5:-0.798059 6:-0.663429 7:-0.972051 8:-0.805368 9:-1 10:-1 11:-1 12:-1 13:-1 14:1 15:-1 16:-1 
-0 -0 -0 -0 -0 32 0 1:-0.796446 2:-0.774405 3:-0.968592 4:-0.798925 5:-0.788126 6:-0.662223 7:-0.969729 8:-0.795544 9:-1 10:-1 11:-1 12:-1 13:-1 14:1 15:-1 16:-1 
-0 -0 -0 -0 -0 32 0 1:-0.806749 2:-0.803823 3:-0.971447 4:-0.807684 5:-0.83729 6:-0.682741 7:-0.980164 8:-0.845231 9:-1 10:-1 11:-1 12:-1 13:-1 14:1 15:-1 16:-1 
-0 -0 -0 -0 -0 32 0 1:-0.81311 2:-0.830877 3:-0.973244 4:-0.812591 5:-0.865258 6:-0.747616 7:-0.986013 8:-0.868726 9:-1 10:-1 11:-1 12:-1 13:-1 14:1 15:-1 16:-1 
-0 -0 -0 -0 -0 32 0 1:-0.780392 2:-0.741895 3:-0.964012 4:-0.784827 5:-0.799118 6:-0.623354 7:-0.971232 8:-0.810628 9:-1 10:-1 11:-1 12:-1 13:-1 14:1 15:-1 16:-1 
-0 -0 -0 -0 -0 32 0 1:-0.722636 2:-0.701475 3:-0.946946 4:-0.728491 5:-0.731302 6:-0.602487 7:-0.953999 8:-0.741336 9:-1 10:-1 11:-1 12:-1 13:-1 14:1 15:-1 16:-1 
-0 -0 -0 -0 -0 32 0 1:-0.69963 2:-0.721434 3:-0.940465 4:-0.702431 5:-0.756303 6:-0.592949 7:-0.960192 8:-0.768781 9:-1 10:-1 11:-1 12:-1 13:-1 14:1 15:-1 16:-1 
-0 -0 -0 -0 -0 32 0 1:-0.74078 2:-0.750059 3:-0.953501 4:-0.743355 5:-0.801702 6:-0.630545 7:-0.971896 8:-0.813054 9:-1 10:-1 11:-1 12:-1 13:-1 14:1 15:-1 16:-1 
-0 -0 -0 -0 -0 32 0 1:-0.787256 2:-0.823271 3:-0.967251 4:-0.785947 5:-0.773141 6:-0.623119 7:-0.965278 8:-0.783439 9:-1 10:-1 11:-1 12:-1 13:-1 14:1 15:-1 16:-1 
-0 -0 -0 -0 -0 32 0 1:-0.804544 2:-0.809399 3:-0.971024 4:-0.805079 5:-0.743505 6:-0.615525 7:-0.957708 8:-0.752471 9:-1 10:-1 11:-1 12:-1 13:-1 14:1 15:-1 16:-1 
-0 -0 -0 -0 -0 32 0 1:-0.820281 2:-0.783308 3:-0.973974 4:-0.823763 5:-0.772024 6:-0.614094 7:-0.964796 8:-0.782966 9:-1 10:-1 11:-1 12:-1 13:-1 14:1 15:-1 16:-1 
-0 -0 -0 -0 -0 32 0 1:-0.799017 2:-0.810741 3:-0.969813 4:-0.799069 5:-0.806132 6:-0.605842 7:-0.972212 8:-0.820165 9:-1 10:-1 11:-1 12:-1 13:-1 14:1 15:-1 16:-1 
