svm_type c_svc
kernel_type rbf
gamma 8
nr_class 8
total_sv 2043
rho 0.477949 0.385799 -0.154306 0.270538 0.16735 0.116445 -0.130833 0.145037 -0.639319 -0.146744 -0.25082 -0.298892 -0.505652 -0.671764 -0.17966 -0.282226 -0.329392 -0.530395 0.407816 0.313598 0.265989 0.023946 -0.221453 -0.188761 -0.326426 -0.208146 -0.281624 -0.143692
label 11 13 12 14 23 22 24 21
probA -3.99822 -4.87046 -5.89194 -6.38983 -6.54118 -6.05038 -6.35556 -3.06504 -2.38069 -6.82641 -6.93895 -6.73712 -6.74046 -4.20007 -6.83559 -6.99929 -6.78726 -6.73325 -6.19892 -6.34842 -5.61847 -6.19944 -3.10539 -1.98795 -2.88566 -3.27153 -3.94115 -4.81059
probB -0.277201 0.992273 -0.266444 0.322715 0.483805 0.237248 0.151444 -0.889837 -0.213946 0.0645548 0.0484437 0.57959 -0.0286635 -1.24381 -0.0237756 -0.00230337 0.639855 -0.0020258 0.451741 0.525607 -0.147262 -0.0665112 0.742524 -0.615257 -0.154493 -0.480515 -0.761723 0.192636
nr_sv 71 410 302 219 411 241 269 120
SV
0 0.1773514133727248 0.1152076152515409 0.1631710410332416 0.1488442512158931 0.142118137744318 0.1181674181895817 1:-0.604148 2:-0.291815 3:-0.89628 4:-0.6237 5:1 6:-1 7:-1 8:-1 9:-1 10:-1 11:-1 12:-1 
1.373747496952924 1.081881379720158 0.6596881097384284 0.9921445088058477 0.9113212927173827 0.871674187877989 0.6777248278554264 1:-0.784744 2:-0.981323 3:-0.971479 4:-0.764583 5:1 6:-1 7:-1 8:-1 9:-1 10:-1 11:-1 12:-1 
0.9125407557124862 1.060800492048855 0.6451119284495082 0.9720874605883651 0.8931628268381703 0.8542504402567561 0.6631653914368797 1:-0.64551 2:-0.0145093 3:-0.896047 4:-0.700034 5:1 6:-1 7:-1 8:-1 9:-1 10:-1 11:-1 12:-1 
2 1.124583540477212 0 0 0 0 0 1:-0.34286 2:-0.535394 3:-0.779026 4:-0.314632 5:-1 6:-1 7:-1 8:1 9:-1 10:-1 11:-1 12:-1 
1.236210445265983 1.381830762691911 0.6076547516470898 0.9146667352696074 0.8411052178036864 0.8035196573464846 0.6251556052467764 1:-0.776988 2:-0.993183 3:-0.969814 4:-0.755847 5:-1 6:-1 7:-1 8:1 9:-1 10:-1 11:-1 12:-1 
2 2 0.4499041876271127 0.673669285527931 0.6187059859665011 0.5915648836995907 0.4606163780379801 1:0.0795571 2:0.0873839 3:-0.358385 4:0.0525881 5:-1 6:-1 7:-1 8:1 9:-1 10:-1 11:-1 12:-1 
0.883488122787089 1.663532229520357 0.718486554769964 1.078540121693923 0.9908235016201328 0.9479611175188387 0.7373532809103689 1:-0.465789 2:0.183606 3:-0.785847 4:-0.53502 5:-1 6:-1 7:-1 8:1 9:-1 10:-1 11:-1 12:-1 
0 0.468865111000683 0.2905240223449192 0.4307994925446957 0.3951119231161506 0.377248360435856 0.2978892138463177 1:-0.660584 2:-0.604376 3:-0.930881 4:-0.652411 5:1 6:-1 7:-1 8:-1 9:-1 10:-1 11:-1 12:-1 
0 0.385718781738898 0.1079853032260119 0.1571072287263022 0.1450123384383327 0.1394780018815756 0.1064438785675515 1:-0.563908 2:-0.177638 3:-0.871421 4:-0.594268 5:-1 6:-1 7:-1 8:1 9:-1 10:-1 11:-1 12:-1 
0 1.560837773777637 0 0 0 0 0 1:-0.489245 2:-0.114175 3:-0.829377 4:-0.521791 5:-1 6:-1 7:-1 8:1 9:-1 10:-1 11:-1 12:-1 
0 0.6878296580536498 0.5172418850522239 0.7811147537870246 0.7176824698433546 0.6858321185394638 0.5351954775743399 1:-0.662134 2:-0.375081 3:-0.922847 4:-0.677133 5:-1 6:-1 7:-1 8:1 9:-1 10:-1 11:-1 12:-1 
0 1.465840281304026 0.1777899535884155 0.264669548740375 0.2430813463453823 0.2338090610062022 0.180681292733481 1:-0.736909 2:-0.681984 3:-0.956047 4:-0.728637 5:-1 6:-1 7:-1 8:1 9:-1 10:-1 11:-1 12:-1 
0 0.2512578926618736 0.1443264957304541 0.2291750594472872 0.212439262229466 0.2035934193777707 0.149434471074211 1:-0.581281 2:-0.430021 3:-0.894105 4:-0.58416 5:1 6:-1 7:-1 8:-1 9:-1 10:-1 11:-1 12:-1 
0.4729586239532587 0.5835351767132432 0.3498800597087204 0.5315520952137869 0.4883907208332788 0.4729084011306975 0.3697571896570613 1:-0.222044 2:0.548621 3:-0.546122 4:-0.335039 5:1 6:-1 7:-1 8:-1 9:-1 10:-1 11:-1 12:-1 
0.9214967011117082 0.539230922889989 0.3353036088390926 0.4975199732379333 0.457562722125813 0.4312952048464472 0.3340260599292014 1:-0.257998 2:0.588051 3:-0.569178 4:-0.377758 5:1 6:-1 7:-1 8:-1 9:-1 10:-1 11:-1 12:-1 
1.060985465897997 2 0.09224173793321365 0.1424206081298218 0.1302772284705866 0.1233855413400777 0.0981206512854635 1:-0.429573 2:-0.071348 3:-0.792014 4:-0.463866 5:-1 6:-1 7:-1 8:1 9:-1 10:-1 11:-1 12:-1 
0 0.8700405388287756 0 0 0 0 0 1:-0.728692 2:-0.739734 3:-0.95494 4:-0.715468 5:-1 6:-1 7:-1 8:1 9:-1 10:-1 11:-1 12:-1 
0 1.887445552638811 0 0 0 0 0 1:-0.663414 2:-0.737082 3:-0.935317 4:-0.644731 5:-1 6:-1 7:-1 8:1 9:-1 10:-1 11:-1 12:-1 
0 2 0 0 0 0 0 1:-0.73337 2:-0.730419 3:-0.956043 4:-0.721195 5:-1 6:-1 7:-1 8:1 9:-1 10:-1 11:-1 12:-1 
2 0 0 0 0 0 0 1:-0.372164 2:-0.420036 3:-0.788607 4:-0.359522 5:1 6:-1 7:-1 8:-1 9:-1 10:-1 11:-1 12:-1 
0.2437290076489516 0 0 0 0 0 0 1:-0.458498 2:-0.659051 3:-0.848634 4:-0.428241 5:1 6:-1 7:-1 8:-1 9:-1 10:-1 11:-1 12:-1 
2 0.6426789361326298 0.3906389767580978 0.5892238079044826 0.5413683426764149 0.5181383221619147 0.4039626391733632 1:-0.254667 2:-0.364935 3:-0.70932 4:-0.238831 5:1 6:-1 7:-1 8:-1 9:-1 10:-1 11:-1 12:-1 
2 0 0 0 0 0 0 1:-0.369835 2:-0.226958 3:-0.771301 4:-0.378879 5:1 6:-1 7:-1 8:-1 9:-1 10:-1 11:-1 12:-1 
0 2 0 0 0 0 0 1:-0.529653 2:-0.582149 3:-0.878893 4:-0.51237 5:-1 6:-1 7:-1 8:1 9:-1 10:-1 11:-1 12:-1 
0 2 0 0 0 0 0 1:-0.549338 2:-0.562481 3:-0.886672 4:-0.535652 5:-1 6:-1 7:-1 8:1 9:-1 10:-1 11:-1 12:-1 
0 1.246834036260313 0 0 0 0 0 1:-0.675653 2:-0.72319 3:-0.938939 4:-0.659044 5:-1 6:-1 7:-1 8:1 9:-1 10:-1 11:-1 12:-1 
2 0 0 0 0 0 0 1:-0.421473 2:-0.477509 3:-0.82013 4:-0.406429 5:1 6:-1 7:-1 8:-1 9:-1 10:-1 11:-1 12:-1 
2 0 0 0 0 0 0 1:-0.426603 2:-0.456482 3:-0.821686 4:-0.414165 5:1 6:-1 7:-1 8:-1 9:-1 10:-1 11:-1 12:-1 
2 0 0 0 0 0 0 1:-0.381725 2:-0.518632 3:-0.80069 4:-0.358481 5:-1 6:-1 7:-1 8:1 9:-1 10:-1 11:-1 12:-1 
0 2 0 0 0 0 0 1:-0.51805 2:-0.579802 3:-0.87358 4:-0.499915 5:-1 6:-1 7:-1 8:1 9:-1 10:-1 11:-1 12:-1 
2 0 0 0 0 0 0 1:-0.327726 2:-0.484088 3:-0.766451 4:-0.30352 5:-1 6:-1 7:-1 8:1 9:-1 10:-1 11:-1 12:-1 
2 0 0 0 0 0 0 1:-0.431757 2:-0.608728 3:-0.832833 4:-0.403671 5:-1 6:-1 7:-1 8:1 9:-1 10:-1 11:-1 12:-1 
1.695089298245428 0 0 0 0 0 0 1:-0.457021 2:-0.505853 3:-0.840541 4:-0.441126 5:-1 6:-1 7:-1 8:1 9:-1 10:-1 11:-1 12:-1 
2 0 0 0 0 0 0 1:-0.375835 2:-0.485271 3:-0.795219 4:-0.355671 5:-1 6:-1 7:-1 8:1 9:-1 10:-1 11:-1 12:-1 
2 0 0 0 0 0 0 1:-0.408856 2:-0.534127 3:-0.816721 4:-0.386253 5:-1 6:-1 7:-1 8:1 9:-1 10:-1 11:-1 12:-1 
2 0 0 0 0 0 0 1:-0.43466 2:-0.542561 3:-0.830978 4:-0.413538 5:-1 6:-1 7:-1 8:1 9:-1 10:-1 11:-1 12:-1 
2 0 0 0 0 0 0 1:-0.440658 2:-0.615628 3:-0.837759 4:-0.412803 5:-1 6:-1 7:-1 8:1 9:-1 10:-1 11:-1 12:-1 
0 2 0 0 0 0 0 1:-0.524045 2:-0.546156 3:-0.874781 4:-0.51003 5:-1 6:-1 7:-1 8:1 9:-1 10:-1 11:-1 12:-1 
2 0 0 0 0 0 0 1:-0.442757 2:-0.565806 3:-0.836414 4:-0.419821 5:1 6:-1 7:-1 8:-1 9:-1 10:-1 11:-1 12:-1 
2 0 0 0 0 0 0 1:-0.433782 2:-0.542238 3:-0.83051 4:-0.412419 5:1 6:-1 7:-1 8:-1 9:-1 10:-1 11:-1 12:-1 
2 0 0 0 0 0 0 1:-0.379378 2:-0.664465 3:-0.807155 4:-0.341728 5:1 6:-1 7:-1 8:-1 9:-1 10:-1 11:-1 12:-1 
2 0 0 0 0 0 0 1:-0.364963 2:-0.599706 3:-0.79575 4:-0.331984 5:1 6:-1 7:-1 8:-1 9:-1 10:-1 11:-1 12:-1 
1.098512107340081 0 0 0 0 0 0 1:-0.31911 2:-0.0218151 3:-0.71638 4:-0.357871 5:1 6:-1 7:-1 8:-1 9:-1 10:-1 11:-1 12:-1 
2 0.7142672576280089 0.4364195167196314 0.6546560035428661 0.6019237247253814 0.5752992824705819 0.4472420157279255 1:-0.314957 2:-0.0240109 3:-0.713725 4:-0.352886 5:1 6:-1 7:-1 8:-1 9:-1 10:-1 11:-1 12:-1 
2 0 0 0 0 0 0 1:-0.429506 2:-0.56099 3:-0.829263 4:-0.405966 5:1 6:-1 7:-1 8:-1 9:-1 10:-1 11:-1 12:-1 
2 0 0 0 0 0 0 1:-0.435522 2:-0.526411 3:-0.830552 4:-0.415987 5:1 6:-1 7:-1 8:-1 9:-1 10:-1 11:-1 12:-1 
2 0 0 0 0 0 0 1:-0.459022 2:-0.640069 3:-0.848125 4:-0.430424 5:1 6:-1 7:-1 8:-1 9:-1 10:-1 11:-1 12:-1 
2 0 0 0 0 0 0 1:-0.437983 2:-0.467344 3:-0.828434 4:-0.425194 5:-1 6:-1 7:-1 8:1 9:-1 10:-1 11:-1 12:-1 
0 0.6422172539028276 0 0 0 0 0 1:-0.562475 2:-0.545825 3:-0.891557 4:-0.551583 5:-1 6:-1 7:-1 8:1 9:-1 10:-1 11:-1 12:-1 
2 0 0 0 0 0 0 1:-0.408689 2:-0.336864 3:-0.803468 4:-0.408954 5:-1 6:-1 7:-1 8:1 9:-1 10:-1 11:-1 12:-1 
2 1.182672101182792 0 0 0 0 0 1:-0.377547 2:-0.291435 3:-0.781692 4:-0.380101 5:-1 6:-1 7:-1 8:1 9:-1 10:-1 11:-1 12:-1 
1.453311781662718 0 0 0 0 0 0 1:-0.467275 2:-0.510408 3:-0.845966 4:-0.452159 5:1 6:-1 7:-1 8:-1 9:-1 10:-1 11:-1 12:-1 
0 0.541516050969326 0.3300624668573586 0.4967892106282441 0.455428627849425 0.4360560592137659 0.3400834508701498 1:-0.360681 2:0.338467 3:-0.695402 4:-0.454039 5:1 6:-1 7:-1 8:-1 9:-1 10:-1 11:-1 12:-1 
2 0 0 0 0 0 0 1:-0.444622 2:-0.621831 3:-0.840073 4:-0.416385 5:1 6:-1 7:-1 8:-1 9:-1 10:-1 11:-1 12:-1 
2 0 0 0 0 0 0 1:-0.40182 2:-0.389815 3:-0.803517 4:-0.394843 5:-1 6:-1 7:-1 8:1 9:-1 10:-1 11:-1 12:-1 
2 1.001166455572129 0.6084226450154322 0.9128680693847553 0.8385035997664614 0.8026613247432701 0.6248290772742598 1:-0.316955 2:-0.418122 3:-0.754873 4:-0.299759 5:-1 6:-1 7:-1 8:1 9:-1 10:-1 11:-1 12:-1 
2 0 0 0 0 0 0 1:-0.399462 2:-0.476244 3:-0.808032 4:-0.382312 5:-1 6:-1 7:-1 8:1 9:-1 10:-1 11:-1 12:-1 
0 1.308158721843328 0 0 0 0 0 1:-0.501013 2:-0.475432 3:-0.860579 4:-0.492679 5:-1 6:-1 7:-1 8:1 9:-1 10:-1 11:-1 12:-1 
2 0 0 0 0 0 0 1:-0.417251 2:-0.554174 3:-0.82238 4:-0.39326 5:1 6:-1 7:-1 8:-1 9:-1 10:-1 11:-1 12:-1 
2 0 0 0 0 0 0 1:-0.424682 2:-0.57111 3:-0.827238 4:-0.399655 5:-1 6:-1 7:-1 8:1 9:-1 10:-1 11:-1 12:-1 
2 0.5702165356861306 0.3499132806641659 0.5227503580047554 0.4802568544586939 0.4591522505745999 0.3578132605843073 1:-0.31361 2:-0.569275 3:-0.763319 4:-0.279209 5:1 6:-1 7:-1 8:-1 9:-1 10:-1 11:-1 12:-1 
2 0 0 0 0 0 0 1:-0.378051 2:-0.511569 3:-0.798157 4:-0.355264 5:1 6:-1 7:-1 8:-1 9:-1 10:-1 11:-1 12:-1 
2 0 0 0 0 0 0 1:-0.460027 2:-0.599861 3:-0.846837 4:-0.435268 5:1 6:-1 7:-1 8:-1 9:-1 10:-1 11:-1 12:-1 
0 0.4064294544281954 0 0 0 0 0 1:-0.49141 2:-0.544322 3:-0.859528 4:-0.474777 5:-1 6:-1 7:-1 8:1 9:-1 10:-1 11:-1 12:-1 
2 0 0 0 0 0 0 1:-0.393481 2:-0.557724 3:-0.809579 4:-0.366798 5:1 6:-1 7:-1 8:-1 9:-1 10:-1 11:-1 12:-1 
2 0 0 0 0 0 0 1:-0.391982 2:-0.475852 3:-0.803826 4:-0.373636 5:1 6:-1 7:-1 8:-1 9:-1 10:-1 11:-1 12:-1 
0 0.9232755409843028 0.196601305021436 0.2952642922297504 0.2701502530199521 0.258555055488086 0.2031863600294412 1:-0.575206 2:-0.955819 3:-0.907599 4:-0.537273 5:-1 6:-1 7:-1 8:1 9:-1 10:-1 11:-1 12:-1 
2 0 0 0 0 0 0 1:-0.436488 2:-0.780728 3:-0.842021 4:-0.394922 5:1 6:-1 7:-1 8:-1 9:-1 10:-1 11:-1 12:-1 
0 0.8201543621612339 0.4997543635742077 0.7520558764102446 0.6906264297477711 0.6608584285439054 0.514130082091826 1:-0.495547 2:-0.892001 3:-0.873106 4:-0.453008 5:1 6:-1 7:-1 8:-1 9:-1 10:-1 11:-1 12:-1 
2 2 0.4358073559673555 0.6565616801721457 0.6034782668848322 0.5773452693519902 0.4493696545143637 1:0.0411897 2:0.181103 3:-0.377474 4:0.00338585 5:-1 6:-1 7:-1 8:1 9:-1 10:-1 11:-1 12:-1 
0.3946458076022138 0.5866571049140898 0.4334378223397098 0.6517747624528407 0.5998560847018835 0.5730879846051322 0.4449445314854204 1:-0.445721 2:-0.789624 3:-0.846928 4:-0.404392 5:-1 6:-1 7:-1 8:1 9:-1 10:-1 11:-1 12:-1 
-2 0 0 0 0 0 0 1:-0.415284 2:-0.528394 3:-0.819887 4:-0.39376 5:1 6:-1 7:-1 8:-1 9:-1 10:-1 11:-1 12:-1 
-2 0.5694001837152108 0.179971703003737 0.4247552429985769 0.3716958886364751 0.3475066323086805 0.245791792430189 1:-0.327171 2:-0.264974 3:-0.748156 4:-0.330931 5:1 6:-1 7:-1 8:-1 9:-1 10:-1 11:-1 12:-1 
-0 0 2 0 0 0 0 1:0.0668965 2:-0.225451 3:-0.427363 4:0.0887074 5:-1 6:1 7:-1 8:-1 9:-1 10:-1 11:-1 12:-1 
-0 0 2 0 0 0 0 1:-0.131941 2:-0.352205 3:-0.617638 4:-0.108252 5:-1 6:1 7:-1 8:-1 9:-1 10:-1 11:-1 12:-1 
-0 0 2 0 0 0 0 1:0.0459719 2:-0.344489 3:-0.463876 4:0.0837753 5:-1 6:1 7:-1 8:-1 9:-1 10:-1 11:-1 12:-1 
-0.03862531259462624 0 2 0.05624244691574369 0.05164246056366579 0.04373229661256403 0.03531081972655711 1:0.0980969 2:-0.370891 3:-0.417623 4:0.143638 5:-1 6:1 7:-1 8:-1 9:-1 10:-1 11:-1 12:-1 
-0 0 2 0 0 0 0 1:-0.0944079 2:-0.319486 3:-0.583794 4:-0.0719021 5:-1 6:1 7:-1 8:-1 9:-1 10:-1 11:-1 12:-1 
-0 0 2 0 0 0 0 1:-0.202247 2:-0.376761 3:-0.673334 4:-0.181049 5:-1 6:1 7:-1 8:-1 9:-1 10:-1 11:-1 12:-1 
-0 0 2 0 0 0 0 1:-0.158743 2:-0.313794 3:-0.634346 4:-0.142573 5:-1 6:1 7:-1 8:-1 9:-1 10:-1 11:-1 12:-1 
-0 0 2 0 0 0 0 1:0.0774136 2:-0.185116 3:-0.41085 4:0.0936855 5:-1 6:1 7:-1 8:-1 9:-1 10:-1 11:-1 12:-1 
-0 0 2 0 0 0 0 1:-0.121858 2:-0.317295 3:-0.605792 4:-0.10182 5:-1 6:1 7:-1 8:-1 9:-1 10:-1 11:-1 12:-1 
-0 0 2 0 0 0 0 1:-0.0238379 2:-0.243474 3:-0.513655 4:-0.00694157 5:-1 6:1 7:-1 8:-1 9:-1 10:-1 11:-1 12:-1 
-0 2 0 0 0 0 0 1:-0.234105 2:-0.412627 3:-0.699369 4:-0.210968 5:-1 6:-1 7:1 8:-1 9:-1 10:-1 11:-1 12:-1 
-0 2 0 0 0 0 0 1:0.06236 2:-0.13348 3:-0.417046 4:0.0697479 5:-1 6:-1 7:1 8:-1 9:-1 10:-1 11:-1 12:-1 
-0 2 0 0 0 0 0 1:0.13646 2:-0.164988 3:-0.348281 4:0.154425 5:-1 6:-1 7:1 8:-1 9:-1 10:-1 11:-1 12:-1 
-0 2 0 0 0 0 0 1:0.0937011 2:-0.300325 3:-0.41237 4:0.128928 5:-1 6:-1 7:1 8:-1 9:-1 10:-1 11:-1 12:-1 
-0 2 0 0 0 0 0 1:0.212286 2:-0.249445 3:-0.282919 4:0.250136 5:-1 6:-1 7:1 8:-1 9:-1 10:-1 11:-1 12:-1 
-0 2 0 0 0 0 0 1:-0.292781 2:-0.413399 3:-0.739008 4:-0.274583 5:-1 6:-1 7:1 8:-1 9:-1 10:-1 11:-1 12:-1 
-0 2 0 0 0 0 0 1:-0.210119 2:-0.340921 3:-0.675459 4:-0.194382 5:-1 6:-1 7:1 8:-1 9:-1 10:-1 11:-1 12:-1 
-0 2 0 0 0 0 0 1:-0.096816 2:-0.362924 3:-0.590549 4:-0.0688112 5:-1 6:-1 7:1 8:-1 9:-1 10:-1 11:-1 12:-1 
-0 2 0 0 0 0 0 1:-0.000273996 2:-0.405772 3:-0.513344 4:0.0416887 5:-1 6:-1 7:1 8:-1 9:-1 10:-1 11:-1 12:-1 
-0.3019512490002882 2 0.1769408032414649 0.4949212932575872 0.4346233458737543 0.4066096391895812 0.2867526337799169 1:0.140448 2:-0.410127 3:-0.381143 4:0.195263 5:-1 6:-1 7:1 8:-1 9:-1 10:-1 11:-1 12:-1 
-0 2 0 0 0 0 0 1:0.234391 2:-0.311299 3:-0.269047 4:0.283335 5:-1 6:-1 7:1 8:-1 9:-1 10:-1 11:-1 12:-1 
-0 2 0 0 0 0 0 1:0.295387 2:-0.288029 3:-0.197348 4:0.34625 5:-1 6:-1 7:1 8:-1 9:-1 10:-1 11:-1 12:-1 
-0.4027053500819731 2 1.549687967066212 0.6571711335130246 0.5795987038578266 0.5418777450556005 0.3816495409346001 1:-0.390195 2:-0.575446 3:-0.808715 4:-0.361864 5:-1 6:-1 7:1 8:-1 9:-1 10:-1 11:-1 12:-1 
-0 2 0 0 0 0 0 1:-0.297298 2:-0.509891 3:-0.749179 4:-0.268017 5:-1 6:-1 7:1 8:-1 9:-1 10:-1 11:-1 12:-1 
-0 2 0.5500869872799505 0 0 0 0 1:-0.188917 2:-0.421749 3:-0.667832 4:-0.160871 5:-1 6:-1 7:1 8:-1 9:-1 10:-1 11:-1 12:-1 
-0 2 0 0 0 0 0 1:-0.0750738 2:-0.328 3:-0.568772 4:-0.0499264 5:-1 6:-1 7:1 8:-1 9:-1 10:-1 11:-1 12:-1 
-0 2 0 0 0 0 0 1:-0.0165016 2:-0.356086 3:-0.521774 4:0.0174278 5:-1 6:-1 7:1 8:-1 9:-1 10:-1 11:-1 12:-1 
-0 2 0 0 0 0 0 1:0.0827318 2:-0.317861 3:-0.425484 4:0.119723 5:-1 6:-1 7:1 8:-1 9:-1 10:-1 11:-1 12:-1 
-0 2 0 0 0 0 0 1:0.283709 2:-0.201858 3:-0.19526 4:0.319826 5:-1 6:-1 7:1 8:-1 9:-1 10:-1 11:-1 12:-1 
-0.3293782950478993 2 0.2657888279995381 0.5397366642331177 0.4729490022969599 0.4435087513398852 0.3130256487023345 1:-0.0759802 2:-0.112905 3:-0.540821 4:-0.0820768 5:-1 6:-1 7:1 8:-1 9:-1 10:-1 11:-1 12:-1 
-0 2 0 0 0 0 0 1:0.0104861 2:-0.131313 3:-0.466015 4:0.0128088 5:-1 6:-1 7:1 8:-1 9:-1 10:-1 11:-1 12:-1 
-0 2 0 0 0 0 0 1:0.223197 2:-0.207233 3:-0.26384 4:0.255134 5:-1 6:-1 7:1 8:-1 9:-1 10:-1 11:-1 12:-1 
-0 2 0 0 0 0 0 1:0.402764 2:-0.214612 3:-0.0563754 4:0.450823 5:-1 6:-1 7:1 8:-1 9:-1 10:-1 11:-1 12:-1 
-0.403000887498951 2 0.2744241491281923 0.6586297894853703 0.5784234286573704 0.5406651660132172 0.3811162668594998 1:0.441271 2:-0.262479 3:-0.0178391 4:0.500648 5:-1 6:-1 7:1 8:-1 9:-1 10:-1 11:-1 12:-1 
-0 2 0 0 0 0 0 1:-0.266247 2:-0.491055 3:-0.727619 4:-0.236429 5:-1 6:-1 7:1 8:-1 9:-1 10:-1 11:-1 12:-1 
-0 2 0 0 0 0 0 1:-0.152135 2:-0.401929 3:-0.63827 4:-0.123396 5:-1 6:-1 7:1 8:-1 9:-1 10:-1 11:-1 12:-1 
-0 2 0 0 0 0 0 1:0.115202 2:-0.234797 3:-0.381229 4:0.14225 5:-1 6:-1 7:1 8:-1 9:-1 10:-1 11:-1 12:-1 
-0 2 0 0 0 0 0 1:0.382099 2:-0.246833 3:-0.0879811 4:0.433647 5:-1 6:-1 7:1 8:-1 9:-1 10:-1 11:-1 12:-1 
-0 2 0.03444613825861405 0 0 0 0 1:-0.197195 2:-0.466105 3:-0.677752 4:-0.164412 5:-1 6:-1 7:1 8:-1 9:-1 10:-1 11:-1 12:-1 
-0 2 0 0 0 0 0 1:-0.189227 2:-0.386114 3:-0.664734 4:-0.165585 5:-1 6:-1 7:1 8:-1 9:-1 10:-1 11:-1 12:-1 
-0 2 0 0 0 0 0 1:-0.0467621 2:-0.213355 3:-0.529903 4:-0.0350552 5:-1 6:-1 7:1 8:-1 9:-1 10:-1 11:-1 12:-1 
-0 2 0 0 0 0 0 1:0.149683 2:-0.177089 3:-0.336765 4:0.170908 5:-1 6:-1 7:1 8:-1 9:-1 10:-1 11:-1 12:-1 
-0 2 0 0 0 0 0 1:0.161015 2:-0.144662 3:-0.319241 4:0.177524 5:-1 6:-1 7:1 8:-1 9:-1 10:-1 11:-1 12:-1 
-0 2 0 0 0 0 0 1:0.100621 2:-0.241462 3:-0.396847 4:0.127644 5:-1 6:-1 7:1 8:-1 9:-1 10:-1 11:-1 12:-1 
-0 2 0 0 0 0 0 1:0.0920077 2:-0.278084 3:-0.410812 4:0.124052 5:-1 6:-1 7:1 8:-1 9:-1 10:-1 11:-1 12:-1 
-0 2 0 0 0 0 0 1:0.321983 2:-0.198215 3:-0.150394 4:0.360632 5:-1 6:-1 7:1 8:-1 9:-1 10:-1 11:-1 12:-1 
-0 2 0 0 0 0 0 1:-0.303015 2:-0.467168 3:-0.749767 4:-0.279082 5:-1 6:-1 7:1 8:-1 9:-1 10:-1 11:-1 12:-1 
-0 2 0 0 0 0 0 1:-0.16688 2:-0.271527 3:-0.635881 4:-0.157084 5:-1 6:-1 7:1 8:-1 9:-1 10:-1 11:-1 12:-1 
-0 2 0 0 0 0 0 1:-0.130787 2:-0.288316 3:-0.609587 4:-0.115494 5:-1 6:-1 7:1 8:-1 9:-1 10:-1 11:-1 12:-1 
-0 2 0 0 0 0 0 1:-0.0985996 2:-0.383094 3:-0.594311 4:-0.0677109 5:-1 6:-1 7:1 8:-1 9:-1 10:-1 11:-1 12:-1 
-0 2 0 0 0 0 0 1:-0.150274 2:-0.346363 3:-0.63131 4:-0.128681 5:-1 6:-1 7:1 8:-1 9:-1 10:-1 11:-1 12:-1 
-0 2 0 0 0 0 0 1:-0.175097 2:-0.383437 3:-0.653974 4:-0.150594 5:-1 6:-1 7:1 8:-1 9:-1 10:-1 11:-1 12:-1 
-0 2 0 0 0 0 0 1:-0.0307485 2:-0.399213 3:-0.539293 4:0.00788428 5:-1 6:-1 7:1 8:-1 9:-1 10:-1 11:-1 12:-1 
-0.01333592162774713 0.3510402655727777 0.00471117531786136 0.01330395640367063 0.01773671198945673 0.01106311635335306 0.0125907614832575 1:0.58425 2:-0.0677367 3:0.216661 4:0.622069 5:-1 6:1 7:-1 8:-1 9:-1 10:-1 11:-1 12:-1 
-0 2 0 0 0 0 0 1:-0.155166 2:-0.377217 3:-0.638255 4:-0.129865 5:-1 6:-1 7:1 8:-1 9:-1 10:-1 11:-1 12:-1 
-0 2 0 0 0 0 0 1:-0.144883 2:-0.335081 3:-0.625903 4:-0.124199 5:-1 6:-1 7:1 8:-1 9:-1 10:-1 11:-1 12:-1 
-0 2 0 0 0 0 0 1:-0.177737 2:-0.344574 3:-0.652018 4:-0.158376 5:-1 6:-1 7:1 8:-1 9:-1 10:-1 11:-1 12:-1 
-0 2 0 0 0 0 0 1:0.000845178 2:-0.361512 3:-0.507162 4:0.0370109 5:-1 6:-1 7:1 8:-1 9:-1 10:-1 11:-1 12:-1 
-0 2 0 0 0 0 0 1:0.0807362 2:-0.350629 3:-0.431855 4:0.122332 5:-1 6:-1 7:1 8:-1 9:-1 10:-1 11:-1 12:-1 
-0 2 0 0 0 0 0 1:0.148227 2:-0.355412 3:-0.365989 4:0.196123 5:-1 6:-1 7:1 8:-1 9:-1 10:-1 11:-1 12:-1 
-0.123049668141941 2 0.5157203352705554 0.2091055052433148 0.180868348557618 0.1737063645433691 0.126000679561539 1:-0.164455 2:-0.509234 3:-0.657298 4:-0.123897 5:-1 6:-1 7:1 8:-1 9:-1 10:-1 11:-1 12:-1 
-0 2 0 0 0 0 0 1:-0.100773 2:-0.282308 3:-0.584531 4:-0.0842626 5:-1 6:-1 7:1 8:-1 9:-1 10:-1 11:-1 12:-1 
-0 2 0 0 0 0 0 1:-0.108979 2:-0.29041 3:-0.592296 4:-0.0917504 5:-1 6:-1 7:1 8:-1 9:-1 10:-1 11:-1 12:-1 
-0 2 0 0 0 0 0 1:-0.212192 2:-0.444447 3:-0.686673 4:-0.183261 5:-1 6:-1 7:1 8:-1 9:-1 10:-1 11:-1 12:-1 
-0 2 0 0 0 0 0 1:-0.105884 2:-0.271972 3:-0.587414 4:-0.0912901 5:-1 6:-1 7:1 8:-1 9:-1 10:-1 11:-1 12:-1 
-0 2 0 0 0 0 0 1:0.0782671 2:-0.207024 3:-0.413498 4:0.0981877 5:-1 6:-1 7:1 8:-1 9:-1 10:-1 11:-1 12:-1 
-0 2 0 0 0 0 0 1:0.150437 2:-0.19428 3:-0.33886 4:0.1743 5:-1 6:-1 7:1 8:-1 9:-1 10:-1 11:-1 12:-1 
-0 2 1.321203170266752 0 0 0 0 1:-0.154752 2:-0.407977 3:-0.640983 4:-0.125555 5:-1 6:-1 7:1 8:-1 9:-1 10:-1 11:-1 12:-1 
-0 2 0 0 0 0 0 1:-0.0709428 2:-0.405531 3:-0.573975 4:-0.0348828 5:-1 6:-1 7:1 8:-1 9:-1 10:-1 11:-1 12:-1 
-0 2 0 0 0 0 0 1:-0.0289893 2:-0.330882 3:-0.529773 4:0.000489018 5:-1 6:-1 7:1 8:-1 9:-1 10:-1 11:-1 12:-1 
-0 2 0 0 0 0 0 1:0.133449 2:-0.336668 3:-0.378279 4:0.177504 5:-1 6:-1 7:1 8:-1 9:-1 10:-1 11:-1 12:-1 
-0 2 0 0 0 0 0 1:0.171516 2:-0.328481 3:-0.338313 4:0.21766 5:-1 6:-1 7:1 8:-1 9:-1 10:-1 11:-1 12:-1 
-0 2 0 0 0 0 0 1:0.244222 2:-0.205241 3:-0.24035 4:0.277633 5:-1 6:-1 7:1 8:-1 9:-1 10:-1 11:-1 12:-1 
-2 0 0 0 0 0 0 1:-0.414097 2:-0.52376 3:-0.818969 4:-0.393046 5:1 6:-1 7:-1 8:-1 9:-1 10:-1 11:-1 12:-1 
-0 2 0 0 0 0 0 1:-0.361409 2:-0.513109 3:-0.788608 4:-0.33725 5:-1 6:-1 7:1 8:-1 9:-1 10:-1 11:-1 12:-1 
-0 2 0 0 0 0 0 1:-0.329578 2:-0.414639 3:-0.762505 4:-0.313951 5:-1 6:-1 7:1 8:-1 9:-1 10:-1 11:-1 12:-1 
-0 2 0 0 0 0 0 1:-0.250975 2:-0.374092 3:-0.707629 4:-0.234206 5:-1 6:-1 7:1 8:-1 9:-1 10:-1 11:-1 12:-1 
-0.07655567155056757 2 0 0.1250980085122439 0.1113622065134278 0.1036396757946042 0.07344822513061666 1:-0.210175 2:-0.265647 3:-0.667743 4:-0.204453 5:-1 6:-1 7:1 8:-1 9:-1 10:-1 11:-1 12:-1 
-0 2 0 0 0 0 0 1:-0.118305 2:-0.266957 3:-0.596953 4:-0.105274 5:-1 6:-1 7:1 8:-1 9:-1 10:-1 11:-1 12:-1 
-0 2 0 0 0 0 0 1:-0.055939 2:-0.299381 3:-0.549155 4:-0.0330228 5:-1 6:-1 7:1 8:-1 9:-1 10:-1 11:-1 12:-1 
-0 2 0 0 0 0 0 1:-0.0188845 2:-0.2919 3:-0.51597 4:0.00569624 5:-1 6:-1 7:1 8:-1 9:-1 10:-1 11:-1 12:-1 
-0 2 0 0 0 0 0 1:0.12962 2:-0.266819 3:-0.371869 4:0.162972 5:-1 6:-1 7:1 8:-1 9:-1 10:-1 11:-1 12:-1 
-0 0 2 0 0 0 0 1:0.0754122 2:-0.151237 3:-0.406969 4:0.0856471 5:-1 6:1 7:-1 8:-1 9:-1 10:-1 11:-1 12:-1 
-0.1104001741606985 0.2503807342125345 0.07749502048529136 0.1834486853758754 0.1587919431644755 0.1506363939811688 0.1047360255636158 1:0.729819 2:0.113583 3:0.485566 4:0.743637 5:-1 6:1 7:-1 8:-1 9:-1 10:-1 11:-1 12:-1 
-0 2 0 0 0 0 0 1:-0.367382 2:-0.565636 3:-0.795252 4:-0.338101 5:-1 6:-1 7:1 8:-1 9:-1 10:-1 11:-1 12:-1 
-0 2 0 0 0 0 0 1:-0.269801 2:-0.434896 3:-0.725594 4:-0.246944 5:-1 6:-1 7:1 8:-1 9:-1 10:-1 11:-1 12:-1 
-0 2 0 0 0 0 0 1:-0.147743 2:-0.289678 3:-0.623033 4:-0.133731 5:-1 6:-1 7:1 8:-1 9:-1 10:-1 11:-1 12:-1 
-0 2 0 0 0 0 0 1:-0.0321519 2:-0.202178 3:-0.515463 4:-0.0214383 5:-1 6:-1 7:1 8:-1 9:-1 10:-1 11:-1 12:-1 
-0 2 0 0 0 0 0 1:0.0977569 2:-0.190722 3:-0.391708 4:0.11665 5:-1 6:-1 7:1 8:-1 9:-1 10:-1 11:-1 12:-1 
-0 2 0 0 0 0 0 1:0.200512 2:-0.336932 3:-0.309212 4:0.250147 5:-1 6:-1 7:1 8:-1 9:-1 10:-1 11:-1 12:-1 
-0.0518753006512703 2 0.05406936010210848 0.08394468688166347 0.07309552217170343 0.0692446440607202 0.04885840882163439 1:0.247806 2:-0.373244 3:-0.263888 4:0.306874 5:-1 6:-1 7:1 8:-1 9:-1 10:-1 11:-1 12:-1 
-0 2 0.1298750813163268 0 0 0 0 1:-0.182778 2:-0.40441 3:-0.661707 4:-0.156328 5:-1 6:-1 7:1 8:-1 9:-1 10:-1 11:-1 12:-1 
-0 2 0 0 0 0 0 1:-0.122611 2:-0.308298 3:-0.605322 4:-0.103979 5:-1 6:-1 7:1 8:-1 9:-1 10:-1 11:-1 12:-1 
-0 2 0 0 0 0 0 1:-0.12809 2:-0.309098 3:-0.609797 4:-0.109807 5:-1 6:-1 7:1 8:-1 9:-1 10:-1 11:-1 12:-1 
-0 2 0 0 0 0 0 1:-0.111924 2:-0.404184 3:-0.607209 4:-0.0794001 5:-1 6:-1 7:1 8:-1 9:-1 10:-1 11:-1 12:-1 
-0 2 0 0 0 0 0 1:-0.0554432 2:-0.312017 3:-0.550229 4:-0.0306011 5:-1 6:-1 7:1 8:-1 9:-1 10:-1 11:-1 12:-1 
-0 2 0 0 0 0 0 1:-0.0123231 2:-0.294123 3:-0.510392 4:0.0132626 5:-1 6:-1 7:1 8:-1 9:-1 10:-1 11:-1 12:-1 
-0 2 0 0 0 0 0 1:-0.363371 2:-0.508339 3:-0.789462 4:-0.339776 5:-1 6:-1 7:1 8:-1 9:-1 10:-1 11:-1 12:-1 
-0 2 0 0 0 0 0 1:-0.215547 2:-0.476213 3:-0.691709 4:-0.182966 5:-1 6:-1 7:1 8:-1 9:-1 10:-1 11:-1 12:-1 
-0 2 0 0 0 0 0 1:-0.00173066 2:-0.182248 3:-0.485229 4:0.00784612 5:-1 6:-1 7:1 8:-1 9:-1 10:-1 11:-1 12:-1 
-0 2 0 0 0 0 0 1:0.117361 2:-0.101567 3:-0.35667 4:0.123592 5:-1 6:-1 7:1 8:-1 9:-1 10:-1 11:-1 12:-1 
-0 2 0 0 0 0 0 1:0.0638594 2:-0.290626 3:-0.439714 4:0.0951709 5:-1 6:-1 7:1 8:-1 9:-1 10:-1 11:-1 12:-1 
-0 2 0.06617605439460375 0 0 0 0 1:-0.117697 2:-0.416027 3:-0.612958 4:-0.0844251 5:-1 6:-1 7:1 8:-1 9:-1 10:-1 11:-1 12:-1 
-0 2 0 0 0 0 0 1:-0.120479 2:-0.357039 3:-0.609053 4:-0.0950727 5:-1 6:-1 7:1 8:-1 9:-1 10:-1 11:-1 12:-1 
-0 2 0 0 0 0 0 1:0.0181416 2:-0.356414 3:-0.490985 4:0.0552484 5:-1 6:-1 7:1 8:-1 9:-1 10:-1 11:-1 12:-1 
-0 2 0 0 0 0 0 1:0.0414512 2:-0.189371 3:-0.446122 4:0.0556843 5:-1 6:-1 7:1 8:-1 9:-1 10:-1 11:-1 12:-1 
-0 0 2 0 0 0 0 1:-0.161218 2:-0.335559 3:-0.638554 4:-0.142105 5:-1 6:1 7:-1 8:-1 9:-1 10:-1 11:-1 12:-1 
-0 0 2 0 0 0 0 1:-0.0640492 2:-0.300589 3:-0.55621 4:-0.0418925 5:-1 6:1 7:-1 8:-1 9:-1 10:-1 11:-1 12:-1 
-0 2 0.3166508433488487 0 0 0 0 1:-0.315411 2:-0.576035 3:-0.764842 4:-0.280587 5:-1 6:-1 7:1 8:-1 9:-1 10:-1 11:-1 12:-1 
-0 2 0 0 0 0 0 1:-0.266034 2:-0.36851 3:-0.717413 4:-0.25124 5:-1 6:-1 7:1 8:-1 9:-1 10:-1 11:-1 12:-1 
-0 2 0 0 0 0 0 1:-0.111341 2:-0.310464 3:-0.596437 4:-0.0918127 5:-1 6:-1 7:1 8:-1 9:-1 10:-1 11:-1 12:-1 
-0 2 0 0 0 0 0 1:-0.0423643 2:-0.347562 3:-0.543264 4:-0.0119359 5:-1 6:-1 7:1 8:-1 9:-1 10:-1 11:-1 12:-1 
-0 2 0 0 0 0 0 1:0.0375376 2:-0.23884 3:-0.457254 4:0.0591445 5:-1 6:-1 7:1 8:-1 9:-1 10:-1 11:-1 12:-1 
-0 2 0 0 0 0 0 1:0.103675 2:-0.260719 3:-0.39672 4:0.133933 5:-1 6:-1 7:1 8:-1 9:-1 10:-1 11:-1 12:-1 
-0.01064254086209036 2 2 0.02027985624362319 0.0180759375857846 0.01588216422874653 0.00998382833637501 1:-0.334841 2:-0.370132 3:-0.762243 4:-0.324879 5:-1 6:1 7:-1 8:-1 9:-1 10:-1 11:-1 12:-1 
-0 0 2 0 0 0 0 1:-0.104292 2:-0.245916 3:-0.58302 4:-0.0923539 5:-1 6:1 7:-1 8:-1 9:-1 10:-1 11:-1 12:-1 
-0 0 2 0 0 0 0 1:0.0495161 2:-0.242397 3:-0.44649 4:0.0725384 5:-1 6:1 7:-1 8:-1 9:-1 10:-1 11:-1 12:-1 
-0 0 2 0 0 0 0 1:-0.119524 2:-0.226772 3:-0.593045 4:-0.112706 5:-1 6:1 7:-1 8:-1 9:-1 10:-1 11:-1 12:-1 
-0.2667337667858095 2 2 0.4360206513124878 0.3824592200522004 0.3571747507860275 0.2522460762974451 1:-0.0372538 2:-0.108669 3:-0.506102 4:-0.0422976 5:-1 6:1 7:-1 8:-1 9:-1 10:-1 11:-1 12:-1 
-0.2283497495871782 0.5123622898682965 0.1604735454605817 0.375468434721411 0.3273047614537465 0.3083484978039663 0.2175802719298325 1:0.517834 2:-0.287124 3:0.0759891 4:0.587295 5:-1 6:1 7:-1 8:-1 9:-1 10:-1 11:-1 12:-1 
-2 0 0 0 0 0 0 1:-0.36511 2:-0.358305 3:-0.77976 4:-0.359292 5:1 6:-1 7:-1 8:-1 9:-1 10:-1 11:-1 12:-1 
-0.3824827492840895 0.8348714672261894 0.2630069298197202 0.6226193175144813 0.5462409632712297 0.5116411230643766 0.3601169232824389 1:0.529302 2:-0.128805 3:0.125798 4:0.57347 5:1 6:-1 7:-1 8:-1 9:-1 10:-1 11:-1 12:-1 
-0.3097706156513751 0.7221368015872018 0.224824040112876 0.5314783357302835 0.4662343577389917 0.4360810055648554 0.3075675206528427 1:0.408317 2:-0.316654 3:-0.0688299 4:0.472864 5:-1 6:-1 7:-1 8:1 9:-1 10:-1 11:-1 12:-1 
-0 2 0 0 0 0 0 1:-0.184935 2:-0.386005 3:-0.661531 4:-0.160925 5:-1 6:-1 7:1 8:-1 9:-1 10:-1 11:-1 12:-1 
-0 2 0 0 0 0 0 1:-0.0575663 2:-0.230906 3:-0.541698 4:-0.0444152 5:-1 6:-1 7:1 8:-1 9:-1 10:-1 11:-1 12:-1 
-0 2 0 0 0 0 0 1:0.11893 2:-0.13731 3:-0.361441 4:0.131473 5:-1 6:-1 7:1 8:-1 9:-1 10:-1 11:-1 12:-1 
-0.007615004932841003 2 0.007227262915660619 0.01238977488603641 0.00983172616164403 0.01041891463350136 0.007969527259448977 1:0.445562 2:0.13723 3:0.0839178 4:0.434286 5:-1 6:-1 7:1 8:-1 9:-1 10:-1 11:-1 12:-1 
-0.3888458760615124 2 0.2686666858308472 0.6356559032841987 0.5578086129244935 0.5226583744232701 0.368159336810973 1:0.732339 2:0.0432999 3:0.466614 4:0.762021 5:-1 6:-1 7:1 8:-1 9:-1 10:-1 11:-1 12:-1 
-0.4244876763503778 2 0.2935205269523829 0.6941495204544316 0.6093770953354249 0.5707670489462049 0.4023373351426172 1:0.920236 2:0.0721919 3:0.780412 4:0.958913 5:-1 6:-1 7:1 8:-1 9:-1 10:-1 11:-1 12:-1 
-0.4614117256980126 2 0.3175344136766325 0.7538892637055401 0.6634046561925362 0.6193402419239367 0.4359901235519966 1:0.443194 2:0.329106 3:0.140023 4:0.396245 5:-1 6:-1 7:1 8:-1 9:-1 10:-1 11:-1 12:-1 
-2 0 0 0 0 0 0 1:-0.395349 2:-0.462487 3:-0.804843 4:-0.379618 5:-1 6:-1 7:-1 8:1 9:-1 10:-1 11:-1 12:-1 
-2 1.383893475034002 0.08187535096319586 0.198153497584735 0.1731507081261169 0.1617763532679627 0.1152202647259226 1:0.102336 2:-0.0386989 3:-0.3603 4:0.100348 5:-1 6:-1 7:-1 8:1 9:-1 10:-1 11:-1 12:-1 
-0.02881306028546605 0.42903521563651 0.1326351792457264 0.3142167877729263 0.2757626189462767 0.2582305662036358 0.1829282855587399 1:0.488203 2:0.126677 3:0.138103 4:0.483094 5:-1 6:-1 7:-1 8:1 9:-1 10:-1 11:-1 12:-1 
-0.4330599526782624 0.7874312852939367 0.2495341236293539 0.5897833086611446 0.5180280753859029 0.4846643882330988 0.3413489970102346 1:0.602832 2:-0.0525394 3:0.246912 4:0.639581 5:-1 6:-1 7:-1 8:1 9:-1 10:-1 11:-1 12:-1 
-0 0 2 0 0 0 0 1:-0.0195547 2:-0.389324 3:-0.528457 4:0.0186594 5:-1 6:1 7:-1 8:-1 9:-1 10:-1 11:-1 12:-1 
-0.156044561807346 0.7286126928871439 0.2284752210102211 0.545418959280456 0.4783061500005769 0.4483130222791112 0.3167502085853685 1:0.14102 2:0.00433204 3:-0.31166 4:0.131157 5:1 6:-1 7:-1 8:-1 9:-1 10:-1 11:-1 12:-1 
-1.591020161366351 2 0.1517358380348427 0.3538119155751824 0.3116311090393576 0.2916844051799489 0.2049276865021664 1:-0.02277 2:-0.0409415 3:-0.481945 4:-0.0368384 5:-1 6:-1 7:-1 8:1 9:-1 10:-1 11:-1 12:-1 
-0.8726074405217039 0.7447535151504419 0.2495681796522842 0.5880923653006953 0.5168289933078719 0.4837607424252799 0.3402733510488857 1:0.277304 2:0.15114 3:-0.124396 4:0.249683 5:-1 6:-1 7:-1 8:1 9:-1 10:-1 11:-1 12:-1 
-0 0 2 0 0 0 0 1:0.0318395 2:-0.360303 3:-0.478928 4:0.0704395 5:-1 6:1 7:-1 8:-1 9:-1 10:-1 11:-1 12:-1 
-0.2058285078680911 0.2951441626687685 0.1444452707050628 0.340243866453881 0.2963456683382322 0.2792654479377381 0.1945147936956218 1:0.655837 2:-0.221732 3:0.280141 4:0.726555 5:-1 6:1 7:-1 8:-1 9:-1 10:-1 11:-1 12:-1 
-0.3582843776289003 0.7841425747557702 0.2470008872723025 0.5834390885892058 0.5132906004194616 0.479500393909718 0.3388619471781548 1:0.83447 2:0.204131 3:0.685677 4:0.838231 5:-1 6:1 7:-1 8:-1 9:-1 10:-1 11:-1 12:-1 
-2 0 0.1191725068126035 0.2797075719245369 0.2450762837580462 0.228890877306466 0.1613036031801085 1:-0.345138 2:-0.245264 3:-0.7577 4:-0.35284 5:-1 6:-1 7:-1 8:1 9:-1 10:-1 11:-1 12:-1 
-0 0.5445638506651729 0.2078242255722301 0.4916796941275357 0.4329217620263501 0.4054699706959315 0.2854392854108328 1:0.188595 2:-0.415009 3:-0.332723 4:0.24811 5:-1 6:-1 7:-1 8:1 9:-1 10:-1 11:-1 12:-1 
-2 0 0 0 0 0 0 1:-0.476154 2:-0.602208 3:-0.854885 4:-0.452591 5:1 6:-1 7:-1 8:-1 9:-1 10:-1 11:-1 12:-1 
-2 1.353029741846774 0 0 0 0 0 1:-0.397233 2:-0.460739 3:-0.805783 4:-0.381926 5:-1 6:-1 7:-1 8:1 9:-1 10:-1 11:-1 12:-1 
-2 0 0 0 0 0 0 1:-0.375834 2:-0.510161 3:-0.796801 4:-0.353099 5:-1 6:-1 7:-1 8:1 9:-1 10:-1 11:-1 12:-1 
-0.3412242236492762 0.5876637868888049 0.05825467893844568 0.5616449055784939 0.4908714535053931 0.4618605002171149 0.3240321587668168 1:0.275563 2:-0.386728 3:-0.235328 4:0.338657 5:-1 6:1 7:-1 8:-1 9:-1 10:-1 11:-1 12:-1 
-0.003896276743807951 1.816785914349088 0 0.002541881519657369 0.005484902490497124 0.001778239997020584 0.002704243200829265 1:0.393161 2:-0.321533 3:-0.088156 4:0.45698 5:-1 6:1 7:-1 8:-1 9:-1 10:-1 11:-1 12:-1 
-0.3054363235667418 0.6838429991302846 0.210263973264117 0.4982498277964031 0.4388616983096715 0.4095966709107751 0.2893578992654301 1:0.834974 2:-0.163023 3:0.56616 4:0.911013 5:-1 6:1 7:-1 8:-1 9:-1 10:-1 11:-1 12:-1 
-2 0 0 0 0 0 0 1:-0.372334 2:-0.383237 3:-0.785977 4:-0.364284 5:-1 6:-1 7:-1 8:1 9:-1 10:-1 11:-1 12:-1 
-0 0 2 0 0 0 0 1:-0.226038 2:-0.490352 3:-0.700158 4:-0.192921 5:-1 6:1 7:-1 8:-1 9:-1 10:-1 11:-1 12:-1 
-0 0 2 0 0 0 0 1:-0.097063 2:-0.274922 3:-0.58066 4:-0.0811838 5:-1 6:1 7:-1 8:-1 9:-1 10:-1 11:-1 12:-1 
-0 0 2 0 0 0 0 1:-0.0142723 2:-0.286554 3:-0.511175 4:0.0101295 5:-1 6:1 7:-1 8:-1 9:-1 10:-1 11:-1 12:-1 
-2 0 0 0 0 0 0 1:-0.364917 2:-0.585406 3:-0.79493 4:-0.333428 5:1 6:-1 7:-1 8:-1 9:-1 10:-1 11:-1 12:-1 
-0 0 2 0 0 0 0 1:-0.242234 2:-0.524661 3:-0.713945 4:-0.206559 5:-1 6:1 7:-1 8:-1 9:-1 10:-1 11:-1 12:-1 
-0 0 2 0 0 0 0 1:-0.236789 2:-0.531102 3:-0.710669 4:-0.200004 5:-1 6:1 7:-1 8:-1 9:-1 10:-1 11:-1 12:-1 
-0 0 2 0 0 0 0 1:-0.172246 2:-0.438392 3:-0.657029 4:-0.140682 5:-1 6:1 7:-1 8:-1 9:-1 10:-1 11:-1 12:-1 
-0 0 2 0 0 0 0 1:-0.231369 2:-0.494264 3:-0.704197 4:-0.198204 5:-1 6:1 7:-1 8:-1 9:-1 10:-1 11:-1 12:-1 
-0 0 2 0 0 0 0 1:-0.220956 2:-0.484629 3:-0.696176 4:-0.188099 5:-1 6:1 7:-1 8:-1 9:-1 10:-1 11:-1 12:-1 
-0 0 2 0 0 0 0 1:0.0225364 2:-0.386052 3:-0.490418 4:0.0636236 5:-1 6:1 7:-1 8:-1 9:-1 10:-1 11:-1 12:-1 
-0 2 0 0 0 0 0 1:-0.225292 2:-0.495998 3:-0.700124 4:-0.191422 5:-1 6:-1 7:1 8:-1 9:-1 10:-1 11:-1 12:-1 
-0 2 0 0 0 0 0 1:-0.19933 2:-0.315183 3:-0.665083 4:-0.186271 5:-1 6:-1 7:1 8:-1 9:-1 10:-1 11:-1 12:-1 
-0 2 0 0 0 0 0 1:-0.114234 2:-0.307081 3:-0.598503 4:-0.0951855 5:-1 6:-1 7:1 8:-1 9:-1 10:-1 11:-1 12:-1 
-0 2 0 0 0 0 0 1:-0.0609738 2:-0.255538 3:-0.547868 4:-0.0440606 5:-1 6:-1 7:1 8:-1 9:-1 10:-1 11:-1 12:-1 
-0 2 0 0 0 0 0 1:0.0670907 2:-0.190873 3:-0.421802 4:0.0838223 5:-1 6:-1 7:1 8:-1 9:-1 10:-1 11:-1 12:-1 
-0 2 0 0 0 0 0 1:0.156695 2:-0.15857 3:-0.326249 4:0.17562 5:-1 6:-1 7:1 8:-1 9:-1 10:-1 11:-1 12:-1 
-0 2 0 0 0 0 0 1:0.201 2:-0.112423 3:-0.270478 4:0.215443 5:-1 6:-1 7:1 8:-1 9:-1 10:-1 11:-1 12:-1 
-0 0 2 0 0 0 0 1:-0.179131 2:-0.344215 3:-0.653051 4:-0.160344 5:-1 6:1 7:-1 8:-1 9:-1 10:-1 11:-1 12:-1 
-0 0 2 0 0 0 0 1:-0.184262 2:-0.391129 3:-0.661543 4:-0.159753 5:-1 6:1 7:-1 8:-1 9:-1 10:-1 11:-1 12:-1 
-0 0 2 0 0 0 0 1:-0.0110163 2:-0.275487 3:-0.506812 4:0.0118986 5:-1 6:1 7:-1 8:-1 9:-1 10:-1 11:-1 12:-1 
-0 0 2 0 0 0 0 1:0.0827669 2:-0.353985 3:-0.430349 4:0.124728 5:-1 6:1 7:-1 8:-1 9:-1 10:-1 11:-1 12:-1 
-0 0.8777417054335209 2 0 0 0 0 1:0.189785 2:-0.371049 3:-0.325451 4:0.243288 5:-1 6:1 7:-1 8:-1 9:-1 10:-1 11:-1 12:-1 
-0.0208009744104347 0.5884522329170553 0.1864829950650548 0.4396529031101786 0.3841003518092924 0.3599902680470653 0.2560268356364765 1:-0.047546 2:-0.517281 3:-0.565525 4:0.00408839 5:1 6:-1 7:-1 8:-1 9:-1 10:-1 11:-1 12:-1 
-0 2 0 0 0 0 0 1:-0.242337 2:-0.386561 3:-0.702774 4:-0.222938 5:-1 6:-1 7:1 8:-1 9:-1 10:-1 11:-1 12:-1 
-0 2 0 0 0 0 0 1:-0.217223 2:-0.403311 3:-0.686624 4:-0.193807 5:-1 6:-1 7:1 8:-1 9:-1 10:-1 11:-1 12:-1 
-0 2 0 0 0 0 0 1:-0.152831 2:-0.337458 3:-0.632327 4:-0.132567 5:-1 6:-1 7:1 8:-1 9:-1 10:-1 11:-1 12:-1 
-0 2 0 0 0 0 0 1:-0.092454 2:-0.254035 3:-0.574252 4:-0.0779926 5:-1 6:-1 7:1 8:-1 9:-1 10:-1 11:-1 12:-1 
-0 2 0 0 0 0 0 1:-0.0422916 2:-0.261456 3:-0.532518 4:-0.0234404 5:-1 6:-1 7:1 8:-1 9:-1 10:-1 11:-1 12:-1 
-0 2 0 0 0 0 0 1:0.179509 2:-0.310656 3:-0.327296 4:0.223612 5:-1 6:-1 7:1 8:-1 9:-1 10:-1 11:-1 12:-1 
-0 2 0 0 0 0 0 1:0.338263 2:-0.109293 3:-0.113052 4:0.364144 5:-1 6:-1 7:1 8:-1 9:-1 10:-1 11:-1 12:-1 
-0.2975778081723123 2 0.2031535613581905 0.4861655953964761 0.4276940343589478 0.3992560096816056 0.2818667206149619 1:0.227118 2:-0.0233123 3:-0.223579 4:0.229093 5:-1 6:-1 7:1 8:-1 9:-1 10:-1 11:-1 12:-1 
-0 0 2 0 0 0 0 1:-0.147253 2:-0.453594 3:-0.639545 4:-0.111689 5:-1 6:1 7:-1 8:-1 9:-1 10:-1 11:-1 12:-1 
-0 0 2 0 0 0 0 1:-0.192154 2:-0.47166 3:-0.674577 4:-0.158191 5:-1 6:1 7:-1 8:-1 9:-1 10:-1 11:-1 12:-1 
-0 0 2 0 0 0 0 1:-0.243126 2:-0.519529 3:-0.714182 4:-0.208111 5:-1 6:1 7:-1 8:-1 9:-1 10:-1 11:-1 12:-1 
-0 0 2 0 0 0 0 1:0.0440996 2:-0.390594 3:-0.471308 4:0.0877575 5:-1 6:1 7:-1 8:-1 9:-1 10:-1 11:-1 12:-1 
-0 0 2 0 0 0 0 1:-0.0770587 2:-0.505567 3:-0.588831 4:-0.0292914 5:-1 6:1 7:-1 8:-1 9:-1 10:-1 11:-1 12:-1 
-0 0 2 0 0 0 0 1:-0.258731 2:-0.507443 3:-0.723803 4:-0.226432 5:-1 6:1 7:-1 8:-1 9:-1 10:-1 11:-1 12:-1 
-0 0 2 0 0 0 0 1:-0.172594 2:-0.324074 3:-0.646011 4:-0.156159 5:-1 6:1 7:-1 8:-1 9:-1 10:-1 11:-1 12:-1 
-0 0 2 0 0 0 0 1:-0.0291029 2:-0.395563 3:-0.537457 4:0.00911147 5:-1 6:1 7:-1 8:-1 9:-1 10:-1 11:-1 12:-1 
-0 0 2 0 0 0 0 1:0.0159577 2:-0.345363 3:-0.49158 4:0.0511058 5:-1 6:1 7:-1 8:-1 9:-1 10:-1 11:-1 12:-1 
-0 0 2 0 0 0 0 1:-0.115801 2:-0.302606 3:-0.599246 4:-0.0975963 5:-1 6:1 7:-1 8:-1 9:-1 10:-1 11:-1 12:-1 
-0 0 2 0 0 0 0 1:-0.193886 2:-0.455013 3:-0.674414 4:-0.162126 5:-1 6:1 7:-1 8:-1 9:-1 10:-1 11:-1 12:-1 
-0 0 2 0 0 0 0 1:-0.188766 2:-0.426592 3:-0.668169 4:-0.159969 5:-1 6:1 7:-1 8:-1 9:-1 10:-1 11:-1 12:-1 
-0 0 2 0 0 0 0 1:-0.182794 2:-0.355574 3:-0.656951 4:-0.162728 5:-1 6:1 7:-1 8:-1 9:-1 10:-1 11:-1 12:-1 
-0 0 2 0 0 0 0 1:-0.034936 2:-0.467071 3:-0.550063 4:0.0118896 5:-1 6:1 7:-1 8:-1 9:-1 10:-1 11:-1 12:-1 
-0 0 0.4933623961416146 0 0 0 0 1:0.132285 2:-0.12276 3:-0.34517 4:0.142551 5:-1 6:1 7:-1 8:-1 9:-1 10:-1 11:-1 12:-1 
-0 0 2 0 0 0 0 1:-0.132588 2:-0.468055 3:-0.629594 4:-0.0941068 5:-1 6:1 7:-1 8:-1 9:-1 10:-1 11:-1 12:-1 
-0 0 2 0 0 0 0 1:-0.213159 2:-0.436354 3:-0.686638 4:-0.185462 5:-1 6:1 7:-1 8:-1 9:-1 10:-1 11:-1 12:-1 
-0 0 2 0 0 0 0 1:-0.189327 2:-0.481145 3:-0.673321 4:-0.154128 5:-1 6:1 7:-1 8:-1 9:-1 10:-1 11:-1 12:-1 
-0 0 2 0 0 0 0 1:-0.233467 2:-0.422864 3:-0.699795 4:-0.209094 5:-1 6:1 7:-1 8:-1 9:-1 10:-1 11:-1 12:-1 
-0 0 2 0 0 0 0 1:-0.190462 2:-0.547328 3:-0.679351 4:-0.147854 5:-1 6:1 7:-1 8:-1 9:-1 10:-1 11:-1 12:-1 
-0 0 2 0 0 0 0 1:-0.0778067 2:-0.503811 3:-0.589277 4:-0.0303892 5:-1 6:1 7:-1 8:-1 9:-1 10:-1 11:-1 12:-1 
-0 0 2 0 0 0 0 1:0.0261387 2:-0.376375 3:-0.486148 4:0.0664359 5:-1 6:1 7:-1 8:-1 9:-1 10:-1 11:-1 12:-1 
-0.3037621269855152 0.6889647158537419 0.2174959838347618 0.5126966570256157 0.4505997423472045 0.4217700770881476 0.2977418444889369 1:0.396295 2:0.105646 3:0.0109684 4:0.385882 5:1 6:-1 7:-1 8:-1 9:-1 10:-1 11:-1 12:-1 
-0 0 2 0 0 0 0 1:-0.185035 2:-0.436778 3:-0.666334 4:-0.154875 5:-1 6:1 7:-1 8:-1 9:-1 10:-1 11:-1 12:-1 
-0 0 2 0 0 0 0 1:-0.143172 2:-0.420325 3:-0.633307 4:-0.111352 5:-1 6:1 7:-1 8:-1 9:-1 10:-1 11:-1 12:-1 
-0 2 0.5162412433155935 0 0 0 0 1:-0.110032 2:-0.431508 3:-0.608437 4:-0.0740284 5:-1 6:-1 7:1 8:-1 9:-1 10:-1 11:-1 12:-1 
-0 2 0.4173606607047626 0 0 0 0 1:-0.142591 2:-0.46344 3:-0.636804 4:-0.105614 5:-1 6:-1 7:1 8:-1 9:-1 10:-1 11:-1 12:-1 
-0 2 0 0 0 0 0 1:-0.137192 2:-0.478352 3:-0.634066 4:-0.097791 5:-1 6:-1 7:1 8:-1 9:-1 10:-1 11:-1 12:-1 
-0.09725777448056559 2 1.720597816941316 0.1503957938820878 0.1341751586862329 0.1216491520016141 0.08178470624278932 1:-0.117498 2:-0.472046 3:-0.61817 4:-0.0771869 5:-1 6:-1 7:1 8:-1 9:-1 10:-1 11:-1 12:-1 
-0 2 0.1567882509006838 0 0 0 0 1:-0.0306242 2:-0.408937 3:-0.540242 4:0.00915813 5:-1 6:-1 7:1 8:-1 9:-1 10:-1 11:-1 12:-1 
-0 2 0 0 0 0 0 1:0.00356632 2:-0.376357 3:-0.506524 4:0.0421171 5:-1 6:-1 7:1 8:-1 9:-1 10:-1 11:-1 12:-1 
-0 0 2 0 0 0 0 1:-0.190511 2:-0.339949 3:-0.661057 4:-0.173387 5:-1 6:1 7:-1 8:-1 9:-1 10:-1 11:-1 12:-1 
-0 0 2 0 0 0 0 1:-0.206187 2:-0.363666 3:-0.674972 4:-0.187034 5:-1 6:1 7:-1 8:-1 9:-1 10:-1 11:-1 12:-1 
-0 0 2 0 0 0 0 1:-0.00966752 2:-0.307653 3:-0.509824 4:0.0181733 5:-1 6:1 7:-1 8:-1 9:-1 10:-1 11:-1 12:-1 
-0 1.37279638435958 0 0 0 0 0 1:0.20711 2:-0.0210821 3:-0.245393 4:0.206288 5:-1 6:1 7:-1 8:-1 9:-1 10:-1 11:-1 12:-1 
-0 2 0.5384208811271916 0 0 0 0 1:-0.115701 2:-0.444658 3:-0.61421 4:-0.0785427 5:-1 6:-1 7:1 8:-1 9:-1 10:-1 11:-1 12:-1 
-0 2 0 0 0 0 0 1:-0.123095 2:-0.333636 3:-0.608597 4:-0.100919 5:-1 6:-1 7:1 8:-1 9:-1 10:-1 11:-1 12:-1 
-0 2 0.3849062891057521 0 0 0 0 1:-0.242722 2:-0.32319 3:-0.69706 4:-0.232083 5:-1 6:-1 7:1 8:-1 9:-1 10:-1 11:-1 12:-1 
-0 2 0 0 0 0 0 1:-0.38405 2:-0.496447 3:-0.800623 4:-0.363665 5:-1 6:-1 7:1 8:-1 9:-1 10:-1 11:-1 12:-1 
-0 2 0 0 0 0 0 1:-0.380423 2:-0.507012 3:-0.79923 4:-0.358517 5:-1 6:-1 7:1 8:-1 9:-1 10:-1 11:-1 12:-1 
-0.03533444608889027 2 0.4375858602368091 0.05761267061599807 0.04797969738349957 0.04490129184030624 0.03143980452685842 1:-0.364413 2:-0.443909 3:-0.785755 4:-0.348338 5:-1 6:-1 7:1 8:-1 9:-1 10:-1 11:-1 12:-1 
-0.2988221331142506 0.1149206676004158 0.03398398531800244 0.08331854053440539 0.07597167036825588 0.06990871597312749 0.04622048219233374 1:0.083739 2:-0.476118 3:-0.444086 4:0.141739 5:1 6:-1 7:-1 8:-1 9:-1 10:-1 11:-1 12:-1 
-0 0.2130695013177529 0.06992577785492815 0.1619571278728391 0.1391212458433912 0.1335732706761594 0.0972478428032368 1:0.199528 2:-0.500054 3:-0.331966 4:0.270627 5:1 6:-1 7:-1 8:-1 9:-1 10:-1 11:-1 12:-1 
-0.3178388103642097 0.6975313923362931 0.2181856804555531 0.5177828451370154 0.4561887757174322 0.4241232972820879 0.2975100030758802 1:0.268309 2:-0.446846 3:-0.251808 4:0.338863 5:1 6:-1 7:-1 8:-1 9:-1 10:-1 11:-1 12:-1 
-0 0 2 0 0 0 0 1:-0.153508 2:-0.29191 3:-0.627856 4:-0.140003 5:-1 6:1 7:-1 8:-1 9:-1 10:-1 11:-1 12:-1 
-0 0 2 0 0 0 0 1:-0.00498728 2:-0.183975 3:-0.488459 4:0.00437735 5:-1 6:1 7:-1 8:-1 9:-1 10:-1 11:-1 12:-1 
-0 0 2 0 0 0 0 1:-0.10164 2:-0.299668 3:-0.587385 4:-0.0825623 5:-1 6:1 7:-1 8:-1 9:-1 10:-1 11:-1 12:-1 
-0 0 0.164724728409547 0 0 0 0 1:0.156829 2:-0.346007 3:-0.355858 4:0.203979 5:-1 6:1 7:-1 8:-1 9:-1 10:-1 11:-1 12:-1 
-0 0 1.839258781596106 0 0 0 0 1:-0.0203398 2:-0.317682 3:-0.520544 4:0.00781749 5:-1 6:1 7:-1 8:-1 9:-1 10:-1 11:-1 12:-1 
-0 0 2 0 0 0 0 1:-0.123244 2:-0.445328 3:-0.620185 4:-0.0866945 5:-1 6:1 7:-1 8:-1 9:-1 10:-1 11:-1 12:-1 
-0 0 2 0 0 0 0 1:-0.0843007 2:-0.245305 3:-0.566313 4:-0.0718987 5:-1 6:1 7:-1 8:-1 9:-1 10:-1 11:-1 12:-1 
-0 0 2 0 0 0 0 1:-0.00908948 2:-0.355556 3:-0.515274 4:0.0253548 5:-1 6:1 7:-1 8:-1 9:-1 10:-1 11:-1 12:-1 
-0 0 2 0 0 0 0 1:-0.258505 2:-0.453169 3:-0.719508 4:-0.232479 5:-1 6:1 7:-1 8:-1 9:-1 10:-1 11:-1 12:-1 
-0 0 2 0 0 0 0 1:-0.172017 2:-0.430063 3:-0.656064 4:-0.141618 5:-1 6:1 7:-1 8:-1 9:-1 10:-1 11:-1 12:-1 
-0 0 2 0 0 0 0 1:-0.110008 2:-0.459942 3:-0.611111 4:-0.0706279 5:-1 6:1 7:-1 8:-1 9:-1 10:-1 11:-1 12:-1 
-0 0 2 0 0 0 0 1:-0.0956405 2:-0.321541 3:-0.58504 4:-0.0731394 5:-1 6:1 7:-1 8:-1 9:-1 10:-1 11:-1 12:-1 
-0 0 2 0 0 0 0 1:-0.0114835 2:-0.304123 3:-0.51099 4:0.0155137 5:-1 6:1 7:-1 8:-1 9:-1 10:-1 11:-1 12:-1 
-0 0 2 0 0 0 0 1:-0.0345284 2:-0.467723 3:-0.549786 4:0.0123914 5:-1 6:1 7:-1 8:-1 9:-1 10:-1 11:-1 12:-1 
-0 0 2 0 0 0 0 1:-0.0965696 2:-0.460719 3:-0.600451 4:-0.055874 5:-1 6:1 7:-1 8:-1 9:-1 10:-1 11:-1 12:-1 
-0 0 2 0 0 0 0 1:0.0409132 2:-0.206702 3:-0.449284 4:0.0577404 5:-1 6:1 7:-1 8:-1 9:-1 10:-1 11:-1 12:-1 
-0 2 0 0 0 0 0 1:-0.355251 2:-0.512861 3:-0.784981 4:-0.330426 5:-1 6:-1 7:1 8:-1 9:-1 10:-1 11:-1 12:-1 
-0 2 0 0 0 0 0 1:-0.268278 2:-0.473811 3:-0.727659 4:-0.24058 5:-1 6:-1 7:1 8:-1 9:-1 10:-1 11:-1 12:-1 
-0 2 0 0 0 0 0 1:-0.246565 2:-0.490029 3:-0.7143 4:-0.215199 5:-1 6:-1 7:1 8:-1 9:-1 10:-1 11:-1 12:-1 
-0 0 2 0 0 0 0 1:-0.0389479 2:-0.438121 3:-0.550512 4:0.0039467 5:-1 6:1 7:-1 8:-1 9:-1 10:-1 11:-1 12:-1 
-0 0 2 0 0 0 0 1:-0.0122714 2:-0.404348 3:-0.523787 4:0.0285866 5:-1 6:1 7:-1 8:-1 9:-1 10:-1 11:-1 12:-1 
-0 0 2 0 0 0 0 1:-0.154282 2:-0.404539 3:-0.640277 4:-0.125464 5:-1 6:1 7:-1 8:-1 9:-1 10:-1 11:-1 12:-1 
-0 0 2 0 0 0 0 1:0.0184148 2:-0.198783 3:-0.469163 4:0.0321213 5:-1 6:1 7:-1 8:-1 9:-1 10:-1 11:-1 12:-1 
-0.3544407028340681 2 0.3255448294335116 0.5781853685961872 0.5082709752723952 0.4744348734718158 0.3356433176224689 1:0.30538 2:0.11226 3:-0.100503 4:0.28714 5:-1 6:1 7:-1 8:-1 9:-1 10:-1 11:-1 12:-1 
-1.448002633787055 0 0 0 0 0 0 1:-0.364411 2:-0.439917 3:-0.785472 4:-0.348803 5:-1 6:-1 7:-1 8:1 9:-1 10:-1 11:-1 12:-1 
-0 0 2 0 0 0 0 1:-0.0505411 2:-0.458681 3:-0.562443 4:-0.00603211 5:-1 6:1 7:-1 8:-1 9:-1 10:-1 11:-1 12:-1 
-0 0 2 0 0 0 0 1:-0.155204 2:-0.39864 3:-0.640429 4:-0.12725 5:-1 6:1 7:-1 8:-1 9:-1 10:-1 11:-1 12:-1 
-0 0 2 0 0 0 0 1:-0.211544 2:-0.284219 3:-0.670771 4:-0.203636 5:-1 6:1 7:-1 8:-1 9:-1 10:-1 11:-1 12:-1 
-0 0 2 0 0 0 0 1:-0.188794 2:-0.3009 3:-0.655751 4:-0.176695 5:-1 6:1 7:-1 8:-1 9:-1 10:-1 11:-1 12:-1 
-0 0 2 0 0 0 0 1:-0.172632 2:-0.438565 3:-0.657333 4:-0.140959 5:-1 6:1 7:-1 8:-1 9:-1 10:-1 11:-1 12:-1 
-0 0 2 0 0 0 0 1:-0.223331 2:-0.334002 3:-0.684412 4:-0.209521 5:-1 6:1 7:-1 8:-1 9:-1 10:-1 11:-1 12:-1 
-0 0 2 0 0 0 0 1:-0.139319 2:-0.302325 3:-0.61794 4:-0.123044 5:-1 6:1 7:-1 8:-1 9:-1 10:-1 11:-1 12:-1 
-0 0 0.03892522137358195 0.0912057847723771 0.09018700247844059 0.08656846982896282 0.05953233531922388 1:-0.104697 2:-0.556854 3:-0.615394 4:-0.0536056 5:-1 6:-1 7:-1 8:1 9:-1 10:-1 11:-1 12:-1 
-0.7956755434999976 0.6636057326821847 0.208000371873904 0.4952277503484874 0.4358305043815388 0.4080413283768388 0.2873222887997812 1:-0.1393 2:-0.0625395 3:-0.586689 4:-0.157715 5:1 6:-1 7:-1 8:-1 9:-1 10:-1 11:-1 12:-1 
-0 0.4261910809638303 2 0 0 0 0 1:-0.0759055 2:-0.505537 3:-0.587921 4:-0.027999 5:-1 6:1 7:-1 8:-1 9:-1 10:-1 11:-1 12:-1 
-0 0 2 0 0 0 0 1:-0.175242 2:-0.488148 3:-0.663568 4:-0.13791 5:-1 6:1 7:-1 8:-1 9:-1 10:-1 11:-1 12:-1 
-2 0 0 0 0 0 0 1:-0.375402 2:-0.565844 3:-0.79986 4:-0.346759 5:1 6:-1 7:-1 8:-1 9:-1 10:-1 11:-1 12:-1 
-2 1.088015887896672 0 0 0 0 0 1:-0.392474 2:-0.525247 3:-0.807154 4:-0.369584 5:-1 6:-1 7:-1 8:1 9:-1 10:-1 11:-1 12:-1 
-2 2 0.1560979966124454 0.3692951559341116 0.3271146914457755 0.3065669205219432 0.2174985901546203 1:-0.40884 2:-0.523106 3:-0.816081 4:-0.387541 5:-1 6:-1 7:-1 8:1 9:-1 10:-1 11:-1 12:-1 
-0 0 0.1419793251223087 0.3371642026244536 0.2920148705035828 0.2726493512257112 0.1913607855824631 1:-0.320976 2:-0.630599 3:-0.771367 4:-0.281303 5:-1 6:-1 7:-1 8:1 9:-1 10:-1 11:-1 12:-1 
-0 0 2 0 0 0 0 1:-0.174855 2:-0.412949 3:-0.656626 4:-0.146748 5:-1 6:1 7:-1 8:-1 9:-1 10:-1 11:-1 12:-1 
-0 0 2 0 0 0 0 1:-0.228723 2:-0.540826 3:-0.70586 4:-0.190115 5:-1 6:1 7:-1 8:-1 9:-1 10:-1 11:-1 12:-1 
-0 0 2 0 0 0 0 1:-0.213193 2:-0.483894 3:-0.690666 4:-0.179691 5:-1 6:1 7:-1 8:-1 9:-1 10:-1 11:-1 12:-1 
-0 0 2 0 0 0 0 1:0.0695051 2:-0.36275 3:-0.444119 4:0.111629 5:-1 6:1 7:-1 8:-1 9:-1 10:-1 11:-1 12:-1 
-0.1703270462953706 0 0.1197547280116949 0.2838211861796592 0.2455633964393914 0.2335415841713807 0.1608112483939854 1:0.481979 2:-0.00325073 3:0.0937746 4:0.499574 5:-1 6:1 7:-1 8:-1 9:-1 10:-1 11:-1 12:-1 
-2 0 0 0 0 0 0 1:-0.370242 2:-0.514187 3:-0.793809 4:-0.346684 5:1 6:-1 7:-1 8:-1 9:-1 10:-1 11:-1 12:-1 
-0 0 2 0 0 0 0 1:-0.123039 2:-0.46186 3:-0.621596 4:-0.0842978 5:-1 6:1 7:-1 8:-1 9:-1 10:-1 11:-1 12:-1 
-0 0 2 0 0 0 0 1:-0.15808 2:-0.467796 3:-0.649041 4:-0.121621 5:-1 6:1 7:-1 8:-1 9:-1 10:-1 11:-1 12:-1 
-0 0 2 0 0 0 0 1:-0.0775029 2:-0.288428 3:-0.566059 4:-0.0581901 5:-1 6:1 7:-1 8:-1 9:-1 10:-1 11:-1 12:-1 
-0 0 2 0 0 0 0 1:-0.126449 2:-0.279693 3:-0.605111 4:-0.112164 5:-1 6:1 7:-1 8:-1 9:-1 10:-1 11:-1 12:-1 
-0 0 0.557819495799374 0 0 0 0 1:-0.0756541 2:-0.316439 3:-0.567904 4:-0.0520299 5:-1 6:1 7:-1 8:-1 9:-1 10:-1 11:-1 12:-1 
-0 0 2 0 0 0 0 1:-0.14648 2:-0.509764 3:-0.643859 4:-0.104254 5:-1 6:1 7:-1 8:-1 9:-1 10:-1 11:-1 12:-1 
-0 0 2 0 0 0 0 1:-0.189609 2:-0.49662 3:-0.674789 4:-0.152571 5:-1 6:1 7:-1 8:-1 9:-1 10:-1 11:-1 12:-1 
-0 0 2 0 0 0 0 1:-0.173598 2:-0.511949 3:-0.664322 4:-0.133473 5:-1 6:1 7:-1 8:-1 9:-1 10:-1 11:-1 12:-1 
-0 0 2 0 0 0 0 1:-0.0358091 2:-0.439465 3:-0.547986 4:0.00749864 5:-1 6:1 7:-1 8:-1 9:-1 10:-1 11:-1 12:-1 
-0 0 2 0 0 0 0 1:-0.0122184 2:-0.420913 3:-0.525557 4:0.0307491 5:-1 6:1 7:-1 8:-1 9:-1 10:-1 11:-1 12:-1 
-2 0 0 0 0 0 0 1:-0.377401 2:-0.471065 3:-0.795189 4:-0.359214 5:-1 6:-1 7:-1 8:1 9:-1 10:-1 11:-1 12:-1 
-0 0 2 0 0 0 0 1:-0.237162 2:-0.503254 3:-0.708893 4:-0.203472 5:-1 6:1 7:-1 8:-1 9:-1 10:-1 11:-1 12:-1 
-0 0 2 0 0 0 0 1:-0.249098 2:-0.456845 3:-0.713425 4:-0.221818 5:-1 6:1 7:-1 8:-1 9:-1 10:-1 11:-1 12:-1 
-0.1042874183706393 0 2 0.1761620100175151 0.1530127221837893 0.1470730728117511 0.09929991069479063 1:0.0255595 2:-0.41458 3:-0.491189 4:0.0708639 5:-1 6:1 7:-1 8:-1 9:-1 10:-1 11:-1 12:-1 
-0 0 2 0 0 0 0 1:-0.000947053 2:-0.380022 3:-0.51098 4:0.0376223 5:-1 6:1 7:-1 8:-1 9:-1 10:-1 11:-1 12:-1 
-2 0 0 0 0 0 0 1:-0.374818 2:-0.58958 3:-0.800841 4:-0.343756 5:1 6:-1 7:-1 8:-1 9:-1 10:-1 11:-1 12:-1 
-2 0 0 0 0 0 0 1:-0.392805 2:-0.565327 3:-0.809624 4:-0.365703 5:1 6:-1 7:-1 8:-1 9:-1 10:-1 11:-1 12:-1 
-0 0 2 0 0 0 0 1:-0.193313 2:-0.365393 3:-0.665724 4:-0.172911 5:-1 6:1 7:-1 8:-1 9:-1 10:-1 11:-1 12:-1 
-0 0 2 0 0 0 0 1:-0.225011 2:-0.4101 3:-0.692711 4:-0.201483 5:-1 6:1 7:-1 8:-1 9:-1 10:-1 11:-1 12:-1 
-0 0 2 0 0 0 0 1:-0.182184 2:-0.281086 3:-0.648578 4:-0.172174 5:-1 6:1 7:-1 8:-1 9:-1 10:-1 11:-1 12:-1 
-0 0 2 0 0 0 0 1:-0.206589 2:-0.294738 3:-0.668273 4:-0.196778 5:-1 6:1 7:-1 8:-1 9:-1 10:-1 11:-1 12:-1 
-0 2 0 0 0 0 0 1:-0.0260105 2:-0.0777675 3:-0.491023 4:-0.0352623 5:-1 6:-1 7:-1 8:1 9:-1 10:-1 11:-1 12:-1 
-2 0 0 0 0 0 0 1:-0.398318 2:-0.661538 3:-0.817438 4:-0.362666 5:1 6:-1 7:-1 8:-1 9:-1 10:-1 11:-1 12:-1 
-2 0 0 0 0 0 0 1:-0.373641 2:-0.545095 3:-0.797658 4:-0.347025 5:1 6:-1 7:-1 8:-1 9:-1 10:-1 11:-1 12:-1 
-2 0 0 0 0 0 0 1:-0.357389 2:-0.600468 3:-0.791398 4:-0.323746 5:-1 6:-1 7:-1 8:1 9:-1 10:-1 11:-1 12:-1 
-0 2 0 0 0 0 0 1:-0.322749 2:-0.563862 3:-0.768618 4:-0.289802 5:-1 6:-1 7:1 8:-1 9:-1 10:-1 11:-1 12:-1 
-0 2 0 0 0 0 0 1:-0.171958 2:-0.486624 3:-0.661032 4:-0.134435 5:-1 6:-1 7:1 8:-1 9:-1 10:-1 11:-1 12:-1 
-0 2 0 0 0 0 0 1:-0.038288 2:-0.283543 3:-0.531914 4:-0.015981 5:-1 6:-1 7:1 8:-1 9:-1 10:-1 11:-1 12:-1 
-0 2 0 0 0 0 0 1:0.0354439 2:-0.286857 3:-0.466004 4:0.065433 5:-1 6:-1 7:1 8:-1 9:-1 10:-1 11:-1 12:-1 
-0 2 0 0 0 0 0 1:0.0443103 2:-0.370347 3:-0.46871 4:0.0853952 5:-1 6:-1 7:1 8:-1 9:-1 10:-1 11:-1 12:-1 
-0 2 0 0 0 0 0 1:-0.131273 2:-0.335393 3:-0.615282 4:-0.10974 5:-1 6:-1 7:1 8:-1 9:-1 10:-1 11:-1 12:-1 
-0 1.944702711158348 2 0 0 0 0 1:-0.112482 2:-0.211552 3:-0.585349 4:-0.107209 5:-1 6:1 7:-1 8:-1 9:-1 10:-1 11:-1 12:-1 
-0 0 2 0 0 0 0 1:-0.174476 2:-0.321184 3:-0.647151 4:-0.158511 5:-1 6:1 7:-1 8:-1 9:-1 10:-1 11:-1 12:-1 
-0 0 2 0 0 0 0 1:-0.224766 2:-0.281608 3:-0.680106 4:-0.218362 5:-1 6:1 7:-1 8:-1 9:-1 10:-1 11:-1 12:-1 
-0 0 2 0 0 0 0 1:-0.16022 2:-0.263239 3:-0.62979 4:-0.15133 5:-1 6:1 7:-1 8:-1 9:-1 10:-1 11:-1 12:-1 
-0 0 0.1527681753937054 0 0 0 0 1:-0.053356 2:-0.401373 3:-0.558836 4:-0.0164775 5:-1 6:1 7:-1 8:-1 9:-1 10:-1 11:-1 12:-1 
-2 0 0 0 0 0 0 1:-0.38445 2:-0.483928 3:-0.800072 4:-0.36543 5:1 6:-1 7:-1 8:-1 9:-1 10:-1 11:-1 12:-1 
-2 0 0 0 0 0 0 1:-0.404797 2:-0.581177 3:-0.817082 4:-0.377088 5:1 6:-1 7:-1 8:-1 9:-1 10:-1 11:-1 12:-1 
-2 0 0 0 0 0 0 1:-0.404851 2:-0.601143 3:-0.818131 4:-0.37525 5:1 6:-1 7:-1 8:-1 9:-1 10:-1 11:-1 12:-1 
-2 0 0 0 0 0 0 1:-0.383255 2:-0.557325 3:-0.803831 4:-0.356198 5:1 6:-1 7:-1 8:-1 9:-1 10:-1 11:-1 12:-1 
-0 0 2 0 0 0 0 1:-0.198731 2:-0.403587 3:-0.67334 4:-0.173775 5:-1 6:1 7:-1 8:-1 9:-1 10:-1 11:-1 12:-1 
-0 0 2 0 0 0 0 1:-0.165845 2:-0.297602 3:-0.638017 4:-0.152487 5:-1 6:1 7:-1 8:-1 9:-1 10:-1 11:-1 12:-1 
-0 0 2 0 0 0 0 1:-0.175699 2:-0.392165 3:-0.65527 4:-0.15022 5:-1 6:1 7:-1 8:-1 9:-1 10:-1 11:-1 12:-1 
-0 0 2 0 0 0 0 1:-0.279578 2:-0.4973 3:-0.736832 4:-0.250248 5:-1 6:1 7:-1 8:-1 9:-1 10:-1 11:-1 12:-1 
-0 0 2 0 0 0 0 1:-0.269644 2:-0.473964 3:-0.728585 4:-0.242153 5:-1 6:1 7:-1 8:-1 9:-1 10:-1 11:-1 12:-1 
-0 0 2 0 0 0 0 1:-0.145996 2:-0.47146 3:-0.640161 4:-0.108221 5:-1 6:1 7:-1 8:-1 9:-1 10:-1 11:-1 12:-1 
-0 0 2 0 0 0 0 1:-0.0428257 2:-0.432213 3:-0.553178 4:-0.0010748 5:-1 6:1 7:-1 8:-1 9:-1 10:-1 11:-1 12:-1 
-0 0 2 0 0 0 0 1:-0.199047 2:-0.363859 3:-0.669788 4:-0.179144 5:-1 6:1 7:-1 8:-1 9:-1 10:-1 11:-1 12:-1 
-0 0 2 0 0 0 0 1:-0.152891 2:-0.260081 3:-0.623718 4:-0.143419 5:-1 6:1 7:-1 8:-1 9:-1 10:-1 11:-1 12:-1 
-0 0 2 0 0 0 0 1:-0.15007 2:-0.302871 3:-0.626366 4:-0.134665 5:-1 6:1 7:-1 8:-1 9:-1 10:-1 11:-1 12:-1 
-0 0 2 0 0 0 0 1:-0.129639 2:-0.28015 3:-0.607705 4:-0.115805 5:-1 6:1 7:-1 8:-1 9:-1 10:-1 11:-1 12:-1 
-0 0 2 0 0 0 0 1:0.182161 2:-0.368046 3:-0.332981 4:0.234768 5:-1 6:1 7:-1 8:-1 9:-1 10:-1 11:-1 12:-1 
-0 0 2 0 0 0 0 1:0.00676093 2:-0.352826 3:-0.500806 4:0.0422581 5:-1 6:1 7:-1 8:-1 9:-1 10:-1 11:-1 12:-1 
-0 0 2 0 0 0 0 1:-0.0217544 2:-0.287358 3:-0.5179 4:0.00209007 5:-1 6:1 7:-1 8:-1 9:-1 10:-1 11:-1 12:-1 
-0 0 2 0 0 0 0 1:0.0209229 2:-0.33333 3:-0.485549 4:0.0549602 5:-1 6:1 7:-1 8:-1 9:-1 10:-1 11:-1 12:-1 
-0 0 2 0 0 0 0 1:0.0153409 2:-0.298214 3:-0.486042 4:0.0437512 5:-1 6:1 7:-1 8:-1 9:-1 10:-1 11:-1 12:-1 
-0 0.4298120970155361 0.1349050274348831 0.3196395111995871 0.2819288644256064 0.2640567032792738 0.184983555528949 1:-0.247474 2:-0.58947 3:-0.721886 4:-0.20547 5:1 6:-1 7:-1 8:-1 9:-1 10:-1 11:-1 12:-1 
-0 0 2 0 0 0 0 1:-0.190296 2:-0.415624 3:-0.668291 4:-0.16299 5:-1 6:1 7:-1 8:-1 9:-1 10:-1 11:-1 12:-1 
-0 0 2 0 0 0 0 1:-0.199341 2:-0.422038 3:-0.675465 4:-0.172001 5:-1 6:1 7:-1 8:-1 9:-1 10:-1 11:-1 12:-1 
-0.1160947422036587 1.226082875010451 2 0.1908212670704349 0.1673818021794938 0.1584112850547624 0.110509287360671 1:0.131627 2:-0.0860679 3:-0.339118 4:0.135835 5:-1 6:1 7:-1 8:-1 9:-1 10:-1 11:-1 12:-1 
-0 0 2 0 0 0 0 1:-0.0545108 2:-0.287082 3:-0.546404 4:-0.0334773 5:-1 6:1 7:-1 8:-1 9:-1 10:-1 11:-1 12:-1 
-0 0 2 0 0 0 0 1:-0.149535 2:-0.327945 3:-0.628753 4:-0.130637 5:-1 6:1 7:-1 8:-1 9:-1 10:-1 11:-1 12:-1 
-0 0 2 0 0 0 0 1:-0.183704 2:-0.410861 3:-0.662997 4:-0.156614 5:-1 6:1 7:-1 8:-1 9:-1 10:-1 11:-1 12:-1 
-0 0 2 0 0 0 0 1:-0.166819 2:-0.346785 3:-0.643993 4:-0.146692 5:-1 6:1 7:-1 8:-1 9:-1 10:-1 11:-1 12:-1 
-0 0.05326513141153458 0 0 0 0 0 1:-0.223815 2:-0.101753 3:-0.658375 4:-0.243618 5:-1 6:-1 7:-1 8:1 9:-1 10:-1 11:-1 12:-1 
-0 0 2 0 0 0 0 1:-0.171999 2:-0.459398 3:-0.658721 4:-0.137802 5:-1 6:1 7:-1 8:-1 9:-1 10:-1 11:-1 12:-1 
-0 0 2 0 0 0 0 1:-0.247963 2:-0.42956 3:-0.710406 4:-0.223816 5:-1 6:1 7:-1 8:-1 9:-1 10:-1 11:-1 12:-1 
-0 0.08971178146826166 2 0 0 0 0 1:-0.263348 2:-0.290114 3:-0.70816 4:-0.258571 5:-1 6:1 7:-1 8:-1 9:-1 10:-1 11:-1 12:-1 
-0 0 2 0 0 0 0 1:-0.261774 2:-0.308481 3:-0.708896 4:-0.254739 5:-1 6:1 7:-1 8:-1 9:-1 10:-1 11:-1 12:-1 
-0 0 2 0 0 0 0 1:-0.270046 2:-0.451461 3:-0.727102 4:-0.245231 5:-1 6:1 7:-1 8:-1 9:-1 10:-1 11:-1 12:-1 
-0 0 2 0 0 0 0 1:0.0220995 2:-0.177609 3:-0.462503 4:0.0330622 5:-1 6:1 7:-1 8:-1 9:-1 10:-1 11:-1 12:-1 
-2 0.9765446904821327 0.3080416723347525 0.7279132315748813 0.6386711089989662 0.5978687235797937 0.4219626834608744 1:-0.524707 2:-0.681007 3:-0.880506 4:-0.498261 5:1 6:-1 7:-1 8:-1 9:-1 10:-1 11:-1 12:-1 
-0 0 2 0 0 0 0 1:-0.250629 2:-0.463833 3:-0.715021 4:-0.222494 5:-1 6:1 7:-1 8:-1 9:-1 10:-1 11:-1 12:-1 
-0.3535401432876946 2 2 0.5766392413520138 0.5059372811405709 0.4738832810378938 0.3350926203845701 1:-0.345096 2:-0.554959 3:-0.781569 4:-0.315006 5:-1 6:1 7:-1 8:-1 9:-1 10:-1 11:-1 12:-1 
-0 0 2 0 0 0 0 1:-0.212471 2:-0.397209 3:-0.682677 4:-0.189521 5:-1 6:1 7:-1 8:-1 9:-1 10:-1 11:-1 12:-1 
-0 0 2 0 0 0 0 1:-0.185051 2:-0.379295 3:-0.660985 4:-0.162186 5:-1 6:1 7:-1 8:-1 9:-1 10:-1 11:-1 12:-1 
-0 0 2 0 0 0 0 1:-0.18322 2:-0.437277 3:-0.665058 4:-0.152673 5:-1 6:1 7:-1 8:-1 9:-1 10:-1 11:-1 12:-1 
-1.860601851652501 0 0 0 0 0 0 1:-0.349568 2:-0.613693 3:-0.78755 4:-0.31399 5:-1 6:-1 7:-1 8:1 9:-1 10:-1 11:-1 12:-1 
-0 0 2 0 0 0 0 1:-0.176791 2:-0.399967 3:-0.656828 4:-0.150531 5:-1 6:1 7:-1 8:-1 9:-1 10:-1 11:-1 12:-1 
-0 0 2 0 0 0 0 1:-0.207394 2:-0.376891 3:-0.67712 4:-0.186554 5:-1 6:1 7:-1 8:-1 9:-1 10:-1 11:-1 12:-1 
-0 0 2 0 0 0 0 1:-0.281706 2:-0.370127 3:-0.728071 4:-0.268051 5:-1 6:1 7:-1 8:-1 9:-1 10:-1 11:-1 12:-1 
-0 0 2 0 0 0 0 1:-0.263163 2:-0.357881 3:-0.71447 4:-0.249549 5:-1 6:1 7:-1 8:-1 9:-1 10:-1 11:-1 12:-1 
-0 0 2 0 0 0 0 1:-0.070964 2:-0.222387 3:-0.55204 4:-0.0609882 5:-1 6:1 7:-1 8:-1 9:-1 10:-1 11:-1 12:-1 
-1.99439403816478 0 0 0 0 0 0 1:-0.253955 2:-0.186527 3:-0.690514 4:-0.262122 5:1 6:-1 7:-1 8:-1 9:-1 10:-1 11:-1 12:-1 
-2 0 0 0 0 0 0 1:-0.383613 2:-0.429271 3:-0.795677 4:-0.371247 5:1 6:-1 7:-1 8:-1 9:-1 10:-1 11:-1 12:-1 
-2 0 0 0 0 0 0 1:-0.397795 2:-0.404131 3:-0.802247 4:-0.389044 5:1 6:-1 7:-1 8:-1 9:-1 10:-1 11:-1 12:-1 
-0 0 2 0 0 0 0 1:-0.149247 2:-0.321501 3:-0.627835 4:-0.131052 5:-1 6:1 7:-1 8:-1 9:-1 10:-1 11:-1 12:-1 
-0.2045247760920501 2 2 0.3327391499453923 0.2919799546553708 0.2742208366838658 0.194102545437869 1:-0.250356 2:-0.246482 3:-0.694628 4:-0.250458 5:-1 6:1 7:-1 8:-1 9:-1 10:-1 11:-1 12:-1 
-0 0 2 0 0 0 0 1:-0.173668 2:-0.264911 3:-0.640305 4:-0.165606 5:-1 6:1 7:-1 8:-1 9:-1 10:-1 11:-1 12:-1 
-0 0 2 0 0 0 0 1:-0.165256 2:-0.353604 3:-0.643557 4:-0.144058 5:-1 6:1 7:-1 8:-1 9:-1 10:-1 11:-1 12:-1 
-0 0 2 0 0 0 0 1:-0.233636 2:-0.310818 3:-0.689462 4:-0.223878 5:-1 6:1 7:-1 8:-1 9:-1 10:-1 11:-1 12:-1 
-0 0 2 0 0 0 0 1:-0.217511 2:-0.390508 3:-0.685654 4:-0.195644 5:-1 6:1 7:-1 8:-1 9:-1 10:-1 11:-1 12:-1 
-0 0 2 0 0 0 0 1:-0.233143 2:-0.35993 3:-0.693899 4:-0.216525 5:-1 6:1 7:-1 8:-1 9:-1 10:-1 11:-1 12:-1 
-0 0 2 0 0 0 0 1:-0.279909 2:-0.409179 3:-0.730206 4:-0.260959 5:-1 6:1 7:-1 8:-1 9:-1 10:-1 11:-1 12:-1 
-0 0 2 0 0 0 0 1:-0.136881 2:-0.320527 3:-0.618067 4:-0.117855 5:-1 6:1 7:-1 8:-1 9:-1 10:-1 11:-1 12:-1 
-0 0 2 0 0 0 0 1:-0.00312679 2:-0.189845 3:-0.487635 4:0.00745213 5:-1 6:1 7:-1 8:-1 9:-1 10:-1 11:-1 12:-1 
-2 0 0 0 0 0 0 1:-0.384036 2:-0.609472 3:-0.807082 4:-0.351702 5:1 6:-1 7:-1 8:-1 9:-1 10:-1 11:-1 12:-1 
-0 0 2 0 0 0 0 1:-0.153876 2:-0.441129 3:-0.643458 4:-0.120372 5:-1 6:1 7:-1 8:-1 9:-1 10:-1 11:-1 12:-1 
-0 0 2 0 0 0 0 1:-0.191631 2:-0.304689 3:-0.658272 4:-0.179304 5:-1 6:1 7:-1 8:-1 9:-1 10:-1 11:-1 12:-1 
-0 0 2 0 0 0 0 1:-0.18703 2:-0.324865 3:-0.656972 4:-0.171618 5:-1 6:1 7:-1 8:-1 9:-1 10:-1 11:-1 12:-1 
-0 0 2 0 0 0 0 1:-0.265459 2:-0.484426 3:-0.726599 4:-0.236328 5:-1 6:1 7:-1 8:-1 9:-1 10:-1 11:-1 12:-1 
-0 0 2 0 0 0 0 1:-0.275273 2:-0.411978 3:-0.727372 4:-0.255723 5:-1 6:1 7:-1 8:-1 9:-1 10:-1 11:-1 12:-1 
-0 0 2 0 0 0 0 1:0.123536 2:-0.100444 3:-0.350138 4:0.130558 5:-1 6:1 7:-1 8:-1 9:-1 10:-1 11:-1 12:-1 
-0 0.08428510661674157 0.02804918852961965 0.06030434903063485 0.0531299686661462 0.04914899850956581 0.03397688831315102 1:0.0347606 2:-0.0343288 3:-0.42659 4:0.0269328 5:1 6:-1 7:-1 8:-1 9:-1 10:-1 11:-1 12:-1 
-2 0 0 0 0 0 0 1:-0.381445 2:-0.566146 3:-0.803306 4:-0.353339 5:-1 6:-1 7:-1 8:1 9:-1 10:-1 11:-1 12:-1 
-0 0 2 0 0 0 0 1:-0.188491 2:-0.43847 3:-0.669035 4:-0.158335 5:-1 6:1 7:-1 8:-1 9:-1 10:-1 11:-1 12:-1 
-0 0 2 0 0 0 0 1:-0.291221 2:-0.43463 3:-0.739694 4:-0.270126 5:-1 6:1 7:-1 8:-1 9:-1 10:-1 11:-1 12:-1 
-0 0 2 0 0 0 0 1:-0.265918 2:-0.30193 3:-0.711102 4:-0.259747 5:-1 6:1 7:-1 8:-1 9:-1 10:-1 11:-1 12:-1 
-0 0 2 0 0 0 0 1:-0.111487 2:-0.238591 3:-0.587997 4:-0.102067 5:-1 6:1 7:-1 8:-1 9:-1 10:-1 11:-1 12:-1 
-2 0 0 0 0 0 0 1:-0.382606 2:-0.526808 3:-0.801675 4:-0.358723 5:-1 6:-1 7:-1 8:1 9:-1 10:-1 11:-1 12:-1 
-0.2111328167967384 0.4439291651829008 2 0.3440849103954508 0.302406477713327 0.2817453766922662 0.1997414074363949 1:-0.111887 2:-0.542749 3:-0.6199 4:-0.0628961 5:-1 6:1 7:-1 8:-1 9:-1 10:-1 11:-1 12:-1 
-0 0 2 0 0 0 0 1:-0.322512 2:-0.468609 3:-0.762137 4:-0.300024 5:-1 6:1 7:-1 8:-1 9:-1 10:-1 11:-1 12:-1 
-0 2 2 0 0 0 0 1:-0.341423 2:-0.517228 3:-0.77702 4:-0.315059 5:-1 6:1 7:-1 8:-1 9:-1 10:-1 11:-1 12:-1 
-0 0 2 0 0 0 0 1:-0.297501 2:-0.428801 3:-0.743285 4:-0.277813 5:-1 6:1 7:-1 8:-1 9:-1 10:-1 11:-1 12:-1 
-0 0 2 0 0 0 0 1:-0.270963 2:-0.298306 3:-0.714183 4:-0.266051 5:-1 6:1 7:-1 8:-1 9:-1 10:-1 11:-1 12:-1 
-0 0 2 0 0 0 0 1:-0.184297 2:-0.332974 3:-0.65576 4:-0.167455 5:-1 6:1 7:-1 8:-1 9:-1 10:-1 11:-1 12:-1 
-0 2 0.1644387310046547 0.3929020142776471 0.3441988054234325 0.3227456198067401 0.227754942500654 1:-0.207928 2:-0.0855106 3:-0.644255 4:-0.22558 5:-1 6:-1 7:-1 8:1 9:-1 10:-1 11:-1 12:-1 
-0 0 2 0 0 0 0 1:-0.195636 2:-0.513336 3:-0.680485 4:-0.157182 5:-1 6:1 7:-1 8:-1 9:-1 10:-1 11:-1 12:-1 
-0 0 2 0 0 0 0 1:-0.208988 2:-0.512501 3:-0.689947 4:-0.17173 5:-1 6:1 7:-1 8:-1 9:-1 10:-1 11:-1 12:-1 
-0 0 2 0 0 0 0 1:-0.192038 2:-0.412046 3:-0.669232 4:-0.16541 5:-1 6:1 7:-1 8:-1 9:-1 10:-1 11:-1 12:-1 
-0 0 2 0 0 0 0 1:0.0108462 2:-0.284932 3:-0.488373 4:0.0368615 5:-1 6:1 7:-1 8:-1 9:-1 10:-1 11:-1 12:-1 
-0.1348674058949115 0 0 0 0 0 0 1:0.193896 2:-0.0161822 3:-0.258951 4:0.193384 5:1 6:-1 7:-1 8:-1 9:-1 10:-1 11:-1 12:-1 
-0 0 2 0 0 0 0 1:-0.259543 2:-0.598895 3:-0.730555 4:-0.217554 5:-1 6:1 7:-1 8:-1 9:-1 10:-1 11:-1 12:-1 
-0 0 2 0 0 0 0 1:-0.206431 2:-0.551189 3:-0.691033 4:-0.164764 5:-1 6:1 7:-1 8:-1 9:-1 10:-1 11:-1 12:-1 
-0 0 2 0 0 0 0 1:-0.232186 2:-0.486981 3:-0.704201 4:-0.199925 5:-1 6:1 7:-1 8:-1 9:-1 10:-1 11:-1 12:-1 
-0 0 2 0 0 0 0 1:-0.152243 2:-0.363192 3:-0.634594 4:-0.128751 5:-1 6:1 7:-1 8:-1 9:-1 10:-1 11:-1 12:-1 
-0 0 2 0 0 0 0 1:-0.052147 2:-0.288036 3:-0.544482 4:-0.0308694 5:-1 6:1 7:-1 8:-1 9:-1 10:-1 11:-1 12:-1 
-0 0.3795126308937141 0 0 0 0 0 1:-0.10623 2:-0.0857486 3:-0.562605 4:-0.119544 5:-1 6:-1 7:-1 8:1 9:-1 10:-1 11:-1 12:-1 
-2 0 0 0 0 0 0 1:-0.381569 2:-0.499657 3:-0.799424 4:-0.360468 5:-1 6:-1 7:-1 8:1 9:-1 10:-1 11:-1 12:-1 
-2 0 0 0 0 0 0 1:-0.368434 2:-0.404204 3:-0.785257 4:-0.3572 5:-1 6:-1 7:-1 8:1 9:-1 10:-1 11:-1 12:-1 
-2 2 0 0 0 0 0 1:-0.398367 2:-0.431122 3:-0.80446 4:-0.386397 5:-1 6:-1 7:-1 8:1 9:-1 10:-1 11:-1 12:-1 
-0 0 2 0 0 0 0 1:-0.201879 2:-0.505592 3:-0.684331 4:-0.164843 5:-1 6:1 7:-1 8:-1 9:-1 10:-1 11:-1 12:-1 
-0 0.8531889906153057 2 0 0 0 0 1:-0.333545 2:-0.532742 3:-0.773258 4:-0.304711 5:-1 6:1 7:-1 8:-1 9:-1 10:-1 11:-1 12:-1 
-0 0 2 0 0 0 0 1:-0.233069 2:-0.359732 3:-0.693814 4:-0.216733 5:-1 6:1 7:-1 8:-1 9:-1 10:-1 11:-1 12:-1 
-0 0 2 0 0 0 0 1:-0.169574 2:-0.326919 3:-0.644009 4:-0.152433 5:-1 6:1 7:-1 8:-1 9:-1 10:-1 11:-1 12:-1 
-0 0 2 0 0 0 0 1:0.133094 2:-0.0955349 3:-0.339391 4:0.139081 5:-1 6:1 7:-1 8:-1 9:-1 10:-1 11:-1 12:-1 
-0 0.2602097557351634 0.186914025320329 0.4430992768080811 0.3796852608984753 0.3532330710189523 0.2503625086731565 1:-0.0489666 2:-0.531834 3:-0.568015 4:0.00422593 5:-1 6:-1 7:-1 8:1 9:-1 10:-1 11:-1 12:-1 
-0.04191480694825046 -0.2067386547661398 0.08147946530356999 0.04753154290836782 0.0488827400241707 0.068062921395867 0.02811668176489082 1:-0.163301 2:0.395263 3:-0.526142 4:-0.245221 5:-1 6:-1 7:1 8:-1 9:-1 10:-1 11:-1 12:-1 
-0 -2 0 0 0 0 0 1:-0.16419 2:-0.278185 3:-0.634555 4:-0.153381 5:-1 6:-1 7:1 8:-1 9:-1 10:-1 11:-1 12:-1 
-0 -2 0 0 0 0 0 1:0.0682133 2:-0.351219 3:-0.443738 4:0.109288 5:-1 6:-1 7:1 8:-1 9:-1 10:-1 11:-1 12:-1 
-0 -2 0 0 0 0 0 1:0.122592 2:-0.348968 3:-0.390793 4:0.16755 5:-1 6:-1 7:1 8:-1 9:-1 10:-1 11:-1 12:-1 
-0.1076135327692089 -0 0 0.06049875521542512 0.07190389330829959 0.00491042733055981 0.0398615364808951 1:0.0250455 2:-0.150087 3:-0.455439 4:0.0315147 5:-1 6:-1 7:1 8:-1 9:-1 10:-1 11:-1 12:-1 
-0 -2 0 0 0 0 0 1:0.123868 2:-0.265601 3:-0.377466 4:0.156626 5:-1 6:-1 7:1 8:-1 9:-1 10:-1 11:-1 12:-1 
-0 -1.457653624731531 0 0 0 0 0 1:0.0836154 2:-0.377968 3:-0.432648 4:0.129208 5:-1 6:-1 7:1 8:-1 9:-1 10:-1 11:-1 12:-1 
-0 -2 0 0 0 0 0 1:0.0385657 2:-0.218114 3:-0.453213 4:0.057306 5:-1 6:-1 7:1 8:-1 9:-1 10:-1 11:-1 12:-1 
-0 -0 0 0 0.01631149134327915 0 0.02059518478597432 1:-0.134044 2:0.217129 3:-0.535401 4:-0.194643 5:-1 6:-1 7:1 8:-1 9:-1 10:-1 11:-1 12:-1 
-0.2922128677616385 -0.5058116749970445 0.1871753992230207 0.3871676729371281 0.3392242769755184 0.3188838470450558 0.2210731841407533 1:-0.431227 2:0.0591751 3:-0.779151 4:-0.486857 5:-1 6:-1 7:1 8:-1 9:-1 10:-1 11:-1 12:-1 
-2 -0 0.02816050542092841 0.06939547562980815 0.06056404784626324 0.05729313608716732 0.04008401729361638 1:-0.557771 2:-0.531156 3:-0.888925 4:-0.547896 5:-1 6:-1 7:-1 8:1 9:-1 10:-1 11:-1 12:-1 
-2 -0 0 0 0 0 0 1:-0.696603 2:-0.722398 3:-0.945352 4:-0.682005 5:-1 6:-1 7:-1 8:1 9:-1 10:-1 11:-1 12:-1 
-0.6538267204202524 -0.8480767277407163 0.3270816885032682 0.8175300800170304 0.7150127480071579 0.6684006907137794 0.4683515058929683 1:0.0128202 2:0.857715 3:-0.224901 4:-0.14131 5:-1 6:-1 7:-1 8:1 9:-1 10:-1 11:-1 12:-1 
-2 -2 0.2340675005278557 0.5862184196023732 0.5125265030900849 0.478385208290918 0.334983730351583 1:-0.388686 2:-0.495054 3:-0.803179 4:-0.368603 5:-1 6:-1 7:-1 8:1 9:-1 10:-1 11:-1 12:-1 
-1.23953803592003 -2 0 0 0 0 0 1:-0.049669 2:0.0153456 3:-0.49671 4:-0.0758784 5:-1 6:-1 7:-1 8:1 9:-1 10:-1 11:-1 12:-1 
-0.7379505183216678 -0.6324229127312704 0.2181239305862988 0.5443834834823457 0.4761539096320618 0.445055755407433 0.311767010722391 1:-0.155954 2:0.131818 3:-0.569447 4:-0.205732 5:-1 6:-1 7:-1 8:1 9:-1 10:-1 11:-1 12:-1 
-2 -0.1225089771715083 0 0 0 0 0 1:-0.515704 2:-0.553649 3:-0.87134 4:-0.500105 5:-1 6:-1 7:-1 8:1 9:-1 10:-1 11:-1 12:-1 
-2 -2 0 0 0 0 0 1:-0.509972 2:-0.587512 3:-0.870225 4:-0.490613 5:-1 6:-1 7:-1 8:1 9:-1 10:-1 11:-1 12:-1 
-2 -0 0 0 0 0 0 1:-0.531899 2:-0.558417 3:-0.878868 4:-0.517245 5:-1 6:-1 7:-1 8:1 9:-1 10:-1 11:-1 12:-1 
-2 -2 0 0 0 0 0 1:-0.512462 2:-0.462112 3:-0.865268 4:-0.506444 5:-1 6:-1 7:-1 8:1 9:-1 10:-1 11:-1 12:-1 
-0 -2 0 0 0 0 0 1:-0.11117 2:0.064316 3:-0.542882 4:-0.148828 5:-1 6:-1 7:-1 8:1 9:-1 10:-1 11:-1 12:-1 
-2 -2 0.264927279148013 0.661939272577834 0.5790072114218117 0.540975090032466 0.3794848137637281 1:0.0520913 2:-0.0338784 3:-0.409654 4:0.0433367 5:-1 6:-1 7:-1 8:1 9:-1 10:-1 11:-1 12:-1 
-0.3576311877599702 -0.8064889569000719 2 0.4772236324420476 0.4177345816206889 0.3906454007471967 0.273400547913643 1:-0.501722 2:-0.716686 3:-0.871381 4:-0.470522 5:-1 6:1 7:-1 8:-1 9:-1 10:-1 11:-1 12:-1 
-0 -0 2 0 0 0 0 1:-0.593029 2:-0.730686 3:-0.910196 4:-0.568697 5:-1 6:1 7:-1 8:-1 9:-1 10:-1 11:-1 12:-1 
-0.007192952393449028 -0 0 0 0 0 0 1:-0.154314 2:0.276816 3:-0.541624 4:-0.22281 5:-1 6:-1 7:1 8:-1 9:-1 10:-1 11:-1 12:-1 
-0.5168728989800786 -0.7166126503855991 0.2770980151948861 0.6897503965059089 0.6034056273011069 0.5640171263253287 0.39494274850479 1:-0.399005 2:0.648544 3:-0.672204 4:-0.530028 5:-1 6:-1 7:1 8:-1 9:-1 10:-1 11:-1 12:-1 
-0 -2 0.1790825527210679 0 0 0 0 1:-0.165426 2:-0.382285 3:-0.646565 4:-0.140326 5:-1 6:-1 7:1 8:-1 9:-1 10:-1 11:-1 12:-1 
-0.3716861485887363 -0.4285287278885231 0.1883138123743088 0.4983608899639095 0.4261485134981779 0.4081115721492656 0.2779702111588666 1:0.516711 2:0.923217 3:0.491947 4:0.359916 5:-1 6:-1 7:1 8:-1 9:-1 10:-1 11:-1 12:-1 
-0.118151206982117 -0.1907158490080517 0.07365611850549228 0.1573060803437409 0.1463464651541379 0.1283166282681092 0.09619001495736831 1:0.480482 2:0.951554 3:0.448884 4:0.316011 5:-1 6:-1 7:1 8:-1 9:-1 10:-1 11:-1 12:-1 
-0 -2 0 0 0 0 0 1:-0.169814 2:-0.265658 3:-0.637469 4:-0.159633 5:-1 6:-1 7:1 8:-1 9:-1 10:-1 11:-1 12:-1 
-0.4178905660825029 -0.5823330353802858 0.2241499854151584 0.5586400842966266 0.4889149084193232 0.4561133845922793 0.3196050206683284 1:0.192059 2:1 3:0.050855 4:0.00897632 5:-1 6:-1 7:1 8:-1 9:-1 10:-1 11:-1 12:-1 
-0.1259800494276719 -0 0 0.1699881661898927 0.157702904533314 0.1417330888689098 0.07452579368661494 1:-0.143952 2:0.287481 3:-0.530681 4:-0.211945 5:-1 6:-1 7:1 8:-1 9:-1 10:-1 11:-1 12:-1 
-0.1520782185475962 -2 0.07373041681855093 0.2431400043810137 0.1731967768531127 0.2093452618923005 0.1144112032183175 1:0.463473 2:0.25246 3:0.142851 4:0.43301 5:-1 6:-1 7:1 8:-1 9:-1 10:-1 11:-1 12:-1 
-0 -2 0 0 0 0 0 1:-0.203803 2:-0.353485 3:-0.672116 4:-0.185212 5:-1 6:-1 7:1 8:-1 9:-1 10:-1 11:-1 12:-1 
-0 -2 0 0 0 0 0 1:-0.21037 2:-0.434153 3:-0.684481 4:-0.182331 5:-1 6:-1 7:1 8:-1 9:-1 10:-1 11:-1 12:-1 
-0 -0.1787731605189657 0.07029368205278458 0 0 0 0 1:-0.572662 2:-0.373294 3:-0.887513 4:-0.581188 5:-1 6:-1 7:1 8:-1 9:-1 10:-1 11:-1 12:-1 
-0.1352405692046196 -0.1785524951763276 0.04522573787532486 0.1774009788900562 0.1543055598040119 0.1453557011447618 0.09966831594923159 1:-0.669676 2:-0.482884 3:-0.929855 4:-0.67364 5:-1 6:-1 7:1 8:-1 9:-1 10:-1 11:-1 12:-1 
-0.4683780839453876 -0.3454236382490345 2 0.6254220754754101 0.5473339130447807 0.5112793457596216 0.3578025037906817 1:-0.712603 2:-0.54947 3:-0.945791 4:-0.713776 5:-1 6:1 7:-1 8:-1 9:-1 10:-1 11:-1 12:-1 
-0.5197062550155359 -0.08012828148683758 2 0.6950962397034507 0.6074480659107711 0.5680416186850892 0.3975806615737772 1:-0.35579 2:0.145408 3:-0.719921 4:-0.416515 5:-1 6:1 7:-1 8:-1 9:-1 10:-1 11:-1 12:-1 
-0.340849895322799 -0.8722726783360509 2 0.4546487976250664 0.3986079232427648 0.3723493340363404 0.260804175308819 1:-0.0720551 2:0.0742357 3:-0.50666 4:-0.107158 5:-1 6:1 7:-1 8:-1 9:-1 10:-1 11:-1 12:-1 
-0 -2 2 0 0 0 0 1:-0.258142 2:-0.101602 3:-0.6835 4:-0.280024 5:-1 6:1 7:-1 8:-1 9:-1 10:-1 11:-1 12:-1 
-0 -2 2 0 0 0 0 1:-0.428641 2:-0.571312 3:-0.829336 4:-0.404017 5:-1 6:1 7:-1 8:-1 9:-1 10:-1 11:-1 12:-1 
-0 -0 0.002690872786395663 0 0 0 0 1:-0.1804 2:0.327977 3:-0.554624 4:-0.262348 5:-1 6:-1 7:1 8:-1 9:-1 10:-1 11:-1 12:-1 
-2 -0 0 0 0 0 0 1:-0.671234 2:-0.725238 3:-0.937578 4:-0.654091 5:-1 6:-1 7:-1 8:1 9:-1 10:-1 11:-1 12:-1 
-2 -0 0.1790066313770848 0.4407036712192617 0.3840267322101258 0.3671434866871114 0.2546661304124636 1:-0.691226 2:-0.796627 3:-0.945207 4:-0.670997 5:-1 6:-1 7:-1 8:1 9:-1 10:-1 11:-1 12:-1 
-2 -0 0.1165851434566118 0.2982843742828121 0.2629262823753034 0.2370295909312677 0.1685190724740054 1:-0.710113 2:-0.749072 3:-0.949904 4:-0.694623 5:-1 6:-1 7:-1 8:1 9:-1 10:-1 11:-1 12:-1 
-2 -0 0.2526664363301365 0.630800373216165 0.5521826469553767 0.51576305660239 0.3612905750761515 1:-0.455339 2:-0.0554009 3:-0.805347 4:-0.493191 5:-1 6:-1 7:-1 8:1 9:-1 10:-1 11:-1 12:-1 
-2 -1.740276887809299 0 0 0 0 0 1:-0.438751 2:-0.086221 3:-0.798821 4:-0.472434 5:-1 6:-1 7:-1 8:1 9:-1 10:-1 11:-1 12:-1 
-0.1006778830283199 -0.1247583744145808 0.03099721048149541 0.1380689077882054 0.1186992510820389 0.1081530810988741 0.07939912893221904 1:-0.311878 2:0.276527 3:-0.669344 4:-0.389443 5:-1 6:-1 7:1 8:-1 9:-1 10:-1 11:-1 12:-1 
-0.3144253803564606 -0.8208012046898553 2 0.4208985381043947 0.3663794132448547 0.3431440273245338 0.2402606285486828 1:0.166494 2:0.248851 3:-0.227772 4:0.116268 5:-1 6:1 7:-1 8:-1 9:-1 10:-1 11:-1 12:-1 
-0.1809849732255637 -2 0 0.2405025134325584 0.2126014987251027 0.1976591646251977 0.1381247677991941 1:0.219033 2:0.197637 3:-0.180934 4:0.182159 5:-1 6:1 7:-1 8:-1 9:-1 10:-1 11:-1 12:-1 
-0.3999165200840192 -2 2 0.5342182381228883 0.4664377909800141 0.4362402007497952 0.3046511603842471 1:-0.153813 2:-0.389627 3:-0.638477 4:-0.125941 5:-1 6:1 7:-1 8:-1 9:-1 10:-1 11:-1 12:-1 
-0.0406965781350772 -2 2 0.05546919117784622 0.04938577347029183 0.04537870919664773 0.03453858850044447 1:-0.292847 2:-0.478475 3:-0.744076 4:-0.266252 5:-1 6:1 7:-1 8:-1 9:-1 10:-1 11:-1 12:-1 
-0.3234876563995096 -2 2 0.4322140638865497 0.3778578304326108 0.3530189303516191 0.2476304509797801 1:0.150433 2:-0.210001 3:-0.341465 4:0.177115 5:-1 6:1 7:-1 8:-1 9:-1 10:-1 11:-1 12:-1 
-0.5213035287449506 -2 0.8787787942204589 0.6964612038097739 0.6097620851310271 0.5699010005118985 0.399148095026586 1:0.380945 2:-0.294005 3:-0.0979002 4:0.439449 5:-1 6:1 7:-1 8:-1 9:-1 10:-1 11:-1 12:-1 
-0.328053407383558 -0.3652756832722882 0.1367289955696888 0.4381818299917644 0.3833008008876433 0.3588835891141378 0.2498295303495935 1:0.447889 2:0.646873 3:0.264265 4:0.331405 5:-1 6:1 7:-1 8:-1 9:-1 10:-1 11:-1 12:-1 
-0.3492135581033725 -0.6304236213941423 0.2078650708063089 0.4661340643957684 0.4077519783621767 0.3806527617258853 0.2679227508774538 1:0.522122 2:0.55379 3:0.335034 4:0.429682 5:-1 6:1 7:-1 8:-1 9:-1 10:-1 11:-1 12:-1 
-0 -0.3191500712444696 0 0 0 0 0 1:-0.213287 2:-0.430508 3:-0.686245 4:-0.184693 5:-1 6:-1 7:1 8:-1 9:-1 10:-1 11:-1 12:-1 
-0 -0.657697272620502 0 0 0 0 0 1:0.165262 2:-0.0721337 3:-0.301147 4:0.170443 5:-1 6:-1 7:1 8:-1 9:-1 10:-1 11:-1 12:-1 
-0 -2 0.02550995727463484 0 0 0 0 1:-0.0877902 2:-0.421681 3:-0.589543 4:-0.0503984 5:-1 6:-1 7:1 8:-1 9:-1 10:-1 11:-1 12:-1 
-0.3292211800334092 -0.4104164098121637 0.1941265360920402 0.4431587055556007 0.3887027871667622 0.3619281823909248 0.2560611115576829 1:-0.707564 2:-0.65498 3:-0.947131 4:-0.698961 5:-1 6:-1 7:1 8:-1 9:-1 10:-1 11:-1 12:-1 
-0 -0 0.01295764772331116 0 0 0 0 1:-0.19485 2:0.259884 3:-0.57961 4:-0.263026 5:-1 6:-1 7:1 8:-1 9:-1 10:-1 11:-1 12:-1 
-0 -0 0.001245889633985054 0 0 0 0 1:0.174788 2:0.316637 3:-0.200581 4:0.113346 5:-1 6:-1 7:1 8:-1 9:-1 10:-1 11:-1 12:-1 
-0 -2 0.07727442794207501 0 0 0 0 1:-0.208504 2:-0.421273 3:-0.682011 4:-0.181959 5:-1 6:-1 7:1 8:-1 9:-1 10:-1 11:-1 12:-1 
-0.1630608113650362 -0.3512626326659862 0.06839795474479468 0.2160494509317784 0.1885416807866376 0.177039068552815 0.1217573065534202 1:-0.590398 2:-0.741421 3:-0.909465 4:-0.565044 5:-1 6:-1 7:1 8:-1 9:-1 10:-1 11:-1 12:-1 
-0.2696134149587289 -0.2907098442079057 0.0641069248736392 0.3628723740874978 0.3186006024899928 0.2951234758055954 0.2101622631977734 1:-0.5009 2:-0.189767 3:-0.841671 4:-0.526513 5:-1 6:-1 7:1 8:-1 9:-1 10:-1 11:-1 12:-1 
-0 -1.034557180173861 0 0 0 0 0 1:-0.34633 2:-0.463407 3:-0.776333 4:-0.324821 5:-1 6:-1 7:1 8:-1 9:-1 10:-1 11:-1 12:-1 
-0.1083192725059681 -0.1548956622896963 0.05558565823193863 0.1438700783307498 0.1257476611391604 0.1170823776785856 0.08170353952375847 1:0.297037 2:0.963097 3:0.180554 4:0.129132 5:-1 6:-1 7:1 8:-1 9:-1 10:-1 11:-1 12:-1 
-0 -2 0 0 0 0 0 1:-0.269578 2:-0.575771 3:-0.735691 4:-0.230725 5:-1 6:-1 7:1 8:-1 9:-1 10:-1 11:-1 12:-1 
-0 -2 0 0 0 0 0 1:-0.220058 2:-0.410407 3:-0.68925 4:-0.19613 5:-1 6:-1 7:1 8:-1 9:-1 10:-1 11:-1 12:-1 
-0 -0 2 0 0 0 0 1:-0.597314 2:-0.492464 3:-0.90353 4:-0.594637 5:-1 6:1 7:-1 8:-1 9:-1 10:-1 11:-1 12:-1 
-0 -0 2 0 0 0 0 1:-0.16559 2:0.0530036 3:-0.590499 4:-0.202642 5:-1 6:1 7:-1 8:-1 9:-1 10:-1 11:-1 12:-1 
-0 -2 2 0 0 0 0 1:-0.0961517 2:-0.00501294 3:-0.541327 4:-0.119483 5:-1 6:1 7:-1 8:-1 9:-1 10:-1 11:-1 12:-1 
-0.2167758280444172 -2 2 0.2884923036734144 0.2523406233997287 0.2356358144360966 0.1629717117897829 1:-0.378075 2:-0.391346 3:-0.789973 4:-0.36909 5:-1 6:1 7:-1 8:-1 9:-1 10:-1 11:-1 12:-1 
-0 -2 0 0 0 0 0 1:-0.263568 2:-0.425944 3:-0.720689 4:-0.240886 5:-1 6:-1 7:1 8:-1 9:-1 10:-1 11:-1 12:-1 
-0 -2 0 0 0 0 0 1:-0.027762 2:-0.369315 3:-0.5333 4:0.00708998 5:-1 6:-1 7:1 8:-1 9:-1 10:-1 11:-1 12:-1 
-0 -1.381442934679797 0 0 0 0 0 1:-0.298991 2:-0.47573 3:-0.747815 4:-0.27373 5:-1 6:-1 7:1 8:-1 9:-1 10:-1 11:-1 12:-1 
-0.01422706322223692 -0 0 0.04066184712211201 0 0.01156273311242318 0 1:0.37686 2:0.54793 3:0.125828 4:0.2766 5:-1 6:-1 7:1 8:-1 9:-1 10:-1 11:-1 12:-1 
-0 -0 0.03001948475218075 0 0 0 0 1:-0.0260689 2:0.225094 3:-0.434236 4:-0.0864852 5:-1 6:-1 7:1 8:-1 9:-1 10:-1 11:-1 12:-1 
-0 -2 0 0 0 0 0 1:-0.105607 2:-0.354507 3:-0.596888 4:-0.0780112 5:-1 6:-1 7:1 8:-1 9:-1 10:-1 11:-1 12:-1 
-0 -2 0 0 0 0 0 1:0.167105 2:-0.0907509 3:-0.302562 4:0.175105 5:-1 6:-1 7:1 8:-1 9:-1 10:-1 11:-1 12:-1 
-0 -2 0 0 0 0 0 1:-0.0404907 2:-0.268623 3:-0.531866 4:-0.0209641 5:-1 6:-1 7:1 8:-1 9:-1 10:-1 11:-1 12:-1 
-0 -2 0.1262611781203137 0 0 0 0 1:-0.158737 2:-0.433487 3:-0.646377 4:-0.12672 5:-1 6:-1 7:1 8:-1 9:-1 10:-1 11:-1 12:-1 
-0 -0 0 0 0 0 0.01040878657114958 1:0.276852 2:0.510504 3:-0.018966 4:0.180399 5:-1 6:-1 7:1 8:-1 9:-1 10:-1 11:-1 12:-1 
-0 -2 0 0 0 0 0 1:-0.0681636 2:-0.3665 3:-0.567424 4:-0.0366891 5:-1 6:-1 7:1 8:-1 9:-1 10:-1 11:-1 12:-1 
-0 -2 1.189498956848748 0 0 0 0 1:-0.136194 2:-0.432186 3:-0.629054 4:-0.101901 5:-1 6:-1 7:1 8:-1 9:-1 10:-1 11:-1 12:-1 
-0 -0.1786990742655469 0 0 0 0 0 1:-0.33552 2:-0.491775 3:-0.771754 4:-0.311397 5:-1 6:-1 7:1 8:-1 9:-1 10:-1 11:-1 12:-1 
-0 -0.1905311517415724 0 0 0 0 0 1:-0.330042 2:-0.469035 3:-0.766803 4:-0.308225 5:-1 6:-1 7:1 8:-1 9:-1 10:-1 11:-1 12:-1 
-0 -0.1125422254041137 0.02279732190739152 0 0 0 0 1:-0.376027 2:-0.495118 3:-0.795948 4:-0.355068 5:-1 6:-1 7:1 8:-1 9:-1 10:-1 11:-1 12:-1 
-0 -2 0 0 0 0 0 1:-0.153678 2:-0.274738 3:-0.626027 4:-0.141849 5:-1 6:-1 7:1 8:-1 9:-1 10:-1 11:-1 12:-1 
-0 -2 0 0 0 0 0 1:-0.0942382 2:-0.303954 3:-0.581802 4:-0.0737069 5:-1 6:-1 7:1 8:-1 9:-1 10:-1 11:-1 12:-1 
-0.02794519266016281 -0 0 0.07995530196615981 0.06523082710367838 0.05689578937203744 0.05419191288075219 1:-0.146575 2:-0.0689811 3:-0.593591 4:-0.16601 5:-1 6:-1 7:1 8:-1 9:-1 10:-1 11:-1 12:-1 
-0 -2 0 0 0 0 0 1:-0.307644 2:-0.466818 3:-0.752667 4:-0.284077 5:-1 6:-1 7:1 8:-1 9:-1 10:-1 11:-1 12:-1 
-0.4501119470011413 -0.615376759693859 0.2394996924443104 0.6015223660398977 0.5269761781272436 0.4913128838843453 0.3437981248223689 1:-0.0570222 2:0.77732 3:-0.327476 4:-0.206957 5:-1 6:-1 7:1 8:-1 9:-1 10:-1 11:-1 12:-1 
-0 -2 0 0 0 0 0 1:0.0399648 2:-0.21287 3:-0.451117 4:0.0575595 5:-1 6:-1 7:1 8:-1 9:-1 10:-1 11:-1 12:-1 
-0.1458259172699278 -0 0.03912201323357368 0.168859106262054 0.07384637218875922 0.1497411637770368 0.05952636673290376 1:0.335863 2:0.133061 3:-0.0579188 4:0.316843 5:-1 6:-1 7:1 8:-1 9:-1 10:-1 11:-1 12:-1 
-0 -2 0.08012669857191015 0 0 0 0 1:-0.141197 2:-0.447197 3:-0.634314 4:-0.105996 5:-1 6:-1 7:1 8:-1 9:-1 10:-1 11:-1 12:-1 
-0 -2 0 0 0 0 0 1:-0.0391698 2:-0.250926 3:-0.528395 4:-0.0223795 5:-1 6:-1 7:1 8:-1 9:-1 10:-1 11:-1 12:-1 
-0 -2 0 0 0 0 0 1:0.0733504 2:-0.268788 3:-0.42758 4:0.102771 5:-1 6:-1 7:1 8:-1 9:-1 10:-1 11:-1 12:-1 
-0 -2 0 0 0 0 0 1:-0.148694 2:-0.326469 3:-0.627959 4:-0.129503 5:-1 6:-1 7:1 8:-1 9:-1 10:-1 11:-1 12:-1 
-0.026858260439224 -0 0.00276299658319428 0 0 0 0 1:0.169378 2:0.360072 3:-0.194911 4:0.098755 5:-1 6:-1 7:1 8:-1 9:-1 10:-1 11:-1 12:-1 
-0 -2 0.3465091896568415 0 0 0 0 1:-0.363918 2:-0.499737 3:-0.789189 4:-0.341469 5:-1 6:-1 7:1 8:-1 9:-1 10:-1 11:-1 12:-1 
-0 -2 0 0 0 0 0 1:-0.04151 2:-0.329831 3:-0.540419 4:-0.0135214 5:-1 6:-1 7:1 8:-1 9:-1 10:-1 11:-1 12:-1 
-0 -2 0 0 0 0 0 1:-0.0202486 2:-0.271963 3:-0.514539 4:0.00150626 5:-1 6:-1 7:1 8:-1 9:-1 10:-1 11:-1 12:-1 
-0 -1.848789331879572 0 0 0 0 0 1:-0.239894 2:-0.361427 3:-0.698774 4:-0.223666 5:-1 6:-1 7:1 8:-1 9:-1 10:-1 11:-1 12:-1 
-0.007933905655806463 -0 0 0.06089875375562895 0.05697098232812668 0 0.02622647515641205 1:-0.0260478 2:-0.143906 3:-0.501471 4:-0.0237298 5:-1 6:-1 7:1 8:-1 9:-1 10:-1 11:-1 12:-1 
-0 -0 0 0.143079540330799 0.142348991222745 0.1167626696616112 0.13223770462011 1:-0.184158 2:-0.190054 3:-0.639479 4:-0.187632 5:-1 6:-1 7:1 8:-1 9:-1 10:-1 11:-1 12:-1 
-0 -2 0 0 0 0 0 1:-0.13237 2:-0.338859 3:-0.616526 4:-0.110478 5:-1 6:-1 7:1 8:-1 9:-1 10:-1 11:-1 12:-1 
-0 -0 0.006664236199364088 0.02681336208643521 0.002496882187118236 0.00589202820376431 0.01837435004512379 1:-0.046685 2:0.328371 3:-0.431993 4:-0.122488 5:-1 6:-1 7:1 8:-1 9:-1 10:-1 11:-1 12:-1 
-0 -2 0.2713610813499185 0 0 0 0 1:-0.175673 2:-0.441278 3:-0.659819 4:-0.144141 5:-1 6:-1 7:1 8:-1 9:-1 10:-1 11:-1 12:-1 
-0 -2 0 0 0 0 0 1:0.011693 2:-0.272981 3:-0.485891 4:0.0361862 5:-1 6:-1 7:1 8:-1 9:-1 10:-1 11:-1 12:-1 
-0 -2 0 0 0 0 0 1:0.0710219 2:-0.304164 3:-0.434858 4:0.105181 5:-1 6:-1 7:1 8:-1 9:-1 10:-1 11:-1 12:-1 
-0 -0.6993925832472141 0 0 0 0 0 1:-0.0769447 2:-0.46075 3:-0.584566 4:-0.0344102 5:-1 6:-1 7:1 8:-1 9:-1 10:-1 11:-1 12:-1 
-0.07909818611489595 -0 0.01237791856115648 0.1118415996328755 0.06066742466716137 0.1063583360738376 0.04864669044518981 1:0.217694 2:0.45134 3:-0.111363 4:0.132701 5:-1 6:-1 7:1 8:-1 9:-1 10:-1 11:-1 12:-1 
-0 -2 0 0 0 0 0 1:-0.182885 2:-0.325829 3:-0.65393 4:-0.167116 5:-1 6:-1 7:1 8:-1 9:-1 10:-1 11:-1 12:-1 
-0 -2 0 0 0 0 0 1:-0.0604321 2:-0.216785 3:-0.542033 4:-0.0501892 5:-1 6:-1 7:1 8:-1 9:-1 10:-1 11:-1 12:-1 
-0 -2 0 0 0 0 0 1:-0.0314917 2:-0.30774 3:-0.529087 4:-0.00563235 5:-1 6:-1 7:1 8:-1 9:-1 10:-1 11:-1 12:-1 
-0.0936458779374757 -0.0198537160358644 0.007895422218169709 0.02151313400527534 0.08013620195442679 0.01906507953209366 0.01085972533584803 1:0.0227194 2:0.268041 3:-0.376642 4:-0.0387365 5:-1 6:-1 7:1 8:-1 9:-1 10:-1 11:-1 12:-1 
-0 -0.3901542130073682 0 0 0 0 0 1:-0.278574 2:-0.429205 3:-0.730974 4:-0.257088 5:-1 6:-1 7:1 8:-1 9:-1 10:-1 11:-1 12:-1 
-0.0233117936565425 -0 0.02608604111452909 0.02868120778817326 0.005594592001443181 0.0467100664586569 0.01583527119335976 1:-0.125833 2:0.157933 3:-0.539155 4:-0.179123 5:-1 6:-1 7:1 8:-1 9:-1 10:-1 11:-1 12:-1 
-0 -0.1423701290847489 0 0 0 0 0 1:0.537678 2:0.0697428 3:0.194136 4:0.542772 5:-1 6:-1 7:1 8:-1 9:-1 10:-1 11:-1 12:-1 
-0 -2 0 0 0 0 0 1:0.0963338 2:-0.349205 3:-0.416183 4:0.138296 5:-1 6:-1 7:1 8:-1 9:-1 10:-1 11:-1 12:-1 
-0 -2 0.008584132333225566 0 0 0 0 1:-0.142192 2:-0.370765 3:-0.627598 4:-0.116315 5:-1 6:-1 7:1 8:-1 9:-1 10:-1 11:-1 12:-1 
-0.02842998710969289 -0 0.03382748071408262 0.2010174522440821 0.09691250861904062 0.02648783756663622 0.1087130047683367 1:0.0507647 2:0.276458 3:-0.346024 4:-0.00849792 5:-1 6:-1 7:1 8:-1 9:-1 10:-1 11:-1 12:-1 
-0 -2 0.1014666014270865 0 0 0 0 1:-0.360227 2:-0.510386 3:-0.787753 4:-0.336239 5:-1 6:-1 7:1 8:-1 9:-1 10:-1 11:-1 12:-1 
-0 -2 0 0 0 0 0 1:0.0504289 2:-0.219492 3:-0.442134 4:0.0705313 5:-1 6:-1 7:1 8:-1 9:-1 10:-1 11:-1 12:-1 
-0 -0.586685606053658 0 0 0 0 0 1:-0.267737 2:-0.407347 3:-0.7219 4:-0.248192 5:-1 6:-1 7:1 8:-1 9:-1 10:-1 11:-1 12:-1 
-0.01452045154875906 -0.1596784370259064 0 0.008665130418333574 0.04918765691154818 0.01447244062240644 0 1:0.439181 2:0.524051 3:0.203326 4:0.350594 5:-1 6:-1 7:1 8:-1 9:-1 10:-1 11:-1 12:-1 
-0 -0.1412281250422905 0 0 0 0 0 1:-0.331002 2:-0.435491 3:-0.764901 4:-0.313336 5:-1 6:-1 7:1 8:-1 9:-1 10:-1 11:-1 12:-1 
-0 -1.159368779061932 0 0 0 0 0 1:-0.36109 2:-0.599141 3:-0.793485 4:-0.327913 5:-1 6:-1 7:1 8:-1 9:-1 10:-1 11:-1 12:-1 
-0 -0.02667927732867042 0 0 0 0 0 1:-0.375758 2:-0.486163 3:-0.795231 4:-0.355471 5:-1 6:-1 7:1 8:-1 9:-1 10:-1 11:-1 12:-1 
-0 -2 0 0 0 0 0 1:-0.226016 2:-0.411582 3:-0.693591 4:-0.201734 5:-1 6:-1 7:1 8:-1 9:-1 10:-1 11:-1 12:-1 
-0 -2 0 0 0 0 0 1:-0.163433 2:-0.325404 3:-0.639163 4:-0.145958 5:-1 6:-1 7:1 8:-1 9:-1 10:-1 11:-1 12:-1 
-0 -2 0 0 0 0 0 1:-0.193581 2:-0.304907 3:-0.659746 4:-0.181502 5:-1 6:-1 7:1 8:-1 9:-1 10:-1 11:-1 12:-1 
-0 -0.2371760961162333 0 0 0 0 0 1:0.575797 2:0.678841 3:0.470113 4:0.466763 5:-1 6:-1 7:1 8:-1 9:-1 10:-1 11:-1 12:-1 
-0 -0.5194168822677118 0 0 0 0 0 1:-0.334917 2:-0.432967 3:-0.767196 4:-0.317814 5:-1 6:-1 7:1 8:-1 9:-1 10:-1 11:-1 12:-1 
-0.01425236163900868 -1.125589219938151 0.02862796335547864 0.1021771435062369 0.0430409483487986 0.1304474504888867 0.06335272267628465 1:0.0702853 2:-0.105778 3:-0.404577 4:0.0727935 5:-1 6:-1 7:1 8:-1 9:-1 10:-1 11:-1 12:-1 
-0 -0.501520338694607 0 0 0 0 0 1:-0.284589 2:-0.427423 3:-0.734702 4:-0.264122 5:-1 6:-1 7:1 8:-1 9:-1 10:-1 11:-1 12:-1 
-0 -0.02054114995075855 0.06848886435966162 0 0 0 0 1:-0.368252 2:-0.493893 3:-0.791368 4:-0.346863 5:-1 6:-1 7:1 8:-1 9:-1 10:-1 11:-1 12:-1 
-0 -0 0.01787134687245075 0.02016631483451302 0 0 0 1:0.279454 2:0.0239885 3:-0.152822 4:0.276125 5:-1 6:-1 7:1 8:-1 9:-1 10:-1 11:-1 12:-1 
-0 -1.208368748138068 0 0 0 0 0 1:-0.0944942 2:-0.155294 3:-0.562777 4:-0.0968073 5:-1 6:-1 7:1 8:-1 9:-1 10:-1 11:-1 12:-1 
-0 -2 0 0 0 0 0 1:-0.190048 2:-0.358078 3:-0.662597 4:-0.170394 5:-1 6:-1 7:1 8:-1 9:-1 10:-1 11:-1 12:-1 
-0 -0.2418904599439759 0.01747499428142444 0 0 0 0 1:-0.0925906 2:0.157727 3:-0.50981 4:-0.141953 5:-1 6:-1 7:1 8:-1 9:-1 10:-1 11:-1 12:-1 
-0 -2 0 0 0 0 0 1:-0.235198 2:-0.374425 3:-0.696688 4:-0.217127 5:-1 6:-1 7:1 8:-1 9:-1 10:-1 11:-1 12:-1 
-0 -0 0 0.03088850416485791 0.03823416507186599 0 0 1:-0.131278 2:-0.0611129 3:-0.579884 4:-0.148155 5:-1 6:-1 7:1 8:-1 9:-1 10:-1 11:-1 12:-1 
-0 -0.09281802456760702 0 0 0 0 0 1:-0.291007 2:-0.436417 3:-0.739668 4:-0.269759 5:-1 6:-1 7:1 8:-1 9:-1 10:-1 11:-1 12:-1 
-0 -2 0 0 0 0 0 1:-0.111601 2:-0.475056 3:-0.613816 4:-0.0704154 5:-1 6:-1 7:1 8:-1 9:-1 10:-1 11:-1 12:-1 
-0 -2 0 0 0 0 0 1:0.147955 2:-0.319483 3:-0.361173 4:0.190821 5:-1 6:-1 7:1 8:-1 9:-1 10:-1 11:-1 12:-1 
-0 -0 0.01328193406229706 0 0 0 0 1:0.546149 2:0.290907 3:0.27145 4:0.508868 5:-1 6:-1 7:1 8:-1 9:-1 10:-1 11:-1 12:-1 
-0 -0.1946882148688051 0.06608621429358091 0 0 0 0 1:-0.300241 2:-0.449991 3:-0.746707 4:-0.278144 5:-1 6:-1 7:1 8:-1 9:-1 10:-1 11:-1 12:-1 
-0 -2 0 0 0 0 0 1:-0.0526452 2:-0.224208 3:-0.536308 4:-0.0410128 5:-1 6:-1 7:1 8:-1 9:-1 10:-1 11:-1 12:-1 
-0.03095207006809475 -0 0 0.04012443006723043 0.04089411344327066 0.0009302402193590761 0.01589253196081253 1:0.0521404 2:-0.0532095 3:-0.4131 4:0.0455022 5:-1 6:-1 7:1 8:-1 9:-1 10:-1 11:-1 12:-1 
-0.1086495823994138 -0 0 0.09614770704099319 0.07377266089610028 0.08610372068977995 0.02065880982737796 1:-0.225066 2:-0.216659 3:-0.67321 4:-0.227174 5:-1 6:-1 7:1 8:-1 9:-1 10:-1 11:-1 12:-1 
-0 -1.246370030562481 0 0 0 0 0 1:-0.335521 2:-0.45266 3:-0.769002 4:-0.315825 5:-1 6:-1 7:1 8:-1 9:-1 10:-1 11:-1 12:-1 
-0 -2 0 0 0 0 0 1:-0.121809 2:-0.231244 3:-0.59543 4:-0.114442 5:-1 6:-1 7:1 8:-1 9:-1 10:-1 11:-1 12:-1 
-0 -0.5430234996890664 0 0 0 0 0 1:-0.22064 2:-0.423059 3:-0.690808 4:-0.195195 5:-1 6:-1 7:1 8:-1 9:-1 10:-1 11:-1 12:-1 
-0.1948820563190052 -0.2416393188997816 0.1037223136785321 0.2562149614426076 0.2188301377449166 0.2222745145193657 0.1550374999952599 1:0.364507 2:0.597667 3:0.127303 4:0.256854 5:-1 6:-1 7:1 8:-1 9:-1 10:-1 11:-1 12:-1 
-0 -0.0835286358116035 0.1859859588761002 0 0 0 0 1:-0.35694 2:-0.481589 3:-0.783932 4:-0.335847 5:-1 6:-1 7:1 8:-1 9:-1 10:-1 11:-1 12:-1 
-0 -1.79367488286966 0 0 0 0 0 1:0.281998 2:-0.132402 3:-0.183818 4:0.306301 5:-1 6:-1 7:1 8:-1 9:-1 10:-1 11:-1 12:-1 
-0 -2 0 0 0 0 0 1:0.165463 2:-0.212338 3:-0.326345 4:0.194793 5:-1 6:-1 7:1 8:-1 9:-1 10:-1 11:-1 12:-1 
-0 -2 0.0920740069323424 0 0 0 0 1:-0.122626 2:-0.449081 3:-0.620076 4:-0.0855548 5:-1 6:-1 7:1 8:-1 9:-1 10:-1 11:-1 12:-1 
-0 -0.5216378984580272 0.001839381591032333 0 0 0 0 1:-0.0351554 2:0.0854905 3:-0.470858 4:-0.0703522 5:-1 6:-1 7:1 8:-1 9:-1 10:-1 11:-1 12:-1 
-0.1967118186212664 -0 0.02453263542386795 0.2041427653798671 0.1810194442163283 0.1744768372323363 0.1150788987581958 1:0.183794 2:-0.0283009 3:-0.272468 4:0.182824 5:-1 6:-1 7:1 8:-1 9:-1 10:-1 11:-1 12:-1 
-0.02758053120363221 -0 0 0.00983760739087979 0.02283291181444519 0 0.02308205889874738 1:0.0100042 2:-0.0468084 3:-0.452403 4:-0.00207367 5:-1 6:-1 7:1 8:-1 9:-1 10:-1 11:-1 12:-1 
-0.004749587516092284 -0 0 0 0 0.01055764527263363 0 1:-0.184114 2:-0.0658769 3:-0.623151 4:-0.207296 5:-1 6:-1 7:1 8:-1 9:-1 10:-1 11:-1 12:-1 
-0 -2 0.06980951594464327 0 0 0 0 1:-0.198711 2:-0.436516 3:-0.676264 4:-0.169783 5:-1 6:-1 7:1 8:-1 9:-1 10:-1 11:-1 12:-1 
-0 -0.6875457752871018 0 0 0 0 0 1:0.686429 2:0.298696 3:0.484129 4:0.657401 5:-1 6:-1 7:1 8:-1 9:-1 10:-1 11:-1 12:-1 
-0.01471571522669859 -0 0.02032675607626926 0.03602893020431804 0.02554334567948072 0.03055243806211617 0.01115484270014833 1:0.530343 2:0.24808 3:0.234523 4:0.501172 5:-1 6:-1 7:1 8:-1 9:-1 10:-1 11:-1 12:-1 
-0 -0.0007770957413449031 0.05204064723844112 0 0 0 0 1:-0.186595 2:0.0634816 3:-0.605953 4:-0.227921 5:-1 6:-1 7:1 8:-1 9:-1 10:-1 11:-1 12:-1 
-0 -0 0.01066689065083202 0 0.03265102596476113 0.01440400698782905 0.02900899819305846 1:0.274609 2:0.00359924 3:-0.163349 4:0.275113 5:-1 6:-1 7:1 8:-1 9:-1 10:-1 11:-1 12:-1 
-0 -1.038238430226928 0 0 0 0 0 1:-0.223461 2:-0.338305 3:-0.684904 4:-0.209155 5:-1 6:-1 7:1 8:-1 9:-1 10:-1 11:-1 12:-1 
-0.1464820491661476 -0.206986391340044 0.05895370116679614 0.1832575698137001 0.1368401335807491 0.1593245603516422 0.1033991228923944 1:0.179867 2:0.562586 3:-0.122484 4:0.0658017 5:-1 6:-1 7:1 8:-1 9:-1 10:-1 11:-1 12:-1 
-0 -0 0.03152713880058065 0 0.04791952150244149 0 0.001882272920416875 1:0.242921 2:0.545719 3:-0.0502029 4:0.1345 5:-1 6:-1 7:1 8:-1 9:-1 10:-1 11:-1 12:-1 
-0 -2 0.2589770543345543 0 0 0 0 1:-0.355486 2:-0.500489 3:-0.784217 4:-0.332412 5:-1 6:-1 7:1 8:-1 9:-1 10:-1 11:-1 12:-1 
-0 -0.184642927479468 0.003714917601863314 0 0 0 0 1:-0.34457 2:-0.508207 3:-0.778311 4:-0.319538 5:-1 6:-1 7:1 8:-1 9:-1 10:-1 11:-1 12:-1 
-0 -2 0.009806630698668979 0 0 0 0 1:-0.0793438 2:-0.366365 3:-0.576653 4:-0.0493024 5:-1 6:-1 7:1 8:-1 9:-1 10:-1 11:-1 12:-1 
-0 -0.1009622689988445 0 0 0 0 0 1:-0.276887 2:-0.564444 3:-0.739726 4:-0.239875 5:-1 6:-1 7:1 8:-1 9:-1 10:-1 11:-1 12:-1 
-0 -2 0 0 0 0 0 1:-0.287236 2:-0.401232 3:-0.734371 4:-0.269996 5:-1 6:-1 7:1 8:-1 9:-1 10:-1 11:-1 12:-1 
-0 -2 0 0 0 0 0 1:-0.109431 2:-0.270087 3:-0.590219 4:-0.0952196 5:-1 6:-1 7:1 8:-1 9:-1 10:-1 11:-1 12:-1 
-0 -0 0.380157824438507 0 0 0 0 1:-0.198515 2:-0.442148 3:-0.676561 4:-0.168848 5:-1 6:-1 7:1 8:-1 9:-1 10:-1 11:-1 12:-1 
-0 -2 0 0 0 0 0 1:-0.0967564 2:-0.461299 3:-0.600692 4:-0.0560445 5:-1 6:-1 7:1 8:-1 9:-1 10:-1 11:-1 12:-1 
-0 -2 0 0 0 0 0 1:0.163578 2:-0.154 3:-0.31819 4:0.181914 5:-1 6:-1 7:1 8:-1 9:-1 10:-1 11:-1 12:-1 
-0 -0.4408482058873437 0 0 0 0 0 1:0.37739 2:-0.203763 3:-0.0852617 4:0.421291 5:-1 6:-1 7:1 8:-1 9:-1 10:-1 11:-1 12:-1 
-0.003545314842284754 -0 0 0.01435362539773988 0.004852649419343671 0.1353108279264236 0.001923323552209596 1:-0.0382878 2:-0.111129 3:-0.507338 4:-0.0423703 5:-1 6:-1 7:1 8:-1 9:-1 10:-1 11:-1 12:-1 
-0 -2 0 0 0 0 0 1:0.255607 2:-0.206176 3:-0.227852 4:0.290153 5:-1 6:-1 7:1 8:-1 9:-1 10:-1 11:-1 12:-1 
-0 -0.6021534338560622 0 0 0 0 0 1:-0.0248507 2:-0.368858 3:-0.530681 4:0.0104576 5:-1 6:-1 7:1 8:-1 9:-1 10:-1 11:-1 12:-1 
-0 -0 0 0 0 0 0.008338593302553056 1:0.230144 2:0.176634 3:-0.173359 4:0.197681 5:-1 6:-1 7:1 8:-1 9:-1 10:-1 11:-1 12:-1 
-0 -0 0.102726578446858 0 0 0 0 1:-0.372519 2:-0.499194 3:-0.794182 4:-0.350884 5:-1 6:-1 7:1 8:-1 9:-1 10:-1 11:-1 12:-1 
-0 -2 0 0 0 0 0 1:-0.047855 2:-0.238571 3:-0.534192 4:-0.0338124 5:-1 6:-1 7:1 8:-1 9:-1 10:-1 11:-1 12:-1 
-0.0756058712022027 -1.514039052049488 0.03830643905597707 0.09646294274874605 0.08664773212168239 0.08234954319142598 0.05955780597265082 1:0.864497 2:0.309311 3:0.77806 4:0.846631 5:-1 6:-1 7:1 8:-1 9:-1 10:-1 11:-1 12:-1 
-0.5330171830922449 -1.074139265224258 0.2854352188972994 0.7127107378669441 0.623095566306622 0.5819260727991654 0.4068245927213788 1:1 2:0.273874 3:1 4:1 5:-1 6:-1 7:1 8:-1 9:-1 10:-1 11:-1 12:-1 
-0.480776297273392 -2 0.2556899335509236 0.6422241036516018 0.5612315886983792 0.5252480663946909 0.3675430302353954 1:0.688837 2:-0.0147919 3:0.382868 4:0.724808 5:-1 6:-1 7:1 8:-1 9:-1 10:-1 11:-1 12:-1 
-0 -1.508352072738281 0 0 0 0 0 1:0.404434 2:0.275837 3:0.0709405 4:0.360194 5:-1 6:-1 7:1 8:-1 9:-1 10:-1 11:-1 12:-1 
-0 -2 0 0 0 0 0 1:0.202325 2:-0.0905307 3:-0.26448 4:0.212712 5:-1 6:-1 7:1 8:-1 9:-1 10:-1 11:-1 12:-1 
-0 -2 0 0 0 0 0 1:0.0638127 2:-0.192794 3:-0.425216 4:0.0800711 5:-1 6:-1 7:1 8:-1 9:-1 10:-1 11:-1 12:-1 
-0 -2 0 0 0 0 0 1:-0.0921606 2:-0.230819 3:-0.570906 4:-0.0824742 5:-1 6:-1 7:1 8:-1 9:-1 10:-1 11:-1 12:-1 
-0.005262835755436944 -0 0.005676725777999429 0 0.0221971034717653 0 0 1:0.345005 2:0.173058 3:-0.0356931 4:0.319409 5:-1 6:-1 7:1 8:-1 9:-1 10:-1 11:-1 12:-1 
-0 -0.09640509300737064 0 0 0 0 0 1:-0.379908 2:-0.494038 3:-0.798123 4:-0.359283 5:-1 6:-1 7:1 8:-1 9:-1 10:-1 11:-1 12:-1 
-0 -2 0.1419359657655265 0 0 0 0 1:-0.189068 2:-0.424261 3:-0.668163 4:-0.160718 5:-1 6:-1 7:1 8:-1 9:-1 10:-1 11:-1 12:-1 
-0 -2 0 0 0 0 0 1:-0.0945637 2:-0.469951 3:-0.599756 4:-0.05255 5:-1 6:-1 7:1 8:-1 9:-1 10:-1 11:-1 12:-1 
-0 -2 0 0 0 0 0 1:-0.0644444 2:-0.296564 3:-0.555955 4:-0.0431504 5:-1 6:-1 7:1 8:-1 9:-1 10:-1 11:-1 12:-1 
-0.01126463544626182 -0 0.04290315934935273 0 0 0 0 1:0.473963 2:0.494232 3:0.241755 4:0.395436 5:-1 6:-1 7:1 8:-1 9:-1 10:-1 11:-1 12:-1 
-0 -0 0 0.1045072214509525 0.0009390179642296825 0.1022188393241234 0 1:0.544014 2:0.418834 3:0.314421 4:0.481248 5:-1 6:-1 7:1 8:-1 9:-1 10:-1 11:-1 12:-1 
-0 -2 0 0 0 0 0 1:0.0817175 2:-0.26008 3:-0.418227 4:0.109907 5:-1 6:-1 7:1 8:-1 9:-1 10:-1 11:-1 12:-1 
-0 -2 0 0 0 0 0 1:-0.0402042 2:-0.402856 3:-0.547804 4:-0.00205222 5:-1 6:-1 7:1 8:-1 9:-1 10:-1 11:-1 12:-1 
-0.02423544625461421 -0.05553401993669933 0 0.02430857785990916 0.02516790552311291 0.01754802391629668 0.03902533314909716 1:0.464027 2:0.533442 3:0.242491 4:0.372167 5:-1 6:-1 7:1 8:-1 9:-1 10:-1 11:-1 12:-1 
-0 -0.2379036595580517 0 0 0 0 0 1:-0.284328 2:-0.390983 3:-0.731607 4:-0.267995 5:-1 6:-1 7:1 8:-1 9:-1 10:-1 11:-1 12:-1 
-0 -2 0.04698572403026038 0 0 0 0 1:-0.150209 2:-0.458385 3:-0.642244 4:-0.11435 5:-1 6:-1 7:1 8:-1 9:-1 10:-1 11:-1 12:-1 
-0 -2 0 0 0 0 0 1:0.0446172 2:-0.176595 3:-0.441125 4:0.056809 5:-1 6:-1 7:1 8:-1 9:-1 10:-1 11:-1 12:-1 
-0 -2 0 0 0 0 0 1:0.125665 2:-0.190402 3:-0.363631 4:0.14666 5:-1 6:-1 7:1 8:-1 9:-1 10:-1 11:-1 12:-1 
-0 -2 0 0 0 0 0 1:-0.158775 2:-0.283023 3:-0.630943 4:-0.145952 5:-1 6:-1 7:1 8:-1 9:-1 10:-1 11:-1 12:-1 
-0.001036325066479332 -0 0 0.01376713946103272 0.01433476537379111 0 0.00718226275839161 1:-0.124169 2:-0.0106151 3:-0.565851 4:-0.151208 5:-1 6:-1 7:1 8:-1 9:-1 10:-1 11:-1 12:-1 
-0 -0 0.01188979403563518 0 0 0 0 1:0.0842266 2:0.119863 3:-0.345475 4:0.0491289 5:-1 6:-1 7:1 8:-1 9:-1 10:-1 11:-1 12:-1 
-0.1172170614939518 -0 0.02921237391833217 0.0405043405274455 0.1292562020363303 0.01164945006826141 0.09070495497340156 1:0.533193 2:0.347244 3:0.27393 4:0.486393 5:-1 6:-1 7:1 8:-1 9:-1 10:-1 11:-1 12:-1 
-0.430201058906595 -2 0.2293304698261626 0.5733691474528373 0.5026730489447619 0.4686754991502319 0.3283244384803537 1:0.457055 2:-0.257897 3:0.00324796 4:0.51634 5:-1 6:-1 7:1 8:-1 9:-1 10:-1 11:-1 12:-1 
-0 -2 0 0 0 0 0 1:0.386062 2:-0.244141 3:-0.0823491 4:0.437107 5:-1 6:-1 7:1 8:-1 9:-1 10:-1 11:-1 12:-1 
-0 -2 0 0 0 0 0 1:0.24358 2:-0.107518 3:-0.222507 4:0.260459 5:-1 6:-1 7:1 8:-1 9:-1 10:-1 11:-1 12:-1 
-0 -2 0.07857923241120938 0 0.02325522214123408 0 0 1:0.122055 2:-0.0836601 3:-0.348577 4:0.125254 5:-1 6:-1 7:1 8:-1 9:-1 10:-1 11:-1 12:-1 
-0 -2 0 0 0 0 0 1:-0.0869921 2:-0.277782 3:-0.57266 4:-0.0701338 5:-1 6:-1 7:1 8:-1 9:-1 10:-1 11:-1 12:-1 
-0 -2 0 0 0 0 0 1:-0.118276 2:-0.326926 3:-0.604015 4:-0.0969403 5:-1 6:-1 7:1 8:-1 9:-1 10:-1 11:-1 12:-1 
-0.3268759060791309 -0 0.1779897455958782 0.4450535180675253 0.3858497419585498 0.3554253634120716 0.2471212035164634 1:0.773511 2:0.446915 3:0.684196 4:0.719819 5:-1 6:-1 7:1 8:-1 9:-1 10:-1 11:-1 12:-1 
-0 -0.2147199280328446 0 0 0 0 0 1:-0.330246 2:-0.458693 3:-0.766174 4:-0.309711 5:-1 6:-1 7:1 8:-1 9:-1 10:-1 11:-1 12:-1 
-0 -0.06837531366508037 0 0 0 0 0 1:-0.340933 2:-0.442659 3:-0.771594 4:-0.323141 5:-1 6:-1 7:1 8:-1 9:-1 10:-1 11:-1 12:-1 
-0.041893668446508 -0.2142973310906398 0.06026530810041275 0.09367612888454141 0.1098482029553944 0.02116824145714967 0.06494459513797181 1:0.138379 2:0.415908 3:-0.214917 4:0.0533056 5:-1 6:-1 7:1 8:-1 9:-1 10:-1 11:-1 12:-1 
-0 -2 0 0 0 0 0 1:-0.0468064 2:-0.414541 3:-0.554648 4:-0.0077194 5:-1 6:-1 7:1 8:-1 9:-1 10:-1 11:-1 12:-1 
-0 -2 0 0 0 0 0 1:0.245002 2:-0.17148 3:-0.233287 4:0.273209 5:-1 6:-1 7:1 8:-1 9:-1 10:-1 11:-1 12:-1 
-0 -0.8724282164205698 0 0 0 0 0 1:0.422365 2:-0.129604 3:-0.0140048 4:0.457643 5:-1 6:-1 7:1 8:-1 9:-1 10:-1 11:-1 12:-1 
-0 -2 0 0 0 0 0 1:0.119212 2:-0.168437 3:-0.366495 4:0.136449 5:-1 6:-1 7:1 8:-1 9:-1 10:-1 11:-1 12:-1 
-0 -0 0.007048573337389312 0 0 0 0 1:0.160992 2:-0.0650392 3:-0.304338 4:0.164627 5:-1 6:-1 7:1 8:-1 9:-1 10:-1 11:-1 12:-1 
-0 -2 0 0 0 0 0 1:0.385517 2:-0.263321 3:-0.0869518 4:0.4398 5:-1 6:-1 7:1 8:-1 9:-1 10:-1 11:-1 12:-1 
-0 -2 0 0 0 0 0 1:0.0610008 2:-0.211179 3:-0.430825 4:0.0803302 5:-1 6:-1 7:1 8:-1 9:-1 10:-1 11:-1 12:-1 
-0 -2 0 0 0 0 0 1:0.0466272 2:-0.162311 3:-0.43665 4:0.056339 5:-1 6:-1 7:1 8:-1 9:-1 10:-1 11:-1 12:-1 
-0 -0.724521829762554 0 0 0 0 0 1:-0.2921 2:-0.449583 3:-0.741431 4:-0.269278 5:-1 6:-1 7:1 8:-1 9:-1 10:-1 11:-1 12:-1 
-0 -2 0 0 0 0 0 1:-0.0968706 2:-0.448281 3:-0.599544 4:-0.0576535 5:-1 6:-1 7:1 8:-1 9:-1 10:-1 11:-1 12:-1 
-0 -2 0 0 0 0 0 1:0.0322726 2:-0.303474 3:-0.471209 4:0.0628377 5:-1 6:-1 7:1 8:-1 9:-1 10:-1 11:-1 12:-1 
-0 -0 0 0.0145539835345812 0 0.001212946191491233 0 1:0.210448 2:-0.0580522 3:-0.249356 4:0.216966 5:-1 6:-1 7:1 8:-1 9:-1 10:-1 11:-1 12:-1 
-0 -2 0.1896004679478692 0 0 0 0 1:-0.179542 2:-0.413692 3:-0.660155 4:-0.151807 5:-1 6:-1 7:1 8:-1 9:-1 10:-1 11:-1 12:-1 
-0 -2 0 0 0 0 0 1:0.138165 2:-0.42131 3:-0.384837 4:0.194037 5:-1 6:-1 7:1 8:-1 9:-1 10:-1 11:-1 12:-1 
-0 -2 0 0 0 0 0 1:0.217528 2:-0.404939 3:-0.300935 4:0.278011 5:-1 6:-1 7:1 8:-1 9:-1 10:-1 11:-1 12:-1 
-0 -2 0 0 0 0 0 1:0.26454 2:-0.416051 3:-0.251697 4:0.330669 5:-1 6:-1 7:1 8:-1 9:-1 10:-1 11:-1 12:-1 
-0 -2 0 0 0 0 0 1:0.0580561 2:-0.324008 3:-0.449879 4:0.0940926 5:-1 6:-1 7:1 8:-1 9:-1 10:-1 11:-1 12:-1 
-0 -0.7750942720992497 0.08529215687355084 0 0 0 0 1:-0.341583 2:-0.478965 3:-0.774532 4:-0.319225 5:-1 6:-1 7:1 8:-1 9:-1 10:-1 11:-1 12:-1 
-0.2469793412842243 -0.5088130814020883 0.02565457242561353 0.3175178559550113 0.2774813096280696 0.2591713577826966 0.1813215939365356 1:-0.181469 2:-0.578837 3:-0.675146 4:-0.134745 5:-1 6:-1 7:1 8:-1 9:-1 10:-1 11:-1 12:-1 
-0 -0.5596295017327617 0 0 0 0 0 1:-0.00447447 2:-0.264401 3:-0.499461 4:0.0175935 5:-1 6:-1 7:1 8:-1 9:-1 10:-1 11:-1 12:-1 
-0 -2 0 0 0 0 0 1:0.1471 2:-0.191486 3:-0.34181 4:0.169956 5:-1 6:-1 7:1 8:-1 9:-1 10:-1 11:-1 12:-1 
-0.1480734623853846 -0 0 0.01113987718727093 0 0 0 1:-0.143052 2:-0.129464 3:-0.599276 4:-0.152819 5:-1 6:-1 7:1 8:-1 9:-1 10:-1 11:-1 12:-1 
-0 -0.05477412849445551 0 0 0 0 0 1:0.0730034 2:0.437635 3:-0.281868 4:-0.0214835 5:-1 6:-1 7:1 8:-1 9:-1 10:-1 11:-1 12:-1 
-0 -0 0.004713120905495272 0 0 0 0 1:-0.376392 2:-0.497601 3:-0.796314 4:-0.355185 5:-1 6:-1 7:1 8:-1 9:-1 10:-1 11:-1 12:-1 
-0 -2 0 0 0 0 0 1:0.236202 2:-0.333136 3:-0.270479 4:0.288255 5:-1 6:-1 7:1 8:-1 9:-1 10:-1 11:-1 12:-1 
-0 -2 0 0 0 0 0 1:0.167161 2:-0.160719 3:-0.315633 4:0.186629 5:-1 6:-1 7:1 8:-1 9:-1 10:-1 11:-1 12:-1 
-0.06259388937581456 -0 0 0.09077839976927669 0.068887268947115 0.04284019198045624 0.05659412189931005 1:-0.145987 2:0.368229 3:-0.51627 4:-0.240721 5:-1 6:-1 7:1 8:-1 9:-1 10:-1 11:-1 12:-1 
-0 -0.08303935620927751 0 0 0 0 0 1:-0.301968 2:-0.43584 3:-0.746725 4:-0.281652 5:-1 6:-1 7:1 8:-1 9:-1 10:-1 11:-1 12:-1 
-0 -1.234200600979217 0 0 0 0 0 1:-0.356979 2:-0.457676 3:-0.782305 4:-0.338818 5:-1 6:-1 7:1 8:-1 9:-1 10:-1 11:-1 12:-1 
-0 -0.1398868195856612 0 0 0 0 0 1:-0.374073 2:-0.515208 3:-0.796101 4:-0.350716 5:-1 6:-1 7:1 8:-1 9:-1 10:-1 11:-1 12:-1 
-0 -2 0.2138827175467977 0 0 0 0 1:-0.158002 2:-0.429888 3:-0.645485 4:-0.126342 5:-1 6:-1 7:1 8:-1 9:-1 10:-1 11:-1 12:-1 
-0.04295048445478748 -0 0.04248592615853688 0.09570716698262592 0.08196456687555152 0.08633968926228808 0.03999976376819711 1:0.265389 2:0.14515 3:-0.139529 4:0.242428 5:-1 6:-1 7:1 8:-1 9:-1 10:-1 11:-1 12:-1 
-0 -2 0 0 0 0 0 1:-0.06329 2:-0.372316 3:-0.563998 4:-0.0308432 5:-1 6:-1 7:1 8:-1 9:-1 10:-1 11:-1 12:-1 
-0 -2 0 0 0 0 0 1:-0.16535 2:-0.333482 3:-0.641491 4:-0.146809 5:-1 6:-1 7:1 8:-1 9:-1 10:-1 11:-1 12:-1 
-0 -2 0 0 0 0 0 1:-0.0752578 2:-0.338504 3:-0.570116 4:-0.0487735 5:-1 6:-1 7:1 8:-1 9:-1 10:-1 11:-1 12:-1 
-0 -2 0.03419947093232679 0 0 0 0 1:-0.376942 2:-0.509113 3:-0.797367 4:-0.354332 5:-1 6:-1 7:1 8:-1 9:-1 10:-1 11:-1 12:-1 
-0 -0.2726639011011466 0 0 0 0 0 1:-0.318696 2:-0.439936 3:-0.757647 4:-0.299416 5:-1 6:-1 7:1 8:-1 9:-1 10:-1 11:-1 12:-1 
-0 -2 1.452771996230777 0 0 0 0 1:-0.1096 2:-0.385127 3:-0.603386 4:-0.0796128 5:-1 6:-1 7:1 8:-1 9:-1 10:-1 11:-1 12:-1 
-0 -2 0 0 0 0 0 1:-0.0542644 2:-0.204657 3:-0.535065 4:-0.0452017 5:-1 6:-1 7:1 8:-1 9:-1 10:-1 11:-1 12:-1 
-0 -2 0 0 0 0 0 1:-0.19615 2:-0.434354 3:-0.674243 4:-0.167156 5:-1 6:-1 7:1 8:-1 9:-1 10:-1 11:-1 12:-1 
-0 -2 0 0 0 0 0 1:-0.0506468 2:-0.306765 3:-0.545535 4:-0.0265833 5:-1 6:-1 7:1 8:-1 9:-1 10:-1 11:-1 12:-1 
-0 -0 0 0.01022981069662784 0 0 0 1:-0.0611014 2:-0.0935628 3:-0.524914 4:-0.0702256 5:-1 6:-1 7:1 8:-1 9:-1 10:-1 11:-1 12:-1 
-0 -0 0.02652510554577363 0 0.01439664538375358 0 0.03299586387515024 1:0.357415 2:0.20014 3:-0.0124587 4:0.33137 5:-1 6:-1 7:1 8:-1 9:-1 10:-1 11:-1 12:-1 
-0 -2 0 0 0 0 0 1:-0.144842 2:-0.272887 3:-0.618893 4:-0.133245 5:-1 6:-1 7:1 8:-1 9:-1 10:-1 11:-1 12:-1 
-0.2084582693257394 -0 0.112858810009047 0.2656937880546906 0.2474082356928514 0.2082569499296806 0.1567170197142403 1:0.632108 2:0.554387 3:0.503032 4:0.549764 5:-1 6:-1 7:1 8:-1 9:-1 10:-1 11:-1 12:-1 
-0.004042001188534699 -0 0 0.001514597135478281 0 0.0132157862255863 0.006411869320875072 1:0.706674 2:0.50255 3:0.599211 4:0.635779 5:-1 6:-1 7:1 8:-1 9:-1 10:-1 11:-1 12:-1 
-0.3461293513378764 -0 0.1732179545041921 0.4551387136100565 0.3987087671570943 0.3751356182495216 0.2612944508839138 1:0.0535363 2:-0.59516 3:-0.48399 4:0.122408 5:-1 6:-1 7:1 8:-1 9:-1 10:-1 11:-1 12:-1 
-0 -2 0 0 0 0 0 1:0.134207 2:-0.309777 3:-0.373666 4:0.174491 5:-1 6:-1 7:1 8:-1 9:-1 10:-1 11:-1 12:-1 
-0 -2 0 0 0 0 0 1:0.108899 2:-0.248212 3:-0.389634 4:0.137439 5:-1 6:-1 7:1 8:-1 9:-1 10:-1 11:-1 12:-1 
-0 -2 0 0 0 0 0 1:-0.129385 2:-0.365133 3:-0.616975 4:-0.103572 5:-1 6:-1 7:1 8:-1 9:-1 10:-1 11:-1 12:-1 
-0 -2 0 0 0 0 0 1:-0.261198 2:-0.574911 3:-0.730116 4:-0.221816 5:-1 6:-1 7:1 8:-1 9:-1 10:-1 11:-1 12:-1 
-0 -0.4424213050264058 0 0 0 0 0 1:-0.308617 2:-0.486072 3:-0.75467 4:-0.282984 5:-1 6:-1 7:1 8:-1 9:-1 10:-1 11:-1 12:-1 
-0 -0.640246463784289 1.338246702534604 0 0 0 0 1:-0.140998 2:-0.473076 3:-0.636498 4:-0.1025 5:-1 6:-1 7:1 8:-1 9:-1 10:-1 11:-1 12:-1 
-0.027129706093328 -0 0.00804578382367682 0.0212597701797084 0.06792170776137356 0 0.02732743663753309 1:0.346569 2:0.161582 3:-0.0363014 4:0.321681 5:-1 6:-1 7:1 8:-1 9:-1 10:-1 11:-1 12:-1 
